
    // Select all (Ctrl+A), Copy (Ctrl+C), paste to an empty text file (Ctrl+V) and save that file as 'generated_code.h'
    // 
    // Auto-generated header file. Assumes img to be a floating point array
    // of 64 elements (corresponding to an 8x8 b&w image)

    #include <math.h>

    float norma_LL;
    
inline float activation_LL_0 (float x, float n) 
{ return x > 0 ? x : 0;}
inline float activation_LL_1 (float x, float n) 
{ return x > 0 ? x : 0;}
inline float activation_LL_2 (float x, float n) 
{ return x > 0 ? x : 0;}
inline float activation_LL_3 (float x, float n) 
{ return x > 0 ? x : 0;}
inline float activation_LL_4 (float x, float n) 
{ return x > 0 ? x : 0;}
inline float activation_LL_5 (float x, float n) 
{ return x > 0 ? x : 0;}
inline float activation_LL_6 (float x, float n) 
{ return x > 0 ? x : 0;}
inline float activation_LL_7 (float x, float n) 
{ return x > 0 ? x : 0;}
inline float activation_LL_8 (float x, float n) 
{ return x > 0 ? x : 0;}
inline float activation_LL_9 (float x, float n) 
{ return exp(x)/n;  }

    float guess_LL (const float *img, int flag)
    {
    
  // Declare the arrays in the stack
  const float kernel_0[57][50] = 
  {{   0.0850648507476,   0.0116771608591,   0.0460420809686,   0.0431726686656,  -0.1162374392152,  -0.1069499701262,   0.0250574387610,  -0.1252794414759,   0.0647157803178,  -0.1283626556396,   0.0319707579911,  -0.2019371986389,   0.1939270347357,   0.1491094380617,   0.0396613366902,  -0.0409930497408,  -0.0332554616034,  -0.1753844320774,   0.0152735151350,   0.1300516426563,   0.1466794908047,  -0.1577252894640,  -0.0467815361917,  -0.0543016232550,  -0.0385810323060,  -0.0049250703305,   0.1666129976511,  -0.0040513207205,  -0.0019397299038,  -0.0558251999319,  -0.0578030385077,   0.0780695527792,  -0.0207308251411,   0.1596788465977,   0.1051147654653,  -0.1943188011646,   0.0956103280187,  -0.1065143644810,   0.1692021638155,   0.2007649093866,  -0.1847780942917,  -0.1177450045943,  -0.0033895748202,  -0.1924844235182,  -0.1848945617676,   0.0480035096407,  -0.0218416247517,   0.1737149953842,   0.0665446743369,   0.0063638016582},
   {   0.1110122948885,  -0.0708490610123,   0.1642443090677,   0.1250571012497,   0.0231799036264,  -0.0731340050697,  -0.2201186120510,  -0.1402954012156,  -0.0588817633688,   0.1593911796808,   0.1181318312883,  -0.2401599884033,  -0.1552687585354,  -0.2002417594194,  -0.1379722654819,   0.0432313978672,  -0.1517456024885,   0.1766906082630,   0.1118731051683,  -0.1971731930971,   0.1032877042890,  -0.0209822319448,  -0.1933685392141,   0.1537443101406,   0.1356667578220,   0.0980969294906,  -0.0708252415061,   0.1323803514242,   0.1581609249115,  -0.0779800638556,  -0.1971071213484,  -0.1746390461922,  -0.1617746651173,   0.0577852837741,   0.0175765175372,   0.1680666804314,  -0.0246331710368,  -0.0199851933867,  -0.1234275996685,   0.2627924680710,  -0.1740424185991,  -0.1197388619184,   0.0501006990671,   0.1392560750246,   0.0574417747557,   0.1338131874800,   0.1628015637398,  -0.1201798245311,  -0.1440199166536,   0.0914096012712},
   {  -0.0057202633470,   0.1546397805214,   0.0964927002788,   0.0729824006557,  -0.1613272577524,   0.1131599023938,  -0.0378681160510,   0.0300894659013,  -0.1914296597242,   0.1922037601471,   0.1883050799370,   0.1614103019238,   0.1131883189082,  -0.0632659494877,  -0.1839074045420,  -0.1889450997114,  -0.0779591575265,  -0.1908472776413,   0.1162195280194,   0.1946340054274,   0.1222771704197,  -0.0382100343704,   0.0022263149731,   0.1535826027393,   0.1414820551872,  -0.0809284076095,  -0.1628430932760,  -0.0115030575544,  -0.0131484698504,   0.0910153612494,  -0.1818718314171,  -0.0480992719531,  -0.1632644087076,   0.0332112461329,  -0.0605637244880,   0.2183857262135,  -0.2159911245108,  -0.2301226109266,   0.1124647930264,  -0.0171118844301,   0.1024401485920,   0.0723576992750,   0.0695703476667,   0.1824235469103,   0.0628148913383,  -0.1241636127234,   0.0893418639898,  -0.2505863606930,   0.1477269679308,  -0.1741395294666},
   {  -0.1702029705048,  -0.1030146107078,   0.1958138644695,   0.0009194595041,  -0.2293375730515,   0.1375955492258,  -0.1428072005510,  -0.1752851456404,  -0.0341524370015,   0.0896604880691,   0.0855060592294,  -0.0963265448809,   0.1614065319300,  -0.0318971835077,  -0.1066178679466,   0.0757280960679,   0.0640818029642,  -0.1744772344828,   0.2243890762329,  -0.0401979237795,  -0.1205503270030,  -0.1453369408846,   0.1036634221673,  -0.0014304252109,   0.1157903224230,  -0.2292352616787,   0.0608488246799,   0.0538362562656,   0.0578036680818,  -0.0034083253704,   0.1817561537027,  -0.1015276089311,   0.2086550295353,   0.0639353990555,  -0.0294265672565,   0.0153930168599,  -0.0122335441411,  -0.0546821504831,  -0.0856522023678,   0.1130034774542,   0.1379550695419,   0.1651015132666,  -0.1269844472408,  -0.0087792817503,  -0.0568339079618,  -0.1089608147740,  -0.0056366599165,  -0.1391571462154,  -0.1306380331516,  -0.0552733764052},
   {   0.1208561211824,   0.0551539324224,   0.1717703938484,   0.1171238794923,   0.0951786488295,   0.0340178161860,   0.1829162836075,   0.1508737653494,   0.1169864237309,   0.1423325389624,   0.1278447508812,  -0.0660560056567,  -0.1603225469589,   0.0078607909381,   0.0898845791817,  -0.0971538275480,  -0.0302131548524,   0.1037660986185,  -0.2152969539165,   0.0674148797989,  -0.0374483652413,  -0.0808488130569,  -0.0653336644173,   0.1578555405140,  -0.0628930851817,   0.1018842086196,  -0.1484286487103,   0.2184181511402,  -0.0744918435812,  -0.0680463984609,   0.0009285463602,   0.0770532265306,   0.0116355270147,  -0.0882807746530,  -0.1430804133415,  -0.0404860600829,   0.0550471730530,   0.0889350697398,  -0.0323335975409,   0.0417707301676,   0.0950604677200,  -0.0797419697046,   0.0180448815227,  -0.2239424735308,   0.0442957505584,   0.1792380362749,  -0.1622665971518,  -0.0941768661141,  -0.2528816163540,   0.0941899493337},
   {   0.0976017415524,  -0.0172202009708,   0.0486400313675,   0.1644387990236,   0.0046067931689,  -0.0097221368924,  -0.1408133506775,  -0.0773999914527,   0.0098056662828,  -0.0371801070869,  -0.1917254477739,   0.2321117073298,   0.0345645546913,   0.1069986373186,   0.1312019377947,   0.0686268955469,   0.1936912983656,   0.1887682080269,   0.1671880930662,  -0.2660633027554,   0.0751511007547,   0.0611397661269,   0.0539558753371,  -0.1968836933374,   0.0302336513996,   0.0553816705942,   0.0397944301367,   0.1948086172342,   0.1045494526625,   0.2271760553122,   0.2184208780527,   0.0640839636326,  -0.1776703745127,   0.2304320931435,   0.0760458931327,  -0.2022183537483,   0.1127692013979,   0.0654344409704,   0.0037409856450,   0.0620666518807,  -0.1521537452936,   0.0911558419466,  -0.1509357094765,  -0.1701278984547,   0.0048847692087,  -0.1799291074276,  -0.0184988714755,  -0.1231027692556,  -0.2181943356991,   0.1859007775784},
   {  -0.1464658528566,  -0.0718778595328,  -0.0493118576705,  -0.0753006786108,   0.1433022767305,  -0.1605091392994,  -0.0598217993975,  -0.2155891805887,  -0.0796740576625,  -0.2378985583782,  -0.1108651310205,   0.0292679183185,  -0.0017223421019,   0.1120242401958,   0.0189760904759,  -0.1135400086641,   0.0554083064198,   0.1135867238045,   0.0545336417854,   0.1427962929010,   0.1869235038757,   0.1760444194078,   0.1880812942982,   0.0320478901267,  -0.1000909507275,  -0.1608631014824,   0.0917865410447,   0.0769201144576,   0.0918875485659,   0.1901096999645,  -0.2221769094467,  -0.0421706959605,   0.0607680864632,  -0.0897805616260,  -0.2129088789225,   0.0849453732371,   0.1534979939461,   0.1035368666053,  -0.1231290251017,  -0.1149370148778,   0.0891373977065,  -0.0863859131932,  -0.0389197617769,  -0.1496140658855,   0.1261716783047,  -0.2409158200026,  -0.1753799766302,  -0.0749509409070,  -0.2666362524033,  -0.2091368883848},
   {  -0.0501440688968,  -0.1345355957747,  -0.1342163980007,  -0.0616083443165,   0.1282079815865,  -0.1159096658230,   0.2001505643129,   0.1902536153793,   0.1626796871424,  -0.1076957881451,  -0.0646812319756,  -0.1924939304590,   0.1214030310512,   0.1991450637579,   0.1456066966057,  -0.0271716285497,   0.0241362079978,   0.2722718417645,  -0.0516130998731,   0.1638347655535,   0.1439533531666,   0.0861521363258,   0.1042080149055,  -0.1078825071454,   0.1207119300961,  -0.0343892984092,  -0.2113810330629,  -0.1332883536816,  -0.0741849392653,  -0.0899299681187,   0.0028321656864,   0.0454515665770,   0.0491473749280,  -0.1521263569593,  -0.1191574335098,   0.1523826420307,   0.2296343594790,   0.2156741023064,  -0.0909777358174,   0.2210757285357,   0.1771341115236,  -0.1878636479378,   0.1196366399527,  -0.1616800576448,   0.0930580198765,  -0.1297240257263,  -0.1150999218225,   0.1139287650585,   0.0553682707250,   0.1619912087917},
   {   0.1238965243101,   0.1276709437370,   0.0156437046826,   0.0122705567628,  -0.0578817352653,  -0.0360462106764,   0.1620210558176,   0.1691248863935,   0.0692946910858,  -0.0566520281136,   0.1545429229736,  -0.1231198310852,   0.1822615861893,   0.1687172651291,   0.0856541842222,  -0.1357965022326,  -0.1883961260319,   0.0930661410093,  -0.1303828656673,   0.2148850113153,   0.1057145670056,  -0.0525145456195,  -0.2237158119678,   0.0296200029552,   0.0004969288129,  -0.0219609960914,   0.1196302548051,  -0.1558905094862,  -0.0679803639650,   0.0253026485443,  -0.0952846556902,   0.0254529081285,   0.1504230499268,  -0.1601901948452,   0.1773212403059,   0.1626747101545,  -0.0758446455002,   0.2172210067511,  -0.0749393925071,  -0.1856356561184,   0.1081753000617,  -0.1075483337045,   0.0352661535144,   0.1307770311832,   0.0743400603533,  -0.0914706736803,   0.1991671323776,  -0.1198385655880,   0.0829997807741,   0.0940598696470},
   {  -0.0072317295708,   0.0739902406931,  -0.1736523658037,   0.1565006375313,   0.1054809913039,  -0.1524366438389,   0.1752887368202,   0.0906121060252,  -0.2145704329014,   0.0301977973431,   0.0713552534580,  -0.0230697691441,  -0.2243462800980,   0.1306899338961,   0.0687168836594,   0.0962863788009,   0.1280953437090,  -0.2130804508924,   0.0247830227017,   0.1715116500854,   0.0107891252264,   0.0229893829674,  -0.2078477144241,   0.0492907799780,   0.0948101356626,   0.1656653881073,   0.1108371168375,   0.1920615881681,  -0.0356358736753,  -0.1431664973497,  -0.1646899282932,  -0.1645480692387,  -0.0889936313033,   0.0172009468079,   0.0179927721620,   0.1184058040380,  -0.1303434818983,  -0.1755878478289,   0.0852791145444,  -0.1916319280863,   0.0823295861483,   0.1748849302530,   0.0312816277146,   0.1300181746483,   0.1637655943632,  -0.0529417730868,   0.2459282130003,   0.0218310188502,   0.0275267399848,   0.1974129825830},
   {  -0.0186145063490,  -0.0426605306566,  -0.1422480940819,  -0.2607139647007,   0.2224617749453,  -0.1190143376589,   0.0083551658317,  -0.0007816379075,  -0.0471185371280,  -0.1071812286973,   0.1781247854233,   0.1588305979967,   0.1455039530993,  -0.2062733769417,   0.0483080670238,  -0.1158484965563,   0.1302897930145,   0.0424527227879,   0.1790713220835,  -0.1588324904442,  -0.1776910275221,  -0.1681162714958,  -0.0549874790013,  -0.0930440574884,   0.0735940113664,   0.0784221142530,   0.1790901422501,  -0.0811718851328,   0.0653520524502,   0.0289498288184,  -0.1743831336498,  -0.0162327010185,   0.2049278169870,   0.1589677631855,   0.0841474831104,   0.0328704230487,  -0.0013510851422,  -0.2319405227900,  -0.0042127855122,  -0.0616598650813,   0.1245850697160,   0.1605358719826,  -0.1820410937071,   0.1597123891115,  -0.0916530117393,  -0.0131888389587,   0.0243952348828,   0.1469404548407,   0.0602888986468,  -0.1909481287003},
   {  -0.0545354820788,   0.0185055546463,   0.0297861173749,   0.2217078208923,  -0.1775543093681,   0.1011027097702,   0.2398900389671,  -0.1151301935315,   0.0549195036292,   0.0519446581602,   0.2174237519503,  -0.1456677913666,  -0.2419657707214,   0.1609361171722,   0.0101164374501,   0.0167648848146,   0.0141851920635,   0.0122841196135,   0.2414732128382,  -0.0908363088965,   0.2163740247488,  -0.0520624294877,   0.0767162367702,  -0.0724578276277,  -0.2353224605322,   0.0982704237103,   0.0644851028919,   0.0218984335661,   0.2671523690224,  -0.0700108408928,   0.1826058328152,  -0.0835298970342,   0.0969259515405,  -0.1121164485812,   0.1792366057634,  -0.0337126292288,   0.1170628368855,  -0.0466471724212,  -0.1668513715267,   0.1281349509954,   0.0109881386161,  -0.2182332873344,  -0.0665770173073,  -0.1449193060398,  -0.0065430910327,  -0.0592489205301,  -0.1102752313018,   0.0616161711514,  -0.0032951501198,   0.1786660552025},
   {  -0.2255920171738,   0.0885496661067,  -0.2162254154682,  -0.1027414053679,   0.1713180840015,  -0.0362684316933,  -0.1954291015863,  -0.2597505152225,  -0.1754903793335,  -0.2265883833170,   0.2243313342333,   0.1469963192940,  -0.2247021347284,  -0.0373323187232,  -0.1414163410664,   0.0668909251690,   0.0828166007996,  -0.2170056104660,  -0.2135691791773,   0.0305459424853,   0.1455101370811,   0.2029592543840,   0.2166812717915,  -0.1094455420971,  -0.1754308789968,  -0.1173954755068,   0.1510054916143,   0.0052387593314,   0.1410981714725,  -0.1123975440860,  -0.2529582679272,   0.2060926407576,  -0.0217150691897,   0.1347589939833,  -0.0169148929417,  -0.2417563647032,  -0.0302770063281,  -0.1568119674921,  -0.0494033955038,   0.1334746330976,  -0.2228532880545,  -0.1189559102058,  -0.0694383606315,   0.2287767678499,  -0.1421492993832,   0.1281711310148,   0.0925097763538,  -0.1446591019630,  -0.1700955033302,   0.2028772681952},
   {  -0.0022529482376,  -0.1015245988965,   0.0187177173793,  -0.0215549264103,  -0.0023995297961,  -0.0409904569387,  -0.0445019714534,  -0.0878077298403,  -0.1903270632029,   0.1544733643532,  -0.0014566360041,   0.1500777006149,  -0.1880326420069,   0.1354928314686,   0.0920965373516,  -0.1416029334068,   0.1730541288853,   0.1157623156905,  -0.0921309813857,  -0.1421324908733,   0.2730548083782,   0.1614130735397,   0.1646205037832,   0.1673310995102,  -0.0121364500374,  -0.1242590844631,  -0.1087397485971,  -0.0750208795071,   0.1377461552620,  -0.2652317285538,   0.1748669296503,  -0.0939865484834,   0.0947530865669,  -0.2389187216759,  -0.0295101702213,   0.1578252911568,   0.2270825356245,  -0.1841495186090,  -0.2139214277267,   0.1425803899765,  -0.1684305071831,  -0.0587605945766,  -0.1874732375145,   0.0472473949194,   0.1019354686141,  -0.0568265505135,  -0.1739847213030,  -0.1928966939449,  -0.2420224249363,  -0.0759344175458},
   {   0.0663974806666,   0.1737529039383,   0.0780909657478,   0.0020502863917,  -0.1373833268881,  -0.1425941884518,  -0.2417409867048,  -0.1214612945914,  -0.0447445511818,  -0.0766976252198,   0.0448643043637,  -0.0807995572686,  -0.0024221441709,  -0.1928149759769,   0.2595126330853,   0.1884415894747,  -0.1210513710976,  -0.1878768950701,  -0.0068334722891,  -0.1853895485401,   0.1201688274741,   0.1094571724534,  -0.0177197195590,   0.1032145693898,  -0.1031793206930,  -0.0515274368227,   0.1277741342783,   0.1567365974188,  -0.1369190812111,   0.1880542784929,   0.1690814346075,   0.1766048818827,   0.1161526441574,  -0.0597078613937,   0.0438288636506,  -0.0479075014591,   0.1813546568155,   0.0596618801355,  -0.0934681370854,  -0.0924847424030,  -0.0484573654830,  -0.1663466095924,  -0.1675387769938,  -0.0695223137736,  -0.1775970757008,   0.1891382187605,   0.2189113944769,   0.1283333003521,   0.2421157807112,  -0.1057738587260},
   {   0.0483520478010,  -0.0730019435287,   0.0744943097234,   0.1140528917313,   0.0437105111778,  -0.0333247780800,   0.2520576119423,  -0.1786711215973,  -0.2038930654526,  -0.1690009087324,   0.0615526251495,   0.0851943418384,   0.0389008820057,  -0.0818134546280,   0.0419307872653,  -0.0753339678049,  -0.1565627604723,  -0.0063750231639,  -0.0368326641619,  -0.0139775592834,  -0.0940033271909,   0.0958045199513,  -0.0819061473012,  -0.0688902586699,  -0.0264533907175,  -0.0193034652621,   0.0324422754347,  -0.0543709993362,   0.1551183909178,  -0.0128037566319,   0.1344469636679,  -0.0774003416300,  -0.0087667787448,   0.0828657895327,   0.1435433179140,   0.0432183183730,  -0.0210800375789,   0.0934564173222,   0.0556309148669,   0.0732473507524,   0.0648416951299,  -0.1128104701638,   0.2172483652830,  -0.0157170984894,   0.1091699749231,   0.1468505412340,   0.1288773417473,   0.0492217391729,  -0.1422264873981,  -0.2224783003330},
   {  -0.0160416066647,  -0.1948840022087,  -0.2040369808674,  -0.0051488419995,   0.2522198557854,  -0.1298077404499,  -0.0100427642465,  -0.2115758806467,  -0.2280753105879,  -0.1458843648434,  -0.1650160700083,   0.1131405383348,   0.0781719535589,  -0.0102322408929,   0.1677120029926,  -0.2017203718424,  -0.0779666975141,  -0.0804854184389,  -0.0862613841891,   0.2507799565792,  -0.1188866272569,  -0.2013227492571,   0.1610393971205,  -0.0080856559798,  -0.1365354508162,  -0.2650228738785,   0.1299314200878,  -0.0579754635692,  -0.0488133579493,  -0.1137950345874,   0.2106104493141,   0.0616554357111,   0.0853591412306,   0.0596022456884,  -0.1552999615669,   0.0556006133556,   0.0519609116018,   0.0624331682920,   0.0503243952990,   0.2314605861902,  -0.0093444874510,   0.1148502156138,   0.0065905661322,   0.1764183789492,  -0.2521810829639,   0.0948454961181,  -0.1813315600157,  -0.1232721135020,   0.0613184422255,  -0.1544847190380},
   {   0.0829475596547,  -0.0254324115813,   0.0372125618160,   0.2345281988382,  -0.2227046638727,   0.0623093731701,   0.0379537642002,   0.0743788033724,   0.0618786029518,  -0.0920675396919,  -0.1064433977008,   0.0978315472603,   0.2437578141689,   0.1239010915160,  -0.0251017622650,  -0.0836401358247,  -0.0039421068504,  -0.2478885799646,  -0.1618158370256,  -0.1810220330954,   0.1246470436454,  -0.0814134255052,  -0.1025757268071,   0.1555918604136,  -0.2289610356092,   0.0337711460888,   0.1173757761717,   0.0428948998451,  -0.2324770390987,  -0.0615226738155,  -0.1340429633856,   0.1607129126787,  -0.1764789223671,  -0.1296985894442,   0.1036394461989,   0.1344701945782,   0.0746866315603,  -0.1765063852072,  -0.0973066389561,   0.0441555678844,   0.0226638782769,  -0.0702513977885,  -0.2134633660316,  -0.1161531507969,   0.0294060166925,   0.0495822206140,  -0.0919490084052,   0.0078268796206,  -0.1710698306561,   0.0944328606129},
   {   0.0648658573627,   0.1531623452902,   0.0812292844057,  -0.1272781342268,   0.1355445384979,   0.1902395039797,   0.1080605313182,   0.0351296141744,   0.0962792932987,   0.1403508484364,  -0.1363130807877,  -0.1733466088772,  -0.2112413644791,  -0.0982381626964,   0.1191123649478,   0.0877142101526,  -0.0201487168670,   0.1076856926084,  -0.0740113407373,   0.1586440205574,  -0.1661116778851,   0.1690556555986,   0.0129104591906,  -0.2381781786680,   0.0234529767185,   0.0445644594729,   0.1727996170521,  -0.0427037924528,  -0.1736718118191,   0.2683460116386,   0.1236480996013,   0.0015748058213,  -0.0517767742276,  -0.1427755355835,   0.0745858922601,  -0.2008834779263,  -0.0758471414447,  -0.1438615173101,   0.0969482958317,  -0.1648909598589,  -0.0658668279648,  -0.0495523475111,  -0.0647998377681,   0.1983348876238,   0.1158113405108,   0.2016392201185,  -0.0171626713127,  -0.2124755084515,  -0.0320448391140,  -0.2006987333298},
   {   0.1715366244316,   0.1525618731976,   0.1203644424677,   0.0779113993049,  -0.0938844531775,   0.1714684367180,  -0.0834611281753,   0.0181311536580,   0.2455270290375,   0.0107751926407,   0.1336943358183,  -0.2065741866827,   0.0084773832932,   0.0589188747108,   0.0868807658553,   0.0610282085836,   0.2091811746359,  -0.0061718537472,  -0.0607274696231,   0.0747570171952,  -0.1043537259102,   0.2132224142551,   0.0095114205033,   0.0946664139628,   0.0010746988701,   0.0980345457792,  -0.1165719777346,  -0.0331009514630,  -0.0143701303750,  -0.1523856222630,  -0.1561053395271,  -0.2642548382282,  -0.1916720718145,   0.0344889238477,  -0.1583689749241,  -0.0419117063284,   0.2088087946177,  -0.0873566791415,  -0.1892036646605,   0.0664896741509,  -0.1066676154733,   0.0192288476974,  -0.1242412775755,   0.2153178304434,  -0.0472682118416,   0.1309657692909,  -0.2218465805054,  -0.1272650957108,   0.0034919711761,   0.1652152687311},
   {   0.1163216531277,  -0.1544702351093,   0.2200233787298,  -0.1230430081487,   0.0432255789638,   0.0475990176201,  -0.0081639168784,   0.0633151829243,  -0.0347420908511,   0.0733151659369,   0.1813478171825,  -0.0186140034348,  -0.2055060416460,   0.1028141155839,  -0.1639538556337,   0.0871136188507,   0.0052958987653,   0.0495361350477,  -0.1954756528139,   0.0195150282234,  -0.0224567670375,   0.1051116958261,   0.0483279339969,   0.0188347809017,  -0.1352063715458,   0.1660688668489,  -0.1512844413519,   0.0009226887487,  -0.0121978204697,  -0.0716550424695,   0.0330429896712,  -0.0995680317283,  -0.1305797696114,  -0.2315591573715,   0.0508464351296,  -0.2179655730724,  -0.2653275430202,   0.1191311627626,   0.0965180695057,   0.1962300837040,   0.2308244556189,   0.2213245183229,   0.0555630251765,  -0.0045174444094,  -0.1005114838481,  -0.2428823113441,   0.2191014736891,  -0.1378884613514,  -0.2408460080624,  -0.1819953173399},
   {  -0.2092429995537,  -0.0450178682804,   0.0515862368047,   0.1325294673443,  -0.0495211519301,  -0.0060185431503,   0.0082757622004,  -0.0294911023229,  -0.0492824688554,   0.2221660166979,  -0.0144020039588,  -0.2556986212730,   0.0708316117525,   0.2385973483324,  -0.0491559766233,   0.1602915674448,  -0.0168196093291,  -0.1319881081581,  -0.0756380632520,  -0.1363166570663,   0.0868201628327,   0.1114813014865,  -0.0060140322894,   0.1118730753660,  -0.1749460101128,   0.0421324148774,   0.0846842825413,  -0.1203428506851,   0.0949906855822,  -0.1789530515671,   0.0386994853616,  -0.0219368580729,   0.0220918841660,  -0.1761746555567,  -0.0547189451754,  -0.0341529212892,  -0.0691340118647,   0.2135815024376,  -0.0525253638625,   0.1227956935763,   0.0758213624358,   0.0952309668064,   0.0607882514596,   0.1095170453191,   0.1598840206861,   0.1442293971777,   0.0127401435748,  -0.0850967764854,   0.1037904322147,   0.2453708052635},
   {  -0.1855376213789,   0.1280352175236,   0.1125195026398,  -0.0845751464367,  -0.0761477425694,  -0.1851548552513,  -0.0134727265686,  -0.0597583837807,   0.2090694308281,  -0.2074997127056,  -0.1193555369973,  -0.1239624544978,  -0.1624098271132,   0.1287296861410,   0.2325810790062,  -0.1939221322536,  -0.1178690791130,   0.0807559639215,   0.1650896072388,  -0.1633013039827,   0.1533401310444,   0.0496972128749,  -0.2440662980080,   0.0326223187149,   0.0517134033144,  -0.0174164827913,   0.0331265777349,   0.2469172775745,  -0.0683736875653,   0.0736273601651,  -0.2640050947666,   0.1725905239582,   0.1723046302795,   0.0252435393631,  -0.0565751828253,  -0.2014713138342,  -0.0311609916389,   0.1269368678331,  -0.0017511389451,  -0.1349994540215,  -0.0464051552117,  -0.1329841762781,  -0.1831322014332,   0.0081840492785,  -0.1902387589216,   0.1589595079422,  -0.0871266052127,   0.1445086747408,  -0.0090948240831,   0.2017440199852},
   {   0.1830305606127,  -0.1532165557146,  -0.2077412009239,   0.0598872005939,   0.1547569483519,  -0.0349582396448,  -0.0413426645100,   0.0676613152027,   0.2208008170128,  -0.1442851424217,   0.0118687395006,  -0.0699477791786,  -0.0563440322876,   0.0868820026517,  -0.0183921214193,   0.0219660233706,  -0.0235158000141,  -0.1061555296183,   0.1499179303646,   0.2331236153841,  -0.1628637909889,   0.1885186135769,  -0.2163986265659,   0.1689057350159,   0.2105088680983,   0.1323465555906,  -0.1127761229873,   0.0661317706108,  -0.1558565348387,  -0.0018468841445,  -0.1249559372663,   0.0074450178072,  -0.0749757736921,  -0.2048603743315,  -0.0790038704872,   0.0967539846897,   0.2391107976437,   0.2369566857815,  -0.0592052191496,   0.0993343442678,  -0.1004955768585,   0.1052600517869,   0.0912482216954,   0.1346704661846,  -0.0411613956094,   0.2584059238434,   0.0450155325234,  -0.1950454413891,  -0.0567431859672,   0.1451504677534},
   {  -0.2090293914080,  -0.2422812879086,   0.1390948444605,  -0.0614672861993,  -0.1585294008255,  -0.1263143867254,  -0.0839964970946,   0.2413858771324,   0.1758275479078,  -0.0938491746783,  -0.1806465536356,   0.0750442594290,   0.0231073740870,  -0.1487500965595,  -0.1334294229746,   0.0147185930982,  -0.1560196131468,  -0.0267133135349,  -0.1817707270384,  -0.0572747141123,  -0.0124913100153,  -0.2008705884218,   0.1735959500074,   0.0424496270716,   0.0281868036836,  -0.0418280735612,  -0.1763380318880,  -0.0657065063715,   0.1326724588871,   0.1413294672966,  -0.1238955482841,   0.0403388440609,  -0.0312962494791,   0.1871675550938,  -0.0494612492621,   0.1006970182061,   0.2226924300194,   0.0250891037285,   0.1334841698408,  -0.1624259948730,  -0.1784162521362,  -0.0637281090021,   0.0581322908401,  -0.0920935794711,  -0.0356468297541,  -0.1967753916979,   0.1999989449978,   0.2488696128130,  -0.0950436741114,  -0.1814675480127},
   {  -0.0647981613874,  -0.0676724761724,  -0.0008941082051,  -0.1518351882696,   0.1595262587070,  -0.2565555870533,   0.2078121006489,  -0.0693339928985,   0.0141175659373,   0.0307196639478,   0.0801470875740,   0.0129519263282,  -0.2031671404839,   0.2469484806061,  -0.0975304394960,  -0.0594585873187,   0.1162732467055,  -0.1239605173469,  -0.1028028577566,  -0.2056128382683,  -0.2086437493563,  -0.1767865568399,   0.2602773904800,  -0.0828738138080,   0.2257926017046,   0.1347822248936,   0.2440008819103,   0.0568004362285,   0.2296188771725,  -0.0696021988988,  -0.1357419639826,   0.0856602564454,   0.0893909260631,  -0.0383665226400,   0.0467971861362,   0.0009846860776,  -0.1356713622808,  -0.1555482596159,  -0.1732982248068,   0.2137094736099,  -0.2009544223547,   0.2004680186510,   0.1387045383453,   0.1921643167734,  -0.1747780442238,   0.1797031015158,  -0.2392780333757,   0.0647252351046,   0.2305730283260,   0.1608074605465},
   {   0.1494634747505,   0.1804343760014,   0.2153049558401,   0.0074315303937,  -0.0009533596458,  -0.0524896569550,  -0.0840388834476,  -0.0902498587966,  -0.1996221691370,   0.1428279429674,   0.1761512905359,   0.0265387427062,  -0.0158508867025,  -0.1261284500360,  -0.0694744735956,  -0.1598115563393,   0.2283104956150,   0.0743284747005,   0.0845679640770,   0.2096648663282,  -0.1492113471031,   0.0002742548822,  -0.0165061485022,   0.0461643002927,   0.2021137028933,  -0.1730249673128,   0.0265206210315,   0.2120123058558,   0.0997836515307,   0.0521155185997,   0.2335310876369,   0.1392015367746,   0.1764849871397,   0.0545505695045,   0.0049165617675,  -0.0071342820302,   0.1504665166140,   0.1573240011930,   0.1091220229864,   0.0148300565779,   0.1630055457354,   0.0578411668539,   0.0866785123944,   0.0766902565956,  -0.0044240998104,  -0.0278004277498,  -0.2234413027763,  -0.1766800135374,   0.1046958938241,   0.0502562895417},
   {   0.1298289597034,   0.1283026337624,   0.0288060344756,  -0.0022277587559,  -0.2094376683235,  -0.0191306900233,   0.1673363596201,  -0.2096633315086,   0.0784970447421,  -0.1343266665936,  -0.1916230022907,   0.1893597245216,  -0.0470050200820,  -0.1570649147034,  -0.0904516056180,  -0.0414934232831,  -0.1859604418278,  -0.0248304400593,   0.1810068190098,  -0.1972902119160,   0.1235051304102,   0.0723177045584,   0.2058756202459,  -0.0714477300644,   0.1387495398521,  -0.1968954205513,   0.1397673785686,  -0.0833920836449,  -0.0530873760581,   0.1393185853958,   0.0186342876405,  -0.1569850891829,   0.0543817728758,   0.1924192458391,   0.0741550400853,  -0.0823755115271,   0.1833602190018,  -0.2394497543573,  -0.1138146519661,   0.0055257179774,   0.0654429942369,   0.0650008693337,  -0.0134080769494,  -0.0188028309494,  -0.0811578184366,   0.1708247959614,   0.1266790181398,   0.0865573883057,   0.0604893714190,  -0.0086169503629},
   {   0.1015483811498,   0.0759126320481,  -0.1531448364258,   0.1965957581997,  -0.1466004103422,   0.1692823022604,  -0.0417132526636,  -0.1502954959869,  -0.0751867815852,  -0.0368703193963,  -0.1619598716497,  -0.1005244925618,  -0.1630153506994,  -0.2017376869917,  -0.0721236765385,  -0.0720041841269,  -0.0468114875257,  -0.0075247841887,  -0.1270488500595,   0.0500341132283,   0.1753461211920,   0.0695697367191,  -0.0567084737122,  -0.2063700705767,   0.2109798192978,  -0.1920774728060,   0.2540749013424,   0.1636451780796,   0.1371553540230,  -0.0023706776556,  -0.1114074960351,   0.1474074870348,  -0.0878950282931,   0.1808580309153,  -0.1966637372971,  -0.1012136638165,  -0.0454757884145,   0.0888944938779,   0.0042448849417,   0.1919838190079,   0.1035041287541,   0.2493765652180,  -0.0106675866991,   0.0282614845783,  -0.1537344306707,  -0.0931867286563,   0.1268582791090,   0.0408292114735,   0.1222509741783,  -0.1228652372956},
   {   0.0790889039636,   0.1115824505687,  -0.2053671479225,   0.0880845263600,  -0.0450380705297,  -0.1149067729712,   0.1795014292002,   0.1031662672758,   0.1136532500386,   0.1903521418571,   0.2278832793236,  -0.1717087328434,   0.0374784432352,   0.1881614923477,   0.1859419047832,   0.0723751410842,   0.0752307027578,   0.1558869928122,   0.0611632354558,   0.0845592468977,  -0.1267183721066,  -0.2275961190462,   0.0090497909114,  -0.1533956974745,   0.2329815179110,  -0.0394518151879,  -0.1241486296058,   0.0001187054659,  -0.2143038958311,  -0.1495078206062,  -0.1587248891592,  -0.1837816834450,   0.1478188335896,   0.1382134109735,   0.1109940707684,  -0.0922622606158,   0.0219547096640,   0.0216014087200,   0.0342619605362,  -0.2147772759199,  -0.0692283809185,  -0.1646442115307,   0.0555033683777,   0.0900651663542,   0.1366870403290,   0.1372192800045,   0.2117658555508,  -0.1110594794154,   0.2552331984043,  -0.0456591956317},
   {   0.1360510140657,  -0.0937988087535,  -0.1910488754511,   0.2152397483587,  -0.1824345439672,   0.0507453605533,  -0.1362039744854,  -0.0275682564825,  -0.1187691837549,   0.0783294737339,   0.0168178100139,   0.0199763607234,   0.0262203365564,   0.0418376326561,   0.0659021139145,  -0.2249607592821,   0.0884979292750,  -0.0032958036754,  -0.0025755409151,   0.1195040643215,   0.1957391202450,  -0.1148807853460,  -0.1018695384264,  -0.1662518382072,  -0.0702057480812,   0.2272304594517,  -0.2110107392073,   0.1886328905821,  -0.0848592892289,   0.2351000159979,  -0.0511430054903,  -0.1555309295654,   0.0106043685228,   0.1961102634668,  -0.2317021042109,  -0.1564217805862,  -0.0506721585989,   0.0768916681409,   0.1177540495992,  -0.2453268468380,   0.2425218820572,   0.1437910199165,   0.1801821589470,  -0.1473285853863,   0.1505628228188,   0.0172503851354,  -0.2110420018435,   0.0779316499829,  -0.1176072508097,   0.0856098607183},
   {   0.1704175323248,   0.0458709597588,  -0.1369256675243,  -0.0258367937058,   0.1830447465181,   0.0259963423014,  -0.1224237754941,   0.2336268126965,   0.1633103787899,   0.1847234219313,  -0.0013805420604,   0.1830818653107,   0.2247776240110,  -0.0924468263984,  -0.1919400840998,   0.2630743980408,   0.1764165312052,  -0.2512916028500,  -0.1429803967476,  -0.0583074949682,   0.0736292302608,   0.0787469372153,   0.0002366609260,  -0.0929928496480,   0.0097654359415,  -0.0854121968150,   0.0898001641035,  -0.1908926814795,   0.0520424544811,  -0.0516890548170,  -0.0879373624921,   0.0824272036552,  -0.1786745339632,  -0.1560555696487,  -0.1643390804529,  -0.1909064501524,  -0.0312627442181,  -0.2425217330456,  -0.1470318734646,   0.0308148823678,  -0.0978259220719,  -0.1645009517670,  -0.1944538503885,   0.1394516825676,  -0.0374670289457,  -0.1915332973003,  -0.1753323525190,   0.0930177867413,  -0.0472827441990,   0.1005033478141},
   {  -0.2069410085678,  -0.1799765527248,  -0.1861331909895,  -0.0459398329258,   0.2325345277786,  -0.0564817264676,   0.0330783128738,   0.0689650774002,   0.1335330158472,   0.0105729652569,  -0.0124715529382,   0.0371759422123,  -0.0424178726971,   0.0065962742083,   0.1642477065325,  -0.2160853743553,   0.2374359220266,   0.1460238993168,   0.0588824898005,   0.2463434189558,   0.1714659482241,  -0.2244392782450,  -0.1959029585123,   0.0609808266163,   0.0841135308146,  -0.0044755698182,  -0.0157909952104,  -0.0883356630802,   0.1949833780527,  -0.1509804874659,  -0.0220608431846,   0.0057670446113,   0.2387463152409,  -0.2179144024849,  -0.1967992931604,   0.0100934496149,  -0.1004971861839,  -0.1236134991050,  -0.1197676584125,   0.1532438546419,   0.0884916931391,  -0.0348517261446,   0.1116033047438,  -0.1364456266165,   0.0852071866393,   0.1425371319056,   0.1088385656476,   0.1120566204190,  -0.0720403194427,   0.0885007828474},
   {  -0.1338373124599,   0.1542684882879,   0.1531992852688,  -0.1897046566010,   0.1066541001201,   0.0395268686116,  -0.2206695079803,   0.2005082964897,   0.2343388497829,   0.1709478646517,   0.1877523958683,  -0.0586742423475,  -0.0274691376835,   0.1257802397013,  -0.0442797429860,  -0.0836375057697,   0.1948138028383,   0.1851180195808,  -0.0118031166494,  -0.0392576083541,  -0.1323082149029,   0.0254329703748,  -0.1638242304325,   0.1175310686231,  -0.0766445323825,   0.0529119260609,   0.1199256852269,  -0.1154433563352,  -0.0121061969548,  -0.1322701573372,   0.2059005647898,   0.2162676006556,   0.1685302704573,   0.0921104773879,  -0.0228757858276,   0.1826329827309,   0.1322306543589,   0.2294288426638,  -0.1180950924754,   0.1894849687815,   0.1086959987879,   0.1374529898167,  -0.1510291099548,  -0.0804012641311,   0.0954635441303,   0.0435730405152,  -0.2457537949085,  -0.0997320264578,   0.1573065817356,   0.1384038329124},
   {  -0.1236544847488,   0.2534742057323,  -0.0480539426208,   0.1562744975090,   0.2149467766285,   0.0614244602621,   0.0331475213170,  -0.2373358607292,  -0.1640838980675,   0.0338056758046,   0.0501820258796,   0.1485628634691,  -0.2042104154825,   0.1510218381882,   0.2022904455662,  -0.0318285562098,  -0.0917038619518,  -0.1305646896362,   0.1241314038634,   0.0365186147392,   0.2412797808647,  -0.0723106488585,   0.1426766812801,   0.1576520204544,   0.1386470347643,   0.0478022918105,  -0.1723866909742,   0.1396334320307,   0.1690917760134,  -0.1897152066231,  -0.1348537802696,   0.0814347043633,   0.1027599573135,   0.2253974378109,   0.1236566826701,   0.2031773477793,  -0.1783230304718,   0.0776512622833,  -0.0335451066494,   0.0625380054116,   0.0852860361338,   0.0788742750883,   0.0553937070072,   0.2379608601332,  -0.1848431825638,  -0.0192305371165,   0.1963304430246,  -0.1894759833813,   0.0509949661791,  -0.1225319653749},
   {   0.0445993319154,  -0.2441499978304,   0.2217411845922,  -0.0619402751327,   0.1279130429029,  -0.0947899371386,  -0.2240328490734,   0.1441382467747,   0.0528922900558,  -0.0818076506257,  -0.0943922027946,   0.2383052706718,   0.1036645695567,   0.0255145095289,  -0.0326469764113,   0.0696654468775,  -0.2530966103077,  -0.0649830400944,   0.0785449221730,   0.0616927072406,   0.1491170823574,   0.2106453329325,  -0.2113649845123,   0.0645378082991,   0.1395982056856,  -0.1544081270695,  -0.2380358278751,   0.0863129422069,  -0.2458212077618,   0.0386368632317,   0.1060352697968,  -0.0574987269938,   0.0797347873449,   0.1922979652882,   0.0464128740132,   0.0441251955926,  -0.1036212518811,  -0.1149776205420,   0.1154013797641,   0.0903005376458,   0.0462713576853,  -0.0554960928857,   0.0759245753288,  -0.0244177859277,   0.0714118406177,  -0.0697981715202,   0.1952596753836,  -0.0763737335801,   0.2351791113615,  -0.1068837791681},
   {   0.1618066132069,  -0.0078531829640,   0.1968863904476,  -0.0305051300675,   0.1636512577534,  -0.0898149684072,  -0.1580914855003,   0.1554254293442,   0.2263785302639,   0.1450416445732,   0.1686253845692,  -0.0369835570455,  -0.0475510694087,   0.0693872421980,   0.0784792304039,   0.1030213311315,   0.0975144729018,  -0.0192180331796,  -0.0258456245065,  -0.0199852120131,   0.1258054822683,   0.2444405108690,   0.0350923165679,   0.2353265881538,  -0.1897663921118,  -0.0072603360750,  -0.0276848878711,  -0.2204758226871,  -0.0960154160857,  -0.1157983019948,  -0.1684895157814,   0.0720416083932,  -0.1253331899643,  -0.2276848256588,  -0.0069187488407,   0.1029684096575,   0.1751500368118,  -0.0204855743796,   0.1556470543146,  -0.0397400297225,   0.1524549573660,   0.0363872237504,   0.1520593762398,   0.0918234586716,  -0.1370625644922,   0.1411221474409,  -0.1233848258853,   0.1872832924128,   0.0210010390729,   0.0176473725587},
   {  -0.0239703562111,   0.0601506531239,   0.1183380186558,   0.1112345084548,  -0.1004591435194,  -0.1145847141743,   0.1489149630070,   0.0425439663231,  -0.0579001717269,  -0.0595232509077,  -0.1290049254894,   0.0741154477000,  -0.1443311721087,   0.1079276874661,   0.0588403120637,   0.1885914802551,   0.1643855422735,   0.1720998585224,   0.1854384094477,  -0.1871990859509,  -0.2214576750994,   0.0163138099015,   0.1458180695772,   0.0842556655407,   0.1989334523678,  -0.1709966212511,  -0.2376327812672,  -0.0257098209113,   0.1386278718710,   0.1537513732910,   0.0761799067259,  -0.1251781582832,   0.2007124871016,   0.1803521811962,  -0.2200469821692,  -0.1595507562160,  -0.0248104371130,  -0.1491087079048,  -0.1335353553295,  -0.0463771335781,  -0.0995768085122,   0.0470888130367,   0.1729776114225,   0.1888911128044,   0.1259873211384,  -0.1562087982893,   0.0001277642441,  -0.1004540175200,  -0.1815486103296,  -0.1156347543001},
   {   0.2220326513052,  -0.1015121415257,  -0.0311777591705,  -0.0869245827198,   0.0340344905853,  -0.0250954627991,  -0.1479964107275,   0.1539711654186,  -0.1353908330202,  -0.1093369871378,   0.0482593476772,  -0.2179036885500,  -0.0516115203500,  -0.1161029785872,  -0.0967172384262,  -0.0092072207481,  -0.0298805497587,   0.1335938125849,   0.2153890132904,   0.0760676190257,   0.1933370083570,  -0.2425117492676,  -0.0243442449719,   0.0516057610512,  -0.1190900057554,   0.2675990164280,   0.1678535789251,   0.1456057429314,  -0.0619497783482,   0.0169586073607,   0.0812322124839,   0.1008208990097,  -0.1486457139254,   0.1504986137152,   0.1808996349573,   0.0759626999497,  -0.0842822268605,  -0.1730307191610,   0.2276087701321,  -0.2072918564081,  -0.1742856800556,  -0.1425875872374,  -0.1219053715467,   0.2077293395996,  -0.1904500126839,  -0.0654969215393,  -0.1340207308531,   0.1034745350480,   0.0577521622181,  -0.0309141948819},
   {   0.0956058949232,   0.1228806599975,   0.1993077695370,   0.1204369738698,   0.1926602423191,  -0.0814843922853,   0.0629124715924,   0.0780819803476,  -0.0956927612424,   0.1532752364874,   0.0621845200658,   0.2216017097235,   0.0263299718499,   0.0327489301562,   0.1162624061108,  -0.1960116922855,   0.1778916418552,   0.2236364483833,   0.1127375885844,   0.1430832445621,  -0.0317520312965,   0.0005921599222,   0.1259279996157,  -0.0985314473510,   0.1103243902326,   0.0831578299403,   0.0764476880431,   0.0624071173370,  -0.2413794249296,  -0.0865960568190,  -0.1027239933610,   0.0154129303992,  -0.1774642914534,  -0.2339657545090,   0.0584399886429,  -0.0562114045024,  -0.1848051548004,  -0.0611652247608,   0.0344801247120,   0.0672886148095,   0.1327050179243,   0.1632400006056,   0.0488527119160,   0.2378097921610,  -0.1902963072062,   0.1369808167219,   0.0616354569793,   0.0570115409791,   0.0901705622673,   0.0820893049240},
   {   0.0444448627532,   0.1611002385616,   0.0601814538240,   0.1129451841116,   0.1183968335390,  -0.0934389829636,  -0.0120141096413,  -0.1754991114140,   0.2051103413105,  -0.0877198725939,  -0.0245959833264,  -0.0508689992130,   0.2548082172871,   0.1287365853786,   0.0614743530750,   0.1763587594032,  -0.2308641523123,   0.1525468379259,  -0.1664439737797,  -0.2580848932266,  -0.1114887818694,   0.0469596013427,   0.0874707773328,  -0.0244682617486,   0.0661212578416,   0.1505534499884,  -0.0426994413137,  -0.0086283851415,   0.2039533555508,  -0.0328420922160,  -0.1499778926373,   0.0110622048378,  -0.1406486779451,  -0.0126769552007,   0.2358617931604,   0.1812570393085,  -0.0274270456284,   0.1504361480474,  -0.2366613894701,  -0.1723896563053,  -0.0339423380792,   0.1779314279556,   0.2202321588993,  -0.1103609353304,  -0.1303194463253,   0.1537718325853,  -0.2132683396339,  -0.0396475307643,  -0.0740304142237,  -0.1428143531084},
   {  -0.0759930759668,   0.0815962702036,  -0.2070567905903,  -0.0428400933743,   0.0599403679371,  -0.0622437112033,   0.1502748429775,   0.2038192152977,   0.1277817040682,   0.1853426247835,  -0.1043302789330,  -0.0301133021712,   0.0995227843523,   0.1510795205832,  -0.0906213670969,   0.1513526290655,  -0.1230379641056,  -0.0316749960184,  -0.0053616953082,   0.2091374546289,   0.2318639755249,   0.1760824620724,   0.0136477816850,   0.0865559130907,   0.0536291971803,   0.0871235057712,  -0.0208556335419,  -0.2678272724152,  -0.2694870531559,  -0.0068342410959,  -0.1373150348663,  -0.1602284759283,   0.2193075269461,   0.1332518309355,   0.2433354556561,   0.1647063344717,   0.0411679148674,   0.0128135662526,  -0.0628161430359,  -0.0734608173370,   0.0032316052821,  -0.2045993804932,   0.0572036206722,   0.1572597622871,  -0.0211050789803,  -0.0139087578282,   0.1176720559597,   0.1683125942945,   0.0849331393838,  -0.0739034116268},
   {   0.1730890423059,  -0.2173986285925,   0.0622627995908,   0.2370015531778,   0.0208068303764,  -0.0936537832022,  -0.2377201020718,   0.1865955144167,   0.1118950620294,  -0.1791705191135,   0.1611903905869,  -0.0119008570910,  -0.0458470806479,  -0.0443030372262,  -0.0081366673112,  -0.0581542439759,   0.1808753311634,   0.2244836390018,   0.2124212384224,   0.0654608830810,   0.2275368571281,  -0.1969165503979,  -0.2052824497223,  -0.1629116535187,  -0.1492690145969,  -0.0798566788435,   0.1467142850161,  -0.0629519373178,  -0.1561565995216,   0.1850066334009,   0.1289349496365,  -0.2260978519917,  -0.0197761710733,  -0.0185589026660,  -0.0393101014197,   0.0598508715630,  -0.1272569000721,   0.1183475255966,  -0.2078045606613,  -0.1080241277814,  -0.1399091482162,   0.0042451201007,  -0.0613643005490,   0.2163179963827,   0.0141424899921,   0.1467027515173,   0.1802623569965,   0.0105287497863,   0.0483250431716,  -0.0971039459109},
   {   0.1244053617120,  -0.1036942303181,  -0.0572148002684,  -0.2451845258474,   0.1011939346790,   0.1255625039339,   0.0637549012899,   0.1007907986641,  -0.0796556398273,  -0.0403551943600,  -0.0730930790305,  -0.2528708279133,   0.2114463746548,   0.1647251546383,   0.0618003420532,  -0.1050888672471,   0.0437544472516,  -0.1799875795841,   0.0696319714189,  -0.0392874851823,  -0.1439345031977,  -0.0051648090594,   0.1923447847366,  -0.0004684462911,   0.0518545247614,   0.0970305651426,  -0.0960529372096,   0.0504466332495,  -0.0840741917491,   0.2135637700558,   0.2054358422756,   0.2406504601240,   0.0697436928749,   0.0896618068218,  -0.2326589375734,   0.0504416860640,   0.0106527926400,  -0.2781127393246,   0.1132969558239,   0.0452977940440,   0.0607476122677,   0.2049575299025,   0.1923169791698,   0.1293295174837,   0.2222596108913,   0.0875653699040,  -0.1658057123423,   0.1996570825577,  -0.0494510754943,  -0.1985843330622},
   {   0.1400166302919,  -0.2105981409550,   0.0208234060556,  -0.0110737457871,   0.1267623603344,  -0.2555095553398,  -0.0714711323380,   0.2594759762287,   0.1514694690704,  -0.1335150003433,  -0.0264200717211,   0.0510413460433,  -0.1851941645145,   0.2359751611948,   0.0275238007307,  -0.0279029048979,  -0.2154122292995,  -0.0802440568805,   0.0691139400005,   0.1032145693898,   0.0108223259449,  -0.1051326841116,   0.0989799052477,   0.1724049597979,   0.0845002532005,  -0.0612687021494,   0.2253956049681,   0.1092700734735,  -0.1217314600945,   0.0498942956328,   0.2105236351490,   0.1554991602898,   0.1091540902853,  -0.2628867924213,   0.1601353287697,   0.1787749528885,  -0.0816200673580,  -0.0449486002326,  -0.1504726707935,   0.0550599247217,   0.0987865030766,  -0.0952269732952,  -0.1753410249949,  -0.1508218944073,   0.1762711107731,  -0.1316208392382,   0.1766365915537,  -0.0396085456014,  -0.0105288987979,  -0.1266360282898},
   {  -0.1442549377680,   0.0947806835175,   0.1951941102743,   0.0392169542611,   0.1885650604963,  -0.1292653530836,  -0.1285091936588,  -0.1032696068287,  -0.0685489624739,   0.1505295187235,   0.0346778035164,  -0.1072168797255,   0.0642364323139,  -0.0365526378155,   0.1563503146172,   0.0841305777431,  -0.1261951774359,   0.1169343665242,   0.0730170756578,  -0.1076445207000,  -0.0640535429120,   0.1510889083147,   0.0157677084208,   0.1267807930708,   0.0537754371762,   0.0133050410077,  -0.0421295054257,   0.0015469327336,   0.0929222851992,   0.0277908779681,   0.1129235103726,  -0.2212575674057,  -0.2440553009510,  -0.0492778606713,   0.0863695666194,   0.2516178786755,   0.0112336836755,   0.0749516263604,  -0.0593513026834,   0.1696986407042,  -0.1410068422556,  -0.0242390893400,  -0.2036674618721,   0.0084572955966,  -0.0905939117074,   0.0596316158772,  -0.0487535446882,  -0.0065653007478,   0.1233926117420,  -0.2273194938898},
   {   0.0890313684940,  -0.1655499786139,  -0.1162055656314,   0.0863320231438,   0.1658746153116,   0.0158726256341,   0.0275535676628,   0.1069225966930,   0.0213701017201,   0.1128276884556,  -0.0275587458163,   0.0092730391771,  -0.1477464884520,   0.0631140097976,   0.0122252944857,  -0.0490934513509,  -0.1443538069725,   0.0166572835296,  -0.1872411668301,   0.1234538555145,   0.0384113639593,   0.0982467904687,  -0.1913026720285,   0.1358209848404,  -0.1562055051327,   0.0017798577901,   0.0288762282580,   0.1740947067738,   0.0165825635195,   0.1288792043924,   0.2406844943762,   0.0550934188068,   0.1789259016514,   0.1752688437700,  -0.0890719592571,   0.1689093858004,   0.0214131381363,   0.0021657487378,   0.1602457612753,   0.0256639737636,   0.1350933760405,  -0.0114080160856,   0.0981363952160,  -0.1070385426283,   0.0692455023527,  -0.0402624011040,   0.1264107078314,   0.1501911282539,   0.1595631241798,  -0.1376868337393},
   {  -0.1532172411680,  -0.1232434213161,   0.1907685548067,  -0.1572853922844,   0.0061891940422,   0.0371414050460,  -0.0976266339421,   0.1939126253128,   0.0709934383631,   0.0449165850878,   0.1290012449026,  -0.1621294021606,  -0.1128604188561,   0.1305185705423,  -0.1940634846687,  -0.1848756670952,   0.1137451902032,   0.1366368681192,   0.1780169308186,   0.0806423649192,  -0.1677707880735,  -0.0366060063243,   0.2477528899908,   0.1539070755243,  -0.1368490606546,   0.2256323695183,   0.1796980649233,  -0.2306409776211,  -0.0062352316454,  -0.0014970487682,   0.0615268535912,   0.1870351135731,  -0.0974463820457,  -0.0594861432910,   0.0541110634804,  -0.0225436035544,   0.1260699182749,   0.1635923385620,   0.1661185175180,  -0.0957839787006,  -0.0231896527112,   0.0563283972442,  -0.0913478285074,  -0.1590052396059,  -0.2236794829369,   0.0730032101274,   0.1184847876430,   0.1119153574109,   0.0272873174399,  -0.0883677750826},
   {   0.0683260336518,   0.0238860845566,   0.0117842452601,  -0.0580732412636,  -0.0520941391587,  -0.1388684958220,  -0.0251852069050,   0.2417506128550,   0.0156852174550,  -0.0841178745031,  -0.0530153252184,  -0.1790364384651,  -0.0809632465243,  -0.0878977105021,  -0.1699082255363,   0.0490212365985,  -0.1909030377865,   0.1077681183815,   0.2412780970335,   0.1630707085133,  -0.0383785814047,  -0.2192904055119,  -0.0697685405612,   0.2106564342976,   0.2522282004356,  -0.1083370894194,  -0.1853569895029,  -0.1181158721447,  -0.1316118389368,  -0.1735359579325,   0.1978556215763,  -0.2603328824043,  -0.0033093043603,  -0.0643443837762,   0.2247154265642,  -0.1804312616587,   0.0021521358285,  -0.1709484755993,  -0.0628303587437,   0.1160452514887,   0.0288528185338,  -0.1585217565298,   0.1893448531628,   0.2013293653727,   0.1699886620045,  -0.0338414758444,  -0.1150207370520,   0.2388179600239,  -0.0786047950387,  -0.1881943345070},
   {  -0.0772054344416,   0.2408792078495,   0.0581632517278,  -0.1267014443874,   0.0438470281661,  -0.1349892616272,   0.1418046951294,  -0.0535982958972,  -0.0533199906349,   0.0562130622566,  -0.1822962462902,   0.1011604219675,   0.1110202670097,   0.0120489597321,  -0.0673426315188,   0.0786641910672,   0.2237033993006,   0.0592200309038,   0.0613444447517,   0.1474061608315,  -0.1786162555218,   0.1395464539528,   0.2005798965693,  -0.1746619194746,  -0.1029021590948,  -0.1504766345024,  -0.2064650058746,   0.0743846371770,   0.1302590221167,   0.1478487700224,   0.1601315289736,   0.0481083802879,   0.2063081115484,  -0.0849789232016,   0.1682175099850,  -0.0283202249557,  -0.2362925112247,  -0.0309581793845,  -0.0887007862329,   0.1954065710306,  -0.1797950863838,  -0.0736881420016,  -0.0423677116632,  -0.1021868512034,   0.1051754355431,  -0.1982793211937,   0.1143603175879,  -0.0380645282567,   0.2560607194901,  -0.0517532899976},
   {   0.0542553700507,   0.0242831129581,  -0.2036283463240,   0.1147600635886,  -0.0032235833351,   0.0872980356216,   0.0426190793514,   0.0201502591372,  -0.0069065741263,  -0.2565030455589,   0.0107204485685,  -0.0778580829501,   0.0644343793392,   0.0825608223677,  -0.1031034290791,  -0.0487870909274,   0.1543118059635,   0.1471610367298,  -0.1448969244957,  -0.0833312794566,   0.0381666943431,  -0.2302940785885,  -0.0168380700052,   0.1025299876928,   0.0926286950707,   0.1588834375143,   0.1877376735210,   0.2098605632782,  -0.0094683505595,  -0.1159094870090,   0.0133515214548,   0.0621562302113,   0.0318415723741,  -0.0272870752960,   0.0738931074739,   0.0450467206538,  -0.0913203284144,   0.2187057733536,  -0.0242406707257,   0.1934480816126,  -0.0034717805684,  -0.0693429335952,  -0.0923633351922,   0.0658456310630,  -0.1191687062383,  -0.1728596538305,  -0.0004434800940,   0.0452617034316,   0.0644443854690,  -0.1244096979499},
   {   0.2098922133446,   0.0627588629723,  -0.1276421993971,   0.1351196020842,   0.1964465081692,  -0.0542655922472,   0.0041303704493,   0.0386813320220,  -0.0366891548038,   0.1964612007141,   0.0359019786119,   0.0897465571761,  -0.0169766508043,   0.1119426712394,   0.1841628700495,   0.0127631556243,  -0.1016525775194,  -0.0808492451906,   0.0818046033382,  -0.0545897334814,   0.0291699152440,  -0.1581245511770,   0.1708838790655,   0.1241715028882,  -0.0538036897779,   0.0570699572563,   0.0964944362640,   0.1095209568739,  -0.1341305077076,  -0.1122152879834,   0.2094769328833,  -0.0298261474818,  -0.0256785284728,  -0.1815040856600,  -0.0048129609786,  -0.1970210969448,   0.1082166284323,   0.1487691402435,   0.1279015690088,   0.1270799487829,  -0.1718503385782,   0.1247200891376,  -0.2173326313496,   0.1629957556725,   0.0230344738811,   0.1986809223890,   0.1412146836519,   0.1419328004122,  -0.1835476458073,   0.0654474422336},
   {  -0.0429694950581,  -0.2496787905693,   0.2222101241350,  -0.0936865061522,   0.1375687420368,   0.1880992203951,   0.2433316260576,   0.1000730469823,   0.2635712921619,  -0.0288040935993,   0.1426726132631,  -0.0820552632213,  -0.0621268786490,  -0.2084065973759,  -0.0360135957599,  -0.1684413999319,   0.1045939326286,  -0.1291438490152,   0.1125368550420,  -0.0073799402453,   0.1460746824741,   0.2114884406328,   0.0601773448288,   0.1198623329401,  -0.1029866859317,  -0.0490770824254,  -0.1673143506050,  -0.1957625299692,  -0.0049757217057,   0.0488867051899,   0.1617050170898,  -0.1344494074583,   0.0522486455739,  -0.0188264828175,  -0.2259535342455,   0.1978649049997,  -0.1810345351696,   0.1742190122604,  -0.0971032306552,  -0.1519613265991,  -0.1348904818296,   0.0170989185572,  -0.0873411446810,   0.0351900905371,  -0.1972572505474,  -0.1851917803288,  -0.1498496681452,  -0.0966183915734,   0.0363003835082,  -0.0630282387137},
   {  -0.0639702752233,  -0.1799141615629,  -0.1339912563562,   0.0910938531160,   0.1057355105877,  -0.0830470621586,   0.1821273863316,   0.1663888692856,  -0.1144880577922,  -0.1174679324031,   0.0466891638935,  -0.2201412767172,   0.1481514275074,   0.0688529834151,   0.1380063891411,   0.1256388276815,  -0.0999645739794,   0.2449250966311,  -0.1746109873056,   0.1942849755287,   0.1260108053684,  -0.0605495721102,   0.1203767806292,  -0.0232018865645,   0.2269268184900,  -0.1364424824715,   0.1114362701774,   0.1242921873927,   0.0396983586252,   0.1207585856318,  -0.2260853648186,   0.0979729220271,  -0.1982351839542,  -0.0086690727621,   0.2407110035419,  -0.0761076211929,  -0.2406511157751,  -0.0450975745916,   0.0024800268002,  -0.1797456145287,  -0.0499508194625,  -0.0499597191811,  -0.0552021376789,  -0.1056731045246,  -0.0293440781534,   0.1452832072973,  -0.0718142837286,  -0.0831390768290,  -0.1347231566906,  -0.1567957699299},
   {   0.0107066249475,   0.0538332536817,  -0.1129868924618,  -0.0044627506286,  -0.1981778740883,  -0.2494171261787,  -0.1598859280348,   0.0761122331023,   0.1247013136744,  -0.1910665929317,  -0.0989723354578,   0.1745314747095,   0.2229078263044,  -0.1194427087903,   0.1617298722267,   0.1979604214430,  -0.2309275716543,   0.0635936334729,  -0.1590059995651,   0.1626200824976,   0.1689320951700,   0.1092934310436,   0.2109195590019,   0.0736807659268,   0.1906070113182,   0.1106061264873,  -0.0280226413161,  -0.1826370358467,  -0.2121385186911,   0.0982092469931,   0.0234227571636,   0.1982651501894,  -0.1593205779791,  -0.2199412733316,   0.1144403293729,   0.0584468916059,  -0.1414297968149,   0.1866309493780,   0.0570272691548,   0.0005167135969,   0.2085937708616,   0.1918035000563,   0.1430601924658,   0.0761042982340,  -0.2014138549566,  -0.1861323267221,  -0.0746977701783,   0.1022103875875,  -0.0647608414292,  -0.1931583732367},
   {   0.0671803206205,  -0.1603016406298,  -0.2004535794258,  -0.2173133045435,   0.0170054733753,  -0.0223605781794,   0.0479982979596,  -0.0486160516739,  -0.1546215564013,  -0.1320800781250,  -0.1490047276020,   0.2110982239246,  -0.0490300394595,   0.0841401293874,   0.2074734568596,  -0.2105175405741,  -0.0498761944473,   0.2168350219727,  -0.1133238747716,   0.1284873485565,   0.2054920643568,   0.1211044043303,   0.0007317234413,  -0.0893566682935,  -0.1234472468495,  -0.0268132798374,  -0.1972922980785,   0.0968008190393,  -0.0650857836008,  -0.0786999613047,  -0.1832504421473,  -0.2547542452812,   0.1776136308908,   0.1316698491573,  -0.0692605078220,   0.1372817158699,   0.0143855223432,  -0.1936742663383,   0.1567302942276,  -0.1852914988995,  -0.0651358664036,  -0.2000581026077,   0.0947069302201,   0.0327558107674,   0.0785266682506,   0.2010862827301,  -0.0434378311038,  -0.2112079411745,   0.1322864741087,  -0.2213302701712},
   {   0.0589373484254,   0.2079486250877,   0.1853042095900,  -0.0660790726542,   0.1872223019600,  -0.0456207394600,   0.0943874418736,   0.0200808048248,  -0.0929290279746,  -0.0437007062137,  -0.1381904184818,  -0.0399663075805,   0.0011615587864,   0.2223913371563,  -0.2092490941286,   0.0156406965107,   0.1943154335022,   0.0410817749798,  -0.2462863177061,  -0.1297722309828,   0.1516353935003,  -0.0316480100155,   0.1126914694905,   0.1517223566771,   0.1253539025784,   0.2169987559319,  -0.1070297583938,   0.1497086882591,  -0.0982118099928,   0.0773547440767,   0.1849948167801,  -0.0652803033590,   0.0329703576863,   0.1486147344112,  -0.2155892997980,   0.2107766121626,  -0.1479684710503,  -0.2370800375938,   0.1264665126801,  -0.1947438865900,   0.0796855986118,  -0.1897201538086,  -0.1472995132208,  -0.1409025639296,   0.1214278563857,  -0.0336243174970,   0.1456170529127,   0.1958760023117,  -0.1718275547028,   0.1599147319794}};
  const float bias_0[50] = {   0.0351340994239,   0.0223457831889,   0.0172087587416,   0.0413114801049,  -0.0336376577616,   0.0373893380165,   0.0337992534041,   0.0265055522323,   0.0287878643721,   0.0079913204536,  -0.0231290478259,  -0.0194876175374,   0.0079817511141,   0.0200673602521,   0.0225323103368,   0.0012862108415,  -0.0195325296372,   0.0348184518516,  -0.0024669461418,   0.0173118934035,   0.0037963304203,   0.0338826812804,   0.0313793346286,  -0.0175106246024,   0.0339206531644,   0.0490122064948,   0.0358558781445,   0.0092772645876,   0.0357085578144,   0.0366429127753,  -0.0295853409916,  -0.0203122068197,  -0.0090808179229,   0.0117921382189,   0.0096966084093,  -0.0119194332510,   0.0309413187206,  -0.0088562304154,   0.0232853423804,  -0.0136741045862,  -0.0069874138571,   0.0425727069378,   0.0367904417217,  -0.0197820737958,   0.0230401493609,  -0.0196807458997,   0.0234985258430,   0.0024633626454,   0.0246824994683,   0.0322419367731};
  // Declare the arrays in the stack
  const float kernel_1[50][50] = 
  {{   0.1681965291500,  -0.1555984616280,  -0.0266920905560,   0.0869643911719,  -0.0539917238057,   0.1736515909433,  -0.0545080453157,  -0.1917370259762,   0.1678313910961,  -0.2156527936459,  -0.1963955163956,  -0.1092682853341,  -0.1696680039167,  -0.2534762620926,   0.2535907328129,   0.0148475570604,   0.1962394714355,   0.1159021481872,   0.1305398792028,  -0.0920322984457,  -0.0566496998072,   0.2072283476591,  -0.0072920224629,   0.2301266193390,  -0.1164124608040,  -0.1307245343924,  -0.2087621092796,   0.0821477696300,  -0.0443846322596,   0.1683719456196,   0.1668804883957,   0.1700838208199,  -0.1738684773445,   0.0386115908623,  -0.0624331124127,  -0.1792102009058,   0.1798467338085,  -0.1821853965521,  -0.2075240164995,   0.2002437561750,   0.0883385613561,   0.1646662056446,  -0.1027138754725,   0.0737914666533,  -0.0796724185348,  -0.1725580394268,  -0.1572233736515,  -0.0735511630774,  -0.1217931658030,  -0.0689875707030},
   {  -0.1226629912853,   0.0121554806828,   0.1400067806244,   0.0521530583501,   0.2301541268826,  -0.0231773182750,  -0.1508270949125,  -0.0953768417239,   0.0204275306314,  -0.0484452247620,   0.0248361285776,  -0.0061117643490,   0.1672545522451,   0.2109311670065,   0.1547132730484,  -0.0162023175508,   0.1135466098785,  -0.0173651911318,   0.1646469533443,   0.0634645521641,   0.0081097241491,  -0.1190779283643,   0.0074640521780,  -0.1758717298508,   0.0619808286428,   0.0457766167819,  -0.1593023687601,  -0.1496019512415,  -0.1460618823767,  -0.0975750759244,   0.2257251143456,   0.2052158266306,  -0.2392157167196,  -0.1796409785748,  -0.0168449562043,   0.0093815065920,   0.0425858013332,  -0.1129362806678,   0.1144113391638,  -0.2066201865673,   0.0907150059938,  -0.1926981806755,   0.1322683244944,  -0.1678010076284,   0.0618435442448,  -0.1532646715641,   0.0037170157302,  -0.2258123755455,  -0.1377363651991,  -0.2393167465925},
   {   0.1871432662010,   0.1422360986471,   0.0069699813612,   0.1227345764637,   0.0108096767217,   0.1646998077631,   0.1338386088610,  -0.1487248688936,  -0.1541323661804,   0.2103451639414,  -0.1158925965428,   0.1295682936907,   0.1820179522038,   0.2061952501535,   0.0168892219663,  -0.1428289711475,   0.0179216843098,  -0.2278821915388,   0.1057438105345,   0.0362144336104,   0.0240543968976,  -0.0870845839381,   0.1913433670998,   0.2051941305399,  -0.2203609496355,  -0.0949779003859,   0.1314305067062,  -0.2757006883621,  -0.2441724836826,   0.0445567592978,  -0.1889929771423,   0.0639967694879,  -0.1841613799334,  -0.0966754034162,   0.0987237319350,   0.0092869913206,  -0.2269383221865,  -0.2340212315321,  -0.0888428464532,  -0.0790430232882,  -0.1071027591825,   0.2499607056379,   0.2083040177822,  -0.1489817202091,  -0.0538946390152,   0.0089335832745,   0.0507216490805,  -0.0376982204616,  -0.0910049825907,   0.0533745363355},
   {  -0.0379594117403,  -0.1744214296341,  -0.0051293424331,   0.2561515271664,   0.1283821314573,   0.1598200798035,  -0.1360050439835,   0.2055273503065,  -0.1388058513403,   0.1668673008680,   0.0747371464968,   0.1549170166254,   0.0608104057610,   0.0999847650528,  -0.1229656562209,  -0.0372107177973,  -0.1440404504538,  -0.0095349056646,   0.0986124426126,  -0.1123564913869,   0.1411990374327,   0.1241049617529,   0.0289625488222,   0.2259148359299,  -0.0802442282438,  -0.0105756567791,  -0.2017764449120,   0.1678820401430,   0.0279392469674,  -0.0503018312156,  -0.0598163753748,   0.1039849817753,  -0.0350270383060,  -0.1011003851891,   0.1574161201715,  -0.1147936210036,  -0.0401547327638,  -0.1394987702370,   0.2485929876566,   0.2128318548203,   0.2649215161800,   0.1941187083721,   0.0164521820843,   0.2455052882433,  -0.1605530679226,  -0.1014389023185,  -0.1735562980175,  -0.0202741809189,  -0.1502700299025,  -0.2575175166130},
   {  -0.2570174932480,   0.1994484215975,   0.0542822889984,  -0.1577639877796,   0.2212396264076,   0.1530137062073,  -0.1552201807499,   0.2245145738125,  -0.1104400828481,   0.0218547731638,   0.1390358954668,  -0.2310822606087,   0.0961951911449,   0.1599761545658,  -0.1599574685097,   0.0872040018439,  -0.0796046182513,  -0.0611612051725,   0.1944536864758,   0.1489795595407,   0.1503549218178,   0.1489070951939,  -0.0679717734456,  -0.1744410097599,  -0.1554940640926,  -0.2002988755703,  -0.2644243240356,  -0.2441375851631,   0.1525854617357,   0.2289768010378,  -0.1138999238610,  -0.1212906166911,  -0.1211927086115,  -0.1527265012264,  -0.1109441593289,   0.0441148355603,  -0.2098392695189,   0.1052072867751,   0.0805893987417,   0.2018310129642,   0.0401057302952,   0.1490994989872,  -0.1223788708448,  -0.2081504613161,  -0.0335936918855,   0.2510982453823,  -0.2045508772135,  -0.0599948167801,  -0.2244517952204,  -0.0704577416182},
   {  -0.1134523972869,  -0.1215953975916,  -0.0352807901800,   0.1464334875345,  -0.2422874718904,   0.1883668750525,  -0.0709853395820,   0.2532611787319,   0.2191753238440,   0.0804469287395,   0.0790407061577,   0.2724224328995,   0.1392975598574,  -0.1222702264786,  -0.0218564383686,  -0.1031718179584,   0.1549085229635,  -0.0202322620898,   0.0205166731030,   0.2114349454641,   0.2728975713253,   0.1144536808133,  -0.1711613386869,  -0.0812591314316,  -0.2086514085531,  -0.0228610578924,  -0.1104147136211,  -0.1430501788855,   0.0333965159953,  -0.1738612949848,  -0.0781660154462,   0.1194695532322,   0.1776375621557,  -0.1424021571875,  -0.0728561878204,   0.1793034225702,  -0.1798963546753,  -0.0437701903284,   0.0049233869649,   0.1415046751499,   0.0426915623248,  -0.1010959595442,   0.1767059564590,  -0.0547689832747,  -0.2154698222876,  -0.1638362258673,  -0.1808219254017,  -0.0733338668942,  -0.1216020584106,  -0.1673889756203},
   {  -0.0948142036796,  -0.1700289100409,  -0.0936604738235,  -0.0803905203938,   0.2405399978161,   0.0986853614450,  -0.0325070992112,  -0.2082582265139,  -0.0103479679674,   0.2048672586679,  -0.1516305804253,  -0.0382268093526,  -0.0428243167698,   0.1857034564018,   0.0245932340622,   0.2054030746222,  -0.1893016248941,   0.2000500261784,  -0.1732800453901,  -0.0823558494449,  -0.1375056058168,  -0.1692667007446,   0.0817777067423,   0.0255129281431,  -0.1261495053768,  -0.0760684162378,  -0.1524414569139,  -0.0016714623198,   0.0459785312414,   0.1181826367974,  -0.0946849510074,  -0.0899666100740,  -0.2253693491220,   0.0762769579887,  -0.2365603744984,   0.1468997299671,  -0.2252543717623,  -0.2339645177126,   0.2190074622631,   0.0202691182494,   0.0820127725601,   0.2127212136984,   0.2565793395042,   0.1457596570253,   0.1227954998612,  -0.1085913553834,   0.2626824080944,   0.1103534549475,   0.1879090219736,   0.0452075116336},
   {  -0.0898215621710,   0.0000667141940,   0.1540073156357,   0.1240914985538,  -0.0035378367174,  -0.1357053518295,  -0.2121416330338,  -0.0263309497386,   0.0945503860712,   0.1740310341120,  -0.2143807411194,  -0.1070914939046,   0.1499711126089,  -0.2334031313658,   0.1421744376421,   0.0294441152364,   0.0514187179506,  -0.1319932937622,  -0.0654714331031,  -0.1718978434801,  -0.2412764132023,   0.2064370065928,   0.1088863089681,   0.1660758554935,  -0.1989662498236,   0.0533275976777,   0.2325709313154,   0.0553060621023,  -0.1063642576337,  -0.2120114266872,  -0.1780016571283,   0.0679464787245,   0.2204632014036,   0.2042538970709,   0.0890960618854,  -0.0548540204763,  -0.2438774108887,   0.2095829844475,   0.0739786028862,  -0.0930660665035,  -0.0291366837919,  -0.0506445281208,   0.0341817513108,   0.0329870283604,  -0.0041840532795,   0.0978256911039,  -0.0792824476957,  -0.2139082401991,  -0.1920239478350,   0.0767343416810},
   {   0.1349399238825,   0.0788747444749,  -0.1869137138128,  -0.0410684570670,  -0.0722326785326,  -0.0797657296062,  -0.1324292272329,  -0.1313970088959,  -0.1786615103483,  -0.0533676184714,   0.0678922757506,   0.2171025574207,   0.0500979684293,   0.0065352329984,   0.0607614107430,   0.0798811912537,   0.0454138815403,  -0.2455199956894,   0.0107579948381,  -0.2518652677536,  -0.2069724947214,  -0.2221738100052,   0.2125063538551,  -0.0735456198454,  -0.2092189490795,  -0.1557584106922,   0.1668183654547,  -0.1740854084492,  -0.1754447817802,   0.1004275232553,  -0.1677025556564,  -0.1463368982077,   0.0892215222120,   0.0493901371956,  -0.0579264648259,  -0.1092557385564,  -0.2481556981802,  -0.1691799759865,   0.1390867978334,   0.1307312399149,   0.1938578486443,  -0.1410566270351,  -0.1574690043926,   0.1651894897223,   0.0665361806750,  -0.2201326638460,  -0.2279812395573,  -0.0991070121527,   0.1408059895039,  -0.1905944347382},
   {  -0.1753792613745,   0.1802185922861,  -0.0448859184980,  -0.0937321335077,   0.2286490201950,   0.1449831426144,   0.1986292153597,  -0.0562492497265,   0.1712364852428,   0.0266233850271,   0.1303873807192,  -0.2183330655098,   0.1105298921466,   0.1765182167292,  -0.0781501308084,   0.0413590334356,   0.2388129830360,   0.1744737327099,  -0.1910083740950,   0.0325838103890,   0.0981642156839,  -0.1987505853176,   0.1427364796400,  -0.1902299374342,  -0.1936042308807,   0.2176275253296,   0.0315572880208,   0.1954667419195,  -0.0944780409336,   0.1582214087248,  -0.1944516450167,   0.2200585305691,  -0.1766485720873,  -0.1769270300865,  -0.0605405084789,  -0.2274965345860,   0.1267868280411,  -0.0043484689668,   0.0466507114470,   0.0272172000259,  -0.0289707221091,   0.1517260372639,   0.0169059056789,   0.1341069489717,  -0.1555052846670,   0.0747603997588,   0.2443911284208,   0.1156798675656,   0.1818350851536,  -0.0574379861355},
   {  -0.0133647071198,   0.1694188714027,  -0.0897691920400,  -0.0939903706312,  -0.0962477847934,   0.0576292201877,  -0.2539084851742,  -0.0995301306248,  -0.0067057167180,  -0.1192645281553,   0.0922509878874,  -0.0069077028893,   0.2225372195244,  -0.1774854809046,  -0.1181906163692,   0.2698048055172,  -0.1971550583839,  -0.2210418730974,  -0.2139643877745,   0.1455799341202,  -0.0577487237751,   0.0474870353937,  -0.1326572149992,   0.2347706258297,  -0.0148522909731,   0.1473137289286,  -0.2556965947151,  -0.1064430326223,   0.2097465991974,   0.2077390849590,  -0.0161764137447,  -0.0419320799410,  -0.0369106680155,   0.0620747841895,   0.2437413632870,   0.0782178640366,  -0.2055083513260,   0.1435771435499,  -0.2527710497379,  -0.1188505738974,  -0.2373316586018,  -0.0258638300002,   0.1768925637007,  -0.1365200728178,   0.0783936157823,   0.1756675243378,  -0.1031880602241,  -0.0713274404407,  -0.0600367225707,   0.0462494641542},
   {  -0.0880336910486,  -0.1276708096266,  -0.0808058977127,   0.0697298720479,  -0.0005671928520,  -0.1342618167400,  -0.0189815945923,   0.0099752256647,  -0.1846098750830,   0.0428897999227,  -0.0485469214618,  -0.1325443536043,   0.1324995607138,  -0.1703668236732,   0.2034303396940,  -0.0735639631748,   0.0190498176962,  -0.0637946426868,  -0.0592736937106,  -0.1773769855499,  -0.0087621677667,   0.0596136003733,  -0.1628354787827,  -0.1838850826025,  -0.1188196688890,  -0.2087487578392,   0.1115694791079,  -0.2108834534883,  -0.1752036660910,  -0.1281146556139,  -0.1131567656994,   0.0606330782175,   0.1558152586222,   0.2183968871832,  -0.1779338717461,  -0.2207170426846,   0.0870274454355,   0.1500297188759,   0.0940679982305,  -0.0087069608271,   0.0108523331583,  -0.1456418782473,   0.2417348623276,  -0.0693344846368,  -0.1928256750107,  -0.0242892578244,  -0.0319768637419,   0.1480873376131,  -0.0848449766636,  -0.0215804204345},
   {  -0.0561546906829,   0.0431095361710,   0.0145584121346,  -0.1247186809778,   0.0435623228550,   0.2326181530952,   0.0716033279896,   0.1351288557053,  -0.2297363430262,  -0.1969379037619,   0.2595110237598,   0.1063082516193,  -0.0015403846046,  -0.1807807683945,   0.0996017158031,  -0.0114056589082,   0.1446575373411,   0.0968531891704,   0.2760896086693,   0.1986501365900,   0.0199416857213,  -0.0500897616148,  -0.1873721182346,  -0.0184704046696,  -0.1466308832169,   0.0787046998739,  -0.0338502191007,   0.2279615402222,  -0.0188697054982,   0.0902797430754,   0.1501847654581,   0.2801848351955,   0.1251980364323,   0.2296371161938,  -0.0727873221040,  -0.1367956101894,  -0.0768482387066,   0.1287967115641,   0.0932241976261,  -0.0776226818562,   0.0752607509494,   0.0716036781669,   0.0115286931396,   0.0003226344124,  -0.0125126214698,  -0.0806921571493,  -0.0526299737394,  -0.0007316906704,   0.1846630126238,   0.1207966729999},
   {   0.1103285104036,   0.1277739256620,   0.0454692877829,  -0.0157271008939,  -0.1739369183779,   0.2108576744795,   0.2514289915562,   0.0666897073388,  -0.2299722433090,   0.1902128905058,  -0.1556123495102,   0.0435869172215,   0.0086336135864,   0.0326821245253,  -0.1810049116611,   0.1036564856768,   0.0402081534266,   0.0837645456195,   0.1730422228575,   0.0863092467189,  -0.0498988963664,   0.0559417493641,   0.0405923761427,   0.1780881583691,   0.0985088422894,  -0.0560536831617,   0.0920092388988,   0.0217331908643,  -0.2241230756044,   0.1035899519920,   0.1797125488520,  -0.0788577273488,   0.1028479114175,  -0.0048265182413,  -0.0111382612959,  -0.1886501908302,  -0.0544999763370,   0.2379461377859,   0.0176160316914,   0.0234920941293,   0.2357423752546,  -0.1048242971301,   0.1812386810780,  -0.0504739321768,  -0.1044621542096,  -0.0691689848900,   0.2406660914421,   0.1742223948240,  -0.1186770647764,   0.0130853224546},
   {  -0.1054725348949,   0.1908099949360,   0.1656664460897,  -0.1604806929827,   0.1223780512810,   0.1965780407190,   0.2063597291708,  -0.2220528870821,  -0.1145161539316,  -0.1946488618851,  -0.1484651416540,   0.1516848206520,  -0.1907607167959,   0.0948446169496,   0.0901744738221,  -0.0223405789584,   0.1846335828304,  -0.2427287101746,   0.0262177903205,  -0.1574539542198,  -0.2560297846794,  -0.1553848236799,   0.1886665672064,  -0.1679884940386,   0.1622372716665,  -0.1249626725912,   0.0058611044660,  -0.1063205376267,  -0.1026955321431,  -0.2531648576260,   0.1804364770651,  -0.1513238400221,  -0.2291646003723,  -0.2063930183649,   0.0921317636967,  -0.2204044461250,   0.2751716971397,  -0.1742412745953,   0.1412695050240,  -0.1618524342775,   0.1619703918695,   0.0756995305419,   0.2456498593092,  -0.0287926681340,   0.0320569053292,  -0.0459322556853,   0.1936217546463,   0.0773590058088,   0.1712018251419,  -0.0809589400887},
   {   0.2304811775684,  -0.1102737337351,   0.2127553522587,   0.0551577135921,   0.1498484313488,   0.0677102953196,  -0.2190418839455,  -0.1073778346181,   0.1934076100588,   0.1923414021730,  -0.1273478120565,  -0.1566609293222,  -0.0368036292493,  -0.0002784242970,  -0.1839766055346,   0.0891353189945,  -0.0972226783633,  -0.0249330811203,  -0.0528546981514,  -0.0862370282412,  -0.1365256011486,   0.1394417583942,   0.1372623145580,   0.1937332898378,   0.0187280178070,   0.0345743596554,   0.1546308696270,   0.2078309804201,  -0.1064068153501,   0.1375081986189,  -0.0651384517550,  -0.1086049303412,  -0.1898987293243,   0.0065635452047,   0.1702509522438,   0.0833424702287,  -0.1318753957748,   0.2139465212822,   0.0001019649790,  -0.1575212627649,   0.0501499883831,  -0.2023194134235,   0.0128580471501,   0.0556858256459,  -0.0054197679274,   0.1482683420181,   0.2635868489742,   0.2360149323940,   0.0563021861017,   0.1198834404349},
   {   0.0969099402428,   0.0142498994246,  -0.1872665435076,   0.0739340931177,  -0.1345300823450,  -0.0682112872601,  -0.1761244237423,   0.1987037658691,  -0.2241333574057,   0.1546810716391,  -0.2016082704067,  -0.0402587577701,  -0.0975570082664,   0.1116445660591,  -0.0661161616445,   0.1731449216604,  -0.2136657238007,   0.1041971296072,   0.0581067763269,  -0.2176616489887,   0.1522877216339,   0.0273056868464,   0.0059241866693,  -0.0035795881413,  -0.0213502664119,   0.0827334746718,   0.0973678827286,   0.1774513870478,   0.0728973001242,  -0.0740384012461,   0.0528962984681,  -0.2185191810131,   0.1382570862770,  -0.1975545585155,   0.0348282419145,  -0.2054783701897,   0.0032628427725,  -0.1572519540787,   0.1631935089827,  -0.0820566043258,  -0.1121998429298,   0.2005904465914,   0.1108786165714,  -0.1113840863109,  -0.1654986888170,  -0.0811441838741,   0.2054286003113,  -0.1158051490784,   0.1920489221811,  -0.0897530391812},
   {   0.0304806753993,   0.1233017295599,   0.2343532443047,   0.0658158212900,   0.1902200579643,  -0.1134520098567,   0.0455579087138,  -0.0697970539331,   0.1003701388836,  -0.1917144358158,   0.0846360176802,  -0.2295729666948,   0.0826308354735,  -0.1905753761530,  -0.1752853840590,   0.0012765250867,   0.1981310993433,   0.1030616313219,  -0.2234594523907,   0.0653393268585,   0.1067977324128,   0.1635742038488,  -0.0543035380542,   0.0588607192039,  -0.1944346427917,   0.1264712214470,  -0.0790996626019,  -0.0399464406073,  -0.1668205261230,  -0.1577239036560,   0.1869878321886,  -0.1219762712717,   0.0416928716004,   0.0546268522739,  -0.1502782553434,   0.1102163568139,  -0.0772803425789,   0.1308215111494,  -0.0517925396562,  -0.1271222531796,  -0.1308843642473,   0.1575271338224,  -0.0353222191334,  -0.1062462627888,  -0.1673489212990,   0.0835032612085,  -0.0120694665238,   0.0955395773053,   0.2394331544638,  -0.0713986009359},
   {  -0.1800802797079,  -0.1919464021921,  -0.1112856194377,  -0.2172792702913,   0.1750268340111,  -0.2290284335613,   0.0818084999919,  -0.0614551231265,   0.1186987161636,   0.1884200870991,  -0.1719424277544,  -0.0735107213259,   0.0130668180063,  -0.1302484720945,   0.1437385678291,   0.1547660231590,   0.1006450131536,  -0.0282024648041,   0.1943949162960,   0.1899145394564,   0.2224779874086,   0.0875103250146,  -0.1243544816971,   0.1377730965614,  -0.1802722364664,   0.1880360543728,  -0.1067271754146,  -0.0971682071686,   0.1321721225977,   0.1638452410698,   0.0287827625871,   0.1452654749155,  -0.0949216261506,  -0.1091990545392,   0.1312797069550,  -0.0781849697232,  -0.2689031064510,   0.1792034506798,  -0.1536002904177,  -0.1187489852309,  -0.1802927106619,  -0.1108409985900,  -0.1860831528902,   0.1324799954891,  -0.0882426351309,  -0.1977804750204,   0.1205550730228,  -0.0521988756955,   0.2249238938093,  -0.0804240182042},
   {  -0.1183300018311,  -0.0843318104744,   0.1381974071264,   0.1038423776627,   0.1746935695410,  -0.1888330876827,   0.1051032245159,   0.0576346144080,  -0.2696622610092,  -0.1961390078068,  -0.1011904254556,  -0.1494031697512,   0.0245836954564,   0.0707472860813,  -0.0408758334816,   0.1020559966564,  -0.2247060239315,   0.2270027846098,   0.2021363973618,  -0.1319200247526,   0.1585392653942,  -0.0380098596215,   0.0890024974942,  -0.0405264124274,  -0.0712436512113,  -0.1755557805300,  -0.0533600002527,  -0.0021413138602,  -0.1999274492264,  -0.2121704965830,  -0.1974138915539,  -0.2054885625839,  -0.0231551844627,  -0.0770643949509,   0.0324782989919,   0.1927473247051,  -0.1100365296006,  -0.1328614205122,   0.2547882497311,  -0.0484720915556,  -0.0675693452358,  -0.0705223977566,  -0.2105883806944,  -0.2321152687073,   0.0091815805063,   0.0533954352140,  -0.1323254555464,   0.1998428553343,  -0.0245075263083,  -0.0588475279510},
   {   0.1838608086109,  -0.0374937281013,   0.1731335371733,  -0.0440495572984,  -0.0282261762768,   0.0519260056317,   0.0131445135921,  -0.1859868019819,   0.1004273071885,   0.0302586685866,  -0.2293988019228,   0.1431691199541,   0.0512921810150,   0.2685111761093,  -0.1394570022821,  -0.1754037290812,  -0.1654571145773,   0.0292128231376,  -0.0252930782735,  -0.0669366940856,  -0.0131611311808,   0.0926322042942,   0.0687944069505,   0.0588403269649,  -0.1563954949379,  -0.0772995799780,   0.0950986221433,   0.2365498989820,  -0.0217498838902,  -0.0963430702686,  -0.0738437622786,  -0.2160019278526,   0.0908214598894,   0.2144664376974,   0.2174882739782,   0.2634280622005,  -0.0578050352633,  -0.0707241594791,   0.0403170138597,   0.1323465108871,  -0.1213959977031,   0.0799692720175,  -0.0287616178393,   0.1992113590240,   0.1148703321815,  -0.2019881904125,   0.0450694523752,   0.1221769973636,   0.2393226176500,  -0.2371189147234},
   {  -0.1064740195870,  -0.2212595194578,  -0.1842648088932,  -0.1492546051741,  -0.0839139893651,   0.2354991734028,   0.1346516758204,  -0.1505694240332,  -0.1082309857011,   0.0667880326509,  -0.2162775546312,  -0.1225901618600,   0.0817071348429,  -0.2436647117138,  -0.2086490690708,  -0.2196904867887,  -0.0112759862095,   0.0512391291559,   0.0405911542475,  -0.1344748884439,   0.0536993294954,   0.2391196340322,   0.0119299674407,   0.1710021942854,  -0.1877959370613,  -0.1723165363073,   0.1099419668317,  -0.0519912578166,  -0.0876179113984,  -0.1088000386953,   0.1854258179665,   0.1314323693514,   0.0407096482813,  -0.1670142859221,  -0.2224646061659,  -0.1829979866743,  -0.0440081395209,  -0.0801520571113,  -0.1406699419022,   0.0706227719784,   0.1704131811857,   0.0388087108731,   0.0958990529180,  -0.0223911106586,  -0.2181102484465,  -0.2113580107689,   0.2203837186098,   0.1980934888124,  -0.1462156921625,  -0.0031331102364},
   {   0.1368875950575,   0.0955874398351,   0.1252862215042,   0.0943640619516,   0.0145526332781,   0.1860051453114,  -0.2108945548534,  -0.0475242771208,  -0.2470101267099,  -0.0619118697941,   0.2553155720234,   0.0077372603118,  -0.0040902332403,  -0.1931166797876,   0.2090490162373,   0.1806319952011,   0.0319717228413,  -0.1834569573402,   0.2049690634012,  -0.2251413166523,   0.0642483681440,   0.1238586083055,   0.2295397818089,   0.1666668504477,   0.0307395849377,   0.1332882791758,  -0.1641600430012,  -0.1192075908184,   0.0031137191691,   0.1445453912020,   0.2125601023436,  -0.1396253257990,   0.0998612269759,   0.0920187234879,   0.2311929762363,   0.2678850889206,   0.0987734198570,   0.0951748862863,   0.0906357914209,   0.0674413219094,   0.0591338165104,   0.0658427253366,  -0.1676658540964,  -0.1404247134924,  -0.2033571153879,   0.0259981583804,  -0.0307928156108,  -0.0577960051596,  -0.0334337912500,  -0.1675904840231},
   {   0.0244234111160,  -0.1683953851461,  -0.0838754549623,  -0.2063016593456,   0.0838931426406,  -0.1348751336336,   0.2303552478552,  -0.1131550222635,   0.0657744780183,   0.0570944435894,   0.1657559573650,   0.1708540618420,   0.0106924837455,   0.1673855334520,   0.1624050736427,   0.1200747638941,   0.1637840867043,  -0.1025823801756,  -0.0422972999513,   0.0389566458762,   0.0118548497558,  -0.2060697525740,   0.1823236495256,  -0.1289377808571,  -0.1587600111961,   0.2138732969761,   0.1479205787182,   0.0242407098413,  -0.0685336738825,  -0.0043680043891,   0.2269203513861,   0.0789054036140,  -0.0222139861435,   0.1884080469608,   0.1510370075703,  -0.0510108359158,  -0.0145258242264,   0.1924750059843,  -0.1787144094706,  -0.1098815873265,   0.1775291413069,   0.2468490451574,  -0.1884418725967,  -0.1035540774465,  -0.2499374151230,   0.1757034659386,  -0.0920141637325,   0.1590660661459,  -0.1087546423078,   0.1758677363396},
   {   0.0456373132765,  -0.2000914514065,   0.2676007747650,  -0.2760032415390,  -0.1941489875317,   0.2085550278425,   0.1704191714525,   0.2255844324827,   0.2247997671366,   0.2048725485802,   0.0015297570499,  -0.1386695057154,  -0.2023826539516,  -0.1918904334307,   0.1443599462509,  -0.1517093181610,  -0.0949759632349,  -0.0048246341757,  -0.1884398460388,   0.1295121610165,  -0.0326967053115,  -0.0042832242325,  -0.1121552437544,  -0.2431025356054,   0.1454051285982,   0.2273368984461,  -0.0625210851431,   0.0261032022536,   0.2374454289675,  -0.2426197528839,  -0.0860080048442,  -0.1481817513704,   0.1522597670555,   0.0490225963295,   0.0412689857185,   0.0089730191976,   0.1157169714570,   0.1415192931890,   0.0477569550276,  -0.0700529813766,  -0.0909439474344,   0.1811221539974,   0.0234400872141,  -0.2380708158016,  -0.1595321744680,   0.0906168669462,  -0.2168898135424,   0.1371342241764,   0.1683092862368,   0.0977753177285},
   {  -0.0968780219555,   0.2336769104004,  -0.0605255514383,   0.0421732142568,  -0.0838670581579,   0.2377431690693,   0.0977134630084,  -0.0443322136998,  -0.2499896585941,   0.2035125195980,  -0.0221473034471,   0.0682987719774,  -0.1911477148533,  -0.2545295655727,   0.1520233154297,  -0.1617413163185,  -0.1235012412071,  -0.0637427344918,   0.1123869046569,  -0.1552649438381,   0.0266428645700,  -0.2124254405499,  -0.1900551319122,   0.0086451582611,   0.2063204646111,   0.0799350440502,  -0.0418210774660,   0.0545050427318,  -0.0883318334818,  -0.2412777245045,   0.1452232301235,   0.0237805433571,   0.0930155813694,  -0.1269832700491,  -0.0152889993042,  -0.1117407009006,   0.1247778311372,  -0.2355942875147,   0.1936424076557,  -0.1850948780775,   0.0002947387984,   0.1505000442266,   0.0446428731084,  -0.1560098826885,   0.2434339225292,  -0.0206116158515,  -0.1793526411057,   0.0256873536855,   0.1813529878855,   0.1742228269577},
   {   0.1366191953421,   0.2000275403261,  -0.1679485887289,  -0.0275528654456,   0.0174371059984,  -0.2237332761288,  -0.1909872144461,   0.1785886287689,  -0.0095896655694,   0.0075143422000,   0.1411377489567,  -0.1799149811268,   0.1045763567090,  -0.1989063322544,   0.0692067742348,  -0.1761534959078,  -0.1753435730934,  -0.1332174092531,   0.1109669655561,  -0.0069520887919,   0.0147919496521,  -0.0006308160373,   0.0258841477334,  -0.1712826490402,  -0.0629879683256,  -0.0307998172939,  -0.0292693246156,   0.0852667614818,   0.2061639875174,   0.0437735952437,   0.2177349478006,  -0.1873605102301,   0.0202739946544,   0.2073857039213,   0.0828512981534,  -0.1101846173406,   0.1908434927464,   0.2281780093908,  -0.0062144733965,  -0.1297624409199,   0.2198636084795,   0.2154695540667,   0.1208004429936,  -0.1441508680582,   0.0844983905554,  -0.0600699074566,   0.2492976933718,   0.0777173638344,   0.0041825925000,  -0.1080169454217},
   {  -0.1742135435343,   0.2553600072861,  -0.1098194941878,  -0.0320747196674,   0.2017637342215,  -0.0064399368130,   0.1494652181864,   0.1363956034184,  -0.2018666565418,  -0.2020812183619,  -0.0454734750092,  -0.0462716631591,  -0.0239406209439,   0.0249338932335,   0.1833133697510,  -0.2480812668800,  -0.1300820410252,   0.0071836458519,   0.0547581166029,   0.0642582923174,   0.0324109308422,   0.0988637730479,   0.1955405473709,  -0.0955572426319,  -0.2370577752590,  -0.0292412564158,  -0.0820886045694,  -0.0953971222043,   0.2020367532969,  -0.1600836515427,  -0.1849218159914,   0.0930756628513,  -0.0153527697548,  -0.0609081350267,   0.2034624665976,   0.0747515633702,  -0.0868652686477,   0.0704231485724,   0.1243791505694,  -0.0589971840382,   0.2090420573950,  -0.0426854304969,   0.1446621567011,   0.0805122330785,  -0.0189517401159,  -0.1656121313572,  -0.0190260708332,  -0.0551483705640,   0.0157444290817,   0.0404128469527},
   {  -0.0074517163448,  -0.0460677854717,   0.0648525208235,  -0.0078625325114,  -0.0020349714905,   0.0807130634785,  -0.0129235135391,  -0.1841790080070,  -0.1826984882355,   0.0695727393031,   0.1970073580742,   0.0386803336442,  -0.1625034213066,   0.1059563234448,  -0.0906509310007,  -0.0718466788530,  -0.0739157721400,   0.1015860736370,  -0.2501978576183,   0.0317167080939,  -0.2437373399734,  -0.2178444564342,   0.1055066958070,   0.2369301766157,   0.1430232375860,   0.0044476566836,  -0.1805563122034,  -0.1654261499643,   0.1683584749699,   0.2471662163734,   0.1094349324703,   0.1581689268351,  -0.2233185917139,  -0.0374172218144,   0.2288606613874,   0.1344677358866,  -0.0707322359085,   0.0252252630889,  -0.2633048593998,   0.0706608518958,   0.0396747551858,  -0.0110919578001,   0.2762311100960,   0.2445167005062,  -0.2055406570435,   0.1533905416727,  -0.0907538682222,  -0.1026024520397,  -0.0509479306638,   0.1566066592932},
   {  -0.1358641237020,  -0.0066455197521,  -0.2399826645851,  -0.0109472684562,   0.2192895263433,  -0.0846266224980,  -0.1130950674415,   0.1360498070717,   0.0553588084877,   0.1882736831903,  -0.0879350602627,  -0.0025322397705,   0.0486690588295,  -0.0029998903628,  -0.1581193804741,  -0.1559254676104,   0.2678276598454,   0.1277020275593,   0.1773711591959,   0.0013986307895,   0.1244102120399,   0.0106112649664,  -0.2313132435083,   0.0997122898698,  -0.2284333258867,  -0.2294803261757,  -0.2071099281311,   0.1416272968054,  -0.1284059435129,   0.1049934178591,  -0.1946639865637,  -0.1530276834965,   0.0577962026000,   0.0644542574883,   0.0709826573730,  -0.0220440924168,   0.0072789043188,   0.1872515082359,   0.1313038170338,  -0.1015907600522,  -0.0891535356641,   0.1647605597973,  -0.0288937445730,   0.0376328676939,  -0.2511986494064,  -0.0771641284227,   0.1801797002554,   0.2270410656929,   0.2602481544018,  -0.1358565539122},
   {  -0.2260481119156,  -0.1367973387241,   0.2090714126825,   0.1665339469910,   0.0838473662734,   0.1241428032517,   0.1249908059835,  -0.0479696728289,   0.2479905188084,   0.1448724716902,   0.1183404624462,   0.2309412658215,  -0.1300512552261,  -0.1261930465698,   0.0934433415532,   0.0590837709606,   0.0080580469221,  -0.0777285397053,  -0.1425408273935,  -0.0892474353313,   0.0401947908103,   0.2377251833677,   0.2085890769958,  -0.0671666488051,  -0.2168696820736,   0.0565990246832,   0.1471542567015,   0.1006270125508,   0.1529170423746,   0.1462671458721,  -0.0352225750685,  -0.1662331074476,   0.1258134692907,  -0.0424339175224,  -0.0393364615738,  -0.0144740631804,  -0.0075799939223,  -0.0517653636634,   0.0955002903938,   0.1361966133118,   0.0268404390663,  -0.2137104421854,  -0.1236465796828,   0.0155422855169,  -0.1440827697515,   0.1145719066262,  -0.0867736190557,  -0.1345610022545,   0.0964582413435,  -0.0912060141563},
   {  -0.1698272377253,  -0.1894918978214,  -0.1315210312605,  -0.1713945269585,   0.0308070462197,  -0.0576146915555,  -0.0371200889349,   0.0843474790454,  -0.2835259735584,  -0.1210126578808,  -0.1430746763945,  -0.2299169749022,   0.0145739512518,  -0.0643413439393,  -0.1767480969429,  -0.0268738474697,   0.1417283713818,  -0.1633649170399,  -0.0998354926705,  -0.0551638789475,   0.2110418230295,  -0.1789136976004,  -0.0470223985612,   0.2699067592621,  -0.0047057303600,   0.1829866915941,  -0.0907864868641,  -0.1127904206514,   0.1320200562477,   0.2300883680582,  -0.0604116357863,   0.1767882108688,  -0.1246581450105,  -0.0583066307008,   0.1848749816418,   0.0231058578938,  -0.0695087313652,   0.0692546069622,  -0.2551963925362,   0.2218292504549,   0.0028893554118,  -0.1268099993467,   0.2046742588282,   0.1166693419218,  -0.1978711932898,  -0.0399550646544,  -0.2256460189819,   0.0981492549181,  -0.0633895397186,  -0.0372010394931},
   {  -0.0483954362571,   0.0758324265480,  -0.0916296169162,  -0.1183737739921,  -0.1218291521072,  -0.2148828208447,   0.0401252321899,  -0.1254946142435,  -0.0080571603030,  -0.2045521885157,  -0.1860920339823,   0.0234009008855,  -0.1603063642979,   0.0594778880477,  -0.2523883283138,   0.0783497616649,  -0.0130385644734,  -0.1892771273851,   0.2033528834581,   0.1282974928617,   0.0807320922613,  -0.1585647910833,   0.2336921244860,  -0.2315946370363,   0.1388932764530,   0.2330376952887,  -0.2296319454908,   0.1138613298535,  -0.0225921645761,   0.0860632136464,  -0.0254056937993,   0.0664410218596,   0.1545525491238,   0.0685737878084,   0.1866312921047,  -0.1183470934629,  -0.2557514309883,  -0.0720564872026,   0.1223274692893,   0.1710809916258,  -0.1475959271193,  -0.0716100335121,   0.0122691458091,  -0.0950943976641,   0.0975272282958,  -0.1385965049267,  -0.1211484670639,   0.0596235543489,  -0.1747199743986,  -0.0304825864732},
   {   0.2012004256248,  -0.2263596504927,   0.0565147288144,  -0.1843513399363,   0.1130475774407,  -0.2042379081249,  -0.1882347613573,  -0.1517826020718,  -0.0912482962012,  -0.2332446575165,  -0.0355958007276,   0.2420254945755,   0.0112160313874,   0.1328048855066,   0.1027790382504,  -0.1809444427490,  -0.0572649352252,   0.1114472299814,   0.1731670945883,  -0.1342816054821,   0.1727971285582,   0.0442869216204,  -0.1513011753559,   0.0745685324073,   0.0969333648682,  -0.0242372062057,  -0.1937410384417,   0.1537884920835,  -0.1828518360853,   0.1820771843195,   0.1192561537027,  -0.2065051943064,  -0.0276536587626,  -0.1970968991518,   0.2051706463099,  -0.2035057395697,   0.2554602026939,   0.1100100278854,  -0.1394683420658,   0.0836445391178,  -0.0368466340005,  -0.0665663778782,  -0.2094472944736,   0.1436465829611,   0.0504382662475,   0.0941733792424,   0.2111671566963,  -0.1984531432390,   0.2296630740166,  -0.2156242281199},
   {  -0.1008234396577,   0.2058218568563,  -0.1596748232841,   0.0613720677793,  -0.1931997686625,  -0.1214051917195,   0.0943746119738,   0.0300493482500,  -0.0086931446567,   0.1775406301022,   0.2462129145861,  -0.0300567410886,   0.2448576837778,   0.2076614499092,   0.1615387797356,  -0.1624906212091,  -0.0994713604450,  -0.0865461528301,  -0.1909880489111,   0.1602959632874,   0.1191375851631,  -0.0196297224611,   0.1919711828232,  -0.1398698836565,   0.1771952658892,   0.0079683130607,   0.1997698694468,  -0.1578120142221,  -0.2308021634817,   0.0902899280190,   0.1375989615917,   0.0061642020009,  -0.0424002110958,   0.2272437661886,   0.0212599337101,   0.1110516116023,   0.1295628845692,   0.0704241394997,   0.0109958285466,   0.1698982864618,  -0.1528948098421,   0.0851525962353,  -0.1129564046860,  -0.0431022383273,  -0.0602253563702,   0.2084789127111,  -0.0102278674021,   0.0295660272241,  -0.2311538010836,  -0.0962557718158},
   {   0.1937940418720,  -0.0078172897920,   0.2241841107607,  -0.1775045543909,  -0.1956777572632,  -0.1053903624415,   0.2223211675882,   0.1200489327312,  -0.0916711166501,  -0.0330848433077,  -0.2102202326059,   0.2272725999355,   0.0981252938509,   0.1216793879867,  -0.0309969261289,  -0.1394038051367,   0.1887280642986,  -0.2100383192301,  -0.0489173941314,  -0.2300645112991,   0.0269504450262,   0.0595434308052,   0.1780253499746,  -0.1047028005123,   0.1071362644434,   0.0593538172543,  -0.0361440889537,   0.1155633479357,   0.1470660716295,  -0.0484991893172,   0.2167712450027,  -0.0838516429067,  -0.0350983105600,  -0.2349692434072,  -0.1936489790678,   0.1211679652333,  -0.1585972756147,  -0.2507032155991,  -0.0351027958095,  -0.0394929274917,  -0.0599675290287,  -0.0709207057953,   0.0000098187957,   0.0617430992424,   0.0182040780783,  -0.1479554623365,  -0.0163196977228,   0.1919132918119,  -0.1738723069429,  -0.0328418239951},
   {   0.1236735060811,  -0.0656674355268,   0.1159296780825,   0.0706168338656,  -0.0021053447854,   0.0887394547462,   0.1588937342167,  -0.1439837813377,  -0.1775171309710,  -0.1337843686342,  -0.1798389405012,   0.2629774212837,  -0.1183921173215,  -0.2018287628889,   0.0038582077250,  -0.1933999061584,  -0.0262515656650,  -0.1657985448837,  -0.1120172515512,   0.0743434056640,  -0.0835450738668,   0.0820860341191,  -0.1714610904455,   0.1557141244411,  -0.1541719436646,   0.2000640183687,  -0.1903701424599,  -0.0382363796234,  -0.0555929467082,   0.0227937027812,   0.1691536009312,  -0.0590165816247,  -0.0474001243711,  -0.0578758046031,   0.1703108251095,   0.1738370507956,  -0.0679297521710,   0.1199046447873,   0.1130125001073,  -0.0377558171749,   0.1244631484151,  -0.2523920238018,   0.0526489950716,  -0.0845570415258,  -0.0387618429959,   0.0250768121332,  -0.1928249299526,   0.2479035705328,   0.1068147197366,  -0.0483431555331},
   {   0.1386225223541,   0.1685922592878,  -0.0249771233648,  -0.1404501795769,  -0.1419802904129,  -0.1949803680182,   0.0777326971292,   0.1796786487103,  -0.1323507279158,   0.0814054012299,  -0.0690250918269,   0.1718516349792,  -0.0197891294956,   0.1096337959170,   0.1369564384222,  -0.1873119473457,   0.0141347758472,  -0.1896986365318,   0.2211525887251,  -0.1249973550439,   0.1865094900131,  -0.0174958240241,   0.1742485016584,  -0.1491906791925,  -0.0488505773246,  -0.1417143642902,   0.1234607100487,  -0.2115122377872,  -0.1363036483526,  -0.0527334362268,  -0.0674499496818,  -0.0368155501783,  -0.1351017206907,  -0.0838375091553,  -0.2233964800835,  -0.1085374653339,  -0.2057259827852,  -0.0278488937765,   0.2685228884220,   0.0891176387668,   0.2094926983118,  -0.1339038163424,  -0.0059089018032,  -0.1335705965757,  -0.0144663602114,  -0.1157329007983,   0.1758919060230,  -0.2758033871651,   0.0317360460758,   0.1482321768999},
   {  -0.2709663510323,   0.1871887743473,   0.0559027642012,  -0.1308039128780,   0.0516640953720,  -0.1640569269657,   0.1393322050571,   0.1919506490231,   0.1967310160398,  -0.2022491097450,  -0.1676440834999,   0.0458235666156,   0.2133296579123,   0.0827805697918,   0.2204274386168,   0.2085375934839,   0.0031094194856,   0.0399697162211,  -0.0732140094042,  -0.1478269696236,   0.1732666790485,  -0.2432965487242,   0.1238253563643,   0.1322313994169,   0.1784646213055,   0.1078162863851,   0.0961221307516,   0.2832267582417,   0.0746116861701,   0.0964761897922,   0.0917435362935,   0.2270544916391,  -0.1092863380909,  -0.0017800905043,  -0.1075611487031,   0.1163061484694,  -0.0544483326375,   0.2486679702997,   0.1177192926407,  -0.1858630925417,   0.1220835521817,  -0.1715306341648,   0.0667543485761,   0.2297915518284,  -0.1585022509098,   0.1892988085747,  -0.1279817968607,   0.0236506592482,   0.1202821359038,   0.2271204739809},
   {  -0.2045800238848,   0.0755669623613,  -0.2320116311312,   0.1498049497604,  -0.0953622832894,  -0.1653953641653,   0.1131128966808,   0.0185243282467,  -0.0614536665380,   0.0210787523538,   0.0020719694439,   0.1644111126661,  -0.2363791316748,  -0.1442490816116,   0.1263060122728,  -0.0448035597801,   0.1789415925741,   0.1206935793161,  -0.1421052664518,   0.1227220594883,   0.0652776211500,   0.2256418913603,   0.1034662500024,   0.2407234460115,  -0.0777810364962,   0.1823938935995,   0.1009739115834,   0.1545898169279,  -0.0481219105422,  -0.2118880748749,  -0.1746573001146,  -0.1053854152560,   0.0369843244553,   0.1777699440718,   0.1510808765888,  -0.0401626750827,  -0.2597607970238,   0.1118072941899,   0.1021083742380,   0.2237053811550,  -0.0050534354523,   0.1124730855227,   0.2104289978743,   0.1502151638269,  -0.1934911012650,   0.1990381926298,  -0.0066710039973,   0.0062297205441,  -0.1939140260220,   0.1320456862450},
   {  -0.0704975575209,  -0.0862720087171,   0.0892276167870,  -0.0222428850830,   0.1403192728758,  -0.0373397581279,   0.0286970026791,   0.0776918306947,   0.1886154711246,   0.1014528945088,  -0.2007432281971,  -0.0130799030885,  -0.1427969783545,  -0.0391591452062,   0.1917843967676,   0.1917138695717,   0.1183575019240,   0.1862005740404,   0.2208944857121,   0.1880229711533,  -0.1121100932360,  -0.2184593677521,   0.0123691149056,   0.1326157450676,  -0.2205422073603,   0.1915785819292,  -0.1877883076668,  -0.2087980955839,  -0.0366912372410,  -0.0172311346978,   0.2259872406721,   0.0954966321588,   0.1737790554762,   0.1744449287653,  -0.2071573436260,  -0.0978056341410,  -0.1754765659571,   0.0623469427228,  -0.0774961933494,   0.1734923720360,  -0.0609343796968,   0.2646293640137,   0.0355071127415,   0.1094716787338,   0.1690533906221,   0.1429090946913,  -0.1732424199581,   0.1163065731525,   0.0150510594249,  -0.1737115383148},
   {   0.1983539760113,   0.0436180457473,  -0.0302899461240,   0.0988254100084,  -0.1675640046597,   0.0006337898667,   0.0629839971662,   0.1262304186821,  -0.0769094899297,   0.0215015392751,   0.0656411424279,  -0.2350007742643,   0.1439435631037,   0.0552069470286,   0.1676532030106,  -0.1718332171440,  -0.2001208513975,  -0.2095122188330,   0.0201916676015,   0.2018614858389,  -0.0202322192490,  -0.1739665269852,   0.2266082763672,   0.0684684216976,   0.1778060793877,   0.0985341221094,  -0.1804970055819,  -0.0372192300856,   0.0089152622968,  -0.2064773589373,   0.1984815597534,  -0.2065907716751,  -0.1730855852365,   0.1314574182034,   0.0325699038804,  -0.0709970444441,   0.0500877983868,   0.0566717199981,  -0.2780082821846,   0.1859313696623,   0.1776175796986,   0.1911846995354,   0.1401695013046,   0.1071144789457,   0.0104405134916,   0.0116230053827,   0.0265441369265,   0.0438361987472,   0.0276793614030,   0.0619968771935},
   {   0.0511622615159,   0.0754171460867,   0.0567300990224,   0.0864269509912,  -0.1504553258419,   0.1014230325818,  -0.1789572983980,   0.0983046814799,  -0.0288742240518,   0.0021675189491,  -0.1375372409821,  -0.1490075737238,   0.1168813407421,  -0.0890250355005,   0.0410646423697,  -0.0035334441345,   0.2023840844631,  -0.1141072362661,   0.1127143129706,   0.0108373519033,  -0.2071874737740,  -0.1681700199842,   0.1855146139860,  -0.0311706643552,   0.1457538008690,   0.0905942320824,  -0.0839655846357,  -0.1103058010340,   0.2141514122486,   0.1324528306723,  -0.1263275146484,   0.0363944694400,   0.0248010940850,   0.1618064045906,   0.0458058677614,   0.1100925579667,  -0.2082785069942,   0.0399072542787,  -0.0648193582892,  -0.0859967991710,   0.0822658017278,   0.1787751913071,  -0.1659147441387,   0.1321315169334,  -0.1090457960963,   0.0632769912481,  -0.0031062839553,  -0.0761021748185,   0.1463972330093,  -0.1334230601788},
   {  -0.0070747546852,  -0.0383688360453,  -0.1229322776198,  -0.2210376113653,   0.1640947610140,   0.1776232719421,  -0.0883366391063,   0.1166329085827,  -0.0792169049382,   0.0018493281677,   0.1835858374834,   0.1426329612732,  -0.1825906187296,   0.2541237175465,   0.0701979473233,  -0.0865857899189,   0.1876284629107,   0.1148499622941,   0.1948288530111,   0.1277387738228,  -0.0395611636341,   0.2240563035011,  -0.1324363350868,  -0.0779994577169,   0.1203410923481,  -0.0816139206290,   0.1312844157219,  -0.2150202840567,  -0.0943635702133,  -0.2457202374935,  -0.0187005754560,   0.1380438953638,  -0.1287076771259,  -0.2584327161312,   0.1901864260435,   0.2094237804413,   0.0021651859861,  -0.2016603350639,   0.0878649353981,   0.0075144693255,  -0.1791773140430,   0.1285323500633,   0.1662494242191,  -0.2503003776073,  -0.0928045660257,  -0.1626093238592,  -0.1036723330617,   0.1243866980076,   0.0837286636233,   0.0455587431788},
   {   0.2270164489746,  -0.1617005914450,   0.0158794727176,  -0.1640580743551,   0.1096682399511,  -0.1661571264267,  -0.1448601484299,   0.2241310924292,  -0.0658641755581,  -0.2067189216614,  -0.0314542315900,   0.0029461323284,   0.1031725406647,  -0.0328675583005,   0.1055017262697,  -0.2272934615612,  -0.1581515073776,  -0.2637144923210,   0.1814658194780,   0.0314496010542,   0.1966367363930,   0.1531422734261,  -0.2093584686518,   0.1717553585768,   0.2005115002394,  -0.1341358870268,   0.2745778560638,   0.0342060066760,  -0.1896851956844,  -0.2106785178185,  -0.1885785013437,   0.0166783612221,  -0.2147935926914,  -0.1311048865318,  -0.0359902456403,   0.0203318186104,   0.1792628318071,  -0.1936283856630,  -0.1236076131463,   0.0227924361825,  -0.0967578068376,   0.1678611785173,   0.1983178257942,   0.0325979329646,   0.1455605924129,  -0.0600308589637,  -0.0131710460410,   0.1992810070515,   0.1879350990057,   0.1642757356167},
