
    // Select all (Ctrl+A), Copy (Ctrl+C), paste to an empty text file (Ctrl+V) and save that file as 'generated_code.h'
    // 
    // Auto-generated header file. Assumes img to be a floating point array
    // of 64 elements (corresponding to an 8x8 b&w image)

    #include <math.h>

    float norma_TT;
    
inline float activation_TT_0 (float x, float n) 
{ return x > 0 ? x : 0;}
inline float activation_TT_1 (float x, float n) 
{ return x > 0 ? x : 0;}
inline float activation_TT_2 (float x, float n) 
{ return x > 0 ? x : 0;}
inline float activation_TT_3 (float x, float n) 
{ return x > 0 ? x : 0;}
inline float activation_TT_4 (float x, float n) 
{ return x > 0 ? x : 0;}
inline float activation_TT_5 (float x, float n) 
{ return x > 0 ? x : 0;}
inline float activation_TT_6 (float x, float n) 
{ return x > 0 ? x : 0;}
inline float activation_TT_7 (float x, float n) 
{ return x > 0 ? x : 0;}
inline float activation_TT_8 (float x, float n) 
{ return x > 0 ? x : 0;}
inline float activation_TT_9 (float x, float n) 
{ return exp(x)/n;  }

    float guess_TT (const float *img, int flag)
    {
    
  // Declare the arrays in the stack
  const float kernel_0[57][50] = 
  {{  -0.2561623752117,  -0.0450669750571,   0.0060694692656,   0.1611081063747,   0.1338228583336,  -0.2068141996861,   0.2186622619629,  -0.2582362294197,  -0.1500726789236,   0.1393238902092,  -0.0455737523735,   0.0488423667848,  -0.0459465421736,   0.2501562535763,  -0.1110861748457,  -0.1047281473875,  -0.0658991783857,  -0.1997420638800,   0.1466980576515,   0.0280600599945,  -0.0035305488855,  -0.1579159349203,  -0.0198742058128,   0.1064603999257,  -0.2301111817360,  -0.0409529916942,  -0.1200304105878,   0.0902742817998,   0.1408928483725,   0.1800075471401,  -0.2486275881529,  -0.1698636561632,   0.1198337599635,   0.0028214287013,  -0.0497515462339,  -0.1881475895643,  -0.0280025321990,   0.0075542079285,   0.2464603185654,   0.1472756117582,  -0.0882662758231,  -0.1396747082472,   0.1131479963660,   0.1119876280427,  -0.2399537116289,  -0.1440639346838,  -0.0491632521152,  -0.2170147299767,  -0.0944921821356,   0.0683903768659},
   {   0.0155298523605,   0.0490053780377,   0.1498388200998,   0.1219674348831,   0.1585737913847,  -0.1655920147896,  -0.1811837702990,  -0.0337142534554,   0.0726332888007,   0.0998105183244,   0.1203842684627,   0.1233750060201,   0.2386494129896,  -0.0698945298791,   0.1887641102076,   0.1376420855522,  -0.0359172448516,  -0.1270367652178,  -0.1819610595703,  -0.1240973845124,   0.0835391879082,  -0.0569006055593,  -0.1818521022797,  -0.0421883165836,  -0.1202086508274,  -0.0204406641424,  -0.0461638681591,  -0.0757007896900,  -0.2073805928230,   0.0844655930996,  -0.0211929939687,   0.1437914818525,   0.0968227609992,  -0.0120104504749,  -0.0106713511050,  -0.0355432294309,  -0.0192755684257,  -0.0688163563609,   0.1866349428892,   0.0778124853969,  -0.0424751937389,  -0.1478364467621,   0.1788924485445,  -0.0401434525847,  -0.0380143560469,   0.1923729330301,   0.1532953977585,   0.2357121706009,  -0.1934551000595,   0.0966071560979},
   {   0.0624981932342,  -0.0375140123069,   0.1422703564167,   0.1835513412952,  -0.1306486874819,   0.0755943208933,   0.0084432614967,  -0.1312143206596,   0.0238599516451,  -0.2126758545637,   0.0614712052047,   0.0653157234192,   0.0226211808622,   0.2539330124855,   0.1350124776363,   0.0977674573660,   0.1517230570316,  -0.1601101756096,  -0.1443619728088,   0.0156772825867,   0.1870959401131,  -0.1102453395724,   0.2213537096977,  -0.0073808808811,   0.2199679911137,   0.1308860927820,  -0.1035066917539,  -0.1514966040850,  -0.0716283395886,  -0.0733301267028,   0.1894846409559,   0.1527416110039,  -0.0561744049191,  -0.1285507231951,  -0.1613878756762,   0.1326743662357,   0.1359941363335,   0.1210584789515,  -0.0459360070527,  -0.2504892051220,   0.1591942012310,   0.1155112162232,   0.0631353855133,   0.1713230311871,   0.0409628674388,   0.0129714682698,   0.0092988088727,  -0.0366146452725,  -0.0380620844662,  -0.1163578331470},
   {   0.0799026414752,   0.1358610987663,  -0.2035652250051,   0.2385714352131,   0.0436974279583,   0.1824544519186,  -0.0767844244838,  -0.1599180549383,   0.1908289492130,  -0.0762520655990,  -0.0799193531275,   0.1264005452394,  -0.0440986864269,   0.0625819340348,  -0.0566060952842,  -0.0253671668470,  -0.1475336253643,  -0.1770514100790,   0.1887878477573,   0.1255000531673,  -0.0966924428940,  -0.2026846408844,   0.0894668325782,  -0.0114748952910,   0.0532315112650,   0.1419047117233,   0.1924521774054,   0.0970531329513,  -0.0615069270134,  -0.1948309540749,   0.0606182515621,   0.1510854959488,  -0.1589792668819,  -0.1326592117548,  -0.0221313089132,  -0.0032944080885,  -0.1203528046608,  -0.1167282983661,  -0.1592587083578,  -0.0441775135696,  -0.2368325442076,  -0.1860595494509,  -0.1586875468493,  -0.1867763549089,   0.1068139523268,  -0.0698352679610,   0.1932733505964,  -0.2190170884132,  -0.2126777321100,  -0.0768412500620},
   {  -0.2097665965557,  -0.1338333934546,   0.1373589485884,   0.0206083115190,   0.0631178617477,  -0.1769175529480,   0.0165248047560,  -0.2456048130989,  -0.0045386194251,  -0.0682997629046,   0.1166265606880,  -0.1483795940876,   0.1312652677298,   0.2516284584999,   0.0570656359196,  -0.0227792635560,  -0.0529211498797,   0.0219853911549,   0.1897090971470,  -0.1918830722570,   0.0635460615158,  -0.1738194525242,   0.1010425388813,   0.0757135897875,   0.1292817890644,   0.0317061245441,   0.1682895720005,  -0.0829032137990,   0.1856224387884,   0.0462019629776,   0.0646716877818,   0.2302526980639,   0.1449731290340,  -0.0858689397573,  -0.0428806357086,   0.1308756321669,   0.0303999893367,   0.0237179696560,   0.2055542767048,  -0.1223789006472,  -0.0743749216199,   0.0744571909308,  -0.0380806140602,   0.1107613518834,   0.1917375922203,   0.1799701154232,   0.0075924145058,   0.0348453521729,  -0.2323956191540,  -0.2603205442429},
   {   0.1079826653004,   0.0324898324907,  -0.0523964241147,  -0.0257672257721,  -0.0705127716064,  -0.0982156768441,   0.0057641770691,  -0.2423194795847,  -0.0558272860944,   0.0618184804916,   0.1725170910358,   0.2241218239069,   0.1908651888371,  -0.1363561600447,  -0.1025426089764,   0.0703045278788,  -0.0675330311060,   0.0056254230440,   0.1542576104403,   0.0719311237335,   0.1901751756668,   0.1398314237595,  -0.2583432495594,  -0.1787425577641,  -0.0276316981763,   0.0326155535877,  -0.1149980947375,  -0.1510716676712,  -0.1683966219425,  -0.0474472753704,   0.0201993323863,  -0.0424003452063,   0.0410484112799,   0.2179593741894,   0.0820772200823,  -0.0966324210167,  -0.1743249148130,  -0.0045380839147,   0.0444543920457,   0.1394895166159,  -0.1689665317535,   0.0697119608521,   0.1430558115244,   0.0657902359962,   0.0018652935978,  -0.1186820119619,   0.1691549569368,   0.1026636511087,   0.0420521050692,   0.1328290402889},
   {  -0.0007311896770,   0.0698473379016,   0.1559509783983,  -0.0256537757814,   0.0199477393180,   0.0820387080312,  -0.1673690527678,   0.0091589065269,  -0.0286740176380,  -0.0541891381145,  -0.2083920538425,  -0.1600960791111,   0.2069769203663,  -0.2199327796698,   0.1012693718076,  -0.1093731820583,   0.1071233600378,  -0.1323227435350,  -0.0786715894938,   0.0937882885337,   0.0274633876979,   0.1925357282162,   0.0413110740483,  -0.1385491937399,  -0.2139080315828,   0.0780732259154,  -0.1517456769943,  -0.1714232265949,   0.0232190210372,  -0.0997391566634,  -0.1158939898014,   0.1179838031530,  -0.1434530615807,  -0.1368716359138,  -0.1536704152822,  -0.0099886590615,   0.1532025784254,  -0.1706671416759,  -0.0321205109358,  -0.1894820779562,  -0.0764087513089,  -0.1980601698160,  -0.2004940360785,   0.0801052674651,  -0.2047262042761,   0.0547013096511,   0.2632557451725,   0.1389654129744,  -0.1650143861771,  -0.1519757658243},
   {  -0.1542693525553,   0.1162872016430,   0.2137611955404,  -0.1152833923697,  -0.0296418089420,   0.1153282225132,  -0.0157103892416,   0.0408639423549,  -0.1142682209611,   0.1653161197901,  -0.1288064271212,  -0.2056344747543,   0.2410403043032,  -0.1230183616281,  -0.0690544396639,   0.1496561914682,   0.1538633257151,   0.1200535520911,  -0.2577525675297,   0.0701183080673,  -0.2054304778576,  -0.1830824613571,   0.0695993676782,  -0.1280661374331,   0.1693818867207,  -0.0451151058078,   0.1207770556211,   0.2345002293587,   0.1875762045383,   0.0394250452518,   0.0120782172307,  -0.1713458448648,  -0.1011398062110,   0.1851732879877,  -0.0919469818473,  -0.0577280297875,  -0.0072707934305,   0.1891713142395,   0.1665229201317,  -0.1122766062617,   0.1291624158621,   0.1488038450480,   0.0679284483194,   0.1171077638865,   0.1242019832134,  -0.0610048398376,  -0.0279026702046,  -0.1111090332270,   0.0414616316557,   0.0839168280363},
   {   0.0642193853855,   0.0924794897437,  -0.0868157371879,   0.1847070008516,   0.1337397843599,  -0.0349711365998,   0.1808449178934,   0.1599080115557,   0.1979018896818,   0.1616563796997,   0.1646240502596,  -0.1396883130074,   0.0738574787974,   0.1769508868456,  -0.1199803873897,   0.1311461627483,  -0.0216799955815,  -0.0634837746620,   0.0033084189054,  -0.1326303035021,  -0.0930282473564,   0.1696695983410,  -0.0617666989565,   0.0355764999986,   0.1920230835676,   0.1403457969427,  -0.2031561583281,  -0.0871084034443,  -0.1519180536270,   0.1806895136833,   0.0566516779363,  -0.0938696265221,   0.0164802223444,   0.1478503048420,  -0.0328713469207,  -0.0501835793257,  -0.1096433103085,   0.1220359876752,   0.0716012492776,   0.0205745492131,  -0.1464754194021,   0.1717272102833,   0.1468747705221,  -0.1084336191416,  -0.1622313559055,   0.1186198815703,   0.1519931405783,   0.1007015407085,  -0.0879850536585,  -0.1735545992851},
   {   0.0833073854446,   0.1336005777121,   0.0319011174142,   0.1182816773653,  -0.0304707624018,  -0.0044580618851,  -0.0877427905798,   0.1930687427521,   0.0037471437827,  -0.1883409917355,  -0.1458879262209,  -0.1158640459180,   0.0507551878691,  -0.1997372955084,  -0.0224204454571,   0.1680108457804,  -0.0389266647398,   0.1239706650376,   0.0838135704398,   0.1591467410326,  -0.1438716948032,  -0.1273791342974,  -0.2046192139387,   0.0034933325369,   0.0599051341414,  -0.1864489018917,   0.1348449885845,  -0.1350500881672,   0.0227418318391,  -0.1909457445145,   0.0222624465823,   0.0732259303331,   0.1446427106857,   0.1346631348133,   0.1071060001850,   0.0684628859162,  -0.1503671705723,  -0.0974168404937,   0.0130396587774,   0.2596043050289,   0.0522352345288,  -0.0118184238672,   0.1814456284046,  -0.0290254931897,  -0.0399146452546,  -0.1770928651094,   0.1552101373672,  -0.0415938980877,   0.0995190888643,   0.0881108567119},
   {   0.1115957498550,   0.1475447863340,  -0.0361202545464,   0.2475909441710,   0.1889831274748,  -0.2438528239727,  -0.0955610573292,   0.0191893726587,  -0.1439737677574,   0.1492169052362,   0.2243933379650,   0.0740879327059,  -0.0014032173203,  -0.1866461485624,  -0.1205270215869,  -0.2176595628262,  -0.0811487659812,  -0.1164586395025,   0.1922338604927,   0.2217279821634,   0.1179251745343,   0.0291044525802,   0.0412963964045,  -0.1245666965842,   0.0964853316545,   0.1467288583517,   0.0836074799299,  -0.2016103714705,  -0.1461712121964,   0.0672591999173,   0.1067861393094,  -0.2429613322020,  -0.1024553254247,  -0.2404330372810,   0.0509584210813,   0.0623496733606,   0.1049890145659,  -0.1810983270407,   0.0571745149791,  -0.0924795940518,  -0.1388573497534,   0.2266383171082,   0.0518232509494,   0.1022167429328,   0.0839788988233,  -0.0710234716535,   0.1762579381466,   0.2222993969917,   0.1804619431496,   0.1372132748365},
   {   0.0014911084436,  -0.1654686033726,   0.1921912282705,   0.0230185016990,  -0.1603119522333,   0.1947787851095,  -0.1185201257467,   0.2695111632347,  -0.0814091488719,  -0.2335127145052,  -0.0047221379355,   0.0358586311340,  -0.0816008225083,  -0.1422345936298,  -0.0749640241265,   0.1856325119734,  -0.1347853690386,  -0.1764321476221,  -0.0027859399561,   0.2437416762114,   0.1521609425545,   0.1259985268116,   0.2378243356943,  -0.0306157581508,   0.2431419342756,   0.1335403174162,   0.2181133031845,   0.0663698464632,   0.0867706090212,  -0.1485421061516,  -0.1432314068079,   0.1560451090336,   0.2047957330942,   0.0210303124040,  -0.0310839544982,  -0.0093071768060,  -0.1597517132759,  -0.1054606065154,   0.1102188229561,   0.0376362502575,   0.1600724011660,  -0.2304370701313,  -0.0973392277956,  -0.0981375873089,   0.2000707536936,  -0.1566549688578,   0.2303270548582,   0.2324738651514,   0.2180603891611,   0.0444386675954},
   {  -0.1866978853941,   0.2057553082705,   0.1345321238041,  -0.0552528388798,  -0.1660627573729,  -0.0422564856708,  -0.1718059480190,  -0.0238375626504,  -0.2431383132935,   0.0276537705213,   0.0685846656561,  -0.1879911869764,  -0.1955364048481,  -0.1315922290087,   0.0432417914271,  -0.0131966248155,   0.1958365440369,   0.0556256398559,   0.1651863753796,   0.1964615434408,  -0.1128653585911,   0.0589082390070,   0.2226325422525,  -0.1745397895575,  -0.0080278916284,  -0.0423482209444,  -0.1422627419233,   0.0481975711882,  -0.0281533300877,  -0.1207221075892,   0.0262485072017,  -0.2297141402960,  -0.0117146940902,  -0.2549278736115,   0.1814162731171,   0.1719598323107,  -0.0302899256349,  -0.1943549811840,  -0.1040064841509,  -0.2519829869270,  -0.1354472339153,   0.1180714517832,  -0.1040617227554,   0.1918683201075,  -0.0192124061286,   0.1739862412214,  -0.0281463619322,  -0.1522741764784,  -0.0354620106518,   0.2578752636909},
   {   0.1670623719692,  -0.0603998005390,  -0.0788938254118,   0.1582962125540,   0.1840112507343,   0.0608742535114,  -0.0271933525801,  -0.1369725018740,   0.1724320501089,  -0.1881777048111,   0.0864729136229,   0.1046699807048,   0.1523647010326,   0.2280458509922,   0.2082656770945,  -0.0585243515670,   0.1301279515028,   0.2363884449005,  -0.0219886768609,   0.2507083415985,   0.1360347718000,  -0.1906522363424,   0.1426687389612,  -0.1352010518312,  -0.0907651856542,   0.0339942313731,   0.1316643804312,   0.1224149465561,  -0.0049718678929,   0.1791580915451,   0.2080903202295,   0.2224114537239,  -0.0040179467760,  -0.0638815462589,   0.1758216172457,   0.0392020307481,   0.1324199885130,  -0.2281403243542,   0.0234185568988,   0.0194118302315,  -0.1406073570251,   0.1315439641476,   0.0635907277465,   0.1540577709675,  -0.0815688222647,  -0.0272272173315,  -0.1327099800110,   0.1798032522202,  -0.1974162310362,  -0.0322541892529},
   {   0.0270693544298,  -0.2061638534069,  -0.0889725834131,   0.1272498369217,  -0.1026372686028,   0.0189947355539,   0.2196629345417,  -0.1156800240278,   0.0267586354166,   0.1630561798811,  -0.0522990301251,  -0.1068941280246,   0.1852892339230,  -0.0748220756650,  -0.2395156621933,   0.1185442581773,   0.0653379708529,   0.2124301046133,  -0.2190770953894,   0.0402244105935,   0.0688593983650,   0.0667820200324,   0.1383936852217,   0.1815104633570,   0.0022337310947,  -0.1332015097141,  -0.0841544121504,   0.0841754004359,  -0.1115254983306,   0.0538816489279,  -0.0165039654821,   0.0204279348254,   0.2052073925734,  -0.0346777364612,  -0.1475014090538,   0.1623783409595,  -0.0404432490468,   0.1362264752388,  -0.1575498282909,   0.0437056273222,   0.2222019135952,  -0.1512044966221,   0.1269792765379,  -0.1609483957291,   0.0429407097399,   0.0775347277522,  -0.0264030117542,  -0.2202645987272,   0.1318336725235,  -0.1497727334499},
   {  -0.0674434229732,   0.1060990616679,  -0.0851036086679,  -0.0617475882173,  -0.1260531097651,   0.1978489309549,  -0.0211160108447,  -0.0047464822419,   0.1532834768295,   0.1466435045004,   0.1502218693495,   0.0846120193601,  -0.0961679667234,  -0.0222035981715,  -0.1499406844378,   0.1173889040947,  -0.1033668592572,   0.1402177214622,  -0.0982381477952,  -0.0729237124324,   0.0062678395770,   0.0631434768438,   0.0718797296286,  -0.0960716381669,  -0.1893555223942,  -0.0644611194730,   0.2483433932066,  -0.1570023447275,   0.1578995287418,   0.2134284377098,  -0.1676053702831,   0.0935272276402,   0.0235686060041,  -0.1993701905012,  -0.0558113753796,  -0.0831045582891,   0.0459129139781,   0.0558699816465,  -0.0263872817159,   0.0097512183711,  -0.0811334997416,  -0.2217103689909,  -0.1422936171293,  -0.1963755339384,   0.1964651942253,   0.0628670230508,  -0.2496178150177,   0.0944771915674,   0.1913867592812,  -0.0199119597673},
   {  -0.0199500359595,   0.0231670644134,   0.0851622596383,   0.0686805471778,   0.1068616136909,   0.0058118626475,   0.0688028335571,  -0.0233568884432,   0.1644666939974,   0.2235329002142,   0.0042608389631,  -0.1957500576973,  -0.1851352304220,  -0.1903996020555,  -0.0343764498830,   0.1124287992716,  -0.0797125622630,  -0.1935986429453,   0.0123065663502,   0.2557000517845,  -0.1573960185051,  -0.2123878747225,   0.2547904253006,  -0.1164660677314,  -0.1239145025611,  -0.0754807367921,   0.1378762871027,  -0.2198486030102,  -0.0790692418814,  -0.2268033474684,  -0.1343821436167,   0.0465930849314,   0.0625149831176,  -0.1034529134631,   0.0567847043276,  -0.1031499132514,   0.0140842935070,  -0.2533204555511,  -0.1949049979448,  -0.0191148407757,   0.0066604665481,   0.1248520687222,   0.1699976474047,  -0.0897139087319,  -0.0591332875192,  -0.0412426404655,  -0.1084434688091,   0.1548653841019,  -0.1322048008442,  -0.0797581672668},
   {  -0.1160576716065,   0.2323317974806,  -0.0537315085530,   0.1469884514809,  -0.0015328299487,   0.2400502860546,  -0.1420515328646,  -0.0631341636181,  -0.0516076125205,   0.0522488094866,  -0.0268813315779,   0.0326630733907,  -0.1334687918425,  -0.0905182734132,   0.1439558565617,   0.1515725255013,   0.0377054326236,  -0.1322637200356,   0.1767213046551,  -0.1264252960682,  -0.2279201596975,   0.2377291619778,   0.0077951122075,   0.2432119399309,   0.0899706631899,  -0.2304295599461,   0.0244628041983,  -0.2632105350494,   0.1540951579809,  -0.1438373029232,  -0.1020883917809,  -0.0505539290607,  -0.2297129929066,   0.2435760796070,  -0.1902177184820,  -0.0895873457193,   0.0663479566574,  -0.0675854459405,   0.0405212827027,  -0.0730245336890,   0.0689298212528,  -0.2285509854555,  -0.2158894985914,   0.0073622670025,   0.1196210607886,  -0.0238462593406,  -0.2007888108492,   0.1172371357679,  -0.2019329965115,   0.0049804644659},
   {  -0.0943295508623,  -0.0928323343396,  -0.1334480047226,  -0.0828444957733,   0.0865724384785,  -0.1666327416897,  -0.1293751001358,  -0.2366123497486,   0.1627432256937,  -0.0417804867029,   0.1200288087130,   0.2018321901560,  -0.2129315733910,   0.2197232842445,  -0.0269922427833,  -0.0753861367702,   0.0322031415999,   0.0346828438342,  -0.0086094653234,   0.1449147760868,   0.2288451492786,   0.0031610387377,  -0.2068642228842,   0.2183455675840,   0.1983602792025,   0.0104246931151,  -0.0556830912828,   0.0494483001530,  -0.1974884420633,   0.0564800091088,   0.2138303965330,   0.1727683544159,  -0.1343517154455,   0.2003339827061,   0.1809786707163,  -0.2031218558550,   0.2418761849403,  -0.1246671602130,   0.2315267324448,  -0.0692839771509,  -0.0482205115259,  -0.1740672886372,   0.0726304650307,  -0.1459242403507,  -0.0499115809798,  -0.2311624139547,  -0.1660256385803,   0.0582310780883,  -0.2162074595690,  -0.1058518812060},
   {   0.1134336367249,  -0.1541170775890,  -0.1943529099226,  -0.2287382930517,  -0.1053832992911,  -0.0070310533047,  -0.2302264124155,   0.0358165018260,  -0.0848145559430,   0.0223742239177,   0.0796974152327,  -0.0446890667081,   0.0523324608803,   0.1661564260721,   0.2511094808578,  -0.1469929516315,   0.0341347195208,   0.0304055269808,  -0.1844733804464,  -0.0892957821488,  -0.1691087782383,  -0.1838889569044,  -0.0491410605609,   0.0892109498382,   0.1703075617552,  -0.1068366840482,   0.1554680168629,   0.1475665271282,   0.0479826182127,   0.1340706348419,   0.0129391057417,   0.2250761836767,  -0.1827293634415,  -0.0672514587641,  -0.0718243345618,   0.2365278601646,  -0.2425765693188,   0.1388134658337,   0.2403584271669,  -0.0821701288223,   0.2322678267956,  -0.1288728564978,  -0.0295374542475,   0.1742637604475,   0.0476148910820,   0.0400741137564,   0.1601184755564,   0.0651503950357,  -0.0299845747650,  -0.2010630369186},
   {   0.1649372279644,  -0.0129751637578,  -0.0267456490546,  -0.0441130660474,   0.1439932137728,  -0.1940534412861,   0.2691240906715,  -0.0441160798073,  -0.0410784631968,  -0.2420525252819,   0.1882477104664,   0.2414132803679,   0.0987209305167,  -0.0699726790190,  -0.1043999418616,  -0.0975585132837,   0.0884549096227,  -0.1183485388756,   0.1182815507054,  -0.1878993660212,  -0.0227328743786,   0.0658677667379,  -0.1268227845430,   0.0381663888693,   0.1529277563095,   0.0694181546569,   0.2140427827835,  -0.1041573435068,  -0.0027453466319,  -0.2596324086189,   0.0517674647272,  -0.2476942539215,  -0.1932702511549,  -0.1059248521924,  -0.1285508722067,   0.2053762674332,  -0.0640303269029,  -0.2301969230175,  -0.2366804778576,  -0.0107117705047,  -0.1359978318214,   0.1131167784333,  -0.0082769785076,   0.1554088890553,  -0.0473371371627,  -0.1466464996338,  -0.0356033034623,  -0.0259537510574,  -0.1683457791805,   0.0330251492560},
   {   0.1092641800642,   0.1970976889133,   0.0012937055435,  -0.1593919247389,  -0.0944145321846,   0.2013269811869,   0.2117412537336,  -0.0588969141245,  -0.1695599555969,  -0.1639167815447,   0.0283638518304,  -0.2039107680321,   0.0011232097168,   0.0119863720611,  -0.1067799925804,   0.0430759936571,   0.1684789359570,   0.1417524963617,  -0.1658948659897,  -0.0341830812395,   0.1671232134104,  -0.2085663229227,  -0.0094380257651,  -0.1650535464287,  -0.1778848916292,  -0.0511266589165,  -0.0094130635262,  -0.1665735989809,   0.1075626835227,  -0.1735567152500,   0.0598607808352,   0.2176509350538,   0.0477296337485,   0.0394226498902,  -0.1980836391449,   0.1250764876604,  -0.1707588285208,   0.0692733228207,  -0.1369154602289,  -0.2132923901081,  -0.1028473898768,  -0.0707574114203,  -0.1735126376152,   0.2389565706253,   0.1303396672010,  -0.2099713683128,  -0.1328874081373,  -0.0221815146506,   0.0402183681726,   0.1568544656038},
   {  -0.1171216145158,  -0.1608670800924,   0.0008786215330,   0.2160491645336,   0.1431195139885,   0.1197290718555,   0.1210827678442,  -0.0416252091527,  -0.1785232871771,   0.2012485712767,   0.0403705798090,  -0.0260514002293,  -0.1718165576458,   0.2322515249252,   0.1520837843418,  -0.0021840939298,  -0.1391446143389,  -0.2092312872410,  -0.0214807223529,   0.0185989215970,  -0.1770710498095,   0.2640930414200,  -0.2007980197668,  -0.1988876760006,   0.2444891482592,   0.0461840741336,  -0.1352761387825,  -0.1353335827589,   0.2586497068405,  -0.0050255050883,  -0.2143760621548,   0.0581761449575,   0.0157633107156,  -0.1592500060797,  -0.2132973223925,  -0.0827833041549,   0.2006798833609,  -0.1272655576468,  -0.1571282297373,  -0.1163842380047,   0.2237207591534,  -0.0738197043538,  -0.1322191059589,   0.1541356742382,  -0.0428772121668,  -0.1308618485928,   0.1420321613550,  -0.0389216169715,   0.1715912520885,   0.1377029865980},
   {  -0.0572959147394,   0.1205305829644,  -0.1930972486734,   0.0388205796480,   0.2583481967449,   0.0716446191072,  -0.0452868603170,   0.1300326138735,   0.0704589337111,  -0.0531546100974,  -0.1826547384262,  -0.1938691437244,   0.0544259026647,  -0.1697089374065,   0.0857349038124,  -0.1695949137211,   0.1152887567878,  -0.1759808808565,   0.0892436951399,   0.0569964051247,   0.2130813151598,   0.1757776290178,   0.0958815887570,   0.1987578421831,  -0.0244119558483,  -0.0545340254903,   0.0848458558321,   0.0192399006337,  -0.0374638624489,   0.2246022075415,  -0.2540417015553,   0.2091567814350,  -0.1647285968065,  -0.0301361195743,   0.1206143125892,   0.0487336590886,  -0.1106747686863,   0.2188001722097,  -0.0277056843042,  -0.1030756533146,  -0.0111273434013,   0.2070515602827,   0.1223878711462,   0.0682027339935,   0.1685832291842,  -0.2203320115805,   0.2016757577658,  -0.1942566037178,  -0.1351468414068,   0.0951296612620},
   {   0.1683579236269,  -0.0996650233865,   0.2037015259266,   0.0330351516604,  -0.1649439334869,   0.0541342236102,   0.0671738237143,   0.0459616370499,  -0.1204088628292,  -0.0985215976834,  -0.2202643454075,  -0.0114294411615,   0.1817500442266,   0.0179003179073,   0.2080593854189,  -0.0814469531178,   0.1174663528800,  -0.0887875705957,   0.1182569414377,   0.1954512298107,   0.1406384855509,   0.0372606366873,  -0.1640097796917,  -0.0878203138709,   0.2494838684797,  -0.0994634032249,  -0.1682347059250,   0.1457847654819,   0.2401043027639,  -0.1407003104687,  -0.0872328430414,   0.0816280171275,   0.0609891340137,   0.1734000146389,  -0.0048289066181,  -0.2014968246222,  -0.2307228296995,  -0.0846876800060,  -0.0574286170304,  -0.0844559520483,  -0.1586637347937,  -0.0879515409470,   0.1857770383358,   0.2511011660099,   0.1364322304726,  -0.2396621555090,   0.1004334017634,  -0.1862504631281,   0.1625303775072,  -0.1343085765839},
   {  -0.1124158054590,  -0.2374798804522,   0.0555966980755,   0.1714575439692,   0.0754841193557,  -0.1345022618771,   0.1548514515162,  -0.1852260679007,   0.1086249053478,  -0.2145254164934,  -0.1742269098759,  -0.0707039237022,  -0.0107039576396,  -0.0067682825029,  -0.0912730246782,   0.1608446836472,   0.0501682944596,  -0.2185843437910,   0.0696276575327,   0.0514849796891,   0.1516364067793,   0.1976927816868,  -0.1370216459036,  -0.1892022639513,  -0.0590342730284,   0.0422843210399,   0.1596341133118,   0.1088711097836,  -0.1479580998421,   0.0835479497910,  -0.0968127995729,  -0.0411342941225,   0.2436782717705,  -0.2401753962040,   0.2042614519596,   0.0796974003315,  -0.2573894262314,   0.1634383499622,  -0.1894361078739,  -0.0333826020360,  -0.0244010202587,  -0.1484082192183,  -0.0310421381146,  -0.1039895638824,  -0.0270340945572,   0.0849047079682,  -0.0478008836508,   0.2436236143112,  -0.0639639496803,   0.2260643541813},
   {  -0.1867395490408,   0.1941270381212,  -0.0770993009210,  -0.2650484442711,  -0.0054338043556,  -0.1846339851618,   0.0357106998563,  -0.1817765086889,  -0.1355633586645,   0.2557139396667,   0.0777006447315,   0.1019090637565,   0.1701449751854,  -0.1201041191816,  -0.0242246706039,  -0.0153717808425,  -0.1638633757830,   0.1161553040147,  -0.1351567953825,  -0.2405533492565,  -0.1636578440666,  -0.1164391860366,  -0.1060692369938,   0.2424602359533,  -0.0030649648979,   0.0918581932783,   0.0087074758485,   0.0247871391475,  -0.2519910037518,  -0.1944022774696,  -0.0492621734738,  -0.0217333026230,   0.1210379302502,   0.0595655553043,   0.0141453249380,   0.0375042855740,  -0.1273010820150,  -0.1559067368507,  -0.1998211890459,  -0.1498194336891,  -0.0218698512763,  -0.0199783183634,  -0.0233674459159,  -0.0658388733864,  -0.1525456905365,  -0.1639934331179,   0.0896613523364,  -0.0225295927376,   0.0754444301128,  -0.1501417458057},
   {  -0.0877251029015,  -0.0095633519813,   0.2099671363831,   0.1198343485594,   0.0295552387834,  -0.1953315883875,   0.0829238593578,  -0.0550080984831,   0.0149894356728,  -0.1776909977198,  -0.0969554707408,  -0.0557063370943,   0.1115486100316,   0.2562196254730,   0.1360880881548,  -0.1747542172670,   0.0113062402233,   0.2285088151693,   0.2161624729633,   0.1986388862133,  -0.2143276184797,  -0.1969068944454,   0.1425723880529,   0.0640431046486,   0.2109671980143,   0.0276426039636,  -0.0684822350740,  -0.0019626617432,   0.0893250778317,  -0.1317828744650,   0.2083058059216,   0.0130614601076,   0.1814570277929,   0.0924940481782,  -0.2217371612787,   0.1281840801239,  -0.1701374500990,  -0.0696040317416,  -0.0234248042107,  -0.1474431306124,   0.1795735955238,  -0.0699062868953,   0.1818546801805,   0.0405731424689,   0.1091399937868,  -0.2446142882109,  -0.1113981679082,   0.1602084487677,  -0.0335955917835,  -0.0113373994827},
   {  -0.0192014370114,  -0.0356943495572,  -0.0248526558280,   0.0616101361811,  -0.0379214622080,  -0.0425448454916,  -0.0045531634241,   0.0889686271548,   0.0683191046119,  -0.0168809834868,   0.2520323991776,   0.2304758429527,   0.2188118249178,   0.0592151544988,   0.0576762780547,   0.1644111722708,   0.1022086367011,  -0.0367498770356,   0.0618781745434,  -0.1792329549789,   0.1659270375967,  -0.0464583262801,   0.0730530694127,  -0.0123488120735,  -0.0974267572165,   0.0980293080211,  -0.0855403319001,  -0.2088775783777,  -0.1927820593119,  -0.2014747112989,   0.1127367839217,   0.1775178015232,  -0.1942380666733,  -0.1695903539658,  -0.1774782538414,  -0.1520674973726,   0.0556741766632,  -0.0944393426180,  -0.0860525369644,  -0.0254333447665,  -0.1272425800562,   0.1864365935326,  -0.1221761703491,   0.1151445582509,   0.1543582230806,   0.1054213047028,   0.0877298712730,  -0.1549382656813,  -0.1485889703035,   0.2295137345791},
   {  -0.0350407995284,   0.1495819836855,  -0.0913425534964,   0.2014976292849,   0.1929269134998,   0.2207982093096,  -0.0608811303973,  -0.0581644512713,   0.0936779379845,  -0.0275845713913,   0.2164001166821,  -0.1432749927044,   0.1839418411255,  -0.1602401137352,  -0.0841116607189,   0.0113328816369,   0.1150247678161,   0.1916795969009,  -0.1130704805255,  -0.1131167784333,  -0.0228193793446,  -0.1342177242041,   0.1491999626160,  -0.0310640875250,  -0.1238835379481,   0.1807382255793,  -0.1362628787756,  -0.0897085443139,  -0.1883648484945,  -0.0914755538106,  -0.0181740839034,   0.1212413385510,  -0.1218258291483,  -0.0716456845403,   0.0237896852195,  -0.0464992225170,   0.0885254219174,  -0.1206777542830,  -0.0980390980840,  -0.1559794843197,   0.2284564524889,   0.0311975516379,  -0.1483241617680,  -0.2445039153099,  -0.1537086069584,  -0.1064709424973,  -0.0387772358954,   0.1370698362589,   0.1555890589952,   0.1387837976217},
   {   0.1027905344963,   0.0808297395706,  -0.1903841495514,  -0.2035779058933,  -0.1301540285349,   0.1442136913538,   0.0089626414701,  -0.1571817845106,  -0.1232118904591,  -0.1537167578936,  -0.0996939688921,   0.0398117825389,   0.1405299901962,   0.0263266116381,   0.1491116285324,   0.0839519873261,  -0.1768572926521,   0.0744282156229,  -0.0202929899096,   0.1749903112650,   0.2082413583994,   0.1076972410083,  -0.2076762616634,   0.1739321649075,  -0.0317327864468,  -0.0990731045604,   0.1852416694164,  -0.0930575355887,  -0.0907053127885,   0.1216217949986,  -0.1531820893288,  -0.2030308842659,  -0.1267556995153,   0.2203905582428,  -0.0619426406920,  -0.1536342352629,  -0.1066759079695,   0.0528772361577,   0.2123832702637,  -0.1595172584057,   0.1312294453382,   0.2358976751566,   0.0443276986480,   0.1914155781269,  -0.0299127623439,   0.0114355115220,   0.0890486836433,   0.0264501571655,   0.1340436041355,   0.0872376263142},
   {  -0.0098223555833,  -0.1888759285212,   0.0689425989985,  -0.0034878356382,   0.1080585122108,  -0.0511830225587,  -0.1988759785891,   0.0816507339478,   0.1157166957855,   0.1428583115339,   0.1140394732356,   0.0958379656076,  -0.2411581128836,   0.2256370782852,   0.0780962258577,   0.1713721007109,  -0.1623078435659,  -0.0154267996550,  -0.0510195083916,   0.1317412257195,   0.1342178881168,  -0.0491460859776,   0.1062323227525,  -0.2171923369169,   0.0251115486026,  -0.0938181504607,   0.1421778947115,   0.2496286481619,   0.0356470122933,  -0.1872616261244,  -0.1879754364491,  -0.0805267170072,  -0.0966906100512,   0.0581574738026,  -0.0105171473697,  -0.1191680133343,  -0.0734543055296,   0.0145031772554,   0.0139174247161,   0.2045477330685,  -0.0756031349301,  -0.0039253658615,  -0.0439040549099,   0.1214840635657,  -0.1543533354998,   0.2278201282024,  -0.1696361899376,   0.0712522268295,   0.2143656313419,   0.1367201358080},
   {   0.1476161330938,   0.1503771245480,   0.0907168313861,  -0.0858652144670,  -0.0812137648463,  -0.0535879991949,  -0.1919508278370,  -0.1665125638247,   0.1115839555860,  -0.0546756684780,  -0.0423402562737,  -0.0027884778101,  -0.0331218093634,  -0.2607043385506,   0.1515124291182,  -0.1227455362678,  -0.2014629840851,   0.1351964622736,  -0.0500287711620,   0.1265047043562,   0.1544409543276,  -0.1816033869982,   0.0361813828349,  -0.0571797229350,   0.0612518638372,  -0.0518259778619,   0.1333870738745,   0.0393479205668,  -0.1122009009123,  -0.1388020068407,   0.0000092141017,  -0.0373702682555,   0.2045964747667,   0.2367208451033,   0.2105783224106,  -0.1544461697340,   0.1119176596403,  -0.0279221963137,   0.1016246825457,   0.0609733052552,   0.0660521015525,  -0.2145845890045,   0.2033106982708,   0.1419632136822,   0.1211881190538,   0.0061283637770,   0.0956762805581,  -0.1738405674696,   0.0291247740388,   0.1688247472048},
   {   0.1396449208260,  -0.1569375097752,  -0.0106355343014,  -0.0813928470016,   0.1901347935200,  -0.1320954561234,   0.0426944047213,  -0.0455999560654,   0.0246788263321,  -0.1573649942875,   0.2055846452713,  -0.1313718408346,   0.0796863809228,   0.0254294481128,  -0.0248607974499,   0.1055919826031,  -0.2451776266098,   0.0693189799786,   0.0032799085602,  -0.1523178964853,   0.1868879199028,  -0.1458939611912,   0.0378926098347,   0.0032361906487,  -0.0293321497738,   0.1408623307943,  -0.1654809415340,  -0.1545273065567,  -0.0633676424623,  -0.1510263830423,  -0.1417670547962,   0.1580236107111,   0.1066660583019,   0.2111241072416,   0.0310494694859,  -0.0108996527269,  -0.0536382161081,   0.0771803036332,  -0.1842090785503,  -0.1694816648960,  -0.1914939135313,   0.0862569361925,   0.1384550780058,   0.2082925289869,   0.1584965735674,   0.0684195086360,  -0.0895690247416,  -0.0752771198750,  -0.0426403172314,  -0.0303875133395},
   {  -0.1577408462763,   0.2041122019291,  -0.1593565642834,  -0.1551151871681,   0.2112811207771,  -0.0759924352169,  -0.1455786526203,   0.0264967698604,   0.2532849609852,  -0.1653496772051,   0.0138519043103,   0.2098826467991,   0.0809856355190,   0.1050797551870,  -0.1225013732910,  -0.0994205251336,  -0.0050540538505,   0.0642950087786,  -0.0495294705033,   0.0553872734308,  -0.0621352642775,  -0.0283891689032,   0.1899535208941,  -0.1723332405090,   0.0097763352096,  -0.1644119620323,  -0.0723146200180,  -0.0701902881265,  -0.1637217700481,  -0.0304145812988,  -0.1541852056980,  -0.0917207077146,   0.1886210590601,   0.0462658777833,   0.2069759815931,   0.1001715213060,  -0.1341104060411,  -0.1500275284052,   0.1136015653610,  -0.0271429456770,  -0.2204234749079,  -0.1420419067144,   0.1157918572426,   0.0661113187671,  -0.0979701057076,  -0.1051384806633,  -0.0260938964784,   0.1316267102957,   0.0164886601269,   0.0818482339382},
   {   0.0249497573823,  -0.1014454141259,  -0.1313198357821,   0.1987401247025,  -0.1082964539528,  -0.2560997009277,  -0.0365493707359,  -0.0912736430764,   0.1393934190273,   0.0519930087030,  -0.0596540719271,  -0.1430578082800,  -0.0657357126474,  -0.1509208977222,   0.1044777110219,   0.2497205287218,  -0.0758866146207,  -0.1219657137990,   0.0118695264682,   0.1279896646738,   0.1914451271296,  -0.0229631811380,  -0.0079488148913,  -0.1619865298271,   0.1722277700901,  -0.0571846626699,  -0.0665841102600,  -0.2807871401310,   0.0026228260249,  -0.0075480435044,   0.1199154630303,   0.1582231670618,  -0.0217109508812,   0.2001876384020,   0.1110082641244,   0.0631198137999,   0.1056759059429,   0.0405541993678,  -0.0361371934414,  -0.0356665737927,   0.1643373221159,   0.1238620430231,   0.0862695425749,   0.0578621439636,  -0.0980110466480,  -0.0924997553229,   0.1557523757219,  -0.2648059725761,   0.1464345008135,  -0.0651611089706},
   {  -0.0185516551137,   0.2106069773436,   0.0608803145587,  -0.0821214541793,   0.0403487421572,   0.0639958083630,  -0.0981671065092,  -0.1868658512831,   0.1823828071356,  -0.0098052248359,  -0.0220436174423,  -0.1849194467068,  -0.0886979848146,   0.1410019695759,  -0.0784908309579,   0.1254645287991,   0.0049515846185,  -0.1890757232904,  -0.0574012994766,  -0.0279718227684,   0.2332246303558,   0.2231820672750,   0.1998553723097,   0.0800879001617,   0.0727476403117,   0.0326669849455,   0.0280162785202,   0.2404959797859,  -0.1909969002008,  -0.1600525379181,  -0.0415487661958,   0.1987641602755,   0.0130669381469,  -0.1616200059652,  -0.0249325726181,  -0.1689204722643,  -0.1875641196966,  -0.2210992574692,  -0.0289271697402,  -0.1734666228294,   0.1848975569010,   0.1202909499407,   0.1660015285015,  -0.0368059687316,  -0.0591777861118,  -0.1249785944819,  -0.1436706483364,   0.2524348497391,  -0.1924432516098,   0.0137653117999},
   {   0.1682347357273,   0.1754126399755,   0.2145309448242,  -0.1850777417421,   0.2194690704346,  -0.0569181405008,   0.1183084696531,   0.0976003482938,   0.0141321895644,  -0.1950921714306,   0.0806582272053,  -0.0476830452681,   0.0416088178754,  -0.1097512319684,   0.1014570072293,   0.1900318562984,  -0.0130882887170,  -0.0065300120041,  -0.1662364453077,  -0.0984017625451,   0.0086540533230,   0.1276444345713,  -0.1714452952147,   0.0501592978835,   0.0731997564435,   0.1061976179481,  -0.2178417146206,   0.0482268147171,  -0.1013579666615,  -0.2062193304300,  -0.1036462187767,   0.2655411958694,  -0.0022445830982,  -0.0165660046041,  -0.0337385386229,   0.1887362897396,   0.1679724901915,   0.1931958496571,  -0.0194950159639,   0.2279620617628,  -0.1272303313017,  -0.2132456898689,   0.1385866850615,  -0.2046040296555,  -0.2530052363873,   0.1567831933498,   0.1540107131004,  -0.1121720895171,  -0.2205147445202,  -0.1660021245480},
   {   0.1308695524931,  -0.1163037344813,   0.0021284818649,  -0.0379302315414,  -0.1963748782873,  -0.0742263346910,  -0.2388825714588,   0.1910195052624,  -0.1059179827571,   0.2495584636927,   0.2150034308434,  -0.0635912343860,   0.1961708068848,   0.0202679112554,   0.0513638518751,   0.1025529578328,   0.0586378052831,   0.0494084320962,   0.1664411425591,  -0.1346569061279,  -0.1180552169681,  -0.0780297666788,  -0.0222564805299,  -0.1087252721190,  -0.1792737990618,   0.0680372342467,  -0.0530146174133,  -0.0221426635981,   0.2298759520054,   0.0994300469756,   0.0816330984235,  -0.2305337935686,  -0.0170015078038,   0.1623259484768,  -0.0599909424782,   0.0675721913576,  -0.0754988864064,  -0.0801935493946,   0.1189562976360,   0.1451317965984,  -0.0512717664242,  -0.1154694110155,  -0.1402950584888,  -0.2023181766272,  -0.1131211966276,   0.1665082722902,  -0.2115563899279,  -0.1799286752939,  -0.0894716307521,   0.0261118672788},
   {  -0.1978668570518,   0.1722546666861,  -0.1469218730927,   0.0701849237084,  -0.1302455067635,   0.0166001059115,  -0.1712644100189,  -0.0944969132543,   0.2488290965557,  -0.2214349061251,   0.1406030803919,  -0.1290810853243,   0.1897323280573,  -0.1316696554422,  -0.2314933240414,  -0.1410062164068,   0.1656122058630,   0.0388591326773,  -0.1682584732771,  -0.2024139314890,   0.0400396846235,  -0.2386808693409,  -0.0520124658942,  -0.1073191240430,  -0.2154251039028,  -0.0015051424270,  -0.2063318341970,   0.0654791593552,   0.2045462578535,  -0.1863774806261,  -0.0025031575933,  -0.0400989055634,   0.0864255800843,  -0.1431692093611,   0.0977245792747,  -0.2358612865210,   0.0993744507432,  -0.0746975541115,   0.1428054124117,   0.0158487074077,   0.0002003729896,   0.0293650142848,   0.1760141849518,  -0.1137619391084,  -0.0537316501141,   0.2175795286894,   0.0435604080558,  -0.1443420499563,   0.0182360745966,   0.2584672272205},
   {  -0.1919026672840,  -0.1964407563210,  -0.2343220114708,  -0.1369187980890,   0.0425220951438,   0.1649387478828,  -0.1701938062906,   0.0198786761612,   0.2612554728985,  -0.1131884083152,  -0.0737072601914,   0.2129399329424,   0.0708838179708,   0.2738864123821,   0.1283730566502,  -0.0282451082021,   0.0462039113045,   0.0013931060676,   0.0229902528226,  -0.1232440620661,  -0.0788133516908,  -0.1056439355016,  -0.0204392131418,  -0.0883736163378,   0.0370065979660,   0.0674002766609,   0.2545197904110,   0.0453593768179,   0.1679890006781,   0.1749798059464,   0.0030282039661,  -0.2285032868385,   0.0331979170442,  -0.2192689180374,   0.0933310315013,  -0.0860182195902,  -0.0542902611196,  -0.1293182820082,   0.0344913676381,   0.0422758869827,   0.1079727411270,   0.0549228079617,   0.1076943352818,   0.0823540240526,   0.0169822815806,   0.0558616295457,  -0.0214626714587,  -0.1340253204107,  -0.0407210849226,   0.1460553407669},
   {   0.0636529847980,   0.0227665603161,  -0.1719824522734,   0.1046923026443,   0.1743018180132,  -0.0957597047091,   0.2028415352106,   0.1512421965599,   0.0829157978296,  -0.1232529431581,  -0.2216944545507,   0.0415318310261,   0.2136596590281,   0.0273857116699,  -0.1047741174698,  -0.0128792067990,   0.1884578168392,  -0.0021882518195,  -0.0462784953415,   0.1044205650687,   0.2571915090084,  -0.0264565236866,  -0.1937528699636,   0.1912880986929,  -0.0479489751160,  -0.0283715818077,  -0.0319717712700,  -0.1337029933929,  -0.1448633074760,  -0.0667965263128,   0.0058745117858,  -0.0728010162711,  -0.1715140938759,  -0.1714848428965,   0.1057790890336,   0.0525276325643,   0.1964356899261,  -0.1980591565371,   0.0819067806005,  -0.2184400707483,   0.1432138085365,  -0.0642432123423,  -0.0364831164479,  -0.2137522697449,   0.0575521513820,  -0.0320993252099,   0.1241006553173,   0.1366562545300,   0.1806121468544,   0.0217509772629},
   {  -0.2303573489189,  -0.1907600164413,  -0.1187805011868,   0.2302214652300,   0.2280697971582,  -0.0823728814721,   0.0821329951286,   0.0768971815705,  -0.1065614894032,   0.1026667058468,   0.0949798971415,  -0.1046506091952,  -0.1885328888893,   0.1684622168541,   0.0914043113589,  -0.0280779805034,  -0.2334042489529,  -0.0715207308531,   0.0172028616071,  -0.1921706050634,   0.1896794289351,   0.1828086078167,  -0.0199797078967,   0.2740699648857,   0.1512273252010,   0.0364140793681,  -0.2399004995823,   0.0630688667297,  -0.0744990557432,  -0.1370462328196,  -0.0435549356043,  -0.1692840605974,  -0.1591801792383,  -0.1953723728657,   0.0566965490580,  -0.1121867597103,  -0.2298902273178,   0.0731900930405,   0.2335053235292,   0.1481351405382,   0.1160280182958,  -0.1993075758219,  -0.1909992247820,  -0.1191155537963,  -0.0839707702398,   0.1100727468729,  -0.2254633307457,   0.0925552397966,   0.2520480155945,  -0.1875958740711},
   {  -0.0604485981166,  -0.2043992578983,  -0.1937418580055,  -0.1647490561008,  -0.0182437431067,   0.0225813928992,   0.0494562424719,  -0.1636562198400,   0.0977240279317,  -0.1489282846451,  -0.0708035752177,  -0.1610292196274,  -0.0988035276532,  -0.2048729658127,   0.1857693940401,  -0.2079965025187,  -0.1794092059135,   0.1722787320614,   0.0943452864885,   0.0494613200426,  -0.0252100005746,   0.0943461880088,   0.1892135441303,   0.0507278628647,   0.1369910240173,  -0.1079908534884,  -0.1880718022585,  -0.1587888002396,   0.1219111010432,   0.2656252682209,   0.1409598290920,  -0.1813308745623,  -0.1363498717546,  -0.1532828360796,  -0.0134890824556,   0.1598557084799,  -0.1832929998636,  -0.2390239685774,  -0.1663774102926,  -0.1551829427481,   0.0188429206610,   0.1117060780525,   0.1363648176193,   0.1489659100771,   0.1200569197536,   0.1134940385818,   0.0110034821555,  -0.1917781829834,  -0.1373069435358,   0.0962027758360},
   {  -0.0677823126316,  -0.0918096601963,  -0.1577086001635,   0.0843736007810,  -0.0827968344092,  -0.0093331662938,  -0.1739899218082,  -0.1402902156115,   0.0935854762793,   0.1530548334122,  -0.0533450618386,  -0.0929670408368,  -0.1204047352076,  -0.1933346390724,  -0.1056960523129,  -0.1915770769119,  -0.1495348066092,   0.1507554203272,   0.0009509894298,  -0.0019216748187,   0.1091256588697,  -0.0506309345365,  -0.0083613255993,  -0.0780639052391,   0.2182444185019,  -0.1885586977005,   0.0910811126232,  -0.1600115746260,   0.1196808740497,   0.0996249988675,   0.0759818479419,   0.0466866195202,  -0.1372754424810,   0.0834635943174,  -0.2556749880314,  -0.0538849607110,   0.1752588450909,   0.1878110617399,  -0.1199729591608,   0.0964256227016,  -0.1446376591921,   0.0672184079885,  -0.1927594840527,   0.1625039577484,   0.0738871470094,   0.2645009756088,   0.1791306436062,   0.1192743554711,   0.1157087907195,  -0.1039781942964},
   {   0.0236267913133,   0.0697799772024,  -0.1355933547020,  -0.1893700957298,  -0.1695651412010,   0.0800892934203,   0.1715689599514,   0.2671771645546,  -0.1639685332775,  -0.2442750036716,   0.1399459540844,   0.0317926779389,   0.0788521170616,  -0.0302733462304,   0.0406712293625,   0.0583047419786,  -0.0148307411000,   0.2046985775232,  -0.2602649033070,  -0.0171799492091,  -0.1793615370989,  -0.2203076481819,  -0.1540286540985,  -0.0257354285568,   0.1440736949444,  -0.0791031792760,  -0.1962141692638,  -0.0565651915967,   0.0152163440362,  -0.0235337931663,   0.0177324041724,  -0.0903625339270,   0.1662790626287,  -0.0731785446405,  -0.2795841097832,   0.0018607521197,   0.1211384013295,  -0.1316148191690,  -0.2039323896170,  -0.0934507772326,  -0.1813216060400,   0.0501296855509,   0.0343120470643,  -0.1427485197783,   0.2463325560093,  -0.1133963167667,   0.0322045087814,   0.0918927639723,   0.2140196710825,  -0.0777581930161},
   {  -0.1354064941406,   0.2203485518694,  -0.0035212326329,  -0.0157429836690,  -0.2217531502247,  -0.0599992275238,   0.1129253953695,  -0.1187963336706,   0.0055244173855,   0.0543857589364,   0.1302578896284,   0.1955613642931,  -0.0913291797042,  -0.0307557638735,  -0.0042448397726,   0.1561664342880,   0.1862870305777,  -0.0039641959593,  -0.0889759138227,   0.1181151419878,   0.1288488954306,   0.1570852100849,   0.1458895951509,  -0.0096246954054,  -0.0958676710725,   0.1369805037975,  -0.2000921964645,  -0.1698435693979,   0.0014128001640,  -0.0970460548997,   0.1548400968313,   0.2269242852926,  -0.2051532417536,  -0.0094948932528,   0.0346920304000,   0.2095716446638,   0.0864121988416,  -0.1905493438244,  -0.1924928277731,  -0.0207615941763,  -0.0858527719975,  -0.2105789333582,   0.2274019420147,   0.0046984595247,   0.1558139175177,   0.0642303973436,   0.2116726785898,  -0.2129145711660,   0.0023137703538,  -0.0762917548418},
   {   0.0824083909392,  -0.1141481101513,   0.0524439774454,   0.0532194860280,   0.2168349921703,  -0.1767080426216,   0.1551612019539,  -0.1082822307944,  -0.0232116952538,  -0.2104366421700,  -0.1012041941285,  -0.0902090445161,   0.1805453002453,  -0.1930987685919,  -0.2145769298077,  -0.1259567737579,  -0.0944102704525,  -0.0190694797784,  -0.2479294985533,  -0.1943174451590,  -0.1302085965872,  -0.0075819622725,  -0.0750601962209,   0.1432497352362,   0.1932245790958,   0.0723435878754,  -0.1389768868685,   0.2106137126684,  -0.2368099093437,   0.2609556615353,   0.1546745747328,  -0.1247392073274,  -0.1341349184513,   0.1210310757160,   0.0662233382463,  -0.2613103985786,  -0.2085665017366,  -0.2720772624016,  -0.0162028726190,   0.1882759481668,   0.2161773443222,  -0.0445644333959,   0.0354093834758,  -0.1714474409819,  -0.1270580589771,  -0.1587184667587,   0.1817828416824,   0.1867921352386,   0.0817009583116,  -0.0545229353011},
   {   0.0123759582639,  -0.2115478068590,  -0.1721040755510,   0.2570307254791,   0.0839450135827,  -0.1075548753142,   0.2231940925121,  -0.2018738090992,   0.2287802398205,  -0.0508406348526,   0.2630244195461,   0.1203582435846,   0.0829938352108,   0.1338079124689,  -0.1019326448441,  -0.2329584062099,  -0.0674995556474,  -0.1462832689285,  -0.2583941221237,  -0.1677445918322,   0.0480346344411,  -0.0890749618411,   0.1839524209499,  -0.0329111143947,  -0.1435092687607,   0.1446203142405,   0.2021913230419,  -0.1869638115168,  -0.1511992663145,   0.0068427799270,  -0.1450996994972,  -0.0266678240150,   0.0283699240535,   0.0596874766052,   0.1618612557650,   0.0967839583755,  -0.0297588240355,  -0.1372462660074,   0.0058332998306,   0.1354592889547,   0.1556969285011,  -0.0942421630025,   0.1783114224672,   0.0206095334142,  -0.0114199826494,   0.2321781218052,   0.1433600187302,  -0.0774071738124,   0.0235459692776,   0.2629736959934},
   {  -0.1203934550285,   0.0844082906842,   0.1462576538324,  -0.2316467016935,   0.1139636859298,   0.1836039870977,  -0.1084147393703,   0.1435724645853,   0.0297424048185,  -0.0261438284069,   0.2062642574310,  -0.1986490339041,   0.1249914541841,  -0.2159235924482,   0.1591395437717,   0.1104933470488,  -0.0767459198833,   0.1560452133417,  -0.0054661990143,  -0.1199300214648,   0.0125018153340,  -0.0836259052157,   0.0161345452070,  -0.1818320006132,   0.1689681708813,  -0.2149599045515,   0.0870743095875,   0.0759414881468,  -0.0791013687849,   0.0401294231415,  -0.0373937003314,   0.1991507411003,  -0.1673908531666,  -0.2519868016243,  -0.0526663847268,   0.0698131769896,   0.0298578254879,  -0.0088416272774,  -0.2587469220161,  -0.1007431373000,  -0.1144175603986,   0.2202828377485,   0.0906271710992,   0.2001655101776,  -0.0729017332196,   0.1029788926244,  -0.0769974440336,   0.1242640540004,   0.1383436322212,  -0.1759686321020},
   {   0.0748219788074,   0.1299261748791,   0.1664052307606,   0.0685002952814,  -0.0144367394969,   0.0972958877683,  -0.1043040081859,  -0.1648492962122,   0.1860703229904,   0.1487449705601,   0.0600221715868,   0.2168227732182,   0.1218573078513,  -0.0615825355053,  -0.0364796184003,  -0.0087883649394,   0.0239555221051,  -0.2464763373137,  -0.0562499836087,   0.1353941112757,   0.0161278564483,  -0.1403931677341,   0.1662475317717,  -0.0060235927813,  -0.0215531215072,  -0.1146554648876,  -0.0550776757300,  -0.1725042313337,  -0.0933935046196,   0.1852523237467,   0.0226953160018,   0.0076976399869,   0.0377282723784,  -0.0387621000409,   0.0968454927206,  -0.0821906030178,  -0.0888531804085,   0.1802995502949,  -0.1627039015293,   0.1153471767902,  -0.1333176642656,  -0.0884577408433,   0.1625856012106,   0.1804690063000,  -0.0047802487388,   0.1650758981705,  -0.0226403139532,  -0.0645621493459,  -0.0567818582058,  -0.1276680231094},
   {   0.0972947403789,   0.0466152243316,   0.0571514479816,   0.2447526007891,  -0.1513538956642,  -0.0775292664766,  -0.1260495036840,   0.2599063515663,   0.1302730888128,   0.2551520764828,  -0.0840634182096,   0.0946143940091,  -0.0778795927763,   0.1416941136122,   0.0397492125630,  -0.0248328875750,  -0.2514283657074,  -0.0126236183569,  -0.1991848200560,   0.0889463201165,  -0.2055517286062,  -0.1496780067682,   0.1477911472321,   0.0502086468041,   0.0192802064121,   0.0017602728913,  -0.0581449940801,   0.1585860997438,  -0.0518135651946,   0.0797684565187,   0.1224551647902,   0.1868536472321,   0.1104035675526,  -0.1169556081295,   0.2250627577305,  -0.0841352120042,   0.1031110584736,   0.1861811876297,   0.1267268657684,   0.0481805764139,   0.0655704587698,   0.0457215905190,  -0.0431731864810,  -0.1117055043578,   0.1210576668382,  -0.2128763645887,   0.2255043387413,   0.1484173387289,  -0.0134304119274,  -0.2046771496534},
   {  -0.0352711305022,   0.0258806794882,  -0.0730471983552,   0.2110012173653,  -0.1460521072149,  -0.0260040182620,  -0.0361946336925,   0.0710772871971,   0.0751821845770,   0.0883406847715,  -0.2388786375523,   0.1857779324055,   0.1500937938690,   0.0798620283604,   0.0483211837709,  -0.2130053192377,   0.0919195339084,  -0.2161344587803,  -0.1431713551283,   0.2109130173922,  -0.1791122853756,  -0.2015215158463,   0.1599557548761,   0.1920115798712,  -0.2618299722672,  -0.2680300772190,   0.1074662283063,  -0.0267000552267,   0.1174775660038,   0.0449263155460,   0.2240716665983,  -0.2048747837543,   0.0980125665665,   0.1729638427496,  -0.1311402469873,  -0.0895872190595,  -0.2366821914911,  -0.0683625638485,  -0.1246017664671,  -0.1294772624969,  -0.0660474896431,  -0.1893189847469,   0.1215211749077,   0.1345253884792,   0.1110218241811,  -0.0334468409419,  -0.0438896417618,  -0.0737524181604,   0.0750815942883,  -0.2030554860830},
   {   0.2083849012852,   0.1529732048512,  -0.1932185739279,   0.1884586811066,   0.1051939651370,  -0.1930669993162,  -0.0790068656206,  -0.1229986846447,  -0.2186019420624,   0.2329843491316,   0.2033009976149,   0.1979338675737,   0.1743567436934,   0.0741526558995,  -0.1866119056940,  -0.1005798429251,  -0.0328804329038,   0.0984981283545,  -0.0763869881630,  -0.0724683403969,  -0.0752675458789,   0.1220002621412,  -0.0386943928897,   0.1120417565107,   0.0857391804457,   0.0920600444078,   0.1925683170557,   0.0854380726814,   0.0974054336548,  -0.1614984273911,   0.0941356047988,  -0.0931784734130,   0.1492441445589,   0.1674235314131,  -0.1556846946478,  -0.2070825248957,   0.1030550003052,   0.1632890254259,   0.0344228707254,   0.2319858968258,   0.1514581739902,  -0.0018944810145,   0.2098817974329,  -0.0741759985685,   0.1093825474381,  -0.0233340077102,   0.1919943541288,   0.1986760497093,   0.0612204894423,  -0.1265968680382},
   {  -0.1057626903057,   0.2260310351849,  -0.0273575428873,   0.1656794548035,  -0.0655388683081,  -0.1939525753260,  -0.1735065281391,   0.1313667297363,   0.1515696197748,  -0.0833557322621,   0.0662637874484,   0.0973462313414,   0.1845001876354,  -0.0301504358649,  -0.1317494660616,  -0.0958687588573,  -0.0276000779122,   0.2614909112453,  -0.0562387779355,  -0.1578903198242,  -0.1917188316584,  -0.0022943275981,   0.1803016364574,   0.1828065663576,  -0.0130289727822,   0.2613815963268,   0.1011056900024,  -0.1001085191965,   0.0602299086750,  -0.1952175348997,  -0.1626576185226,  -0.1029193699360,  -0.0599009692669,  -0.0642969012260,   0.1561667919159,  -0.2560723721981,  -0.2138304114342,  -0.0337400920689,   0.0521104149520,  -0.1544018387794,  -0.0096459416673,   0.0005859509693,  -0.0302788559347,   0.0542552247643,   0.0126212202013,   0.0262737087905,   0.0258307550102,  -0.0214362833649,  -0.0926606729627,   0.2222207337618},
   {  -0.0678053572774,   0.2335319370031,  -0.0271758232266,  -0.0201674588025,   0.0588667765260,  -0.2005704492331,  -0.2096837759018,  -0.1895875632763,   0.2026212662458,   0.1059919595718,   0.0378865487874,   0.0664127618074,   0.1380941122770,  -0.1598591804504,   0.1178411170840,  -0.1373601406813,  -0.1693643778563,   0.0208630859852,  -0.1366115361452,   0.0169589649886,  -0.0396158881485,  -0.0942571386695,  -0.2033028304577,  -0.2133633047342,   0.1802182197571,   0.0407078601420,   0.0267432816327,   0.2252723127604,   0.1436217427254,   0.1560839414597,  -0.0116185154766,  -0.1040133908391,   0.1746500581503,  -0.2078191936016,  -0.1164459288120,   0.0649578869343,  -0.1878322809935,   0.1817058920860,  -0.1845334768295,  -0.0441524609923,  -0.1106387302279,   0.1651998758316,   0.2093612998724,   0.1522143781185,   0.2019537985325,   0.0067398860119,   0.2229694575071,  -0.1579976528883,   0.0948592126369,  -0.1908159852028},
   {   0.0691383332014,   0.1645822674036,  -0.1183147132397,  -0.1621776968241,  -0.0766072720289,   0.0043359808624,   0.1312709301710,   0.1208086684346,   0.0636214539409,   0.2018453776836,   0.0005718632601,   0.0937733799219,  -0.0919472426176,  -0.0930714383721,   0.1127921640873,  -0.0246932487935,  -0.0038660259452,  -0.1376749575138,   0.1284724026918,  -0.1035530939698,   0.0260237455368,   0.0462015271187,   0.0340694747865,   0.1944498419762,   0.0273676291108,   0.1486954241991,   0.0097456136718,   0.0810919925570,  -0.2272228896618,  -0.0717329308391,  -0.0547667443752,   0.1707077026367,  -0.0807401463389,  -0.0912136137486,   0.0304284188896,  -0.1201675608754,  -0.0148897813633,  -0.1862804293633,   0.1661947816610,   0.2072031348944,   0.1216429024935,   0.1594827175140,  -0.0874386206269,   0.0163142457604,   0.0537096410990,   0.2098570913076,  -0.0791101828218,  -0.0475931465626,  -0.1671594828367,  -0.0380610264838}};
  const float bias_0[50] = {  -0.0021275484469,   0.0067952638492,  -0.0073152021505,   0.0100099723786,  -0.0237633213401,  -0.0005089153419,   0.0450419932604,  -0.0184708926827,  -0.0026178564876,   0.0231550708413,  -0.0093621052802,   0.0417633317411,   0.0344308689237,   0.0262316223234,   0.0419749654830,  -0.0029781686608,   0.0093803368509,   0.0197062715888,   0.0313245244324,   0.0050052292645,   0.0245563685894,   0.0389225855470,  -0.0220551863313,   0.0440857931972,   0.0152759756893,   0.0309451986104,   0.0058691627346,   0.0055131800473,   0.0115624526516,   0.0336384661496,   0.0052403169684,   0.0160171445459,   0.0150605197996,   0.0345779657364,   0.0241407435387,   0.0411868579686,   0.0377019979060,   0.0073707797565,   0.0117123732343,   0.0258299335837,  -0.0298812687397,   0.0240913052112,   0.0090407729149,  -0.0033899627160,  -0.0216685682535,   0.0203541796654,   0.0335830003023,   0.0260624624789,   0.0324806049466,   0.0264819469303};
  // Declare the arrays in the stack
  const float kernel_1[50][50] = 
  {{  -0.2426713407040,  -0.2507283985615,  -0.0206625349820,   0.1418644636869,  -0.0586369819939,  -0.0361751019955,  -0.1463512480259,  -0.0807869508862,   0.1628727018833,   0.2507568001747,  -0.1091269552708,   0.1077118366957,   0.0195949394256,   0.2134198546410,   0.1407328248024,   0.1063560396433,  -0.0631536766887,  -0.0804511457682,  -0.2093606889248,   0.2438654005527,  -0.0399819090962,   0.0389724187553,   0.2705411314964,  -0.1731364876032,   0.1181830614805,  -0.0443015210330,   0.0043010218069,  -0.1161103025079,   0.1599548161030,  -0.0962969511747,  -0.2049092352390,   0.0513846948743,   0.0966944769025,  -0.0745355188847,  -0.0556911341846,  -0.1693099886179,  -0.1712922304869,   0.0789299383759,  -0.2219745814800,  -0.1601508110762,   0.2070336639881,   0.0598640702665,   0.1242399066687,  -0.0214458722621,  -0.1810995489359,   0.0835750699043,  -0.1517800688744,   0.1019354909658,   0.1887269318104,   0.2573449015617},
   {  -0.1742781400681,   0.1619753688574,  -0.1905141770840,  -0.1138229817152,  -0.0371879450977,  -0.1059243902564,  -0.1323903501034,  -0.0752822160721,   0.0836222320795,  -0.0018686454277,   0.1233784705400,  -0.0705799534917,  -0.2528655230999,   0.0878716111183,   0.0300798080862,   0.2214606106281,  -0.0320435687900,   0.0387663878500,  -0.0818631201982,  -0.1620422154665,  -0.0649700686336,   0.1891926229000,  -0.0168518181890,  -0.0991948246956,  -0.1630211025476,   0.1287797540426,  -0.1503163278103,  -0.2289788722992,   0.2690275311470,  -0.2392587959766,  -0.0189979597926,   0.0766893625259,   0.0475484617054,   0.1572650969028,   0.2652725577354,  -0.0893635079265,   0.0114299049601,   0.2072761505842,  -0.1349845379591,   0.0774590969086,   0.2044403254986,  -0.1021333113313,  -0.0861785635352,   0.1706449240446,  -0.1818922758102,  -0.1147173494101,  -0.1566983908415,   0.1800148487091,  -0.1092098504305,  -0.1841463148594},
   {  -0.0631116926670,  -0.1040511354804,  -0.1363541781902,  -0.0339915491641,  -0.0979086682200,   0.0716091841459,  -0.0927161574364,  -0.0010647946037,   0.1804728209972,  -0.1087706238031,   0.0051212213002,  -0.1931660920382,  -0.1689840555191,   0.1347788274288,   0.1290621012449,   0.2082801908255,   0.0918262600899,  -0.0646962746978,  -0.0996825993061,  -0.0679941773415,  -0.2287396788597,   0.0098403850570,   0.0930673480034,  -0.0326261632144,   0.0471419133246,   0.0751473829150,   0.1606342494488,  -0.1885818094015,  -0.1406001299620,  -0.0260803122073,  -0.2108580768108,  -0.0988209024072,  -0.0398234836757,   0.1960699260235,  -0.0870838910341,  -0.1497426778078,   0.1487099081278,   0.2240526080132,   0.1411267817020,  -0.1600184738636,   0.0022584088147,  -0.2638878524303,   0.1878467649221,  -0.1292754113674,  -0.0256197229028,  -0.1717612892389,  -0.1855123937130,  -0.0936563163996,  -0.1138423979282,   0.0029191982467},
   {  -0.0165992658585,  -0.1158890202641,   0.0855586230755,   0.1526274979115,   0.2251825928688,   0.1454202681780,   0.0089924791828,  -0.1027302145958,  -0.2058730125427,   0.0737275332212,  -0.1846574246883,   0.0509625524282,   0.0381093211472,  -0.2890184521675,  -0.1596498489380,  -0.0862911641598,   0.0239216294140,   0.0470002293587,   0.0546773113310,  -0.0698209181428,   0.0196839403361,   0.0199670977890,   0.1724335402250,   0.1797266304493,  -0.0379963666201,  -0.0064762276597,   0.0129816131666,   0.1235145553946,  -0.1560475677252,  -0.0576394274831,  -0.1529636085033,   0.0271246358752,   0.2331880629063,  -0.1274815946817,   0.1862654536963,   0.1504023224115,  -0.2147985547781,   0.1137711107731,  -0.2504069805145,   0.2140091210604,   0.0459448322654,  -0.1210942044854,   0.1681080013514,  -0.2205006629229,  -0.0480102114379,  -0.1620503365993,   0.2258014976978,   0.0329272486269,  -0.0401683300734,   0.2159418016672},
   {  -0.1450377851725,  -0.1103042811155,   0.1965375393629,   0.0454357862473,  -0.1735018193722,   0.1209346130490,   0.1920176595449,  -0.2040865868330,  -0.0307605378330,   0.2718940675259,   0.2452011853456,  -0.1174523532391,   0.0211091861129,   0.2497016042471,   0.0873912945390,   0.1255427151918,  -0.1149795502424,  -0.0765847861767,   0.2146606445312,  -0.1287288516760,  -0.1029319092631,  -0.0070852055214,   0.0153242964298,   0.1419325470924,   0.1503908932209,   0.0347367264330,  -0.1180438324809,  -0.2280719280243,  -0.0187014136463,  -0.0234236344695,   0.1023486405611,  -0.0984236225486,  -0.0017552167410,  -0.0825035050511,  -0.1437009423971,   0.1012867763638,   0.0373244769871,   0.1281863301992,   0.0572739169002,   0.2000066339970,   0.2051694989204,   0.0737272053957,  -0.1735138446093,  -0.1348345726728,  -0.0841106399894,   0.1186911836267,   0.2419587224722,   0.1847872883081,  -0.1034716367722,  -0.1505899727345},
   {  -0.1995282918215,   0.0021395504009,  -0.0469166859984,   0.0429806634784,  -0.1123050674796,   0.2106275856495,   0.0492091625929,   0.1629047840834,   0.2222011834383,   0.0627498030663,   0.1595302224159,  -0.0573605448008,  -0.1224724873900,   0.1991253346205,  -0.1252499967813,   0.0811627060175,   0.0932669714093,  -0.0666750743985,   0.1779154837132,  -0.0062374020927,   0.0187547020614,  -0.0040244963020,  -0.1854367256165,   0.2309135347605,  -0.0334650650620,   0.0593282878399,  -0.1942831873894,   0.1986854672432,   0.1112472116947,  -0.0261311326176,   0.0596649572253,  -0.1935229301453,  -0.2294847816229,   0.0781978517771,   0.2661475539207,  -0.0051631601527,  -0.1242743283510,  -0.2091829031706,   0.0831228494644,   0.1365497410297,   0.1235032826662,  -0.1428831368685,   0.0714033097029,   0.1997632533312,  -0.1305751353502,  -0.2370604425669,  -0.1772217899561,  -0.2267479449511,   0.1584833711386,   0.0262297112495},
   {  -0.1656151562929,  -0.2077434659004,  -0.1499287635088,  -0.2101826071739,   0.0379190444946,   0.2167756855488,  -0.0306341201067,  -0.0155226802453,   0.2387021631002,   0.0225826296955,  -0.1337590217590,   0.1180523708463,  -0.0537169128656,   0.1998271644115,   0.1182888597250,  -0.2236501425505,   0.1069787144661,   0.0324157550931,  -0.0985763296485,  -0.2458664774895,   0.2155389487743,  -0.0036239584442,   0.1628749370575,   0.2058231383562,   0.0317927300930,  -0.1371164470911,   0.2689974904060,   0.1270629912615,  -0.2044728249311,  -0.1673172861338,  -0.1135375648737,   0.0223720520735,  -0.0990308597684,   0.0349472761154,  -0.1920241564512,  -0.1540184766054,  -0.1758630871773,   0.1263419389725,  -0.1604399532080,   0.1704955250025,   0.2566190361977,   0.1900570392609,  -0.1598244905472,  -0.0945483520627,  -0.2489983439445,  -0.0697522535920,  -0.0402235090733,  -0.1889183968306,  -0.0372332818806,   0.0896658897400},
   {  -0.0788830444217,  -0.0969082564116,   0.2288051992655,   0.0669239461422,   0.0494429133832,  -0.0982418283820,  -0.0654409751296,   0.0323420315981,   0.0019187829457,   0.0440520457923,   0.1902776807547,   0.0814090520144,   0.0228348467499,   0.0024016925599,   0.0006821982097,   0.1233509629965,  -0.0543567240238,   0.0192789994180,   0.0552333295345,  -0.0885601267219,  -0.1665567159653,   0.2194135934114,  -0.1994598656893,  -0.0321276225150,   0.2490726858377,  -0.1480716317892,   0.0081813763827,   0.0107485912740,   0.0120725883171,   0.0772520899773,  -0.1944900751114,   0.0254628937691,   0.2344327419996,  -0.1888743489981,  -0.0237449109554,   0.0380068160594,  -0.1247734203935,  -0.2077794522047,   0.1986585706472,  -0.1525992155075,   0.0322934128344,  -0.0136684095487,  -0.1360661983490,  -0.0458904951811,   0.0086013693362,   0.1078915297985,   0.1567466109991,  -0.0488450899720,   0.1735582202673,   0.1311879903078},
   {  -0.0261915232986,   0.1125878319144,   0.1065208092332,   0.1969137787819,  -0.1096680536866,  -0.0267040729523,   0.1897594630718,   0.0537708587945,  -0.1000925228000,  -0.1419982016087,   0.2369873821735,  -0.1594710201025,   0.1858724802732,   0.0380400680006,   0.1339722126722,  -0.0437542684376,   0.1005447953939,  -0.1215759217739,   0.0615364760160,   0.0846885591745,  -0.1409984230995,   0.0948232710361,  -0.1905214041471,   0.1280268430710,   0.2037405371666,  -0.1196704953909,  -0.1731768995523,  -0.1582464873791,   0.0794394686818,  -0.1026161387563,   0.2622293531895,  -0.0650338828564,   0.1163403168321,  -0.0257958378643,  -0.1276386231184,  -0.1097858622670,  -0.2081879824400,  -0.1839575320482,  -0.1833120733500,   0.1166706308722,  -0.1827101260424,  -0.1361120641232,  -0.0859565660357,  -0.1381426900625,  -0.1989483088255,  -0.1598486304283,  -0.0133098661900,  -0.2148225307465,   0.1998211443424,   0.1942421346903},
   {  -0.1328315138817,  -0.0592622980475,   0.0875606909394,   0.1936372220516,  -0.0687773525715,  -0.0879784002900,   0.1051474586129,   0.0888902321458,  -0.1425187438726,   0.0621503330767,  -0.1358123272657,   0.1703480780125,  -0.0294155329466,   0.1114549636841,   0.2230913490057,   0.1595929116011,   0.0509395822883,  -0.1336914002895,  -0.0902954936028,  -0.1190432012081,   0.0780441090465,  -0.2053039669991,  -0.0279140584171,  -0.1655553132296,  -0.0149934673682,  -0.1238067671657,   0.0903863087296,   0.1766296327114,  -0.1011467128992,  -0.1064514890313,  -0.1251317113638,   0.1621464341879,   0.0080103017390,   0.1786731779575,  -0.1680838316679,   0.2625691890717,  -0.0796090140939,   0.1124181374907,  -0.2142773270607,  -0.0276343338192,  -0.1872829794884,  -0.2296894043684,  -0.0953275039792,  -0.1006258577108,   0.2018870115280,  -0.1459923386574,   0.2761875092983,  -0.0060106026940,   0.1560099720955,   0.0565790459514},
   {   0.1808385699987,  -0.2140595465899,   0.2502598166466,   0.0464417785406,   0.1983482390642,   0.2404636144638,  -0.0626279190183,   0.1477859318256,  -0.0232731215656,  -0.2026893943548,  -0.1971562057734,   0.0517821349204,   0.1665143668652,   0.1345313489437,   0.1355908364058,  -0.0025586760603,  -0.1164803355932,  -0.1453887522221,   0.0776393413544,  -0.1223297342658,   0.0529338456690,   0.0080831758678,  -0.1693203896284,   0.1442979276180,   0.2096243351698,  -0.1498096883297,  -0.1762899756432,   0.1694009900093,  -0.0503996983171,  -0.0052326787263,   0.1954330205917,   0.1320006847382,   0.0917998999357,   0.0389259792864,  -0.1297150701284,   0.1830706149340,  -0.0271099675447,   0.0655493736267,   0.0119776632637,   0.1465899050236,  -0.0910793468356,   0.1622396558523,   0.1655147820711,   0.0108868749812,  -0.1132044196129,  -0.1471716910601,   0.1250683516264,   0.2238039821386,   0.0641101747751,   0.1377430111170},
   {   0.1224548071623,  -0.1727680712938,  -0.1385141462088,   0.0207824409008,   0.0206925775856,   0.0226873438805,  -0.0948457419872,   0.2151456177235,   0.2105544060469,   0.2523458898067,   0.2554837167263,  -0.0540182068944,  -0.0923423990607,   0.0278352424502,   0.1462535262108,   0.0003493072290,  -0.1280158609152,  -0.0274739395827,   0.0082097379491,   0.2856205105782,  -0.2020852416754,  -0.1614419519901,   0.0780128613114,   0.2673762738705,   0.0370585918427,  -0.2165776491165,  -0.0669742822647,  -0.2481029778719,  -0.1520110964775,   0.1639263331890,  -0.1200801283121,  -0.0351288951933,   0.1039361506701,   0.0104223219678,   0.1477153450251,   0.1050028204918,  -0.2254394739866,   0.1868393123150,   0.1485610902309,   0.2210084944963,  -0.1758538186550,  -0.0765591710806,   0.1884750127792,  -0.0266180392355,   0.0519311502576,   0.0602922812104,  -0.0782637372613,  -0.1872836351395,  -0.1149362400174,   0.1085518524051},
   {  -0.2481208145618,  -0.0280742142349,  -0.1290305554867,  -0.1965001225471,  -0.2066427022219,   0.0148751344532,   0.1513333916664,  -0.0739252716303,   0.0922577828169,   0.0817205458879,   0.1124155074358,   0.0042951130308,   0.1002722457051,  -0.1404329687357,  -0.0839260369539,  -0.2300916165113,   0.1336996257305,   0.2408042997122,  -0.1289822608232,  -0.1661893576384,  -0.1644634455442,   0.1079351603985,   0.1293782442808,  -0.0848957747221,  -0.0262949168682,   0.2305719852448,   0.1571653336287,  -0.0068792626262,   0.1684460192919,   0.1852219253778,  -0.1617899686098,  -0.0171777270734,  -0.0710097625852,  -0.1432591527700,   0.2197809517384,  -0.1429795175791,   0.1148161217570,   0.1526474803686,   0.1046328097582,  -0.0424752086401,  -0.2314036637545,  -0.1178632974625,  -0.0641970634460,   0.1297615021467,   0.0643047764897,  -0.2492661476135,   0.1217655017972,  -0.1687338352203,  -0.1353828758001,   0.2280573099852},
   {  -0.1805653423071,   0.0912672951818,  -0.2243907153606,   0.0570628121495,  -0.0690134465694,  -0.1983247250319,  -0.1780412942171,   0.2389384508133,   0.0013135675108,   0.1481790393591,   0.0037634195760,  -0.1513843834400,   0.2459494918585,  -0.2269725501537,  -0.0514942780137,  -0.1170134022832,  -0.0643404200673,   0.0815083384514,   0.2308902293444,  -0.1542919278145,   0.0525103285909,  -0.0328575372696,   0.1411109119654,   0.0741125643253,   0.0842918828130,   0.2329001575708,  -0.0013543474488,   0.0529965572059,  -0.1468795537949,  -0.1727055311203,  -0.0726812258363,  -0.1773402988911,   0.0328928977251,   0.1478580534458,  -0.1916481554508,   0.1184820532799,  -0.0087807402015,  -0.0503891929984,   0.0880702957511,   0.0649703294039,  -0.1088371276855,   0.0339373424649,  -0.1504813283682,  -0.0180134810507,   0.1918705403805,  -0.0380958132446,  -0.0611210614443,  -0.1667681336403,  -0.0369413755834,  -0.0012602144852},
   {  -0.1344103813171,   0.1132919043303,   0.0524498522282,  -0.2173014879227,  -0.0121545763686,  -0.1801976561546,   0.2230539172888,   0.0921105444431,   0.0836530476809,   0.1107163056731,  -0.2419125884771,   0.1515948027372,   0.1257016211748,   0.1092586368322,  -0.0751631781459,  -0.2112655788660,   0.0901772230864,   0.0667851343751,  -0.0537540242076,   0.0481344498694,   0.2061164230108,  -0.1658624857664,  -0.0803452208638,  -0.1407707929611,  -0.0426314920187,   0.1287548243999,  -0.1191744208336,  -0.0882056131959,  -0.0848970338702,   0.2232550978661,  -0.1926108449697,   0.1626252830029,   0.1637119948864,   0.0160694494843,   0.1204810142517,   0.0667625740170,   0.0448151975870,  -0.0002976866672,  -0.1738996654749,  -0.0282024834305,  -0.1184518262744,  -0.0545766353607,  -0.1878953278065,   0.1990561336279,   0.0751610100269,   0.0144144110382,   0.1084327399731,   0.0001710183278,  -0.0577196143568,   0.2164692133665},
   {  -0.0500360503793,   0.0576438419521,   0.0560276918113,  -0.0225819647312,  -0.0196604002267,  -0.2046815603971,   0.0945392102003,   0.1739897727966,  -0.0932751148939,   0.1795307546854,  -0.1127668470144,  -0.2837837934494,  -0.1656099259853,   0.0079112444073,  -0.2013344913721,   0.2208012044430,   0.1375776380301,   0.1897932291031,  -0.1109647154808,  -0.1905485540628,   0.0185384396464,  -0.0301967095584,  -0.1176764369011,   0.1653143465519,   0.2085763961077,   0.1944185942411,   0.1227319464087,   0.2422153055668,   0.2264887988567,  -0.1938511431217,  -0.1988074630499,   0.1248309090734,  -0.0498325601220,   0.0939930081367,  -0.0393664129078,  -0.1885791569948,   0.1276900172234,   0.0869492143393,   0.1058568805456,  -0.2101135104895,  -0.0342170856893,   0.1175795048475,   0.2077388465405,   0.1211535632610,   0.0254427772015,   0.0747246518731,  -0.2158172279596,  -0.0264838282019,  -0.1236426308751,   0.1287046968937},
   {  -0.0139443557709,  -0.2118514776230,  -0.2059844732285,  -0.0481887981296,  -0.2364604026079,  -0.1962362229824,   0.1486624926329,   0.0302075911313,  -0.0575839579105,  -0.0422810688615,  -0.1949211806059,   0.1683127284050,  -0.1457646489143,  -0.0587982274592,   0.0757715329528,   0.1376568228006,  -0.2034222334623,  -0.2458941191435,   0.1404917836189,   0.2399259507656,   0.0761134922504,  -0.2150475382805,  -0.1326228678226,  -0.1940242052078,  -0.1020912379026,   0.0014840513468,  -0.0216646343470,  -0.0897371098399,   0.0970188230276,   0.0896735042334,   0.1701477468014,  -0.0666291713715,   0.0930033698678,   0.0166503880173,  -0.1687891036272,  -0.0659413784742,  -0.0009402786964,  -0.0166704542935,   0.0216193851084,   0.0873270928860,   0.0428618714213,   0.0546572506428,  -0.0223788507283,  -0.1851781010628,   0.0713087394834,  -0.1108791679144,   0.1122092083097,   0.2078274041414,   0.1396859288216,   0.0088966693729},
   {  -0.1679090410471,  -0.2125551402569,  -0.0602837167680,  -0.0286590382457,  -0.2452007085085,   0.2314038574696,  -0.0256246402860,   0.0002707380627,   0.0766355320811,   0.0748590379953,   0.0944330096245,  -0.1740357130766,   0.0840204656124,   0.2549972534180,  -0.1872515380383,  -0.1805771440268,  -0.0072190854698,  -0.2239727526903,  -0.1371724307537,   0.0889893993735,  -0.1830133348703,   0.0862164646387,   0.1178061515093,  -0.1561091840267,   0.1803171932697,   0.0143863037229,   0.2067028433084,  -0.2347820997238,   0.0243008248508,  -0.1247749477625,  -0.1928447037935,  -0.0004740612349,  -0.2545664310455,   0.2005572617054,   0.1386705636978,  -0.2090857625008,   0.0252981223166,  -0.1902774274349,  -0.0935977101326,   0.1364358216524,   0.0479651987553,   0.0519344769418,  -0.1820252239704,  -0.1371391266584,  -0.0167124383152,  -0.1534551382065,  -0.1080343797803,   0.0895418673754,  -0.0618015490472,   0.2104551941156},
   {  -0.0536579415202,  -0.2025684565306,  -0.0292883031070,  -0.2304652333260,  -0.2282695174217,   0.2851993739605,   0.1389964669943,   0.1880779862404,   0.0445919148624,   0.0196752902120,  -0.0071979542263,   0.0371775999665,  -0.0261631812900,  -0.1827511936426,  -0.0259460322559,  -0.1085815578699,   0.2008021324873,  -0.1742475479841,  -0.0674631968141,   0.1791708171368,  -0.2236365377903,  -0.1280378699303,   0.0078722285107,   0.1463054418564,  -0.0589942894876,   0.2487298101187,  -0.0543126016855,   0.0891947373748,   0.2131684422493,  -0.0029146391898,  -0.1331359893084,  -0.2432838678360,  -0.1999751627445,   0.0776575282216,  -0.1521829068661,   0.0558529570699,  -0.1383060961962,   0.0118644554168,   0.0118744885549,  -0.1317479908466,   0.0492760948837,  -0.0798310264945,   0.1773915737867,  -0.0465038158000,  -0.0452922061086,  -0.0934615805745,   0.1345058977604,  -0.0497308149934,  -0.0386960394681,  -0.0780816599727},
   {  -0.0034547420219,  -0.2402579337358,   0.1980128884315,   0.1423125416040,   0.1054585427046,   0.1938236206770,   0.0034887597430,   0.0830708518624,   0.2180351018906,  -0.0489945858717,  -0.1402386426926,  -0.1367360502481,   0.0350266732275,  -0.1305115520954,  -0.1597699820995,  -0.1720528602600,   0.1305147111416,  -0.0130263529718,   0.1521060466766,  -0.1009104847908,  -0.0597811862826,  -0.2081608623266,  -0.1618323326111,  -0.2249704301357,  -0.0837230086327,  -0.1137228161097,   0.2133438587189,   0.2631724476814,  -0.0173436030746,  -0.0006070376257,  -0.0117494137958,  -0.1414187401533,   0.2123212963343,  -0.0054208370857,   0.0419460460544,  -0.1675588488579,  -0.1401066929102,   0.1661143153906,   0.1081368103623,  -0.1326727122068,  -0.1043722704053,  -0.1519306302071,  -0.0656958222389,   0.1763225942850,  -0.1200976967812,   0.0022161393426,  -0.1550360471010,   0.1016539782286,  -0.1155642271042,  -0.0141095714644},
   {  -0.0164612289518,  -0.2007329463959,  -0.1861910820007,  -0.1260287612677,  -0.1698608249426,  -0.1364852488041,   0.0418742671609,  -0.1488315016031,   0.0456253215671,   0.2601796984673,   0.0434487350285,   0.0210295487195,   0.2321389168501,   0.0829074978828,   0.1902695149183,   0.1685681045055,  -0.2314859926701,   0.2014035433531,  -0.2597545385361,  -0.0619168058038,  -0.1839119344950,   0.2090576887131,  -0.1421025395393,   0.1159541234374,  -0.2675588130951,   0.2403345108032,   0.0774610713124,   0.0711371824145,  -0.2249516546726,   0.0209310725331,   0.0236400980502,   0.1363635808229,   0.0065238163806,   0.0710754245520,   0.1913069337606,   0.0765266492963,   0.0722234621644,  -0.2211967855692,   0.0899626612663,   0.1652458906174,  -0.0558882243931,   0.1227465644479,  -0.0386611521244,   0.1649243235588,  -0.0765045732260,   0.1613027453423,   0.1161636412144,  -0.0212683286518,  -0.2052522152662,   0.1008289381862},
   {  -0.1786099970341,   0.1800229847431,   0.1983484476805,  -0.1511192470789,   0.0053848978132,  -0.1494516581297,   0.2197228819132,   0.2384127527475,  -0.0901744961739,   0.1221343874931,   0.0247559994459,  -0.0840700715780,   0.0541574135423,  -0.1886295527220,  -0.2005804926157,   0.0478738658130,  -0.1096458137035,  -0.1488729715347,  -0.2328658998013,   0.1916868388653,  -0.0980940684676,   0.0134101873264,   0.0603466331959,  -0.0657134652138,   0.0646775215864,   0.1884858906269,  -0.1566195338964,  -0.1062786951661,  -0.1258875578642,   0.2370792776346,  -0.0925099551678,  -0.2295184284449,  -0.0688270702958,  -0.2121546268463,  -0.0659982934594,  -0.1876737773418,   0.1523019820452,  -0.0801684111357,   0.2378655672073,   0.0592798218131,   0.1364190578461,  -0.0825060233474,   0.0900330021977,  -0.0747226253152,   0.0001265058090,  -0.1934569627047,   0.1965965032578,   0.2121099233627,  -0.2114035636187,   0.1749829947948},
   {  -0.1676310896873,  -0.1239281222224,   0.1896622031927,   0.1776355504990,   0.1051760464907,   0.2433647513390,  -0.1107933819294,  -0.0124854492024,  -0.0547600463033,   0.0735506340861,  -0.0141201512888,  -0.1641176193953,   0.2389910817146,  -0.2313702702522,  -0.0195761863142,  -0.0798351019621,  -0.0372571013868,   0.0958780348301,  -0.1161473840475,  -0.0878627002239,  -0.1697619855404,   0.1967409998178,  -0.1290325373411,   0.2744631171227,  -0.2343666702509,  -0.1789401024580,  -0.1961863636971,  -0.1359287053347,  -0.0311122890562,   0.0073962239549,   0.1117604225874,   0.0936995595694,   0.1228224262595,  -0.1956690549850,  -0.0305343344808,  -0.1241773590446,   0.2213837206364,   0.0157809834927,  -0.2718376219273,   0.2251100391150,   0.1237740144134,  -0.2013648450375,   0.2417607903481,  -0.1635845005512,   0.0198647603393,  -0.1228633746505,  -0.0456225909293,  -0.0840396657586,   0.0557601973414,  -0.0868039950728},
   {   0.2284030020237,  -0.2049626857042,   0.0679377466440,   0.1684156656265,  -0.0890110582113,  -0.0416815392673,   0.2760149538517,   0.0809851288795,   0.1067625582218,   0.2049225270748,  -0.1875503957272,  -0.1051341518760,   0.2402349114418,   0.2663885354996,  -0.0380342081189,   0.0825880914927,  -0.0808453187346,  -0.0737637579441,   0.0131510803476,   0.2074004858732,   0.2311168611050,   0.0762891247869,   0.0701666846871,   0.1382011473179,  -0.1600361466408,  -0.1881081759930,  -0.1321704685688,   0.1158984899521,  -0.0851554051042,  -0.1838673949242,   0.0416604839265,  -0.2538181543350,  -0.1306855082512,  -0.0224827993661,   0.2468453496695,  -0.2256057411432,  -0.1042202860117,   0.1971199959517,  -0.2553923428059,  -0.0999245196581,  -0.0237532164901,  -0.1446596682072,  -0.1699291318655,  -0.0363440290093,  -0.0270834583789,  -0.1688314676285,   0.1295617967844,   0.0795403867960,  -0.2320170998573,   0.0216589290649},
   {  -0.2223874181509,   0.0137749239802,  -0.0720077529550,   0.2295329868793,   0.0536185204983,   0.1033869832754,  -0.0005213660188,   0.1780499666929,  -0.2366613596678,   0.1428457647562,   0.1280057430267,   0.0450286231935,   0.0842417702079,  -0.1720776706934,  -0.1769561022520,   0.0783689394593,   0.1429178863764,   0.0402504093945,  -0.2351824492216,  -0.2458549886942,  -0.2245540767908,  -0.1039357781410,  -0.1677961200476,   0.2133968025446,   0.2388139367104,  -0.1461999863386,   0.0458629690111,   0.0799494385719,   0.0237541142851,   0.0196906942874,   0.1942023336887,   0.1811557263136,   0.2012819796801,   0.1197872012854,  -0.2157250791788,  -0.1268081068993,   0.2202835083008,   0.0479219853878,   0.0429953970015,  -0.1467185020447,  -0.0721160694957,  -0.0811024531722,   0.2161712050438,   0.2634234428406,   0.0060244654305,   0.1952435970306,  -0.0803829208016,  -0.1588262170553,   0.0711127147079,  -0.0603643283248},
   {   0.0113960802555,  -0.1847546696663,  -0.1208899095654,   0.0427183434367,  -0.2208803594112,  -0.0484531223774,   0.1727303415537,  -0.1263283193111,  -0.2480554580688,   0.2687596976757,   0.1281348019838,   0.0516607463360,   0.2277251034975,   0.1337577104568,  -0.0050860014744,   0.0316794551909,  -0.1254552155733,   0.0971778854728,  -0.0102547565475,   0.0530560016632,  -0.0377690047026,  -0.1298685669899,   0.0060714255087,  -0.0922378748655,   0.0510491617024,  -0.2371561527252,   0.1388380080462,   0.1821408718824,  -0.1088331863284,  -0.1770577430725,  -0.1306212395430,   0.0369618646801,  -0.1626008301973,  -0.1558762788773,  -0.2289082705975,   0.1873222589493,  -0.2521123290062,  -0.1523694694042,  -0.0070517375134,   0.0741536915302,   0.0741600096226,   0.0803410559893,  -0.2730397582054,  -0.1299023926258,  -0.1101301833987,   0.1758002787828,  -0.1668048948050,  -0.0879171639681,   0.1499961316586,  -0.0760344341397},
   {  -0.1942037045956,  -0.1367375552654,  -0.1521249860525,   0.1523408740759,  -0.0225004926324,   0.0342460572720,  -0.1705994606018,   0.0237529706210,   0.1455390453339,   0.1904692351818,   0.0119901504368,   0.0689055845141,  -0.0937954038382,  -0.0910580828786,   0.1163280382752,   0.0864165946841,   0.1689838171005,  -0.2114403247833,  -0.0600988380611,  -0.1497174501419,   0.0272316653281,   0.0147758806124,   0.1304295510054,  -0.2018224447966,  -0.1703257709742,  -0.1259247064590,   0.1916891634464,   0.0148741258308,  -0.1739030778408,  -0.1509439498186,   0.0875865817070,  -0.0243517793715,   0.1099920943379,  -0.1636919975281,   0.1600278764963,  -0.0036893861834,  -0.2591253817081,   0.0353877432644,  -0.0838554799557,  -0.1528190225363,  -0.2003565430641,  -0.2649702727795,   0.0110021587461,   0.0578256212175,  -0.1617332398891,   0.1522295475006,   0.0769061371684,  -0.0242002923042,   0.1533958613873,  -0.1124334111810},
   {  -0.1835583150387,   0.1317101567984,  -0.0669559761882,  -0.1178511455655,   0.0121738594025,   0.0865772739053,  -0.0115210600197,  -0.0645912885666,  -0.0318761393428,  -0.0453514344990,   0.1077975407243,  -0.0491585582495,   0.1198724731803,   0.2017252892256,  -0.1903215646744,  -0.2142476737499,   0.2396425604820,  -0.0828886553645,   0.2038989663124,   0.1403628736734,  -0.1400340199471,  -0.0945790037513,   0.2080405950546,  -0.1244009211659,   0.1439390778542,  -0.0766070038080,   0.2065494805574,   0.2292759716511,  -0.1856499314308,  -0.1091390699148,   0.1137079596519,  -0.1698355078697,  -0.2115931808949,  -0.0351534932852,   0.0852460861206,  -0.0405526608229,  -0.0848938822746,   0.1828922480345,  -0.2429865151644,   0.0471815876663,   0.1939025819302,  -0.1072167009115,  -0.0537063926458,   0.0814302340150,  -0.0669390559196,   0.0883217975497,   0.2178207486868,  -0.1676202863455,   0.0588018447161,  -0.0193299036473},
   {  -0.2288787662983,  -0.0385463461280,  -0.2661782801151,  -0.2274418175220,  -0.1245131641626,  -0.1918264478445,   0.0781275629997,   0.0173270329833,  -0.1988357454538,   0.2664710283279,   0.2146852612495,  -0.0838706120849,  -0.1544456481934,   0.1474047601223,  -0.0896021351218,   0.1183940395713,   0.1368773281574,   0.1173833459616,  -0.0025096063036,  -0.1863671243191,  -0.0562272593379,  -0.2320575714111,  -0.2587085366249,   0.0237909313291,  -0.1540569812059,  -0.0820736140013,  -0.1070324108005,   0.1955116242170,   0.1467434316874,   0.1457297950983,  -0.1802079230547,  -0.1955342739820,   0.0130912130699,  -0.2019117474556,   0.1863161176443,  -0.1075143441558,  -0.0580686628819,  -0.1913472115993,  -0.1699279993773,   0.0341953635216,  -0.1298530101776,  -0.0438909716904,   0.1280736029148,   0.1347071975470,  -0.1409842073917,  -0.1515153050423,  -0.1312705874443,   0.0947457104921,   0.0114444214851,  -0.1594688147306},
   {  -0.0352082550526,  -0.1674487739801,  -0.2297488600016,   0.1146218851209,  -0.1382423043251,   0.0410730317235,   0.1755576729774,   0.1106077954173,   0.0599459633231,   0.0397860705853,   0.2043370157480,   0.0667966455221,  -0.2018835395575,  -0.2560436725616,  -0.2231763899326,   0.2182636559010,  -0.0814036056399,   0.1353252679110,  -0.1281516849995,  -0.1405031681061,  -0.0443387813866,  -0.0850921794772,   0.1658359020948,  -0.1750351190567,  -0.1167865842581,  -0.2397912740707,   0.0141642047092,   0.0475860498846,   0.1728520095348,  -0.0057447268628,   0.1538304239511,   0.1755815148354,   0.1058194488287,   0.2242458164692,  -0.1915282756090,   0.1028624996543,   0.0731640979648,  -0.0116241080686,  -0.1245929300785,  -0.1996752023697,  -0.1636473536491,  -0.1081648617983,   0.1428988873959,  -0.2065630406141,   0.1545336395502,  -0.1996219903231,   0.1152589991689,  -0.0161821972579,   0.2745805978775,   0.1154017448425},
   {  -0.1734440177679,   0.0392793230712,   0.0729570686817,   0.1008869484067,   0.2577981352806,   0.1407338976860,   0.1825258880854,  -0.1441147029400,  -0.1582439094782,   0.0225165039301,   0.0407441072166,   0.0295135080814,  -0.2086742222309,  -0.0245578717440,  -0.1406695246696,   0.1762178540230,  -0.2063373178244,  -0.1160260364413,   0.0093203550205,  -0.1207616403699,   0.0791052505374,  -0.1595030575991,   0.1239577829838,   0.0205087047070,  -0.0899959355593,  -0.1844490617514,   0.1689106225967,  -0.1275425255299,  -0.0156625062227,  -0.1073037162423,   0.1949775367975,   0.1378860324621,  -0.1284956634045,   0.0189768057317,  -0.1493092179298,  -0.1810244917870,  -0.1470347940922,  -0.0887673944235,   0.0919287577271,   0.2327560484409,  -0.0249985773116,  -0.2752113044262,  -0.1532275825739,  -0.0709749534726,   0.1988248080015,  -0.0742304325104,  -0.0750062614679,   0.1200137436390,  -0.2755449712276,  -0.0030864998698},
   {  -0.2372638732195,   0.1739323288202,   0.1742227077484,   0.1661310195923,  -0.0360846817493,  -0.1521057486534,   0.2108087390661,  -0.0742069706321,   0.2252160012722,   0.0927701219916,   0.0142242666334,  -0.1484094113111,  -0.2028218805790,  -0.1119289547205,   0.2071924954653,  -0.1659742593765,   0.2546989023685,   0.0649226680398,  -0.1151543632150,  -0.1269700378180,   0.2269773483276,  -0.1567728072405,  -0.0186469014734,   0.1659399718046,  -0.0972375869751,   0.2488107979298,  -0.1512721180916,  -0.0649869143963,   0.0992634445429,   0.1821753382683,  -0.2421587556601,  -0.1079490557313,   0.2121120244265,   0.0839639753103,   0.2226927131414,  -0.0082078706473,   0.1222240850329,   0.0662734434009,   0.0688583478332,   0.1478425562382,  -0.1661463379860,  -0.0424822084606,  -0.1108954772353,  -0.1219979450107,  -0.1990944743156,  -0.0124655589461,   0.2462443262339,   0.0724753290415,   0.1758444607258,  -0.0578233301640},
   {   0.1518057733774,  -0.1782650053501,   0.0452863760293,   0.2113679498434,  -0.0331152267754,  -0.0174317304045,   0.0027931586374,  -0.1029867604375,  -0.0434262789786,   0.1446558833122,   0.0509965270758,  -0.1728180348873,  -0.0513979382813,  -0.2235646247864,  -0.1115913242102,   0.0274609904736,  -0.1377837955952,   0.1549363136292,  -0.0863480567932,  -0.0429359786212,   0.2035554647446,  -0.0530895814300,  -0.0935761108994,  -0.0081742014736,   0.0981648936868,  -0.0553221143782,   0.1378434151411,   0.0233053844422,  -0.0654527097940,  -0.0771609172225,   0.0287077743560,   0.1509592533112,  -0.0787123367190,   0.0561660416424,   0.2423181682825,   0.1541125327349,  -0.0190822910517,  -0.0828491672873,   0.1652048528194,   0.0648783445358,   0.1378256380558,   0.2042790055275,   0.0503369830549,  -0.0596879683435,  -0.2455575019121,   0.1708609014750,   0.0971071124077,   0.1750501692295,  -0.0192803516984,  -0.0896760299802},
   {   0.0383233875036,  -0.0522149428725,  -0.2552029788494,  -0.1853758692741,  -0.0909943953156,   0.0966164767742,   0.1143632605672,   0.2473882883787,  -0.1425413340330,   0.0065839942545,  -0.0772389024496,  -0.0654577612877,  -0.1619384139776,  -0.0515769869089,  -0.1142380833626,   0.1304842084646,  -0.1512453854084,  -0.1362049877644,   0.1285516470671,   0.1889771223068,   0.1296558231115,  -0.2134268432856,   0.2078955471516,   0.1376899331808,  -0.1879215538502,   0.1953511685133,  -0.0754163041711,  -0.0549956262112,  -0.1631090342999,  -0.1798057109118,  -0.2048907428980,   0.2026311010122,  -0.1872798651457,   0.2062824964523,   0.2260109484196,  -0.0705066099763,   0.0273290853947,   0.2316895425320,  -0.0264814719558,   0.0054296953604,   0.1355289965868,   0.1141800209880,   0.0186836849898,   0.0524967275560,  -0.2140700072050,   0.2139685600996,  -0.2274081707001,  -0.1974745690823,  -0.1149885654449,  -0.1976459622383},
   {  -0.0520414263010,  -0.2549390792847,  -0.1727505624294,   0.0441203340888,  -0.2152087837458,   0.2594668865204,  -0.0549148321152,  -0.1463200002909,   0.1455458551645,   0.0125211812556,  -0.0864929109812,  -0.1938696354628,   0.2064606845379,   0.1227197572589,  -0.0957666337490,   0.2149789184332,   0.2227657586336,   0.1037975624204,   0.0619050301611,  -0.0486572869122,  -0.1564104706049,   0.0498317554593,   0.1887066066265,   0.2776137292385,  -0.1559729725122,   0.0235710870475,   0.1599498838186,  -0.0434150919318,  -0.1342839002609,  -0.0788099318743,   0.2036166489124,   0.1167950183153,   0.2122294455767,  -0.0605588667095,  -0.1156583577394,   0.0548824369907,  -0.0031727561727,  -0.0101748844609,   0.2097873687744,  -0.1899993121624,   0.1620900034904,   0.1199489310384,  -0.0044377190061,   0.0851708501577,  -0.1936929970980,  -0.2156682163477,  -0.2097167223692,   0.2726247310638,   0.1719992309809,   0.1109926179051},
   {   0.2099588662386,  -0.0147203290835,   0.0229001659900,   0.1775979697704,  -0.0771429166198,   0.1527085751295,  -0.0295804198831,   0.2419839352369,   0.1121942996979,  -0.1279774159193,   0.1951886117458,   0.2574554979801,   0.1222174242139,   0.1538047790527,   0.1731290519238,   0.1550294011831,  -0.0346821434796,   0.1978396475315,   0.0805683732033,  -0.0097411666065,   0.0390499830246,   0.1756235808134,  -0.1117566972971,  -0.2324864864349,  -0.1313481777906,  -0.2424303144217,  -0.2449792921543,   0.0322993807495,  -0.0789073184133,   0.0184496883303,   0.2122001945972,  -0.0658974796534,  -0.2340050041676,   0.0089994659647,  -0.0963403657079,   0.2012647837400,   0.0736127346754,  -0.0658277273178,  -0.0594039969146,   0.1620072126389,   0.1214397773147,  -0.1894081234932,  -0.1631387919188,   0.1678600609303,   0.0319519676268,   0.1628535240889,   0.2191349416971,   0.0300169400871,   0.0635919943452,  -0.1354926079512},
   {   0.1186709776521,  -0.1741665303707,  -0.0956697836518,   0.0619793534279,   0.0710526406765,   0.1441381275654,  -0.0058681797236,   0.0241624470800,   0.0765061825514,  -0.0334051325917,   0.1604252457619,  -0.0477304011583,   0.1762727946043,  -0.1672089993954,  -0.0291776489466,  -0.0276748072356,   0.1732391715050,   0.0026207219344,  -0.0458382628858,  -0.0959511548281,  -0.2175439894199,  -0.2353373914957,  -0.1315882205963,   0.2409046590328,   0.1161251887679,   0.2472979873419,   0.1315753310919,  -0.0951828882098,   0.1782537698746,  -0.1292244791985,  -0.1828057616949,   0.0729844123125,   0.0216196570545,   0.0594744645059,   0.0888150185347,   0.1419754475355,   0.0463219732046,  -0.0173115301877,  -0.2185976505280,  -0.1852414906025,   0.0766763687134,   0.0085123321041,   0.1799084842205,   0.0227532330900,   0.0452432371676,  -0.0115527361631,  -0.0684028118849,  -0.0018681947840,   0.0837907195091,  -0.1407598406076},
   {  -0.2547020018101,  -0.1154044196010,   0.1302445381880,  -0.1381526440382,   0.2734350264072,  -0.1540246009827,   0.2162823081017,   0.2339403331280,  -0.2050961405039,   0.0487741380930,   0.2042992264032,   0.1151875704527,   0.0594706833363,   0.1759581267834,   0.1357564479113,  -0.0522737056017,   0.0094601036981,   0.0648050382733,  -0.0242784041911,   0.0076468214393,  -0.0834358185530,  -0.0019997830968,   0.0302474424243,   0.0717197731137,   0.2335470318794,  -0.2120446413755,  -0.0224304273725,  -0.2141921222210,   0.0488024242222,   0.1446881443262,   0.1137401908636,   0.0100960368291,   0.1131996214390,   0.2164257764816,   0.1074353903532,  -0.1456115990877,   0.0926786661148,   0.1927602887154,  -0.1765015125275,   0.1235108673573,   0.1297934502363,  -0.0091474084184,  -0.0812029838562,  -0.1063151359558,   0.0652118995786,   0.2335807383060,   0.1352518647909,  -0.1091514155269,   0.1585930734873,   0.2083601653576},
   {  -0.1461597532034,   0.0565806776285,   0.1164415553212,  -0.1118818223476,  -0.1547686904669,  -0.1343187093735,   0.1580058932304,   0.0306724235415,   0.0004862862697,   0.0156527888030,  -0.0740941464901,  -0.2850363254547,   0.0813380181789,  -0.1924769878387,  -0.1088242530823,  -0.1847836077213,   0.1941279023886,   0.0019596475177,  -0.1176393181086,  -0.2302764207125,  -0.2172235250473,   0.1396650969982,  -0.1086550801992,  -0.0206391550601,  -0.1918018907309,  -0.0314378291368,   0.0763532072306,  -0.2104198485613,  -0.0262004211545,   0.2388047426939,  -0.1159119829535,  -0.0112380012870,  -0.1215120479465,  -0.1095129102468,   0.2534461021423,  -0.1644844710827,   0.1739585548639,  -0.0141793349758,  -0.1036100909114,  -0.1043570414186,  -0.2595089375973,   0.1772635877132,   0.1339705139399,   0.0724852383137,   0.1432735770941,   0.1345958858728,  -0.1209560781717,   0.0146931502968,  -0.0002952314098,   0.2513746619225},
   {  -0.1144868358970,  -0.1620863825083,  -0.1659424006939,   0.1779831647873,   0.0455194041133,  -0.0298779513687,  -0.1652183681726,   0.2210370451212,   0.0253444612026,   0.2327162474394,  -0.1957601904869,  -0.2220758944750,   0.0414719767869,  -0.2278294563293,  -0.2183318585157,  -0.0822550132871,  -0.0540220551193,   0.2403820157051,  -0.0420198850334,  -0.1927049160004,  -0.1471202820539,  -0.1104947477579,  -0.0904858186841,  -0.0833673626184,  -0.1819132566452,  -0.1977189928293,   0.0284087602049,   0.1062093302608,   0.1361802518368,  -0.0094868671149,  -0.1135932281613,  -0.0329552590847,   0.0573109984398,  -0.0405841693282,   0.0681329891086,   0.0165044218302,   0.0623467899859,   0.0748903974891,  -0.2555705308914,   0.0659244135022,  -0.1162150651217,   0.2200333029032,  -0.0783344507217,  -0.1747960895300,   0.1015907898545,  -0.1491469293833,   0.0247590150684,  -0.1700818091631,  -0.1239492967725,   0.1565178930759},
   {  -0.2642769515514,   0.0593258850276,  -0.1177138388157,   0.0113558173180,   0.2191147804260,  -0.0796886309981,   0.1964548230171,  -0.1234811022878,  -0.1192283779383,  -0.0441364906728,  -0.1528193205595,   0.0895369723439,   0.0033317834605,   0.0054541309364,   0.2122805863619,  -0.2393097132444,  -0.0544144622982,   0.1778671741486,   0.1719307899475,   0.1778214871883,  -0.0307613741606,  -0.1599235832691,   0.0176775492728,   0.0140929082409,  -0.1834502518177,  -0.0931643843651,   0.0250145792961,   0.0802758112550,  -0.0672114342451,  -0.2076561748981,  -0.2069656103849,  -0.0327849574387,   0.1023096665740,  -0.0371351875365,   0.1871635913849,   0.0418713167310,   0.2215315550566,  -0.0288084857166,  -0.1972196549177,  -0.0875142812729,   0.1341281980276,  -0.1869661957026,  -0.0536557845771,   0.0100708892569,   0.0823648199439,  -0.1022161245346,  -0.2291930168867,   0.0163655877113,  -0.0914296284318,   0.2492461651564},
   {  -0.1245620846748,  -0.0917702764273,  -0.1265782862902,   0.0542337074876,   0.0683540031314,   0.2068500369787,   0.1635048687458,   0.1043102517724,   0.0913861766458,  -0.1785830855370,  -0.0539562404156,   0.1075615212321,   0.1560543477535,  -0.0492849685252,  -0.1204614266753,  -0.2614051997662,  -0.1936540901661,   0.0108633572236,   0.2246192693710,  -0.0296512190253,   0.0835616365075,  -0.1336390525103,   0.1081148162484,  -0.1416250169277,   0.1636265963316,  -0.1468310505152,  -0.0416569858789,   0.0335241444409,  -0.0341404713690,   0.1683487743139,  -0.0935782194138,  -0.1268427670002,  -0.2046162635088,  -0.2200927883387,  -0.0142934778705,   0.2237572222948,  -0.1015388369560,   0.1525745540857,  -0.1752665340900,   0.1425976902246,   0.2167358249426,  -0.2067631334066,  -0.1202549636364,   0.2437846213579,   0.1813937872648,   0.0884897857904,   0.1353696286678,  -0.0828166753054,  -0.1551792621613,   0.1544439792633},
   {  -0.1224396675825,  -0.0510330684483,   0.2198814451694,   0.0622486472130,  -0.1287598758936,   0.2189267873764,  -0.1949032396078,  -0.0975693613291,   0.0573443733156,   0.1579474508762,  -0.0953845530748,   0.1114618852735,  -0.1997869759798,  -0.1631193310022,   0.2229691892862,  -0.1827126741409,  -0.0397956483066,  -0.1479686498642,  -0.1617343425751,  -0.0444840081036,   0.1112042367458,  -0.0137968687341,  -0.0056301546283,  -0.0399601757526,   0.1394496560097,   0.1656244844198,   0.1931762993336,   0.2319061905146,  -0.0699680149555,   0.1525480598211,   0.2217341065407,  -0.0026822455693,  -0.2632451355457,  -0.1519615054131,   0.0729599148035,   0.0840894281864,   0.1692889034748,   0.0324750691652,   0.0232370626181,  -0.0426410920918,  -0.1720304042101,  -0.0872613862157,   0.0435432344675,  -0.0608076080680,  -0.0360103771091,  -0.2004614323378,   0.1444959193468,  -0.1344160735607,  -0.0843217745423,  -0.1101139411330},
   {  -0.1651532053947,   0.0665619000793,  -0.0873762071133,   0.1995704174042,  -0.1415507197380,  -0.1195575445890,   0.2260171324015,   0.0957316011190,  -0.2026984542608,  -0.0848909467459,  -0.1578876078129,   0.1665277034044,   0.0301825907081,   0.0722334384918,  -0.2652364075184,   0.0080099869519,  -0.0964275151491,  -0.1554377228022,  -0.0873320102692,   0.1409507840872,  -0.0647185966372,  -0.1930214911699,   0.0546130985022,  -0.0934820026159,   0.0497760251164,   0.0522752031684,  -0.0283483825624,   0.0551501996815,  -0.0819875448942,   0.1440118551254,   0.1146011650562,  -0.0278158225119,  -0.0401835702360,   0.0899065211415,  -0.1660841405392,  -0.1811896562576,   0.1912073940039,  -0.0113326720893,  -0.1918127834797,  -0.1836562454700,   0.2029789537191,  -0.1320694386959,  -0.0670839175582,   0.2487224638462,  -0.1616608053446,   0.1212218478322,  -0.0599098391831,  -0.1241813451052,   0.1197191551328,  -0.1419884264469},
   {   0.1653564870358,   0.1372010409832,   0.0106750410050,   0.0033217298333,   0.0752976164222,   0.0127632645890,  -0.1783412992954,  -0.1557898819447,   0.1257210820913,   0.1770063787699,  -0.0813482776284,  -0.2172132879496,  -0.0490972660482,   0.1196078136563,   0.0141321299598,  -0.1878565549850,  -0.1752584725618,   0.1071579083800,   0.0311282947659,   0.2053822875023,  -0.2243793159723,   0.0330171771348,   0.0708298534155,   0.1776356846094,  -0.0996523723006,  -0.1718960255384,  -0.1405317187309,  -0.0858053714037,  -0.0868877023458,   0.1330500245094,  -0.0881393998861,   0.2046836912632,  -0.1777388602495,  -0.0904908180237,   0.1274093836546,  -0.1687749624252,  -0.1327232420444,  -0.1454154700041,  -0.1785829663277,  -0.0615563318133,  -0.0319577120245,  -0.1796547621489,   0.1623822152615,   0.1995456069708,   0.1921098083258,   0.1878544688225,   0.1240825578570,  -0.1751550137997,  -0.2035914808512,  -0.1976650208235},
