
    // Select all (Ctrl+A), Copy (Ctrl+C), paste to an empty text file (Ctrl+V) and save that file as 'generated_code.h'
    // 
    // Auto-generated header file. Assumes img to be a floating point array
    // of 64 elements (corresponding to an 8x8 b&w image)

    #include <math.h>

    float norma_SigSNN;
    
inline float activation_SigSNN_0 (float x, float n) 
{ return x > 0 ? x : 0;}
inline float activation_SigSNN_1 (float x, float n) 
{ return x > 0 ? x : 0;}
inline float activation_SigSNN_2 (float x, float n) 
{ return x > 0 ? x : 0;}
inline float activation_SigSNN_3 (float x, float n) 
{ return x > 0 ? x : 0;}
inline float activation_SigSNN_4 (float x, float n) 
{ return x > 0 ? x : 0;}
inline float activation_SigSNN_5 (float x, float n) 
{ return x > 0 ? x : 0;}
inline float activation_SigSNN_6 (float x, float n) 
{ return exp(x)/n;  }

    float guess_SigSNN (const float *img, int flag)
    {
    
  // Declare the arrays in the stack
  const float kernel_0[23][50] = 
  {{   0.1216665208340,  -0.1472138613462,   0.0028923547361,   0.0472442917526,  -0.0752054601908,   0.2150525450706,  -0.0122612118721,   0.0103554474190,  -0.3548512458801,   0.1640270948410,  -0.1265910863876,   0.2217781096697,   0.0125939911231,   0.0146202621982,  -0.0481756292284,   0.1571004688740,   0.0751905813813,  -0.1569861620665,  -0.1170136108994,   0.1595099121332,  -0.0331235900521,  -0.1163323298097,   0.1824630647898,   0.1002082228661,  -0.2168146818876,   0.1078984886408,   0.1474836617708,  -0.0170158874243,   0.1429582387209,  -0.2984706163406,   0.0246871747077,   0.0561400949955,   0.1950694471598,  -0.1363108009100,   0.2024082243443,   0.1876443475485,  -0.1006535962224,  -0.1261535137892,   0.0238030515611,  -0.0034715053625,  -0.1621698290110,  -0.0084210038185,   0.0765962377191,  -0.2101703882217,   0.0661883503199,   0.2493239790201,   0.1525861024857,   0.0969592109323,  -0.1457976102829,   0.1593783199787},
   {  -0.3871667087078,   0.2748001813889,   0.0923631563783,   0.1092196106911,  -0.0673968568444,   0.2331057935953,   0.1348929107189,  -0.1906267851591,  -0.0477748960257,   0.1626164168119,  -0.1788692325354,  -0.1261630356312,   0.1028943583369,  -0.0726099982858,   0.1170321553946,   0.1424114108086,  -0.2771278023720,  -0.0100591741502,  -0.0482399128377,   0.2190507948399,   0.1281002610922,  -0.0062956353649,   0.1325597167015,   0.0937200263143,  -0.2148132026196,   0.2069350033998,   0.0708903819323,  -0.0821314677596,   0.0098996665329,  -0.1729462295771,  -0.2300514727831,  -0.0453420318663,  -0.2609631419182,   0.0376290343702,  -0.0535612292588,  -0.0647265613079,   0.2636179029942,  -0.2327420115471,  -0.0436720028520,  -0.3242738842964,   0.2182109653950,   0.2240713685751,   0.0416483692825,  -0.1998028159142,   0.2582420706749,   0.0337560325861,  -0.1767016798258,  -0.1358916908503,   0.1234953776002,  -0.0901791900396},
   {  -0.3172624409199,   0.1528194397688,   0.1829705238342,  -0.1948160380125,   0.2240881770849,  -0.1127253472805,  -0.1818345338106,   0.0418062359095,  -0.0021564862691,  -0.0045586423948,   0.0352796353400,  -0.1541910469532,  -0.1132334023714,  -0.0025532480795,   0.0667073503137,   0.0278113652021,  -0.0824516564608,  -0.0455096699297,  -0.1487605720758,   0.2649054527283,   0.1236896365881,  -0.1436747312546,   0.1955746859312,   0.1119967699051,   0.2013331800699,   0.0489802658558,  -0.0245621725917,  -0.0113498540595,  -0.1997991055250,  -0.2419518679380,  -0.1601183414459,   0.2602162957191,   0.1242857798934,  -0.0111991334707,  -0.2847078144550,   0.2339125722647,   0.1561765968800,  -0.1394195556641,  -0.1370968222618,  -0.2991949319839,   0.1934940516949,  -0.1194478049874,  -0.0518525056541,   0.0918227285147,   0.0969073548913,   0.0870133861899,   0.2054371833801,   0.0149320866913,  -0.2670336365700,   0.0984306856990},
   {  -0.0066343480721,   0.0975371524692,  -0.1676028668880,   0.0125009743497,   0.4485726058483,   0.1464056223631,   0.0702356621623,   0.3496480286121,   0.2916258275509,  -0.0394943505526,  -0.3087082207203,  -0.4258072674274,  -0.0482667759061,   0.1070793718100,   0.0518282614648,  -0.0191109851003,   0.0649659335613,   0.1517756879330,   0.1272162050009,  -0.0672440230846,   0.2508572638035,  -0.0208123940974,   0.0827659815550,  -0.0498758852482,  -0.1435219645500,   0.2129413336515,   0.1670928746462,  -0.2533987164497,   0.2783634662628,   0.3185224235058,   0.1294174492359,  -0.0385674163699,  -0.0919077396393,   0.1892521679401,   0.0439359769225,  -0.2570397853851,  -0.4095292687416,   0.0439657494426,  -0.2188224196434,   0.1660037636757,   0.0827408209443,  -0.1442665010691,   0.2315295487642,  -0.2117500305176,   0.2653737664223,   0.2527821958065,  -0.0241802819073,  -0.1318851709366,   0.2675794959068,   0.0060869548470},
   {  -0.0671664103866,   0.3371996879578,  -0.0036655415315,   0.0519771203399,   0.0836513116956,   0.2180193215609,   0.2635478675365,   0.1481485664845,  -0.3555804789066,  -0.1606750786304,   0.0037247694563,   0.1904887855053,   0.2329051792622,   0.0150707913563,  -0.1961672604084,  -0.2463856190443,  -0.0227056220174,   0.2560064494610,  -0.0224711205810,   0.0237392559648,  -0.2031033933163,   0.3082071542740,   0.2856174409389,   0.0860179290175,  -0.1843660920858,  -0.1176254972816,   0.0080292979255,  -0.1524166017771,   0.0826657339931,   0.2300164103508,  -0.0692791640759,   0.1180844157934,  -0.2874794602394,   0.0622808970511,   0.0358543805778,   0.0214017461985,  -0.1554984599352,   0.0860828161240,   0.0692971348763,  -0.1335796713829,  -0.1330866515636,  -0.1881495863199,   0.2552519142628,  -0.3382581174374,   0.0183468367904,  -0.0923803225160,  -0.0436841212213,   0.1841210573912,   0.1070046946406,   0.0042424746789},
   {  -0.1631581038237,  -0.0973245427012,  -0.2611978054047,  -0.1404754072428,  -0.2278013974428,  -0.1490315794945,  -0.1038953959942,   0.1658204197884,  -0.1860157549381,   0.0057917190716,   0.1866134554148,   0.0428939983249,  -0.0896813943982,  -0.0505369529128,  -0.1240858882666,  -0.0251509863883,   0.0064863078296,   0.2463594228029,   0.0926951691508,   0.0307215843350,   0.1244577988982,   0.0649456009269,  -0.0870855450630,  -0.0811631307006,  -0.1561582088470,  -0.1038674935699,  -0.0922016650438,  -0.1102798357606,   0.1258702576160,  -0.1300573199987,  -0.1950926333666,   0.0371832288802,   0.1209463551641,  -0.2681749463081,   0.2007389217615,  -0.0540024712682,   0.0118200285360,  -0.1463410258293,   0.0967232510448,  -0.1494288742542,  -0.2448259592056,   0.1182309463620,   0.0466296635568,  -0.1080952957273,  -0.0970647484064,  -0.3113619387150,   0.0688859075308,   0.0118783898652,   0.1244935989380,  -0.3562930226326},
   {   0.2070619165897,  -0.0904773771763,   0.0191963873804,  -0.2777079045773,  -0.0653505325317,  -0.0521514005959,  -0.1230058893561,   0.1104547306895,   0.0743609517813,  -0.1149467751384,   0.1729735285044,  -0.1897637397051,  -0.1999428719282,   0.1830859035254,   0.1226942837238,  -0.3796822428703,  -0.1164598017931,  -0.0807706564665,   0.2928776741028,  -0.0583033934236,  -0.0091092363000,   0.1091406419873,   0.2573582828045,  -0.0046514794230,  -0.1808684468269,   0.0792986974120,   0.2291419953108,  -0.2271719425917,   0.0905180424452,   0.1044162213802,  -0.2594020664692,  -0.0350167080760,   0.1710439920425,   0.1593934148550,   0.1111220344901,   0.2580961585045,  -0.1027325391769,  -0.1148020550609,   0.1514294743538,   0.0253998357803,  -0.0774925574660,   0.1200307756662,  -0.1452648341656,  -0.1967825293541,   0.0451268739998,  -0.1316602677107,   0.1416568905115,  -0.0634884536266,   0.0189952589571,  -0.2419500350952},
   {  -0.0177770517766,  -0.2791887819767,  -0.3573103249073,   0.1325915008783,   0.2104508578777,   0.1786878854036,   0.1547697484493,   0.0474685765803,   0.1855068057775,  -0.1951166987419,   0.0679541304708,   0.1391804367304,   0.0188797190785,   0.1273266822100,   0.1547496765852,   0.1834825575352,  -0.3243440687656,   0.0962100178003,   0.0696198269725,  -0.1044455543160,   0.2504354715347,   0.0993046984076,   0.2326403707266,   0.2209188491106,   0.0907917767763,   0.0116665204987,  -0.0801020413637,  -0.1481946855783,   0.2729006707668,   0.1358505934477,  -0.2696205973625,  -0.1289962083101,  -0.1186902374029,   0.2068175524473,  -0.3151094615459,  -0.1631129384041,  -0.0415729470551,   0.1698665320873,  -0.0622426345944,  -0.0308767147362,   0.1054610833526,  -0.0869039148092,  -0.0595987662673,  -0.2054271250963,  -0.0576055720448,   0.2198335528374,   0.0842119231820,  -0.2390653789043,  -0.1990831345320,  -0.1794955730438},
   {   0.2742729485035,  -0.2186142802238,   0.1988325864077,   0.1492460966110,  -0.1357566416264,  -0.2028073072433,   0.2228966951370,  -0.0862437635660,   0.2498028874397,  -0.1958055943251,  -0.0726969912648,  -0.1653549820185,   0.2770203351974,   0.1544004231691,   0.1832052916288,  -0.0139520885423,  -0.1824122369289,  -0.0712661668658,  -0.2566554248333,  -0.2956682741642,   0.0970632284880,   0.2176614850760,  -0.0033873885404,   0.1526800394058,   0.2532413899899,   0.0644280239940,  -0.3250052630901,  -0.3120907843113,   0.1219546794891,  -0.1617081910372,  -0.1182409971952,   0.1534919589758,   0.2182520031929,   0.0584538429976,  -0.1498630940914,   0.3169406652451,  -0.1159953400493,  -0.0810574144125,  -0.1874064207077,  -0.1743808686733,   0.2880928814411,  -0.3341685533524,   0.0360302478075,  -0.0871739983559,   0.0657241120934,  -0.2364517599344,   0.1093053966761,   0.1331954449415,   0.1542013436556,   0.1747866123915},
   {   0.0301256235689,  -0.3084985017776,   0.1012409701943,   0.0503329969943,   0.2393865883350,  -0.1089694947004,   0.0591010488570,  -0.0651321336627,   0.2326441556215,  -0.0258623734117,  -0.1182856336236,   0.0369114279747,   0.0924328565598,   0.1966588199139,   0.1481763422489,  -0.1579947024584,   0.0204490218312,   0.2160471081734,   0.0571152567863,  -0.0538601577282,   0.1565453261137,  -0.1610578745604,   0.0931006595492,  -0.1069383248687,  -0.1210959777236,  -0.2091136872768,  -0.0293913111091,   0.2012270987034,  -0.1019605249166,  -0.1867152899504,  -0.0171383190900,   0.1994338184595,   0.0816904455423,   0.1760317534208,  -0.3057585656643,   0.3041309416294,  -0.0046739494428,  -0.0060195592232,  -0.0619804896414,   0.3026403486729,   0.1797930598259,   0.1767498850822,  -0.2011267840862,  -0.0949400067329,   0.2412966489792,  -0.2964754998684,  -0.3150840699673,  -0.0879179835320,  -0.2335850149393,  -0.3156120777130},
   {  -0.1918054968119,  -0.1393890082836,  -0.1893075704575,   0.0705148950219,  -0.1542907059193,   0.0256606359035,   0.1459692716599,   0.1509980112314,   0.2347140163183,  -0.1090012267232,   0.0092877456918,   0.2212302684784,   0.2421173751354,  -0.0158002842218,   0.2277999073267,  -0.1896934062243,   0.2035412639380,  -0.2570850253105,   0.2202839702368,  -0.3482717275620,   0.2503513097763,  -0.1708786040545,  -0.0797707885504,  -0.2897653281689,   0.2711743712425,   0.1974905878305,   0.1940252333879,  -0.0678480193019,  -0.2043103575706,  -0.2548668086529,   0.2115081250668,  -0.0448483936489,   0.0635061115026,   0.0089933201671,  -0.2940086424351,   0.2596414089203,  -0.1936611235142,  -0.1152170225978,  -0.0095060300082,  -0.0177782122046,   0.0946096256375,  -0.3208369910717,   0.1329526603222,   0.2371066063643,  -0.0071617010981,   0.0746967196465,   0.1022033169866,   0.2260386198759,   0.0750436112285,  -0.0719814822078},
   {  -0.1827091872692,   0.3807327747345,   0.3028523027897,   0.6455254554749,  -0.1758670061827,  -0.1255955100060,  -0.3484449684620,   0.5182955265045,   0.0660397559404,  -0.2227635383606,  -0.4130750596523,   0.0844252780080,  -0.2474553436041,  -0.4988368451595,  -0.0958902761340,  -0.3187963962555,   0.0544180385768,   0.3807567059994,   0.4724123179913,   0.2937925755978,  -0.0826014801860,   0.4496411979198,  -0.0571815781295,  -0.4807425141335,   0.1213004738092,   0.5164108872414,   0.3649066090584,  -0.1768628954887,  -0.1911119967699,  -0.1401359438896,  -0.0183345749974,   0.2957567572594,  -0.0221103820950,  -0.1086489781737,  -0.1529956310987,   0.1249892711639,  -0.1787200868130,  -0.1880328953266,   0.4603380858898,  -0.0135334208608,  -0.1813870817423,  -0.2035016119480,   0.3103345036507,  -0.1706818789244,   0.2888113856316,  -0.3940518200397,   0.2257812768221,   0.3279137313366,  -0.2155411392450,  -0.0356046892703},
   {   0.1459698081017,   0.0591645166278,  -0.3103494644165,   0.0388057343662,  -0.1742217540741,   0.0652633532882,  -0.3068784177303,  -0.1837073862553,   0.1981889605522,  -0.3352636396885,   0.1757419854403,  -0.0576644018292,   0.2159564495087,   0.1072416976094,  -0.3461772799492,  -0.2132806628942,   0.3341002464294,   0.2048925012350,  -0.0984417125583,   0.0846709087491,   0.2103658318520,  -0.0746136084199,  -0.0346637405455,   0.0624886043370,  -0.0572192594409,   0.0119655421004,   0.1384601891041,  -0.2104800492525,  -0.0804371461272,   0.0156740713865,  -0.2302308678627,  -0.1219742074609,  -0.2113489359617,   0.3183438479900,   0.2896629273891,   0.3098895847797,   0.0635522007942,   0.2461055815220,  -0.3046681582928,   0.0858654528856,   0.0972562432289,   0.0139682237059,   0.0140056144446,  -0.3091716170311,   0.0583468042314,   0.0415884591639,   0.1815696060658,  -0.1080954223871,  -0.3081010282040,   0.1823886781931},
   {  -0.0298470072448,  -0.0485753305256,   0.1989602744579,  -0.0075810817070,   0.1739117205143,   0.1104696318507,   0.0743580088019,  -0.0460585653782,  -0.0744866356254,  -0.1340660899878,   0.0812845230103,  -0.0018342972035,   0.1906056553125,  -0.1449827849865,   0.2124299108982,   0.0663432106376,  -0.1664036065340,   0.0181763302535,   0.1336334496737,   0.1524088382721,   0.1762766987085,   0.0031039679889,   0.1153818815947,   0.2209919244051,  -0.1382689774036,   0.1289512515068,  -0.0384579859674,   0.1120327934623,  -0.0713626667857,  -0.0970332846045,  -0.1923570781946,   0.0421874783933,   0.0998477041721,   0.1957173347473,  -0.2380023747683,   0.1039396971464,  -0.0288536269218,   0.3713684380054,  -0.0978831425309,  -0.0042470460758,  -0.1028541848063,  -0.0798703208566,  -0.1025947108865,  -0.3615182936192,  -0.1618700772524,   0.0295970384032,  -0.3130864202976,   0.1369669437408,  -0.3320202827454,  -0.1934270262718},
   {  -0.1214071512222,  -0.0962667018175,  -0.0060826400295,   0.0843833982944,  -0.0142160523683,  -0.0806940272450,  -0.2433138340712,  -0.0361355431378,  -0.0886486098170,  -0.2268054187298,   0.1577723920345,  -0.2379258126020,  -0.0957315787673,  -0.1034503057599,  -0.0372471623123,   0.3027332425117,  -0.0700168088078,  -0.1728399395943,  -0.3131072223186,   0.0291975867003,   0.0469719506800,   0.2304203510284,   0.0472347475588,   0.0205174963921,  -0.1488810926676,  -0.2377086877823,   0.1547322571278,  -0.0700175836682,  -0.2012429535389,   0.0930235981941,  -0.1399844735861,  -0.0821088925004,  -0.1315232515335,   0.1716123670340,  -0.2179801166058,  -0.2302255034447,  -0.1233954429626,  -0.2009964734316,  -0.2070886790752,   0.2701669037342,  -0.1436478644609,   0.1706025600433,   0.0928734764457,   0.0157711822540,  -0.0451549924910,  -0.2280803173780,   0.1505147218704,   0.0188840646297,   0.1082307472825,   0.3375333249569},
   {   0.0778099745512,   0.0188778936863,   0.0202398840338,   0.0620714277029,   0.0877387374640,   0.4514468014240,   0.3411617577076,   0.0642077773809,  -0.1557542979717,  -0.0210350044072,   0.3012520372868,   0.2349776178598,   0.0084328325465,   0.5905621051788,   0.0688128992915,   0.0657172352076,   0.0432927943766,  -0.1201549544930,  -0.4672728478909,   0.2645706534386,   0.0876108780503,  -0.4084644615650,  -0.4956323802471,   0.5239706635475,   0.1037966683507,   0.2651331126690,  -0.3580905199051,  -0.0016968207201,   0.2599404752254,   0.2544226646423,  -0.1912054270506,  -0.2306480705738,  -0.2760841846466,   0.2059340626001,   0.0874285772443,   0.0464802160859,   0.1549859791994,   0.1282349526882,  -0.3133619725704,  -0.1292147785425,   0.1064958870411,   0.0301275923848,  -0.5551509857178,  -0.3029125630856,  -0.1843524873257,   0.1896819472313,   0.2270322293043,  -0.2546122968197,   0.1694545000792,  -0.1242320984602},
   {   0.1457024067640,   0.2069348394871,  -0.1484981477261,   0.0991247743368,   0.0689613819122,   0.1235139742494,   0.1784512847662,  -0.0853171274066,   0.3112799227238,  -0.1322494000196,  -0.1866137236357,   0.2180848270655,  -0.0410014875233,  -0.0947670862079,   0.2578858137131,   0.0073493877426,  -0.1448596268892,  -0.0003136424348,  -0.1496576219797,  -0.1993671655655,   0.1368581950665,   0.0046715266071,  -0.0580677092075,  -0.0607586577535,   0.0682397931814,  -0.2177052646875,  -0.0407794974744,  -0.0192545279860,  -0.1151894554496,   0.3289487361908,  -0.2163320332766,  -0.3199944496155,  -0.2273004949093,  -0.0435956902802,  -0.1227462068200,  -0.0641831755638,  -0.1465584039688,  -0.1730973422527,   0.1025366708636,   0.2961612641811,   0.1681788265705,   0.0346830748022,  -0.1582318693399,  -0.1027237251401,   0.1857237815857,  -0.2178013920784,   0.0328252948821,   0.2812352478504,  -0.2346505671740,   0.1926494091749},
   {  -0.0137628372759,  -0.2099768519402,  -0.2386907339096,   0.0035424323287,   0.0632139667869,   0.1954904943705,   0.0388849973679,   0.2041939496994,  -0.1503948569298,   0.0506672449410,   0.2057026624680,  -0.0654610469937,   0.2612452805042,  -0.0858032554388,   0.0614531971514,  -0.0304306857288,  -0.1180899366736,  -0.2866823077202,   0.1376274824142,   0.2264578789473,  -0.1425087898970,  -0.0052759218961,  -0.0025302458089,   0.1066258698702,   0.0029418407939,   0.0510788150132,   0.1358098387718,   0.1863979995251,  -0.2453412711620,  -0.0622327923775,   0.2009711116552,   0.0835327580571,  -0.0064850347117,   0.2246579974890,   0.2253304421902,  -0.2644833028316,  -0.1154071837664,  -0.0884698852897,   0.0891406610608,   0.1883971095085,   0.0918006002903,   0.0121666770428,  -0.0628947094083,  -0.2290113270283,  -0.0866207703948,  -0.1846433281898,   0.2696428298950,  -0.0616074539721,  -0.1715232580900,   0.0090016312897},
   {  -0.0601098500192,  -0.0340037383139,  -0.0923370346427,  -0.0684472024441,  -0.1929851025343,  -0.1885416507721,  -0.1407120078802,  -0.0569561049342,   0.0906189233065,  -0.1592906862497,  -0.0667169988155,   0.1997884064913,   0.0334902741015,  -0.0579031780362,   0.1054020598531,  -0.0725391134620,  -0.2146022915840,  -0.0336505845189,   0.0350358672440,  -0.0343171581626,  -0.0794959887862,  -0.0498979017138,  -0.0699256137013,  -0.1116403266788,  -0.3670239448547,  -0.0856978893280,  -0.1153994426131,   0.0575696155429,  -0.1043895855546,   0.2490589618683,   0.1587950438261,  -0.0001965716947,  -0.0862513333559,  -0.0008999963175,  -0.0706631764770,  -0.0849654451013,   0.1242054477334,   0.0826556310058,   0.2090817391872,  -0.1007162332535,   0.0534588508308,   0.0017434086185,   0.0852161869407,   0.1854767501354,   0.0273760277778,  -0.0763369947672,   0.2276108413935,  -0.0541522577405,   0.0720314830542,   0.0421309992671},
   {  -0.0308776348829,  -0.3000946342945,   0.1319353878498,  -0.0383446030319,   0.2333172112703,   0.2298312485218,  -0.0872326120734,   0.1131145209074,  -0.0252530649304,  -0.2365540713072,  -0.0494409091771,   0.1057882457972,  -0.1020799204707,   0.1522491872311,   0.0619994997978,   0.0759011730552,   0.2652058303356,   0.1912642270327,   0.1729444414377,  -0.0900605246425,  -0.0392193607986,   0.0684124380350,  -0.1553174704313,  -0.1112520769238,   0.0188558865339,  -0.1198890879750,  -0.0893418118358,  -0.0676315426826,   0.2164654433727,  -0.3357679247856,  -0.1209776476026,   0.2117912024260,   0.0345486216247,   0.3571218848228,  -0.0486108288169,  -0.1583972275257,  -0.0062425774522,  -0.0051125274040,  -0.4028206765652,  -0.0012733077165,  -0.2545026838779,  -0.0812310948968,  -0.1855235397816,  -0.2482513636351,  -0.1833558231592,   0.0079624950886,  -0.1956064105034,  -0.0771222561598,   0.0503380149603,   0.1282891333103},
   {  -0.0725231915712,  -0.2210906147957,  -0.1579760760069,   0.0923074111342,  -0.1657889932394,   0.1606327444315,   0.0416375510395,   0.1246872246265,  -0.2808988690376,  -0.0428422428668,  -0.0157888624817,   0.1454071849585,   0.0794809833169,  -0.1319972276688,   0.0557363629341,  -0.0565742813051,   0.0293704550713,   0.0808722153306,  -0.0739028304815,   0.1668060868979,   0.0850225165486,  -0.0066014477052,   0.0410611815751,   0.1913927495480,   0.0268690343946,  -0.1188507080078,   0.1608188748360,   0.1719791889191,  -0.0846171230078,  -0.1379578113556,   0.2003457695246,  -0.1926195770502,   0.2215690165758,   0.1354393810034,   0.1851543337107,  -0.0301674474031,  -0.1789089441299,   0.2253182977438,  -0.1553605645895,   0.0613087415695,   0.0421001985669,  -0.2250953465700,  -0.0629458054900,   0.1903544068336,  -0.0211777035147,  -0.0481469072402,   0.0653150230646,   0.1488196104765,  -0.0257706344128,  -0.0003130083205},
   {  -0.2106609493494,  -0.2982511222363,  -0.0440411344171,  -0.0336735062301,  -0.0410259477794,   0.0143704945222,  -0.2045074552298,   0.0270176008344,   0.0021991133690,  -0.0195736344904,  -0.0959675163031,  -0.0043125608936,  -0.1531758159399,   0.0673827081919,   0.1004069149494,   0.0432446375489,  -0.0547313243151,  -0.0421567484736,  -0.0961737632751,   0.1585457473993,   0.0959599316120,   0.0057489750907,  -0.0917889773846,   0.0216484703124,   0.1579814553261,   0.1160978898406,  -0.0199194010347,  -0.1675562113523,   0.3120291233063,  -0.0752246007323,   0.0470926836133,  -0.0277093090117,   0.1926376968622,   0.0772812664509,  -0.1229723840952,  -0.2058274894953,   0.0106704486534,   0.1683675199747,   0.0167813133448,   0.3275967836380,   0.2314821034670,  -0.1192657053471,  -0.0322041511536,  -0.1821101754904,   0.1151644214988,  -0.1518975794315,  -0.1484226435423,   0.0046923724003,  -0.1199100762606,   0.1900511831045},
   {  -0.0438770391047,  -0.1839428842068,   0.0380419008434,   0.0587457008660,  -0.0509315431118,  -0.0020375729073,  -0.0548792630434,  -0.0195032637566,  -0.1969073712826,   0.2670784294605,  -0.0054612392560,   0.0033575645648,   0.1512225121260,  -0.0837173834443,  -0.0702637732029,  -0.0474707446992,  -0.1550707817078,  -0.0253552570939,   0.0170770548284,  -0.1590232998133,   0.1328622400761,  -0.1093633621931,  -0.0596074089408,  -0.1371959596872,   0.1517981588840,  -0.1517561972141,  -0.0204281117767,  -0.2879817485809,   0.1443688571453,  -0.2273496240377,  -0.0745058059692,   0.0453126691282,  -0.0441345311701,  -0.2704221308231,  -0.0404837802052,   0.1173416227102,  -0.0257824361324,   0.1902451962233,  -0.0715737119317,   0.1492510288954,  -0.1664288192987,   0.0054232035764,   0.0732355043292,   0.0538206845522,  -0.0876418948174,  -0.0388258360326,   0.1303145140409,   0.1045721322298,   0.0167661234736,  -0.0276766680181}};
  const float bias_0[50] = {   0.0515639856458,   0.0311984326690,   0.1568134576082,   0.0129515361041,   0.1167928278446,   0.1276671439409,   0.1356661170721,   0.1127312928438,  -0.0010322693270,   0.1081485748291,   0.1179258748889,   0.0745265111327,   0.0476553924382,   0.0098174670711,   0.0621422566473,   0.1096458211541,   0.0457471199334,   0.0083084600046,   0.1051784083247,  -0.0150125473738,  -0.0136623270810,   0.0532306842506,   0.0275875385851,   0.1531392931938,   0.0726248323917,  -0.0052202595398,   0.1778437197208,  -0.0260395705700,   0.0047720298171,   0.0618483833969,   0.0984904393554,   0.0581681095064,  -0.0193765852600,   0.0155872404575,   0.0873555988073,  -0.0186228528619,   0.0222477223724,   0.1377641856670,   0.0532295964658,   0.1465043872595,  -0.0144421970472,   0.0649713873863,   0.0849275514483,   0.2180980145931,   0.0275864489377,   0.1080436930060,   0.1094856783748,   0.0251463633031,   0.1373489648104,   0.2156853079796};
  // Declare the arrays in the stack
  const float kernel_1[50][50] = 
  {{  -0.1240945383906,  -0.0128471823409,  -0.1331936568022,  -0.2666678428650,  -0.2014141529799,  -0.0321679860353,   0.2251207083464,  -0.1133936867118,  -0.1299830377102,  -0.1309786587954,  -0.0670979395509,   0.1978991180658,  -0.0818074047565,   0.2374327033758,  -0.0408481881022,   0.2124922871590,   0.2997248470783,   0.1993983536959,   0.0724538713694,  -0.2520926892757,   0.0968082770705,  -0.1559088826180,  -0.0025375846308,   0.0373568870127,   0.1199136376381,   0.0819305405021,   0.0841314420104,   0.0521427616477,   0.1212426498532,   0.2265795171261,   0.0279444232583,  -0.2787915468216,   0.0522846058011,  -0.2126516699791,  -0.0156282931566,  -0.0616019107401,   0.0504813678563,  -0.1642875820398,  -0.1358732730150,   0.0652211904526,   0.0664277821779,   0.1594068109989,   0.0302553605288,   0.1168423518538,  -0.3707350492477,   0.0668363720179,  -0.1020975410938,  -0.1000359058380,  -0.1544038355350,   0.1018916890025},
   {  -0.0350463651121,   0.2730089128017,   0.0739017575979,   0.1359822154045,  -0.2400085926056,   0.0045597464778,  -0.0147975673899,  -0.1034660860896,   0.0522055700421,   0.0310792513192,   0.1747236698866,   0.2232136726379,  -0.7742362618446,  -0.0138172386214,   0.1959179788828,   0.2877075076103,   0.2035752087831,   0.1913897693157,   0.0585582703352,   0.1175580397248,   0.0875528454781,   0.1013071909547,  -0.1908697336912,  -0.2253478914499,  -0.1089306473732,   0.1302186846733,   0.0187139827758,   0.0154786827043,  -0.1824094206095,   0.2498249858618,   0.0961088985205,  -0.2187629938126,   0.1562472581863,   0.0205379761755,  -0.1266064643860,  -0.0218923278153,  -0.0383641943336,   0.0293846428394,  -0.0534889511764,   0.0000490175153,  -0.1636628061533,   0.1313353329897,  -0.0800457745790,   0.1018152013421,   0.0523214377463,   0.1313409805298,   0.0048894323409,   0.2065789848566,  -0.0028552853037,   0.2207617908716},
   {   0.2338218092918,  -0.0842290297151,   0.0794263109565,   0.1481787115335,   0.2038553357124,  -0.1120000854135,   0.0678729116917,  -0.1786107569933,   0.0813968703151,  -0.0827351436019,   0.1304674893618,   0.0600038617849,  -0.0298052597791,  -0.0256889183074,   0.1555880308151,  -0.0587898343801,   0.1573454737663,   0.0238142628223,   0.1152933612466,   0.0070369751193,   0.0675250962377,  -0.1783328652382,  -0.0997992977500,   0.0886011198163,  -0.0828982293606,  -0.0452898554504,  -0.1243371665478,  -0.0038203762379,   0.1704725027084,   0.0342038199306,   0.0845631435513,   0.0076204934157,  -0.0870558917522,  -0.0692931562662,  -0.0022668812890,   0.1381408423185,  -0.0377806723118,  -0.3116829693317,  -0.1129762083292,  -0.1037014722824,   0.0409421473742,   0.1693381667137,   0.1066514253616,   0.0697258412838,   0.0085149658844,   0.0624686442316,   0.0679087862372,   0.0844216123223,  -0.1750159263611,   0.0845082253218},
   {  -0.1078479960561,  -0.2749143540859,  -0.1836141347885,   0.2392894774675,   0.2068445831537,  -0.1083295196295,   0.1259335428476,   0.2122573852539,  -0.3063434064388,  -0.1585676819086,  -0.1550503969193,  -0.1804576367140,  -0.0442289635539,   0.0892702490091,  -0.2601176500320,   0.0444503836334,  -0.1741153150797,   0.0934470444918,  -0.0758438780904,  -0.2291078120470,   0.2202907353640,  -0.1667711734772,   0.2005091011524,  -0.0718141347170,   0.0657672062516,  -0.0984960421920,   0.0249394625425,  -0.1646795421839,  -0.1060781478882,  -0.3057054281235,  -0.0046846768819,  -0.2586562335491,   0.2200423181057,  -0.1038638204336,  -0.1649839282036,  -0.0249326489866,  -0.0513204261661,   0.0123978871852,  -0.3753583133221,  -0.1050860583782,  -0.3135550022125,   0.0944242700934,  -0.1844315081835,   0.1955841630697,   0.0719969570637,   0.3140681385994,   0.0264553260058,   0.0502824261785,  -0.0519132688642,   0.2429783344269},
   {   0.0012384291040,   0.0364370197058,   0.1841797530651,   0.0695613250136,   0.1565280258656,  -0.1786305606365,   0.1238028034568,   0.0222301669419,   0.0703995451331,   0.3151534795761,  -0.1337338387966,   0.0065399804153,  -0.0246180314571,   0.0328100733459,  -0.0498068258166,   0.1048706546426,  -0.0832505077124,   0.0706964209676,  -0.1470689028502,   0.2024300843477,  -0.1014943644404,   0.0055008563213,   0.0554496645927,   0.0004975798074,  -0.1006598770618,  -0.0176222939044,  -0.1272019892931,   0.0706917718053,   0.4421130418777,   0.2122119367123,   0.1593477427959,   0.0229484103620,  -0.1901516765356,  -0.0451477728784,   0.1575398445129,   0.0672615095973,  -0.2793258428574,   0.1435091644526,   0.0404966361821,  -0.2143925428391,  -0.0320469588041,  -0.1826130300760,  -0.2149549126625,  -0.5309959053993,   0.1672705411911,  -0.1925045251846,   0.0415601320565,  -0.0412429980934,  -0.0534359365702,  -0.0461577698588},
   {  -0.2304755449295,   0.1344133466482,   0.2027388960123,   0.1575144231319,   0.0428312718868,  -0.1078608036041,   0.2602379024029,   0.0818289071321,  -0.1127106249332,   0.2267762124538,   0.2090707719326,   0.2026769965887,  -0.0635942891240,   0.2639417648315,   0.2461600005627,   0.0614797435701,   0.0375712998211,   0.1239525228739,   0.1104860752821,   0.0534377284348,   0.0589737631381,   0.2085616886616,   0.1333600878716,  -0.0283151865005,  -0.0156930666417,   0.1357372254133,  -0.1073627844453,  -0.2873489260674,  -0.2249792963266,  -0.2366301864386,  -0.2142594307661,   0.0312695428729,  -0.0823202580214,  -0.0200352929533,   0.0183564908803,  -0.1710726171732,   0.0936727300286,  -0.0403673499823,  -0.1953264325857,   0.0741720423102,  -0.1919140964746,  -0.0196378584951,   0.0202182233334,  -0.0365058146417,   0.1818562448025,  -0.2049865722656,  -0.0416888855398,  -0.1118225306273,   0.1832722723484,   0.2697010934353},
   {   0.1905720829964,   0.2177818119526,  -0.2814077138901,   0.0434703417122,   0.2133454531431,  -0.1032033264637,   0.0970765128732,   0.0379929095507,   0.2407823801041,  -0.1304581463337,   0.2170483469963,   0.0019499103073,   0.0301779489964,   0.0834092944860,   0.2300468236208,  -0.1645724624395,   0.0535870641470,   0.2218833565712,  -0.0133446278051,   0.1419464945793,  -0.3652764558792,   0.2214942127466,  -0.1870020180941,   0.0025304465089,  -0.0394279509783,  -0.0112339789048,   0.0440533831716,   0.2439289391041,   0.1126714572310,  -0.2285450547934,   0.1822257190943,   0.2685950398445,  -0.0504827089608,   0.1115048751235,   0.0009100871393,  -0.1174624934793,  -0.0325306020677,   0.1625294387341,  -0.0101758465171,  -0.1510411202908,   0.0831555724144,  -0.2016225159168,   0.0199851710349,  -0.0510706678033,  -0.1868097186089,  -0.2249875217676,  -0.0258525852114,   0.1630160808563,  -0.2379816323519,   0.1247617527843},
   {   0.2171681523323,  -0.0232514608651,  -0.1338102072477,   0.1538066118956,   0.0431355051696,   0.0287314224988,  -0.1519559621811,  -0.1254038512707,   0.0355508141220,  -0.1047616899014,  -0.0448545850813,   0.1493343859911,  -0.0766683667898,  -0.1714756637812,   0.2607041597366,  -0.1643733084202,   0.0321002379060,  -0.0621235072613,  -0.0769113823771,  -0.0634844079614,   0.1257706433535,  -0.0781935602427,   0.1429205387831,   0.0859003514051,   0.0938761010766,   0.0452563948929,   0.1059867888689,  -0.1850292980671,  -0.1165829822421,   0.0315047465265,   0.2603462338448,  -0.1122234538198,   0.1245248839259,  -0.0449317954481,   0.0345650352538,  -0.0716375932097,  -0.0200293362141,  -0.3642846643925,   0.0196167472750,  -0.2107949703932,  -0.0695852190256,  -0.1725586503744,  -0.1515688151121,  -0.1625239849091,  -0.2006803452969,   0.1596637070179,   0.2279480099678,   0.2408569604158,   0.0443918779492,   0.2512516677380},
   {  -0.0755774155259,  -0.0285131037235,  -0.0843519642949,   0.1593029946089,  -0.2857455909252,   0.1502379775047,  -0.0613815300167,   0.1269777715206,  -0.1539093852043,  -0.0290542300791,  -0.3093275725842,  -0.1114218011498,   0.0525337085128,   0.2650160789490,  -0.0549857690930,   0.0483599752188,   0.0929750129580,   0.1089005097747,   0.1969333887100,  -0.2321345508099,  -0.1025470048189,   0.1946856528521,  -0.1049182564020,   0.1547848284245,  -0.0812718123198,  -0.1835564523935,  -0.1312893778086,   0.0146738281474,   0.0785717442632,   0.1403757184744,   0.0947747379541,   0.0483503863215,   0.0958601608872,  -0.2663752138615,  -0.2392551153898,   0.2748904228210,   0.1548715680838,  -0.1433069258928,  -0.1889489740133,  -0.2157445400953,   0.0574404560030,  -0.1896970570087,   0.0908377617598,  -0.1897181570530,   0.0246674343944,  -0.1930252313614,   0.1786841452122,  -0.1316075623035,   0.1849804520607,  -0.1739851534367},
   {  -0.0411888509989,   0.0027799603995,   0.1114683449268,   0.2081940770149,   0.0766680762172,  -0.2255191206932,   0.0583748929203,  -0.2018524110317,  -0.2111353427172,   0.1547405272722,   0.3245342373848,  -0.1061197966337,  -0.0450727045536,  -0.1960759311914,   0.1036784425378,  -0.0814627334476,   0.1374954134226,   0.1542543917894,   0.0043119117618,   0.0467167347670,   0.0409824326634,   0.1550389379263,  -0.0205114670098,  -0.0778880938888,  -0.0874359086156,  -0.0819404646754,   0.0448350496590,  -0.2151377648115,  -0.1995363980532,  -0.0111071532592,   0.0220140628517,   0.0729549303651,   0.1168385148048,  -0.0913475379348,  -0.1531937867403,  -0.1314649432898,  -0.2266979813576,  -0.2271412461996,  -0.1529756933451,  -0.0177724119276,  -0.0329677686095,  -0.0257569588721,  -0.0442298017442,  -0.0153937926516,  -0.0308163519949,  -0.1716852933168,   0.1017395257950,   0.2501716613770,  -0.5067002773285,   0.1475035995245},
   {  -0.0335417911410,   0.0159041658044,   0.0503766238689,  -0.0699361413717,   0.1208171769977,  -0.2841012477875,   0.1208758130670,  -0.1607698649168,   0.0223562382162,  -0.0468333438039,  -0.1343942731619,  -0.1015739515424,   0.0856679975986,   0.0214869230986,  -0.0898826494813,   0.1986921429634,   0.3037380576134,   0.2548782527447,   0.2485928386450,  -0.2250146120787,  -0.0212951898575,   0.0167636014521,  -0.0035267404746,   0.1233546733856,  -0.1083360388875,   0.0798298865557,   0.2291401177645,  -0.2842858433723,   0.0042458856478,   0.1400571912527,  -0.0147456424311,  -0.0383388474584,   0.2603881061077,   0.1639264523983,   0.0335091985762,   0.1714861690998,  -0.0797747597098,  -0.0212827250361,  -0.0482901185751,   0.2999176681042,   0.1253990679979,  -0.1102920994163,   0.1403689831495,  -0.0012045348994,   0.2586956024170,  -0.1253572702408,   0.1704029887915,   0.1548236906528,   0.1120126768947,   0.0477651469409},
   {   0.0768910795450,   0.0342103801668,   0.2836365997791,  -0.0900091528893,   0.0376764833927,   0.0063655762933,   0.0666902214289,  -0.0184066165239,   0.0585444159806,  -0.0981505289674,  -0.0426794774830,   0.2829734086990,  -0.1515744328499,  -0.1505932360888,  -0.0605955272913,   0.1952160894871,  -0.0734044313431,  -0.1262798011303,   0.2274963110685,  -0.1236437633634,  -0.1114773154259,   0.0535526014864,   0.0863953977823,   0.2878072559834,   0.0233949590474,   0.1476877182722,   0.1946135461330,  -0.2511900961399,   0.1466200649738,  -0.1393921226263,   0.0885064750910,  -0.1929738670588,   0.0941364616156,  -0.0535241477191,  -0.3697219491005,   0.1981019675732,  -0.0293003655970,  -0.1267133802176,   0.0151646584272,   0.2908241152763,   0.0224465075880,   0.0560395941138,  -0.0156764015555,  -0.0003694922780,  -0.1034325212240,  -0.0606083571911,   0.1659661978483,   0.0541722700000,  -0.1455247104168,   0.0632862076163},
   {   0.1420394778252,   0.2144037634134,   0.1754482388496,   0.1526084840298,  -0.2580510079861,   0.0361993946135,  -0.0311880577356,   0.0614645853639,  -0.1290089637041,  -0.2416786253452,  -0.1475372314453,   0.2331241667271,   0.0994427427649,   0.0950302258134,   0.1566865146160,   0.2429374605417,  -0.2737085819244,   0.0682735145092,   0.0880480334163,  -0.1457295864820,  -0.0292340051383,   0.1551161110401,  -0.1793037503958,   0.1026923358440,   0.0104885650799,  -0.1463116109371,   0.1319176703691,  -0.4065636098385,  -0.0672699362040,  -0.0278144627810,   0.0682587698102,   0.1589107215405,  -0.1243975907564,   0.2250556498766,  -0.0869501829147,   0.2487580925226,  -0.1057670414448,   0.0902731493115,  -0.1820373535156,  -0.1742756813765,  -0.0350977592170,  -0.0949853435159,   0.0424704737961,  -0.0084546767175,  -0.1111633181572,  -0.1179216206074,   0.0065638958476,  -0.1722300946712,   0.1054314672947,   0.2130668461323},
   {   0.1740331202745,   0.2278566807508,  -0.2136682569981,  -0.0289896316826,   0.2951602339745,  -0.2926135957241,  -0.1242456361651,   0.0127954697236,  -0.0651253014803,  -0.0822866633534,   0.0411599986255,   0.1262864321470,   0.0112335504964,   0.0949198603630,   0.0979736149311,  -0.1999746114016,   0.0747954919934,   0.0125684980303,  -0.1419598609209,  -0.0000837046828,  -0.2668608725071,   0.0082632629201,   0.3729510605335,   0.0281458534300,   0.0509945377707,   0.1480978876352,   0.0186989828944,  -0.1178555935621,  -0.1490665376186,   0.1815072000027,  -0.1637500971556,  -0.0209192596376,  -0.0162101536989,  -0.1640692502260,  -0.0943348929286,  -0.1444699466228,   0.0011075827060,   0.0919021144509,  -0.0685201510787,  -0.1371404826641,  -0.1864178925753,   0.0836902409792,   0.2190990298986,   0.1837230324745,  -0.1717249304056,  -0.1685167700052,  -0.2771234512329,  -0.1157640218735,   0.1358038038015,  -0.1274027973413},
   {   0.1996353268623,   0.1443446725607,  -0.0675637274981,   0.1348097175360,   0.1462406069040,   0.0889711305499,   0.1466103047132,  -0.0984406694770,  -0.1198962554336,  -0.0200478751212,  -0.0523532927036,  -0.1413276940584,  -0.0469072498381,  -0.1317126899958,   0.2201105505228,  -0.1029195189476,   0.1508475691080,  -0.1961131095886,   0.1509197354317,   0.1255766749382,  -0.3037863969803,   0.2121257334948,   0.0672443658113,   0.2862832844257,   0.1135317608714,   0.2010685950518,  -0.2152069956064,  -0.3903031349182,  -0.1572690606117,   0.2265137881041,   0.0168987419456,   0.2240800261497,  -0.1182719394565,  -0.1934750974178,  -0.0158354993910,   0.2005845010281,  -0.0422126986086,   0.0666367709637,   0.0551049746573,   0.0035210202914,  -0.2014130204916,   0.0477032363415,   0.0449313595891,   0.2713852524757,  -0.1935942620039,   0.1889898329973,   0.1966310739517,   0.1689095497131,   0.0623313672841,   0.0197331290692},
   {   0.2796538472176,  -0.2118741869926,  -0.0765027180314,  -0.1415159255266,  -0.1929542571306,   0.1627701222897,   0.1965084373951,  -0.0320997871459,   0.1182147935033,   0.1243154183030,   0.1133331283927,  -0.1741409003735,   0.0867969170213,  -0.1731149107218,   0.1682442724705,   0.0407863073051,   0.2629705667496,  -0.1408736258745,   0.2833742201328,  -0.0735052600503,   0.1386192142963,   0.0540970861912,   0.0371786877513,   0.0426283665001,   0.2343162894249,   0.1218154579401,  -0.0883821174502,  -0.1490462124348,  -0.0351770222187,   0.0551562607288,  -0.1483109593391,   0.1391050666571,   0.0418236739933,  -0.1589358896017,   0.2681578099728,  -0.1177974641323,  -0.0537030734122,   0.1964433640242,  -0.0571554079652,  -0.1098581254482,  -0.0921325162053,  -0.0159528031945,   0.1766034960747,  -0.1269906163216,   0.3439758718014,  -0.1771821528673,   0.2647630870342,   0.2544260919094,  -0.3659057319164,  -0.0485967211425},
   {   0.0249105598778,   0.1700970232487,   0.1363158077002,   0.0858691930771,  -0.1837871819735,  -0.0111480616033,   0.1365196108818,   0.2884400486946,  -0.0857470631599,  -0.1846026033163,  -0.0242935977876,  -0.1060098558664,  -0.0269275400788,   0.0103088468313,  -0.0909734368324,  -0.0700306966901,  -0.1520116180182,   0.1243093684316,   0.1100865304470,   0.0831745192409,   0.0373806618154,   0.1317908316851,  -0.0908694565296,  -0.0358650907874,  -0.1838662773371,   0.0076535176486,   0.0880266726017,  -0.0213386565447,  -0.0238835159689,   0.1663153618574,  -0.0212835092098,  -0.0702577680349,   0.2071377038956,  -0.1890615224838,  -0.0001571090106,  -0.0067088608630,   0.1023603752255,   0.1583946049213,  -0.0596844032407,  -0.1875122934580,  -0.0797693580389,  -0.1896719783545,  -0.1305294334888,  -0.0352435521781,   0.2232841849327,  -0.0942817330360,  -0.2702853083611,   0.2358014583588,  -0.0562656074762,   0.0502235703170},
   {   0.1306285560131,   0.0627990365028,  -0.1880938410759,  -0.0389090925455,   0.2286325842142,   0.2291510403156,  -0.0894042551517,  -0.0163068939000,   0.0740427076817,  -0.1600473523140,   0.0719451531768,   0.0560329258442,   0.1458142101765,  -0.1178293600678,   0.1881044059992,   0.0133976675570,  -0.0388341508806,   0.0627945885062,   0.0406387932599,  -0.0486060939729,   0.1779717206955,   0.0060122199357,  -0.2703004181385,  -0.2529317140579,  -0.1998422741890,  -0.0643682777882,  -0.0271563641727,  -0.1886399835348,  -0.2364274412394,   0.0027802139521,   0.3037356436253,   0.1597886085510,   0.2620082795620,  -0.0018960585585,   0.0315826423466,   0.0856492444873,  -0.1128601804376,  -0.0596150755882,   0.0233860444278,   0.1729440391064,  -0.1020750328898,  -0.1402968913317,  -0.0060632526875,  -0.0350060798228,  -0.1210525035858,   0.2914565801620,  -0.2370123863220,  -0.1387101411819,   0.2472220063210,  -0.0534864589572},
   {  -0.1124199554324,  -0.2218263596296,   0.1939987987280,  -0.0827764570713,   0.2195120155811,   0.1304662972689,  -0.2344390153885,  -0.1223667711020,   0.0257812924683,   0.0141402529553,  -0.0466956049204,  -0.0155682675540,  -0.0220285225660,  -0.1712482869625,   0.1265461444855,  -0.0461087748408,   0.1356337666512,   0.0911482796073,  -0.2111164927483,   0.2035799920559,  -0.2270518690348,   0.0118837784976,   0.1332319080830,   0.0934284478426,  -0.2749355733395,  -0.0753031894565,  -0.0583311617374,  -0.0423280186951,   0.2584013938904,   0.2321458607912,  -0.0711433291435,  -0.1558692455292,  -0.0512801967561,   0.0547043904662,   0.0898976847529,  -0.0676051527262,   0.0940654799342,  -0.0894425734878,  -0.1509992927313,  -0.3047291934490,   0.0342381447554,  -0.0421737693250,  -0.0562626086175,  -0.1988961994648,   0.1011874601245,   0.2241299599409,   0.1985480040312,   0.2094264477491,  -0.0153500800952,   0.2097724378109},
   {  -0.2463223338127,   0.1428163796663,   0.2494012564421,   0.1608050316572,  -0.1008460223675,   0.2138966470957,   0.0489662028849,  -0.0196348205209,  -0.0968154370785,   0.0500951558352,  -0.0587138086557,  -0.1414731889963,  -0.1895182281733,  -0.1253157407045,  -0.2115827053785,  -0.2345300614834,  -0.0894363224506,   0.0959846079350,   0.0316820703447,   0.1865460872650,   0.3094782531261,  -0.1773091256618,   0.2038827240467,   0.1577620804310,   0.0198135282844,   0.2355211675167,   0.2479987293482,   0.1148892566562,   0.0547309033573,  -0.1318570524454,   0.1513375341892,   0.0102430973202,   0.1912030875683,  -0.2441206574440,  -0.1038121655583,   0.0017044075066,   0.1865822821856,  -0.0424929596484,   0.1544548124075,  -0.1014419794083,  -0.2121529579163,   0.1117813438177,   0.1046287566423,   0.0047038304619,   0.1532848477364,  -0.0652414336801,   0.2192417681217,  -0.1765983551741,   0.1273788064718,  -0.2107553482056},
   {   0.0852831602097,  -0.1577562987804,  -0.0427363142371,  -0.0701808854938,   0.1663620620966,   0.0050749997608,  -0.2006531357765,   0.2375610023737,  -0.2150369137526,  -0.0620587356389,  -0.1606080979109,   0.1807179450989,   0.1631203293800,   0.2076786905527,  -0.0771978721023,  -0.0938842147589,  -0.1724777221680,   0.1841633915901,  -0.0320040285587,   0.0640306770802,  -0.3200349807739,  -0.0881773531437,  -0.1325411349535,   0.1178196668625,   0.0817979350686,   0.1455464512110,   0.2291333526373,  -0.0929823443294,  -0.1954066455364,  -0.1046597287059,  -0.0791161954403,  -0.2623412907124,   0.0158778708428,  -0.2796414792538,  -0.0402349121869,  -0.1868852972984,  -0.2491398006678,   0.2049665749073,  -0.6492708921432,   0.0794428661466,   0.1910780966282,   0.1582268029451,  -0.0624855272472,  -0.0346063673496,  -0.1780374646187,  -0.1085624396801,  -0.1043127626181,   0.0297399554402,   0.2069160193205,  -0.0559011586010},
   {   0.2367889583111,   0.0180604662746,  -0.1790688186884,  -0.0531772263348,   0.1161526441574,   0.2035912424326,   0.2351332008839,   0.1777492910624,  -0.2963466048241,  -0.2700049579144,   0.0280952323228,  -0.0020647442434,   0.1374755501747,   0.1665900647640,   0.1630516797304,   0.0196990948170,  -0.1519639194012,  -0.1925287693739,  -0.1625109463930,  -0.1565556228161,   0.2075747698545,  -0.0988292396069,  -0.1230543255806,   0.1482859551907,  -0.0043499167077,  -0.1635907143354,   0.0993163809180,   0.0584159418941,  -0.1779058873653,  -0.1869922876358,   0.1992231011391,  -0.0417058542371,  -0.1180757209659,   0.1778070330620,  -0.2487351447344,   0.0372022874653,  -0.2434931546450,   0.1825045794249,  -0.1547100841999,   0.1252281814814,  -0.1811870038509,  -0.0768321454525,  -0.1923289746046,  -0.0544994063675,   0.2052572518587,   0.1672699898481,  -0.1369773894548,   0.0379252657294,   0.1392520517111,   0.2911680638790},
   {   0.1738000810146,   0.1544948965311,  -0.0242324043065,  -0.1228984817863,   0.2005696445704,   0.1241557002068,   0.1613215953112,  -0.0167248938233,  -0.1473037600517,   0.1868424415588,   0.1035397574306,   0.1460419595242,  -0.1757189035416,  -0.0213731247932,   0.1354069858789,   0.0123473275453,   0.2091030478477,   0.1493133008480,  -0.1561981290579,  -0.0397194363177,   0.0730586796999,   0.0638062432408,   0.1868254989386,  -0.2137259244919,   0.2456881552935,  -0.1909451186657,   0.1109084486961,   0.1484665423632,   0.0418863631785,  -0.0160982515663,  -0.2636571228504,  -0.0185972675681,   0.0762102901936,  -0.0425004586577,   0.0090049896389,  -0.0944151207805,  -0.0583245232701,   0.0660953372717,  -0.0888073444366,   0.0069107641466,  -0.0101337162778,  -0.1771963536739,  -0.1481747478247,  -0.1078579127789,  -0.0333721823990,   0.1953537464142,   0.1846989244223,   0.0999953895807,   0.1952314078808,   0.1395082324743},
   {   0.0928775891662,   0.1953435242176,   0.0541770234704,  -0.0097930245101,   0.0613525658846,  -0.1000335961580,   0.0497699901462,   0.2035955488682,   0.1636351644993,   0.0646493360400,  -0.0553353354335,   0.3044876456261,  -0.2217337489128,   0.1927452385426,   0.2229855209589,   0.0627692043781,   0.2277124971151,   0.0933908969164,  -0.1622069180012,   0.0527890659869,   0.1449278146029,   0.2055694013834,   0.1689099818468,  -0.1085161715746,   0.2643149495125,   0.3471437990665,  -0.2986011207104,  -0.0691223442554,   0.0940965190530,   0.1122851744294,  -0.1327036172152,  -0.0854580700397,   0.1162815615535,   0.1943250596523,  -0.0953616574407,  -0.2410104274750,   0.1495580822229,   0.0726955085993,   0.1838715672493,   0.0395530015230,   0.2392815500498,   0.0723869651556,   0.3156316578388,  -0.2701738774776,  -0.2177139669657,   0.0098703177646,   0.0086588719860,   0.0137516902760,  -0.0732658058405,   0.0238079410046},
   {   0.0885254591703,   0.2401834428310,  -0.0430066660047,  -0.1718095093966,  -0.0378529392183,   0.1980146467686,   0.1355530917645,  -0.0102318609133,  -0.2172699570656,   0.1177488788962,   0.0404872000217,  -0.0700512826443,   0.0066863312386,   0.0492686890066,  -0.2252851426601,  -0.0085530262440,   0.2042222172022,  -0.1918970942497,  -0.2142070382833,  -0.0763493776321,  -0.2470420598984,  -0.0247249230742,  -0.0542565546930,   0.2097807824612,   0.0826826766133,  -0.1455183476210,   0.1564598679543,   0.0708983615041,   0.0821447819471,   0.2115118354559,  -0.0571131780744,   0.0720923766494,  -0.0578106306493,  -0.1544341892004,  -0.1080906167626,   0.2403259873390,   0.0568423457444,  -0.2622793614864,   0.2519998550415,   0.1953443735838,   0.0422382056713,  -0.1810734868050,   0.1075890883803,   0.2026710659266,  -0.0062094232999,  -0.0203485619277,  -0.0704597681761,   0.2449570745230,   0.1795257925987,  -0.1716631948948},
   {  -0.2215490490198,  -0.2350866347551,   0.1419956386089,   0.2043729871511,   0.0496085919440,   0.0868099704385,   0.0590176135302,  -0.0371934473515,  -0.2415106147528,   0.0383800752461,  -0.1411282271147,  -0.1590094566345,   0.0353766530752,   0.2070287019014,  -0.1139577105641,   0.0253306608647,   0.0899339094758,   0.0176275763661,   0.0039446968585,  -0.2422908544540,  -0.1786500364542,   0.0070800450630,   0.0742454007268,   0.0875386223197,  -0.2037861496210,   0.1505995094776,  -0.2288987338543,   0.0331592001021,  -0.1591544002295,   0.1388630419970,  -0.1136998459697,  -0.2388356477022,  -0.2558615803719,   0.1703580915928,  -0.1723534613848,  -0.2322879284620,  -0.2742186784744,  -0.2416793555021,  -0.1148407533765,  -0.0338292494416,   0.2421927750111,   0.0428557991982,  -0.2715704739094,  -0.0715264156461,  -0.0954565629363,   0.1036964282393,  -0.1376677304506,  -0.1261593252420,   0.0211824178696,   0.1414100974798},
   {   0.1453887671232,   0.1130832955241,   0.0682960599661,   0.2386029809713,  -0.0244913082570,   0.2034799158573,  -0.1557742357254,  -0.0630063936114,  -0.1021162196994,  -0.1030511036515,  -0.1877004355192,  -0.0865526720881,  -0.0747955814004,  -0.1669690907001,   0.2455570548773,   0.2185304611921,   0.0035734993871,  -0.2885013520718,   0.1436289399862,   0.0273364875466,   0.1869065910578,  -0.3760011494160,  -0.2103931605816,   0.0023044538684,  -0.1091916263103,   0.1274717897177,   0.3001223206520,  -0.0202875584364,   0.1727667897940,   0.0734273865819,  -0.1521352529526,   0.0629301443696,  -0.0101622100919,  -0.2590488195419,   0.2275967597961,   0.2207959294319,   0.1513226032257,  -0.2364729940891,  -0.0166929066181,   0.2090125679970,  -0.2646377980709,   0.1828771084547,   0.0363253019750,   0.1551930159330,   0.0037725092843,   0.1136751323938,   0.0762376934290,   0.0642866194248,   0.0514234602451,   0.2163356989622},
   {   0.1124226748943,   0.1895825266838,   0.1448006778955,  -0.0214460939169,  -0.2283638268709,   0.2379341125488,  -0.0577970780432,  -0.0065871798433,  -0.0692277774215,   0.0220308136195,   0.1515895873308,  -0.1811743974686,   0.0539056435227,  -0.0031898643356,  -0.1670399308205,   0.0396604202688,   0.0191573593765,   0.0641278773546,  -0.1543364524841,   0.0552741810679,   0.1803008168936,  -0.1967347413301,  -0.0246466081589,   0.3355498909950,   0.0648792535067,   0.0992319360375,   0.0421920008957,  -0.2372277826071,   0.3039950132370,  -0.2644685506821,  -0.2019231170416,   0.0591985769570,   0.1780813783407,   0.1766338795424,   0.1023993045092,   0.1421203613281,   0.0872217789292,  -0.1080287471414,   0.1724419444799,   0.1599789112806,  -0.1886133551598,  -0.1751736253500,  -0.0881395712495,  -0.0986502170563,   0.0082071051002,   0.0153255099431,   0.1425826698542,   0.1683845221996,  -0.1276299655437,  -0.1112610921264},
   {   0.1598714143038,  -0.0219046231359,   0.1319919377565,  -0.1169421672821,   0.0500225014985,   0.1375705748796,   0.1205606311560,  -0.1134064570069,   0.2355134636164,  -0.0896591171622,   0.0862108692527,   0.0074069984257,  -0.1590611338615,  -0.1603736430407,   0.0733715221286,  -0.0038396979216,  -0.1948698014021,  -0.0859640464187,  -0.0336696393788,   0.1839011907578,  -0.0013769190991,  -0.0294500086457,   0.2725976705551,   0.1022422313690,  -0.0459251217544,   0.0034913409036,  -0.0156725533307,  -0.0595744960010,  -0.0119868479669,   0.2113931030035,   0.1959761381149,   0.0149758961052,   0.1720712929964,   0.0177330449224,   0.0868725702167,   0.1389284133911,  -0.1234227418900,  -0.1140080243349,  -0.0425946787000,  -0.0441700965166,   0.0166050307453,   0.1113392114639,   0.1824091374874,   0.2998046278954,  -0.0020110011101,   0.0465798005462,  -0.1431634873152,  -0.1980623751879,  -0.2245160639286,  -0.0322924479842},
   {  -0.1272689700127,   0.0305100455880,   0.2280303537846,  -0.1360374093056,   0.1878611892462,  -0.2211197614670,  -0.0959824994206,  -0.0780044496059,   0.0638805180788,   0.1891303658485,  -0.0459143631160,  -0.0422103442252,  -0.1077540069818,   0.2200657427311,  -0.1069895476103,   0.0700671449304,  -0.1717782467604,   0.0370575375855,  -0.1047347560525,   0.1430293768644,  -0.0963265374303,   0.0248769484460,   0.2177199125290,  -0.1225090548396,  -0.2594015598297,  -0.0769064649940,  -0.2566628158092,   0.0317968614399,  -0.0073918737471,   0.1391068398952,   0.0827116444707,   0.0065081682988,   0.2042262852192,   0.0682176649570,   0.2743354141712,  -0.1204562634230,   0.1262314170599,   0.0849776417017,  -0.0364186726511,   0.0576734244823,   0.1603393554688,   0.2422955036163,  -0.0707658156753,  -0.0177962481976,   0.0166094359010,   0.0478999763727,   0.0763954147696,  -0.0678894594312,  -0.2113937139511,   0.1199489384890},
   {   0.2597966492176,  -0.1983166486025,   0.3513437509537,  -0.0818453654647,   0.2172234356403,  -0.1182862073183,   0.1034362241626,  -0.0227067861706,   0.2229292243719,   0.1804463118315,   0.0773897245526,  -0.0623218603432,   0.0252548493445,   0.1622039675713,   0.0438069514930,  -0.1454963535070,   0.0071004545316,   0.0336793325841,   0.0283479262143,   0.0836321786046,  -0.1047064140439,   0.2072996348143,   0.2799534797668,   0.1136218830943,   0.0642679333687,  -0.0162264555693,  -0.0655210167170,  -0.2212473154068,  -0.1875198483467,   0.1277630478144,  -0.0144611513242,  -0.1531070619822,   0.0040432265960,  -0.2132929563522,   0.2112640738487,  -0.1021977886558,  -0.0894989892840,  -0.0515755750239,   0.0073926392943,  -0.0948168262839,   0.0584999695420,  -0.2330283075571,  -0.0929229781032,   0.2596539855003,  -0.3369014561176,   0.0168123580515,   0.0059034996666,   0.0021691732109,  -0.4364694356918,   0.2290997654200},
   {  -0.0782003924251,   0.0200792532414,   0.0262372922152,   0.0035170363262,   0.2539907395840,   0.0572055168450,   0.0122311757877,  -0.0422139503062,   0.1044426783919,   0.2120689153671,  -0.2107781916857,   0.2982499301434,   0.1197766661644,  -0.0922717079520,   0.1198764592409,   0.0755521804094,  -0.1227164342999,   0.1408076286316,  -0.3971913754940,  -0.2473317235708,   0.1365195363760,   0.1039253622293,  -0.1053747236729,   0.0035482784733,   0.2139800488949,   0.0739659145474,   0.1510637402534,  -0.1184380948544,   0.1111244857311,  -0.2494444400072,   0.1619863212109,   0.2166674286127,   0.1299083530903,   0.0786802619696,  -0.2536607980728,   0.1316623091698,   0.0486481226981,   0.1867478638887,  -0.0686592832208,   0.1471353620291,  -0.0546357110143,   0.0611013360322,  -0.1223741546273,   0.1184113621712,  -0.2913269102573,  -0.0872538387775,   0.1106191501021,  -0.0900700241327,   0.0163548588753,   0.1388368755579},
   {   0.2842805087566,   0.1701149642467,   0.1974761784077,   0.1515882760286,  -0.1195276603103,  -0.0316243059933,  -0.1003160402179,  -0.1853303164244,   0.1388414353132,   0.2067077308893,  -0.2481540441513,  -0.0313615687191,   0.1235740035772,  -0.0361630767584,   0.1116799488664,  -0.1382413059473,   0.0921461060643,  -0.1992730945349,  -0.1918092072010,  -0.0298813730478,  -0.1020819097757,   0.1035135537386,   0.0032601968851,   0.0809450969100,  -0.0096261566505,  -0.1426758170128,   0.0570035912097,  -0.0456148982048,  -0.0808227658272,   0.0461684241891,   0.2771339714527,   0.1261726170778,  -0.2527058124542,   0.0169317387044,   0.0324025638402,  -0.1876584142447,   0.1398629844189,   0.0762556865811,   0.0217101890594,  -0.2236017286777,   0.1002070605755,  -0.0234615039080,   0.1881761550903,   0.2640049457550,   0.1216749772429,  -0.1521790772676,  -0.1720647364855,  -0.0285041145980,   0.1374949365854,   0.2563473880291},
   {   0.1754103302956,   0.1154604107141,   0.0467544756830,  -0.2128204852343,   0.1714301705360,  -0.1055398583412,  -0.2259831577539,   0.1645694971085,   0.2883301973343,   0.1973815411329,   0.0201714914292,   0.1445207744837,  -0.0518206395209,  -0.2041371613741,   0.1013573333621,   0.2613950073719,   0.1516882777214,  -0.0083903353661,  -0.0284019671381,  -0.0623186118901,  -0.0665641501546,  -0.1635048687458,   0.2663182914257,  -0.1956448107958,  -0.0841899812222,   0.1617415398359,  -0.2134189009666,  -0.2380070090294,   0.2836195826530,  -0.0053242817521,   0.0505447126925,  -0.0308794751763,  -0.1474794000387,   0.1561056971550,  -0.1042084544897,   0.2234957367182,   0.0056330845691,   0.0110000595450,   0.1534919291735,   0.2244124710560,   0.0362932197750,   0.2083449214697,  -0.1922902911901,   0.1473333984613,  -0.0187811013311,   0.1996191591024,  -0.2537871301174,  -0.1488801836967,  -0.0816380307078,  -0.1599382013083},
   {  -0.0886982306838,   0.0531189776957,  -0.1429056078196,  -0.0811896994710,   0.0627985820174,   0.1945834159851,  -0.1038294658065,   0.2669995427132,   0.1985767930746,  -0.1781643629074,   0.2135824114084,   0.2017019689083,  -0.2397983968258,   0.0198343787342,   0.0017625413602,  -0.0453546606004,   0.1090197041631,  -0.0512266829610,  -0.0382444709539,   0.0999273061752,   0.2727027535439,  -0.0918799713254,  -0.1525212526321,   0.1407674849033,   0.0243813525885,   0.3318642079830,  -0.0345786884427,   0.1745371967554,   0.2174617797136,  -0.1196311637759,   0.0863482728601,  -0.2713223397732,  -0.0080873146653,   0.0787302181125,   0.2989109456539,   0.1508737057447,   0.2600950896740,   0.3211513161659,   0.0912180915475,  -0.0334023833275,   0.1699402183294,  -0.0563760399818,   0.0265676975250,   0.0246745534241,  -0.1899468004704,  -0.1980680525303,  -0.2929034233093,   0.0747995078564,   0.0195070952177,  -0.0442678034306},
   {   0.1449849903584,   0.0629824101925,  -0.1416871547699,  -0.0290615074337,  -0.1542493253946,   0.2117902934551,  -0.0200328845531,   0.2021939456463,   0.0681179016829,   0.2280793339014,   0.1758630126715,   0.0483442917466,   0.2058241069317,   0.2129046618938,   0.1874194443226,  -0.0084004029632,   0.0441606715322,   0.0781608596444,  -0.0446688793600,   0.2083125412464,   0.1364059597254,  -0.2485232800245,   0.0978574156761,   0.0764193236828,  -0.0566376261413,  -0.1696957349777,   0.0594482570887,   0.0895981490612,   0.3252705037594,  -0.0739611312747,  -0.0148994112387,  -0.2793231904507,   0.1914084553719,   0.2150767743587,  -0.1798018217087,  -0.0306311752647,  -0.0165724530816,  -0.2009271532297,  -0.0044599147514,   0.0157517846674,   0.0714533999562,  -0.0914041548967,  -0.0925840884447,  -0.1687191277742,   0.3124097883701,   0.1996053457260,   0.0124140204862,  -0.0377406068146,  -0.1809651851654,  -0.1532191485167},
   {  -0.1627383232117,   0.1949239075184,  -0.0445173420012,  -0.0540039874613,   0.0801234766841,  -0.0983325839043,  -0.2899846136570,   0.0479250364006,   0.1139293909073,   0.1642196625471,  -0.0512894019485,   0.0288472063839,  -0.2627020478249,  -0.1259659975767,  -0.2052561938763,  -0.0553050152957,   0.3125056028366,   0.1652679741383,  -0.0383639782667,  -0.4359959363937,   0.0633395835757,  -0.0694306790829,   0.1819217205048,  -0.2124775201082,  -0.2858968675137,   0.3776589035988,   0.1455349475145,  -0.0131077654660,  -0.1167380809784,   0.1243195310235,   0.3687933385372,  -0.1163294687867,  -0.0725443139672,  -0.0837825983763,   0.0191314667463,   0.0091891223565,   0.1865672320127,   0.2201560884714,  -0.1030798330903,   0.0717478543520,   0.2601008415222,  -0.0083002056926,  -0.1996772140265,   0.2091597169638,   0.0824331566691,  -0.1715037673712,   0.1622563302517,   0.2535021305084,  -0.2659654021263,  -0.1609704345465},
   {   0.2394409477711,   0.1557664275169,   0.0308361761272,   0.0869969949126,   0.0356981158257,   0.0309065580368,  -0.0587129555643,   0.1871733218431,   0.0656714513898,   0.0155475605279,   0.2734956741333,   0.0662724226713,  -0.0556909777224,   0.1961175352335,  -0.1026646345854,   0.1406211405993,  -0.3083042502403,   0.1410441696644,   0.2208109796047,   0.0032352709677,   0.2171369194984,  -0.0422657243907,   0.1720691472292,   0.0395882688463,  -0.0308310687542,   0.2207774370909,  -0.0917761325836,   0.1259249597788,  -0.2476214915514,   0.1538967043161,   0.0897249430418,   0.1291265189648,   0.1769801974297,  -0.1367434412241,   0.1732434630394,  -0.0714069008827,   0.1650346070528,   0.1355813592672,  -0.0875649228692,  -0.0578658320010,   0.1738218665123,   0.1183360740542,  -0.2270341962576,   0.0433888249099,  -0.0606460571289,  -0.1561675965786,  -0.0783619508147,  -0.1109173819423,   0.0385214090347,  -0.0252533387393},
   {  -0.0509514436126,   0.1022170558572,   0.0171478912234,  -0.0609289631248,   0.0451682694256,   0.2843662798405,   0.1488791555166,  -0.0543753951788,   0.2346018403769,   0.2985503673553,  -0.0762634798884,  -0.2009039968252,   0.0992870256305,  -0.0830652713776,  -0.1641359329224,   0.1318876147270,  -0.0807057619095,   0.2288531959057,  -0.0727574303746,   0.1637983173132,  -0.2596215903759,   0.1625351607800,   0.1752687990665,   0.3170738816261,  -0.0067198383622,  -0.2784707546234,   0.0438746921718,  -0.0569629035890,   0.0428286530077,  -0.0603678673506,  -0.1896646022797,   0.0086364503950,  -0.2145948261023,   0.0191282387823,   0.0839676037431,   0.0386106222868,  -0.3223446309566,  -0.0481172166765,   0.1660006493330,  -0.1386626362801,   0.0555289201438,  -0.2071227133274,   0.1475539654493,  -0.2056578993797,  -0.1402055174112,   0.0980736538768,  -0.0096792858094,   0.2391723543406,  -0.0278819091618,  -0.0522106066346},
   {  -0.1517113149166,   0.1415361315012,   0.0307697039098,  -0.2661369442940,   0.2141318321228,  -0.0931948050857,   0.2113732397556,   0.0677033737302,   0.1158967614174,   0.1655101925135,   0.2569873034954,  -0.2365749925375,  -0.0078326771036,  -0.0397557877004,   0.1012388691306,  -0.0398752093315,  -0.0583433955908,   0.1517188698053,   0.0734755992889,   0.1237812787294,   0.0812278091908,  -0.1825167834759,   0.0770543962717,  -0.1269451528788,  -0.0130637269467,  -0.0243262778968,   0.2330697178841,  -0.2307401001453,   0.2338080108166,  -0.1058425530791,  -0.2585324048996,   0.1501230895519,  -0.0679851025343,   0.1598777025938,  -0.1201787590981,  -0.1139373034239,   0.2253387123346,   0.2042597383261,   0.0350297391415,   0.0045306682587,  -0.0617401637137,  -0.0450041443110,   0.1434000879526,  -0.3383833765984,  -0.0058887568302,   0.0889364182949,  -0.1259453594685,   0.0832790657878,   0.0892827883363,  -0.1589430719614},
   {   0.2068056017160,  -0.0771140158176,  -0.0198031440377,   0.0221274998039,  -0.0712009146810,   0.0045585460030,   0.0509909689426,   0.2262456417084,   0.2188663929701,  -0.1397326886654,   0.1579612493515,   0.2191129624844,   0.1041826978326,   0.2860495746136,   0.1899572908878,  -0.0470152981579,   0.0077259270474,   0.0648017376661,  -0.1862376183271,  -0.0150746600702,  -0.2130734622478,   0.2308969199657,   0.2581000030041,  -0.1443156003952,  -0.1679735928774,   0.0010344312759,  -0.1765296757221,   0.1556042879820,  -0.1410055756569,  -0.1820529997349,   0.1905352622271,   0.2152383774519,  -0.1159650161862,   0.0982167050242,  -0.0843503922224,  -0.0392243228853,  -0.2073675990105,  -0.2596221566200,  -0.0334702432156,   0.0102289570495,  -0.0114247091115,  -0.2707300186157,   0.2371425777674,  -0.0113634383306,  -0.2648597657681,   0.1584418714046,  -0.1536089628935,   0.1722562760115,  -0.0459636747837,   0.1898704618216},
   {  -0.2703288197517,  -0.0551407374442,   0.0041505554691,  -0.1331264227629,   0.1250635683537,  -0.0422465391457,  -0.1605657935143,   0.1054388433695,   0.1114206910133,  -0.0302477255464,  -0.1513682901859,   0.1664691269398,  -0.8287944197655,   0.2288876473904,  -0.1546535640955,   0.1581774502993,  -0.0670836716890,   0.0084760868922,   0.0953177586198,  -0.0607064440846,  -0.0394455716014,  -0.1814157813787,  -0.0781382024288,  -0.2523545324802,  -0.3006646633148,   0.1669175028801,   0.2474041730165,   0.0397982597351,   0.1612378209829,  -0.2163835912943,  -0.3716197907925,   0.0819031894207,   0.1208278909326,  -0.0557012259960,   0.2653574347496,  -0.1634547561407,  -0.1306559145451,   0.1656088978052,   0.2955391108990,   0.1284652948380,   0.3477268815041,  -0.1280098855495,   0.0321978107095,  -0.1970047652721,  -0.1499647647142,  -0.0591928884387,   0.0492657758296,   0.1337427496910,   0.1451385766268,  -0.1428469270468},
   {  -0.1943493187428,   0.2369787395000,  -0.2087047249079,   0.0199788734317,  -0.1913971155882,   0.1875712126493,   0.1911603510380,   0.0402212515473,  -0.2190911471844,  -0.3459458053112,   0.0552863478661,   0.0064337858930,   0.2654323279858,  -0.0710650384426,  -0.0182848237455,  -0.0091772973537,  -0.0916277468204,  -0.1543578207493,  -0.0283901039511,  -0.3341461718082,   0.2531021833420,  -0.1099971383810,   0.2784520685673,  -0.0231766887009,  -0.1397602707148,   0.1798683553934,   0.2015445977449,   0.2313409149647,   0.0307233072817,  -0.1087758913636,   0.1934129148722,   0.2524455189705,  -0.0342292822897,  -0.0023857215419,   0.1726975142956,  -0.1447412818670,  -0.1543226689100,   0.1243483573198,   0.0949128866196,  -0.1300290524960,   0.0059487442486,   0.1726127862930,  -0.2956078648567,   0.1100210174918,  -0.1990951150656,   0.1958574503660,  -0.0531638488173,   0.1804409623146,  -0.3231227397919,   0.1042560786009},
   {   0.1692577451468,  -0.0947418957949,   0.1184467002749,  -0.1944098323584,   0.2097637951374,   0.0531550273299,   0.1382870674133,   0.0121122542769,  -0.1479133218527,   0.0052236327901,  -0.2394527643919,  -0.0916866287589,  -0.3008564412594,  -0.0254075136036,   0.0147697301582,  -0.0985100120306,  -0.3368448317051,   0.1428752839565,   0.0666197389364,  -0.0086064580828,  -0.1049639359117,   0.0173722505569,  -0.1503889411688,  -0.1753989756107,   0.0690327733755,  -0.1211503297091,  -0.0285296011716,  -0.1697607338428,   0.1243629455566,   0.0062921764329,   0.1535883992910,   0.1755008101463,   0.2049472630024,   0.0182478111237,  -0.2015018016100,  -0.0852860361338,   0.0597775615752,  -0.0804488211870,  -0.2622966766357,   0.0627774596214,   0.0156035870314,  -0.0200419742614,  -0.0242097955197,   0.0839641094208,   0.0669305622578,  -0.1549665927887,   0.2224769294262,   0.1407186836004,  -0.0600293800235,  -0.1396430581808},
   {   0.1341089159250,   0.1048676669598,  -0.2194654643536,  -0.2360621988773,   0.0008101213025,   0.2459504604340,   0.1847084313631,  -0.0526101104915,   0.1891352683306,  -0.0041153449565,   0.0374308302999,  -0.0937931388617,  -0.0673296824098,  -0.1918177902699,   0.2787484228611,   0.1592003107071,  -0.1581433713436,   0.0733482912183,  -0.2783023715019,  -0.0922769829631,  -0.0512414872646,   0.0666936114430,   0.1215663403273,  -0.1398979276419,  -0.1728647649288,  -0.0586637817323,  -0.1424825489521,   0.2765816748142,  -0.0503265187144,  -0.0161942206323,   0.2785054147243,   0.1436417996883,   0.0954971909523,  -0.1373162120581,   0.0806997492909,   0.0579625070095,  -0.1278251260519,  -0.1661456823349,   0.1854112595320,   0.0279214624316,  -0.2203132957220,  -0.2987623214722,  -0.0287989582866,   0.1891170442104,   0.0778147727251,  -0.0360717512667,  -0.0001119866502,   0.0709300115705,  -0.0680248066783,   0.1424614191055},
   {  -0.0474533140659,   0.0984964966774,  -0.2425010800362,   0.0738226994872,   0.1429378390312,   0.0129625378177,   0.0143073238432,  -0.2070255428553,   0.0602782703936,  -0.2338140606880,  -0.0766030773520,   0.0150775397196,  -0.0891960337758,  -0.1197037622333,   0.1661783307791,   0.1952565610409,  -0.0002203684999,  -0.1893545538187,   0.1696127504110,  -0.2954668998718,   0.2479132711887,   0.1824549138546,   0.2557834088802,  -0.0712988749146,   0.1491868048906,  -0.1714348047972,   0.0270804390311,   0.3022914826870,   0.0735894143581,   0.2020188421011,  -0.1141732856631,  -0.1925780773163,   0.0647950991988,   0.1768699437380,   0.2881818115711,  -0.1428649276495,  -0.1657747179270,   0.0471796840429,   0.1375503689051,   0.2567474842072,   0.1106984391809,   0.3239035606384,   0.0290000122041,  -0.0949840322137,  -0.1159961000085,   0.1297758221626,   0.2674800455570,  -0.1274406611919,  -0.3353126347065,  -0.0484852045774},
   {  -0.2278942614794,   0.1516031473875,   0.1465907096863,   0.1177695915103,   0.1258712857962,   0.1854946762323,  -0.0039763431996,   0.0050208130851,  -0.0891512930393,  -0.0755342915654,  -0.0629552528262,   0.3224506676197,   0.1114486083388,   0.1113716959953,   0.1890757232904,   0.1104129999876,  -0.1491721421480,  -0.1253226399422,   0.2391914427280,  -0.0442949384451,   0.0950405672193,  -0.0154948895797,   0.2532669603825,   0.1124468371272,   0.1676961481571,  -0.0698269531131,  -0.0605204179883,   0.0939172953367,   0.0209397450089,   0.0068715619855,   0.2125753909349,   0.0623251870275,   0.1222492009401,   0.0112843960524,   0.0879383757710,  -0.0889628082514,  -0.1277588307858,  -0.0321783758700,  -0.1380144655704,  -0.1893060505390,  -0.1039288341999,   0.0346731506288,   0.2860840260983,  -0.0311137344688,   0.1951265186071,   0.1105118989944,   0.1880260109901,  -0.1726150810719,   0.1117574200034,  -0.0477631092072},
   {   0.2958742976189,  -0.2553702592850,   0.0749913007021,  -0.0967221856117,   0.0323376208544,   0.0569535568357,  -0.0728318318725,   0.1096657887101,   0.0056783421896,  -0.1342594623566,  -0.1798751652241,  -0.0981972664595,   0.1409063935280,  -0.1244701668620,  -0.1248997524381,   0.1469094306231,   0.0404806993902,   0.0692244246602,  -0.1167231947184,  -0.0494848079979,  -0.1546045243740,  -0.3371647000313,   0.0616196654737,   0.0353957712650,  -0.1817434430122,  -0.1798328161240,  -0.1147432699800,   0.1117373183370,  -0.0175767187029,   0.0777324959636,  -0.1397472172976,   0.2586051821709,  -0.1801464110613,   0.0067245909013,  -0.0638417676091,  -0.1349341720343,  -0.0954080671072,  -0.1539125591516,  -0.2724349796772,   0.0842246934772,  -0.1462601423264,  -0.1602874547243,  -0.1776120811701,  -0.2448052763939,  -0.0228884182870,  -0.0677460730076,   0.3824235200882,  -0.0175067093223,  -0.2096853852272,   0.1926099509001},
   {   0.2934623360634,  -0.0604536607862,  -0.0699906051159,  -0.0094841513783,  -0.2544923126698,   0.0664622709155,   0.0291629415005,  -0.0312429927289,   0.1491909474134,   0.0704625248909,  -0.2082103639841,   0.0248629860580,   0.1831613183022,   0.0115249212831,   0.0900959819555,  -0.2102038264275,   0.1112704053521,   0.1725645512342,  -0.1340583115816,  -0.1250881552696,  -0.2296739667654,   0.0906525701284,   0.2618486583233,  -0.0133636165410,   0.0134878940880,   0.1757404059172,  -0.2937165796757,  -0.2597797513008,  -0.1997875422239,  -0.1690979450941,  -0.0841227993369,   0.2389574497938,   0.0899699851871,   0.2043489068747,   0.2318435907364,   0.1082423254848,   0.1184589862823,   0.2031730264425,   0.3088848888874,   0.1465289592743,   0.2078160047531,  -0.1058825477958,   0.0625069960952,   0.0266290884465,   0.0802870690823,  -0.0988881215453,   0.1237995699048,   0.1548269987106,   0.0314651653171,   0.1848002374172},
   {  -0.0626963526011,  -0.2146219462156,   0.0484340749681,  -0.2646625339985,   0.0757259503007,  -0.0652087703347,   0.0357772521675,  -0.0443876683712,  -0.1010232269764,   0.0130157610402,  -0.0694566592574,   0.2215140163898,  -0.2349493950605,   0.1384112834930,  -0.1102691292763,   0.2494225651026,   0.1909933090210,   0.0046021859162,  -0.0073881912977,   0.2212196141481,   0.2023046165705,   0.1737199872732,   0.1829802244902,   0.1700114607811,  -0.0775128826499,  -0.0982175245881,  -0.0676008388400,  -0.0496925637126,  -0.3545370995998,   0.1541232317686,   0.3473889529705,  -0.0540844462812,   0.2055043578148,   0.2227413654327,  -0.0878131836653,   0.1358240842819,   0.2517152428627,   0.1492281258106,  -0.1663620918989,  -0.1528171896935,   0.0889467224479,   0.2298376113176,   0.1529522687197,  -0.1314713656902,  -0.2684885561466,   0.1441264748573,  -0.1502156257629,   0.0362249836326,  -0.1752855181694,   0.1017049401999}};
  const float bias_1[50] = {   0.0610263235867,   0.0082645565271,   0.0610800534487,   0.0626356378198,   0.0295119844377,  -0.0005646100035,   0.0099782673642,  -0.0335006415844,   0.0211704280227,   0.0064480192959,   0.0541172213852,   0.0424437336624,  -0.0889962241054,   0.0210439655930,   0.0374172776937,  -0.0498863905668,   0.0311852227896,   0.0223211981356,   0.0174854118377,   0.0824389085174,  -0.0142707778141,   0.0945075675845,   0.0254437588155,   0.0231540817767,   0.0408079177141,   0.0156132169068,  -0.0377631448209,   0.0968519821763,  -0.0119998725131,   0.0422814562917,   0.0294684618711,   0.0244558211416,  -0.0069826012477,   0.0028233528137,  -0.0048116501421,   0.0522368699312,  -0.0606297254562,   0.0265539921820,   0.0301737524569,   0.0257978904992,   0.0115314526483,  -0.0463887192309,   0.1606473326683,  -0.0343360230327,   0.0247458219528,   0.0544044822454,   0.0627676174045,   0.0425970144570,   0.0629781931639,   0.0674336180091};
  // Declare the arrays in the stack
  const float kernel_2[50][50] = 
  {{   0.1021263226867,  -0.1754800826311,  -0.1106750667095,   0.1754807978868,  -0.1594049930573,   0.1736636757851,  -0.0121374530718,  -0.0651455074549,  -0.2245931476355,   0.0250125303864,  -0.1398014277220,   0.1480717808008,  -0.0313847325742,   0.1020649075508,  -0.3646311461926,   0.1254432350397,  -0.1722420603037,   0.2083036899567,   0.1876054555178,  -0.2162490040064,   0.1852388978004,   0.1696187555790,   0.0581559427083,  -0.1463950872421,  -0.1810911446810,   0.2617481052876,   0.1915734410286,   0.1897221803665,  -0.0189891047776,  -0.1804385930300,  -0.1132669001818,  -0.0784547924995,  -0.0219820179045,   0.1097232624888,   0.1733134835958,   0.1869388818741,   0.0122748436406,   0.1296239495277,  -0.0657532662153,   0.0048378990032,  -0.1961745172739,   0.0053018317558,   0.1621126681566,  -0.0809398368001,   0.2469154745340,  -0.1143692359328,  -0.0469731464982,  -0.0876579508185,   0.0445494204760,  -0.1930804252625},
   {   0.0244939215481,  -0.1351955682039,  -0.1750859767199,  -0.2609933912754,  -0.1519326865673,   0.1003209948540,   0.2852998673916,  -0.1389117985964,   0.1424129903316,   0.1719774007797,   0.1264923512936,  -0.0092456135899,   0.0173269547522,  -0.0733031406999,  -0.0038013521116,  -0.1453087031841,  -0.1253726780415,   0.1273347586393,  -0.1630361676216,  -0.2528517544270,   0.2138446569443,   0.1003024578094,  -0.0676524788141,   0.2245161533356,   0.0437958762050,  -0.0480583272874,   0.1689582318068,   0.1724682450294,   0.1004409044981,   0.0490889102221,   0.0069978386164,  -0.1375195682049,  -0.0218267459422,   0.1868615150452,  -0.1297685950994,   0.0240521915257,  -0.0116558913141,  -0.1809356510639,   0.1023775413632,  -0.0699886009097,  -0.1638830006123,   0.0541140958667,  -0.1148135215044,  -0.0360672809184,  -0.1538706719875,   0.2039349824190,   0.1370654255152,   0.2363465428352,  -0.1241033300757,   0.1549404263496},
   {  -0.0243692696095,   0.0026583184954,  -0.3795563876629,  -0.1417370587587,   0.1786801069975,   0.0092488070950,  -0.1701457500458,  -0.0756294652820,   0.0628415346146,   0.0001165221038,   0.2915609478951,  -0.0351736359298,   0.2298853248358,   0.1792531311512,   0.1861602514982,  -0.0986667647958,   0.0732298344374,  -0.0927082747221,   0.1769682914019,  -0.1392163485289,  -0.1791523247957,   0.0223429929465,   0.1677595376968,  -0.0614990964532,  -0.0384314246476,   0.0011094642105,  -0.1036054044962,   0.0666694641113,   0.2180914580822,   0.1501735448837,   0.1599858105183,   0.0648974850774,  -0.2587624490261,   0.2174371629953,   0.1560137867928,  -0.0889131054282,   0.0104939686134,   0.1414199471474,  -0.2393184602261,  -0.2095465660095,   0.2190269529819,  -0.0971023365855,   0.1019996628165,   0.2634170353413,   0.1093525812030,   0.1113029122353,  -0.0434205047786,  -0.1700709164143,   0.0039406209253,   0.0641189143062},
   {   0.1264957785606,   0.0421957671642,  -0.1826375573874,   0.1498077660799,  -0.2105862796307,   0.1355005055666,  -0.1365331560373,  -0.0623724050820,  -0.1716344356537,   0.1522925049067,   0.0795774161816,  -0.2654538750648,   0.2297620028257,   0.1138327568769,   0.2361738085747,   0.2658443748951,   0.1358688473701,   0.2121566683054,  -0.2144134342670,  -0.0098391911015,  -0.0731347352266,  -0.1766151040792,  -0.0862093716860,  -0.0722287669778,   0.0995913445950,  -0.0542897917330,   0.2527536153793,  -0.0591516792774,   0.0015657949261,  -0.0618325583637,  -0.0202523823828,   0.2809563875198,   0.1680370867252,  -0.1457496583462,   0.1384339034557,  -0.0866488590837,  -0.0682770088315,  -0.2089258134365,  -0.0018634495791,  -0.0022472783457,  -0.1009311899543,   0.3953529894352,   0.0872704684734,   0.0182287506759,  -0.1903502345085,  -0.0182743184268,  -0.0597289577127,   0.1942401528358,   0.1899281591177,  -0.2342133820057},
   {   0.0027879518457,   0.1985806673765,  -0.0715375468135,   0.0799565240741,   0.0434686355293,   0.1848756819963,   0.2385986894369,  -0.1146780103445,   0.2145297676325,   0.0082732411101,   0.1701653450727,  -0.0039445841685,  -0.1950798779726,   0.0979768931866,   0.1901566386223,   0.1451436877251,   0.0500220432878,  -0.0720900967717,   0.0605689845979,  -0.0209269542247,  -0.0745714008808,  -0.1754221916199,  -0.1580706834793,   0.0406357795000,   0.1920212209225,  -0.0311711616814,  -0.2304682433605,   0.1328966021538,   0.2232031524181,  -0.0384748838842,   0.0220789331943,   0.2606749534607,   0.1599980443716,   0.1507243663073,   0.2718044817448,   0.0243361052126,  -0.1599125713110,  -0.1349576115608,  -0.2688841521740,   0.1037212163210,  -0.1928662955761,  -0.2998799979687,   0.2156565338373,  -0.0001349497761,  -0.0916073098779,   0.2416111230850,  -0.1966856569052,  -0.1272125542164,   0.0784113109112,   0.1986880749464},
   {  -0.1058657094836,  -0.1611733138561,  -0.0805522948503,  -0.0232982002199,  -0.2589909434319,   0.2660556137562,  -0.2800964713097,  -0.0528918802738,   0.1402952820063,   0.0454706028104,  -0.1271189302206,   0.0065478812903,  -0.1794317662716,  -0.2485426515341,   0.0365393422544,   0.0147984847426,   0.0528065823019,  -0.0682237744331,  -0.1476695686579,  -0.2433893978596,   0.0465939417481,  -0.0913344025612,  -0.2656572461128,  -0.0333310179412,  -0.0573224872351,   0.2058735042810,   0.1302086710930,   0.2017976939678,  -0.2612639963627,   0.0524624399841,   0.0988184660673,  -0.0818095281720,   0.1154452338815,  -0.2250437140465,   0.2335683554411,  -0.3019792139530,   0.1049873977900,   0.2411150932312,  -0.2255065292120,   0.2679385542870,  -0.1448359489441,   0.2471033930779,  -0.0247848778963,   0.2920823097229,  -0.1199401319027,  -0.1610906124115,  -0.0289689041674,   0.0479419454932,   0.1489808112383,  -0.2380625307560},
   {   0.1266990303993,  -0.1399853676558,  -0.1554414927959,   0.0423720739782,  -0.2007807791233,   0.1925816535950,  -0.1396515816450,  -0.2203249931335,   0.2448994964361,  -0.2672693431377,  -0.0749069899321,  -0.0676834061742,   0.1642081588507,   0.1476590037346,  -0.1805820912123,  -0.1958180069923,  -0.0104166250676,  -0.1135321706533,   0.1409438848495,  -0.1750355809927,   0.2261275351048,   0.1585745364428,   0.1827797740698,  -0.1001687645912,  -0.2212493866682,  -0.0796489343047,   0.1447921097279,   0.2095691859722,  -0.1781048476696,  -0.2334826141596,  -0.1059433445334,  -0.0831954032183,   0.2653144598007,   0.1726319938898,  -0.0123257320374,   0.0080220252275,  -0.1981168836355,   0.0803180336952,  -0.0328287854791,   0.1073682308197,   0.0554153360426,  -0.0511573441327,   0.2402550876141,  -0.2115066349506,  -0.1210310384631,  -0.0909771993756,  -0.1365147233009,  -0.1100898683071,  -0.0878612846136,  -0.1781802922487},
   {   0.1847823262215,   0.2489235103130,   0.1799445748329,   0.1176367104053,   0.1535394042730,   0.2152993977070,   0.1104595586658,   0.0464815609157,   0.0905500352383,  -0.1835720986128,  -0.1567913293839,   0.0939352586865,  -0.3969654142857,   0.0030560225714,  -0.1752157509327,   0.1317630559206,   0.0701268687844,  -0.3370341360569,  -0.2307213097811,  -0.1812430918217,  -0.1902077347040,  -0.1590374857187,  -0.1004229560494,   0.0287131424993,  -0.0540816895664,   0.1613137125969,   0.1501696556807,  -0.2549765110016,   0.0480174236000,  -0.1807300746441,   0.0831128060818,   0.0839436128736,   0.1033579856157,  -0.0588721707463,  -0.1644517034292,  -0.1393184959888,   0.2145991474390,  -0.1274701356888,   0.0173677783459,   0.2266863882542,  -0.1562990546227,   0.2865517139435,  -0.1234023198485,   0.1366040855646,   0.1958725601435,  -0.2471399605274,  -0.0772414058447,   0.1027258932590,  -0.0544105619192,   0.1138124316931},
   {  -0.1131906509399,   0.1225932240486,  -0.1409850120544,   0.1105167791247,  -0.2607787251472,   0.1705903410912,  -0.0631816983223,   0.1400984376669,  -0.0276336446404,   0.2179436385632,   0.0934708490968,   0.2391924262047,   0.2392447739840,  -0.1426271051168,  -0.2179361283779,  -0.1807070821524,  -0.1252733618021,   0.0198641382158,  -0.1300016939640,   0.3299434781075,  -0.2675968706608,   0.1596730798483,  -0.0986578017473,  -0.2782862186432,  -0.0468208268285,   0.1460984349251,   0.1109751686454,  -0.0596765875816,   0.1320378482342,   0.0470522642136,  -0.0443821251392,   0.2484497278929,  -0.2283269166946,  -0.2102103829384,   0.0873723104596,  -0.1172499656677,   0.0925079211593,  -0.0568549633026,   0.0910555273294,  -0.0191180855036,  -0.2095919996500,  -0.9361697435379,  -0.2446962147951,  -0.2386223822832,   0.0494222082198,   0.0587914139032,   0.2839143276215,   0.1577424854040,   0.1998684555292,   0.1608572900295},
   {  -0.1772528588772,   0.2589992284775,   0.0757875293493,  -0.0397451706231,  -0.2447515875101,   0.3073649108410,   0.0654876530170,  -0.2399348765612,   0.1925390809774,   0.0137199005112,   0.1042558699846,  -0.0142589071766,   0.1316733658314,  -0.0074795447290,   0.1205280125141,   0.1276217699051,  -0.1943972706795,   0.0545417964458,  -0.0971957594156,  -0.0333622433245,  -0.2580403387547,   0.0107612041757,  -0.1814794987440,   0.2223495244980,  -0.2533407211304,   0.0989488363266,   0.1308466047049,   0.1424095034599,  -0.1270567774773,   0.1559791117907,  -0.0139585351571,   0.0345300547779,   0.0879711881280,  -0.0725123882294,   0.2177196592093,  -0.1627127379179,   0.3068554699421,  -0.0407887101173,   0.1102278977633,   0.0929969921708,   0.0460526011884,  -0.0866486281157,  -0.0645533204079,   0.2154746204615,  -0.3423036038876,   0.1728560626507,  -0.1028707474470,  -0.0183089952916,  -0.0071599702351,   0.0978706777096},
   {  -0.0449305176735,   0.1712334305048,   0.1280263513327,  -0.2091340720654,   0.0734807327390,   0.2719589471817,   0.0219518300146,  -0.2252864390612,   0.2017716318369,   0.1187174022198,   0.0102601358667,  -0.1267562955618,  -0.1292684078217,   0.0972381308675,   0.0175189636648,  -0.2177523970604,  -0.0078890034929,   0.2112592607737,  -0.3712636232376,  -0.1540976315737,   0.2709919214249,  -0.0834716260433,  -0.1508010774851,   0.1446458101273,   0.0770856663585,  -0.4011511504650,   0.0869187563658,  -0.2232935577631,   0.0011208247161,   0.1548195034266,   0.2620707750320,  -0.2259379178286,  -0.0701957345009,   0.1870519667864,   0.0787382051349,  -0.0728941410780,   0.3559237718582,  -0.0263418052346,   0.1067229807377,  -0.1796589344740,   0.1118008643389,   0.2357849478722,   0.0352538526058,  -0.0406606234610,  -0.3226735293865,  -0.0664315894246,  -0.0982390791178,  -0.1084839701653,  -0.1555743515491,  -0.1782647520304},
   {   0.0639091506600,   0.2647397518158,   0.0711182206869,   0.1898611187935,   0.0884038880467,  -0.0391582623124,  -0.0130527466536,   0.0363196730614,  -0.0489471927285,   0.0264087617397,  -0.0472110919654,   0.2147471159697,   0.0100704124197,   0.2313491702080,  -0.6026318073273,   0.0905710756779,   0.0220476314425,   0.1274557560682,  -0.1486941576004,   0.0680451691151,   0.1735917031765,   0.0514969229698,   0.1054626032710,   0.1813492476940,   0.2543970048428,  -0.0438112244010,  -0.0054507371970,  -0.2641314566135,   0.0498653575778,   0.1815344095230,  -0.1497938930988,   0.0104573303834,   0.0933132693172,   0.1483653485775,   0.2329709380865,  -0.0859590023756,   0.0495210886002,  -0.0131599241868,   0.1796247065067,  -0.2188768535852,   0.0148881589994,   0.0003943221236,  -0.1098982095718,   0.1093638464808,  -0.1300369501114,   0.1221843734384,   0.0521022938192,   0.1192662566900,  -0.2953882217407,  -0.1489513814449},
   {  -0.2134699523449,   0.0555333085358,   0.1429395824671,  -0.0536099635065,   0.1506476551294,   0.0359088331461,   0.2299985587597,   0.0076823816635,  -0.0914462357759,   0.2751986384392,   0.4039783477783,  -0.1696853041649,  -0.0393169894814,  -0.2544248402119,  -0.1927590817213,  -0.0097578680143,   0.0872329324484,   0.1138331517577,  -0.1472600847483,  -0.4637346863747,  -0.2029131799936,   0.1529947221279,  -0.0969812348485,  -0.1474644243717,  -0.2236280143261,  -0.1886509209871,  -0.1342159211636,  -0.1354348212481,   0.1662271469831,   0.0421222224832,  -0.0342519357800,  -0.0027082744054,   0.0831586495042,   0.2665054202080,   0.0557077676058,   0.3047912418842,  -0.0145201152191,  -0.2946867644787,   0.0669951811433,  -0.1356697976589,  -0.2714197039604,   0.2874665260315,  -0.1869703084230,  -0.0444789752364,   0.1932293921709,   0.1718588471413,  -0.0524319298565,   0.0290684960783,  -0.0700774192810,  -0.1285717338324},
   {   0.3079507350922,   0.1527611464262,  -0.2276169061661,  -0.1600495129824,  -0.1624789834023,  -0.2696772813797,  -0.0200544614345,  -0.2062036395073,   0.1748262941837,   0.0571185797453,   0.0509006530046,  -0.1224099174142,   0.0137926610187,   0.2667548954487,   0.1326542943716,   0.1088897734880,   0.2750429213047,   0.2093363851309,   0.1483164727688,  -0.2614642679691,  -0.2670462727547,  -0.2768122851849,   0.1744926273823,   0.1504078954458,  -0.1505625844002,  -0.0966427773237,   0.1035917773843,  -0.1706456393003,  -0.0524198338389,  -0.0069887251593,  -0.0533271841705,  -0.1843737512827,   0.1885741055012,   0.1185706704855,  -0.1671224385500,   0.1609271615744,   0.0107656652108,   0.0851561054587,  -0.1981088817120,   0.1737756133080,   0.0174557548016,   0.1896149814129,  -0.0223470665514,  -0.1393212229013,  -0.0737672597170,  -0.1768972426653,   0.0494914874434,  -0.0141392378137,   0.1339583545923,   0.0749362930655},
   {  -0.1783657521009,   0.2282942980528,  -0.0788211673498,  -0.1675956547260,  -0.1023752465844,   0.0640812069178,   0.0466467700899,  -0.1568989753723,   0.2321656346321,  -0.0005309769767,  -0.2281119227409,   0.2826687991619,  -0.0359272360802,  -0.0008943824796,  -0.3855036795139,  -0.1876242607832,  -0.0082677034661,   0.2946932017803,   0.0914558470249,  -0.1642742753029,   0.1436892896891,   0.2011499106884,  -0.1673503220081,  -0.0739745348692,  -0.0720134899020,   0.1078222617507,   0.1096033155918,   0.1154862493277,  -0.0136949149892,   0.1245369836688,   0.1470237523317,   0.2284364253283,   0.2331864982843,   0.1637972146273,   0.0868809446692,  -0.2392516434193,  -0.0628952607512,   0.1927120983601,  -0.0824645832181,  -0.1486493200064,   0.1442178487778,  -0.3142944574356,   0.1509469002485,   0.0924073904753,   0.1659568250179,   0.2046426832676,  -0.0841051936150,   0.0955667868257,   0.0670699924231,   0.1267810463905},
   {   0.1516348719597,   0.0647726282477,  -0.0727181583643,   0.2438079714775,  -0.1046880558133,  -0.1384520381689,   0.0625118687749,   0.2055019289255,   0.1919956058264,   0.0505818501115,   0.2057222127914,   0.2272722870111,  -0.1956467032433,   0.2466385811567,  -0.0099177984521,   0.0602444000542,  -0.1345529258251,  -0.1272440254688,  -0.0317048877478,   0.0267463531345,   0.2421241849661,  -0.1943549513817,  -0.1019421592355,   0.0900557711720,   0.1135298907757,   0.1357473433018,  -0.1405524760485,  -0.1127628162503,   0.1760345101357,   0.2252234071493,  -0.0562886297703,  -0.2282001227140,   0.1463951915503,  -0.0166194811463,  -0.2124505192041,  -0.0982610955834,   0.1358465105295,   0.1184556782246,  -0.0742148905993,   0.2736352086067,  -0.0939998552203,   0.3531399369240,  -0.0541397482157,   0.2532033324242,  -0.2462946325541,  -0.0283416192979,   0.0547897741199,   0.0103193158284,  -0.2070365399122,   0.0027073461097},
   {   0.0008203091566,  -0.0879055559635,   0.1360255628824,  -0.2206470221281,   0.1796075552702,  -0.1247764378786,  -0.1766856461763,  -0.0434374250472,   0.4857746958733,   0.0334127806127,  -0.0290566254407,   0.0236699320376,  -0.0421484261751,   0.2531559467316,   0.1482767462730,  -0.0925284475088,  -0.0561600588262,  -0.1473857313395,  -0.0646353214979,   0.2530787587166,  -0.0906572341919,   0.2078727483749,  -0.1115313991904,  -0.3294112384319,   0.1860400587320,   0.0662926360965,   0.2353639751673,   0.1884292215109,  -0.0869574844837,   0.1121608242393,   0.1408841311932,   0.1312080323696,   0.1885322332382,   0.0168810319155,   0.2612266838551,   0.1788669228554,   0.1702203005552,   0.0909247919917,   0.0801207497716,  -0.1190551295877,  -0.2115702033043,  -0.5148516297340,  -0.0322680808604,   0.1146422252059,   0.1947526782751,   0.1995228677988,  -0.0559198781848,  -0.1924678683281,   0.1974532753229,   0.2031761705875},
   {   0.2652836143970,   0.2516630887985,  -0.0416270382702,   0.1657871603966,   0.1557670831680,   0.2298845797777,  -0.1066740974784,   0.0781176909804,  -0.0686223879457,  -0.0058298972435,  -0.2037186920643,  -0.0934343263507,  -0.3580861389637,   0.0293329115957,  -0.0090536242351,   0.1078976765275,   0.0325598828495,  -0.0947097092867,   0.0583940111101,  -0.0930898338556,   0.0586633533239,   0.1232575550675,   0.1570168137550,  -0.1694151461124,  -0.1541547030210,   0.0102173285559,   0.0596087463200,  -0.1224621087313,   0.2166708260775,  -0.0631768554449,   0.2097983807325,   0.2288016825914,  -0.1975101083517,  -0.0436315424740,  -0.1001107692719,  -0.1016841232777,   0.1806610822678,  -0.0404799766839,   0.0421419255435,   0.1330505311489,  -0.1180481538177,  -0.1044052392244,   0.0232436154038,  -0.1676481664181,  -0.0036419432145,  -0.1172628924251,  -0.1634151935577,   0.1234811171889,   0.1380030959845,   0.2278732806444},
   {  -0.2137413620949,  -0.0849787890911,   0.0259332861751,  -0.0224449578673,  -0.2407176941633,   0.0588310547173,  -0.1999481618404,  -0.2357588410378,   0.2763129770756,  -0.0613929890096,   0.2306126356125,   0.2016029804945,   0.0651659891009,  -0.0880801752210,   0.0042007621378,  -0.1497942507267,   0.2648677229881,   0.0903567522764,  -0.1101017221808,  -0.0649857744575,  -0.0811509788036,   0.0858074501157,   0.1758755445480,  -0.0626130998135,   0.1428429633379,  -0.1682152897120,   0.2656496167183,   0.0894517377019,   0.0351794324815,  -0.2700427472591,   0.0655332282186,  -0.1962786912918,   0.1213721036911,   0.1160709336400,  -0.0690445080400,  -0.2583110034466,  -0.2171096503735,  -0.2570183575153,   0.1005982682109,  -0.2257525622845,   0.0501653216779,  -0.1067868024111,  -0.1726139038801,  -0.0596354603767,  -0.0119556197897,  -0.1157016083598,  -0.2468918561935,  -0.2191427201033,   0.1104817539454,   0.0974872410297},
   {  -0.0228675063699,   0.1246749833226,   0.2556218802929,   0.0765982344747,   0.1043885350227,  -0.0186322554946,  -0.0401945933700,  -0.0540620274842,   0.1777282208204,   0.2574618756771,  -0.0447196960449,   0.0400094017386,  -0.4000163078308,   0.3654583990574,   0.2129524648190,   0.1308302134275,   0.1487224847078,   0.0245933905244,   0.2366367578506,   0.3068563640118,  -0.0096785575151,  -0.1196980848908,  -0.2172702550888,  -0.2498620003462,  -0.0293360408396,  -0.0852816477418,   0.0318392328918,  -0.0074803060852,  -0.2087992131710,  -0.0309832990170,   0.2328194081783,   0.1796680986881,  -0.0950064584613,   0.2915409207344,   0.0704978480935,   0.1108709275723,   0.1459949463606,  -0.0868213623762,  -0.0930375903845,   0.1078800484538,  -0.2821232080460,   0.1738163828850,  -0.1767774522305,  -0.0298006925732,  -0.1345556825399,   0.0896992236376,   0.2257332354784,   0.1706399917603,  -0.1286077499390,   0.0621892660856},
   {   0.0891268700361,  -0.1406946629286,  -0.0733378902078,   0.0068670362234,  -0.2580657601357,   0.2138934880495,   0.1055502146482,  -0.1998604238033,   0.0944959521294,  -0.2352070659399,  -0.0801057517529,  -0.1772482693195,  -0.1891908943653,   0.0508865453303,  -0.0578724518418,   0.0978754535317,   0.2832750380039,   0.0680500864983,   0.1517038196325,   0.1860176175833,  -0.2574461698532,   0.0880943760276,   0.0750677660108,   0.2985358238220,   0.0376334860921,   0.0247826240957,   0.1564857512712,  -0.0543559789658,  -0.2532383799553,   0.1535032242537,   0.1769987344742,  -0.1944985240698,   0.1766013503075,  -0.0862320661545,  -0.0937033370137,   0.1738949418068,  -0.0967971757054,  -0.2423610389233,  -0.1516550183296,  -0.0779691785574,   0.2206298261881,  -0.2456493824720,  -0.1126551181078,   0.0496270991862,  -0.1417102813721,  -0.2937413454056,   0.1348126381636,   0.1288556754589,  -0.1877533197403,   0.1822328716516},
   {  -0.0336224362254,   0.2764640748501,  -0.1315963715315,   0.2865610420704,  -0.2561470568180,  -0.0717005655169,   0.0926421582699,  -0.1767726987600,   0.1307002604008,   0.2181961834431,  -0.4523698389530,  -0.1410569548607,  -0.0717132315040,   0.1705489456654,  -0.0230378638953,   0.1699457615614,  -0.0298202745616,   0.0946195200086,  -0.2081438004971,   0.3117212355137,   0.1171454563737,   0.2123289108276,  -0.2157531082630,  -0.0724253952503,   0.0718621984124,   0.2174384146929,   0.0008407341666,  -0.1397878527641,  -0.1069216057658,   0.1472382098436,  -0.0986393988132,  -0.1566087603569,  -0.2121744900942,   0.0240809824318,  -0.0589619725943,   0.1658211648464,  -0.0967637449503,   0.1086273044348,   0.0161302909255,  -0.1096651703119,   0.0747776702046,   0.2738586664200,   0.1261524856091,  -0.4595634341240,  -0.1336545646191,  -0.1017724722624,  -0.0316754020751,  -0.1831388175488,   0.2453029006720,   0.2296126186848},
   {   0.2426776438951,   0.1238347068429,   0.1154989078641,   0.1578119248152,   0.0628329664469,  -0.0339567214251,   0.0065173390321,  -0.1233442649245,   0.2205813229084,  -0.2813174426556,   0.2055222094059,  -0.0226647518575,   0.1483944058418,   0.0625591203570,  -0.2271108180285,  -0.0724718421698,  -0.0490865036845,   0.2159521281719,  -0.0722645893693,  -0.1977176815271,  -0.1566238999367,  -0.1657704859972,  -0.1032696068287,   0.1810432076454,  -0.0334140919149,  -0.1641314327717,   0.1338304430246,  -0.0487633012235,   0.1586866676807,   0.2036130726337,  -0.1458465605974,   0.0650487616658,   0.1718939244747,   0.2632685899734,   0.1645470857620,  -0.1402178406715,  -0.2108225226402,  -0.2153367400169,  -0.0847513452172,   0.0873917713761,  -0.1590776294470,  -0.3912967443466,   0.0955946221948,   0.0642284825444,   0.2203118801117,   0.0441609472036,   0.2051947265863,   0.1027541235089,  -0.1774817705154,  -0.0572723783553},
   {  -0.1350403875113,   0.1079173982143,   0.1499624699354,  -0.0087566599250,  -0.1424625962973,   0.0749778300524,  -0.1066677719355,  -0.0664986446500,   0.0151065150276,   0.1038392856717,   0.0805310830474,   0.1820292472839,  -0.0571201443672,   0.0933802723885,  -0.2117301821709,  -0.1198106706142,  -0.0042663658969,   0.1852540671825,   0.2114709913731,  -0.0379390418530,  -0.1169467866421,   0.2043162286282,   0.0745008662343,  -0.0943516045809,  -0.0924151763320,   0.1694130003452,  -0.0924342349172,   0.0369585715234,   0.1156937777996,  -0.0952002480626,  -0.1339285075665,   0.2854779660702,   0.0862180590630,  -0.0412177108228,   0.1631791740656,  -0.0923139825463,  -0.2557664215565,  -0.1790251284838,   0.3790997862816,  -0.2171172648668,  -0.0126584060490,  -0.4558974504471,  -0.1037961170077,   0.2043016850948,   0.3122636675835,   0.3443326056004,   0.2157505005598,  -0.1672818809748,   0.1485857963562,   0.0183919444680},
   {  -0.2218143194914,  -0.1197622418404,  -0.0256689395756,   0.1304575204849,   0.0009217753541,  -0.3362484276295,  -0.1300748288631,  -0.1341604441404,   0.1166820079088,  -0.0808428451419,  -0.2403361052275,   0.0805471763015,   0.1914566606283,  -0.0114518506452,   0.1400850266218,  -0.0944042876363,  -0.0492832027376,   0.2727348804474,   0.2219192683697,   0.0671752542257,  -0.1084317639470,   0.2170088142157,   0.2946722507477,  -0.1353462338448,  -0.0628023743629,   0.0316375680268,   0.1073178499937,   0.0258014015853,  -0.1147672012448,   0.2110624015331,  -0.0642833784223,  -0.0859107077122,   0.3013292849064,   0.0196675676852,   0.2035148441792,  -0.2279486507177,   0.1819637715816,   0.0736420676112,  -0.4307129383087,   0.1632885187864,  -0.0409274734557,  -0.5677927136421,   0.1771733015776,   0.1094398722053,  -0.1051885485649,   0.0586026161909,   0.4013765454292,   0.0969267413020,  -0.0940988808870,  -0.2668676376343},
   {   0.0131134605035,   0.0874551013112,   0.0875620767474,   0.1660179346800,  -0.3345359265804,  -0.0583440698683,   0.1419668197632,  -0.0474914275110,   0.0442502349615,  -0.1757069975138,   0.1336527764797,   0.2066377252340,   0.2079102993011,   0.2218043655157,   0.0367909036577,   0.1286828219891,   0.1447812020779,   0.0956969037652,  -0.0577793903649,   0.2578555643559,  -0.0622935444117,  -0.0080951182172,  -0.2325383573771,   0.1805828958750,  -0.0525290705264,  -0.1861069053411,   0.2315784692764,   0.1212549209595,   0.0594964660704,   0.1350542455912,  -0.2848683595657,  -0.0872327610850,   0.0520424619317,  -0.0484813749790,   0.0704290047288,   0.2216044664383,   0.1257753521204,  -0.0280534029007,   0.1077082753181,  -0.1860121339560,   0.3031482398510,  -0.5428562760353,   0.2101626843214,   0.2733517885208,   0.2681282460690,   0.1276901215315,  -0.2831122279167,  -0.0833885595202,   0.0979775115848,  -0.0640049278736},
   {  -0.0965612232685,  -0.1688153147697,  -0.2328314781189,   0.3393338918686,   0.2186041772366,  -0.0567436441779,   0.0472806654871,  -0.0584880784154,   0.0710635706782,  -0.0607597194612,   0.4127684831619,   0.2188856005669,   0.0499497279525,   0.0119758369401,  -0.1150972396135,  -0.1633712798357,  -0.0501567758620,  -0.2636001110077,   0.0138014135882,  -0.0573241822422,   0.0952491089702,   0.0776738300920,  -0.0660947337747,  -0.1440806537867,  -0.1568222641945,  -0.2301863431931,   0.1794503778219,   0.1209358572960,   0.0027777885552,   0.1534755080938,  -0.1271573454142,   0.0728630051017,  -0.0875061973929,  -0.0477470085025,  -0.0299336221069,  -0.1596728116274,   0.2302408963442,  -0.0818662643433,   0.2701403498650,   0.1939668804407,  -0.1893569976091,  -0.2095935046673,  -0.1788818091154,   0.2419881075621,  -0.0099974013865,   0.0101424381137,  -0.2848058044910,   0.0533204637468,   0.0215080007911,   0.2348099797964},
   {   0.0803640559316,   0.0974549874663,  -0.1584207564592,   0.0312320757657,   0.0568632707000,   0.1749051511288,  -0.0892007127404,   0.2065485119820,  -0.0631966739893,  -0.2888299822807,   0.4249785542488,  -0.0958241075277,   0.2777719497681,   0.4206619262695,   0.0904791355133,  -0.0506949946284,  -0.4140324592590,  -0.6635139584541,   0.1120187714696,  -0.4403961896896,   0.0286190006882,   0.5628495216370,   0.0286121796817,   0.0008251204854,   0.2248221337795,   0.2604584395885,  -0.1534876525402,   0.0009046929190,  -0.2124114781618,   0.3009823560715,   0.1842774748802,  -0.0144322458655,  -0.2104630917311,  -0.1433854997158,   0.6049668192863,  -0.0167619679123,  -0.4264066219330,  -0.0650612041354,   0.1955157518387,   0.3305263817310,   0.2253605127335,   0.6631246805191,   0.2026824057102,  -0.3170776963234,  -0.2820133864880,  -0.4644779264927,   0.2950572371483,  -0.2547912299633,   0.1204263865948,   0.4116881489754},
