
#ifndef VBFweights_odd
#define VBFweights_odd    
    // Select all (Ctrl+A), Copy (Ctrl+C), paste to an empty text file (Ctrl+V) and save that file as 'generated_code.h'
    // 
    // Auto-generated header file. Assumes img to be a floating point array
    // of 64 elements (corresponding to an 8x8 b&w image)

    #include <math.h>

    float norma_VBF_odd;
    
inline float activation_VBF_odd_0 (float x, float n) 
{ return x > 0 ? x : 0;}
inline float activation_VBF_odd_1 (float x, float n) 
{ return x > 0 ? x : 0;}
inline float activation_VBF_odd_2 (float x, float n) 
{ return x > 0 ? x : 0;}
inline float activation_VBF_odd_3 (float x, float n) 
{ return x > 0 ? x : 0;}
inline float activation_VBF_odd_4 (float x, float n) 
{ return 1./(1 + exp(-x)); }

    float guess_digit_VBF_odd (const float *img)
    {
    
  // Declare the arrays in the stack
  const float kernel_VBF_odd_0[36][48] = 
  {{  -0.2175591140985,  -0.2301645129919,   0.0812631174922,  -0.2690210342407,   0.1324306726456,  -0.1106897741556,  -0.2993099689484,  -0.0179792642593,  -0.1387581378222,  -0.2277515977621,  -0.1232600137591,  -0.2477112710476,  -0.0676484331489,  -0.4455934464931,  -0.2605473697186,   0.2320756614208,   0.1424915939569,   0.3129932284355,   0.1223520189524,   0.0244094692171,  -0.3193958699703,  -0.0841355621815,   0.1614648252726,   0.1970204859972,  -0.2900472283363,   0.0837116315961,  -0.0333880223334,  -0.0434746891260,   0.1449317634106,   0.1825811117887,  -0.1285910159349,  -0.0602439306676,   0.2530107796192,  -0.1068341359496,  -0.3883737027645,   0.1767963767052,   0.2337126284838,  -0.2448798567057,   0.0478246845305,  -0.0873493775725,   0.1606194823980,  -0.0884406864643,   0.0238874964416,  -0.0285215452313,  -0.3058496713638,   0.1376268118620,  -0.1951113045216,  -0.0908308848739},
   {   0.2160638123751,   0.0337177179754,   0.3213893473148,   0.0148151200265,   0.0831565931439,   0.0813657343388,   0.0893679484725,  -0.1659018695354,  -0.3193161785603,   0.1521304696798,  -0.0578001551330,  -0.1824762076139,   0.0300338249654,   0.1127472743392,   0.1577236503363,   0.0664555504918,  -0.0565821640193,   0.0715366080403,  -0.1537545174360,  -0.0859015211463,   0.1573234945536,  -0.0404906161129,   0.0087909903377,  -0.1067636087537,   0.0939357727766,   0.2539840340614,  -0.2852256894112,  -0.1566621810198,  -0.2324590384960,  -0.1957778036594,  -0.0538773760200,   0.1664634495974,  -0.2581839561462,  -0.0858232006431,  -0.2780640423298,   0.1564508080482,  -0.0090734399855,  -0.3050982356071,   0.2172101289034,  -0.0564628653228,   0.0253161415458,   0.2126224935055,   0.1920631378889,   0.2116589993238,   0.1883263736963,  -0.0258354619145,   0.1947566866875,   0.2740163803101},
   {  -0.1641547083855,  -0.0010977884522,  -0.1609400659800,   0.1038833037019,  -0.1121390089393,  -0.1748778373003,   0.0296830777079,  -0.1267054677010,  -0.0483778305352,   0.0598664395511,   0.0748995766044,  -0.0342036671937,  -0.2505404651165,  -0.2942857742310,   0.0803569182754,  -0.2094408869743,   0.1020197421312,   0.2246599793434,   0.0671712756157,  -0.1044145300984,  -0.2235288023949,   0.0761655643582,  -0.0573553368449,  -0.0772085711360,   0.0439977273345,  -0.1037317961454,  -0.0418613180518,  -0.0442105568945,   0.0281169060618,   0.1031420975924,   0.2505781352520,   0.0091625284404,   0.2433001250029,   0.0014097270323,   0.1535615622997,   0.1330431997776,  -0.0674628093839,  -0.1682716012001,   0.1303285509348,  -0.0256181936711,  -0.1103655770421,   0.2466406673193,  -0.1404134333134,  -0.2715801298618,   0.0848435610533,   0.0712540149689,   0.1013477370143,   0.0960000827909},
   {   0.1051011085510,  -0.1182944178581,   0.1885599792004,   0.1908427774906,  -0.0606785863638,   0.0109540056437,   0.3246400058270,  -0.0053028278053,   0.0723072439432,  -0.1046996712685,   0.1205395162106,  -0.1617401540279,   0.1149542853236,  -0.0534992888570,   0.0713095143437,   0.1546324193478,  -0.2072796672583,  -0.2613751590252,  -0.1825238317251,  -0.3696253299713,   0.0647535845637,  -0.2459745109081,  -0.1374204456806,   0.2455320507288,  -0.0489324890077,  -0.0370442867279,  -0.2677597403526,  -0.2111446559429,  -0.2619181275368,  -0.0179533921182,   0.2573393881321,  -0.3270071446896,  -0.2739910185337,   0.2588894367218,  -0.0363123714924,   0.0257322937250,   0.2630501389503,  -0.1676400005817,   0.2953587174416,   0.2697557806969,   0.2972351610661,  -0.1500901877880,   0.0079094870016,  -0.0899005755782,   0.0703218355775,  -0.3488801121712,  -0.0282522011548,  -0.0622776709497},
   {  -0.1161645203829,   0.2765727937222,   0.0096927070990,  -0.1315762400627,  -0.0898947045207,   0.0887225344777,  -0.0543015934527,   0.2400764673948,   0.0896788015962,  -0.2577143609524,  -0.1317709535360,   0.1837572157383,  -0.0367018580437,   0.2819955050945,  -0.0275431089103,   0.1798557937145,   0.0509470291436,   0.1353968083858,   0.0979824736714,   0.0517645142972,  -0.0274747125804,  -0.1030617207289,   0.1512179225683,   0.1497517377138,  -0.2028287053108,   0.2559150457382,   0.0235247947276,  -0.0931683778763,   0.1825747042894,   0.2026049494743,   0.1556150019169,  -0.2080209702253,   0.0443700961769,   0.1067325919867,   0.0313352495432,   0.2000437527895,   0.2787076234818,  -0.1513709574938,  -0.1626252979040,  -0.1341860145330,   0.1236790716648,  -0.0534431487322,  -0.2936528623104,   0.1482461541891,  -0.1423263102770,  -0.1105176433921,  -0.1016905903816,   0.1957708299160},
   {   0.2083770185709,  -0.0482668280602,   0.1429173350334,   0.0735448226333,   0.2221055775881,   0.2673854231834,  -0.1216501668096,   0.0994390249252,  -0.2589953839779,   0.0411542430520,  -0.0368784777820,  -0.0680441483855,  -0.2329750806093,   0.2773479521275,   0.0625627860427,  -0.0788457691669,   0.1173406913877,  -0.0194793790579,  -0.2543039917946,   0.2190475612879,   0.2313794344664,   0.3055890798569,   0.1287433952093,  -0.0712506249547,   0.2040022760630,  -0.1093681454659,  -0.1216813176870,   0.0108908563852,  -0.2078863084316,   0.1252722591162,   0.2900539636612,   0.2261349260807,  -0.0233211815357,   0.1839852929115,   0.0366367474198,   0.2310591936111,  -0.1611810475588,   0.0402462929487,   0.0307992361486,   0.0247495956719,   0.1105284392834,  -0.3007819652557,  -0.1797506660223,  -0.0410272143781,  -0.1067884862423,  -0.0908515602350,   0.0712288990617,  -0.0101888580248},
   {  -0.1855270117521,   0.1409467905760,   0.1789535284042,  -0.0731147453189,   0.0688557922840,   0.0388644859195,  -0.2355464398861,   0.0513856485486,   0.1193577349186,  -0.0995209664106,  -0.2201003730297,  -0.1227438449860,  -0.0356899946928,  -0.1165399923921,  -0.1382656693459,   0.2363628000021,  -0.0156957004219,   0.0086179804057,  -0.0276453848928,   0.2451178878546,  -0.1693857163191,   0.0230925977230,   0.0360898897052,  -0.1587238162756,   0.1713737249374,   0.1989790946245,  -0.0529836267233,   0.1841040998697,   0.0592764951289,   0.1824807673693,   0.0122360428795,  -0.0581310987473,   0.0479035489261,   0.1160314977169,   0.2276619076729,   0.2361532449722,   0.0083052441478,  -0.2391746044159,   0.0261960998178,   0.0415687337518,  -0.2084841579199,  -0.2531239688396,  -0.0169818084687,  -0.1896163672209,  -0.1446809172630,  -0.0646058991551,  -0.2049560248852,  -0.0940033495426},
   {   0.0270132850856,   0.0123498542234,   0.2097690701485,   0.0888551399112,   0.0954763889313,   0.0871951654553,   0.1037356555462,   0.1849092245102,   0.0753187611699,  -0.3086237609386,   0.1466414779425,  -0.1161169111729,  -0.4768284261227,  -0.3570442497730,  -0.1053233370185,   0.1065946370363,   0.1845999211073,   0.2013597637415,   0.1476830244064,  -0.0460482574999,  -0.3317764103413,   0.0702760592103,  -0.2414892166853,   0.2129779607058,  -0.3123973906040,  -0.1089974120259,  -0.0463429242373,  -0.1082715913653,  -0.1091411411762,   0.1455702632666,  -0.0720242559910,   0.0264373663813,   0.1659816056490,  -0.1571183651686,   0.0311134848744,  -0.1730381995440,   0.1095975413918,   0.0950280427933,   0.0586675629020,   0.0793827474117,  -0.1902157068253,   0.0832516849041,  -0.0000849068747,  -0.1256101280451,  -0.1184084862471,  -0.0596804283559,   0.1196033433080,  -0.0619212239981},
   {  -0.3709856867790,   0.2587253451347,  -0.0299715697765,   0.2091245651245,   0.2803230583668,  -0.2618615329266,  -0.0512058138847,  -0.3670132756233,   0.3856294751167,  -0.0840649753809,  -0.0929908826947,   0.0030308642890,  -0.1984483152628,  -0.0296390354633,  -0.0406364500523,  -0.2844441235065,  -0.0581559836864,  -0.0015074185794,  -0.3633764088154,  -0.1571868062019,  -0.1060781776905,  -0.2813950181007,   0.3185558617115,  -0.0011194978142,   0.1990316659212,   0.3045182824135,  -0.0117175206542,  -0.1360245496035,   0.3781635165215,  -0.0985321775079,   0.1238649562001,  -0.3821829557419,   0.0581527575850,  -0.2129613161087,   0.0311889983714,   0.3084232211113,  -0.1136753708124,   0.2841022312641,  -0.0366731286049,  -0.0029901135713,   0.1915286183357,  -0.1069303527474,   0.2442346662283,  -0.0709516480565,   0.3840665817261,  -0.1659156084061,  -0.0095548518002,  -0.2661039531231},
   {  -0.0237832050771,   0.2745097875595,  -0.1309396475554,  -0.3620425462723,   0.2725332379341,  -0.1880099922419,   0.1061176955700,   0.3747251629829,   0.2486238032579,  -0.0155176408589,  -0.0882698819041,  -0.0759429037571,  -0.4457519948483,   0.1725434362888,   0.0843673422933,  -0.0376179814339,  -0.3041542172432,  -0.2164990901947,  -0.0334154851735,   0.1794597655535,  -0.0907502099872,  -0.3344900012016,  -0.3142819106579,  -0.1840272098780,   0.0419726073742,   0.2138145416975,   0.1658144444227,  -0.0389396622777,  -0.1466317176819,   0.1294707953930,  -0.1913907825947,  -0.0912667289376,   0.2782853543758,  -0.2741168737411,  -0.1123776435852,   0.0029772683047,   0.0783104896545,  -0.0288288220763,  -0.0067821587436,   0.1498521864414,   0.0206344202161,  -0.2289948165417,  -0.0315046571195,  -0.0566626489162,   0.2542687654495,  -0.0007009918336,  -0.1353375464678,  -0.2554457187653},
   {   0.0234331488609,  -0.0500986129045,   0.0558178685606,   0.3029945492744,  -0.2190105021000,   0.0475068576634,   0.0520531050861,   0.0259464588016,   0.1482184231281,   0.1260726600885,  -0.1735862493515,  -0.0218836441636,  -0.0356475934386,  -0.0934576094151,   0.2050632387400,   0.0386242792010,   0.0568729974329,  -0.0189606249332,  -0.2752571105957,  -0.2070170342922,   0.0431108139455,  -0.1529359072447,   0.0886153504252,  -0.2028818130493,  -0.2929033339024,  -0.1292730122805,  -0.0150340031832,   0.1214454770088,   0.0992562845349,  -0.1436877846718,   0.3102372288704,  -0.0778733938932,   0.1824465841055,  -0.0614315941930,   0.3080558776855,  -0.2326951920986,   0.1796125024557,   0.2713608741760,   0.1284929215908,  -0.1094705983996,  -0.0163321699947,   0.0166330859065,  -0.2024419605732,  -0.0258381087333,   0.2315662652254,  -0.1989596188068,   0.2295731455088,  -0.2157455086708},
   {   0.1501858234406,  -0.1347021162510,   0.0840062946081,   0.2644395828247,  -0.1126399785280,   0.1437958925962,  -0.2178038805723,  -0.0695200487971,   0.2003948837519,   0.2609004974365,  -0.0475900322199,  -0.0579774975777,   0.3853607177734,   0.0023567015305,   0.3599122762680,  -0.0207719486207,  -0.0941652432084,   0.2194036096334,  -0.2002008855343,   0.0766368508339,  -0.1682374775410,  -0.0678619369864,   0.3121756315231,   0.1953801214695,  -0.2347148954868,  -0.1301387995481,   0.0935256481171,  -0.2939659953117,   0.1193825304508,  -0.1558429300785,   0.1186387687922,  -0.0451899841428,  -0.0320024229586,   0.2769684195518,   0.2295604944229,   0.0655592530966,   0.2578575611115,   0.3148317635059,  -0.1322840154171,   0.1243167817593,  -0.0411752313375,  -0.0183486174792,  -0.3588375151157,  -0.0540190897882,  -0.2474053353071,  -0.0170912016183,   0.0544542260468,  -0.2453216761351},
   {   0.1162708997726,  -0.0499184690416,   0.1719167381525,  -0.1635717004538,  -0.1763308346272,  -0.0402503050864,   0.0778102502227,   0.1197504550219,  -0.1206545978785,  -0.1611053794622,  -0.1442113220692,  -0.1508948504925,  -0.0263065081090,  -0.2328716963530,   0.1220643520355,  -0.0127196665853,   0.1384428590536,  -0.1868841201067,  -0.1843192577362,   0.1078940331936,  -0.1569019556046,  -0.2603036463261,  -0.0285781007260,   0.1983188092709,  -0.0698549374938,  -0.2377426773310,  -0.2198971211910,  -0.0433406606317,   0.0445469357073,   0.2116013914347,  -0.0600754022598,   0.2530380785465,  -0.0029533798806,   0.0247189737856,  -0.0618972592056,  -0.0374178476632,  -0.0108627136797,   0.1851612627506,  -0.2365750074387,  -0.1266029477119,  -0.1465507596731,  -0.0197921544313,   0.0103895086795,   0.0817656889558,   0.2042549848557,   0.2777466475964,   0.1736320555210,  -0.1704944670200},
   {   0.0865527391434,  -0.1367241442204,  -0.0102182626724,  -0.0051359063946,   0.0164637919515,   0.1264793872833,   0.1031624600291,   0.0925558730960,   0.1047910377383,   0.0530133098364,  -0.0930538326502,  -0.2358666658401,   0.1229257583618,   0.0273389238864,  -0.1635431349277,  -0.3048919141293,   0.0481441505253,   0.2027140855789,   0.0792312100530,   0.1447223871946,   0.2656953036785,  -0.2431207746267,   0.0165676269680,   0.1989508867264,   0.0977692008018,   0.0594495199621,   0.2114038318396,  -0.0738508626819,  -0.0218792948872,   0.1124991178513,   0.1443683654070,  -0.1521444767714,  -0.0455970354378,  -0.1157014369965,   0.0915822908282,   0.0344787351787,  -0.0418796464801,   0.1067555844784,  -0.1795175522566,  -0.1016286313534,  -0.0651906207204,   0.0302243568003,   0.0073952041566,  -0.0849461853504,   0.2426804155111,  -0.1188957467675,   0.0637615472078,   0.2221785187721},
   {   0.1586991697550,   0.4421138763428,   0.0434741787612,   0.0752536430955,   0.2108514755964,  -0.1360799968243,  -0.0221557337791,  -0.0560287795961,   0.0780427306890,  -0.0677867233753,   0.0594900660217,   0.0163981970400,  -0.1767280995846,  -0.2069050371647,  -0.2740425765514,   0.2135945409536,  -0.0405651330948,  -0.0752527117729,   0.3266059756279,  -0.2570014595985,  -0.1053751856089,  -0.1909556984901,  -0.3371915817261,  -0.4019927382469,  -0.1178730279207,  -0.2542766928673,  -0.2245597839355,  -0.2207861691713,  -0.2602875828743,  -0.1337340176105,   0.1894504129887,   0.3051049411297,  -0.0001607562299,  -0.2263779193163,   0.1081799939275,   0.2227465510368,  -0.1508289724588,   0.0953191667795,  -0.0137277469039,   0.0287635531276,   0.1701983809471,  -0.3416253328323,  -0.1165748089552,   0.1876556426287,   0.2111137211323,  -0.0499084405601,  -0.0471018590033,   0.0207926202565},
   {   0.2613950371742,  -0.0447783805430,  -0.0746481865644,   0.0687999799848,   0.1199270784855,  -0.0316038317978,  -0.0280444175005,  -0.1660715192556,  -0.0190262813121,  -0.4088421761990,  -0.0535303093493,  -0.1856281608343,  -0.2693653404713,  -0.1739646792412,   0.0310803931206,  -0.1061321124434,  -0.1910397857428,  -0.1194690689445,   0.2461080253124,  -0.3396357595921,  -0.0483974106610,  -0.3484379351139,  -0.1835714429617,   0.0456369742751,  -0.1593411117792,  -0.1747943162918,   0.1860128790140,  -0.2431188672781,   0.2324783056974,  -0.1491979956627,   0.0967469662428,   0.1157478243113,   0.0897106304765,  -0.0283249989152,   0.2246811240911,  -0.1050289645791,  -0.1815170049667,  -0.1139823645353,  -0.1579784154892,  -0.1343957185745,   0.0554545149207,  -0.3026619553566,  -0.1337258368731,   0.3607204258442,   0.1726684272289,  -0.3825577199459,  -0.1192252635956,   0.1961623877287},
   {   0.0594080574811,   0.0927498489618,  -0.1958315670490,   0.1501976996660,   0.1621152609587,  -0.1325311958790,   0.2067210525274,   0.0697026625276,  -0.2242295145988,   0.0971453115344,  -0.2344529330730,   0.0072423014790,   0.1474622488022,   0.0624648220837,  -0.0072966096923,   0.1831587553024,   0.2396934479475,  -0.0602465681732,   0.0112612759694,   0.0314252413809,  -0.1999989897013,  -0.0595204830170,   0.2304997295141,  -0.1650257408619,   0.0700300410390,   0.1589241623878,  -0.1938201487064,  -0.2271721065044,   0.2371269613504,  -0.1632921397686,   0.1724812239408,  -0.1695956587791,  -0.1426173597574,  -0.1914373487234,  -0.0235177408904,  -0.0294288098812,   0.0829842165112,  -0.1756219565868,   0.2244719266891,   0.0472727976739,  -0.1007531061769,  -0.1498760432005,   0.1704422682524,   0.0493976026773,  -0.2643838524818,   0.1390828788280,   0.1069095805287,  -0.1623236238956},
   {   0.1287372261286,   0.1231186315417,  -0.0167896728963,  -0.0278045739979,   0.0911592692137,   0.0869432911277,  -0.1892630755901,   0.2281363904476,  -0.2370066493750,  -0.1771101504564,  -0.0589999593794,   0.0024798472878,   0.2197700291872,   0.0126639790833,  -0.3145597875118,   0.2285792231560,  -0.1435593664646,   0.2790059447289,  -0.0309204068035,   0.3194949626923,  -0.1591755747795,  -0.1640883088112,  -0.1301878094673,  -0.1478288024664,   0.1079518347979,   0.0710468590260,   0.0576166287065,  -0.0770137310028,  -0.0808882117271,  -0.0681899264455,   0.2088614702225,  -0.1176808252931,   0.0041953525506,  -0.1276503950357,   0.1042196750641,   0.1188962236047,  -0.0574475452304,   0.1612832695246,   0.1753470748663,   0.1001085042953,   0.1556326448917,  -0.1476472616196,   0.0968512743711,   0.0727068111300,  -0.1360410153866,   0.0320833213627,  -0.1273648738861,  -0.1013470739126},
   {  -0.0014438980725,   0.2744393646717,   0.3052871227264,  -0.0380953773856,   0.2248048782349,  -0.2986880540848,  -0.1021068021655,  -0.2470788210630,  -0.2127349525690,  -0.1566498279572,   0.3135753273964,   0.0530219674110,  -0.0759130418301,  -0.2815084457397,   0.1487330794334,  -0.0388355739415,  -0.3761354982853,   0.0030983355828,  -0.0363143421710,  -0.2851769924164,  -0.0903074890375,  -0.2619320154190,  -0.3723435401917,   0.1017371565104,  -0.0066472273320,   0.0831245929003,  -0.1169571578503,  -0.0551065132022,  -0.0115087702870,   0.1623696535826,   0.1029665693641,  -0.3108772039413,   0.3713371455669,  -0.2161022424698,  -0.4093433320522,   0.0366324707866,   0.0453481450677,   0.0857219472528,   0.4281066954136,   0.0540187768638,   0.3726246953011,   0.2861643433571,  -0.3379767239094,   0.0006177488831,  -0.0575396530330,   0.0497980304062,   0.0627714321017,   0.1885692477226},
   {  -0.2582651078701,  -0.1975246369839,   0.1439568847418,   0.1034288704395,   0.0380245074630,   0.2093949615955,   0.2287933230400,  -0.1301700770855,   0.1283298134804,  -0.2983860075474,  -0.0687582865357,  -0.1101790070534,   0.2032535523176,  -0.2470706105232,  -0.1228831410408,  -0.0528436303139,  -0.1107100099325,  -0.0776001140475,  -0.0562944300473,   0.0958165898919,   0.2201409488916,   0.1618061512709,  -0.1284850239754,  -0.0710470750928,  -0.2309053242207,  -0.0214869491756,   0.1773170977831,  -0.2851060330868,  -0.1721991747618,   0.2068473249674,   0.2320964932442,   0.0148382624611,  -0.1069560497999,  -0.0753232389688,   0.1945073008537,  -0.1845745593309,   0.0547159053385,  -0.0770304128528,  -0.1751366853714,   0.1182039082050,   0.0269653666764,   0.0333098918200,  -0.1319872140884,  -0.2022037655115,  -0.0588359721005,  -0.0807252749801,   0.1419313699007,  -0.0521332547069},
   {  -0.1875787079334,  -0.1184524744749,   0.1443830430508,   0.0507196523249,   0.1195942088962,  -0.1743922084570,   0.2125218510628,   0.0003783215070,  -0.2009503245354,  -0.2504673600197,  -0.1924926489592,  -0.1550231873989,  -0.0156486108899,  -0.0212729331106,  -0.1137046292424,  -0.2414111644030,   0.0071090548299,  -0.2123071253300,  -0.1877318620682,  -0.0231974869967,   0.1280625015497,   0.0489216372371,  -0.0439502410591,  -0.0183839388192,  -0.0149449044839,  -0.1854402422905,  -0.0049954759888,   0.0982658565044,   0.0687777474523,  -0.3025535345078,  -0.0409445799887,  -0.0699828416109,  -0.1011404469609,  -0.1320432871580,  -0.1251413226128,  -0.0206349007785,  -0.1177302822471,  -0.0492183789611,   0.0595877058804,   0.0819686204195,  -0.1372152864933,  -0.2330132275820,   0.2014797329903,  -0.1300315707922,  -0.1153922975063,  -0.1133190765977,  -0.1629825383425,  -0.0420974008739},
   {  -0.0558813437819,   0.0526315793395,   0.0416347794235,  -0.0497676283121,   0.0587062947452,   0.1991367042065,   0.0114906141534,  -0.0035709047224,  -0.0314109474421,   0.3162209987640,  -0.1401216089725,  -0.0457775071263,   0.2213075459003,  -0.1311544626951,   0.2443837970495,  -0.1609930396080,  -0.0981318056583,   0.2698787450790,   0.0137103209272,  -0.1210922747850,  -0.1589742749929,   0.1402289420366,  -0.1587907224894,   0.1782215535641,   0.0556820482016,  -0.1945131123066,   0.0748696997762,  -0.2208219766617,  -0.2838932573795,  -0.1079296246171,  -0.0752472355962,  -0.0409318208694,   0.0530267246068,   0.2877929806709,  -0.0001393286511,  -0.1744720637798,   0.1009928584099,  -0.0057589062490,  -0.0710816681385,  -0.0742012113333,   0.1272466033697,  -0.1646237373352,  -0.1937101781368,  -0.0662952587008,   0.1950709223747,  -0.1421877890825,   0.2343859225512,  -0.1204904913902},
   {  -0.2894326448441,  -0.0206952691078,   0.1668238937855,  -0.1321278959513,  -0.2401981502771,  -0.0490839332342,   0.2247770130634,  -0.0513412728906,   0.1885976940393,  -0.2301863580942,  -0.2172152549028,  -0.2622444927692,  -0.2617852985859,  -0.2306604385376,   0.0871443673968,  -0.0773053914309,  -0.1329351812601,  -0.1571213901043,   0.2805337309837,  -0.2345655560493,  -0.2098902761936,  -0.2381386756897,  -0.2050700932741,  -0.2791830897331,  -0.1811169236898,   0.0559087507427,   0.1744739860296,   0.1748580336571,  -0.1499721258879,  -0.2919988334179,  -0.2241836339235,   0.1430941224098,   0.0143405534327,   0.1548975855112,  -0.0252432990819,  -0.1998321115971,   0.1903518885374,   0.0365480668843,   0.1048857346177,   0.0620381794870,   0.1825131177902,   0.0155005399138,  -0.0438269861042,  -0.1159428432584,   0.0879623368382,   0.0051582488231,   0.0525404848158,   0.0977653712034},
   {   0.3141043484211,  -0.0307558383793,  -0.0022367029451,   0.0063891196623,   0.0731289535761,  -0.2913761138916,   0.0525127202272,  -0.2083782404661,   0.1291789412498,   0.0891081392765,   0.2379547506571,  -0.3029701411724,  -0.1574368327856,  -0.2210049033165,  -0.1004374027252,  -0.0960979610682,  -0.1707938313484,   0.1119597554207,   0.2195453494787,  -0.0056438203901,  -0.0421107746661,   0.1373264938593,  -0.0138143775985,   0.0502348206937,  -0.1247819736600,   0.1422436237335,   0.2033115774393,   0.1554257124662,   0.1560064107180,  -0.0882473438978,   0.1887921392918,  -0.0079234158620,  -0.1381379365921,  -0.0711090341210,  -0.2447790503502,   0.2640506923199,   0.1577646136284,   0.1894634366035,   0.0681575611234,   0.0327133946121,   0.0115400571376,   0.1844954192638,   0.1799659579992,   0.0800811201334,   0.0783031210303,   0.0913190543652,   0.1887417137623,   0.2918975055218},
   {   0.4764555990696,  -0.1079626530409,  -0.0844876021147,   0.5922663211823,   0.3745426237583,   0.3010364770889,   0.6563376784325,  -0.0841775164008,  -0.3875778615475,  -0.1331978142262,   0.5708388686180,   0.0105196740478,   0.3571487069130,  -0.1056173220277,   0.2704320549965,  -0.1280502527952,  -0.1496424078941,  -0.0196589920670,  -0.2375796437263,  -0.3262270390987,   0.0841235071421,  -0.2115064412355,  -0.0290016066283,   0.6737821102142,   0.1739523857832,   0.1257266700268,  -0.1080634221435,   0.0371306091547,   0.1519937813282,   0.2539755105972,  -0.1708297580481,   0.0072465683334,  -0.3076752722263,  -0.2598311603069,  -0.1254315674305,  -0.0931804552674,   0.4223227500916,  -0.0024980944581,   0.4049241840839,   0.6711587905884,   0.3910735249519,   0.0809333175421,  -0.4745021462440,  -0.2895632982254,   0.2301907837391,  -0.2560421526432,  -0.2290138751268,   0.2723390460014},
   {  -0.3209110200405,  -0.2193171381950,  -0.0531054399908,  -0.1059638112783,   0.0308713484555,  -0.0393880270422,   0.1123279854655,   0.1619385480881,   0.2271762937307,  -0.2694162428379,  -0.3365903198719,  -0.1432419419289,  -0.0501700341702,  -0.2648136317730,   0.1083543375134,   0.2585504651070,   0.1092900857329,  -0.4996733367443,  -0.3331575691700,   0.4400900602341,  -0.0798987075686,  -0.0943109318614,  -0.2578700780869,  -0.0346003659070,  -0.0329752042890,  -0.2046905308962,   0.0085290800780,   0.1917906850576,   0.2192808836699,   0.0326067395508,  -0.2165077179670,   0.0164738148451,  -0.1916128993034,   0.0478559136391,  -0.2352769374847,  -0.1747013777494,  -0.0188876297325,   0.2522486448288,   0.0203627068549,   0.1484525650740,  -0.0479339547455,   0.1682377755642,  -0.0371254161000,   0.3786591887474,   0.0193187147379,   0.2907533347607,   0.0770937278867,  -0.1753784865141},
   {  -0.2871698439121,  -0.2868880033493,   0.2107679843903,   0.0841506049037,  -0.2851725816727,   0.1823270320892,   0.0590811558068,   0.4263259172440,  -0.0337131470442,   0.1391651332378,   0.0413578189909,  -0.2735073566437,   0.1155593544245,  -0.0216865614057,   0.1704847216606,   0.2716723382473,   0.2613916993141,   0.2620372772217,  -0.1681677997112,  -0.0342691801488,  -0.3047983944416,  -0.3334178030491,   0.2353869080544,  -0.0498209483922,   0.1525353342295,   0.1742619127035,   0.2004820406437,  -0.0381149463356,  -0.3295406103134,  -0.2650526165962,   0.1370286643505,   0.2010354846716,   0.2557531297207,  -0.2304384708405,  -0.1280091851950,  -0.2283427715302,   0.0600611604750,  -0.3329158127308,  -0.0771152675152,  -0.0550967752934,   0.1651496142149,  -0.1548626720905,   0.2357663363218,   0.3421452343464,  -0.0002705109073,  -0.2320312410593,  -0.0666810274124,   0.0041811172850},
   {  -0.0920002907515,   0.1103190556169,   0.0858181342483,  -0.0109285274521,   0.2006670087576,   0.1965290606022,  -0.0489350073040,   0.2590644061565,  -0.2112319171429,  -0.1096392124891,  -0.2216196656227,  -0.0787917152047,  -0.0471865907311,   0.0454805381596,  -0.0333825387061,   0.2530951201916,  -0.0883949846029,   0.0093392468989,   0.0036889226176,   0.1847797334194,   0.1012491211295,  -0.1609969288111,  -0.1144092306495,   0.1900728940964,   0.2157745510340,   0.1333631724119,  -0.1798052489758,  -0.2169127315283,   0.0656229704618,   0.0953896120191,   0.1803565174341,  -0.0050478656776,  -0.0644655376673,   0.0890053883195,  -0.1493911296129,  -0.0040086256340,   0.1262321919203,  -0.0822045728564,  -0.1136273443699,  -0.1185053810477,  -0.1412883698940,  -0.2288877665997,   0.2280906885862,  -0.1447464525700,  -0.2487459182739,   0.2479913234711,   0.0059347487986,   0.1894373297691},
   {   0.0830089598894,   0.2268942445517,  -0.2129608094692,   0.0418037846684,  -0.0302071012557,   0.1793917119503,   0.0531209297478,   0.1648055315018,  -0.0993287041783,  -0.1866239607334,  -0.0409040637314,   0.0290375277400,   0.2178569734097,  -0.2029336988926,   0.2023884505033,  -0.0267677046359,   0.1122558042407,  -0.2141200751066,   0.0835985317826,   0.0895752683282,   0.0562682561576,   0.2336003780365,  -0.1083701178432,  -0.0794091448188,   0.0787179619074,  -0.1768290996552,   0.0710261240602,   0.0757880285382,  -0.2698524892330,   0.0347385145724,  -0.0284125600010,   0.0474299900234,  -0.0332992821932,   0.1790349036455,   0.1277236640453,  -0.1380244046450,  -0.0718899369240,  -0.1247185617685,  -0.1258074939251,  -0.1479507088661,  -0.0522019676864,  -0.2223660796881,  -0.2455573678017,   0.1463318318129,   0.2853392660618,   0.1640801131725,  -0.3384665250778,   0.1920277625322},
   {   0.2352879941463,  -0.0495622009039,  -0.0494090802968,   0.1232136860490,   0.0395727045834,   0.0822306200862,  -0.0854899883270,  -0.2368896901608,  -0.2986287176609,  -0.2013008296490,   0.1374278068542,   0.1893324255943,  -0.3822249770164,   0.0435913279653,  -0.1372428983450,   0.1604869514704,  -0.1258592158556,   0.0293822940439,   0.2834402620792,  -0.1563691049814,   0.2389343380928,   0.2599141001701,   0.1691487729549,   0.0636469572783,   0.1372731477022,   0.2407873868942,  -0.2070666700602,  -0.1685890853405,   0.0554574131966,  -0.0361739583313,  -0.0246905311942,   0.1329103112221,   0.1241326257586,   0.0201063547283,  -0.2264998853207,   0.0047571840696,   0.2510707080364,  -0.0349652022123,   0.0291588511318,   0.1138735637069,  -0.1519058048725,   0.1083544865251,  -0.1429100632668,  -0.1198141947389,   0.0922607555985,   0.1046621873975,   0.0583730265498,   0.0618856847286},
   {   0.0200044661760,   0.2218952327967,  -0.2337176501751,  -0.1941854208708,   0.1219599768519,  -0.0966389104724,   0.1905456334352,  -0.0967994630337,  -0.0401697941124,  -0.2934764325619,  -0.0997637733817,  -0.2275963723660,  -0.1384248435497,  -0.1152093112469,   0.1003483533859,   0.1975800246000,   0.0453232526779,  -0.0084355007857,   0.1850896179676,  -0.1160121113062,  -0.1443743556738,  -0.1388023644686,  -0.0633836165071,  -0.0084525011480,  -0.2883628010750,   0.1235117614269,  -0.0667622834444,  -0.0577453710139,  -0.2971970736980,   0.0018092668615,  -0.1298426240683,   0.2914978563786,  -0.1453668028116,   0.0474992617965,   0.0276370570064,  -0.1334973275661,  -0.1816594302654,  -0.2309727221727,   0.2338522225618,   0.2224149703979,  -0.0224057473242,   0.2350530475378,  -0.1086951270700,   0.2059469521046,  -0.0736928880215,  -0.1779839694500,  -0.2080054432154,  -0.1845553070307},
   {  -0.2076176106930,   0.1681517213583,   0.2115703225136,  -0.0114127062261,  -0.3265522122383,  -0.0911623761058,   0.1844149827957,  -0.0643496066332,  -0.1874328553677,   0.1579539775848,   0.1332497298717,  -0.1123502179980,  -0.1305144876242,   0.0446475259960,  -0.0896773710847,  -0.2629513442516,  -0.1715832352638,  -0.2576504349709,  -0.1945316195488,  -0.0986861437559,   0.2057432681322,  -0.0524873323739,  -0.2700874507427,   0.0679704099894,   0.1105231642723,  -0.2173859328032,   0.0754859298468,   0.0023805280216,  -0.2301172763109,   0.1463233828545,   0.1151194795966,   0.1159522980452,  -0.0589914508164,   0.0714682787657,  -0.3426880538464,   0.3372940719128,  -0.0420832447708,   0.1520399451256,  -0.0904561206698,   0.0420941598713,   0.3480509519577,   0.2439387589693,  -0.0023291436955,   0.0777556002140,   0.0408473946154,  -0.2218619287014,   0.0817010924220,   0.0689222514629},
   {   0.0792274326086,   0.1979729235172,  -0.3396753966808,   0.3310921490192,   0.1317281275988,   0.1001434028149,  -0.2542022764683,   0.0898183956742,  -0.1586374342442,   0.1268802285194,  -0.1621347069740,   0.2813372313976,   0.1354782283306,   0.1411977261305,   0.1316616088152,   0.2406822293997,  -0.2315042316914,  -0.1400957405567,   0.0180173236877,  -0.1221255511045,  -0.1102785244584,   0.1626303642988,  -0.0580509789288,  -0.1244300082326,   0.2133950293064,  -0.1508294194937,  -0.2085946053267,   0.1653373092413,   0.0228799413890,  -0.0504469983280,   0.1555373817682,   0.0194538421929,   0.1100664883852,   0.0775881484151,  -0.0029895179905,  -0.1300526112318,  -0.2121565788984,   0.1482005715370,  -0.0520811341703,  -0.1624145656824,  -0.1301330327988,   0.0766475051641,  -0.1325891762972,   0.1305933743715,  -0.2755884826183,   0.2280432432890,  -0.1246933490038,  -0.1982510387897},
   {  -0.0581430159509,  -0.2890506982803,  -0.2354952096939,   0.0193712562323,  -0.0257687158883,   0.2933576405048,   0.0606196783483,   0.3728221952915,  -0.3324136137962,  -0.2505624890327,   0.2015335708857,   0.0005096698878,  -0.0748963430524,   0.0255081895739,   0.0543980114162,   0.2377569377422,   0.3670807778835,   0.0894834771752,   0.2546136379242,   0.2269916832447,   0.1734341084957,   0.0925668925047,  -0.2027424275875,  -0.0254602972418,  -0.0580509081483,  -0.1022789850831,   0.1829108148813,  -0.0067189056426,  -0.0659967064857,   0.1723085939884,   0.1772931814194,   0.1672080159187,  -0.3425917029381,  -0.0490944758058,  -0.1579706817865,   0.0540076866746,   0.1284872442484,  -0.1539318710566,  -0.1778336167336,   0.1439314633608,   0.0490804724395,  -0.0571270138025,  -0.0930463373661,  -0.2161261290312,   0.1486558765173,   0.0788139700890,  -0.1271357387304,  -0.1915296018124},
   {   0.1735928654671,  -0.0269036535174,  -0.2234937995672,   0.0577610954642,  -0.2468915581703,  -0.0631425902247,  -0.1115280911326,  -0.1673759073019,  -0.0535360984504,  -0.0304143670946,   0.0284092500806,  -0.1096779331565,   0.1794584989548,  -0.0384336300194,   0.1851083487272,  -0.0425540730357,  -0.2854200005531,   0.1519771069288,  -0.2048085033894,   0.0570279918611,   0.1961841583252,  -0.1878154128790,   0.2493411600590,   0.3019886612892,   0.1350917071104,   0.0402842462063,   0.1513260006905,  -0.0913824588060,   0.2191369384527,   0.2538846433163,  -0.4132707118988,  -0.1355646252632,   0.0655435770750,   0.1415620148182,   0.1179636791348,  -0.1854159682989,   0.0357879139483,   0.0125453229994,  -0.1550934910774,   0.1499133557081,   0.0940862223506,   0.2008882761002,   0.1847483217716,   0.1760193407536,   0.0619008168578,   0.2740760147572,  -0.1312368661165,   0.1502753794193},
   {  -0.1775221377611,   0.1637805104256,   0.0382315628231,   0.0912312269211,   0.0781733468175,   0.2376577407122,   0.3304395377636,  -0.1472573876381,   0.0398003347218,   0.0400836281478,   0.0919412225485,   0.0141831999645,   0.2595541179180,   0.0975487604737,  -0.0682158023119,   0.1025885418057,   0.1291676163673,  -0.0675965845585,   0.0596728585660,   0.2022555470467,  -0.0561869740486,   0.3076324760914,   0.2366653978825,   0.1633179932833,  -0.0941947102547,   0.2174315452576,   0.1350658386946,  -0.3307193517685,  -0.1997807025909,   0.0293753053993,  -0.0056830071844,   0.1776606738567,  -0.1885459721088,  -0.1391995549202,  -0.0577410571277,  -0.0310215540230,  -0.0856935679913,  -0.2420310080051,  -0.2509341537952,   0.0385085269809,   0.1683736741543,   0.2820138633251,  -0.0400674715638,  -0.2032185047865,   0.0478987954557,   0.1269047260284,  -0.3086539804935,  -0.1493774056435}};
  const float bias_VBF_odd_0[48] = {   0.1455192714930,   0.0021781628020,  -0.0575341135263,   0.1784354299307,  -0.0537117496133,   0.0293909180909,   0.0654345750809,   0.0460523925722,   0.0339149683714,   0.0700138136744,   0.0868944153190,   0.0711769387126,   0.2912184000015,   0.0739340037107,  -0.0234979745001,   0.0693135261536,   0.1021498143673,   0.0152033315971,   0.0567703582346,   0.1355727910995,   0.0377490967512,  -0.0065836296417,   0.0268377363682,   0.0059896106832,   0.0372639074922,  -0.0002737367176,   0.0930165499449,  -0.0689219534397,  -0.0179924219847,  -0.0025322588626,  -0.0608517900109,   0.0609838701785,  -0.0607011318207,  -0.0169170890003,   0.0560177490115,  -0.0103815710172,   0.0269014351070,  -0.0100276991725,  -0.0027158188168,   0.1156900003552,   0.1162450537086,   0.0372837819159,   0.1223158836365,   0.0043667168356,   0.0512410327792,  -0.0027387386654,  -0.0796081051230,   0.0044947974384};
  // Declare the arrays in the stack
  const float kernel_VBF_odd_1[48][48] = 
  {{   0.1000447347760,   0.1696669906378,   0.1852653026581,   0.0449880100787,   0.0984539687634,  -0.1029256284237,  -0.1665440499783,  -0.1378774642944,  -0.1613822728395,   0.2824279963970,  -0.1765581369400,   0.1205718368292,   0.1885563880205,   0.2395988255739,   0.1258059293032,   0.1516906470060,   0.1157735586166,   0.0385591685772,   0.1052236258984,  -0.2657805383205,   0.1176009476185,   0.0244867280126,   0.1317306011915,   0.2614804506302,   0.1182276830077,   0.2556256353855,   0.1154295280576,  -0.0717588737607,  -0.1576276123524,  -0.2236906290054,   0.1272112280130,   0.1319964528084,  -0.2327009737492,  -0.1044544354081,  -0.0813460350037,  -0.1190607994795,   0.0857165828347,  -0.2886481881142,  -0.1349868774414,   0.0422606170177,  -0.2093485593796,   0.1220454052091,  -0.0927646085620,  -0.3332116305828,   0.0494300201535,   0.1753351241350,  -0.0448020696640,  -0.1304527223110},
   {   0.0623336620629,   0.1452155113220,   0.0775739550591,  -0.1609202027321,  -0.2224734425545,  -0.1132849827409,  -0.1686999201775,   0.1395322978497,   0.2351545542479,  -0.0871049612761,   0.0657270848751,   0.0309043824673,   0.0515332333744,   0.0526701919734,  -0.0697080567479,  -0.2462422698736,   0.0446176975965,  -0.0865392237902,   0.0637256577611,  -0.0291580967605,  -0.0092809200287,   0.2743322849274,   0.1001819148660,   0.1063216626644,   0.1710412949324,  -0.0096418298781,   0.2055457383394,   0.2005931138992,  -0.2160060107708,  -0.0685085654259,  -0.1786509901285,  -0.1914338767529,   0.2066637575626,   0.1681328862906,  -0.2611111700535,   0.1405466794968,   0.0432198531926,   0.2627350986004,   0.1355206966400,  -0.1261582970619,  -0.1555948853493,   0.1331698000431,   0.0690498203039,   0.1212420091033,   0.1282599717379,  -0.1163422241807,  -0.0221174340695,   0.1984425336123},
   {  -0.0138126416132,  -0.1786923706532,   0.2283221036196,  -0.1802297383547,   0.0841546654701,  -0.0941729769111,   0.1799661070108,   0.2086846828461,  -0.0794058963656,  -0.2228716015816,   0.1730029433966,   0.1031359434128,  -0.0538323596120,  -0.1978754103184,  -0.1184309422970,  -0.0811633914709,  -0.2197385132313,   0.0240822900087,   0.0134709216654,  -0.0061583062634,   0.0125169623643,   0.1548593491316,   0.0081951376051,   0.0774361714721,  -0.1245107948780,  -0.0816861763597,   0.1491507887840,  -0.1715856790543,  -0.0493596643209,  -0.1303670555353,  -0.0064892410301,  -0.1445978283882,   0.1254646480083,  -0.0352332666516,  -0.1652321219444,   0.1789083182812,  -0.2733128964901,   0.1166642382741,  -0.0341762825847,  -0.1443798989058,  -0.1158925443888,  -0.2288259714842,   0.0615222714841,   0.2571611404419,  -0.0142432618886,  -0.0133532546461,   0.1182303875685,   0.0172674488276},
   {  -0.1179484352469,   0.3506273627281,   0.1434971839190,   0.1730268746614,   0.1493675410748,  -0.0848251059651,  -0.2441262751818,  -0.1131615340710,   0.1151240020990,  -0.2655330598354,   0.1337595731020,   0.1262502074242,   0.3866626620293,   0.1004651710391,   0.0520224124193,   0.1356540918350,   0.1076722666621,   0.1125833541155,   0.1063226386905,  -0.0652806460857,   0.2715026438236,  -0.1519930511713,   0.0549728833139,   0.1606107652187,   0.0279247742146,  -0.1190583556890,  -0.0428876318038,   0.3923731446266,   0.0945173501968,  -0.2885709702969,   0.0174627527595,   0.2692007422447,  -0.2283892333508,   0.0436013042927,  -0.1676992923021,  -0.2267177850008,  -0.1303640455008,  -0.2751251161098,  -0.0784002244473,   0.3645728230476,  -0.0412784181535,   0.0089503778145,  -0.1531811952591,   0.0428506545722,  -0.2426379919052,  -0.1822769790888,   0.0560511127114,  -0.2045599222183},
   {  -0.0364012345672,  -0.1041478216648,  -0.2007106542587,  -0.1232055872679,  -0.2293242216110,  -0.1565963029861,  -0.2219993770123,   0.1441998481750,  -0.0750370174646,   0.1001225560904,  -0.0054890629835,   0.1894690841436,   0.1487476974726,   0.1194798797369,  -0.1759466528893,   0.0280170403421,  -0.0215050354600,  -0.1574677973986,   0.1287007480860,   0.1176304072142,   0.1703841090202,  -0.1933511942625,   0.1313530802727,   0.1020026132464,  -0.1829404532909,  -0.0416740663350,   0.1505049020052,  -0.0782177597284,  -0.1419837176800,  -0.2337134480476,  -0.1375947147608,  -0.1435366421938,   0.1103326156735,   0.0259179733694,  -0.0451824963093,   0.0603690482676,   0.1578309834003,  -0.2336899936199,   0.1640008240938,   0.1275739818811,  -0.0544215254486,  -0.0467585809529,  -0.0699552744627,  -0.1935932040215,   0.2088386416435,   0.0857512876391,   0.1212146878242,  -0.1309403777122},
   {   0.1534686833620,   0.3492587804794,  -0.1707533150911,   0.3073439300060,  -0.0659025460482,   0.1592641025782,  -0.1843919306993,  -0.1248513534665,  -0.1597248017788,  -0.2969645559788,  -0.1360615193844,   0.0691336914897,   0.2575516998768,   0.2012399584055,   0.1033478751779,   0.2205760180950,  -0.0783189460635,  -0.1215964779258,   0.0019373086980,   0.0374301970005,   0.0775948688388,  -0.0167156886309,  -0.1932934373617,  -0.1037857681513,   0.1141672655940,   0.2164489775896,  -0.1804614067078,   0.1580528169870,  -0.0414414368570,  -0.0044814893045,   0.1225097551942,  -0.1187800765038,  -0.1807685941458,  -0.1041494756937,   0.0041571408510,   0.0915504917502,  -0.0199612285942,  -0.1896098405123,  -0.1603761762381,   0.1025375276804,  -0.1785102188587,   0.2218078225851,   0.1334510892630,   0.2403514236212,  -0.1493474245071,  -0.1053799912333,  -0.0731644406915,  -0.0525412224233},
   {   0.1680792868137,   0.3831947445869,  -0.2112917751074,  -0.0797293260694,  -0.0086198188365,   0.0598687902093,  -0.2364714592695,   0.1959648430347,   0.0740387439728,   0.1373423188925,   0.1082502603531,   0.1430090963840,   0.2866679430008,  -0.0193769112229,   0.1652097851038,  -0.3196363747120,   0.1971778720617,  -0.0261020772159,  -0.2119389325380,  -0.1094452291727,   0.2087064385414,  -0.0621425248682,   0.0132467858493,  -0.0865867733955,  -0.1935552358627,   0.0833937004209,   0.1291168481112,   0.3369141221046,  -0.2370248287916,  -0.0318611599505,   0.2188382744789,   0.0207745842636,   0.1157642006874,   0.1168933287263,   0.0696422010660,  -0.2429525107145,   0.0333114974201,  -0.1593783199787,  -0.1836744546890,  -0.1372788399458,   0.0710444003344,   0.0337646007538,  -0.1427225768566,   0.2360986620188,   0.0274174809456,   0.1643763929605,  -0.1807868182659,  -0.2288484722376},
   {   0.1274748891592,   0.1781200319529,   0.0411900877953,   0.2620451748371,   0.2203822582960,   0.0790407434106,  -0.0802078470588,  -0.1710989028215,  -0.0581906698644,  -0.0586865656078,   0.1272817850113,  -0.2396967709064,  -0.0730804130435,   0.0571148321033,  -0.0990753918886,   0.1272795796394,   0.0335979722440,   0.2017063349485,   0.0596467927098,  -0.0621718019247,   0.0703480467200,  -0.0083654392511,  -0.0038600026164,  -0.0574483089149,  -0.1785293072462,  -0.0776195824146,   0.0872311517596,  -0.1050956174731,   0.2653922438622,  -0.2980444431305,   0.0601167567074,  -0.2725568413734,   0.1209146454930,   0.2189221978188,   0.0174134392291,  -0.1197671219707,  -0.0935028418899,   0.1212636604905,  -0.2544343769550,  -0.1527737528086,   0.2129520177841,   0.1507215648890,  -0.1627475321293,   0.0463621728122,  -0.0943911597133,   0.1620972752571,  -0.1563535630703,   0.0024434749503},
   {   0.1268803179264,  -0.2239831984043,   0.1633273214102,  -0.0045625981875,  -0.0828765332699,  -0.0902678146958,   0.2855802178383,  -0.0869905725121,   0.2667999565601,  -0.0032858506311,   0.0176434498280,  -0.1432961225510,   0.1866367012262,   0.2039599120617,  -0.0398087203503,   0.0970832034945,   0.0971317589283,   0.1522748321295,  -0.1194282397628,  -0.1146658658981,   0.0575003288686,   0.0482332706451,  -0.1205833852291,  -0.1693035066128,   0.2430426478386,   0.1537820398808,  -0.2858808934689,  -0.0366034545004,  -0.0164186600596,  -0.1851457357407,  -0.1279069781303,   0.0992274805903,   0.1751901656389,  -0.1158348694444,   0.1658392697573,  -0.2588230073452,   0.0784451887012,   0.2088390737772,   0.0519713684916,  -0.0206612274051,   0.0158019643277,  -0.0513646714389,  -0.0576633960009,   0.0176486875862,  -0.0089511191472,  -0.0248152613640,   0.0972453951836,   0.1574193686247},
   {   0.0000092442788,  -0.2554778158665,   0.1624059975147,   0.2192405015230,   0.1117054671049,  -0.1102188304067,   0.0422429069877,   0.0326892770827,   0.1132728829980,  -0.3461576700211,  -0.1230779588223,   0.1089791581035,   0.1936756521463,   0.0534405373037,   0.1108287349343,  -0.0297943539917,   0.0472129322588,   0.0170435979962,   0.0062592648901,   0.1353598684072,   0.1032889038324,   0.0481609292328,   0.1201554536819,  -0.0037768143229,  -0.2012555450201,   0.0233583226800,  -0.2171378433704,   0.3478260338306,   0.1763985157013,  -0.0446483530104,   0.4040803313255,   0.1966752260923,   0.2778580486774,   0.0357548035681,  -0.2183641940355,  -0.2875102162361,  -0.2773480415344,  -0.0422051027417,  -0.1660871207714,   0.0927986502647,  -0.2469622343779,   0.2963552772999,   0.0024218531325,   0.0924258530140,   0.1085362061858,   0.0002587217605,  -0.0017426933628,   0.0682106465101},
   {  -0.0263171996921,   0.0526357330382,   0.1345791518688,  -0.2810366749763,  -0.1809839159250,  -0.0663422495127,   0.0613276474178,  -0.1203053295612,   0.0488229170442,   0.0089000100270,  -0.1809487193823,   0.0513808205724,  -0.0553885549307,  -0.1459742784500,  -0.2952239811420,  -0.1840604543686,  -0.1478853076696,  -0.3149929046631,  -0.0850703343749,  -0.2205177247524,   0.1891480386257,  -0.0549047999084,  -0.1644327044487,   0.2472311854362,   0.0469044856727,  -0.2163739651442,   0.2695401012897,   0.1279442757368,  -0.0708247125149,  -0.1493400931358,   0.0750312581658,   0.2536937594414,  -0.0034479540773,   0.0000778101385,  -0.0398340672255,   0.1064029410481,   0.0522698014975,   0.0130224311724,  -0.0622756816447,   0.1541347056627,  -0.3613238930702,   0.2681947946548,   0.1853929907084,   0.0414956174791,   0.1719187498093,  -0.1274216324091,  -0.1437517553568,   0.1856297999620},
   {   0.0201057195663,   0.0747215747833,  -0.1755511611700,  -0.1317124664783,  -0.1667062491179,   0.1549894660711,   0.1948289871216,  -0.0187249481678,   0.0186682865024,  -0.2580045163631,  -0.2902660965919,  -0.0949320793152,   0.0323848538101,  -0.0598445385695,  -0.3016825914383,   0.1070962473750,  -0.0616391673684,   0.0555183701217,   0.1671034395695,   0.0311771240085,   0.1063548475504,  -0.2210160493851,   0.1063703373075,   0.1105600744486,  -0.1036397442222,   0.2291525155306,  -0.1803550720215,   0.1966754496098,   0.0506769679487,   0.0587387345731,   0.3155578076839,   0.1047451123595,   0.1579821854830,   0.0887383967638,  -0.2712126672268,  -0.1550357937813,  -0.2366160601377,   0.0340281724930,   0.0873333066702,   0.1744800806046,   0.0033819396049,   0.2419415414333,   0.0384632460773,  -0.2708201110363,   0.1596452891827,  -0.1150004640222,  -0.1578301191330,  -0.0153849227354},
   {   0.0166688729078,   0.0974902957678,  -0.1055570617318,   0.1522597968578,  -0.0437368154526,  -0.0215472485870,   0.2100374847651,   0.1359610259533,  -0.1344657689333,   0.2572827041149,   0.2052409946918,   0.0506339892745,   0.2418110221624,  -0.0558117814362,   0.1568690687418,  -0.2837695777416,  -0.1236903145909,  -0.0051993513480,  -0.0246890708804,  -0.1557884067297,   0.1370738595724,  -0.0924207121134,  -0.0694974139333,   0.1552553325891,  -0.0360732190311,   0.2909479737282,   0.0774791464210,   0.3486540913582,   0.1727069020271,  -0.0100099714473,   0.0419240333140,   0.0030162134208,  -0.1811512112617,   0.2167310118675,  -0.0844355449080,  -0.1429037451744,  -0.2832798361778,  -0.2572853565216,   0.1711705178022,   0.2459863573313,  -0.4230455160141,   0.2831969559193,  -0.0616161040962,   0.0577529184520,  -0.2947270870209,  -0.2368503659964,   0.1599832624197,   0.1102426722646},
   {   0.0608453564346,  -0.0278901383281,  -0.1032339781523,   0.3588857054710,   0.0711246058345,   0.0218652561307,   0.1182161495090,  -0.1651008129120,   0.1942128390074,  -0.1553157716990,  -0.1910515278578,   0.0148311080411,  -0.2008927911520,   0.0317941904068,  -0.1267857998610,   0.2420410662889,  -0.2200861126184,  -0.1336282342672,  -0.2214216440916,  -0.0955903008580,   0.1621364355087,  -0.3858548402786,  -0.1411890238523,   0.1311579048634,   0.1946422606707,  -0.0709729567170,   0.0838510617614,   0.2998890876770,   0.2447475194931,   0.1289380043745,   0.0746566280723,   0.0819849893451,  -0.0663230940700,   0.2086295187473,  -0.2258002460003,  -0.0435270145535,  -0.1235451251268,  -0.0780707225204,   0.0320008024573,  -0.1213087290525,  -0.2571442425251,   0.2711764574051,  -0.0230324920267,  -0.1461541503668,  -0.1229546442628,  -0.3147723972797,   0.2329334467649,   0.2295292615891},
   {  -0.0918441638350,  -0.0279146675020,  -0.1256224662066,   0.0034052229021,   0.2418835014105,  -0.0102969994769,   0.0680437535048,   0.0288188084960,  -0.1857557445765,  -0.0449582599103,   0.0864176303148,   0.1502899676561,  -0.0039354399778,  -0.1561063677073,  -0.0841988921165,  -0.1902393549681,   0.1886914074421,  -0.0291786622256,  -0.0403145663440,   0.1135639250278,   0.2128526717424,   0.0565628148615,   0.1659835577011,   0.1334830671549,   0.0607820823789,  -0.1808688044548,  -0.1273655593395,  -0.0768858790398,  -0.0738775655627,  -0.1076619252563,   0.0449791178107,   0.1564260274172,   0.0281442403793,  -0.2404978424311,  -0.0862070992589,   0.0333152934909,   0.1156095862389,  -0.0154228741303,  -0.1894113272429,   0.0884176194668,  -0.0585995875299,   0.1857335120440,  -0.0801585912704,   0.1032678708434,  -0.1909155547619,  -0.2529696822166,   0.1497477144003,   0.1765638142824},
   {   0.2099254131317,   0.1737496703863,  -0.0393296293914,   0.1880481690168,   0.2021361738443,  -0.2596913874149,  -0.1568274497986,   0.1811826676130,   0.1077326089144,  -0.0231615863740,  -0.2060674279928,   0.0490221455693,   0.0207680668682,  -0.0202240366489,   0.0673694014549,  -0.1439247280359,  -0.1897146403790,  -0.0715884044766,   0.1908472180367,  -0.2340591698885,   0.0897201895714,   0.0013120416552,  -0.0056365816854,  -0.0737381204963,  -0.0072063095868,   0.2673664093018,   0.1118771955371,  -0.2374836951494,   0.2276163846254,  -0.0459980517626,   0.2522467374802,  -0.0510025136173,  -0.0594808012247,  -0.1893493086100,  -0.0983169749379,  -0.2571625113487,  -0.1572372168303,  -0.1931544989347,  -0.2409119009972,   0.1541732698679,  -0.1855205148458,   0.0426122806966,  -0.2279793620110,   0.1139238774776,   0.2618640661240,   0.0677197575569,   0.2408612519503,  -0.1519172787666},
   {   0.0226716250181,   0.1057706847787,   0.2937605082989,   0.2060378491879,   0.2732840478420,  -0.0633598789573,  -0.1819250136614,  -0.1774366647005,  -0.1204665601254,   0.0799406990409,  -0.1259293258190,  -0.1292378902435,  -0.0595748089254,  -0.0766721963882,   0.0077197519131,   0.0657263174653,   0.1768468618393,   0.3937724232674,   0.1490034461021,   0.1338808685541,  -0.1515458077192,   0.0077027375810,   0.0792308226228,   0.0591537542641,  -0.0450497120619,   0.0600022040308,   0.0835011899471,   0.1676897406578,   0.2110648006201,  -0.0668772011995,  -0.1448536068201,  -0.0638842731714,   0.0441599674523,  -0.0590685904026,  -0.0231073256582,   0.0560802705586,   0.0929333046079,  -0.1429564654827,   0.1634890586138,  -0.1971053332090,  -0.1331404149532,   0.1436309218407,  -0.2505371868610,   0.2591023743153,   0.0160601139069,   0.0595116540790,   0.0185418315232,  -0.2084060460329},
   {  -0.0329316034913,  -0.1586783528328,   0.2952683866024,   0.2720198631287,   0.0753149241209,  -0.0964521989226,   0.1035607680678,   0.1840653866529,   0.2700721621513,  -0.1153740659356,   0.0097546465695,   0.0530359782279,   0.1093427389860,   0.0308685693890,   0.2741341292858,   0.0994191393256,   0.0276676230133,  -0.1728590279818,   0.1651153415442,   0.0477368794382,   0.1167063489556,  -0.1735305190086,   0.2415389716625,  -0.0417827852070,  -0.1665925532579,   0.0433181561530,  -0.1981941759586,   0.1252142786980,   0.0018967795186,  -0.1450467556715,  -0.0677497461438,   0.1111074835062,   0.2225482761860,   0.1134323626757,   0.0861715525389,   0.1694430857897,  -0.0898318439722,   0.1567259430885,   0.0505982898176,   0.2335842996836,   0.0283367745578,  -0.0855512917042,  -0.0734407827258,   0.1683005392551,   0.0859030410647,  -0.1183354780078,  -0.1784710884094,  -0.0787652656436},
   {   0.2724514007568,   0.2339328974485,  -0.0107722552493,   0.2751871049404,   0.1285027414560,  -0.1382309794426,  -0.0531013384461,  -0.0340878330171,   0.1584534496069,   0.3062282800674,  -0.0506958477199,   0.1695886552334,  -0.1173741295934,   0.3188161551952,   0.1577531844378,   0.1008198857307,  -0.2148864716291,  -0.0149427456781,   0.2715986073017,  -0.1846670806408,   0.1141985356808,   0.0807640850544,   0.0792486593127,  -0.0212954394519,  -0.2868196666241,  -0.0890648216009,   0.1566712856293,  -0.0134684732184,   0.0318304859102,   0.0032251139637,  -0.0649101212621,  -0.0223757568747,  -0.1989976763725,   0.1155226528645,  -0.0979342311621,  -0.0259019471705,  -0.0677561461926,   0.0343911647797,   0.0000925169006,   0.0245517268777,   0.2513416409492,   0.0297187566757,  -0.1374507397413,  -0.0024019894190,   0.3232271075249,   0.0557451434433,  -0.3222045302391,  -0.2056987285614},
   {   0.2671688497066,   0.0309834331274,   0.3204775154591,   0.2336958348751,   0.1832511126995,   0.1489645838737,   0.2470596283674,   0.0225262977183,  -0.1651478707790,  -0.2724904417992,  -0.2350011020899,  -0.1923526525497,  -0.0661960542202,   0.2055536955595,  -0.2156048268080,  -0.1362052261829,   0.0808085352182,   0.1967329978943,  -0.0712292939425,   0.1578115224838,  -0.1040362641215,   0.1649509519339,  -0.2835866212845,  -0.2308039218187,   0.0235782358795,  -0.0671236589551,  -0.0529548153281,  -0.0033580509480,   0.2754796743393,   0.1639629900455,   0.0768542960286,  -0.2510602772236,  -0.0905936583877,   0.2727222740650,  -0.0372178480029,   0.0369440726936,   0.1364468187094,  -0.1243743374944,  -0.0881581380963,   0.1390978842974,  -0.0562303178012,   0.2123219072819,   0.0936397016048,   0.1615009903908,   0.2183915823698,   0.1674255877733,   0.3274814188480,   0.3357862830162},
   {  -0.2028141319752,   0.1534424871206,   0.1032055243850,  -0.1023565381765,  -0.0393195077777,  -0.0292753949761,  -0.2729828357697,  -0.1839990317822,  -0.3262346684933,  -0.1086886823177,  -0.2643564939499,   0.2648114562035,  -0.1130611374974,   0.1036996170878,   0.0141341648996,   0.2225549072027,  -0.0226949285716,  -0.0664235502481,   0.0416589081287,  -0.1516265124083,   0.1649322211742,  -0.3346158862114,  -0.0458591096103,   0.0840144902468,   0.0720372870564,   0.1499632447958,   0.2429869025946,   0.1057391166687,  -0.1926903426647,   0.1529161036015,   0.1375780552626,  -0.2238340377808,  -0.0335141979158,   0.1685747355223,   0.1809782236814,  -0.0559297725558,  -0.1306212693453,   0.1585179120302,  -0.1146294027567,   0.1969833225012,   0.1374698728323,   0.2090615034103,   0.1454281806946,  -0.1727951616049,  -0.0863091573119,   0.0651115700603,  -0.0457827001810,  -0.0762138515711},
   {  -0.1920120716095,   0.1471228897572,   0.2107098996639,   0.1607796251774,   0.1328993290663,  -0.1047904044390,  -0.0972526445985,   0.0544320158660,  -0.1578055471182,  -0.2896367907524,   0.1412709057331,  -0.0862046554685,   0.0934694558382,  -0.0804646164179,  -0.1203470081091,  -0.2398923933506,  -0.2646970450878,   0.0869539827108,  -0.1233022734523,  -0.2264938652515,  -0.2572842538357,  -0.1109919697046,   0.0689468979836,  -0.0182406175882,  -0.1824781745672,  -0.0618549026549,  -0.1605475395918,  -0.0837883800268,  -0.1468657255173,  -0.2885602712631,  -0.0523531660438,  -0.0290572289377,  -0.0777836665511,   0.0146656008437,  -0.2444573342800,   0.1025646030903,  -0.1773993521929,   0.0714992731810,   0.1567648053169,  -0.0178033802658,   0.0303541719913,  -0.0518887117505,  -0.2407952249050,  -0.0742495581508,   0.2389568239450,  -0.0097098490223,  -0.2420061677694,   0.0843660086393},
   {  -0.0008242066833,  -0.1778861135244,   0.0302826166153,  -0.0195187311620,   0.2015950679779,   0.1655519008636,  -0.0589248649776,  -0.1985159963369,   0.0578713454306,   0.1667847484350,   0.0023955586366,  -0.0108236987144,   0.0441818386316,  -0.1943721622229,   0.1131815612316,   0.1581318378448,   0.1133056879044,   0.0246244501323,   0.0123414546251,   0.1581398695707,   0.0082275662571,   0.0406452529132,   0.0399906523526,  -0.2196986675262,   0.1423772126436,  -0.0548911094666,  -0.2975777685642,   0.1568007916212,   0.1576167494059,   0.1220440268517,   0.0098755992949,   0.1764090210199,  -0.0349073633552,  -0.2111178487539,  -0.0595057010651,   0.1789581328630,   0.0245817415416,   0.0548446886241,   0.1539043039083,   0.0488643534482,  -0.0851696431637,   0.1416502892971,   0.2282272279263,   0.1622616648674,  -0.1312246024609,  -0.1333597749472,   0.0186506751925,   0.2660922706127},
   {  -0.0093714948744,   0.1222159191966,  -0.1091357022524,  -0.0141095211729,  -0.0599574148655,   0.1113930940628,  -0.1448177993298,   0.0749810785055,  -0.1687850207090,  -0.0331620536745,   0.0488889925182,   0.0005182211171,   0.2431014329195,  -0.2333709150553,   0.0094527546316,   0.1816072762012,  -0.1045498549938,  -0.0740642473102,  -0.1605259180069,   0.2760058641434,  -0.0229932218790,   0.0572391711175,   0.2047304362059,   0.2798160314560,   0.1385728269815,  -0.0481560118496,  -0.1663140952587,  -0.1151161789894,   0.2269631475210,  -0.2254317402840,  -0.0094920257106,   0.2536900937557,   0.0549512691796,   0.2069449424744,  -0.0842207595706,  -0.0483769252896,  -0.0068124253303,   0.0890959501266,   0.1813398897648,   0.2748588025570,   0.0122462455183,  -0.1819187253714,  -0.0461388640106,  -0.1373140215874,   0.2456443160772,   0.1378157883883,  -0.1657334268093,   0.0938157588243},
   {  -0.0165356975049,   0.2597649693489,   0.0897512137890,  -0.1984288990498,   0.1706033647060,   0.2942759990692,   0.0915693640709,  -0.2704721093178,  -0.2127641290426,   0.1191657185555,  -0.2102085500956,   0.1935923397541,   0.2353834956884,   0.2058254778385,   0.1203701421618,   0.0540269427001,   0.0491404160857,  -0.1230432167649,   0.0205634701997,   0.1393548995256,   0.0532578304410,  -0.0858005881310,  -0.1266539245844,  -0.0918753892183,  -0.2446276545525,  -0.0180864259601,   0.1073786988854,   0.1531492322683,   0.0121793895960,   0.1692567020655,   0.1938008964062,  -0.1390395313501,  -0.1038374975324,  -0.0925866961479,  -0.1628824174404,   0.0076865223236,  -0.1331307590008,  -0.2813848555088,   0.0664036870003,   0.1212987378240,   0.0497666373849,  -0.0121158398688,  -0.2005105167627,  -0.1590273976326,   0.0960098952055,   0.0357738882303,  -0.2814966738224,   0.0979766324162},
   {   0.1567157506943,   0.2023451924324,   0.2455216497183,   0.2262790054083,   0.0761655122042,  -0.0232580769807,  -0.1849891245365,  -0.2406515330076,  -0.0008834007895,   0.1230249702930,   0.1633265465498,   0.0664051696658,   0.1763429790735,  -0.1134164109826,   0.0125508615747,   0.1012801527977,   0.1822296380997,   0.1939369887114,   0.1820021420717,  -0.1049987673759,  -0.1773614734411,   0.2173725217581,   0.1557503044605,  -0.0321836881340,  -0.1079525053501,  -0.1447262912989,  -0.1496445834637,   0.2692434787750,  -0.1053978577256,   0.1937616169453,  -0.0411523804069,   0.1816498488188,  -0.1888340413570,  -0.0176883805543,   0.1554510891438,   0.1887703239918,   0.1810730546713,  -0.0173650439829,  -0.0909203216434,   0.1005067601800,  -0.0922458991408,   0.1183971762657,  -0.2580533921719,  -0.0266318079084,  -0.1711574494839,   0.2104949504137,   0.1550667583942,   0.1145200654864},
   {   0.0086230961606,   0.2286617755890,   0.1984036862850,   0.0626565292478,   0.2290011942387,  -0.0911007225513,   0.1593475937843,   0.0035475851037,   0.1906874775887,   0.0344047360122,  -0.2690193057060,  -0.1460145413876,  -0.0430091805756,   0.0480921380222,   0.1599479019642,  -0.1442064791918,  -0.1627368032932,   0.1844120621681,   0.1636114418507,   0.0076044276357,  -0.0714770704508,  -0.0072828656994,   0.0066302181222,   0.1430550813675,  -0.1980647295713,  -0.3302580118179,   0.0505508109927,   0.0485005304217,  -0.0509584248066,  -0.2134527415037,   0.1139507740736,   0.0416916906834,  -0.1615119874477,  -0.0860312506557,   0.2960354685783,  -0.0077832159586,   0.1263013780117,   0.2117360234261,   0.0713598281145,   0.0806376039982,   0.2767827808857,  -0.0246942602098,  -0.2190603166819,   0.1657545566559,   0.0355796664953,  -0.0185320526361,   0.1990122199059,   0.2607950866222},
   {   0.0043378071859,   0.1704018712044,  -0.1151245683432,   0.2546401023865,  -0.0751056075096,   0.1050159856677,  -0.1500761806965,   0.0477956570685,  -0.2296455651522,   0.0727111324668,  -0.1501673460007,  -0.1374155879021,  -0.2029871195555,  -0.0688499957323,  -0.1406449228525,  -0.2103206664324,   0.1937499195337,  -0.1133829280734,  -0.2026114463806,   0.1376760601997,   0.0305960923433,  -0.1781322062016,  -0.1220750957727,  -0.1880681663752,  -0.1812779456377,   0.0581665262580,   0.0851699188352,  -0.0016827397048,  -0.1870921850204,  -0.1145746260881,   0.0435802340508,  -0.0058652511798,  -0.2221422493458,  -0.0501694455743,   0.2188070118427,   0.0139777110890,   0.1262502521276,  -0.1432816982269,  -0.2094471156597,  -0.1855306625366,  -0.1263375133276,   0.2082850486040,   0.1534736156464,   0.0964259505272,   0.0996017232537,   0.1505723893642,  -0.0340464562178,  -0.0286839976907},
   {  -0.2331538498402,  -0.0729894936085,  -0.2181970179081,   0.1717428267002,  -0.0210159439594,   0.3043731153011,  -0.0666643530130,  -0.0445897690952,   0.1193765252829,  -0.1942176669836,  -0.2119112014771,  -0.0723087191582,   0.2129314392805,  -0.0280295200646,  -0.0984901711345,   0.1828228980303,   0.1875813454390,   0.0871181190014,  -0.0354997552931,  -0.2089068591595,  -0.0980061069131,   0.1914591938257,   0.1446435004473,   0.0125622758642,   0.2544428706169,  -0.0056508332491,  -0.1701164841652,   0.0288039948791,  -0.1784815788269,  -0.0688377544284,  -0.0550530292094,  -0.1319000422955,   0.0194284897298,  -0.0066441311501,  -0.1997133642435,  -0.0606613717973,   0.1048890650272,   0.1804547309875,  -0.2496655285358,   0.2068345397711,   0.2312110364437,   0.0011863633990,  -0.1530762314796,  -0.1010352596641,   0.1825082004070,  -0.1047374531627,   0.3295790255070,   0.2359247058630},
   {   0.1876524835825,  -0.0237829443067,  -0.1146106123924,  -0.0721821188927,  -0.1354041695595,   0.1117725893855,  -0.1968896239996,  -0.1281682848930,   0.1702239960432,  -0.0481518618762,   0.0308632571250,  -0.2726104557514,   0.2355601638556,   0.2129287123680,   0.1474681198597,  -0.0674220621586,   0.1016517430544,   0.0693458840251,   0.0707398205996,   0.1610057651997,   0.0229791048914,   0.1729130893946,  -0.1129510551691,   0.1025289371610,  -0.1619764864445,  -0.2176818102598,  -0.1333702951670,   0.0576774738729,  -0.0727771222591,  -0.2817687094212,   0.0203041415662,  -0.2048218846321,   0.0666325688362,  -0.0440816171467,  -0.0358531996608,   0.1899788677692,  -0.2598484158516,   0.1542648822069,  -0.1443984657526,   0.0702737420797,   0.0600608102977,   0.2778461277485,   0.1245985999703,  -0.0995017513633,   0.1797310113907,  -0.0979551076889,   0.1250922828913,   0.1149410456419},
   {  -0.0192084219307,   0.0464346148074,  -0.2014672905207,  -0.0439402349293,   0.2110076248646,  -0.1642196029425,  -0.2048762887716,   0.1549001038074,   0.0983280092478,  -0.1858246773481,  -0.2163918018341,   0.0812699720263,  -0.1323629319668,   0.1135760396719,   0.1141801998019,  -0.0199803151190,  -0.1202534362674,  -0.0744329690933,   0.2091025561094,  -0.0585923492908,  -0.1410086601973,   0.0483035184443,  -0.0165349543095,   0.0196663308889,  -0.1564934551716,   0.0818484723568,   0.2050178498030,   0.1284227222204,   0.0816220864654,   0.0889990180731,   0.2562631964684,   0.1524114310741,   0.1754136979580,  -0.0999527499080,  -0.2032020390034,  -0.0534946843982,  -0.0827946886420,  -0.2251416146755,  -0.1881640404463,   0.0233679972589,   0.0845875218511,  -0.0790911689401,  -0.1496072560549,   0.0755655691028,  -0.2593408524990,  -0.3215121030807,  -0.1142547652125,  -0.2043272405863},
   {  -0.0213853903115,   0.0257531497627,   0.2970679104328,   0.2369846999645,   0.1086563691497,  -0.2204589396715,  -0.0013252609642,  -0.2450717836618,   0.1284073442221,   0.0529102310538,   0.0932868048549,   0.2530195415020,   0.1132736355066,   0.1434771567583,   0.0940830782056,   0.2016031891108,   0.0029902420938,   0.1517924815416,   0.1462253332138,  -0.2560622096062,  -0.1163221523166,  -0.0425891280174,   0.2235455363989,   0.2034433633089,   0.0264842510223,  -0.0640128478408,  -0.1605543643236,  -0.1997615545988,  -0.0529522635043,  -0.1439059525728,   0.0571456663311,  -0.0730517134070,  -0.1841109097004,  -0.3157065510750,   0.1577048450708,   0.2312694042921,   0.0591777451336,  -0.2018886208534,  -0.1807067543268,   0.0155745139346,   0.0084386309609,  -0.2184784263372,  -0.0100289527327,   0.0308140292764,  -0.1175538972020,   0.1091927140951,  -0.1528472453356,  -0.3566802442074},
   {   0.0744737684727,  -0.1574094891548,  -0.1235047131777,   0.0506343804300,   0.0294831991196,  -0.0406489931047,   0.0202853418887,  -0.1737088412046,   0.0620348080993,  -0.2363309711218,   0.1806189417839,   0.0068344143219,  -0.1429104357958,  -0.0075030797161,   0.2200962603092,  -0.0673853605986,   0.2254835814238,   0.0036639820319,   0.2036118656397,   0.1624329537153,   0.1584960222244,   0.2442883253098,   0.1453272551298,  -0.0999971255660,   0.1542915552855,  -0.2314910888672,  -0.2067030221224,   0.0594141446054,   0.2391963899136,   0.2128126323223,  -0.0637288615108,  -0.1339191496372,  -0.0428625755012,  -0.1348235756159,   0.3807441890240,   0.1146382763982,  -0.1709302961826,   0.2283764332533,   0.1605101227760,  -0.0961658433080,   0.2098790705204,   0.2020245790482,  -0.0393179394305,  -0.1729149222374,  -0.1537266820669,  -0.1920984983444,   0.0465541034937,   0.1348047852516},
   {  -0.0350960493088,  -0.1759817004204,   0.0181154124439,   0.1568705588579,   0.0116932410747,   0.0372443757951,  -0.0374759212136,  -0.1574527323246,   0.1384095400572,  -0.1289289742708,   0.1242752522230,   0.2252222746611,   0.0612405724823,  -0.0100467288867,  -0.0283715389669,  -0.1641731262207,  -0.1387940496206,   0.0018756199861,   0.1033397465944,  -0.1302637010813,   0.0208255276084,   0.2497628927231,  -0.2368342131376,   0.1343778818846,  -0.1323004662991,   0.1978045552969,   0.0013610511087,   0.1149842962623,   0.1346641182899,  -0.0206100624055,  -0.0035982404370,   0.1316589862108,   0.0446452088654,  -0.0097815170884,   0.0561394989491,   0.1070976555347,   0.1681552976370,  -0.0228204149753,   0.0720846429467,   0.1948212236166,  -0.0135200936347,   0.1160930320621,  -0.1014937832952,   0.0408669114113,  -0.0450832620263,   0.1738573610783,   0.2343394607306,  -0.0883467644453},
   {  -0.0015510037774,  -0.1960486471653,   0.2920540869236,  -0.0505714155734,   0.2337904423475,   0.2315796613693,   0.3191709220409,   0.1286446452141,   0.2442083954811,   0.0257895383984,  -0.1896193176508,   0.2610195279121,   0.1048470810056,   0.0859717801213,  -0.1483119726181,   0.0588973574340,   0.0349196791649,  -0.1419428586960,   0.0513698309660,   0.0292108952999,  -0.3114924132824,   0.2492664605379,   0.0646042376757,   0.1920716017485,   0.2688752710819,   0.1144097223878,  -0.2136775404215,   0.1040310710669,  -0.0011953015346,   0.0757764652371,   0.2186910808086,   0.0042328373529,  -0.2006058096886,  -0.1314129382372,  -0.2421217709780,   0.1381366401911,   0.2545135021210,   0.1262897849083,  -0.2154121398926,  -0.1917237788439,  -0.1957856863737,  -0.1594937890768,  -0.1586730033159,   0.1173604354262,  -0.1420864462852,  -0.0456389486790,  -0.1768059879541,   0.2499584853649},
   {  -0.0605219975114,  -0.2761379480362,  -0.0024839383550,  -0.1058373898268,  -0.0150225721300,   0.1567940562963,  -0.3072130978107,  -0.0552513338625,  -0.2011929601431,   0.0600729510188,  -0.1409385651350,   0.0362550839782,   0.0217976644635,   0.3509341180325,  -0.2002616077662,  -0.0839308276772,  -0.1373496651649,   0.0168347619474,   0.0539662502706,  -0.1913087219000,   0.0698166042566,   0.0722042098641,  -0.2401028275490,   0.0658894330263,  -0.1236108988523,   0.1524115353823,   0.2011987864971,  -0.0898615792394,  -0.0225166399032,  -0.0015640775673,  -0.0727889463305,   0.0670016780496,   0.1489155441523,   0.1315989196301,  -0.1962614357471,  -0.0813811644912,  -0.0549521110952,  -0.1074536666274,  -0.1115195974708,  -0.1639393121004,  -0.1046810671687,   0.2030707150698,   0.0701374188066,   0.1118111982942,   0.2897548377514,   0.0520543158054,  -0.1553838402033,   0.1858480274677},
   {   0.1799079030752,   0.3177209496498,   0.2567124366760,  -0.0799270048738,  -0.1179073229432,   0.0609760507941,  -0.1541152000427,   0.0631223842502,  -0.0041325325146,  -0.0438101254404,  -0.0736980065703,  -0.2081250101328,   0.0968475937843,  -0.2431233078241,   0.2352083623409,   0.0176829397678,   0.1261600404978,   0.0534183830023,   0.1863996833563,   0.0673262476921,   0.1901852786541,  -0.3449813127518,  -0.1016229391098,   0.1620820015669,  -0.0759743526578,   0.0773587673903,  -0.1554994583130,   0.2415580600500,  -0.0766344591975,  -0.0076795164496,  -0.1637815982103,   0.0060191801749,   0.1141347885132,   0.1505282819271,  -0.2312790453434,  -0.1321352273226,   0.1302100121975,  -0.2111528962851,   0.1598833352327,   0.1859868913889,  -0.0928494781256,  -0.1185310482979,  -0.1325414329767,   0.1686322987080,  -0.0567971430719,  -0.1256019473076,  -0.1793736368418,   0.2265501767397},
   {   0.1480143368244,  -0.1500000059605,   0.2538536489010,  -0.1788201481104,   0.1915873736143,   0.2079740911722,   0.0820312500000,  -0.1640332192183,   0.2099716812372,  -0.0166304893792,  -0.2133550494909,  -0.2189427465200,  -0.1598285585642,   0.2077714949846,  -0.0733323767781,  -0.2158771455288,  -0.1708817929029,  -0.1082904934883,   0.0769028514624,  -0.0411116741598,  -0.1602050811052,   0.2430986613035,   0.0762355029583,   0.1880021840334,   0.1897762715816,  -0.2344781309366,   0.1213218197227,   0.3365140557289,   0.2036699652672,  -0.1480825990438,  -0.0171537958086,  -0.1189522370696,   0.2193000167608,   0.0456361882389,   0.1025022268295,   0.1318254023790,   0.1123524606228,   0.1181166768074,   0.0501696318388,   0.2834759950638,   0.1337712258101,   0.2242815196514,   0.0473003797233,  -0.0539326258004,   0.0449233129621,  -0.1682228744030,   0.2605363428593,   0.0765885412693},
   {   0.0386450774968,   0.3306584060192,  -0.0055204429664,  -0.2284815311432,   0.1614038646221,  -0.0403154417872,  -0.0285479649901,   0.2774484157562,  -0.2230465114117,   0.1773397028446,  -0.2221515178680,   0.0850732848048,   0.2211427837610,  -0.2090678364038,  -0.2485796660185,  -0.0642848759890,  -0.0868089571595,   0.0159380976111,  -0.1450820863247,  -0.0594966411591,   0.1017198264599,  -0.1580204665661,   0.0112405829132,   0.1365910023451,   0.0842447951436,  -0.1105150207877,  -0.1038523912430,  -0.1712131202221,   0.0669469237328,   0.1419855952263,  -0.0500446036458,   0.2038876414299,   0.2476056218147,   0.2173548936844,  -0.2209909707308,   0.1635679453611,   0.0415799617767,   0.0374140106142,   0.0877741128206,   0.1382569223642,  -0.0631976351142,   0.2189938873053,  -0.0278219431639,  -0.0767356976867,   0.0181027855724,  -0.2295100092888,  -0.2005205154419,  -0.1317497640848},
   {   0.2344557046890,   0.0416369140148,  -0.1701404601336,   0.0190629865974,  -0.1784673184156,   0.1501977294683,   0.1034929603338,   0.0182216707617,  -0.0328354686499,   0.3684326708317,   0.0750116333365,  -0.2382670938969,   0.2250204533339,  -0.1034912392497,  -0.1890723556280,  -0.1873245090246,  -0.1508059948683,   0.0231979917735,   0.0620087161660,  -0.0067638261244,   0.3207338452339,   0.0694902986288,   0.2415531128645,   0.1652916967869,   0.0271027013659,  -0.2326117008924,   0.1613714098930,   0.1499177813530,  -0.1620968580246,  -0.1218297332525,   0.2798994183540,   0.0409617275000,  -0.1333850324154,  -0.1920744478703,   0.1399301588535,   0.2120928913355,   0.0638822317123,  -0.1567546725273,  -0.1259973943233,  -0.0775765106082,  -0.0903905406594,   0.1616168469191,  -0.2245700955391,  -0.1314271390438,  -0.0340134799480,  -0.0977876558900,  -0.0596449933946,  -0.0231602173299},
   {   0.2178663164377,   0.2397247552872,   0.2105173319578,  -0.0301014762372,  -0.2805785238743,   0.1690788120031,  -0.0730685442686,  -0.2501426637173,  -0.0973450466990,  -0.0248681288213,   0.0127418227494,  -0.2058981955051,   0.2794648110867,   0.1373055577278,  -0.1920067369938,  -0.0421124361455,  -0.2015715390444,  -0.0720432624221,   0.0061437645927,  -0.0498597361147,  -0.0012821067357,  -0.0756797716022,  -0.1959734857082,   0.2705348730087,   0.2137005031109,   0.2146550416946,   0.1069160178304,   0.3126016259193,   0.0211815629154,  -0.0802690684795,   0.1510518044233,   0.1761139929295,   0.0729567557573,   0.1904808878899,  -0.0235936678946,  -0.1540122628212,  -0.1782890856266,   0.1977056562901,   0.2947393357754,   0.1687949895859,   0.1634239405394,  -0.0548976436257,   0.1477990895510,  -0.2645817697048,  -0.1073639318347,   0.0525559373200,  -0.2237921804190,   0.1169039160013},
   {   0.1240297555923,   0.0470131188631,   0.2809983789921,  -0.1206442862749,   0.1196200400591,   0.0407144427299,  -0.0364610701799,  -0.2530076205730,   0.0728965327144,  -0.0707833990455,   0.1010221913457,   0.0155633948743,   0.1288455724716,   0.0687175616622,  -0.1233310848475,   0.0671486333013,   0.2115666419268,  -0.0795231238008,  -0.2573158144951,   0.2531042695045,   0.1132386624813,   0.0093040624633,  -0.1145104020834,   0.1145215928555,   0.1841069608927,  -0.1463226824999,   0.0072684409097,   0.2514168620110,   0.2103653997183,   0.0844514444470,  -0.1694970279932,   0.2135822921991,  -0.1496723890305,  -0.1914706230164,   0.1073920428753,  -0.0559863001108,   0.1424002349377,   0.0282979551703,   0.0607389137149,  -0.0551876910031,   0.2914604842663,   0.1809773445129,   0.1401930153370,   0.2489091604948,  -0.1172879189253,  -0.0355791337788,  -0.0395153462887,   0.0028144803364},
   {  -0.0818324461579,  -0.0875856578350,   0.3742879927158,   0.1924853324890,   0.2466817349195,  -0.2091592252254,  -0.1593684554100,   0.1429407894611,   0.1422816962004,  -0.1720670312643,   0.1376346051693,  -0.1033425256610,  -0.1876532137394,   0.2532361447811,  -0.1808620989323,  -0.1967325657606,   0.0020084290300,  -0.0374343506992,  -0.0001198485406,   0.2509289979935,  -0.0671531781554,   0.3032307624817,   0.0516277924180,  -0.0984489470720,  -0.0603909417987,  -0.0571384169161,   0.2241630703211,  -0.0509493015707,  -0.2014512568712,   0.0459013991058,   0.0903520286083,   0.1930279880762,   0.0903877317905,   0.2719634175301,   0.2539073824883,  -0.0836789757013,  -0.0977186560631,   0.1951417326927,   0.3996984362602,   0.0925976932049,   0.1134281605482,   0.0481196716428,   0.1878830492496,   0.1416684389114,   0.2677173018456,  -0.1128329038620,   0.1277676224709,  -0.1029411405325},
   {  -0.0469620265067,   0.0367699265480,  -0.0930368453264,   0.2818134725094,  -0.0504796542227,  -0.2433358430862,   0.1417697966099,  -0.1687647253275,   0.0588913932443,  -0.1483088582754,  -0.1735797673464,  -0.2157232165337,  -0.1049333810806,  -0.0599887110293,   0.2061120271683,   0.0623406246305,   0.1804310530424,  -0.1182977035642,  -0.1280852109194,  -0.2200277000666,  -0.1690714210272,  -0.1392366588116,   0.2256402075291,   0.1844028085470,  -0.1286171972752,   0.1178018003702,   0.1469081193209,  -0.1280592530966,   0.2335161119699,  -0.2404482364655,  -0.0998041927814,   0.0588415600359,  -0.1898821443319,   0.0391016900539,  -0.0293993372470,  -0.2305369675159,  -0.2215919494629,  -0.0835299938917,   0.1578887254000,  -0.0762113779783,  -0.0608026012778,  -0.2404469996691,   0.0067958910950,  -0.0666371583939,  -0.2440569698811,  -0.1682752966881,   0.2131778597832,   0.0078002889641},
   {  -0.0656558424234,   0.0878622978926,  -0.0704111978412,  -0.0797276571393,   0.0097889611498,   0.3605492413044,  -0.2232814133167,  -0.1856867372990,   0.0749633833766,   0.3080707192421,   0.1745724529028,   0.0115098198876,  -0.0301203206182,   0.1744802892208,  -0.1128101795912,   0.2142309695482,   0.2181977778673,  -0.1333216130733,  -0.0160198807716,   0.1831153184175,  -0.1721124798059,  -0.2911088168621,  -0.0974550545216,   0.2054077833891,   0.2525730431080,  -0.0300422161818,  -0.0826696529984,   0.2141463160515,  -0.1032796055079,   0.0654227137566,   0.2889201045036,   0.1940291672945,  -0.0588463097811,  -0.1850999295712,  -0.0677931308746,   0.0949930995703,  -0.2608921527863,  -0.0929364487529,   0.1968002170324,  -0.1048851236701,  -0.1462623029947,  -0.1354304105043,  -0.0590108446777,  -0.0758621245623,  -0.0119726406410,  -0.0159319154918,   0.2502116262913,   0.1422768980265},
   {  -0.0366325415671,  -0.0788054987788,   0.0800077915192,   0.1129655689001,   0.0887532383204,   0.1006458625197,   0.0896115079522,  -0.0476516596973,   0.1227804347873,   0.1855211257935,  -0.0526794418693,  -0.0969349592924,   0.1878887861967,   0.1543912738562,   0.0290013551712,   0.0583580434322,   0.1246736496687,   0.2269347161055,  -0.1260202527046,   0.2050768435001,  -0.1579185873270,   0.1687599420547,  -0.1017493829131,  -0.0757372677326,   0.1187632083893,   0.2345115244389,  -0.2897463142872,  -0.0079073337838,   0.2655643522739,   0.1219065189362,   0.0727948322892,   0.1639376133680,   0.0460446961224,   0.0201490335166,  -0.0239089578390,   0.0814456492662,   0.0577666498721,   0.0288513787091,  -0.1012992933393,  -0.1770296543837,   0.1684836745262,   0.2108009010553,  -0.0740100443363,  -0.0919181853533,   0.1235489249229,   0.0176504924893,  -0.0179207436740,   0.2417743504047},
   {  -0.1236222311854,  -0.3170605897903,   0.0238802637905,  -0.1391123235226,   0.2187374681234,  -0.1600561589003,  -0.0517751462758,   0.0303584188223,  -0.2187832295895,   0.1812604516745,  -0.2490759938955,   0.2521728873253,  -0.1920004487038,  -0.1342265456915,   0.0749986544251,   0.1075128763914,   0.0227382779121,   0.0865521654487,   0.2041946649551,  -0.0611377544701,   0.0959919318557,  -0.1168352290988,   0.0348707102239,  -0.1166578903794,  -0.1048623472452,  -0.2445237785578,   0.0366902984679,  -0.1966288387775,   0.2424232810736,  -0.0226742215455,   0.1192317903042,  -0.0596497952938,  -0.0051043303683,   0.1832646727562,  -0.1734463870525,   0.1659306883812,  -0.0938359946012,   0.0630604922771,   0.0766470432281,   0.0886369273067,  -0.1686902791262,  -0.0687390640378,   0.0620399713516,   0.0430011823773,  -0.1271698325872,  -0.0718521773815,  -0.1488732099533,  -0.1318199187517},
   {   0.1931970566511,   0.0113508347422,   0.0267101991922,  -0.1933900415897,   0.0404197871685,  -0.0250710658729,  -0.0836452767253,  -0.0502164363861,  -0.1550834327936,  -0.0066842292435,   0.0071846512146,  -0.0285547543317,   0.1792614310980,   0.1403258740902,   0.0274291224778,   0.1553375720978,  -0.0699068754911,  -0.2486726194620,   0.1225841641426,   0.2221369594336,  -0.1018506139517,  -0.0484134070575,   0.2148297727108,  -0.1134659498930,  -0.1286434531212,  -0.2090664952993,   0.1983366310596,  -0.1595591753721,   0.0683517009020,  -0.0744165107608,   0.3104840815067,   0.1767840981483,  -0.1435348093510,   0.1590189039707,   0.1768918484449,  -0.1610434353352,  -0.1093792766333,   0.0254432447255,   0.0452007725835,   0.0001486869587,   0.1995919793844,  -0.1241088807583,   0.2279881089926,   0.0597969070077,  -0.2157666683197,   0.0915271043777,  -0.1241120919585,  -0.1515194475651}};
  const float bias_VBF_odd_1[48] = {   0.0392759069800,   0.0499507896602,   0.1286128610373,   0.0465705692768,   0.0719895586371,   0.0036330472212,  -0.0548995770514,  -0.0144471228123,   0.0333088636398,   0.0678372830153,  -0.0484566204250,   0.0089844986796,  -0.0127692669630,   0.0277493651956,  -0.0005195291596,   0.0069889673032,  -0.0313651040196,   0.1212185099721,   0.0101125957444,  -0.0246322583407,   0.0741948261857,   0.0220198277384,  -0.0157536026090,   0.0339715667069,  -0.0153059232980,   0.0129669019952,  -0.0048033148050,   0.0706744492054,   0.0411210283637,  -0.0469821691513,   0.0580001436174,  -0.0067157954909,  -0.0228542312980,  -0.0067441570573,   0.0415713638067,   0.0333047024906,  -0.0040967240930,  -0.0163249056786,  -0.0191592909396,   0.0137793999165,   0.0114288879558,  -0.0012100369204,  -0.0552288070321,   0.0476498305798,   0.0910338759422,  -0.0076265819371,   0.0685031265020,   0.0409078784287};
  // Declare the arrays in the stack
  const float kernel_VBF_odd_2[48][48] = 
  {{  -0.1594135165215,  -0.1526991128922,  -0.1739346235991,   0.1564491242170,   0.1189080327749,  -0.2151891738176,  -0.1014920547605,   0.1518997848034,   0.2474909573793,  -0.2014022618532,   0.2008875608444,   0.2348276078701,  -0.0270091686398,  -0.0843301042914,  -0.0292412713170,   0.0105817271397,   0.2724358737469,   0.0295304600149,  -0.0225024241954,  -0.0409983806312,  -0.0456248819828,  -0.1779765784740,   0.0560697838664,  -0.2509556710720,   0.0282690562308,  -0.1487408131361,  -0.0756244882941,  -0.1573911011219,  -0.0385096706450,   0.1267991960049,   0.1189538463950,   0.2108055800200,   0.0739445313811,   0.0308118220419,  -0.0271885115653,  -0.1877472400665,   0.0292116422206,   0.0534098744392,   0.0045299604535,  -0.0016942236107,   0.2565207779408,   0.1267911344767,   0.1395516246557,   0.1577781438828,   0.0822591632605,  -0.1036501452327,   0.1975337713957,   0.0631928816438},
   {  -0.1364470571280,  -0.1183265000582,  -0.2146838158369,  -0.2400334626436,   0.1951783001423,  -0.0457851998508,  -0.1937861442566,   0.0643221512437,   0.2161331027746,   0.1131606623530,   0.3572210669518,   0.2376546561718,   0.0564374402165,   0.0581085123122,  -0.0409258157015,  -0.1447663605213,   0.2940883934498,  -0.0710218921304,   0.0015133975539,  -0.3208999037743,  -0.1914817243814,  -0.0467266105115,   0.1430792063475,  -0.1157576441765,  -0.2422722876072,   0.0273556672037,   0.0638585835695,   0.2976093590260,  -0.0203083641827,   0.0182479321957,  -0.1663511991501,  -0.2442184537649,   0.0550145246089,  -0.1100370809436,  -0.0690535753965,   0.2761502265930,   0.3682312667370,   0.1831190288067,  -0.3379048407078,  -0.0548451580107,   0.1823710799217,  -0.0639989823103,   0.1838920116425,   0.3702796995640,  -0.0492126382887,  -0.0375107899308,  -0.1703331172466,   0.3410516381264},
   {   0.1575716435909,   0.2549626231194,   0.1612172871828,   0.2032387256622,  -0.0967749357224,   0.1163932830095,   0.1331912875175,   0.0212073232979,   0.1516556441784,  -0.0630671158433,   0.0454291552305,   0.3030746877193,   0.0770558640361,  -0.0384356901050,   0.1635823547840,   0.1244210451841,  -0.2555489838123,  -0.0679049044847,   0.2554031312466,  -0.2711340487003,   0.0594180189073,   0.1312980204821,   0.2169207781553,   0.2135773301125,   0.1880133301020,   0.2852604687214,   0.3166099786758,   0.2531366050243,   0.0572397932410,   0.1752208769321,   0.2606403529644,   0.0613389797509,  -0.0001355300192,   0.2012507021427,   0.2400806546211,   0.1992674320936,   0.1956518143415,   0.2628550529480,   0.2534492909908,  -0.2219403088093,  -0.1489179730415,   0.2536672353745,   0.2367781847715,  -0.0398610308766,  -0.1606002897024,   0.1158511042595,   0.0422882176936,  -0.0847904682159},
   {   0.1887708008289,  -0.0734498053789,  -0.1268272995949,   0.0392399653792,   0.1290940940380,  -0.1023999899626,   0.0790682807565,   0.1276623159647,   0.1410969793797,   0.0228043254465,   0.2025922238827,   0.2330265790224,  -0.0885179191828,  -0.2081078886986,   0.1275896131992,   0.2420892864466,  -0.3019964694977,  -0.2647370696068,   0.0689154490829,   0.0906081050634,   0.0175154767931,  -0.1236459985375,   0.0788926407695,   0.1021738648415,   0.0565920509398,   0.1687980890274,  -0.0117303319275,   0.2572240829468,   0.1768533438444,  -0.0390785895288,   0.1476296186447,   0.1037283688784,   0.0285450108349,   0.2007679641247,  -0.0047154733911,  -0.0995032414794,  -0.1388022899628,  -0.0611723102629,  -0.0024254070595,  -0.0881872996688,   0.2418645769358,   0.2374252080917,  -0.0008124863962,   0.0083552282304,   0.2014407813549,   0.2554659247398,  -0.0405981354415,   0.0080162268132},
   {   0.2495553791523,  -0.0742907077074,  -0.1497618257999,  -0.0205636061728,  -0.0582837127149,   0.1364162713289,   0.2387939244509,  -0.2164746671915,   0.0007901192876,   0.2179557681084,   0.0621120743454,   0.0382495000958,  -0.1963151842356,  -0.0917156040668,   0.2719211280346,  -0.1649447530508,  -0.0470247715712,   0.1031260862947,   0.2104115486145,   0.1662241667509,   0.1457996666431,  -0.2353310883045,   0.0360646955669,  -0.0398710630834,  -0.2391820847988,   0.0341938808560,   0.2375619858503,  -0.0451341532171,   0.2285102307796,  -0.2656040489674,   0.1063049733639,  -0.1489072740078,   0.1930461525917,   0.0763345211744,   0.1123995631933,  -0.1487955600023,  -0.0721370726824,  -0.0002515847445,  -0.0959697365761,   0.1798856854439,  -0.0932086706161,   0.2258814573288,  -0.1590283066034,   0.0413418300450,  -0.1145521625876,   0.1068466827273,   0.0567878335714,  -0.0884147658944},
   {  -0.1426430344582,  -0.3626608550549,   0.0916955322027,  -0.0751368626952,  -0.0314592309296,  -0.0192137621343,   0.1225888282061,   0.2514471113682,  -0.1144792139530,   0.2128224372864,   0.2518128156662,  -0.0769662410021,   0.0616366229951,   0.0166506096721,  -0.1554650366306,  -0.0316939540207,   0.3880800902843,   0.1869941949844,   0.1009091660380,   0.1710341721773,  -0.1195653229952,  -0.3881959021091,   0.0829592719674,   0.0604825839400,   0.0598923489451,   0.2710206806660,   0.1492970436811,  -0.2632724642754,  -0.2251340150833,   0.0752347111702,  -0.0966715291142,  -0.0362645164132,   0.0168402567506,   0.0614559315145,  -0.2242815196514,   0.0669281259179,  -0.1729495525360,  -0.0277985651046,  -0.0321114808321,   0.0711472630501,  -0.2439471632242,   0.0554959736764,   0.2117391824722,  -0.1273435503244,  -0.0740760788321,   0.0838104486465,  -0.0487844496965,   0.2733605504036},
   {  -0.0940411537886,   0.2578106224537,   0.2887540757656,  -0.1244040951133,  -0.2502109706402,   0.0181824713945,   0.0111997174099,   0.2719023227692,   0.1003616079688,   0.0139586171135,   0.2641552090645,   0.0842080712318,  -0.0975409373641,   0.1328690499067,  -0.1515922248363,  -0.2094916850328,   0.0643103867769,   0.1771578937769,  -0.1214766427875,  -0.2572221159935,   0.1539483219385,  -0.0789644345641,   0.0867709517479,   0.0822833552957,  -0.1668562293053,  -0.1067145317793,   0.1606480032206,   0.1321264952421,   0.1477870792150,   0.1674369275570,   0.1612284630537,   0.0680344849825,   0.0055629052222,  -0.3379375636578,  -0.2476135045290,  -0.1142149344087,   0.0241999682039,  -0.2284597456455,  -0.0549088157713,   0.0310421343893,   0.1082760095596,  -0.2033141404390,   0.1226732805371,  -0.1059680283070,   0.0838629454374,  -0.0126557806507,  -0.0717005729675,  -0.1880231797695},
   {  -0.1430371105671,   0.1401682794094,   0.1646133214235,  -0.1536138653755,   0.0410338453948,  -0.1066793352365,  -0.2121752500534,   0.1968645751476,  -0.1608484685421,  -0.1912676095963,  -0.0365110337734,  -0.2568425536156,  -0.1255475729704,  -0.1705053150654,   0.1830444633961,  -0.1618729680777,   0.0661229714751,   0.0794273987412,  -0.1721587181091,  -0.2040290385485,  -0.2083621621132,   0.1786393970251,   0.0684488043189,  -0.2037058472633,  -0.1190137416124,  -0.2371483445168,   0.0794425234199,  -0.1537821888924,  -0.0385009124875,  -0.2203511744738,   0.0608166456223,   0.0459826774895,   0.1583224684000,   0.2106974273920,  -0.1324348300695,   0.0212831087410,   0.1990751624107,  -0.1593161672354,  -0.0901368856430,  -0.0433199144900,  -0.0816467478871,   0.1266701072454,  -0.1974588632584,  -0.0807396471500,  -0.0981262326241,  -0.1471616178751,   0.1146222352982,   0.0516055114567},
   {  -0.2390771955252,  -0.0675297677517,   0.2274568080902,   0.0589010417461,  -0.1421261578798,  -0.0345300547779,  -0.2030122280121,  -0.0217297468334,  -0.1145816296339,  -0.1176694110036,  -0.0872029587626,   0.2329804897308,   0.1056901216507,   0.0406906642020,   0.1958287060261,   0.1503368616104,   0.1174901947379,  -0.1694725453854,   0.0731281042099,  -0.2901982963085,  -0.2518394589424,  -0.1224292069674,   0.0627755448222,   0.0144872292876,   0.1499709933996,  -0.1975023448467,  -0.0284623764455,  -0.2053580433130,  -0.0905633494258,  -0.3033209145069,   0.1165816709399,  -0.2469644546509,  -0.0498718842864,   0.1167922988534,   0.1025166139007,  -0.2389541566372,  -0.1388889998198,  -0.0155807081610,   0.1719373017550,  -0.1657069325447,  -0.0686317458749,  -0.0219697486609,  -0.0529939495027,  -0.0314267985523,   0.1725698858500,  -0.1468845903873,   0.1964774578810,   0.1499456167221},
   {  -0.2612993419170,  -0.2303495407104,   0.1056547537446,  -0.0274784024805,  -0.0390899330378,   0.0163885392249,   0.1603056043386,   0.2895454764366,  -0.0421193949878,   0.1602671593428,   0.1039443984628,   0.3059305846691,  -0.1037950888276,  -0.2115305364132,   0.2863818705082,   0.2942901253700,   0.3630376160145,   0.0843686312437,   0.1817536950111,  -0.1034208685160,   0.2250035852194,  -0.1750836819410,  -0.0937486290932,   0.1096424311399,   0.2280113697052,  -0.2289142161608,   0.1884989142418,  -0.1221665516496,  -0.3055175244808,   0.3383217453957,  -0.0020161895081,  -0.2402986586094,  -0.1839258670807,   0.0949243232608,   0.2491732090712,   0.1285775303841,   0.1302904337645,   0.3575915396214,  -0.0545326434076,   0.1136762723327,  -0.0810312256217,  -0.0812746137381,   0.1428952068090,  -0.1471334695816,   0.0169900432229,  -0.0512846074998,   0.0771949812770,   0.2274682074785},
   {   0.0708543807268,   0.2751018702984,   0.0891234278679,  -0.2143377065659,   0.0160934384912,  -0.0681731477380,  -0.1041664630175,   0.0778533965349,   0.2256013303995,   0.1416875272989,  -0.0596268028021,  -0.1320455819368,  -0.0130936633795,   0.1868999153376,  -0.1616060882807,   0.0927441567183,  -0.2089425921440,  -0.1984645575285,  -0.2100066095591,   0.0037623953540,   0.0495737828314,   0.2707155942917,   0.1583886593580,   0.1453093886375,   0.2014460265636,   0.0346880182624,   0.0376310274005,  -0.0235702246428,  -0.1049817577004,   0.1604619622231,   0.1803883761168,  -0.0955230295658,  -0.0906722396612,  -0.1734312921762,  -0.0485351309180,   0.0364577323198,  -0.0263177976012,   0.0421927981079,  -0.0215150918812,   0.0011802640511,   0.2347780019045,   0.0224884841591,  -0.0357306189835,   0.1425930112600,   0.1806380003691,  -0.0110368318856,   0.0589048750699,  -0.0659510567784},
   {   0.2328700274229,   0.0220759920776,  -0.2545001506805,   0.0363800562918,   0.0520487055182,   0.0113200619817,   0.0855550765991,   0.1486754268408,  -0.3070907592773,   0.0815112665296,   0.0021885489114,  -0.1663713008165,  -0.1125233247876,  -0.2415870428085,   0.2092199772596,   0.1408363580704,  -0.1914889365435,  -0.2524033188820,   0.0942428261042,   0.1230797097087,   0.1657594144344,   0.0607239864767,   0.0990395471454,   0.2217127531767,  -0.1782065182924,   0.0401180572808,   0.0978288576007,   0.0769286304712,  -0.2019840627909,   0.0581831261516,  -0.0232570953667,  -0.1991413831711,  -0.0571613274515,   0.1147298142314,   0.0394552610815,   0.1790480613708,   0.0846111699939,  -0.1110337749124,  -0.1616293489933,   0.1045997366309,   0.0784768611193,   0.2196021974087,  -0.1792792677879,   0.2517819404602,   0.0884615182877,  -0.0692859217525,   0.0666447356343,   0.1047625094652},
   {   0.1791885346174,   0.0336131937802,   0.0383641608059,  -0.0255852863193,   0.0079907849431,  -0.0603671781719,   0.0384782925248,  -0.2564502656460,  -0.0209367219359,  -0.1260107755661,   0.2661098837852,  -0.1900382786989,  -0.0786639302969,   0.1949213594198,   0.1508971452713,  -0.1468782275915,   0.0454705543816,  -0.0867052897811,   0.1436216086149,  -0.0906725600362,   0.2234452068806,  -0.1413519680500,   0.0168218780309,  -0.0178233385086,   0.1178190633655,  -0.0805757939816,  -0.0141914654523,   0.1655542999506,  -0.1098586916924,   0.0308493692428,  -0.1614882647991,   0.1019135862589,   0.0615938976407,  -0.1815996468067,  -0.2457831352949,   0.2468774020672,   0.2618425190449,  -0.2183363586664,  -0.0038386664819,  -0.1092874184251,   0.0419545732439,  -0.0945647656918,   0.2460473477840,   0.1207889169455,   0.1084505990148,   0.1761597096920,   0.0805545076728,   0.1321469843388},
   {  -0.2016449570656,   0.1702658534050,  -0.1594572961330,   0.0637713521719,   0.2347805947065,   0.0123476088047,   0.1445975750685,   0.1995512992144,  -0.1671200394630,  -0.1113071665168,  -0.1628876775503,   0.2106974124908,  -0.0269837770611,   0.1030724644661,  -0.1091260835528,   0.0894323810935,   0.0028063936625,  -0.2071682661772,   0.0797639414668,  -0.0902335792780,   0.0019507624675,  -0.2223712205887,  -0.0505238100886,   0.0002283178619,  -0.1843617409468,  -0.0679975524545,   0.1086361631751,   0.1059364303946,  -0.2023651003838,   0.1666416674852,   0.1612019240856,  -0.0620563775301,   0.1928275674582,  -0.0545368827879,   0.1557296812534,  -0.1636259555817,   0.0691063404083,  -0.0740837678313,  -0.0488321930170,   0.0674182474613,  -0.0757135748863,   0.1480778306723,   0.0264165587723,  -0.0873304083943,   0.1034430190921,  -0.0443956032395,   0.1355888843536,  -0.1404917389154},
   {   0.2518215179443,  -0.1774172782898,   0.1522675603628,   0.2785520851612,  -0.1404771804810,   0.0235810782760,   0.0002472752531,   0.1369799524546,  -0.1800757944584,  -0.1649816930294,   0.2619590461254,  -0.1310296356678,  -0.0248783752322,  -0.0096136080101,   0.2854239344597,   0.0789170116186,   0.1456064283848,  -0.0680360496044,   0.1829580068588,   0.1640001982450,   0.0152144245803,   0.0964174196124,   0.1306995153427,  -0.1557310521603,   0.1416648328304,  -0.2182434648275,   0.0301413740963,  -0.0197185408324,   0.1707590222359,   0.0702199265361,   0.0207597035915,   0.2492951601744,   0.2581876516342,  -0.0509967841208,   0.0656958147883,  -0.2369718551636,  -0.0545213632286,   0.2037129253149,  -0.0294396672398,   0.1523011773825,   0.2696877419949,  -0.0938560962677,  -0.0451699569821,   0.1965619325638,  -0.1065200790763,   0.2037524133921,  -0.0910276398063,   0.0986448824406},
   {   0.0582253336906,  -0.2707151472569,  -0.0297489613295,   0.2503215372562,   0.0746331065893,   0.2167888730764,   0.2038818448782,   0.2078424096107,  -0.2779918611050,   0.0183931495994,   0.0192008111626,   0.2605776190758,   0.1208928972483,   0.0771639272571,  -0.0324454791844,   0.0879660323262,  -0.0721830949187,   0.2400590777397,   0.1020408049226,  -0.1684722602367,  -0.1317475736141,  -0.3043034672737,  -0.2439669519663,   0.0172350239009,  -0.1753352135420,  -0.2279269099236,   0.1524783074856,  -0.1673890799284,   0.1944966167212,   0.1249341145158,   0.2669976949692,  -0.0844856873155,   0.0997584089637,  -0.1745838969946,   0.0517346188426,   0.1752123236656,   0.2121417820454,   0.2724353671074,   0.0866562500596,   0.1573383063078,  -0.1140288487077,  -0.0454209186137,  -0.0302026383579,  -0.0555050410330,   0.1553109437227,   0.0464295633137,   0.1829042434692,  -0.0784077122808},
   {  -0.1758012771606,  -0.0673175007105,   0.0942164584994,  -0.1901552230120,  -0.2113212645054,  -0.1058601662517,  -0.1116141676903,  -0.0109748831019,  -0.1105806455016,  -0.1233932897449,  -0.1762959510088,   0.0155032128096,  -0.2465134710073,  -0.0298980101943,   0.0865324661136,  -0.0474443621933,   0.0612630657852,   0.0882296338677,   0.0130062513053,   0.0256652384996,  -0.0938179045916,  -0.1366379857063,  -0.0200037267059,   0.0028838291764,   0.0478999838233,  -0.0298635996878,  -0.0637495368719,  -0.1599037200212,  -0.1163509115577,   0.1440546065569,   0.1303981393576,  -0.1140216812491,   0.0341312848032,  -0.0558032318950,   0.1934126764536,   0.0245975609869,  -0.0836339294910,  -0.1045540347695,  -0.0308789443225,   0.1291922330856,   0.0622551515698,   0.2319416254759,  -0.0891738012433,   0.1768435686827,   0.0305622257292,   0.2570365965366,  -0.0611639879644,   0.0502697788179},
   {   0.3131942749023,  -0.2745658159256,   0.0129135474563,  -0.0589883662760,  -0.1949748843908,   0.1279758214951,   0.2095870524645,   0.1862906515598,   0.0443778894842,   0.2074023932219,  -0.1678905934095,   0.0731877461076,   0.2462587803602,  -0.2018417716026,  -0.1238974183798,  -0.2380656301975,   0.1541745215654,  -0.2386960834265,   0.1075545772910,  -0.1903314441442,   0.1908157616854,  -0.1315055042505,   0.3372667133808,  -0.1935983002186,  -0.1074164062738,  -0.0744041278958,  -0.1225906908512,  -0.0594027377665,   0.1030245721340,  -0.0929009839892,   0.0281456671655,  -0.0531955547631,   0.1229394599795,   0.1702976375818,   0.2921704053879,   0.1012936532497,  -0.1088775545359,  -0.0697410926223,   0.2823293209076,   0.0230595339090,  -0.1178242713213,  -0.0868994444609,  -0.0240633487701,   0.0043896697462,   0.1509670466185,   0.2127175331116,   0.0057288110256,   0.0230550318956},
   {   0.0695179924369,  -0.1670736819506,   0.1079202890396,  -0.0309105273336,  -0.1963392794132,  -0.1589284986258,  -0.1331074833870,   0.2147989273071,  -0.1476190537214,   0.1019402369857,   0.1380437016487,   0.2618307769299,   0.1004033014178,  -0.1060656830668,  -0.0903908386827,   0.2705557644367,   0.1252786964178,   0.1136153414845,   0.2094575762749,   0.0052248486318,  -0.1311225891113,   0.1077959015965,  -0.1489590406418,  -0.0295574571937,  -0.2155141085386,   0.1514494121075,  -0.1070159375668,  -0.1070434823632,  -0.1242594569921,  -0.1307762414217,  -0.0350642427802,   0.1664393544197,   0.2361149191856,  -0.0415438301861,  -0.1176416352391,   0.1038306653500,   0.1554446071386,   0.1695378273726,   0.2077159881592,   0.0477084256709,  -0.1604022085667,   0.0186553839594,  -0.2231938689947,  -0.2110119760036,  -0.1138362362981,   0.2390275448561,   0.0953753590584,  -0.1620680987835},
   {   0.0624469295144,  -0.1300996690989,   0.0739861428738,  -0.0776030793786,   0.2369395494461,  -0.2222405672073,  -0.2045754045248,  -0.1576400399208,  -0.2296460568905,  -0.0911503508687,  -0.1463545262814,   0.0725271999836,   0.1669856160879,   0.1683648973703,  -0.0489640831947,  -0.2480422258377,   0.0411856397986,   0.0525043867528,  -0.1115423068404,  -0.0307808388025,   0.0946161225438,  -0.0657511204481,  -0.0731578692794,  -0.0402687899768,   0.2001882791519,   0.2403783500195,  -0.0764416605234,  -0.1593032628298,   0.0220345444977,   0.1231145337224,  -0.1364687681198,   0.0508369393647,   0.1181940287352,   0.2200196087360,  -0.2565318644047,  -0.1354105025530,  -0.1862593293190,  -0.1242628097534,  -0.0187914911658,  -0.1047452464700,  -0.1277429461479,   0.0748843252659,   0.0702351853251,   0.0629399344325,   0.0090331276879,   0.0486934445798,  -0.0683348476887,   0.1397890150547},
   {   0.1613252311945,  -0.0763258934021,  -0.1611937135458,   0.2482527941465,  -0.1268099844456,  -0.1685909479856,  -0.0187177248299,   0.1010166555643,   0.1690714061260,   0.1193031519651,   0.1127282381058,   0.2509450912476,  -0.0462504327297,   0.2247762680054,  -0.1991260349751,   0.0388059504330,   0.2746722698212,  -0.0422174893320,  -0.0717095658183,  -0.2325846105814,   0.1414932757616,  -0.0515977814794,   0.2300675064325,   0.2035237550735,   0.0677360221744,   0.0988020151854,   0.0889533758163,   0.1212669834495,   0.0485989414155,  -0.1347650438547,  -0.1524087786674,  -0.2496348023415,   0.0337378755212,   0.1318255960941,  -0.1894894540310,  -0.0229297839105,  -0.0939389839768,   0.2008643895388,  -0.1065640896559,  -0.0900317206979,   0.3731881678104,  -0.1194378808141,  -0.0851559266448,   0.2422376275063,  -0.1410568356514,  -0.1505341678858,  -0.1488149315119,   0.3958036005497},
