#ifndef GGHweights_even
#define GGHweights_even
    // Select all (Ctrl+A), Copy (Ctrl+C), paste to an empty text file (Ctrl+V) and save that file as 'generated_code.h'
    // 
    // Auto-generated header file. Assumes img to be a floating point array
    // of 64 elements (corresponding to an 8x8 b&w image)

    #include <math.h>

    float norma_GGH_even;
    
inline float activation_GGH_even_0 (float x, float n) 
{ return x > 0 ? x : 0;}
inline float activation_GGH_even_1 (float x, float n) 
{ return x > 0 ? x : 0;}
inline float activation_GGH_even_2 (float x, float n) 
{ return x > 0 ? x : 0;}
inline float activation_GGH_even_3 (float x, float n) 
{ return x > 0 ? x : 0;}
inline float activation_GGH_even_4 (float x, float n) 
{ return x > 0 ? x : 0;}
inline float activation_GGH_even_5 (float x, float n) 
{ return 1./(1 + exp(-x)); }

    float guess_digit_GGH_even (const float *img)
    {
    
  // Declare the arrays in the stack
  const float kernel_GGH_even_0[36][13] = 
  {{  -0.3164959549904,  -0.3549970984459,   0.0925830453634,   0.1000525504351,  -0.0587132982910,  -0.0116574913263,   0.2514551877975,   0.3904824256897,  -0.2744857966900,   0.2003906965256,  -0.0659136399627,   0.1383353024721,   0.0077907876112},
   {  -0.1381895393133,   0.0548719540238,  -0.1629996895790,  -0.0411961339414,   0.0551482401788,  -0.0328962914646,   0.1305303275585,  -0.2011540085077,   0.2582931220531,   0.2723768055439,   0.0292023792863,  -0.0092259766534,   0.0355714038014},
   {  -0.0374668501318,  -0.2323973476887,  -0.2682173848152,   0.0114872418344,   0.1835985928774,  -0.1368417739868,   0.0144470361993,  -0.2889799773693,  -0.1909784078598,   0.1016321629286,  -0.3676991462708,  -0.0629569217563,  -0.3047589063644},
   {  -0.1412343382835,  -0.3105837106705,  -0.2324010133743,  -0.3064448535442,   0.0297689456493,   0.2568787932396,  -0.2512961328030,  -0.1140688210726,  -0.1147434860468,   0.2084256708622,  -0.1991031020880,   0.5477038025856,   0.1569613814354},
   {  -0.3036000430584,   0.0080553647131,   0.2358254343271,  -0.0965284928679,   0.0794281065464,   0.0934174135327,  -0.1061150580645,   0.0465997010469,   0.2200532108545,   0.0879902467132,   0.0647947564721,  -0.0163685046136,  -0.1285496354103},
   {  -0.1747747808695,  -0.1655265688896,   0.3490186929703,   0.2693732380867,   0.3100546896458,   0.2408125847578,  -0.0392846725881,   0.0860860496759,  -0.0006828936748,  -0.1263849586248,   0.1041745766997,  -0.0101995868608,   0.0332402698696},
   {   0.0206366293132,   0.0487023927271,   0.3167778551579,   0.1911555528641,  -0.1966549754143,   0.1649755239487,   0.0493027493358,   0.2625394165516,  -0.1553583890200,   0.0278269238770,   0.2006368786097,  -0.0232697613537,   0.1774576157331},
   {  -0.4640285670757,  -0.1731720715761,   0.0876389294863,   0.2032909840345,  -0.3182168006897,  -0.0353262387216,  -0.0769302025437,   0.4509025216103,   0.0940900072455,  -0.3308150470257,   0.0252538938075,   0.0378509424627,  -0.1045626699924},
   {   0.0973164886236,   0.1535907834768,   0.2249316573143,  -0.0170233342797,   0.0469779558480,  -0.0288713723421,  -0.1726368814707,  -0.0061543183401,   0.1337085068226,   0.2714639902115,  -0.2854194641113,   0.0427689217031,  -0.0938194841146},
   {   0.2062498182058,   0.0613172836602,   0.0896092280746,  -0.0848716869950,  -0.1061439365149,  -0.3549463450909,   0.1933597773314,  -0.0332565791905,  -0.0034537436441,   0.2892295122147,  -0.1013581827283,  -0.0588071569800,   0.1732473969460},
   {   0.2989035844803,  -0.1472892165184,   0.1691693514585,  -0.1450725048780,  -0.0745559781790,  -0.2396905273199,  -0.0176971871406,  -0.0046781217679,  -0.2449669688940,   0.1900261491537,   0.0472625270486,   0.1081112250686,   0.0534792169929},
   {   0.4661843180656,  -0.2145684063435,   0.1807150989771,   0.1460243910551,   0.0381116941571,   0.0656052082777,  -0.0693961530924,   0.0328604839742,   0.0195231363177,  -0.1415934860706,   0.0080977873877,  -0.0793550238013,   0.1661722064018},
   {  -0.1605616807938,  -0.2686678469181,   0.1264489591122,   0.2386333048344,  -0.1458134353161,   0.3516420125961,   0.0747388526797,  -0.1918522417545,  -0.3628121316433,  -0.1518810242414,  -0.2629584372044,   0.0512657873333,   0.0960334539413},
   {  -0.2315069288015,   0.3009647130966,   0.1720934212208,  -0.1446021944284,  -0.3368981182575,   0.1824382394552,   0.1040422841907,  -0.3404177725315,   0.2011370211840,  -0.0735635384917,  -0.2785177230835,   0.0671844631433,  -0.1924625933170},
   {   0.3893420398235,   0.1395802944899,   0.1123304143548,   0.1198317855597,   0.0521698929369,   0.0784811899066,  -0.1736868023872,   0.0648676529527,   0.1022070273757,   0.2635110914707,  -0.2085308283567,   0.1227420270443,  -0.1056978106499},
   {  -0.3896163105965,   0.2053054422140,  -0.1045393124223,  -0.0372172631323,   0.1557779908180,   0.2902156114578,   0.1304565072060,  -0.0773854851723,   0.0221429299563,  -0.1160817742348,   0.0033059855923,   0.0261268876493,  -0.1351034790277},
   {  -0.1681119203568,  -0.1794871240854,  -0.2080247998238,   0.0664356574416,   0.0929589346051,  -0.3489090502262,  -0.3506462872028,   0.0211164299399,   0.1614806205034,   0.0751095414162,  -0.0883925482631,  -0.1150784417987,   0.1188431158662},
   {   0.0084849009290,  -0.0777419582009,   0.2065125256777,   0.0159370098263,  -0.1888445913792,  -0.0098194694147,  -0.0462641119957,  -0.0638967379928,   0.1818058341742,   0.4229363799095,  -0.0331995114684,  -0.0182350240648,  -0.0345195978880},
   {  -0.2425653934479,   0.0594096817076,  -0.4127810299397,  -0.0278557520360,   0.1742074191570,   0.1781648397446,  -0.1912332922220,   0.1551711559296,   0.4987302422523,  -0.1512761265039,  -0.3215683996677,  -0.0267099626362,   0.2177451699972},
   {   0.1278605461121,   0.3766998052597,  -0.0553323701024,   0.3794891834259,   0.1517398506403,  -0.1907107532024,   0.0952377617359,  -0.0776192247868,  -0.1968255043030,   0.2662592828274,   0.1935821026564,   0.1761318445206,  -0.0372255854309},
   {  -0.2526034414768,   0.1541547924280,   0.1324465870857,  -0.0075541813858,   0.0254914127290,  -0.2236493378878,   0.1220397725701,  -0.0929199904203,   0.1087327599525,  -0.0659290999174,  -0.0412827208638,   0.0607763081789,  -0.2361764609814},
   {   0.2639840245247,  -0.0119944792241,   0.2663968801498,   0.1947872936726,  -0.1544731110334,  -0.0291823092848,   0.0045624012128,  -0.0211699847132,  -0.0467499829829,  -0.1924754679203,  -0.1158833056688,  -0.1802041977644,   0.2091303020716},
   {  -0.0601777732372,  -0.1739566922188,   0.2447260767221,   0.1814634054899,   0.1188544631004,   0.2374074012041,  -0.1983215957880,   0.1787105798721,   0.0610466822982,   0.3332920372486,  -0.1408549994230,  -0.0359896235168,  -0.2908502817154},
   {   0.4651797413826,   0.1099947318435,  -0.1766590625048,  -0.1102391183376,   0.0520642660558,  -0.1365785747766,  -0.1239657551050,   0.1413007229567,  -0.2126614004374,   0.1224856078625,  -0.1685225367546,   0.1313441544771,   0.0798722431064},
   {   0.2715884149075,  -0.5182871818542,  -0.4574176967144,  -0.5587792992592,   0.0742899477482,   0.3018274009228,   0.5393753647804,   0.0234171189368,   0.5219240784645,  -0.4070974588394,  -0.4341849982738,   0.4093249440193,   0.4935963153839},
   {   0.0177894607186,  -0.3686069846153,  -0.1472921371460,  -0.1204264536500,   0.0918079018593,   0.3416813015938,   0.1468098163605,   0.5104807615280,  -0.3070720434189,  -0.1237842291594,  -0.4043634533882,  -0.2730024158955,  -0.0326330028474},
   {   0.2431879937649,  -0.1181631609797,  -0.0207364279777,  -0.1171507835388,   0.0193624030799,   0.0084321843460,   0.2565993070602,   0.3592946231365,   0.0604683682323,  -0.1443571895361,  -0.3227002620697,  -0.0137797463685,  -0.3925132751465},
   {   0.1547841280699,   0.1130203008652,   0.3975509107113,  -0.3127380013466,  -0.1155287474394,  -0.1945170909166,   0.3519644439220,   0.0630664601922,  -0.3582208156586,  -0.0072409729473,  -0.4524667859077,  -0.0385564863682,   0.0861796587706},
   {  -0.0441914200783,  -0.2669392824173,  -0.2332457900047,   0.2308676242828,   0.2870562970638,   0.2330013811588,   0.0864161029458,  -0.1370251476765,  -0.2042470127344,  -0.1461494266987,  -0.3127325773239,  -0.0239896457642,  -0.2011153995991},
   {   0.2969125807285,   0.1015724390745,  -0.1479436755180,  -0.0803089886904,  -0.3461215496063,  -0.0920617207885,  -0.0733630880713,  -0.1177080273628,   0.1622729897499,   0.2478245049715,  -0.2619343400002,   0.0906796008348,   0.1821206361055},
   {   0.1893092244864,  -0.2012126594782,   0.1949253529310,  -0.2150766253471,  -0.2919736802578,  -0.1506953686476,  -0.0121716903523,   0.2304692864418,   0.1200070604682,   0.0745269060135,  -0.0127695947886,  -0.0700036957860,   0.0250562299043},
   {  -0.2864855527878,  -0.0092755611986,  -0.2630827724934,  -0.0185143742710,  -0.3792165517807,  -0.0749613940716,  -0.0965678095818,   0.0632167011499,   0.1928495317698,  -0.0624010153115,  -0.2154769003391,   0.0341396220028,   0.3184783458710},
   {  -0.0475300475955,  -0.1618879586458,  -0.0552160479128,   0.3927631676197,  -0.2902817130089,  -0.3411172330379,  -0.0130758546293,   0.0104164453223,  -0.1051677316427,   0.2665129601955,   0.0231992471963,   0.2853951454163,   0.2056183367968},
   {   0.1595217287540,  -0.3562087714672,   0.2202172279358,   0.2204120755196,  -0.0761832296848,   0.0590361692011,   0.2285900712013,   0.1669879406691,   0.3619863092899,  -0.1078626513481,   0.1812331974506,  -0.1265076696873,  -0.0495894402266},
   {   0.1459854543209,   0.1500679403543,  -0.2797782719135,   0.1552047580481,   0.1110485121608,   0.2098313122988,   0.2354615479708,   0.4402934014797,   0.0378523357213,   0.1086195558310,   0.2225195020437,   0.0142329698429,   0.0490896478295},
   {  -0.1585701107979,   0.0970564633608,   0.1213613152504,   0.0299604795873,  -0.0419191978872,   0.0196992382407,   0.3429319262505,   0.2254318445921,   0.3026167750359,   0.1954210251570,   0.1486737728119,  -0.0888596177101,  -0.0120881600305}};
  const float bias_GGH_even_0[13] = {   0.0560931749642,   0.0885208398104,  -0.0159622021019,   0.1163381636143,  -0.0636132434011,   0.0468021072447,   0.1730004698038,   0.2228439152241,   0.1954983621836,   0.0172255486250,   0.2023354470730,   0.1528699547052,   0.1068713739514};
  // Declare the arrays in the stack
  const float kernel_GGH_even_1[13][13] = 
  {{   0.3037644922733,  -0.0991396978498,   0.1099620610476,   0.2893869280815,  -0.3380065262318,   0.3239787220955,   0.5365781784058,   0.5365483164787,   0.4777244627476,   0.2474846839905,  -0.2837542891502,  -0.1245183423162,   0.5218471288681},
   {   0.2655130624771,  -0.3369147181511,  -0.3727709054947,   0.1002863496542,  -0.1224256977439,   0.0024932001252,   0.2071457356215,  -0.2014513611794,   0.2980308234692,   0.0344112738967,  -0.1914469301701,  -0.5373827815056,   0.0063293045387},
   {  -0.3813618719578,   0.2493441551924,   0.1418337672949,  -0.1914415210485,   0.2313776612282,  -0.0482889600098,  -0.0108912866563,  -0.3694362342358,  -0.0797438323498,  -0.3319458365440,   0.1539585590363,  -0.3149291574955,   0.0987385585904},
   {  -0.2044795453548,  -0.2028337419033,  -0.2632604837418,  -0.0481419265270,   0.0851699858904,  -0.0117691243067,   0.3204773962498,   0.0719200819731,  -0.0096993651241,  -0.0012837696122,  -0.2679407596588,  -0.0152814639732,  -0.1176581382751},
   {  -0.3708416521549,  -0.1836376637220,  -0.2087386548519,   0.2887675762177,  -0.4268738031387,  -0.1502083837986,  -0.1812550574541,   0.1756333261728,   0.1401050686836,   0.3537917435169,   0.4420251250267,  -0.3930558860302,   0.4089113771915},
   {   0.0534392483532,  -0.1933385282755,   0.4278458952904,   0.3647576868534,   0.2973125576973,  -0.1952496170998,  -0.1492125838995,   0.2828463315964,  -0.4259082376957,  -0.4605934619904,   0.2255813181400,  -0.3185203671455,   0.3746332228184},
   {   0.2891082465649,   0.2262308597565,   0.3084892332554,  -0.2687950134277,  -0.3738557398319,  -0.3633800148964,  -0.1683182120323,   0.3036127686501,  -0.4441347420216,   0.2655526995659,   0.3709180653095,   0.1409398615360,   0.3500659167767},
   {  -0.3218538165092,   0.0591020807624,   0.1705349087715,  -0.5023921132088,  -0.2175574004650,  -0.0103796301410,  -0.0845675691962,  -0.3112605214119,   0.1537214070559,  -0.3362931907177,  -0.3202625513077,  -0.1917350888252,   0.6068720221519},
   {   0.6065343022346,  -0.0905101746321,   0.5746711492538,   0.1719339191914,   0.0039088525809,  -0.3610251545906,   0.2666295170784,   0.0915150567889,   0.1564981490374,  -0.0532515309751,   0.4549545347691,  -0.0142306527123,  -0.1822309941053},
   {  -0.0488893985748,  -0.4193825423717,  -0.0645788684487,   0.4218498468399,   0.2984462976456,  -0.1117852926254,  -0.1681629270315,   0.3613769412041,  -0.2887715399265,   0.0368687659502,  -0.0298149473965,  -0.0881740748882,   0.0839224979281},
   {   0.4052747189999,  -0.0968715995550,   0.0040771821514,   0.2896442711353,  -0.3508534431458,  -0.3511299490929,   0.5186114907265,   0.0610283687711,  -0.1179436072707,  -0.0928395912051,  -0.3313374817371,  -0.4109106659889,  -0.3741863071918},
   {   0.3772503733635,  -0.1194621995091,   0.1335973441601,  -0.3043915033340,   0.1539962887764,  -0.2299181967974,  -0.3519691526890,  -0.2975671291351,   0.4164845645428,  -0.0363586433232,  -0.4545527100563,   0.5444271564484,  -0.0395301133394},
   {   0.5429124832153,  -0.3748708963394,  -0.0156554616988,  -0.4766824543476,   0.0596083067358,  -0.4429748654366,  -0.1051700636744,  -0.2910049855709,  -0.0866512730718,  -0.3187838196754,  -0.4763775169849,   0.5205087661743,  -0.3065173625946}};
  const float bias_GGH_even_1[13] = {   0.1130719631910,  -0.0785107091069,   0.0792882591486,   0.1414154320955,  -0.0612041465938,   0.0157620273530,   0.1999728530645,   0.0684434249997,  -0.0352031216025,   0.0090759648010,   0.0320411026478,   0.0488675422966,   0.0322758667171};
  // Declare the arrays in the stack
  const float kernel_GGH_even_2[13][13] = 
  {{   0.5315771102905,  -0.3754296600819,  -0.5309311747551,   0.2970652282238,   0.5136927366257,  -0.4466183781624,  -0.1119109541178,  -0.2610221803188,   0.1541275084019,   0.1961133778095,   0.2673234045506,   0.3815947175026,   0.3411691784859},
   {  -0.1006658151746,  -0.3180280327797,   0.3654797077179,   0.4486397206783,  -0.3497768938541,   0.3350680768490,  -0.4748346209526,   0.1670796722174,   0.1363322436810,  -0.0349430255592,  -0.3745993673801,   0.3618740141392,   0.0217032693326},
   {   0.3871105015278,  -0.1444160491228,   0.0953869298100,   0.4585198760033,   0.4419859051704,   0.5120683312416,  -0.1729564517736,   0.3914216458797,  -0.1875590234995,  -0.5291675329208,  -0.4522662758827,   0.3428926467896,   0.2407296150923},
   {   0.4478231072426,  -0.2978029549122,   0.0331151485443,  -0.2970370948315,   0.0878626927733,  -0.3780371248722,   0.0846790596843,   0.1326815038919,   0.4291163086891,  -0.3450081944466,   0.5126792788506,  -0.0852363482118,   0.2795845270157},
   {  -0.4414321482182,   0.0415779948235,   0.2628411948681,  -0.1061451658607,   0.0508906878531,  -0.3631809651852,  -0.1994939446449,   0.4272212088108,   0.0111940838397,  -0.3598693907261,   0.3427305817604,   0.1278107315302,  -0.2401147484779},
   {   0.4532028436661,  -0.4354672133923,   0.1697319447994,   0.0712547376752,  -0.3426647782326,  -0.1515039354563,   0.3056350052357,  -0.3835796713829,  -0.2756661772728,  -0.3582033813000,   0.2980432212353,  -0.2802797257900,  -0.2312346994877},
   {   0.5037075281143,  -0.0907394737005,   0.0407324768603,  -0.3031585514545,   0.1121661663055,   0.4275949299335,  -0.0696033686399,  -0.2584514617920,   0.4257993400097,  -0.0938323885202,   0.2538523972034,   0.2166893035173,  -0.4468332827091},
   {  -0.1589735150337,   0.0908395275474,   0.1651406735182,  -0.0367885082960,   0.1306248009205,   0.3780418038368,   0.1029940173030,   0.2273744791746,   0.1885490864515,  -0.4013896882534,  -0.0836432278156,   0.0939603596926,  -0.3794992566109},
   {   0.3469982445240,   0.3750222027302,  -0.0015785519499,   0.1580864340067,  -0.2348295152187,   0.4597666859627,   0.1432597786188,   0.3853061795235,   0.0586077310145,   0.2281199097633,  -0.4097650945187,   0.2337097972631,   0.0650735199451},
   {   0.1293792724609,  -0.1182884275913,  -0.1153653562069,  -0.2331501245499,  -0.4962463080883,   0.2848952710629,   0.3784964382648,   0.1094313859940,  -0.0868819877505,  -0.0396971739829,   0.3163623511791,  -0.0716793313622,  -0.2209101915359},
   {   0.0197938978672,  -0.0361162722111,   0.2641522884369,   0.2216484397650,   0.2845690548420,  -0.0580377057195,   0.1573128253222,  -0.2806558609009,   0.5126091241837,  -0.3445370495319,   0.0490509569645,  -0.4453252851963,   0.0821721926332},
   {  -0.6223613023758,   0.4202416539192,  -0.4219752848148,   0.2780084908009,  -0.1636941730976,   0.0079403109848,   0.0625286921859,  -0.0876452326775,  -0.2310945391655,   0.0937413126230,   0.2063262462616,  -0.1775563508272,   0.4433426856995},
   {   0.1106981709599,  -0.3299493491650,  -0.1079415604472,  -0.0240504108369,   0.1080552637577,   0.4543353319168,  -0.4950120151043,  -0.4500550627708,  -0.1268876641989,   0.1082785353065,  -0.3539910316467,   0.3308139741421,   0.1969245821238}};
  const float bias_GGH_even_2[13] = {   0.0654292553663,  -0.0179015193135,   0.0292188487947,  -0.0036573908292,  -0.0176363494247,   0.0503114834428,  -0.0413078330457,  -0.0507429130375,   0.1307856738567,  -0.0435017123818,   0.0732873827219,   0.0133208576590,   0.0339389368892};
  // Declare the arrays in the stack
  const float kernel_GGH_even_3[13][13] = 
  {{   0.2212862670422,  -0.2406667470932,   0.3466074764729,  -0.0221669021994,  -0.0352283529937,   0.1076622754335,  -0.0631213560700,  -0.2133863568306,  -0.3270402550697,   0.0386284887791,   0.0939868316054,  -0.0083107091486,   0.4455556869507},
   {   0.4261850416660,  -0.2726155817509,  -0.4796353280544,   0.1827693134546,  -0.4102550148964,  -0.4428304731846,  -0.3284654021263,  -0.1042621955276,  -0.4736684560776,  -0.0729720294476,  -0.4296645522118,   0.4471133053303,  -0.0281905960292},
   {  -0.2761607766151,   0.0746255069971,   0.1918739080429,  -0.2949711382389,  -0.4541508555412,   0.3323704898357,   0.4726816713810,  -0.4394983947277,  -0.1433504223824,   0.4840987920761,   0.5052060484886,   0.0492495037615,  -0.2778009474277},
   {   0.2584392726421,   0.1290533393621,   0.1799620985985,   0.1554016470909,   0.0493201836944,   0.2182650864124,   0.2035393863916,   0.4209411442280,   0.4268901050091,   0.3395030200481,  -0.3849193453789,  -0.2291513532400,  -0.3673360347748},
   {   0.2318220138550,   0.3084415495396,  -0.2279443442822,   0.1984405368567,   0.0433983057737,  -0.1804286986589,  -0.5065178275108,   0.1239488199353,  -0.0679594278336,  -0.3918729722500,   0.3554318845272,   0.0518463850021,   0.2618204057217},
   {   0.2242220938206,  -0.0754332840443,  -0.1850729137659,   0.4138005077839,  -0.3708973526955,  -0.3571098744869,  -0.4710762202740,  -0.5044110417366,   0.3143678605556,   0.4375948905945,  -0.4682044982910,   0.2069558352232,   0.1137474849820},
   {   0.3149836361408,   0.0360852815211,   0.2008391916752,   0.2875487804413,  -0.0948789492249,  -0.1519635319710,   0.1043368801475,   0.1704779863358,   0.2886463701725,   0.4968777894974,  -0.0812863335013,  -0.3944388031960,  -0.0819605290890},
   {   0.3187730610371,  -0.2295048236847,  -0.4219079017639,   0.4069000184536,  -0.4196521043777,  -0.3530686497688,  -0.1587416976690,  -0.3504543900490,   0.0917455479503,   0.1461372226477,  -0.0149839306250,   0.5283239483833,   0.2954975664616},
   {  -0.3974909484386,  -0.4239995479584,   0.2306051552296,   0.4059337973595,  -0.0290591716766,   0.4438923597336,  -0.1690325140953,   0.0707433670759,   0.0685143098235,   0.2003381103277,  -0.3128620088100,   0.0052099302411,   0.2245828658342},
   {   0.2982748448849,   0.2339738160372,   0.4034698605537,   0.4560636281967,  -0.0487517118454,  -0.4211673140526,   0.0540649555624,  -0.3321061432362,   0.3582249581814,  -0.0469802953303,   0.0990502983332,   0.2939404249191,   0.0294456258416},
   {  -0.2218437045813,   0.2565633952618,   0.3032287061214,   0.0890422612429,  -0.4302729666233,   0.0124548356980,  -0.4551862776279,  -0.3211415112019,   0.1569593548775,  -0.0000256530475,  -0.3967053592205,  -0.1934129744768,  -0.0190356150270},
   {   0.3556113541126,  -0.3656782209873,   0.1390947550535,  -0.2992462515831,  -0.1255263239145,   0.4472689628601,   0.2226021885872,   0.5200571417809,   0.2433805763721,   0.0080031268299,  -0.0179246068001,  -0.2988100945950,  -0.3714531660080},
   {   0.3651619553566,   0.2373836785555,  -0.5555474162102,  -0.3417152166367,  -0.0510602854192,   0.2666294276714,   0.2237664908171,   0.4121544957161,   0.4767853915691,   0.1250967830420,   0.2122711241245,   0.2876052558422,  -0.0026928298175}};
  const float bias_GGH_even_3[13] = {   0.0258140042424,  -0.0161938928068,   0.1030543297529,   0.1039799451828,  -0.0109757008031,   0.0802051350474,  -0.0491858907044,   0.0372055061162,   0.0106512475759,   0.0485731363297,  -0.0510112978518,  -0.0670029595494,   0.0679210424423};
  // Declare the arrays in the stack
  const float kernel_GGH_even_4[13][13] = 
  {{  -0.2970988750458,  -0.1832576394081,   0.2220098078251,  -0.1468864381313,   0.4885280430317,  -0.1414075791836,   0.3945590853691,   0.3183105587959,  -0.0017508408055,   0.5208812355995,  -0.2767063081264,   0.3664436638355,  -0.2069804221392},
   {  -0.3624638915062,  -0.0009632110596,   0.2642872035503,   0.2782057523727,  -0.3341909348965,   0.3587768673897,   0.3758285939693,   0.1961503177881,  -0.2224130183458,   0.2674651145935,  -0.3288021981716,  -0.2353605031967,  -0.4475777149200},
   {   0.4765233695507,  -0.0209725201130,   0.3971843421459,  -0.0067690536380,  -0.1569424569607,  -0.4343985319138,  -0.3753098249435,  -0.0805346593261,   0.1935548633337,  -0.2503662407398,  -0.0642476007342,  -0.3381633758545,   0.3858585953712},
   {   0.3851109147072,  -0.0859753787518,   0.4963484704494,  -0.4356099665165,  -0.0050622080453,  -0.1042237058282,  -0.0628525838256,  -0.1170793101192,   0.3302235901356,  -0.1774777024984,   0.2123751640320,   0.2107643932104,  -0.3905690312386},
   {   0.2290608286858,   0.2197687625885,   0.4601600766182,   0.4796835184097,   0.3050754070282,  -0.0143502354622,  -0.2405749857426,   0.2254073023796,  -0.4150401949883,  -0.2088131606579,   0.3421164751053,   0.0142222959548,  -0.1296160519123},
   {   0.2193729430437,  -0.0214451849461,  -0.0478868633509,   0.1391312032938,   0.4771746397018,  -0.0071614868939,   0.4421242475510,  -0.2270777374506,   0.0794558972120,  -0.2497511804104,   0.5029459595680,  -0.1239943131804,   0.2192758321762},
   {  -0.2885820865631,  -0.1661365032196,   0.0487790293992,  -0.3612125217915,  -0.1903661787510,   0.1515082716942,  -0.0175651665777,  -0.4824729263783,  -0.4860186278820,  -0.4415376186371,   0.3767260313034,  -0.2188578397036,  -0.2577601671219},
   {   0.1543259471655,  -0.4524742662907,  -0.2938709855080,  -0.0459713675082,   0.2389137446880,  -0.3839758038521,   0.3305836319923,   0.1226420179009,  -0.2513917386532,   0.4165795743465,  -0.3155196309090,   0.2541648149490,  -0.1210890784860},
   {  -0.0116114364937,  -0.1746356189251,  -0.1514104306698,  -0.1703730672598,   0.2509167790413,  -0.3470553159714,   0.4036919772625,  -0.3415516316891,  -0.1645562946796,  -0.2974528372288,   0.0926149487495,   0.2507055997849,  -0.2646453678608},
   {  -0.1217043474317,  -0.1637785136700,   0.0855654254556,  -0.3699783682823,  -0.2757803499699,  -0.4040580391884,  -0.0239111352712,  -0.1727861911058,  -0.5777921080589,   0.2127248793840,   0.1016579195857,  -0.1410052776337,  -0.2485592961311},
   {   0.2738882005215,   0.0245127081871,  -0.3364806473255,   0.0530358850956,  -0.0234058015049,  -0.0017842822708,   0.1903334110975,   0.2724887132645,   0.1788664907217,  -0.4427545368671,  -0.0549651086330,   0.3876374065876,   0.0221996605396},
   {  -0.3114009499550,   0.1533076763153,  -0.3262389898300,   0.1392644792795,  -0.3269285261631,   0.0799366459250,  -0.3859405517578,   0.2554991841316,  -0.1866703927517,  -0.1214155107737,  -0.0483609586954,  -0.1108193174005,  -0.3405056297779},
   {   0.3124663531780,  -0.1422589719296,   0.5740858912468,  -0.2567297816277,  -0.2077583521605,   0.4074117243290,  -0.1769775748253,   0.3076111674309,   0.3299396932125,   0.3256719708443,   0.2001856416464,  -0.1113277748227,   0.2381051182747}};
  const float bias_GGH_even_4[13] = {   0.0800192579627,   0.0000000000000,   0.0850719138980,  -0.0165101923048,   0.0169910173863,  -0.0468463115394,   0.0132648935542,   0.0272616334260,  -0.0993931367993,  -0.0109723573551,   0.0967402085662,  -0.0125305838883,  -0.0144310640171};
  // Declare the arrays in the stack
  const float kernel_GGH_even_5[13][1] = 
  {{   0.6119375824928},
   {   0.2001086473465},
   {   0.4484945535660},
   {  -0.4524734020233},
   {  -0.6769261360168},
   {  -0.2198856323957},
   {  -0.6521011590958},
   {   0.3900515139103},
   {  -0.3392741382122},
   {  -0.5598567724228},
   {   0.6292871236801},
   {  -0.4791827201843},
   {  -0.4052945375443}};
  const float bias_GGH_even_5[1] = {   0.1285542100668};
  float buffer_in_GGH_even[100];
  float buffer_out_GGH_even[100];
  unsigned int i,j,c; 
 float mean_GGH_even[100] = { 520.2404174804688,   0.3626108169556,   3.1086533069611,   1.1535365581512,  -0.0163867045194,  -0.0032398777548, 123.6561813354492,  58.5553665161133,   0.0081377802417,   0.0128360111266,  -0.0132431024686,  -0.0187001340091,  74.5589065551758,  37.0325736999512,  -0.0313898883760,  -0.0066110268235,  82.2009048461914,   0.0140301706269, 108.9145507812500,  98.6330261230469, 285.4476623535156, 222.3678588867188, 197.7676849365234, 158.2700500488281,  53.9158325195312,   0.4933527708054,   0.4681728482246,   0.4483828842640,   0.6334103941917,   0.2953220307827,   0.4728811979294, 172.0468292236328, 393.9690551757812,   0.0000000000000,   0.0000000000000,   0.0000000000000};
 float sigma_GGH_even[100] = { 545.5167846679688,   1.2656714916229,   1.7774236202240,   0.7815861701965,   2.0329108238220,   2.3563704490662,  98.2702713012695,  34.9193115234375,   1.8119180202484,   1.8130048513412,   1.1318274736404,   1.1508041620255,  51.2948379516602,  25.7209758758545,   1.8156077861786,   1.8171442747116,  59.7377319335938,   1.8210127353668,  39.1830215454102,  66.3805084228516, 222.2783203125000, 187.2064514160156, 157.1246337890625, 134.9869689941406,  59.3359565734863,   0.3937019705772,   0.3725154697895,   0.4069320261478,   0.4585685729980,   0.4302107691765,   0.3575973212719,  85.3732147216797, 216.5904846191406,   1.0000000000000,   1.0000000000000,   1.0000000000000};




  // Load the input in the buffer
  for (c = 0; c < 64; ++c) 
  buffer_in_GGH_even[c] = (img[c]-mean_GGH_even[c])/sigma_GGH_even[c];
  // Processing layer 0 

            for (c = 0; c < 13; ++c ) 
              buffer_out_GGH_even[c] = bias_GGH_even_0[c];

            for (c = 0; c < 13; ++c )
              for (i = 0; i < 36; ++i)
                buffer_out_GGH_even[c] += buffer_in_GGH_even[i] * kernel_GGH_even_0[i][c];

            norma_GGH_even = 0;

            // Prepares for next layer 
            for (c = 0; c < 13; ++c )
              buffer_in_GGH_even[c] = activation_GGH_even_0(buffer_out_GGH_even[c], norma_GGH_even);


            
  // Processing layer 1 

            for (c = 0; c < 13; ++c ) 
              buffer_out_GGH_even[c] = bias_GGH_even_1[c];

            for (c = 0; c < 13; ++c )
              for (i = 0; i < 13; ++i)
                buffer_out_GGH_even[c] += buffer_in_GGH_even[i] * kernel_GGH_even_1[i][c];

            norma_GGH_even = 0;

            // Prepares for next layer 
            for (c = 0; c < 13; ++c )
              buffer_in_GGH_even[c] = activation_GGH_even_1(buffer_out_GGH_even[c], norma_GGH_even);


            
  // Processing layer 2 

            for (c = 0; c < 13; ++c ) 
              buffer_out_GGH_even[c] = bias_GGH_even_2[c];

            for (c = 0; c < 13; ++c )
              for (i = 0; i < 13; ++i)
                buffer_out_GGH_even[c] += buffer_in_GGH_even[i] * kernel_GGH_even_2[i][c];

            norma_GGH_even = 0;

            // Prepares for next layer 
            for (c = 0; c < 13; ++c )
              buffer_in_GGH_even[c] = activation_GGH_even_2(buffer_out_GGH_even[c], norma_GGH_even);


            
  // Processing layer 3 

            for (c = 0; c < 13; ++c ) 
              buffer_out_GGH_even[c] = bias_GGH_even_3[c];

            for (c = 0; c < 13; ++c )
              for (i = 0; i < 13; ++i)
                buffer_out_GGH_even[c] += buffer_in_GGH_even[i] * kernel_GGH_even_3[i][c];

            norma_GGH_even = 0;

            // Prepares for next layer 
            for (c = 0; c < 13; ++c )
              buffer_in_GGH_even[c] = activation_GGH_even_3(buffer_out_GGH_even[c], norma_GGH_even);


            
  // Processing layer 4 

            for (c = 0; c < 13; ++c ) 
              buffer_out_GGH_even[c] = bias_GGH_even_4[c];

            for (c = 0; c < 13; ++c )
              for (i = 0; i < 13; ++i)
                buffer_out_GGH_even[c] += buffer_in_GGH_even[i] * kernel_GGH_even_4[i][c];

            norma_GGH_even = 0;

            // Prepares for next layer 
            for (c = 0; c < 13; ++c )
              buffer_in_GGH_even[c] = activation_GGH_even_4(buffer_out_GGH_even[c], norma_GGH_even);


            
  // Processing layer 5 

            for (c = 0; c < 1; ++c ) 
              buffer_out_GGH_even[c] = bias_GGH_even_5[c];

            for (c = 0; c < 1; ++c )
              for (i = 0; i < 13; ++i)
                buffer_out_GGH_even[c] += buffer_in_GGH_even[i] * kernel_GGH_even_5[i][c];

            norma_GGH_even = 0;

            for(c=0;c<1;++c)
              norma_GGH_even+=exp(buffer_out_GGH_even[c]);

            // Prepares for next layer 
            for (c = 0; c < 1; ++c )
              buffer_in_GGH_even[c] = activation_GGH_even_5(buffer_out_GGH_even[c], norma_GGH_even);


            

      
    return buffer_in_GGH_even[0];
      
    
   
      
    
}


#endif