
    // Select all (Ctrl+A), Copy (Ctrl+C), paste to an empty text file (Ctrl+V) and save that file as 'generated_code.h'
    // 
    // Auto-generated header file. Assumes img to be a floating point array
    // of 64 elements (corresponding to an 8x8 b&w image)

    #include <math.h>

    float norma_SigSNN;
    
inline float activation_SigSNN_0 (float x, float n) 
{ return x > 0 ? x : 0;}
inline float activation_SigSNN_1 (float x, float n) 
{ return x > 0 ? x : 0;}
inline float activation_SigSNN_2 (float x, float n) 
{ return exp(x)/n;  }

    float guess_SigSNN (const float *img, int flag)
    {
    
  // Declare the arrays in the stack
  const float kernel_0[18][30] = 
  {{   0.0031128239352,  -0.1321396529675,  -0.1056470125914,  -0.0283975601196,  -0.1117744892836,  -0.1001712754369,  -0.3076335191727,   0.0095552764833,  -0.0011615979020,  -0.0564313605428,   0.2852410674095,  -0.1082390248775,  -0.0043536834419,   0.0650613307953,  -0.0485989749432,  -0.0148081555963,  -0.0633854717016,   0.1650028228760,  -0.2189003229141,   0.1803637892008,  -0.2189154326916,  -0.2362470477819,   0.1136133074760,   0.0332023352385,   0.1087180823088,  -0.0659395232797,   0.0991580709815,  -0.0676440969110,   0.0719086602330,  -0.1223316118121},
   {   0.2236299961805,   0.3864026367664,  -0.4354382753372,  -0.3692424297333,  -0.2786306738853,   0.3989151120186,  -0.3135555088520,  -0.8483503460884,   0.4712497293949,   0.4701044857502,  -0.5292744040489,  -0.1713657081127,  -0.4453446567059,  -0.4911907613277,   0.7352966070175,  -0.5167708396912,  -0.8174410462379,  -0.0416778512299,  -0.0018900638679,  -0.1986582875252,  -0.4814010262489,   0.2979750037193,   0.3519689440727,   0.2049191743135,  -0.4602452814579,   0.7722790837288,  -0.1451718062162,  -0.0365088358521,  -0.0526893660426,  -0.3011475503445},
   {  -0.0229892712086,   0.3029102981091,   0.0579575598240,  -0.3390850126743,   0.0479085408151,  -0.0168150272220,   0.1662705987692,  -0.1629733890295,  -0.1176203787327,   0.0824209377170,   0.0915727019310,  -0.8859599828720,  -0.5401768684387,  -0.0846059694886,   0.3104422390461,  -0.7290907502174,   0.4173204898834,  -0.3070917427540,   0.5605791807175,   0.3730410039425,  -0.1644105762243,   0.3311601281166,  -0.2128433287144,   0.3205986022949,  -0.1106680259109,  -0.1468564569950,  -0.1743357181549,  -0.1337799429893,  -0.0293494276702,   0.1129990667105},
   {  -0.4043724238873,  -0.0567512400448,   0.2136237174273,   0.3811673223972,  -0.7476792335510,  -0.0214663147926,   0.0068935668096,   0.3448419570923,   0.0750734508038,   0.1526708751917,   0.3248153328896,  -0.6459836363792,  -0.3549858033657,  -0.2169700115919,   0.0251448787749,   0.0535628348589,  -0.1620819419622,  -0.0178799759597,  -0.0979082286358,  -0.0282267984003,   0.7229095697403,  -0.4565620720387,   0.2557492554188,   0.0630434453487,  -0.2718008756638,   0.2083610892296,   0.1660877466202,   0.2143231034279,   0.4574583768845,   0.1235117688775},
   {   0.0330286771059,   0.0055476664566,  -0.0118007613346,   0.2090299576521,   0.1220234856009,   0.3194282054901,  -0.3416940271854,  -0.3005835115910,  -0.1237656250596,  -0.0546776913106,  -0.4473057389259,  -0.4812135696411,   0.1371852755547,  -0.1384277790785,  -0.1726250201464,  -0.1152566596866,   0.1151144057512,   0.4518112540245,   0.2460111528635,  -0.1883499622345,   0.3410600721836,  -0.2144720405340,   0.0488637164235,   0.2030699700117,   0.1102007776499,   0.4253117740154,  -0.1914165616035,   0.1508583128452,  -0.3431046009064,  -0.4220277369022},
   {   0.0732004418969,   0.3991949558258,  -0.1364373415709,   0.0287995263934,   0.1833961457014,   0.1103680431843,   0.3309404551983,  -0.0724062174559,  -0.0404709689319,  -0.0749981775880,   0.1171703860164,   0.1576050668955,  -0.0303870588541,   0.1607755422592,  -0.0352293737233,   0.0249505508691,   0.0404551774263,   0.0230818670243,   0.0484950616956,  -0.3005047738552,   0.0130680138245,  -0.0818760171533,  -0.0797519385815,   0.0378745123744,  -0.3366682529449,  -0.0102998139337,  -0.0869306027889,  -0.1126854419708,   0.0361196435988,  -0.0234514921904},
   {  -0.5343813896179,   0.2513023316860,  -0.4199358224869,  -0.3936225771904,  -0.2277763634920,   0.0409864671528,   0.4106054306030,   0.3490764498711,  -0.3473756015301,   0.3027870059013,  -0.0242558307946,  -0.1433898508549,  -0.0106251537800,  -0.2151119709015,   0.3403329551220,  -0.0763114541769,   0.6235474944115,   0.1160065606236,   0.1635571867228,   0.3079204261303,   0.1198604553938,   0.1686098873615,  -0.3667843937874,  -0.1382908225060,  -0.1292634904385,   0.2000109404325,  -0.1504176557064,   0.3266721665859,  -0.0628705248237,  -0.1432679295540},
   {  -0.2583656609058,  -0.0108467852697,   0.0876838490367,  -0.1165277659893,  -0.5247485637665,   0.3830480873585,   0.2692513465881,   0.1297896653414,  -0.0331370458007,   0.2235715389252,  -0.3214111328125,   0.0186061821878,  -0.4942788779736,   0.2043291926384,  -0.2987187802792,  -0.1524152159691,  -0.8354880809784,   0.3024198114872,   0.0761294737458,  -0.1007143706083,   0.2468148320913,   0.3468094170094,  -0.1357739418745,   0.1360349804163,  -0.2812155485153,   0.0300346426666,   0.3247012197971,   0.1296620368958,   0.0046385177411,   0.1769409328699},
   {  -0.2844836115837,  -0.0673297792673,   0.0893750935793,   0.0504890494049,   0.0873129293323,  -0.1337439566851,  -0.1236852332950,  -0.0868230313063,  -0.8076156973839,  -0.0798914432526,  -0.0622714608908,   0.0186690855771,  -0.1172244027257,   0.3221751153469,  -0.4011434912682,  -0.2837695181370,  -0.0648733973503,  -0.1169272512197,   0.4783965945244,   0.0687033310533,  -0.0592029541731,   0.1356840282679,   0.4858418405056,   0.0299175586551,  -0.0896171405911,   0.2374940961599,   0.0858809500933,   0.5550616979599,  -0.0107058081776,   0.1626937985420},
   {   0.3372682631016,   0.1265055090189,  -0.0582107156515,   0.0547096244991,  -0.0942934229970,  -0.1899951100349,   0.2092444598675,  -0.1473388373852,   0.7818681001663,  -0.1041071340442,   0.1392178386450,  -0.0270741060376,   0.2236686199903,   0.3060884177685,   0.2992353141308,   0.1325043737888,  -0.0322099663317,   0.5817614197731,  -0.4870393872261,   0.1910441815853,   0.0476928763092,  -0.1604668051004,  -0.3914386630058,   0.0896452963352,   0.0604326725006,  -0.0536043383181,  -0.3948598206043,  -0.3569965660572,  -0.0568048246205,   0.2896008789539},
   {   0.1088403537869,  -0.1850327700377,   0.0587973929942,  -0.1332373917103,  -0.1636711061001,  -0.0864932909608,  -0.2267961800098,   0.0489908568561,   0.0894071161747,   0.0104739256203,  -0.1166396588087,  -0.0521079078317,  -0.0303077809513,  -0.0641027241945,   0.0465490743518,   0.1140033900738,  -0.0428433641791,  -0.1578501164913,   0.0536379106343,   0.1620540469885,  -0.0608596988022,   0.2684736847878,   0.1784669458866,  -0.2709798514843,   0.0636321306229,  -0.0635551586747,   0.2694541215897,   0.0567810572684,  -0.0421584285796,  -0.1357785016298},
   {  -0.0273438822478,  -0.0276893805712,   0.2398533374071,   0.0355468057096,   0.0071916244924,   0.0025324274320,  -0.2422621697187,  -0.0326716639102,   0.1733005344868,  -0.2046985924244,   0.4090535342693,   0.0474008619785,   0.0778385773301,   0.6407194733620,   0.0757753327489,  -0.0881206318736,   0.0186180360615,  -0.0670817121863,   0.0812236294150,   0.0895263850689,   0.0795624032617,  -0.2273001819849,   0.2780934572220,   0.2870705127716,   0.0999685451388,  -0.0324845388532,   0.3358369171619,  -0.3822254240513,   0.2414105087519,  -0.0548172779381},
   {   0.4817290008068,   0.2241386026144,  -0.2561652362347,   0.0425932817161,  -0.1120415404439,  -0.0132469469681,   0.1667020320892,  -0.0573494844139,  -0.1653399765491,  -0.6366256475449,  -0.1006736233830,   0.4016962051392,   0.1871733814478,  -0.3351312279701,   0.0045411968604,  -0.0985205397010,  -0.0524670593441,  -0.2846535444260,   0.2400559335947,  -0.0963406190276,  -0.2829427123070,  -0.2280459851027,  -0.2656083703041,   0.0527932643890,  -0.4518337845802,   0.1726370155811,   0.2823071777821,   0.1100779399276,   0.0341944508255,  -0.0513769201934},
   {  -0.1262568086386,  -0.4601946771145,   0.6689513325691,  -0.6208953261375,  -0.0528720766306,  -0.4103461205959,  -0.0424527265131,  -0.0706965401769,   0.2883609831333,  -0.4147132337093,   0.1063383221626,  -0.2313689291477,   0.0177657250315,  -0.0705947205424,  -0.4472151994705,   0.1901815980673,   0.0433491431177,  -0.0275710951537,   0.3843590319157,  -0.3072050809860,   0.0075769121759,   0.2147523909807,  -0.0970244482160,   0.2490646243095,   0.1105450689793,  -0.2074134647846,   0.0703294649720,   0.6895837783813,   0.6877307891846,   0.1326462179422},
   {   0.4403908550739,  -0.4635921716690,   0.1821092367172,   0.4146544337273,  -0.0264627952129,   0.1663005501032,   0.1858775913715,   0.3381175696850,  -0.2508265972137,  -0.3500938415527,  -0.1576702743769,   0.1290641576052,   0.4184795916080,   0.1821848452091,   0.0910340473056,   0.0917794182897,  -0.0644422844052,   0.0820728167892,  -0.2164185345173,   0.0578935965896,   0.2608966231346,  -0.0537333749235,   0.2678689360619,  -0.0443402640522,   0.1030341237783,   0.3896716237068,  -0.3341036438942,   0.5564522743225,   0.2332608997822,  -0.3348204791546},
   {   0.3396792709827,  -0.3440918326378,  -0.1083989664912,   0.3261090815067,   0.0086416192353,   0.1580235511065,  -0.4093676209450,   0.1439240425825,  -0.0989630371332,   0.0721179842949,  -0.1498295664787,   0.3302303850651,  -0.2807303667068,  -0.1652295440435,  -0.0499710515141,  -0.1075270771980,   0.0061085089110,   0.1013956367970,  -0.0908616557717,   0.0047976649366,   0.1648299694061,   0.3221105039120,  -0.0912140607834,   0.1760562658310,  -0.1406242698431,   0.1195439621806,   0.0315420962870,   0.1718112528324,   0.2858100533485,   0.3408506214619},
   {   0.6021618247032,   0.2250985354185,  -0.1489297598600,   0.0088113294914,  -0.0025796887930,   0.0927682667971,   0.3650433719158,  -0.1027882769704,  -0.3357309699059,  -0.4674286246300,   0.0017121537821,  -0.3427840471268,  -0.1440016627312,   0.2857667207718,   0.3038752675056,  -0.2803942263126,  -0.2053250521421,  -0.4136582016945,  -0.2275709658861,  -0.2164165526628,   0.0722322165966,   0.0493673905730,  -0.2065421044827,  -0.2051927298307,   0.2858827710152,   0.2532488107681,   0.0989662855864,   0.0006605233648,   0.2953929901123,  -0.0307951252908},
   {  -0.0841645151377,   0.0583083964884,  -0.0148049667478,   0.0999618768692,  -0.0512122474611,   0.0184977799654,   0.0397166758776,  -0.0354949757457,   0.1648035347462,  -0.1562622785568,  -0.0822664797306,  -0.2927215099335,   0.2011099606752,   0.0613900944591,   0.1244488358498,   0.1283649057150,   0.0044415597804,  -0.2405076473951,   0.0459068715572,  -0.2743597626686,  -0.0342136844993,   0.0823839306831,   0.0580043829978,   0.2311059534550,   0.4383458197117,  -0.0873881727457,   0.2205427139997,  -0.3024497926235,  -0.3855569958687,   0.2676138579845}};
  const float bias_0[30] = {  -0.1576086282730,   0.1686187386513,   0.0081036072224,   0.1379971504211,   0.1525594890118,   0.2905187606812,   0.0254040826112,   0.3869128525257,   0.0841009095311,   0.2737937569618,   0.1720600575209,  -0.1022627502680,   0.5041660070419,  -0.0095672504976,   0.2464418262243,   0.4726307690144,   0.2657350003719,   0.2575537860394,   0.1815399229527,  -0.1207051798701,   0.4873060286045,   0.1912549734116,  -0.1963744163513,   0.1068964824080,  -0.0845640376210,   0.2863986492157,  -0.0801116526127,  -0.0414668545127,  -0.1821170002222,   0.0213903933764};
  // Declare the arrays in the stack
  const float kernel_1[30][30] = 
  {{  -0.3658459484577,   0.0997407734394,  -0.3489854931831,   0.1675096303225,  -0.9069939255714,   0.0221144910902,  -0.8291817307472,   0.2270358800888,   0.2587011754513,   0.0839374959469,   0.2564492523670,   0.1774136424065,   0.5702991485596,  -0.0694516301155,  -0.3908956348896,  -0.1857012808323,  -0.0580703616142,   0.0937576517463,  -0.3375108838081,   0.4090194702148,   0.2096586525440,   0.1032384037971,  -0.2677960395813,  -0.3488327264786,  -0.0973917841911,   0.2324484586716,  -0.1124248132110,   0.1264633834362,  -0.4119609892368,   0.3566899299622},
   {   0.3621902763844,   0.0339824371040,   0.1398153752089,  -0.0553168803453,   0.1543701440096,  -0.1197947189212,   0.0719602629542,   0.0576842650771,   0.0766904950142,  -0.2393268048763,  -0.0371284373105,   0.2447590976954,   0.2360780537128,  -0.0803848505020,  -0.3540844023228,  -0.2277139574289,  -0.0527661703527,   0.0023672771640,   0.2590479552746,   0.0219115968794,  -0.0475136004388,   0.2839299142361,   0.1303122639656,  -0.3970251977444,   0.4567904770374,  -0.2252395600080,  -0.2891326546669,   0.1099175363779,   0.4046337604523,  -0.1450114697218},
   {  -0.4248491227627,  -0.0873866006732,   0.0481588244438,  -0.0614390894771,  -0.0106934299693,   0.4173653125763,   0.0868021920323,   0.2466618567705,  -0.3939171135426,   0.2444179505110,  -0.1560057550669,   0.1885451674461,   0.1129767447710,   0.0697866082191,  -0.1111862659454,   0.5066367983818,   0.6919293403625,  -0.3545824289322,  -0.1739986538887,   0.4665253758430,  -0.0860989540815,   0.0116180051118,  -0.1549043953419,  -0.3352031111717,   0.0923820883036,  -0.3349860012531,  -0.1584733128548,  -0.0868792384863,   0.0484108515084,   0.1668668985367},
   {  -0.3966348469257,  -0.5901522040367,   0.2173971235752,  -0.0716677904129,   0.0526980124414,  -0.0407173745334,  -0.3585646450520,  -0.2045320719481,  -0.0163882412016,  -0.1712259054184,   0.2679549455643,   0.0209608320147,  -0.0625131204724,  -0.2411095350981,  -0.3639277517796,  -0.1092028543353,  -0.5558316111565,  -0.3404034376144,   0.0212290789932,   0.5682957768440,   0.0810687541962,   0.3130231201649,  -0.0881557911634,   0.1208983808756,   0.2166063189507,  -0.3375445604324,  -0.9646783471107,  -0.3216769695282,   0.0102002946660,  -0.2876964807510},
   {  -0.1642798036337,  -0.4645644128323,   0.2327031791210,  -0.0854005515575,  -0.0723153278232,  -0.5870403647423,  -0.3443273305893,   0.1422766894102,   0.0246296990663,   0.1943549662828,   0.1610606908798,   0.0220487620682,  -0.0384651310742,   0.0030546144117,  -0.3318307101727,  -0.3021724224091,   0.2642696499825,  -0.3332449197769,   0.3773531019688,  -0.2032188922167,  -0.1695378422737,   0.2062860876322,   0.0733439996839,  -0.3288151621819,   0.2495856285095,  -0.1656686365604,   0.1737771779299,  -0.0778343304992,   0.4459609389305,  -0.2291042655706},
   {   0.1233538836241,   0.5542803406715,   0.2337531298399,   0.3767464160919,  -0.1406096667051,   0.3732166588306,  -0.0223277416080,  -0.2839119136333,  -0.3538023233414,  -0.2131056636572,  -0.0204169619828,  -0.0781943947077,  -0.1262024194002,   0.0100577194244,  -0.2750754058361,  -0.5046316385269,   0.4474396705627,   0.2177499085665,  -0.5453828573227,   0.1211008056998,   0.0476757697761,   0.3814432024956,   0.4248394370079,   0.1068576350808,  -0.3650372624397,  -0.3583946824074,   0.2156698554754,  -0.0391539260745,   0.1832181215286,   0.0030913474038},
   {  -0.1647409945726,   0.3203185200691,  -0.0820982307196,  -0.3531279265881,   0.0143170868978,   0.1506745666265,   0.5371300578117,  -0.5268474817276,   0.2544419765472,   0.1106219738722,  -0.2189944386482,   0.0642527490854,   0.2075479328632,  -0.4295347929001,  -0.2482514828444,   0.1562057435513,   0.2110131233931,  -0.1752963960171,   0.0457042455673,  -0.0238364040852,   0.1009164303541,  -0.0928332582116,  -0.5627408027649,  -0.1350050121546,   0.2695662677288,  -0.2747378647327,  -0.0352499783039,   0.1523831784725,   0.2162333130836,   0.2578704059124},
   {  -0.2304203808308,  -0.6167839765549,  -0.6877582669258,   0.0030473486986,   0.1150901466608,   0.1955573260784,   0.0701810047030,  -0.1608156412840,   0.1406901478767,  -0.2577722668648,   0.3452239632607,   0.3742575049400,  -0.0676661878824,  -0.0572086758912,  -0.2135844826698,   0.1931809186935,  -0.3654126822948,  -0.1961419880390,   0.1218497008085,  -0.0482723303139,   0.1397383362055,  -0.1441584229469,  -0.2026130706072,  -0.3287913799286,   0.1193264946342,  -0.0334805808961,  -0.1152663677931,   0.2709289789200,   0.4911329448223,  -0.2765948176384},
   {   0.0219820756465,   0.1047794222832,   0.2390155196190,   0.1897831112146,  -0.3889216482639,   0.3647632300854,   0.4075606167316,   0.1884489953518,  -0.4019211828709,  -0.2663007974625,   0.2207301259041,  -0.1035527214408,   0.2083327621222,  -0.0594272464514,   0.0950181931257,   0.0655347779393,   0.5415668487549,   0.4928327500820,   0.0968167632818,   0.3297679722309,  -0.1750875115395,   0.1584159135818,  -0.0265915747732,   0.0289690047503,  -0.1767514944077,   0.1445310562849,  -0.1548841446638,   0.1847174912691,  -0.1125184372067,   0.1962451040745},
   {   0.2535163462162,   0.1309451907873,   0.3166866302490,   0.0586426518857,   0.3088052570820,   0.4728964269161,   0.4911697208881,  -0.4059081673622,  -0.4228482246399,  -0.2587720751762,  -0.0430590100586,   0.0336040034890,   0.4528208971024,   0.2580955028534,  -0.1400101482868,   0.5291435122490,  -0.1571739614010,  -0.2949630618095,  -0.1141802817583,   0.3041819334030,   0.3073301315308,   0.1485840678215,   0.1273952722549,  -0.1908963471651,  -0.0045539909042,   0.0941668152809,   0.1496461927891,   0.4783552289009,  -0.6966494321823,  -0.0160486865789},
   {  -0.2499911636114,  -0.4480143785477,   0.1457544565201,  -0.2106695920229,   0.1159191876650,   0.1689176708460,  -0.4002042710781,   0.4976010918617,   0.0035147680901,  -0.1781694293022,   0.1524665206671,   0.3729535341263,   0.3678961992264,  -0.1238338947296,  -0.0802565217018,  -0.3913776576519,  -0.2460574805737,  -0.1166563928127,  -0.0052219498903,   0.0619523748755,   0.1258786022663,  -0.0230223424733,  -0.2481642663479,   0.0717129260302,   0.3568976223469,  -0.2259303182364,   0.4500950276852,  -0.2890430092812,  -0.0368822962046,   0.1248973160982},
   {  -0.1226220428944,   0.0004611883778,   0.0433048531413,  -0.3040371835232,  -0.2369217276573,  -0.4631815552711,  -0.1313823610544,   0.2666648626328,  -0.2551685273647,  -0.0471172146499,   0.3260815441608,  -0.0706021189690,  -0.5520244240761,  -0.4323912858963,  -0.0480258278549,  -0.2276480644941,  -0.2187592089176,   0.3340062797070,   0.0793330520391,  -0.3599271774292,   0.0120448376983,  -0.3135232925415,  -0.2472600638866,   0.0563297718763,   0.1412444412708,  -0.3439315557480,   0.5613729953766,  -0.2824299633503,   0.4772688746452,  -0.1371864825487},
   {  -0.2774625420570,   0.1119034066796,  -0.2635621726513,   0.1292854696512,  -0.3694099187851,  -0.0002150485525,  -0.0152894984931,   0.2940326333046,  -0.0259350538254,   0.0725798457861,   0.2642061710358,   0.3576489984989,  -0.3614986538887,   0.0897572189569,   0.2340206950903,   0.1243210509419,  -0.0441603399813,  -0.0466009415686,   0.0930044353008,  -0.3559841513634,   0.2276015579700,  -0.3167160451412,  -0.4638209640980,   0.1725626736879,   0.1039047017694,  -0.0658898279071,  -0.0248393416405,  -0.8473505377769,  -0.1106961145997,  -0.3307562470436},
   {   0.2768593728542,  -0.0727341622114,   0.1316002160311,  -0.1391738355160,  -0.1234901249409,  -0.0157975628972,  -0.2708226740360,   0.0079703219235,  -0.1636465638876,   0.5539086461067,   0.6909667849541,   0.1032072082162,  -0.1930130422115,   0.4248810410500,   0.1258260756731,   0.1535093188286,  -0.2304971367121,  -0.2520120143890,   0.7112091183662,  -0.0580743290484,  -0.3269681930542,  -0.2612541317940,  -0.4115997850895,  -0.2069747149944,   0.1108285188675,   0.1278225630522,  -0.4454880654812,  -0.8627159595490,  -0.0453764498234,  -0.0192869231105},
   {  -0.0267238710076,  -0.0151363853365,   0.1137106046081,   0.4826043546200,   0.1398840695620,   0.2323084175587,   0.4238217175007,  -0.2257740795612,   0.3008302152157,  -0.1903918981552,   0.1453982442617,  -0.5891039967537,   0.5395838618279,   0.1270923465490,  -0.1524398177862,  -0.0708187073469,  -0.2807523608208,   0.2530085742474,  -0.4569637179375,   0.2520392835140,  -0.3855113089085,   0.3867914676666,   0.0558730289340,  -0.2439919710159,  -0.3242539763451,  -0.3787782490253,  -0.3849228322506,   0.2034790515900,  -0.1761061996222,  -0.0043536229059},
   {  -0.3185673356056,  -0.1388965547085,  -0.6837222576141,   0.1432396918535,   0.0845208838582,  -0.0202790163457,  -0.2096749544144,   0.2116853743792,  -0.0149440597743,  -0.1529865115881,   0.2117848843336,   0.3437091112137,  -0.6420126557350,   0.1317498385906,  -0.3579955399036,   0.0710772722960,  -0.3216664791107,  -0.2058137655258,   0.1072845384479,   0.2118555605412,   0.1311121881008,  -0.5176794528961,   0.0669144764543,  -0.2951907813549,   0.1904987096786,  -0.3693786263466,   0.0440618619323,   0.2214983552694,   0.0455661714077,   0.0119763696566},
   {  -0.2469790428877,  -0.8461265563965,  -0.5492188334465,  -0.5619187355042,   0.1349211633205,   0.2820501327515,  -0.3378086090088,   0.5857966542244,   0.1142372488976,   0.5118110179901,  -0.1162448674440,   0.2477889955044,   0.4680496454239,   0.2914788722992,  -0.3593587279320,   0.2817742228508,  -0.0720739439130,  -0.4609553515911,  -0.5071008801460,  -0.8330311179161,  -0.0770256817341,  -0.4679618775845,  -0.1969754546881,   0.1539036929607,   0.2690573334694,  -0.2062034159899,  -0.0938659086823,  -0.1633360236883,   0.0707491710782,   0.3624155521393},
   {  -0.1062529683113,  -0.0277979709208,   0.0079479059204,   0.4202180504799,  -0.3240259885788,  -0.0852468013763,  -0.5262852311134,   0.1679785847664,   0.0373968966305,   0.0042663072236,   0.1119096353650,  -0.0867366939783,  -0.0383254848421,  -0.3266878128052,  -0.4081170260906,  -0.1723775714636,   0.1517105400562,   0.4157414436340,   0.0787232220173,   0.4713112711906,  -0.0778003856540,   0.3395546078682,   0.2873924672604,  -0.2487616389990,  -0.1899652928114,  -0.2659595906734,  -0.1048727259040,  -0.2896107435226,   0.0455798059702,   0.2651431262493},
   {   0.1319186687469,   0.3579572141171,   0.2723750770092,   0.0166491325945,   0.2823482155800,   0.4460798203945,   0.2542309761047,   0.0775308832526,   0.1773342341185,  -0.4424762725830,  -0.1667614728212,  -0.1165957078338,   0.2012629508972,  -0.2326410114765,   0.1201663017273,   0.3792901635170,  -0.0722515210509,  -0.1866453438997,  -0.1450386047363,   0.4779139757156,  -0.0474015809596,  -0.0787427574396,  -0.2449743747711,   0.0640810281038,  -0.2330360263586,  -0.3226853907108,  -0.2303340882063,   0.0974630638957,   0.0290844142437,   0.3554246723652},
   {   0.0591364912689,   0.3411673009396,   0.0271971840411,  -0.1546925157309,  -0.0216295793653,  -0.0070299860090,  -0.4195383787155,   0.3142186403275,   0.1071452125907,  -0.3449646830559,  -0.1476162970066,   0.2434475719929,   0.0038981630933,  -0.0087081603706,  -0.3502053022385,  -0.2182767838240,   0.0064369929023,  -0.2630583345890,   0.0219991970807,   0.0179302711040,   0.3864708542824,  -0.1411684155464,  -0.0332927629352,   0.0701682418585,  -0.0947780832648,   0.1680661737919,  -0.4630154967308,   0.8447085022926,   0.0214635506272,   0.0741676837206},
   {  -0.4174133241177,  -0.2133937776089,   0.1067963689566,   0.0924358963966,   0.0491729900241,  -0.5669924020767,  -0.0052349357866,   0.0321291685104,   0.1831297129393,   0.2669065296650,  -0.1352381855249,   0.2599944174290,  -0.2829822003841,  -0.2093493491411,   0.2329644411802,  -0.2321185916662,  -0.0132379392162,   0.1985699385405,   0.3211433887482,   0.0476511381567,   0.3584662973881,  -0.2045547515154,  -0.0287983603776,   0.1459901779890,   0.3311615586281,   0.0509299226105,   0.1651126295328,  -2.4407157897949,   0.4314982295036,   0.0485085658729},
   {   0.3566263616085,  -0.0164890885353,   0.0923665985465,   0.1924336701632,  -0.4429142475128,   0.0445700399578,   0.7447500228882,  -0.1247853711247,  -0.2787887752056,  -0.0440500788391,   0.0120993945748,  -0.0784988775849,   0.0389114692807,  -0.1370627880096,  -0.1565879434347,  -0.3203017115593,  -0.2177675217390,   0.2567068934441,  -0.2746327817440,  -0.1413933038712,  -0.3467977046967,   0.3455521762371,   0.1909793168306,  -0.3643852174282,   0.3378697633743,  -0.2399837225676,   0.0074679488316,   0.0256701856852,  -0.4155863225460,   0.1741965562105},
   {   0.4858397543430,   0.4991962909698,  -0.0760790705681,   0.4124834835529,   0.1984837800264,  -0.0016933983425,  -0.3540629148483,  -0.1407936513424,  -0.1384023427963,   0.0472299121320,   0.0057421806268,  -0.4394768774509,   0.7872236967087,   0.1641985625029,   0.1773612946272,  -0.1492822766304,   0.2091969251633,   0.2741398811340,  -0.5560203790665,   0.4769509136677,  -0.0217374302447,   0.0620075240731,   0.4798224270344,  -0.4004226624966,   0.1099713966250,  -0.2570119500160,  -0.4640414714813,  -0.0519766584039,   0.1850715130568,  -0.1016292423010},
   {   0.2641718387604,   0.2441988140345,   0.1206233277917,   0.3321713805199,  -0.0094608217478,   0.4799904823303,   0.0113476291299,  -0.0118681201711,   0.2545264959335,   0.0989266559482,  -0.4145334064960,   0.1621691137552,   0.2112206667662,  -0.0593794584274,   0.1480624675751,  -0.2400971055031,  -0.2062721699476,   0.1225880533457,  -0.0657665431499,   0.1938246041536,  -0.2146462053061,   0.0992564633489,   0.1299561262131,  -0.0436629839242,   0.2310448139906,  -0.3484297990799,  -0.0315009765327,  -0.1642282307148,  -0.1125723421574,   0.3743394911289},
   {   0.0659890174866,   0.2601131796837,  -0.1014749258757,  -0.3382549881935,   0.0797795802355,  -0.3812271058559,  -0.0656689256430,  -0.1132935658097,  -0.3698739707470,  -0.1551557183266,   0.1467299163342,  -0.2511025965214,  -0.4142437279224,  -0.2180576324463,  -0.2983123362064,   0.5998116731644,  -0.0694252923131,  -0.3696301579475,   0.4752438366413,  -0.1256131827831,  -0.6289573311806,  -0.0156259909272,   0.2537900209427,  -0.2353655397892,   0.0066909515299,   0.2117655724287,   0.1834311783314,  -0.5121825933456,  -0.0621501542628,  -0.2799180448055},
   {   0.4621691405773,   0.2636449933052,   0.5983449816704,   0.4179428815842,  -0.0333727002144,   0.4669790565968,  -0.3348591029644,   0.0133785223588,  -0.4691136181355,   0.0703870579600,   0.1691035926342,   0.1634786874056,   0.3201516270638,  -0.3661986291409,   0.0686001256108,   0.0974516645074,  -0.2217359989882,   0.3379333317280,   0.1882813721895,  -0.1567885875702,  -0.0242597013712,   0.2934890389442,   0.3068940341473,  -0.1393975019455,  -0.3894026279449,  -0.3621522188187,   0.4295282959938,  -0.1991875320673,  -0.4634470641613,   0.1209568679333},
   {  -0.0191139355302,  -0.2235713005066,  -0.1495910286903,   0.0592584051192,   0.0709201171994,  -0.2786957621574,   0.1911919265985,   0.2000122219324,   0.0566729195416,   0.1294935494661,   0.1345199346542,  -0.0384080782533,  -0.0135346967727,  -0.0287920385599,  -0.0055885347538,  -0.1724597960711,   0.0158861875534,  -0.5650079250336,  -0.0390897057950,  -0.4860954582691,   0.1166469603777,   0.1732480525970,   0.2541441917419,  -0.2060236036777,   0.0767322778702,   0.1932976841927,   0.2521529793739,  -0.2093717306852,  -0.1266118735075,  -0.2546829879284},
   {   0.1294698566198,   0.0208665151149,   0.2270732969046,  -0.2237049937248,  -0.0804734304547,   0.3844746947289,   0.1206364110112,   0.2036921083927,   0.2497609853745,  -0.0182471964508,  -0.1752852946520,   0.1112425029278,  -0.3661006093025,  -0.1957211345434,  -0.0463327877223,  -0.1890384852886,   0.3030757904053,   0.0494322590530,  -0.1800421327353,   0.1967480778694,   0.0642170086503,  -0.0464320220053,   0.3436104059219,   0.0956479758024,   0.3511448204517,   0.0943920239806,   0.0408820100129,   0.0124565577134,   0.1551265120506,   0.3604022562504},
   {   0.1094401031733,  -0.5266591310501,   0.1624145507812,   0.0048594926484,   0.0240437034518,   0.2939399778843,  -0.0120345279574,   0.1176852881908,  -0.3095720112324,  -0.3427314460278,   0.0579104833305,   0.1480813324451,  -0.0515337139368,   0.0165284052491,  -0.1419792324305,  -0.3407302498817,   0.3521132767200,   0.5648871660233,   0.3590959906578,  -0.1575227081776,   0.2998717129230,  -0.2202185392380,   0.3011748790741,  -0.2106627672911,   0.2805193066597,  -0.0360823199153,   0.1509478390217,  -0.3129133284092,   0.0146810291335,  -0.1251296699047},
   {  -0.2194389700890,  -0.2860369086266,  -0.1689922660589,  -0.1448920369148,  -0.0992837920785,  -0.0964956730604,  -0.0151570290327,  -0.1338629126549,  -0.2358504533768,  -0.2323570549488,   0.4746917784214,   0.1568050682545,   0.1288192868233,  -0.2524576187134,  -0.3519279658794,  -0.4823836386204,  -0.0307038631290,  -0.3584049046040,   0.4677635431290,   0.3108711540699,  -0.0936954244971,   0.2637528181076,  -0.3018036782742,  -0.1881535500288,   0.1658693999052,  -0.1454440951347,  -0.8641964793205,  -1.0417702198029,  -0.0519647449255,   0.0092604393139}};
  const float bias_1[30] = {   0.1282125115395,  -0.0465901307762,   0.1362591236830,   0.2076474279165,  -0.0352234691381,   0.2982582449913,  -0.1614608019590,  -0.0307881850749,  -0.1515532732010,  -0.1141492277384,  -0.1746328473091,   0.2217695415020,   0.4182629585266,  -0.1084373220801,  -0.1023785322905,  -0.1069247052073,   0.0093271117657,   0.0689664483070,  -0.1946759670973,   0.0004856245941,  -0.0615784302354,   0.1722435951233,   0.0358216315508,  -0.1166929602623,   0.2788518369198,  -0.0828174129128,  -0.0998022928834,  -0.0081003354862,  -0.2110613882542,   0.1933457106352};
  // Declare the arrays in the stack
  const float kernel_2[30][2] = 
  {{  -0.4379377067089,   0.6575256586075},
   {  -0.4795429408550,   0.6550437808037},
   {  -0.3891188502312,   0.3552460372448},
   {  -0.3982045054436,   0.3099265098572},
   {  -0.2835159003735,  -0.0611677058041},
   {  -0.2000858783722,   0.2969229221344},
   {   0.0972710922360,  -0.2979408502579},
   {  -0.1987241655588,  -0.5012412071228},
   {   0.0026903606486,   0.2023571878672},
   {   0.0783452019095,  -0.2235499322414},
   {  -0.2260561585426,   0.1357912570238},
   {   0.1758652925491,  -0.4227255582809},
   {  -0.0865042358637,   0.6867599487305},
   {   0.3644358217716,   0.0172598920763},
   {  -0.1526015996933,  -0.1081999838352},
   {   0.6770778894424,   0.0849579796195},
   {  -0.4717402160168,   0.5703527331352},
   {  -0.8765030503273,   0.8523528575897},
   {   0.0217342060059,   0.4619237184525},
   {   0.6848974823952,  -0.0181949734688},
   {   0.1814927458763,  -0.3594000935555},
   {  -0.5454232692719,   0.4025034606457},
   {  -0.5055875182152,   0.2380409538746},
   {   0.1746017038822,   0.2153773754835},
   {   0.4651467800140,  -0.3661569952965},
   {  -0.0352770052850,   0.1498391926289},
   {  -0.5212235450745,   0.4196424782276},
   {   0.0234884619713,   0.5975272655487},
   {  -0.3301007449627,   0.1221523657441},
   {  -0.4049983918667,   0.3492152690887}};
  const float bias_2[2] = {  -0.1450393050909,   0.1450390964746};
  float buffer_in[100];
  float buffer_out[100];
  unsigned int i,j,c; 
 float mean[100] = {  27.5994529724121,  72.1742477416992, 112.2803955078125,  68.7365264892578,   1.6293079853058,   0.0024683799129,  60.0116653442383,  32.5388526916504,  -0.0019627939910,  -0.0017232355895,  -0.0159027613699,  -0.0048124818131,  65.1357345581055,   0.7598865628242,-5035.0717773437500,-6726.9208984375000,-5083.4003906250000,-6745.4633789062500};
 float sigma[100] = {   8.1459941864014,  73.4033050537109,  41.8173980712891,  34.4978408813477,   0.8512523174286,   1.4742023944855,  37.9353408813477,  20.7636833190918,   1.1825956106186,   1.2055549621582,   1.8122127056122,   1.8161948919296,  35.3281555175781,   0.9235768914223,5054.9741210937500,4723.0429687500000,5018.7246093750000,4709.9506835937500};




  // Load the input in the buffer
  for (c = 0; c < 64; ++c) 
  buffer_in[c] = (img[c]-mean[c])/sigma[c];
  // Processing layer 0 

                for (c = 0; c < 30; ++c ) 
                  buffer_out[c] = bias_0[c];

                for (c = 0; c < 30; ++c )
                  for (i = 0; i < 18; ++i)
                    buffer_out[c] += buffer_in[i] * kernel_0[i][c];

                norma_SigSNN = 0;

                // Prepares for next layer 
                for (c = 0; c < 30; ++c )
                  buffer_in[c] = activation_SigSNN_0(buffer_out[c], norma_SigSNN);


                
  // Processing layer 1 

                for (c = 0; c < 30; ++c ) 
                  buffer_out[c] = bias_1[c];

                for (c = 0; c < 30; ++c )
                  for (i = 0; i < 30; ++i)
                    buffer_out[c] += buffer_in[i] * kernel_1[i][c];

                norma_SigSNN = 0;

                // Prepares for next layer 
                for (c = 0; c < 30; ++c )
                  buffer_in[c] = activation_SigSNN_1(buffer_out[c], norma_SigSNN);


                
  // Processing layer 2 

                for (c = 0; c < 2; ++c ) 
                  buffer_out[c] = bias_2[c];

                for (c = 0; c < 2; ++c )
                  for (i = 0; i < 30; ++i)
                    buffer_out[c] += buffer_in[i] * kernel_2[i][c];

                norma_SigSNN = 0;

                for(c=0;c<2;++c)
                  norma_SigSNN+=exp(buffer_out[c]);

                // Prepares for next layer 
                for (c = 0; c < 2; ++c )
                  buffer_in[c] = activation_SigSNN_2(buffer_out[c], norma_SigSNN);


                

      //i = 0;
      //for (c = 0; c < 2; ++c)
      //  if (buffer_in[c] > buffer_in[i])
      //    i = c;
      
      if (flag==0) //sig
        return buffer_in[0];
      else if (flag==1) //bkg
        return buffer_in[1];
      
      return -1.0;
      
      //return i;
    
}
