#pragma once
    // Select all (Ctrl+A), Copy (Ctrl+C), paste to an empty text file (Ctrl+V) and save that file as 'generated_code.h'
    // 
    // Auto-generated header file. 

    #include <math.h>

    float norma_SigDBNN;
    
inline float activation_SigDBNN_0 (float x, float n) 
{ return x > 0 ? x : 0;}
inline float activation_SigDBNN_1 (float x, float n) 
{ return x > 0 ? x : 0;}
inline float activation_SigDBNN_2 (float x, float n) 
{ return exp(x)/n;  }

    float guess_SigDBNN (const float *img, int flag)
    {
    
  // Declare the arrays in the stack
  const float kernel_0[19][256] = 
  {{  -0.0197210926563,   0.0640160292387,   0.0389195233583,  -0.0645383894444,  -0.0844192579389,   0.0625801160932,   0.0537858717144,   0.0048615275882,  -0.0302611719817,  -0.0100890137255,   0.0697550922632,  -0.1237989142537,   0.1174583062530,  -0.0287580490112,   0.0815378054976,  -0.1038355380297,  -0.0668182075024,   0.1389683485031,   0.1268734186888,  -0.0530928596854,   0.0581305399537,  -0.0298965405673,   0.1237444803119,  -0.0000747694430,  -0.1113371998072,  -0.0161984767765,  -0.0008066805894,  -0.1098879203200,  -0.0723305270076,  -0.0964215099812,  -0.1047656461596,   0.0197402127087,   0.0309384148568,   0.1215988993645,  -0.1171008497477,  -0.0462148860097,  -0.0233851261437,  -0.1048137098551,   0.1296942383051,  -0.0761878937483,   0.0916596129537,  -0.3864856064320,  -0.1359996050596,  -0.1048005446792,  -0.1194456294179,  -0.0257923342288,   0.0605532936752,   0.0658841580153,   0.1360678672791,   0.0503836087883,  -0.0328267663717,   0.0233622044325,   0.0418664030731,   0.0862057358027,  -0.0047270674258,   0.0167113915086,   0.0643656477332,  -0.2079558074474,   0.0436299256980,  -0.1097763851285,   0.0454971343279,  -0.0481326133013,  -0.1161665990949,  -0.1053245365620,  -0.0218047723174,  -0.1045034155250,   0.1161935999990,  -0.1920959949493,   0.0770506039262,   0.1422019451857,   0.0209539178759,   0.0110001405701,  -0.3960105478764,   0.1078305020928,  -0.0916786342859,  -0.2245587557554,   0.0434360764921,   0.1112266257405,  -0.0979104191065,  -0.1233572140336,   0.1397006213665,   0.1045000255108,  -0.1375993937254,   0.0021305973642,   0.1286196708679,  -0.1212128847837,   0.0693477839231,  -0.1114890426397,  -0.0522666648030,  -0.0539750084281,   0.0740731805563,  -0.1277580261230,   0.0725598260760,   0.0649418830872,  -0.0731115639210,   0.1309702992439,   0.0569997914135,  -0.1482829898596,  -0.1147600635886,  -0.0052638319321,  -0.0329925604165,  -0.0231828037649,   0.1127534955740,  -0.1125875413418,  -0.1102943494916,   0.0753531605005,  -0.1189151257277,  -0.0132789136842,  -0.1245379224420,  -0.1163253039122,  -0.0919828414917,   0.1381298750639,  -0.0253958273679,  -0.0797556415200,   0.0582509487867,  -0.0911244675517,  -0.0779624134302,   0.0028803884052,   0.1159695163369,   0.0538210868835,   0.0302433259785,  -0.1296775341034,  -0.1322367042303,  -0.1069545298815,   0.0176452025771,   0.0239341333508,  -0.1090733408928,   0.0074072186835,   0.1068105250597,  -0.0485576428473,   0.0461556017399,   0.1226543933153,   0.0174886249006,  -0.0652969628572,   0.0872971862555,  -0.1061561629176,   0.0310102272779,  -0.1161818653345,   0.0456509739161,   0.1278623491526,   0.0508474670351,  -0.0837531164289,   0.0823545157909,  -0.0482045598328,   0.1054488196969,  -0.1750440746546,  -0.0232411101460,  -0.0749679058790,  -0.1120924353600,   0.1436844617128,   0.0417145639658,  -0.0381032228470,   0.0759423971176,  -0.0303037613630,   0.1382313817739,   0.0850340127945,  -0.1355505734682,   0.0712959691882,  -0.1336540430784,   0.0182309187949,   0.0808161571622,   0.1418620795012,  -0.0223823245615,   0.0341377221048,  -0.1308072507381,  -0.0349197871983,   0.0680187195539,  -0.0120855430141,   0.0691523402929,  -0.0713477358222,  -0.0859604477882,   0.1104551330209,   0.0097706206143,  -0.0710613876581,   0.0272515770048,  -0.0930150002241,   0.0514726191759,  -0.0384282544255,  -0.1490204781294,   0.0720711126924,  -0.0131956478581,   0.0444389730692,  -0.0672865658998,  -0.1058017387986,   0.0120828934014,  -0.0781194716692,   0.0615408048034,   0.0175298079848,  -0.0189515873790,   0.0877061560750,  -0.0836812183261,  -0.1154339462519,   0.0148865170777,  -0.0866633206606,   0.0538088679314,   0.1360650509596,  -0.0593277290463,  -0.1077773422003,   0.0349434129894,   0.1240837797523,  -0.0611841306090,   0.0096611035988,   0.0899395123124,   0.1506562083960,  -0.0521281696856,   0.1611863076687,   0.0392233766615,   0.0730976611376,  -0.0417048372328,   0.0413474142551,  -0.0223305560648,   0.0324938818812,  -0.0238254331052,  -0.1525201499462,   0.0292160958052,  -0.0076753078029,  -0.0814052894711,   0.0087114125490,   0.1080185621977,   0.0234041251242,  -0.0512639842927,  -0.0237254183739,   0.0277178883553,   0.1724775731564,  -0.1274259984493,   0.0329265519977,  -0.0298149436712,  -0.0026252740063,   0.1010846644640,   0.1188474148512,   0.0399862676859,   0.1206230521202,  -0.0533770248294,   0.1763179600239,  -0.1628251373768,  -0.0514583326876,   0.0612571649253,  -0.0464011766016,   0.0675932466984,   0.1318621784449,  -0.0595707856119,   0.1388582289219,  -0.0713386535645,   0.0320755653083,  -0.0105949370191,  -0.0025872562546,   0.0001978706423,  -0.1299562454224,   0.0733709707856,   0.0218022093177,  -0.0104378387332,   0.0676935613155,   0.0469537004828,  -0.0424096174538,   0.1218478232622,   0.1262497156858},
   {  -0.0292842201889,   0.1161937862635,   0.0827486664057,  -0.1047003269196,  -0.0534166507423,  -0.0234939511865,  -0.0167564023286,  -0.0272003710270,   0.1281324774027,  -0.0748226568103,  -0.0102540962398,  -0.1152842640877,   0.0632046759129,  -0.0291701387614,   0.0180291626602,   0.0678852200508,   0.1479665338993,  -0.0098043940961,   0.0318941101432,   0.0652913004160,  -0.1017350405455,  -0.0554994121194,  -0.0211044773459,  -0.0367558263242,  -0.1338992416859,  -0.1355461180210,  -0.1013570427895,   0.0804497450590,  -0.0601269006729,  -0.0931319072843,   0.0906814783812,  -0.0106025282294,  -0.1808784157038,   0.0353834070265,   0.0711273774505,  -0.0574211888015,  -0.0673181116581,  -0.1404628157616,   0.1643542051315,  -0.0201158784330,   0.0908944383264,  -0.0978586897254,   0.0313755124807,   0.0407262556255,   0.0594851672649,  -0.0991946682334,   0.0995085164905,  -0.0933379083872,   0.1006754711270,  -0.0171469468623,  -0.1323292255402,  -0.0618233866990,  -0.1257806271315,  -0.1126888990402,   0.0801348909736,   0.0662244707346,  -0.1380495280027,   0.0401156470180,   0.0944437086582,   0.0771254375577,  -0.0467893257737,   0.0582098960876,   0.0802241191268,   0.1416228562593,   0.0222250111401,   0.0317860022187,  -0.1387621015310,   0.0718901902437,   0.0235932655632,   0.0098905675113,   0.0061224708334,   0.0933206975460,  -0.0191156584769,   0.0283733475953,   0.0355575457215,   0.1039637476206,   0.0669170096517,  -0.1428962796926,   0.0312287639827,   0.1284562349319,   0.0089966896921,   0.0179681796581,  -0.0459367372096,  -0.0040377583355,  -0.0276757534593,   0.1114466711879,  -0.0335157699883,   0.0232872460037,  -0.0657997578382,  -0.1514633744955,  -0.1067592203617,   0.0397749282420,   0.0344553776085,   0.1196231991053,   0.1866255104542,  -0.0253912135959,   0.0825072079897,  -0.0045991386287,   0.1080635935068,   0.0296073518693,   0.1352723538876,  -0.0090283853933,  -0.0095202056691,   0.0573022216558,  -0.0649351626635,   0.0266253352165,  -0.0661113709211,  -0.1433130502701,   0.0577778369188,  -0.1601305305958,  -0.1138771772385,   0.0698309764266,  -0.0194485411048,   0.1223627105355,   0.2037065774202,   0.0860034003854,   0.0188086815178,  -0.1344963461161,   0.0462364703417,   0.0679184645414,  -0.0142712378874,   0.0185234379023,   0.0836286842823,  -0.0959170460701,   0.1382370293140,  -0.0719266608357,  -0.0717659145594,  -0.0188525300473,  -0.1369840651751,   0.0780996903777,   0.1297190487385,   0.1224726662040,  -0.0141170108691,   0.0839854404330,  -0.0292556695640,   0.0518775619566,   0.0030102981254,   0.0201110597700,  -0.0974232330918,  -0.0435105599463,  -0.0153403617442,   0.0681852176785,   0.0130650801584,   0.0875558480620,  -0.1378287076950,   0.0178320091218,   0.0086064906791,   0.0016452267300,  -0.1882985830307,   0.0411934405565,   0.1012347862124,   0.0554116144776,  -0.1132572144270,   0.0818099230528,  -0.0615829154849,  -0.0771812349558,   0.0271372869611,  -0.0764121264219,   0.0889252424240,  -0.0033906069584,  -0.0356468223035,   0.0449760258198,   0.0669598951936,  -0.0504651367664,   0.1134234666824,  -0.0162324644625,  -0.0225743949413,  -0.0156512539834,   0.1090444102883,   0.0149997873232,   0.0330043658614,   0.0447004511952,   0.0863764584064,   0.1178237795830,   0.0932725667953,  -0.1434003263712,  -0.0216651093215,   0.0291103292257,  -0.0384066700935,  -0.1298324018717,  -0.1177933961153,  -0.1128482893109,   0.0728476718068,  -0.0089982124045,  -0.0050510568544,  -0.0190205313265,   0.2266088575125,   0.1003566384315,  -0.0977331399918,  -0.0134982755408,   0.1102996245027,   0.1345091313124,  -0.0058770240285,   0.1845577955246,  -0.0966744869947,   0.0048287743703,  -0.0669477656484,   0.0401859842241,  -0.1195649802685,   0.0370852462947,   0.0468385703862,  -0.1315557658672,   0.0158954355866,  -0.0479623824358,   0.0517243891954,  -0.1492654681206,  -0.1457257419825,   0.1283968091011,   0.1031901091337,   0.0190274547786,  -0.0835048705339,  -0.1206145808101,  -0.0379625186324,  -0.1123495325446,   0.0939733460546,   0.0578237064183,  -0.0417768619955,   0.0443151704967,  -0.0119470870122,  -0.0809094309807,  -0.0141140101478,  -0.0551774613559,  -0.1144870519638,   0.1313092261553,   0.0955044254661,   0.0261180046946,  -0.1520276069641,   0.0435102917254,  -0.0424574688077,   0.0497627444565,  -0.0025372398086,   0.0490535795689,   0.1280759423971,  -0.1110496595502,  -0.1243690773845,  -0.1130636408925,   0.1368296891451,   0.1106858253479,   0.0311723519117,   0.0068104276434,  -0.0007812000113,   0.0556818358600,  -0.0251881517470,  -0.1495749950409,  -0.0138423293829,  -0.1104554533958,   0.0949706435204,  -0.1427001208067,  -0.0687182471156,   0.0996137335896,  -0.1803125292063,   0.0509657748044,  -0.0781611278653,  -0.0215991288424,  -0.0297648236156,  -0.0394421592355},
   {  -0.0755054652691,  -0.1065170317888,  -0.1013398617506,   0.0180609468371,  -0.0962836816907,   0.0043855756521,  -0.1275045871735,   0.0457729399204,   0.1261088103056,   0.0669118389487,  -0.0198012031615,  -0.0000835868123,   0.2012112885714,   0.0875715836883,   0.0608198568225,  -0.0686425790191,  -0.1212930083275,   0.0149600161240,   0.0844162628055,  -0.0849736332893,   0.0297752637416,  -0.0618196390569,  -0.0464561805129,   0.1424593925476,   0.0001722358575,   0.0236519612372,  -0.1366617828608,  -0.0334533080459,  -0.1250719875097,  -0.1514086276293,  -0.0366210937500,  -0.0433498769999,   0.0033480103593,   0.0300629809499,  -0.0482561811805,  -0.1411502957344,  -0.0629733726382,  -0.0589883886278,   0.0619607008994,   0.1214641705155,   0.0783385336399,   0.0190753471106,  -0.0308819338679,   0.1961095035076,   0.1371237337589,   0.0582166835666,   0.1364164203405,   0.0759621337056,  -0.0514740683138,   0.0171998105943,  -0.1331285983324,  -0.0667168423533,  -0.0141167808324,   0.0048549519852,  -0.1765856891870,   0.0486608594656,  -0.1346063911915,  -0.2816140353680,  -0.0746629983187,  -0.1048147454858,  -0.0030340726953,   0.0787153169513,   0.0505241081119,   0.0952479764819,  -0.1308415085077,  -0.0713415071368,   0.1386996805668,  -0.0241594202816,   0.1250114440918,   0.1042976304889,  -0.0612735785544,   0.0234391354024,   0.1404478996992,   0.0432044975460,  -0.0847024619579,  -0.0533943325281,   0.0530999153852,   0.0513632744551,   0.0978107005358,  -0.0171914324164,  -0.0287453271449,  -0.0569657273591,   0.1601739525795,  -0.0651772767305,  -0.0140471644700,   0.0289739165455,  -0.0697421878576,  -0.0857308432460,  -0.0296843107790,  -0.0935147851706,  -0.1336948573589,   0.0357422456145,   0.1306357681751,  -0.0574920549989,   0.0591357797384,  -0.0211261641234,   0.0501362569630,   0.1100714579225,   0.0632621049881,  -0.0558890216053,   0.0814162269235,   0.0400958620012,   0.1077234596014,  -0.0860048159957,  -0.1272109299898,  -0.0605304874480,   0.1445648372173,  -0.1377794742584,   0.0942969694734,  -0.0490810722113,   0.1408532857895,  -0.0226585399359,  -0.0017917611403,   0.0389815606177,  -0.1163322925568,   0.1355497837067,  -0.0523752309382,  -0.1765962243080,  -0.1256031543016,  -0.0208632256836,   0.0250882916152,   0.0102217737585,   0.1408848464489,   0.1064404621720,   0.0428825952113,  -0.0437494069338,  -0.1430349946022,   0.0491330958903,  -0.1283661276102,   0.0147698028013,   0.1113979518414,   0.0000455308691,   0.2115471661091,   0.0501336716115,  -0.0813129842281,  -0.1494679749012,   0.0725024640560,  -0.0558978207409,  -0.0919289514422,  -0.1060885787010,   0.1163874715567,  -0.0706021338701,   0.0327714346349,  -0.0280894041061,  -0.1436797678471,   0.1230831444263,   0.1531160175800,   0.1808880269527,  -0.0214427094907,  -0.0682280734181,  -0.1366790086031,   0.0160929374397,  -0.0502867512405,  -0.0007735202089,  -0.0101850219071,   0.0231746491045,   0.0913693308830,   0.1142921894789,   0.0555078648031,  -0.1030424982309,   0.0780388265848,   0.1145614758134,  -0.1204275712371,   0.0374574996531,  -0.1242493018508,  -0.0762013718486,   0.0850041732192,  -0.0483189374208,   0.0878302603960,  -0.0487699098885,  -0.0830399468541,   0.1072778403759,  -0.0074940063059,   0.0419211462140,   0.0284582413733,   0.0575762018561,   0.0239043310285,   0.2597131133080,   0.0694868490100,   0.0137952454388,   0.0718088150024,   0.0914910882711,  -0.0314614921808,  -0.0695375576615,  -0.0006360451807,  -0.1136965677142,   0.1019950658083,   0.0976497456431,   0.0775143876672,   0.0351419076324,   0.0347329229116,  -0.1018504798412,   0.1214807033539,  -0.0059425286017,   0.1280468851328,   0.1141768768430,   0.1262197345495,   0.0077991751023,  -0.0923751965165,  -0.0325982980430,   0.1282894164324,   0.1191076114774,   0.1253390908241,   0.1278268396854,   0.1147314310074,   0.0589268840849,   0.0459118597209,  -0.0811500847340,  -0.1288493573666,   0.0535742081702,  -0.0407460071146,  -0.0597716793418,  -0.0863691344857,   0.0200322177261,   0.0739380121231,   0.1368891596794,   0.0965693518519,   0.0910825505853,  -0.0897486880422,  -0.0132123548537,   0.1372593790293,  -0.0817071348429,  -0.0000780815462,   0.2173350602388,  -0.0680705085397,   0.0199070889503,  -0.0923803672194,   0.1098494902253,  -0.0915679335594,  -0.0798891857266,  -0.1413044482470,   0.0096948537976,   0.0652428567410,  -0.1308172196150,  -0.0449996255338,  -0.0364991910756,   0.0412860475481,   0.0713298171759,  -0.0891548618674,   0.1222901940346,  -0.0070816203952,   0.0865278095007,  -0.0590637624264,   0.0178031660616,  -0.1832022219896,  -0.0495222508907,   0.0872868821025,  -0.1541139632463,   0.0644988641143,   0.0825800895691,   0.0524936690927,   0.0390939339995,  -0.1100198253989,  -0.0621408112347,  -0.0347985066473,   0.0869409665465},
   {   0.0549011826515,  -0.1309426128864,   0.0001479375351,  -0.1357865631580,   0.1086751073599,  -0.0872580781579,   0.0888221263885,   0.0745101794600,  -0.1160163581371,  -0.0228504184633,   0.0956983119249,   0.0482949651778,  -0.0615813918412,   0.0784030035138,   0.1030135750771,   0.0613138824701,   0.0201399326324,  -0.0475340634584,   0.0400307178497,  -0.0403580293059,   0.1206931471825,   0.0317800976336,  -0.0395126529038,   0.0247623156756,   0.1157207414508,  -0.0511339679360,  -0.0170885398984,   0.0880035534501,   0.0713463723660,   0.0694641098380,  -0.1618529707193,   0.0393033400178,  -0.0926802903414,  -0.0474369116127,   0.0100794965401,   0.0350933782756,  -0.0253693778068,  -0.0688109099865,  -0.0066899890080,   0.0648423954844,  -0.1525399982929,  -0.0849280059338,  -0.1408866643906,  -0.0428262948990,  -0.1069193482399,  -0.0819178074598,  -0.0932235419750,  -0.1175544261932,   0.1484292745590,  -0.0378427915275,  -0.0081733409315,   0.0543993897736,   0.0170155894011,  -0.1068111583591,  -0.0612955763936,   0.0336328335106,   0.0066598914564,  -0.0433204956353,  -0.0118298316374,   0.1230472251773,   0.0961529165506,  -0.1247841641307,   0.0486690439284,  -0.0798906311393,   0.0237084906548,  -0.0607173368335,   0.1429192423820,  -0.0049941949546,  -0.1396230757236,   0.1467801481485,   0.0326794087887,   0.1028097718954,  -0.0806955546141,   0.1151487454772,   0.0447980128229,   0.0479996651411,   0.0300527550280,  -0.1208812594414,  -0.0869022756815,  -0.1060486435890,   0.0349786691368,   0.1086403280497,  -0.0606096833944,   0.0312006175518,  -0.0041087893769,   0.0547756738961,  -0.0137881701812,   0.1487581580877,   0.0963787361979,   0.0570942908525,   0.0984948202968,   0.0084976665676,  -0.1446657776833,  -0.0402705818415,  -0.0421437062323,  -0.1927261948586,   0.0093400366604,   0.0448651313782,   0.0948892086744,   0.0704769119620,  -0.1165099963546,   0.0214464180171,   0.1066441908479,  -0.1480953693390,   0.0736132487655,  -0.0645693093538,  -0.0304304007441,  -0.1213120147586,  -0.1171933636069,  -0.1633283048868,   0.1333458572626,   0.0793777406216,   0.1321219056845,  -0.0527637563646,  -0.0472508184612,  -0.1250790655613,   0.0960236564279,  -0.1405427157879,   0.1341639161110,  -0.0278696510941,   0.0101632885635,  -0.0822663232684,   0.0103986393660,  -0.0542760938406,   0.0405846685171,   0.1129263639450,   0.0257285777479,  -0.0555636584759,   0.1256412416697,  -0.0311536919326,   0.1006249040365,  -0.1569325476885,  -0.0603534281254,  -0.0254200678319,  -0.0669286623597,  -0.1094877570868,   0.0060817995109,   0.0991334915161,   0.0798818841577,  -0.0694094747305,   0.0152650680393,  -0.1254961639643,   0.0987247675657,   0.0239173043519,  -0.0565383210778,  -0.0553966127336,  -0.1147956848145,  -0.0326964743435,  -0.0722133591771,  -0.0585846714675,   0.0076435175724,  -0.0268584154546,   0.0823819115758,  -0.1045149937272,  -0.0447721220553,   0.0920929089189,   0.1298428177834,   0.0174345560372,  -0.0096896141768,  -0.0617162771523,  -0.0560099333525,   0.1239804923534,  -0.0303358491510,   0.0807272717357,  -0.0489104054868,   0.0603225529194,   0.1467891335487,  -0.0492192953825,   0.1223290562630,  -0.1633831709623,   0.1140665858984,   0.0088612409309,  -0.0761655196548,   0.0428497791290,   0.0295597333461,   0.0655018836260,   0.1050813049078,  -0.0895161628723,  -0.1093827560544,  -0.1015004739165,  -0.0229485742748,   0.1225036904216,   0.0252317450941,   0.0982451885939,  -0.0270890239626,   0.0804584249854,  -0.0697956383228,  -0.0064924182370,   0.0445848815143,  -0.0568244159222,   0.0658858567476,   0.0011026640423,  -0.0234470348805,  -0.0282043740153,   0.0697804763913,   0.0468480102718,   0.0172280259430,   0.0948870182037,   0.0329401940107,   0.1471999883652,   0.1242774724960,   0.1335667371750,   0.0108066825196,   0.1506914794445,   0.0969187617302,  -0.0656605437398,  -0.0066196061671,  -0.0594505444169,  -0.1400801092386,   0.1524296700954,  -0.0927929356694,  -0.0735738053918,   0.0695451050997,   0.0922946855426,   0.1466643959284,   0.0937643200159,   0.1458616554737,  -0.0126085551456,  -0.0313671007752,  -0.0021314136684,   0.0504808872938,   0.1377490460873,   0.0332456976175,  -0.0851703956723,  -0.1931196898222,   0.0909381285310,   0.1159508302808,   0.0503414310515,   0.0336927138269,  -0.0817265510559,  -0.0408000610769,   0.1023196354508,   0.0800183713436,  -0.0556251816452,  -0.1673491597176,  -0.1084736511111,   0.1135535463691,  -0.0809434279799,  -0.1396878957748,  -0.1091773733497,   0.0430735461414,   0.0574007369578,   0.0957945212722,   0.0989136770368,   0.0321762487292,   0.1213697865605,  -0.0546194165945,   0.0904392153025,  -0.0698574408889,  -0.0908779054880,   0.0075870207511,   0.1457459479570,   0.0242260191590,   0.0420853793621,  -0.0705244615674,  -0.0482821501791},
   {   0.0892055183649,  -0.0691873058677,  -0.1577140390873,  -0.0923683792353,  -0.0968060567975,   0.1798043400049,   0.0666307657957,   0.0781401470304,   0.0746943503618,   0.1102127954364,  -0.1102901101112,  -0.0157084204257,  -0.1159555241466,   0.0324770137668,  -0.1491314917803,   0.0217996388674,  -0.1004548892379,  -0.0748972371221,   0.1323249042034,  -0.0390034802258,   0.0266756359488,   0.1242657974362,  -0.0580148436129,  -0.1295095682144,  -0.2184146940708,  -0.0051864250563,   0.0588050782681,  -0.0474261157215,   0.1767552345991,  -0.0195107832551,   0.1857266277075,  -0.0928393974900,   0.0514509528875,  -0.0777175948024,  -0.0435476303101,   0.0804813802242,   0.1192334592342,   0.0028567183763,  -0.1069751456380,   0.0783318057656,   0.0594883933663,   0.0647794306278,  -0.0926989391446,  -0.2167999297380,   0.0376272797585,   0.0414264015853,   0.0950981751084,   0.1501694023609,  -0.1505501121283,  -0.0540463291109,  -0.1474630683661,   0.0791580602527,   0.0134956091642,   0.1299789100885,   0.0528432466090,   0.0961125046015,  -0.0169390067458,   0.2180476784706,   0.0364321693778,   0.0537606701255,  -0.1629409641027,   0.0822886750102,  -0.0478920824826,  -0.0094987526536,  -0.0599719695747,  -0.1381043046713,  -0.0409051403403,  -0.0824561491609,   0.0564488433301,  -0.0959296971560,   0.0359409712255,  -0.1050613522530,  -0.1565203815699,  -0.1046788319945,  -0.0492192246020,   0.0353672429919,  -0.1094558760524,   0.0709227323532,   0.2003454715014,  -0.0804880335927,   0.0120285358280,  -0.1315472126007,  -0.0306901913136,  -0.0196803696454,   0.1323006004095,   0.0557183176279,   0.0630227252841,   0.0569165609777,  -0.1709408462048,  -0.0907238051295,  -0.0792186334729,  -0.1268455535173,   0.0710693299770,  -0.1114791035652,  -0.0655062645674,  -0.2858491837978,   0.0928083807230,  -0.0806157141924,   0.0351746007800,   0.0917586162686,   0.0149580892175,   0.0665817707777,   0.1956867128611,  -0.0678025856614,   0.1764172911644,   0.1348987668753,   0.0104218432680,  -0.0075107873417,  -0.1765825003386,  -0.1594423204660,  -0.0679327920079,  -0.1478761285543,   0.2181006968021,  -0.0844029113650,   0.0196107719094,   0.0158496182412,   0.1430445313454,   0.0539585947990,  -0.0851825773716,  -0.1606186330318,  -0.0283391531557,   0.1717093437910,  -0.1590289622545,   0.1009693294764,   0.0650731250644,   0.0137047357857,  -0.0899970531464,  -0.0907285809517,  -0.2155335992575,   0.1122742518783,   0.0326447747648,   0.0350943952799,  -0.2324950397015,  -0.0519164130092,   0.0434745550156,   0.0457128025591,  -0.1195188090205,  -0.0890726894140,  -0.0672212466598,   0.1304264813662,   0.0871576517820,  -0.0591161623597,   0.2399586290121,   0.1010131388903,  -0.2031233608723,   0.0225482359529,  -0.1067285537720,   0.0933653861284,   0.2187144160271,  -0.0363389812410,   0.0899708420038,   0.0835050940514,   0.1095805019140,  -0.1535366475582,  -0.0073817027733,  -0.0840681716800,  -0.0013385583879,  -0.1216180250049,   0.1264481544495,  -0.1429230868816,  -0.1341708451509,   0.0697882622480,   0.1462586522102,  -0.2022171765566,   0.0897307842970,  -0.0713664740324,   0.0707858279347,   0.0806829258800,  -0.0378450490534,   0.0915562808514,   0.1691921353340,   0.0041026300751,  -0.0038321991451,   0.0147647494450,  -0.0679404735565,   0.0843767970800,   0.0930766612291,   0.1706353425980,   0.0989738404751,   0.0433241985738,  -0.0147775923833,   0.0863071903586,  -0.1521817296743,  -0.0947444140911,  -0.0946462079883,   0.0342494174838,   0.0794249325991,  -0.1916882097721,   0.0929100885987,  -0.0625100284815,  -0.0796929597855,   0.1965129375458,  -0.1639037579298,   0.0842800289392,  -0.1229270845652,  -0.2373349070549,   0.1507692337036,  -0.0739200860262,   0.0367278642952,   0.0948101356626,   0.2066872268915,  -0.1609065979719,   0.0245187263936,  -0.2219113260508,   0.1023096516728,  -0.1020560488105,   0.1459541171789,  -0.0013684706064,  -0.2089013159275,   0.0103660710156,  -0.0779859274626,  -0.1367334723473,   0.1313076913357,   0.0786692276597,  -0.0245672222227,   0.0209946464747,   0.1021337881684,   0.1296072453260,  -0.0942116156220,  -0.2140133827925,   0.0111294351518,  -0.0700971260667,  -0.0853569358587,  -0.1086253598332,  -0.1826999783516,  -0.1405088752508,   0.0518163032830,  -0.0824478790164,  -0.0630857571959,  -0.0129573196173,  -0.0469659157097,   0.1262743175030,   0.0317466631532,   0.0764129087329,  -0.1204614713788,   0.0923563987017,   0.0938890576363,  -0.0124105773866,   0.1357354223728,   0.1385594159365,  -0.1632794439793,  -0.0050162710249,  -0.1534089297056,   0.1783146262169,   0.0331456661224,   0.1003649607301,   0.1637929677963,   0.0105664469302,  -0.0893075093627,   0.0427974537015,  -0.0717829018831,   0.0894135981798,  -0.0990279614925,   0.0494109317660,   0.0863015726209,  -0.3791087567806},
   {  -0.0069019715302,   0.1122172996402,  -0.1366281062365,  -0.0178287532181,  -0.1064047664404,  -0.0793792679906,   0.0341707840562,  -0.1328492164612,   0.0979851186275,  -0.0452265255153,   0.1513472646475,   0.0718263238668,   0.1045015007257,  -0.1280454993248,  -0.0546575710177,   0.0800101384521,  -0.0774179995060,  -0.0028405222110,   0.0866670086980,  -0.1292194128036,   0.0328211560845,   0.0710000097752,  -0.0995805859566,  -0.0926501005888,  -0.0844686478376,   0.1568474471569,  -0.0821175575256,  -0.0958353132010,   0.0139267686754,  -0.1183227598667,  -0.1013458296657,  -0.1285544335842,  -0.0712833404541,   0.0460471548140,   0.1372183412313,  -0.0737914666533,  -0.0651147067547,   0.0114834839478,  -0.0271680075675,   0.1591451317072,   0.1241916865110,   0.0514170788229,  -0.0033552981913,  -0.0733967572451,  -0.0995677486062,   0.0738063603640,   0.1083822399378,   0.0957309901714,  -0.0438421890140,  -0.0280410945415,  -0.1452693492174,   0.0140447150916,  -0.0545735247433,  -0.1071291491389,  -0.1477735191584,   0.0323130078614,  -0.0006688187132,   0.0215259920806,  -0.0077243731357,   0.0362586490810,   0.0434507988393,  -0.0515917427838,   0.0555580295622,  -0.1470558643341,   0.1422946006060,  -0.0346772186458,   0.0002050891344,   0.0780103504658,   0.0556053221226,  -0.0170545931906,   0.1025417149067,  -0.1498533636332,   0.0129381390288,  -0.0234324876219,  -0.0272478945553,   0.0247977375984,  -0.1285558640957,   0.1672770529985,   0.1148188710213,  -0.0915955081582,   0.1240331754088,  -0.1177564859390,   0.0232824031264,   0.0193062983453,  -0.0434015505016,  -0.1327770650387,   0.0219618324190,   0.0772556215525,  -0.0294786952436,  -0.0175235532224,  -0.0642620623112,   0.1460073888302,  -0.0163840949535,   0.0404011718929,   0.0418581292033,  -0.0844036638737,   0.0474769547582,   0.0941652581096,  -0.0446274131536,  -0.0461600907147,  -0.1244406104088,  -0.0107859326527,  -0.0367363914847,   0.0778102949262,   0.0194682069123,  -0.0752432644367,  -0.1559549123049,  -0.0614433400333,   0.1496549695730,   0.1178968250751,  -0.0337379574776,   0.0285604111850,   0.0023681249004,  -0.0488584749401,   0.0594399385154,   0.1019749566913,   0.0414322279394,   0.0067409011535,   0.0891281813383,  -0.0079906350002,   0.1395018696785,  -0.0093609401956,  -0.0539049580693,   0.0911044701934,  -0.1369048058987,   0.0930742695928,  -0.0641445815563,   0.0492353960872,  -0.0419462434947,   0.0651419758797,  -0.0517164915800,  -0.0650772377849,  -0.0435064882040,  -0.1474368572235,   0.0789095610380,  -0.1077713668346,  -0.1247717514634,   0.1271569579840,  -0.0764583498240,  -0.1283937096596,  -0.1900270283222,   0.1100056767464,   0.0294229276478,   0.0111923580989,  -0.1158000603318,  -0.1005456522107,  -0.0954293608665,   0.1424490213394,   0.0169808156788,   0.0811611488461,   0.0949660912156,  -0.0251999311149,   0.1354136615992,  -0.0066087194718,   0.0361494086683,  -0.0428395830095,   0.0812364146113,   0.0649297684431,  -0.1301959156990,   0.1014627367258,   0.0520081110299,  -0.0670594424009,  -0.0745083242655,   0.0403109826148,  -0.0147816287354,  -0.1423562616110,   0.1236100271344,   0.0340457409620,   0.0811002999544,  -0.1110258623958,  -0.0473242886364,   0.0158239621669,   0.0110712507740,  -0.1522710770369,   0.0522724352777,  -0.0464994907379,  -0.1047412082553,   0.1271032989025,   0.0515904054046,  -0.0937254056334,   0.1502715498209,   0.1408529132605,   0.0368566736579,   0.1539901942015,   0.0415462106466,   0.0472638681531,  -0.1299173533916,   0.0806698352098,  -0.1149663478136,  -0.1580550968647,  -0.0058454289101,  -0.0725911632180,   0.0034465680365,   0.1125473156571,  -0.0245984829962,  -0.0352081581950,   0.0658462494612,   0.1414628326893,  -0.1519023627043,   0.1385283619165,  -0.1658119410276,   0.0379798635840,  -0.0580482222140,  -0.0242909174412,  -0.0439516417682,   0.0122383851558,   0.0068711815402,  -0.1464096307755,  -0.0122386077419,   0.0848538726568,  -0.1452433615923,  -0.1220497637987,  -0.1404718607664,  -0.0955642014742,   0.1409664899111,   0.1269298642874,  -0.0802396014333,  -0.0328327417374,   0.0045209927484,   0.1227626278996,   0.0329950563610,  -0.0003723534755,  -0.0385951958597,  -0.0090217096731,  -0.0146457711235,   0.1269318163395,   0.0200045257807,  -0.0744330063462,  -0.1246509626508,   0.0058443392627,   0.0155751872808,  -0.0566686391830,   0.1261223107576,  -0.0656870231032,   0.0559768676758,   0.1044465750456,   0.1082396134734,   0.1462758332491,  -0.0245486367494,  -0.1304599344730,  -0.1029179617763,  -0.0942738801241,   0.0913840830326,   0.0884754955769,   0.1016510874033,  -0.0797876119614,  -0.0789212882519,  -0.1547953039408,   0.0022167251445,   0.1207684651017,   0.0512764565647,  -0.0440297611058,  -0.0123201748356,   0.0824796482921,  -0.1279436647892,  -0.0603227429092},
   {  -0.0991169884801,   0.0023489424493,   0.0022102033254,  -0.0778099372983,   0.1460755914450,   0.1386557072401,   0.0358574315906,  -0.1303206980228,  -0.0443356558681,  -0.1126473993063,   0.0795502066612,   0.0607703886926,   0.0954723954201,   0.0264629293233,  -0.0138159673661,  -0.1374189853668,  -0.0910249873996,   0.1198176890612,  -0.0178420711309,   0.0242857169360,  -0.1428041905165,   0.0617530122399,  -0.0983291715384,  -0.0505273230374,   0.1082365736365,  -0.0488244220614,  -0.1134392246604,  -0.0349115282297,  -0.0476780980825,   0.0805555731058,   0.0472194887698,  -0.0360708385706,  -0.0506871156394,   0.0787647739053,  -0.0651026293635,  -0.1601111441851,  -0.0725625306368,  -0.0819309800863,  -0.1652615964413,   0.1573951691389,   0.1326996386051,   0.2623854875565,  -0.0787486806512,  -0.1392670869827,  -0.0098564093933,  -0.1403426975012,  -0.1356533914804,  -0.0102849267423,   0.0044580292888,   0.0694634318352,   0.0764752700925,   0.0335845500231,  -0.0222989730537,   0.0748647153378,  -0.1565129905939,   0.1134697198868,   0.0772694572806,   0.0025969769340,  -0.0026488071308,  -0.0423438474536,  -0.0584855601192,   0.1744854152203,   0.0850530788302,  -0.1101533770561,   0.0125765148550,  -0.1227434873581,   0.0864854082465,   0.0103069022298,  -0.0581774078310,   0.0318660363555,   0.1475641727448,   0.0150638110936,  -0.0002416579810,  -0.1269516795874,   0.1286897510290,   0.0785168856382,  -0.0947890579700,   0.0112064694986,   0.0235025919974,  -0.0328492373228,  -0.0150181874633,   0.0030713593587,   0.0408298112452,   0.1576734632254,   0.0863674581051,  -0.0274469945580,  -0.1131016016006,   0.0680824816227,   0.1493576020002,  -0.0726776793599,   0.1104229614139,   0.0751204192638,   0.2578391730785,  -0.0431744232774,  -0.0342657379806,   0.0013423688943,  -0.1580742746592,   0.1444948166609,  -0.0571221970022,  -0.0669411942363,   0.0037159461062,  -0.1267350167036,   0.0738854855299,   0.0385071039200,  -0.1063154637814,  -0.0435916706920,   0.0575507543981,   0.0659893229604,  -0.0349340103567,   0.0189581215382,   0.0965049713850,  -0.1288233995438,  -0.0475359857082,   0.1405132412910,  -0.1173273697495,  -0.0357860215008,   0.0209968890995,  -0.0310864746571,   0.1423475593328,  -0.0939266756177,   0.1997045427561,  -0.0716497227550,  -0.1502353996038,   0.0106144901365,  -0.0354407504201,   0.1381965130568,  -0.0020812842995,  -0.0412683561444,  -0.0275112148374,  -0.0430171079934,   0.1115017235279,   0.0073336749338,  -0.1478521078825,   0.0720168873668,   0.1178651377559,   0.1273653209209,  -0.0838404521346,   0.0479254722595,  -0.0391182675958,   0.0678476020694,  -0.1480565369129,  -0.1018330678344,   0.0625704228878,  -0.0077538024634,  -0.0449939593673,   0.0374931469560,   0.2036342471838,   0.0481304265559,  -0.0185276996344,   0.0933540537953,  -0.1298412531614,  -0.0132683394477,   0.0140404338017,  -0.0153452781960,  -0.1113749444485,  -0.0664348825812,  -0.0420452989638,   0.0556134656072,   0.0689346790314,  -0.0785168930888,  -0.0241157785058,   0.0417523793876,  -0.1095918118954,   0.0256255175918,   0.0802200883627,   0.0246558431536,   0.0514936111867,  -0.0315466411412,  -0.0874701291323,  -0.1082072332501,  -0.0559466965497,  -0.0914953127503,   0.1855907738209,   0.0077524492517,   0.1024514660239,  -0.0134342527017,  -0.1208649724722,   0.1827605515718,  -0.0866751894355,  -0.0610797032714,  -0.1506465971470,   0.1097737848759,   0.0205958206207,   0.0802275389433,   1.0384687185287,   0.0033699879423,  -0.1155682578683,   0.1551584005356,  -0.0155309326947,   0.0111440354958,   0.0728076621890,  -0.0363462530077,   0.1440685838461,   0.0571335256100,   0.0409327559173,   0.0189406834543,   0.1107702851295,  -0.0410657636821,  -0.1237055286765,  -0.0203450862318,   0.1889997571707,   0.0916879698634,   0.1503947824240,  -0.1144015863538,   0.0752945691347,   0.1375142633915,  -0.1001621037722,  -0.0801225155592,  -0.0951982066035,  -0.1726645529270,   0.1053704097867,   0.0745215192437,   0.1110412925482,   0.0651481375098,  -0.0592960268259,  -0.1173714920878,  -0.0607560351491,  -0.0521869249642,  -0.1309382021427,  -0.1294187456369,  -0.0012561471667,  -0.0941233485937,  -0.0454340055585,   0.1975764781237,   0.1233387663960,  -0.1334428787231,  -0.0502303242683,   0.1369812190533,   0.1160156801343,   0.1390655636787,  -0.0208008028567,   0.1059973835945,   0.0705985426903,   0.0217070505023,  -0.1625085324049,   0.1006756052375,   0.0673838257790,  -0.0166795160621,  -0.0775119587779,   0.0562910623848,   0.1629365235567,  -0.1220328360796,  -0.0589336454868,  -0.0679391697049,  -0.0603157170117,   0.1114794984460,   0.1639282703400,  -0.0303684361279,  -0.0261448528618,   0.1076964139938,   0.0397040732205,  -0.0959054157138,   0.0980527475476,  -0.0855299606919,  -0.0545942708850,  -0.1542311757803},
   {   0.0271790977567,   0.0391116365790,  -0.0379278920591,  -0.1198662444949,   0.0236352644861,  -0.1372918337584,  -0.0910816118121,   0.0417727306485,   0.0253354106098,   0.1173433810472,  -0.0325398445129,   0.0283855665475,   0.2099651098251,  -0.0511081069708,  -0.0291353128850,   0.0300687551498,   0.1530269831419,  -0.1033191233873,  -0.0543150082231,   0.0529879033566,  -0.0823925659060,  -0.1366620808840,   0.0011294828728,  -0.0164860785007,  -0.1287375986576,   0.0215581413358,   0.0474925711751,  -0.1237930506468,  -0.0997916832566,   0.0535803735256,   0.1988470107317,   0.0860084965825,  -0.0397360548377,   0.1201947182417,  -0.0408985577524,   0.0097784949467,  -0.0092372680083,   0.0020221048035,   0.0312192812562,   0.0377195701003,  -0.0204514358193,   0.0390080623329,  -0.0082782190293,   0.0785631015897,   0.0172209944576,  -0.0982455387712,   0.0589973591268,  -0.0615566335618,   0.0812267139554,   0.0517155416310,   0.0325662121177,  -0.1173098161817,   0.0743252187967,   0.0345467291772,   0.0973936766386,   0.1283715814352,  -0.1122359111905,   0.0243339948356,  -0.0912111178041,   0.0531051643193,   0.0314872935414,  -0.2566443085670,  -0.0135016301647,   0.0902415513992,  -0.0596305765212,   0.0248969290406,   0.0585516504943,  -0.0172658488154,   0.0802211165428,   0.1224165707827,  -0.2091321051121,   0.1115663126111,   0.0566503889859,  -0.0715420469642,  -0.0325664803386,  -0.0291892811656,   0.0703217461705,   0.0961149409413,  -0.0585223324597,  -0.1045828238130,  -0.1486857533455,   0.1087559759617,  -0.0704175159335,  -0.1424652338028,  -0.0819718986750,  -0.0345370545983,  -0.0461466684937,   0.1084062904119,   0.0999513566494,   0.1282674670219,   0.1411936283112,  -0.1075461432338,   0.0578762106597,  -0.0701145976782,  -0.0780726075172,   0.0482258759439,   0.1282119452953,   0.0260827559978,   0.1169611662626,   0.0214885473251,   0.0717837736011,  -0.0202714223415,  -0.1391158401966,   0.0726706460118,   0.0072279078886,  -0.0119221108034,   0.0600066259503,   0.0583313591778,   0.1213006973267,   0.0544819533825,   0.0119672799483,   0.1054298579693,  -0.0252422746271,  -0.0707101821899,  -0.1827861815691,   0.0360627062619,  -0.0987405553460,  -0.2026607096195,  -0.0675357133150,  -0.0391237251461,   0.0139585202560,   0.1435209959745,  -0.1612695306540,   0.1301396042109,  -0.0442458614707,  -0.1304835230112,  -0.0834991708398,   0.1527902781963,  -0.1319325268269,  -0.0915059670806,  -0.0846618190408,  -0.1030612289906,  -0.0960092321038,   0.1121432781219,   0.0721174776554,  -0.0436197444797,  -0.1309230178595,  -0.0946770906448,   0.1345008611679,   0.0630772039294,   0.0292687490582,  -0.1034122332931,  -0.1360019892454,  -0.1170062050223,  -0.0944162234664,  -0.2419805526733,   0.1082807481289,   0.1038289740682,  -0.0125179989263,   0.1915897279978,  -0.0001327176578,  -0.0625807866454,   0.0585878379643,   0.0494689270854,   0.0170804690570,   0.1206065416336,   0.0925525128841,  -0.1142521277070,  -0.1701504886150,   0.1265565305948,  -0.0608341358602,  -0.0491003543139,   0.1389013081789,   0.0410601273179,   0.1393214762211,   0.0161455180496,  -0.0022588497959,   0.1529428511858,   0.1194627359509,   0.1454415619373,  -0.1280013471842,  -0.0238408427685,   0.0299178343266,  -0.0443536825478,   0.0285227634013,  -0.1109588369727,   0.0854209214449,   0.0575449317694,  -0.1499981880188,  -0.1515414863825,   0.0781517401338,  -0.0097527075559,  -0.1831669509411,  -0.1078751161695,   0.0721344798803,  -0.0279490835965,   0.0310900975019,   0.0301184225827,  -0.1131318956614,  -0.0058388523757,  -0.1306129544973,  -0.1477289348841,  -0.0157224759459,   0.1541338860989,  -0.0566532239318,  -0.1351372450590,   0.0481473654509,   0.0329652875662,  -0.1290742307901,  -0.1165271028876,  -0.1696369200945,   0.0333823002875,  -0.0458251573145,  -0.1188913285732,   0.0996480733156,   0.0378436669707,  -0.0210868902504,   0.0821221619844,  -0.0213235598058,   0.1374114006758,   0.1047870665789,   0.1082959622145,   0.1003386303782,  -0.0755164995790,  -0.0748454406857,   0.0405732095242,   0.0634799823165,   0.1130235493183,  -0.0027604321949,   0.0548834353685,   0.0246690008789,   0.1019113957882,  -0.1194441616535,  -0.0748186856508,  -0.1867660135031,  -0.0458282604814,   0.0367355495691,  -0.0610700473189,  -0.1327112317085,   0.0609731487930,  -0.1334859132767,   0.0196858849376,   0.0429463610053,  -0.0221231803298,   0.0140626356006,  -0.1735265702009,   0.1269769668579,  -0.1581026315689,   0.0693311169744,  -0.1242742091417,   0.0062449490651,  -0.0270197447389,   0.1383284628391,   0.1381494253874,   0.0085731567815,   0.0361187420785,   0.1546746939421,   0.0199566110969,   0.1058024615049,   0.0194668266922,  -0.0219869036227,  -0.0811151713133,  -0.0281098168343,   0.1006227657199,  -0.2308651804924,   0.1151769161224},
   {   0.1359248310328,   0.0724386945367,   0.1122308969498,   0.1236451193690,   0.0098928278312,   0.0664806663990,   0.0293106678873,  -0.1149963364005,  -0.0213452801108,   0.1528546959162,   0.1244707182050,  -0.1652878671885,   0.1715426892042,   0.0875178724527,  -0.0126417558640,  -0.1102130264044,   0.0713486000896,   0.1542901545763,   0.0264418385923,   0.0511265359819,  -0.1070146188140,   0.0726070106030,   0.0865826979280,  -0.0827545821667,   0.1493757069111,   0.1064695268869,  -0.0000687504726,  -0.0652330592275,   0.0848537832499,  -0.0514308996499,   0.0082746157423,  -0.0918447896838,  -0.1387081891298,  -0.0091923708096,   0.1402343809605,   0.0317367576063,  -0.0516413562000,  -0.1168839782476,  -0.1092408001423,  -0.0113695561886,   0.0910569056869,   0.0223835706711,  -0.1174725294113,   0.0314784497023,  -0.1538087278605,  -0.1201144754887,   0.0006722882972,   0.1294104307890,   0.0303515344858,   0.2850754261017,   0.1090043038130,   0.0332229137421,  -0.0605867691338,   0.1419660598040,   0.1169884130359,  -0.0373908393085,  -0.0574728883803,  -0.0785717293620,  -0.0601157955825,   0.0553663931787,   0.0281406361610,  -0.0931643247604,   0.1364329010248,   0.0718798711896,  -0.1022596284747,  -0.0526262857020,   0.0810122340918,  -0.0484465360641,  -0.0395904518664,  -0.1047745496035,   0.0297850798815,  -0.1032765060663,   0.0298575907946,   0.1086922585964,   0.0479610227048,   0.0124335410073,   0.0965370461345,   0.0725720375776,  -0.0559371747077,  -0.0774855166674,  -0.0224223360419,   0.1226792037487,  -0.0956883132458,  -0.0824923813343,   0.1332557052374,   0.0771013051271,  -0.1305015385151,   0.0811595320702,   0.0349890328944,   0.0934760645032,   0.0443716235459,   0.1117621436715,  -0.2292762249708,   0.0781602188945,   0.0475167669356,   0.1126152798533,   0.0489946790040,   0.0585192702711,   0.1345201879740,  -0.0945100858808,   0.1590865254402,   0.0766875073314,  -0.0658127218485,  -0.0258904844522,  -0.0969120860100,   0.0817379057407,  -0.0904747471213,   0.0919342935085,  -0.0404746644199,  -0.1782885640860,  -0.0768540874124,  -0.0918022245169,   0.0082264672965,  -0.0129224853590,   0.0066868010908,  -0.1879726499319,   0.0051032095216,  -0.0159829929471,   0.0586400255561,   0.0703076571226,  -0.0105474395677,  -0.1656700372696,   0.0579963400960,  -0.1940811574459,  -0.1264095753431,   0.1253573000431,   0.1432869583368,  -0.0495056696236,   0.0906617715955,  -0.1417639106512,  -0.0192465372384,   0.0457023382187,  -0.0819421634078,   0.1168334931135,   0.0316565260291,   0.0184085723013,   0.0954167991877,  -0.0508449897170,  -0.1276682466269,   0.1061852797866,  -0.0595551878214,   0.1142991855741,  -0.1515052765608,   0.1298481523991,  -0.0484359674156,   0.0293368957937,   0.0397922508419,   0.1357628405094,   0.0850319713354,  -0.1919639706612,  -0.1135346144438,  -0.0170013662428,  -0.1383928358555,   0.0825562998652,   0.0582097694278,  -0.0283295400441,  -0.1237904801965,  -0.1437421739101,  -0.1530154794455,   0.0792963877320,  -0.0469973497093,   0.0985971838236,  -0.1037403717637,   0.0353243574500,   0.0948256403208,  -0.0154931005090,  -0.0375373326242,   0.0487925261259,  -0.1013444289565,   0.1525692939758,  -0.0164055097848,  -0.1081480532885,   0.0446125492454,  -0.0298571027815,   0.1061070337892,  -0.0915465503931,   0.0672800689936,   0.0862961933017,  -0.0036180505995,   0.0087424665689,   0.1221296489239,  -0.1227684989572,   0.0687163025141,  -0.0229172240943,   0.0054136724211,   0.0325052700937,  -0.0716260820627,  -0.1153287738562,   0.1014637872577,  -0.1267358958721,   0.1400291621685,  -0.0489781349897,   0.1412535160780,   0.0574277341366,  -0.0739064961672,   0.1301745921373,   0.0849737673998,  -0.0922125205398,   0.0266121588647,  -0.0054135555401,   0.0582837685943,   0.0883431434631,  -0.0839799344540,  -0.1081848442554,  -0.0420934781432,  -0.0891271755099,  -0.0325104631484,   0.0804433003068,   0.0520809665322,  -0.1146654188633,  -0.0708248093724,   0.1341032087803,  -0.1062696799636,   0.0458814315498,   0.0027416429948,   0.0286566205323,   0.0925120264292,  -0.0185474678874,   0.0061949533410,  -0.1162353008986,  -0.0082611860707,   0.1511529237032,   0.0308338850737,  -0.0055343499407,   0.0739425495267,   0.1140524074435,   0.0903219059110,   0.0312896631658,  -0.1204128339887,   0.0460448563099,   0.1061868742108,  -0.1277252733707,   0.0984617620707,  -0.0272407867014,   0.1629008650780,  -0.0865182429552,  -0.1188585162163,   0.0986459031701,  -0.0037773880176,   0.0805907249451,   0.0247966162860,   0.0756451413035,  -0.0057782796212,  -0.0287590976804,   0.0562051050365,   0.0602681823075,   0.1270295083523,  -0.1227959170938,  -0.0044041429646,   0.0229053720832,   0.0781105011702,   0.0294269025326,   0.0927180722356,   0.0477225966752,  -0.0092405918986,  -0.0649047419429},
   {   0.1259313225746,   0.0974937975407,   0.0052009532228,   0.0769229903817,   0.0710253193974,  -0.0876452773809,  -0.0173712112010,   0.0475698672235,   0.0261381603777,   0.1151716187596,   0.0813497006893,   0.1804684996605,   0.0248009916395,   0.0928251221776,   0.0720426961780,  -0.1190950423479,   0.0531562939286,  -0.0972097963095,  -0.0765536949039,   0.1848137676716,   0.0067656990141,   0.0535094253719,  -0.0009009686182,  -0.0745775550604,   0.1335052251816,   0.0441263653338,   0.1326727718115,   0.1216934621334,  -0.0019624645356,  -0.0966879948974,  -0.0046137953177,   0.1643662750721,   0.0014877079520,  -0.1072667166591,   0.0439408943057,  -0.1111920922995,   0.0752607584000,  -0.1905913501978,  -0.1069604977965,   0.0718393102288,   0.1367437839508,   0.0546394251287,   0.0084681808949,   0.1206759288907,  -0.2175971418619,   0.1458927690983,   0.0717278718948,   0.1010252013803,   0.0225491616875,   0.0190859939903,  -0.0964975282550,  -0.0985404253006,   0.0620973855257,  -0.0982794389129,  -0.0893887951970,   0.1382642537355,  -0.1240281909704,   0.0580219551921,   0.0276182275265,  -0.1114156469703,  -0.0346717908978,   0.0659892037511,  -0.1067377477884,  -0.0226819757372,   0.0988275930285,   0.1208549439907,   0.0346066989005,  -0.1085109785199,   0.0209081396461,  -0.0403890348971,  -0.0352392233908,   0.0984011068940,  -0.0089966878295,  -0.0537507832050,   0.0000079846741,   0.0702507719398,  -0.0823920965195,   0.0789724737406,   0.0978867635131,   0.1186093911529,  -0.1153697744012,  -0.0398591235280,  -0.0171047952026,  -0.0035971789621,   0.1711909472942,  -0.1370975524187,  -0.0581736564636,  -0.0361834317446,   0.1441519707441,  -0.0111919930205,  -0.0078116310760,  -0.0248217657208,   0.1256946474314,  -0.1650742739439,  -0.0873737633228,   0.1449865102768,  -0.0388107784092,  -0.0665681436658,  -0.0189986769110,  -0.0725127011538,  -0.0713384971023,   0.0450388416648,   0.0485907755792,  -0.0360066257417,   0.1139037236571,   0.1693767607212,   0.0365134589374,   0.0582752078772,   0.1616058498621,   0.0363031812012,  -0.1120401993394,  -0.0751470848918,   0.1222544685006,   0.1278397738934,   0.0858002230525,  -0.1940358877182,  -0.0665616765618,  -0.2188973724842,  -0.0841443389654,  -0.0936157107353,   0.0603454895318,   0.1309653222561,   0.0407608300447,   0.0797904357314,   0.0799753144383,  -0.0960719883442,   0.1101985275745,  -0.0050510852598,   0.0680296719074,  -0.2330332249403,   0.0322131961584,  -0.0975314378738,  -0.1164071932435,   0.1116243004799,  -0.1402407139540,   0.1643711328506,  -0.0611350536346,   0.0565282925963,   0.1199192330241,   0.0023410255089,   0.0192525349557,   0.0507038123906,  -0.1789000034332,  -0.0433773770928,  -0.0848335400224,  -0.0668529942632,  -0.0122385863215,   0.1047180593014,   0.0880602300167,   0.1430446058512,   0.0061606313102,  -0.0730131790042,  -0.0144305545837,  -0.0517639666796,   0.0984162613750,  -0.1414783149958,  -0.0979282855988,   0.0558586046100,   0.1049802824855,  -0.1425944566727,   0.1280451864004,  -0.0372851267457,   0.0957228764892,   0.0302933789790,   0.0833782106638,   0.0068609705195,   0.0850884541869,   0.0186628531665,  -0.1241542622447,   0.0582929626107,   0.0052958847955,   0.1124287247658,   0.0154538406059,  -0.0869009420276,  -0.0161554366350,  -0.0735557377338,  -0.1427571177483,   0.0639386177063,  -0.0877687484026,   0.0219293478876,   0.0945229455829,  -0.1336389631033,   0.1730534136295,  -0.0548362247646,  -0.0484981089830,  -0.1593205630779,   0.0777848064899,   0.0713539645076,   0.0376245193183,   0.1038802564144,   0.1002876833081,   0.1092708557844,   0.0877866670489,   0.0601558312774,   0.0850337892771,  -0.0261076558381,  -0.1545821577311,   0.0887850001454,  -0.0642041787505,   0.0553496479988,   0.0628722608089,  -0.0491151772439,  -0.1337352842093,   0.0052681756206,   0.0497122891247,  -0.0527544915676,  -0.1261140257120,  -0.0118094338104,  -0.1419287770987,   0.1331728100777,  -0.1889337599277,   0.0066257836297,  -0.1452510058880,  -0.0634564533830,  -0.0007267538458,   0.0826168805361,  -0.0641068071127,   0.0803121030331,   0.0239281039685,  -0.0311537384987,   0.0761579573154,   0.0379530303180,   0.0705050304532,   0.0092363823205,  -0.0186971537769,   0.0499772354960,  -0.1442717760801,  -0.1067266538739,   0.0971834659576,  -0.0655106529593,  -0.1144848987460,   0.0987486019731,   0.0936228260398,  -0.0024259306956,   0.1426140666008,  -0.1397052258253,  -0.0431734658778,   0.0498986057937,   0.0433964803815,  -0.0173637773842,  -0.0440190508962,   0.0936882346869,   0.0005352713051,   0.0497148074210,  -0.0322805196047,   0.0632304772735,   0.0669666752219,  -0.0529495850205,  -0.0887936726213,  -0.1004343628883,  -0.1422746926546,  -0.1169920563698,  -0.0574937723577,   0.1241288557649,   0.0091117452830,  -0.0051776831970},
   {  -0.1337251365185,   0.0080985622481,   0.1144883111119,  -0.0841773375869,   0.0787108764052,   0.0299241449684,   0.0856045559049,   0.0538740158081,   0.1472773402929,  -0.0648693889380,  -0.1453105509281,  -0.0000168077167,  -0.1684166342020,   0.0351541824639,   0.1404929459095,   0.0518417842686,  -0.0163353029639,  -0.0592709966004,   0.0650779232383,  -0.1190376132727,  -0.0360507145524,  -0.0545560829341,  -0.0522583611310,   0.0086384145543,   0.0521506816149,   0.0013394785346,  -0.1312271058559,  -0.0302299465984,   0.0645763799548,  -0.1007110551000,   0.1212985515594,   0.1350333690643,   0.1130955368280,  -0.0990096256137,   0.1447071880102,  -0.1230934783816,  -0.0164107345045,  -0.0438753738999,  -0.1573330312967,   0.0617827251554,   0.0368327163160,   0.0609286837280,  -0.1428887844086,   0.0791700780392,  -0.0265598725528,  -0.0677040517330,   0.0294481981546,  -0.1383496224880,   0.0298411268741,   0.1059294641018,  -0.0147396186367,  -0.1811235696077,  -0.1206324473023,   0.2038008868694,  -0.1454595029354,  -0.0095175458118,  -0.0141443815082,  -0.0091405250132,  -0.0573273524642,   0.0203698966652,   0.0693473890424,  -0.0924388393760,   0.1142938435078,   0.0635336264968,   0.0617723688483,   0.0108108147979,  -0.1603859364986,   0.0139490002766,  -0.0072955172509,  -0.1738583892584,   0.2576352655888,  -0.1087767109275,   0.1621166914701,   0.0948476642370,   0.0479338541627,   0.0065151653253,   0.1135206222534,  -0.0054267626256,  -0.2166768312454,  -0.1575793176889,  -0.0765439718962,   0.0406072102487,   0.1015857681632,  -0.1673089265823,  -0.0869830772281,  -0.0219044368714,  -0.1574178189039,  -0.1324968785048,   0.0538528859615,   0.1390159130096,   0.1320667117834,  -0.2293214052916,   0.0084428172559,   0.1479029506445,   0.0148232178763,   0.1227694526315,   0.1398786753416,   0.0629721581936,   0.1239929050207,   0.0192436557263,   0.1500362455845,   0.1605640053749,  -0.1198434382677,  -0.0602024383843,   0.1260306835175,   0.1330803334713,   0.1053235530853,   0.1197013109922,   0.0500681735575,   0.3199022412300,   0.0875457748771,   0.1053566262126,   0.0906933546066,   0.0595740526915,   0.0636470168829,  -0.0989219993353,  -0.1101383268833,  -0.1142918616533,   0.0470976382494,   0.1524530649185,  -0.0443600490689,  -0.0957035347819,   0.1349980384111,   0.0974343270063,   0.0591351203620,  -0.0539293363690,   0.0920137092471,   0.1660319864750,   0.1038650199771,   0.1722073704004,   0.0890103355050,   0.0022444829810,   0.1198504716158,   0.0370134375989,  -0.1088536158204,   0.0478204637766,  -0.0246980711818,   0.0262953750789,   0.0484978482127,   0.1114033088088,  -0.0966976508498,  -0.0538319051266,  -0.1640233397484,   0.1440417319536,   0.1064173430204,  -0.1771822869778,  -0.0368393845856,  -0.0308576133102,  -0.0027984657791,  -0.1681100577116,   0.0594785176218,   0.1385411322117,  -0.0341945737600,   0.0772194638848,   0.1072903200984,   0.1232575699687,   0.0130779491737,  -0.1066637933254,   0.1072208285332,  -0.0747724100947,  -0.0662058219314,   0.1324427574873,  -0.1291507929564,   0.0814100205898,   0.1390934437513,   0.1303365528584,  -0.0486360713840,  -0.1023396328092,   0.1081776544452,   0.1465161442757,   0.1390740573406,   0.0227410439402,  -0.1792799830437,  -0.1037382036448,   0.1069917604327,   0.1919654160738,  -0.1446064859629,   0.0870194584131,  -0.0138428611681,  -0.0597320273519,   0.0137715796009,  -0.0370319299400,   0.1144526004791,   0.1433107703924,   0.0648801550269,  -0.1391578316689,   0.1658707857132,   0.1099911481142,   0.0129726901650,   0.1504723578691,  -0.1304667741060,   0.0357210040092,  -0.0676371678710,   0.1888438016176,   0.1222475618124,   0.1401740461588,  -0.1646652072668,  -0.0397518984973,   0.0089661478996,  -0.0784960389137,   0.0352417379618,   0.1322983056307,   0.1355102360249,   0.0509737543762,   0.0327037051320,  -0.2425139844418,  -0.0605900324881,  -0.1405799537897,   0.1585567742586,  -0.0276761725545,  -0.0728015229106,   0.1128254234791,   0.1173332780600,   0.1725965589285,  -0.1232142373919,  -0.0595197789371,  -0.1436470299959,  -0.0463856719434,  -0.0503458306193,   0.0573552139103,   0.0099184755236,  -0.1306573003531,   0.0874700024724,  -0.1414667367935,  -0.0621033236384,  -0.1135825067759,   0.0586367622018,  -0.1255645155907,  -0.1079538688064,  -0.0382290296257,  -0.1295234262943,   0.1477325409651,  -0.0919381156564,  -0.1235081106424,   0.0245318934321,  -0.0641183406115,   0.0332986116409,   0.1496458947659,  -0.1050987243652,  -0.1210848316550,  -0.2004000246525,  -0.1241666600108,  -0.0271017421037,  -0.0067506385967,  -0.1479577124119,   0.0616501457989,   0.2035399973392,  -0.1438927203417,  -0.0440409816802,   0.2325030863285,  -0.0565427057445,   0.0785766094923,   0.0840964168310,  -0.0834773704410,   0.1329271197319,   0.1415242552757},
   {  -0.0049958447926,   0.1116058230400,   0.0758503079414,  -0.0198464803398,   0.0601539574564,  -0.0416217818856,   0.0254728123546,  -0.0937370657921,   0.0292963348329,   0.0822778642178,  -0.1196342632174,   0.0328030325472,  -0.0417993441224,   0.1089558750391,   0.0023953025229,  -0.0919797644019,  -0.0950225889683,  -0.1352414637804,   0.0331882238388,  -0.1486568003893,   0.0040801702999,   0.0625378414989,  -0.0915712267160,   0.0738127827644,   0.0625023394823,  -0.1565354019403,   0.0715321153402,   0.0196323581040,   0.0687690079212,  -0.1132031679153,  -0.2105916589499,  -0.1125507354736,   0.0725339725614,   0.0669194534421,   0.0949180051684,  -0.1352814882994,  -0.1212441995740,   0.1027316004038,  -0.0289727244526,   0.1317213624716,  -0.0461376421154,  -0.0240984316915,  -0.0491133071482,  -0.0382998436689,  -0.1821320056915,   0.0981727465987,  -0.1121371984482,   0.0262774899602,   0.0556553602219,  -0.0488082580268,  -0.1205203831196,   0.0032828126568,  -0.0234260186553,  -0.0226740725338,   0.0044196867384,  -0.1655563861132,   0.1329104304314,   0.0017566580791,   0.1063699871302,  -0.0218256786466,   0.1607125252485,   0.0623922497034,  -0.0886501371861,  -0.0017273350386,   0.1333893984556,   0.0134499808773,   0.0168531388044,  -0.0967413783073,   0.0998224243522,  -0.0937480926514,   0.0321481004357,   0.0117789460346,   0.0304363723844,  -0.0432245433331,   0.0736805647612,   0.1160081923008,  -0.0417370051146,  -0.0156659763306,  -0.0519844442606,   0.0170400291681,   0.1125183254480,   0.0833732336760,  -0.1272765845060,  -0.1304024457932,  -0.1206298694015,   0.0563346669078,  -0.1818034946918,  -0.1039790585637,  -0.0896676927805,  -0.0856074094772,  -0.0026164490264,   0.0061430884525,   0.0549183003604,   0.0405892953277,   0.1361799538136,   0.0731809586287,  -0.0537875108421,  -0.0887508541346,  -0.0268997978419,   0.0593257769942,  -0.1062502563000,  -0.0061965333298,   0.0747785493731,  -0.1258665323257,   0.0853374302387,   0.1028847694397,   0.0133127514273,  -0.1316013038158,   0.1069115549326,  -0.0598795413971,   0.0365864261985,   0.0619769729674,   0.0561492405832,  -0.0450379736722,  -0.1620370000601,  -0.1639152914286,  -0.1085213869810,   0.0837972611189,   0.1093030646443,  -0.1478153169155,   0.1538760364056,  -0.0240217801183,   0.0697482302785,  -0.1816369444132,   0.1466646343470,  -0.1471048742533,  -0.1199986264110,   0.1410529315472,  -0.1544948518276,   0.0017924252898,   0.0321171022952,  -0.0454502142966,   0.0579546615481,   0.1202382370830,   0.0563660077751,  -0.0361789576709,   0.0227478630841,   0.1130164712667,  -0.0244765952229,  -0.0434498861432,  -0.0541575364769,   0.2042878121138,  -0.0429500266910,   0.0443813353777,   0.0068844123743,  -0.0384880527854,   0.0605938956141,   0.0344659946859,  -0.0693196132779,  -0.0794160813093,   0.0694079995155,   0.0623469240963,   0.0375951603055,  -0.0240017063916,   0.0378246121109,   0.0594208016992,   0.0448881946504,   0.1243073716760,  -0.0295283328742,  -0.0987601131201,  -0.0864979848266,  -0.1157832145691,   0.0410736352205,  -0.1002531498671,   0.1064246594906,   0.0318609625101,  -0.0761576741934,  -0.0199241694063,   0.0495349913836,  -0.0452599525452,   0.0229395553470,  -0.0613483674824,   0.1782938390970,   0.0174013786018,  -0.0531622581184,   0.0218769740313,   0.1237634569407,  -0.0991357192397,  -0.1121829077601,   0.0275179482996,  -0.1585912257433,   0.1461514085531,  -0.1477595567703,   0.0339350253344,   0.0197553858161,  -0.0118644312024,   0.0595842413604,   0.0733668655157,  -0.0119371516630,  -0.0659187510610,   0.1351274400949,   0.1593663394451,   0.1129867136478,  -0.1116127148271,   0.1412313282490,   0.1372372806072,   0.0874991491437,  -0.1337317973375,  -0.0852555632591,   0.1496439427137,  -0.0549303255975,  -0.0495871268213,   0.1480899751186,  -0.1422912478447,   0.1378680467606,  -0.1496236622334,  -0.0073040747084,  -0.0500051528215,  -0.1148302927613,   0.1959832012653,   0.1443542540073,  -0.0319293066859,   0.1450534760952,  -0.1516277045012,   0.0108922189102,  -0.1182372123003,   0.0865700691938,   0.0482224859297,  -0.0080311130732,   0.1437145620584,  -0.0325466655195,   0.0245996471494,   0.1265311241150,  -0.2890338003635,   0.0694030895829,   0.0493521653116,   0.0541150569916,  -0.0633286535740,   0.0071040978655,  -0.1122605800629,   0.1346464753151,  -0.0272239260375,   0.0048563568853,  -0.1601159721613,  -0.0103950109333,  -0.0909526422620,  -0.0281570348889,  -0.0045126657933,   0.0445601493120,  -0.0712144896388,  -0.1676600575447,  -0.0003801643616,  -0.0199264604598,  -0.1445263475180,  -0.0426290780306,  -0.0801512748003,  -0.0139716574922,  -0.0600810386240,  -0.2469538897276,   0.0939134061337,   0.0919724032283,  -0.1039451286197,   0.0624965131283,  -0.1279985010624,  -0.1645906120539,   0.0147422580048},
   {  -0.1306604146957,  -0.1133546978235,  -0.0421720221639,   0.0991356223822,  -0.0086708245799,  -0.0978435203433,   0.0670624300838,   0.1211969703436,  -0.0292036496103,  -0.1413984149694,   0.1260958462954,   0.0064913011156,   0.1287579834461,  -0.1436575651169,   0.0995279178023,   0.0293506309390,  -0.1304948776960,   0.0522203370929,   0.0900014713407,   0.0737945511937,   0.0436022914946,  -0.0143282348290,  -0.1207403242588,   0.0954556688666,   0.0496466755867,  -0.1105118840933,   0.1549984961748,   0.0819685012102,  -0.0090267714113,   0.0102254338562,  -0.0889573842287,   0.0768750905991,   0.1425282210112,  -0.1484465003014,   0.0049884687178,   0.0600458867848,  -0.1383484899998,  -0.1449132114649,   0.1064318716526,   0.0721835941076,  -0.1144862622023,  -0.0297738704830,  -0.0688272863626,  -0.0090021844953,  -0.1371835470200,  -0.0554635412991,   0.0282163284719,   0.1059357672930,   0.1290137618780,   0.0341219380498,   0.0702710077167,  -0.0234093535691,  -0.0463691465557,   0.0256761554629,   0.0892022103071,   0.0765479281545,  -0.1214293763041,   0.1194404438138,  -0.0740500390530,   0.0678169652820,  -0.0400840826333,   0.1071723848581,   0.0961152985692,  -0.1197434589267,   0.0267308596522,   0.0071784690954,  -0.0959879755974,   0.0535847358406,   0.1229496300220,  -0.1372864842415,   0.0942174270749,   0.0477564595640,   0.0637132227421,   0.1566511690617,   0.0201561916620,  -0.0481127388775,   0.0122371381149,   0.1498119831085,  -0.0002545264724,  -0.0368674956262,  -0.1360686868429,   0.0062162573449,   0.0049821808934,   0.1018295288086,   0.0806909799576,  -0.0362212695181,  -0.0455697141588,  -0.0774126276374,   0.0256752483547,   0.0312240682542,  -0.0600177943707,   0.1251141577959,  -0.0068551204167,   0.0146713480353,   0.0615992918611,  -0.1405804753304,  -0.1050244495273,  -0.1205011382699,  -0.1474458277225,  -0.0463697277009,   0.0524660013616,  -0.0553489215672,   0.0418619327247,  -0.1178636401892,   0.0532922931015,   0.1377848833799,  -0.0157917011529,   0.0388476550579,  -0.0731551796198,  -0.0907192826271,   0.0046796938404,   0.0152557715774,  -0.0352207981050,  -0.0705427378416,   0.0972578525543,   0.0593980066478,   0.0830857083201,   0.1489765495062,   0.1316105872393,  -0.0184387750924,  -0.1253917217255,  -0.0084398053586,   0.0359760783613,   0.0400468185544,  -0.0140718240291,   0.0319172330201,  -0.1104156151414,  -0.1588896512985,   0.1301738619804,  -0.0073448945768,   0.0022401574533,   0.1406488865614,   0.1326719075441,  -0.1453596353531,  -0.1005722731352,   0.0223067272455,   0.0825875028968,   0.0865625590086,  -0.0953581407666,  -0.1129072159529,  -0.0174212977290,  -0.0403111204505,  -0.0186073798686,   0.1069554463029,  -0.1058425083756,   0.1035274192691,  -0.1359592974186,   0.1156316846609,   0.1320145130157,   0.1223906502128,  -0.1508209705353,   0.0649623349309,   0.0925051271915,  -0.1287752389908,   0.0968153104186,   0.0726798474789,  -0.0238248370588,  -0.0891321823001,   0.0638013854623,  -0.0874539017677,   0.0357073470950,  -0.0732986703515,  -0.0373516939580,   0.0569961443543,   0.0575496256351,   0.0479154177010,  -0.1189700141549,   0.0618704818189,   0.1264160126448,   0.1270100325346,   0.0948438346386,  -0.1042870283127,   0.0032112980261,   0.0747626572847,   0.0126541322097,   0.0085182981566,   0.0864021927118,   0.1236556395888,   0.0925312936306,  -0.0241120308638,   0.1102496162057,   0.0341110676527,  -0.0598249323666,   0.0830217376351,  -0.0041808225214,  -0.1370389163494,   0.0296693872660,   0.1469556540251,   0.1167332977057,  -0.0460707657039,  -0.1417298167944,   0.1673119813204,   0.1023611053824,  -0.1799252480268,   0.0093781463802,  -0.0888467803597,   0.0290207788348,   0.1537436395884,  -0.0320706479251,   0.0848465040326,   0.1112281084061,  -0.0233224779367,  -0.0975742265582,  -0.0286269169301,   0.0117957228795,   0.1463353186846,  -0.1310601532459,   0.0873841792345,   0.0344566628337,  -0.1039623469114,  -0.1410379409790,   0.0824173837900,   0.0831239745021,  -0.0953344553709,   0.0126038352028,  -0.0782533437014,   0.0079311467707,  -0.0447794459760,  -0.0398786813021,   0.0176018457860,   0.0461765713990,   0.0929676815867,   0.1091922447085,  -0.0321473516524,   0.0542493611574,   0.0300356671214,  -0.0672838017344,  -0.0196404159069,   0.0110642379150,   0.0591655559838,  -0.1273038089275,  -0.0296422950923,   0.1125912964344,  -0.0955306738615,  -0.0404063761234,   0.0214922633022,   0.0448993779719,  -0.0781759023666,   0.0711810365319,   0.0596882775426,  -0.1117708310485,   0.0776227563620,  -0.0651903599501,   0.1039734482765,  -0.0089771086350,   0.0682706534863,  -0.0763664990664,  -0.0104419738054,  -0.0505038350821,   0.0243145357817,   0.0410684980452,  -0.0943746641278,   0.0235125292093,  -0.0901149585843,  -0.1041801050305,  -0.0891108885407},
   {   0.0927634462714,   0.0660200640559,  -0.0572693534195,  -0.0096425898373,   0.0331509150565,   0.0861964821815,   0.0105955349281,   0.1187967360020,  -0.1079940423369,   0.0258271470666,   0.1382298320532,  -0.0158270727843,  -0.0550047531724,  -0.0887504592538,  -0.1132858395576,  -0.1492881923914,   0.0149706490338,   0.1738125830889,  -0.1402709037066,   0.0905355289578,  -0.0849202871323,   0.0189695395529,  -0.0612818747759,  -0.0065576247871,   0.1055603325367,  -0.1229891180992,  -0.0646505132318,  -0.0135825099424,  -0.0264887753874,  -0.0940028652549,   0.1266053169966,   0.0661431476474,  -0.0153320133686,   0.0643746033311,   0.0610842071474,  -0.0585693493485,   0.0957233458757,   0.0373044088483,  -0.1018864065409,  -0.1318040937185,   0.0895275771618,  -0.0510676242411,  -0.0931722596288,  -0.1360528618097,   0.0074795773253,   0.1561007052660,   0.1047275736928,  -0.0557308904827,  -0.0609120056033,   0.1153424754739,  -0.0484090782702,  -0.1353195309639,   0.0252725053579,   0.0896650925279,  -0.0232527758926,   0.0910681411624,  -0.0914504006505,   0.0247113350779,   0.0150938425213,   0.0070378910750,   0.1280037611723,   0.0073651983403,  -0.0852375403047,  -0.1217957213521,   0.0682753026485,   0.0224815048277,  -0.1224498376250,   0.1141985729337,  -0.0419914014637,   0.0504137054086,  -0.1058026999235,   0.0590708963573,   0.0759460180998,   0.0389590859413,   0.0978892818093,  -0.1641256660223,  -0.1122341230512,  -0.1222710832953,   0.1573349684477,  -0.1060746461153,   0.0568475201726,  -0.0148509228602,  -0.1453401148319,  -0.0532643236220,   0.0195021536201,   0.1161260828376,   0.1081241816282,   0.0860608667135,   0.0376868844032,  -0.0117719257250,  -0.0410143584013,   0.0822961255908,   0.0273599158973,  -0.0591464377940,   0.1832132041454,  -0.0218025725335,  -0.0462060384452,   0.1245922818780,   0.0958169698715,  -0.0012392200297,   0.0353185757995,   0.1099751070142,   0.0477517731488,   0.0919047966599,   0.0086386650801,   0.0752941519022,  -0.0134950457141,   0.0568318329751,   0.1014235094190,   0.1058955788612,  -0.0945084095001,  -0.1298899501562,   0.1528545320034,   0.1705773621798,   0.1613143235445,   0.1375832557678,  -0.0315050706267,   0.0461981259286,  -0.0290599539876,   0.0214148238301,   0.0546119995415,   0.0686438605189,   0.1377372294664,   0.1728495210409,   0.0797579064965,   0.1199423372746,  -0.0781101658940,   0.0513797290623,  -0.0043387832120,   0.1233191192150,  -0.1535142064095,  -0.0330500565469,   0.1137504503131,   0.1355428099632,   0.1815125346184,  -0.0452518612146,   0.1022081375122,   0.0643331781030,   0.1384109407663,   0.1609251648188,  -0.0474182739854,  -0.0146457413211,  -0.0644778162241,   0.1061045303941,   0.1007734835148,   0.0252298060805,  -0.0503281392157,  -0.0655132457614,   0.0514873564243,   0.0974412709475,   0.1219627484679,   0.0030148599762,   0.0787798911333,  -0.0761292129755,  -0.0781842097640,  -0.1214381009340,  -0.0065906494856,   0.0318856313825,  -0.1103025376797,   0.0186101440340,   0.0358718037605,  -0.1381590664387,   0.1483768820763,   0.0526507236063,   0.0347939841449,   0.0170565713197,  -0.0555891133845,   0.1211559399962,   0.0956928282976,  -0.0772942155600,   0.0458438247442,   0.0658470615745,   0.0302533470094,  -0.1077362820506,   0.0687880292535,   0.1006372347474,   0.0768669471145,  -0.0462782494724,   0.0060689458624,  -0.0691689476371,   0.0190979614854,   0.1115915775299,  -0.0070616137236,   0.0400670245290,   0.0275441892445,  -0.0219424683601,   0.0944347903132,  -0.0125868599862,  -0.1159890517592,  -0.1375308930874,  -0.0169736389071,  -0.0797464102507,   0.0879490599036,   0.1347708255053,   0.0750401020050,   0.0179164167494,  -0.0346098393202,  -0.1163210570812,  -0.0432706885040,   0.1231299936771,  -0.0944512784481,  -0.0064099305309,   0.0306638590991,  -0.1180732548237,  -0.0260166972876,  -0.0163317099214,   0.0342945307493,  -0.0966324433684,  -0.1164082139730,  -0.0385776758194,   0.0691985487938,   0.0413817390800,  -0.0096620339900,   0.0263638719916,   0.0204921253026,  -0.0223518386483,  -0.1011667400599,   0.0324577838182,   0.0139576317742,  -0.1051832437515,  -0.0419772416353,   0.0971376001835,  -0.1275812089443,  -0.1479166597128,  -0.0209653079510,   0.1125932261348,   0.0213317852467,   0.0532751530409,   0.1211928874254,   0.1451816111803,   0.0744028538465,   0.1621535420418,   0.0595830678940,  -0.1186500936747,   0.1013141795993,  -0.0237194951624,   0.0146987261251,   0.1469160765409,  -0.1183072775602,  -0.0847576335073,   0.1244948953390,  -0.1232769042253,  -0.0084841353819,  -0.0867394581437,   0.0078140571713,   0.1379271000624,  -0.0295351166278,  -0.1543572694063,  -0.0890875309706,  -0.0670221820474,  -0.0644382089376,   0.0453813932836,  -0.1023659259081,  -0.0925101637840,  -0.0529258251190,   0.1356152892113},
   {  -0.0439484417439,  -0.1292057931423,  -0.1231927871704,   0.1154260784388,  -0.0127871176228,   0.0723476409912,   0.0506592504680,  -0.1373545378447,  -0.0249835439026,  -0.1217719390988,  -0.1383565515280,   0.1269313395023,  -0.0804422199726,   0.0517797954381,   0.1077828183770,   0.0700438171625,  -0.0804731324315,  -0.0963934808969,  -0.0858148038387,   0.0535095110536,   0.1354448646307,   0.0350356213748,  -0.1644899100065,  -0.1137201189995,  -0.0952587500215,  -0.1244340837002,   0.1279279589653,  -0.0855399817228,  -0.1447159349918,  -0.1476138234138,   0.1411884874105,   0.1167398914695,   0.1649108976126,  -0.0704882070422,   0.1029479503632,  -0.1263255625963,  -0.0115802148357,   0.0918582603335,  -0.0397553704679,  -0.0140783516690,   0.0192357413471,  -0.1584208160639,   0.1715369969606,  -0.1221916005015,   0.0262610521168,  -0.0460920967162,   0.1560799032450,  -0.1306121498346,   0.0379779562354,   0.0597061216831,  -0.0837302878499,   0.1616103351116,  -0.0595947392285,   0.0635699778795,  -0.1551314592361,  -0.0046331458725,   0.1124598681927,   0.2274013161659,   0.1038798019290,   0.1586688160896,   0.0350482687354,  -0.0555367693305,  -0.0168333519250,  -0.0739624723792,  -0.0717981010675,   0.0956118106842,   0.1178098469973,   0.0471954420209,   0.0694212689996,  -0.0247664153576,   0.0817794278264,   0.0835432708263,  -0.3049664199352,  -0.1202619075775,   0.1341184973717,  -0.0135460570455,  -0.0912687256932,  -0.0627420172095,   0.0566643737257,   0.1442802101374,  -0.0671622678638,  -0.1125200092793,   0.1411540657282,  -0.0139338402078,  -0.1041736528277,  -0.0851394310594,  -0.0796006694436,   0.1273363381624,  -0.0635637268424,  -0.1377162784338,   0.0343725644052,  -0.0048405402340,   0.0642041862011,  -0.1187737360597,   0.1080760285258,   0.0451719835401,  -0.1002706810832,   0.0718236267567,   0.0590789876878,   0.0687436535954,  -0.0363297834992,   0.0035098199733,  -0.0628105625510,  -0.1397636383772,   0.1554422527552,  -0.0319562032819,  -0.1241999790072,   0.1460236757994,   0.0013370101806,   0.0682755857706,   0.0932708531618,   0.0736108273268,  -0.0830073952675,   0.0964171662927,   0.1039411053061,   0.1900116801262,  -0.1245439276099,   0.1264574378729,  -0.1088453084230,  -0.1010887026787,   0.1589344441891,   0.1112242341042,  -0.0370630398393,   0.0733777508140,   0.0790773779154,   0.1085455939174,  -0.0793474987149,   0.0243979077786,  -0.0878043398261,   0.0330971367657,  -0.1422159373760,  -0.0594162568450,   0.0182150397450,   0.0716489180923,  -0.0538202300668,   0.0619422569871,  -0.0667987912893,  -0.1427902877331,  -0.1370233744383,  -0.0419727005064,  -0.0953821688890,   0.1301482915878,  -0.0664904862642,   0.0570511147380,  -0.1321711391211,  -0.1040249764919,   0.1055240258574,   0.1470895111561,   0.2048952877522,   0.1328470259905,   0.0228354949504,   0.0408702343702,   0.1511226892471,  -0.0271383747458,  -0.0771691799164,  -0.0072057791986,  -0.0745376795530,   0.1327025294304,  -0.1035883277655,  -0.1453610658646,  -0.2038168907166,   0.0075876601040,   0.1147569864988,  -0.0372413471341,  -0.0885671377182,  -0.0604147762060,  -0.0048265554942,  -0.0493655167520,  -0.1244892477989,  -0.0636748075485,   0.1138400137424,  -0.0895453393459,   0.0945598781109,  -0.1030196696520,   0.0403848551214,  -0.0743918791413,   0.1156408712268,  -0.1129183173180,  -0.0536895543337,  -0.0722183138132,   0.0036245649680,   0.1364609599113,   0.0091630145907,  -0.0950568467379,   0.0025958656333,   0.1760234534740,   0.0025315477978,  -0.0763469785452,   0.0439289808273,  -0.0009032320231,  -0.0806915685534,  -0.1060591861606,  -0.0399015471339,   0.0905723497272,  -0.0636618882418,   0.0498816557229,   0.0153819769621,   0.0873464569449,  -0.0870241969824,   0.0836228132248,  -0.0527145192027,   0.0365715213120,   0.0869198143482,  -0.0142142465338,  -0.0956857055426,   0.0786265209317,   0.0131387403235,   0.1221599131823,   0.1106345430017,  -0.0300044454634,   0.1049878001213,  -0.0743255615234,   0.1376440227032,  -0.0163526572287,  -0.1156545206904,   0.0760437548161,   0.0301837418228,  -0.0877089947462,   0.0856946036220,   0.0316545628011,   0.0466932691634,  -0.1073685139418,  -0.0007707958575,  -0.0850278586149,   0.0190938953310,   0.1009219959378,  -0.0663322135806,   0.1050930097699,   0.1169368997216,  -0.0530461445451,   0.0446675084531,   0.1335986405611,  -0.0681713819504,   0.0183724015951,   0.0602907091379,   0.1610345095396,  -0.0929512456059,   0.1429203897715,  -0.1488320380449,   0.0581552200019,  -0.0161383114755,  -0.0260754711926,   0.0143382567912,   0.0473072156310,  -0.1550181657076,  -0.0599998794496,  -0.1099671795964,  -0.0916675776243,   0.0569453649223,  -0.1229515969753,  -0.0566390193999,   0.1534987241030,  -0.0481691025198,  -0.0867727249861,  -0.0553523823619,  -0.1470234245062},
   {   0.1322844177485,  -0.0480790287256,   0.0254915170372,   0.0757118239999,   0.1261927932501,  -0.0314353331923,  -0.1433982998133,  -0.0554408133030,   0.1481014043093,  -0.1084313392639,   0.0207524113357,   0.0064803846180,  -0.0088939098641,   0.0366284288466,  -0.0490760281682,   0.0420931279659,  -0.0485235676169,  -0.0713678672910,   0.0695895999670,  -0.1316162049770,   0.0914245992899,   0.1118801161647,   0.0805641338229,   0.0393421351910,  -0.0943227857351,   0.0452984534204,  -0.0499564781785,  -0.1306661665440,  -0.0216960553080,   0.0646796971560,  -0.0145264277235,   0.0759996026754,  -0.1157165020704,   0.1159655749798,   0.0164250545204,  -0.0545175857842,   0.1156094744802,  -0.0316426120698,   0.0808214396238,  -0.1334051340818,   0.0218867119402,   0.1593089699745,  -0.1067277118564,   0.0045434520580,  -0.1049486324191,   0.0680249184370,   0.0838938206434,  -0.0092689441517,   0.0473190695047,  -0.1364593058825,  -0.0364444851875,  -0.1358298808336,   0.0275451950729,  -0.1627747118473,   0.1081209704280,   0.0196023155004,   0.0517545044422,   0.2067861109972,   0.0181998796761,   0.1195804923773,   0.0864418372512,   0.0716305598617,   0.0303445681930,  -0.1078691035509,   0.0964630022645,   0.1087443828583,  -0.0747597143054,   0.0359839797020,   0.0354649461806,  -0.0174963735044,  -0.1138737872243,   0.0269894208759,   0.0038859446067,  -0.0012022270821,   0.1065556555986,   0.1023068502545,   0.0598462559283,   0.1008694842458,  -0.0189629569650,  -0.0758736059070,  -0.0796106606722,   0.0156513825059,  -0.0699399858713,   0.0441799238324,  -0.0097007593140,  -0.0131804803386,   0.0081284027547,  -0.0237538870424,  -0.1129555627704,   0.0122862150893,  -0.0432825312018,  -0.1255196928978,  -0.0344224832952,  -0.0302078668028,  -0.0547633208334,  -0.1291524171829,   0.0093555683270,   0.0278189368546,  -0.1298848688602,   0.0927003920078,  -0.0512751638889,  -0.0567997805774,   0.0047730254009,  -0.1353085786104,   0.0687299743295,   0.0409546978772,  -0.1026731580496,   0.1070578247309,   0.0130003634840,   0.0474608540535,  -0.1154384985566,  -0.0143419848755,  -0.1117207780480,   0.1070104688406,   0.0504385121167,   0.0958446860313,  -0.0404372587800,   0.0220482293516,  -0.1325127482414,   0.1284861564636,   0.0055487197824,  -0.0923824533820,  -0.0112997349352,   0.1028503999114,  -0.0837965384126,  -0.1259407401085,   0.1395723372698,  -0.0272396542132,  -0.0584843754768,   0.1181306242943,   0.1032123118639,  -0.0472406446934,  -0.2030695080757,   0.0837969407439,  -0.0607573129237,  -0.1823017299175,  -0.0056824949570,  -0.0231915432960,   0.1025023162365,   0.1055883765221,  -0.0869210809469,   0.1350316554308,   0.0568121075630,   0.0075074690394,   0.0530754663050,  -0.0974809899926,  -0.0201490651816,  -0.0411258228123,   0.0013834452257,   0.1169918328524,  -0.0972250849009,   0.1414020359516,   0.0021572448313,   0.0331043675542,   0.0597115382552,   0.1274861693382,  -0.1505460441113,   0.1297185420990,   0.0816516652703,  -0.0869983434677,   0.0479090847075,   0.1529722809792,   0.0003120413166,   0.1155278235674,  -0.0167647358030,   0.0149886803702,  -0.0826452746987,   0.0409856587648,   0.0219334065914,  -0.0045804763213,  -0.0291766319424,  -0.1121297925711,  -0.0173206031322,   0.1441676616669,   0.1402126252651,   0.1042634248734,   0.0135772051290,   0.1016695871949,   0.0953309983015,   0.0414460934699,  -0.0808946266770,   0.1532377600670,  -0.0277488343418,   0.1085017770529,   0.0122186364606,  -0.0553272366524,   0.0730115994811,  -0.0246172174811,   0.1455096304417,   0.0611909590662,   0.0033484317828,   0.0368923135102,  -0.0935831218958,   0.0382119566202,   0.0721636861563,  -0.0444758534431,   0.0666820779443,  -0.0266389064491,  -0.1038395315409,  -0.1110242232680,   0.0012202005601,  -0.0790104269981,  -0.1056801229715,  -0.0203261226416,   0.0173353217542,   0.0661591887474,   0.0327622406185,   0.1233151704073,   0.0841138213873,  -0.0084548285231,   0.1586119830608,  -0.0710152611136,   0.0101494388655,  -0.0289631802589,   0.1414446383715,   0.0432307310402,  -0.0008428007131,   0.0225031916052,  -0.1083038225770,  -0.0097551485524,  -0.0345426015556,   0.1375078409910,   0.1410482227802,  -0.1502040773630,  -0.1198348626494,  -0.0577311217785,   0.0924476832151,  -0.0520298629999,   0.1247256472707,   0.0688619092107,  -0.1300825923681,  -0.0068062101491,   0.0360437780619,   0.1031572893262,  -0.0140631385148,   0.1543543487787,   0.0049741417170,   0.0045354720205,   0.1291453987360,  -0.1341170966625,   0.0021263631061,   0.1081955879927,  -0.0633179396391,   0.0611821301281,   0.0624481737614,  -0.1131717786193,  -0.0937069728971,   0.0170356500894,   0.0766635164618,  -0.0229080077261,  -0.0688708424568,   0.1407739669085,   0.1380809247494,   0.0431414209306,   0.0790155380964,  -0.0077887629159},
   {  -0.0179327130318,   0.1353798955679,   0.1407335847616,   0.0931562930346,  -0.0519768334925,   0.0461242347956,   0.1452559232712,   0.0930440500379,   0.0076635335572,  -0.0247134100646,  -0.0256714690477,   0.0723987743258,  -0.1154809221625,   0.0279055256397,  -0.0947947427630,   0.0930488929152,   0.0862714424729,   0.0981967896223,  -0.0442154221237,   0.0477827228606,  -0.1078731492162,   0.1374589502811,  -0.0584537088871,  -0.0168878231198,  -0.0032286639325,   0.0581274777651,   0.0979908704758,   0.0923518985510,   0.0810341835022,   0.0106752254069,   0.0067804632708,  -0.0915975496173,  -0.0168550089002,   0.1000134125352,   0.1033209487796,  -0.0246406700462,  -0.0632115900517,   0.0277565140277,   0.0960997939110,  -0.0000665209809,   0.0083017004654,  -0.0914638713002,   0.1340611428022,  -0.0547940693796,   0.0361690931022,  -0.0174627490342,  -0.1375024020672,   0.1253271102905,  -0.1032105609775,  -0.1227393224835,  -0.0239375382662,  -0.0080292401835,  -0.0212437063456,  -0.1033345535398,  -0.0638169199228,  -0.0708141997457,  -0.0127813210711,  -0.1155450493097,   0.0919940844178,  -0.1409416049719,   0.1120888814330,   0.0790005624294,   0.0955695360899,  -0.0837340131402,   0.0004410867114,  -0.0143285030499,  -0.0510413460433,  -0.0012837171089,  -0.0265551432967,   0.0010049103294,   0.1829731911421,   0.0820809528232,   0.0139702213928,   0.0423623211682,  -0.1360183209181,   0.1188919618726,  -0.0216940119863,  -0.0284942705184,   0.0201435349882,   0.0124740712345,  -0.0121259987354,   0.0129657182842,  -0.0263066422194,   0.0477989017963,   0.0516615621746,  -0.0062061175704,   0.1300302147865,  -0.0977695062757,  -0.0543216913939,  -0.0407411232591,   0.1220535784960,  -0.0676736608148,  -0.0484853982925,   0.0125937303528,  -0.1177616491914,  -0.0916728153825,  -0.0623892322183,   0.0377228111029,   0.0134598230943,   0.1171166449785,  -0.0712540224195,  -0.0666181072593,   0.0126419989392,   0.1126922070980,   0.0782374590635,  -0.0987181812525,   0.1284979283810,   0.0423834361136,  -0.0755834430456,  -0.0855390354991,  -0.0686509013176,   0.0908695012331,  -0.1200154647231,  -0.1305306404829,  -0.0939103141427,   0.0771993771195,   0.1872690916061,  -0.0866204798222,  -0.1152308434248,  -0.0179971139878,   0.1235322952271,  -0.0293712224811,   0.1224534288049,   0.0338507927954,  -0.0982074514031,  -0.1579967439175,   0.0975940600038,   0.0021969233640,  -0.1018999069929,   0.1157410442829,  -0.0692369490862,  -0.0133116934448,   0.1845855712891,   0.1078946739435,   0.0972926765680,  -0.0184013638645,  -0.0400471277535,   0.0780448168516,   0.0361065827310,  -0.1020773500204,  -0.1145022064447,  -0.0956501886249,  -0.0362036526203,   0.0493913181126,  -0.0111537687480,   0.2169859260321,  -0.1328946799040,   0.1222741156816,  -0.0280880481005,  -0.1060970947146,   0.0274403821677,  -0.1224393546581,   0.0478835813701,   0.0196530092508,   0.0782818123698,   0.1079479455948,  -0.0660621374846,   0.0943008959293,  -0.1226118803024,  -0.0059381872416,  -0.1234769821167,   0.1165420934558,  -0.0235863681883,   0.0791158974171,  -0.1269938349724,  -0.0577138811350,  -0.0261839646846,   0.1314331889153,   0.0725822374225,  -0.0659021288157,  -0.0932603701949,  -0.0803305432200,   0.0179114285856,   0.0785481333733,  -0.0521474033594,   0.1239617317915,   0.0783240422606,  -0.1250630468130,  -0.0107312351465,   0.1194446012378,   0.0529640316963,  -0.0600260272622,  -0.0437039621174,   0.0147214764729,  -0.0020353433210,  -0.1799006462097,   0.0016961811343,   0.0880737081170,   0.0464842692018,   0.0283360909671,   0.0372892394662,   0.0975024104118,   0.0726459622383,  -0.0873294770718,  -0.0710814744234,  -0.1123374253511,   0.1216780543327,   0.0336605086923,  -0.0058332979679,   0.0510558001697,  -0.0816152542830,   0.0703546106815,   0.1329171061516,  -0.0133257173002,  -0.1369734704494,  -0.0642775744200,   0.0062660728581,   0.0510864146054,  -0.0188433676958,  -0.0749448239803,   0.0730533003807,   0.0738894864917,  -0.0472002997994,  -0.1253122687340,  -0.1160499155521,   0.0004843875358,  -0.0491842962801,   0.1280542165041,   0.0619160570204,  -0.1008515357971,   0.1020042896271,   0.0512109883130,   0.0985440164804,   0.0918372422457,  -0.0647780299187,   0.0543989986181,  -0.1061887070537,  -0.1256252080202,   0.0792985633016,   0.0162429437041,   0.1454873979092,   0.1184604093432,   0.0767504349351,  -0.1332531422377,  -0.1063034459949,   0.0960795283318,   0.1265886425972,   0.0196744855493,   0.0139113813639,   0.1102319583297,   0.0253188647330,   0.0674549788237,   0.1007321402431,   0.1076706424356,  -0.1123617142439,   0.0682343542576,  -0.0162152405828,  -0.1187185719609,   0.0048504802398,  -0.0063777859323,  -0.2348520308733,  -0.0497764088213,   0.0505395308137,   0.0671119093895,  -0.0321142897010,  -0.0045974925160},
   {  -0.1119619756937,   0.1256123781204,  -0.0267226714641,  -0.1128438040614,   0.0766611546278,  -0.0771101266146,  -0.0087712276727,  -0.1489396095276,   0.0047362009063,  -0.0904069170356,   0.1222166121006,   0.0018800089601,   0.0438272655010,  -0.0554792620242,   0.0499381870031,  -0.0263958815485,   0.0562571100891,   0.0527523905039,  -0.1003947556019,   0.0840752944350,  -0.0764333233237,  -0.0993530675769,   0.1527299433947,   0.1298132240772,  -0.0022408107761,  -0.0390060506761,   0.1128124594688,   0.0234412346035,   0.0518367625773,   0.1547349244356,  -0.0960155650973,   0.1462542414665,   0.0977025255561,  -0.1178328916430,  -0.1044374704361,   0.0203839354217,   0.0319688804448,  -0.0008968330803,   0.0229853820056,   0.0288027580827,  -0.0952727571130,   0.1328635215759,  -0.0069716242142,   0.0981442704797,   0.0950855463743,   0.0195206645876,  -0.0491208024323,  -0.0003505015047,  -0.0666798055172,  -0.0692621096969,   0.0301558915526,  -0.1090192571282,  -0.0909205228090,   0.0354766473174,   0.0263230223209,   0.0477273724973,   0.0933609604836,  -0.1102380231023,  -0.1624986231327,   0.0705007836223,   0.1486246585846,   0.1501900702715,  -0.1006343588233,   0.0570334792137,   0.1202199533582,   0.0052325609140,  -0.0745744258165,  -0.0472503043711,  -0.1248937621713,  -0.1114841848612,   0.0117182489485,   0.0444492213428,  -0.0886345207691,   0.1134549379349,  -0.0638046190143,  -0.0664548799396,   0.0476277507842,   0.0887281000614,   0.0045082978904,  -0.0457482561469,  -0.1046177446842,  -0.0248580127954,  -0.0492775700986,  -0.1035221293569,  -0.0510717891157,   0.1175258085132,  -0.1668090075254,  -0.0401882678270,   0.0708459541202,   0.0695579126477,   0.0026066035498,  -0.0998365432024,  -0.0345838777721,  -0.0441732443869,   0.0595738068223,   0.0716883018613,   0.0885433480144,  -0.0569713637233,   0.0976725891232,  -0.0576073788106,  -0.0706432610750,  -0.1371274739504,  -0.1175292357802,   0.0689407214522,   0.0767367631197,   0.0082763778046,  -0.0469859391451,  -0.0154363932088,   0.0836962088943,   0.0500515177846,   0.0745377317071,   0.0951488390565,  -0.1776298880577,   0.1602965146303,   0.1918573379517,  -0.0208779461682,   0.0566418953240,  -0.0559458918869,  -0.0401915907860,   0.1159273311496,   0.0898723006248,  -0.1287054568529,   0.0910023599863,  -0.0981283113360,   0.0081694805995,  -0.0885903909802,  -0.1125557199121,   0.0015897224657,   0.0766996443272,   0.0541962422431,  -0.0821455046535,  -0.1183339208364,   0.0086311111227,  -0.0607459954917,   0.0324706621468,  -0.1226436942816,   0.0152139691636,   0.0631212294102,   0.1436286568642,  -0.0686647221446,   0.0144587587565,  -0.1290493607521,  -0.0799899995327,  -0.0645230636001,  -0.0386872068048,  -0.0122571913525,   0.0740042328835,  -0.1645801961422,   0.0730224102736,  -0.1053875684738,  -0.0438082441688,  -0.0819820165634,   0.1863730102777,  -0.0281999241561,   0.0388243198395,   0.1291991621256,  -0.0619098171592,  -0.0930824726820,   0.0469613969326,   0.0843183100224,  -0.0022053876892,  -0.0086793396622,  -0.0345686711371,  -0.0925677716732,  -0.0254439041018,  -0.0015431133797,  -0.1279068291187,   0.1271780729294,  -0.1027082353830,  -0.1210501492023,   0.0394713580608,  -0.1437238603830,  -0.0289942175150,  -0.0852089151740,   0.0867884680629,   0.0203063134104,  -0.0829481557012,   0.0463298968971,  -0.1272111535072,   0.0837972834706,  -0.0161281805485,  -0.1391123235226,  -0.0453934296966,  -0.1417062729597,  -0.0200601853430,  -0.1516544222832,  -0.1260243058205,  -0.1631962656975,  -0.0489408411086,   0.0548003390431,  -0.0737427175045,   0.0040109883994,   0.0173814985901,  -0.0652709454298,   0.0804336741567,  -0.0369506590068,   0.0459626466036,  -0.0434244759381,  -0.1088355183601,   0.0331717878580,   0.0815248712897,   0.0545401796699,   0.0278992149979,   0.0663811340928,  -0.0210819114000,   0.0538444444537,   0.0452336296439,  -0.0348828583956,   0.0613590255380,   0.0046023549512,   0.0794503018260,  -0.0199050121009,   0.1254158616066,  -0.0559717305005,  -0.0227939151227,   0.0050759748556,   0.0947622731328,  -0.0405423827469,  -0.0599433369935,  -0.0073434161022,  -0.0268019661307,   0.1131044328213,  -0.0018023266457,  -0.0780758932233,  -0.0631564855576,   0.1242253780365,  -0.0223566871136,  -0.0410948581994,  -0.0694865956903,  -0.0309155583382,   0.0956090018153,  -0.0450037755072,   0.0859031006694,   0.0674935653806,   0.0725000947714,  -0.0970292016864,  -0.0175894554704,   0.1219407692552,   0.1156890988350,  -0.1009473949671,   0.0945701748133,   0.0215756166726,   0.1607815772295,   0.0238152742386,   0.1105356365442,   0.0636993572116,   0.1610124111176,  -0.1231822296977,  -0.0546470247209,  -0.1346386373043,  -0.0774844810367,  -0.1237788870931,  -0.0611554980278,  -0.1148882806301,   0.0976018607616,   0.0689762234688},
   {   0.0716238096356,   0.0317172706127,  -0.1127788722515,   0.1016783714294,   0.0132162757218,  -0.0712266415358,   0.1134672835469,  -0.0324006900191,  -0.0140068326145,  -0.0853214785457,  -0.0600777268410,   0.0426003709435,   0.1143358498812,   0.0036183435004,   0.1420472413301,   0.0657141357660,   0.0572338439524,  -0.0490024946630,   0.1083310917020,   0.0719770416617,  -0.0535660833120,  -0.0938143283129,  -0.1126934662461,   0.1232702136040,   0.1260407865047,   0.1327068805695,  -0.0107681574300,   0.0401512123644,  -0.0511296540499,   0.0218911003321,   0.0073162750341,  -0.1195305138826,  -0.0535315796733,   0.0849131420255,   0.0357325635850,  -0.1236089617014,   0.0261210333556,  -0.0506486855447,   0.0222756601870,  -0.0486685633659,  -0.0766354948282,   0.0847727805376,   0.0534946024418,  -0.1089701578021,  -0.0198666639626,   0.0142946345732,  -0.1177331209183,  -0.0230516027659,   0.1129778847098,  -0.0034111370333,   0.0675567835569,  -0.0539335981011,   0.0671110302210,   0.0343012996018,  -0.1066517233849,  -0.0879902392626,  -0.1101524457335,  -0.1826491057873,   0.1425655037165,   0.1022303849459,   0.0621283389628,  -0.0154260573909,   0.0444551557302,   0.0291329994798,  -0.0401945970953,  -0.0309423152357,   0.1165768951178,  -0.1225852817297,  -0.1143063828349,   0.0901402980089,  -0.0967346578836,  -0.0635942593217,  -0.0644180104136,  -0.1244435682893,   0.1275129616261,  -0.0085060913116,  -0.0220089182258,  -0.0183538068086,  -0.0312862545252,  -0.1034038215876,  -0.0431964285672,   0.0840590149164,   0.1317355334759,  -0.1234170868993,  -0.0445556975901,   0.0902375578880,   0.1299960315228,   0.1148438602686,  -0.0736242756248,   0.0584563352168,   0.0003035349655,  -0.1251165568829,   0.0008197337738,   0.0635461807251,   0.1430363655090,  -0.0019577899948,  -0.1352139115334,   0.0435161627829,   0.0769715607166,   0.0297340620309,  -0.0846186950803,   0.1364959925413,   0.0042537329718,   0.0129221882671,  -0.0521675720811,  -0.0918360725045,  -0.0748378634453,   0.0469540879130,  -0.0863912552595,  -0.0262214653194,   0.0003282095713,  -0.1450387388468,   0.1513570845127,   0.1207984611392,  -0.0732595250010,   0.0669801756740,  -0.0707878023386,   0.0642934516072,  -0.1548603028059,  -0.1464968919754,  -0.0723933130503,  -0.0092488629743,  -0.0866843909025,  -0.0847454592586,   0.0194302909076,  -0.0642172023654,   0.0346411950886,  -0.0850270837545,   0.0772414505482,   0.0549078807235,  -0.1462359875441,  -0.1353914737701,  -0.0520000755787,   0.0999191701412,  -0.0431101694703,   0.0474435128272,   0.0638184025884,  -0.0835318639874,   0.0254131648690,   0.0900630652905,  -0.0486096180975,  -0.0852209925652,  -0.1300080120564,  -0.1037931963801,   0.0038705540355,   0.0002830049780,   0.0838081389666,  -0.0328772664070,  -0.0679153352976,   0.0553348623216,   0.0291884746403,  -0.0418950393796,  -0.1350115984678,   0.0606067031622,   0.1239524260163,   0.1215672492981,   0.1378276646137,  -0.1365436166525,  -0.1303181201220,   0.0142332082614,   0.1113077625632,  -0.0490872934461,   0.1166535019875,   0.0533934868872,  -0.0112496977672,   0.0670544728637,  -0.0484805367887,   0.1917333602905,  -0.0736978948116,  -0.1566692739725,  -0.0539918392897,   0.0402264185250,   0.1470870226622,   0.1360090672970,  -0.1098205819726,  -0.0261930655688,   0.1026735305786,  -0.0406545698643,   0.0658397153020,   0.0420451387763,   0.0351152643561,   0.0145705873147,   0.0366430543363,  -0.0159738641232,  -0.0332981944084,   0.0862732976675,  -0.0031793809030,   0.1139125525951,   0.0761651694775,   0.1028954982758,   0.0386210046709,   0.0713364705443,   0.0732108503580,  -0.0206487551332,  -0.1291484981775,   0.0616851560771,  -0.1070138886571,   0.0505661815405,  -0.1534835398197,   0.1370549052954,   0.1158901527524,  -0.1369537115097,   0.0356247052550,   0.0317155644298,  -0.0745199993253,   0.1288984715939,   0.1156520545483,  -0.0560114122927,  -0.0210859198123,   0.0799183323979,  -0.0770703703165,   0.1206674948335,   0.1110793426633,  -0.0754381343722,   0.0782087445259,   0.0628189891577,  -0.1200316846371,  -0.0623559318483,   0.1505523025990,   0.0211553461850,   0.1280737221241,  -0.1178151071072,  -0.1233889833093,  -0.0683010444045,   0.0372540801764,   0.0474801585078,   0.1513668298721,  -0.1159582138062,   0.0803745314479,  -0.1128576621413,  -0.0794159471989,  -0.0957536175847,  -0.1309706568718,  -0.1529362946749,  -0.0275415852666,  -0.0139392046258,   0.0428492240608,   0.0710705146194,  -0.1412663608789,   0.0683931335807,   0.0966809093952,   0.0340345278382,   0.1462596058846,  -0.0091508124024,   0.0108989980072,  -0.1067108586431,   0.1886089444160,   0.0590329840779,  -0.1216702535748,  -0.1089448928833,   0.1964170783758,  -0.1228533908725,   0.0445241481066,  -0.0242074709386,   0.1272431612015,   0.1387650817633}};
  const float bias_0[256] = {   0.0077421097085,   0.0011628430802,   0.0059881322086,   0.0098991971463,  -0.0174628086388,   0.0288907233626,   0.0005690882681,  -0.0090422034264,   0.0036064712331,   0.0080975210294,  -0.0067455656826,  -0.0144078480080,  -0.0180087778717,   0.0077401087619,   0.0105430418625,   0.0027483019512,   0.0055985203944,   0.0083701945841,   0.0181976798922,   0.0153653370216,   0.0016577902716,  -0.0155396284536,   0.0061153923161,  -0.0078878477216,   0.0214393250644,  -0.0018507905770,  -0.0041611189954,  -0.0164732038975,   0.0183252692223,  -0.0302205216140,  -0.0113640436903,   0.0173410717398,  -0.0045707803220,   0.0189650729299,  -0.0015875778627,   0.0131467012689,   0.0066391881555,   0.0335776247084,  -0.0017365708482,  -0.0026539491955,   0.0019377742428,   0.1254860609770,   0.0121240522712,   0.0037924747448,   0.0012582144700,  -0.0083281891420,   0.0028669468593,   0.0022105609532,   0.0118733178824,  -0.0067461892031,   0.0089210243896,   0.0157974809408,   0.0058150156401,  -0.0306461844593,   0.0017726530787,   0.0009501262684,  -0.0059770070948,   0.0164678599685,   0.0066002262756,   0.0028401496820,   0.0225868169218,   0.0050099035725,  -0.0027620194014,   0.0031270328909,  -0.0029549128376,  -0.0101922536269,  -0.0042302771471,   0.0162825342268,  -0.0043487949297,   0.0123126674443,   0.0363298319280,   0.0020874936599,   0.0683975815773,  -0.0090050231665,   0.0036316968035,  -0.0345591157675,   0.0080876220018,  -0.0009639441851,   0.0637297630310,  -0.0019681041595,  -0.0053597665392,   0.0061783893034,   0.0194441080093,   0.0041956333444,  -0.0337914638221,   0.0047126901336,  -0.0023957206868,   0.0073011531495,   0.0057910820469,  -0.0087017025799,   0.0078945560381,   0.0447122678161,   0.0424292348325,   0.0117808096111,   0.0057864710689,   0.0611746609211,   0.0102028269321,  -0.0046455385163,   0.0029972775374,   0.0111955376342,   0.0072200181894,   0.0146284997463,   0.0198421292007,   0.0020989191253,   0.0100202308968,   0.0073632970452,   0.0080271931365,  -0.0063931914046,   0.0252089574933,   0.0469917133451,  -0.0056332726963,   0.0091470237821,   0.0262505188584,   0.0018447234761,  -0.0051652570255,  -0.0103592853993,  -0.0300996471196,   0.0380430370569,   0.0011572410585,   0.0099081424996,   0.0754830539227,   0.0451890341938,   0.0105246603489,  -0.0051969364285,   0.0053140372038,   0.0020022797398,   0.0056527098641,   0.0218142867088,   0.0000046990199,   0.0697264149785,   0.0162259377539,  -0.0103900218382,   0.0415489040315,   0.0050075254403,   0.0118180951104,   0.0249920636415,   0.0136789353564,   0.0064983610064,  -0.0118085462600,  -0.0274347383529,  -0.0163976196200,   0.0093225147575,   0.0082158017904,  -0.0058897091076,   0.0111138159409,  -0.0183129645884,   0.0151403592899,  -0.0003802275169,   0.0554763078690,  -0.0164819322526,   0.0052179354243,   0.0032428337727,  -0.0061636096798,   0.0078174313530,   0.0082677183673,  -0.0027334596962,  -0.0010907477699,   0.0039000133984,   0.0013223232236,  -0.0021022704896,   0.0199693366885,   0.0077514220029,  -0.0226660557091,  -0.0115031460300,   0.0001043402663,   0.0057681109756,   0.0009471786907,  -0.0138157196343,  -0.0028874881100,   0.0128473406658,  -0.0002043625718,   0.0029435195029,   0.0660029351711,   0.0071863825433,   0.0155072258785,   0.0022972601000,   0.0041147153825,   0.0544507838786,  -0.0035759711172,  -0.0079295979813,   0.0078309262171,   0.0066692121327,  -0.0076395040378,   0.0057159462012,   0.4688726961613,   0.0042324401438,  -0.0407945252955,   0.0487060472369,  -0.0027846659068,   0.0210250783712,   0.0064868996851,   0.0241337027401,   0.0128056313843,   0.0234296992421,  -0.0021932979580,   0.0138045148924,   0.0100618526340,  -0.0031584231183,   0.0080510349944,   0.0027339200024,   0.0434621982276,   0.0140934782103,   0.0006761823315,  -0.0027803573757,   0.0081415874884,  -0.0231933109462,  -0.0085053769872,   0.0027350750752,  -0.0084305973724,  -0.0009908647044,   0.0070943394676,  -0.0055183749646,  -0.0158121529967,  -0.0041474052705,   0.0037446487695,   0.0114764934406,   0.0164807643741,   0.0083258273080,  -0.0021484917961,   0.0041637374088,  -0.0197497736663,   0.0052329869941,   0.0089003797621,  -0.0712300613523,   0.0276337768883,   0.0019487027312,  -0.0082539543509,   0.0077719725668,  -0.0000573094912,   0.0113704307005,   0.0074881822802,  -0.0074380496517,   0.0065100505017,  -0.0105559360236,   0.0231148153543,  -0.0093062408268,  -0.0077771381475,   0.0162918064743,   0.0049059847370,  -0.0047119520605,   0.0017697343137,  -0.0011042911792,  -0.0142214484513,  -0.0064705666155,  -0.0032884497195,  -0.0022798860446,  -0.0047529595904,   0.0133793931454,  -0.1065313145518,  -0.0074262404814,  -0.0050399978645,  -0.0081088058650,  -0.0057697319426,   0.0085441144183,   0.0105054005980,   0.0163528993726};
  // Declare the arrays in the stack
  const float kernel_1[256][256] = 
