
    // Select all (Ctrl+A), Copy (Ctrl+C), paste to an empty text file (Ctrl+V) and save that file as 'generated_code.h'
    // 
    // Auto-generated header file. 

    #include <math.h>

    float norma_SigDBNN;
    
inline float activation_SigDBNN_0 (float x, float n) 
{ return x > 0 ? x : 0;}
inline float activation_SigDBNN_1 (float x, float n) 
{ return x > 0 ? x : 0;}
inline float activation_SigDBNN_2 (float x, float n) 
{ return exp(x)/n;  }

    float guess_SigDBNN (const float *img, int flag)
    {
    
  // Declare the arrays in the stack
  const float kernel_0[23][128] = 
  {{   0.0286434926093,  -0.1449122428894,   0.1557499617338,   0.1930048763752,  -0.1251811832190,  -0.0663039460778,  -0.0828527882695,  -0.0052582719363,  -0.1510450690985,   0.2125975340605,   0.1751241981983,   0.0291974004358,  -0.0047579677776,   0.0192380528897,   0.1693363487720,  -0.1177767589688,  -0.0728357732296,  -0.0752239003778,  -0.1699268221855,  -0.0165013298392,  -0.1172213852406,   0.0456195771694,  -0.2659467756748,   0.0433472059667,   0.1654129624367,  -0.1734589487314,   0.1306073814631,  -0.1922497153282,  -0.1346175223589,  -0.1131030097604,   0.1138755902648,  -0.0275667160749,  -0.0579864084721,   0.0634525194764,   0.1082991957664,  -0.1771594882011,   0.1902999132872,   0.0627767369151,  -0.0163591112942,   0.0022692431230,  -0.1223336756229,   0.1870170682669,  -0.0218313299119,  -0.1925846785307,   0.1844249665737,   0.0337107181549,   0.0186741501093,   0.0666066631675,   0.0836275890470,  -0.1052568778396,   0.0248956717551,  -0.1821647286415,   0.0686237588525,  -0.0753165856004,   0.0976397916675,   0.3080435097218,  -0.1031302884221,  -0.1088237985969,  -0.0715182945132,   0.0369706824422,   0.0829422175884,  -0.0992602556944,  -0.0680067166686,   0.0713921040297,   0.0980530381203,   0.2072629928589,  -0.0761394649744,  -0.0441777408123,  -0.1991824358702,   0.0305263232440,  -0.0160457380116,   0.1541001200676,   0.0378674529493,   0.0698471814394,   0.0897236540914,   0.0926117226481,  -0.2584137618542,  -0.0766209587455,   0.0058987531811,   0.0495011508465,   0.0927245169878,   0.0924332216382,   0.1203616932034,  -0.0162156019360,   0.0017098571407,   0.2146676182747,  -0.0534477084875,   0.0169720873237,   0.0859565511346,  -0.0537711530924,   0.0603596605361,  -0.2890011668205,  -0.0309002250433,  -0.0739831179380,   0.0147105176002,   0.1307276934385,   0.1584844738245,  -0.1838475316763,  -0.1447682082653,   0.0376041382551,  -0.1778838485479,   0.0782873928547,  -0.1725316494703,   0.0158297065645,   0.0240709744394,   0.0910401418805,   0.2234478890896,  -0.0117413317785,  -0.0399635918438,  -0.1777188926935,  -0.4837787151337,   0.0831449106336,   0.0140305915847,   0.1011545211077,   0.0795968621969,  -0.1780904233456,   0.1830564290285,  -0.1267888545990,   0.0023210968357,  -0.1135436668992,   0.0059440215118,   0.1624700874090,   0.0012577413581,   0.0880860537291,   0.2332697957754,  -0.0482857301831,  -0.2442608475685,   0.0862748622894},
   {   0.0500777177513,   0.0211177300662,   0.1977470815182,  -0.2530863583088,  -0.0406843498349,   0.0138303777203,  -0.1428311020136,  -0.0265855994076,   0.0213362295181,  -0.1683523505926,  -0.0475211590528,  -0.1976962983608,  -0.1037790104747,   0.0650653466582,   0.0614774040878,   0.1025122329593,   0.0581322200596,   0.1258973479271,  -0.2305288016796,   0.0072688842192,  -0.2181235700846,   0.0319202952087,  -0.0541644468904,   0.0822873637080,  -0.1405405253172,  -0.1580488979816,  -0.0399235151708,   0.0261463206261,  -0.0476829484105,   0.1084806397557,   0.0997710451484,  -0.1153019964695,   0.0983625724912,  -0.0373136475682,  -0.0001246246538,  -0.0210660304874,   0.1112599298358,  -0.0340232662857,  -0.0337575674057,  -0.0495597012341,   0.1796294301748,   0.0268022306263,   0.0087603572756,  -0.1371296793222,   0.0127462092787,   0.2273935824633,  -0.0724322497845,  -0.0380207784474,  -0.1314757913351,   0.1095970571041,  -0.1003091186285,   0.0082273157313,   0.1083092167974,  -0.2073011398315,   0.0927769541740,  -0.0177190620452,   0.0465577244759,  -0.2331542074680,  -0.3401349782944,  -0.0457137003541,   0.1880702674389,  -0.0709590539336,  -0.1224696040154,   0.1444211602211,   0.0061302268878,   0.1372175514698,  -0.0244466774166,   0.0047440212220,   0.0073236683384,  -0.0418332368135,   0.0184427145869,  -0.0537409596145,  -0.1411858350039,   0.1114668771625,   0.0137827442959,  -0.0275376029313,   0.0220724735409,   0.0531044602394,   0.2624615430832,   0.1804735660553,  -0.0249500665814,  -0.0972809866071,   0.0690235719085,   0.0343215614557,  -0.0222878083587,   0.3490891456604,  -0.0316676907241,  -0.1526251733303,   0.0105196265504,   0.0434315800667,   0.0930294319987,  -0.0076381755061,  -0.0537140779197,   0.0115668987855,  -0.0476605109870,  -0.1241110637784,   0.1445785611868,  -0.0172391775995,  -0.0574153438210,  -0.0377356410027,   0.0333757922053,   0.1248041689396,   0.0191468801349,   0.0952729731798,   0.0662915781140,   0.0276499371976,  -0.2645652294159,   0.0144072249532,   0.0135296285152,   0.0850526541471,  -0.1603707075119,   0.0107666291296,   0.0965035855770,  -0.0123944217339,  -0.4385749697685,  -0.1084338724613,  -0.1059879139066,   0.2505970895290,   0.0048240493052,   0.0978830307722,   0.2167011499405,   0.0753838717937,  -0.2702245414257,   0.1036633923650,   0.0053221867420,  -0.1717817783356,   0.1057350933552,   0.0429186820984},
   {   0.0914979726076,  -0.0660867393017,  -0.1537871658802,   0.0093598803505,   0.1438026428223,   0.0820724815130,   0.1725609153509,  -0.0718922242522,   0.1272618919611,  -0.2315867543221,  -0.0253567602485,   0.0431167110801,  -0.1291627436876,   0.0203925278038,   0.0064791482873,   0.1707392334938,   0.0370924994349,   0.1381222903728,  -0.0521856509149,  -0.1400175243616,  -0.0744105875492,  -0.1465785056353,   0.0676482915878,  -0.0358362123370,   0.0636013820767,   0.1157916933298,   0.1134962663054,   0.1193197593093,   0.1793426871300,  -0.1834790259600,  -0.1201883852482,   0.1843312829733,   0.0593391172588,   0.0491855554283,   0.2371391505003,  -0.1885016858578,   0.1326205730438,  -0.1100870296359,  -0.0312497913837,   0.2187092006207,  -0.1782364398241,  -0.1155503466725,   0.1641521453857,   0.1142814233899,   0.2307875901461,  -0.1776237040758,  -0.0058027575724,  -0.2552569210529,   0.1194987148046,  -0.1778792142868,   0.0776501968503,   0.1303806006908,  -0.1739884018898,   0.1202608421445,  -0.0221563819796,   0.2033013999462,  -0.1707522869110,   0.2492166161537,   0.0029024903197,   0.0429282523692,  -0.1476473957300,  -0.0295270793140,  -0.2108845114708,  -0.1793195158243,   0.0560615435243,   0.0713821947575,   0.0887090191245,   0.0216354038566,   0.1513272076845,   0.0578513555229,  -0.0042700343765,   0.0284049678594,   0.3619345724583,  -0.0117610087618,  -0.0052196038887,  -0.0657306537032,  -0.0087571628392,   0.1704943627119,  -0.2404725700617,   0.0349870249629,  -0.1419809460640,   0.0343176946044,  -0.0395943187177,   0.3248656094074,   0.0565668866038,  -0.0344889909029,  -0.0313697680831,  -0.1245360225439,  -0.0608188435435,   0.0728104263544,  -0.0353447534144,  -0.0607626289129,  -0.2103600203991,  -0.0192812848836,  -0.1462992280722,   0.1443618983030,   0.0123341241851,   0.1228230446577,  -0.1395502537489,  -0.0727462917566,  -0.0007905960665,  -0.0270605068654,   0.1150321215391,   0.0063484441489,   0.0399839356542,   0.0067234397866,  -0.1328821480274,   0.0455539152026,   0.1225517541170,   0.3218351304531,  -0.3393028974533,  -0.0589016787708,   0.2224742174149,  -0.2380728274584,  -0.0235189143568,  -0.0764728710055,   0.0521995425224,  -0.1820528060198,  -0.1338472962379,   0.1330980360508,   0.1814645528793,   0.0682324096560,  -0.1854554563761,  -0.0323841460049,   0.0331293232739,  -0.2196665555239,   0.0793702676892,   0.1337715834379},
   {  -0.0231269244105,   0.1688925474882,  -0.0091293761507,   0.0467328764498,  -0.2593162059784,  -0.1999221593142,  -0.0775373950601,   0.0443292781711,   0.0950209572911,   0.1184578016400,  -0.0257826559246,  -0.2163493633270,  -0.2010176032782,   0.0374048277736,  -0.0062141190283,  -0.0373191982508,  -0.1769018471241,   0.1530999094248,  -0.1914945244789,  -0.0555096529424,   0.0878271907568,   0.1360231190920,   0.1961981058121,   0.1207876875997,   0.0151633573696,  -0.1755625456572,   0.0857678651810,   0.0691778957844,  -0.1266517192125,  -0.1544170528650,   0.1436882466078,  -0.2077226489782,  -0.1450763791800,   0.1875582784414,   0.0250748638064,  -0.2964913845062,  -0.0693821460009,  -0.2178147435188,  -0.1331172436476,   0.1376445889473,   0.1683039963245,  -0.0962713882327,  -0.2120689302683,  -0.1196136623621,   0.1689082533121,   0.0419811345637,   0.1417874842882,   0.1030584946275,   0.1454443931580,   0.0604479238391,   0.0968951955438,  -0.1653042882681,   0.0984059348702,   0.1431313455105,   0.1618665456772,  -0.0995117649436,   0.0447024591267,   0.0365683510900,   0.1661539226770,   0.0759378969669,  -0.0042951568030,   0.0849534273148,   0.0090197622776,   0.0488949418068,   0.1653770804405,  -0.1777313500643,   0.1711770296097,  -0.0479515604675,   0.0474551580846,   0.0317752510309,   0.0240579117090,   0.0362043865025,   0.1124166324735,   0.0583008863032,  -0.1618416756392,   0.1261041313410,   0.1770611405373,   0.1168391406536,  -0.0451004505157,   0.0594806112349,  -0.1393005102873,   0.1685127615929,   0.1407931298018,  -0.2298673838377,  -0.0610349327326,   0.0108461584896,   0.1194144263864,  -0.1610765308142,   0.1570058017969,   0.1558752208948,  -0.1908961236477,  -0.3638770580292,   0.0967801138759,  -0.1310582607985,  -0.1256846636534,  -0.0485005080700,   0.0957276597619,   0.1958465576172,   0.2188760042191,   0.0963193625212,   0.0048209615052,   0.0739164426923,   0.0898842364550,  -0.0417903214693,   0.1395980417728,   0.1195164844394,  -0.2339286655188,   0.2210474461317,  -0.1751436889172,  -0.2793409228325,  -0.2579499781132,  -0.0767275243998,   0.1167433410883,   0.1817622482777,   0.1251284182072,   0.1813684403896,   0.1719308495522,  -0.0708240941167,   0.1049185469747,  -0.2850574254990,  -0.0747642666101,   0.0347064733505,  -0.1615069508553,  -0.0151314176619,   0.1573832929134,   0.1304531097412,  -0.0570784807205,   0.2022400498390},
   {  -0.3421584665775,   0.5114945769310,  -0.0712726786733,  -0.0487087666988,   0.0414621159434,   0.0815893635154,  -0.1733850240707,  -0.0557840168476,  -0.0302465204149,   0.1697045862675,  -0.2652110457420,  -0.0600651390851,   0.1714641451836,   0.1247733756900,   0.2477507889271,   0.0196315515786,   0.2277131974697,  -0.2215094417334,   0.1587293297052,   0.1808226853609,  -0.2808471322060,   0.2079644203186,   0.0588661246002,  -0.2457623481750,   0.1662382930517,  -0.4070610702038,  -0.4082905650139,  -0.0010802431498,  -0.2355196624994,  -0.1740522384644,   0.1772255897522,   0.0369766429067,  -0.0720922872424,   0.3498821556568,   0.0635199546814,  -0.0966195836663,  -0.0025701115374,   0.1589529216290,   0.1544770002365,   0.2177762389183,  -0.0367459952831,   0.1600762009621,  -0.1090006679296,  -0.0044243810698,  -0.1932251602411,  -0.0365966036916,  -0.0135189965367,  -0.1836829930544,  -0.1577043831348,   0.0674483999610,   0.2655534148216,  -0.1438478529453,  -0.1665302067995,  -0.1133931428194,  -0.2738230228424,  -0.0820588693023,   0.0899731814861,   0.3276769220829,   0.0108962431550,  -0.1286346912384,  -0.1441724449396,   0.2506067752838,  -0.2891954779625,   0.3063560128212,  -0.0411985777318,  -0.3347759842873,   0.1759508997202,  -0.0383457355201,  -0.0679236799479,   0.1826388239861,   0.2981000244617,  -0.0212846826762,  -0.1711113452911,   0.2009185701609,   0.0850815176964,   0.0489254035056,   0.0387416817248,  -0.2606004178524,   0.1244861111045,   0.1729372739792,   0.1003817394376,  -0.1574055701494,   0.0048321732320,   0.2361960411072,   0.2419138997793,  -0.0524385534227,  -0.1454640179873,   0.0538318008184,   0.1021192893386,  -0.0000792463106,  -0.5357920527458,  -0.1323744803667,   0.1106937304139,  -0.4628526270390,   0.1269033104181,  -0.0388854555786,  -0.0522825121880,   0.2580037117004,  -0.1941726505756,  -0.0881741195917,  -0.0777499824762,   0.0540221892297,   0.1964558362961,  -0.0063259098679,   0.2089899778366,   0.0987411215901,  -0.1963214427233,   0.1074464544654,   0.4019389152527,  -0.2084324806929,   0.2826915681362,   0.0602918863297,  -0.0090344389901,   0.2970974147320,  -0.0809317231178,   0.1232363656163,   0.1486009061337,  -0.0767813771963,   0.0680911839008,  -0.2237981110811,  -0.1646829992533,   0.0855420380831,   0.2518178224564,  -0.0531730130315,  -0.0137306321412,   0.0165365990251,   0.1417898237705,  -0.1035858839750},
   {  -0.0457439161837,  -0.0333035625517,   0.1117156818509,  -0.0193543229252,   0.1595395952463,   0.0539570637047,  -0.0808813646436,  -0.1673822104931,   0.1853311806917,   0.1200692057610,  -0.1207432001829,   0.1758793294430,   0.0292877163738,  -0.0333377569914,   0.0199354179204,   0.1677815467119,   0.0722452327609,   0.2209156155586,  -0.0920428112149,  -0.0382417663932,  -0.0803843811154,  -0.1652439236641,   0.3055211305618,   0.0641064271331,   0.0004790982930,  -0.0174402222037,   0.0002433672489,   0.1107161715627,  -0.1818343251944,  -0.0708210617304,  -0.1448966562748,  -0.0124240182340,   0.0454035401344,  -0.0588706657290,   0.1804550886154,  -0.0168984159827,   0.0990132316947,   0.0471315532923,   0.0574220456183,   0.2951931059361,  -0.0086301993579,  -0.1672642379999,   0.0364483371377,   0.0601933151484,  -0.0875497385859,  -0.0734355971217,  -0.0554898716509,  -0.1330246478319,   0.0866063758731,   0.2434859573841,  -0.0459230169654,   0.0104768238962,   0.0851190388203,  -0.0741385668516,  -0.0377064086497,   0.0124071082100,  -0.1282794624567,  -0.1951250284910,   0.0127380946651,  -0.0736601501703,   0.1271907836199,   0.0699361562729,  -0.0422808937728,  -0.1100449264050,  -0.0537358261645,  -0.0370683111250,   0.0070293419994,  -0.0058266646229,  -0.0850660204887,  -0.1093184649944,  -0.0042599546723,   0.1879012584686,  -0.1478726863861,   0.0399058908224,  -0.2234865128994,  -0.1539346873760,  -0.0342167131603,  -0.1009602472186,   0.0157572682947,  -0.1384681761265,   0.0999402627349,   0.1924338787794,   0.0662961825728,  -0.0614445470273,   0.0421130247414,  -0.0125411190093,   0.1353068947792,  -0.1471523195505,   0.1618412733078,  -0.1095182448626,  -0.1020881384611,   0.0610933080316,  -0.1794750541449,   0.1120470389724,  -0.1455705612898,  -0.0534998476505,  -0.0107739828527,  -0.0579222105443,   0.0484468378127,   0.1701388061047,   0.0459991246462,  -0.1287505775690,   0.0871595218778,   0.0279966238886,   0.0298907626420,   0.0364246927202,   0.1982794702053,   0.1322041451931,  -0.0001243599254,  -0.0386259593070,  -0.1766204088926,   0.1785512864590,   0.0621233582497,  -0.1153130382299,  -0.1023066490889,   0.1012772768736,  -0.1031685918570,   0.0230166204274,  -0.1678943783045,  -0.1190383061767,  -0.0324155949056,  -0.2080907225609,  -0.0514640212059,   0.0659070760012,  -0.0834824368358,  -0.0116228517145,  -0.1721054464579,  -0.0809137672186},
   {  -0.3739352226257,  -0.0039169802330,  -0.0216452833265,   0.1847460865974,   0.3773113191128,   0.1636420488358,   0.2985013723373,  -0.2541036307812,   0.3723218739033,  -0.1579142659903,  -0.1360766440630,   0.3059290349483,  -0.1913682520390,  -0.0498793423176,   0.3427771329880,   0.2061858475208,   0.4111669361591,   0.0277275480330,   0.2492112964392,  -0.0336003713310,  -0.2377761453390,  -0.0871342346072,   0.3328695297241,   0.1257228404284,   0.0750555917621,  -0.1814745664597,  -0.2003373950720,  -0.0694739818573,   0.1342564374208,  -0.1917467415333,   0.1668305993080,  -0.1604932546616,   0.1332383602858,   0.0499497540295,   0.5084204673767,   0.1394641101360,  -0.1534953266382,  -0.0538729950786,   0.0227778274566,   0.0350035689771,  -0.2575803101063,   0.1397169828415,  -0.0759755671024,   0.3328504562378,   0.0018916146364,  -0.1733912378550,  -0.1955096423626,   0.5056627392769,  -0.1376710832119,  -0.0441756322980,   0.1204589381814,   0.0675887390971,   0.1499456912279,  -0.1455636769533,  -0.1537015289068,   0.3424255549908,  -0.1975842118263,  -0.3837468028069,  -0.2729618847370,   0.3637025952339,  -0.1858026087284,  -0.1691687107086,  -0.2737160027027,  -0.2642654478550,  -0.1330934762955,   0.2090518027544,  -0.1367169171572,  -0.1945718377829,  -0.2011352628469,   0.2861104011536,   0.2304949164391,  -0.2714649140835,   0.2205556482077,   0.1299083679914,  -0.1490371823311,  -0.1478615403175,  -0.0141447400674,  -0.1744716614485,  -0.0448812097311,  -0.2172500491142,   0.2965170741081,   0.1687413007021,   0.0540714375675,   0.2444502711296,  -0.4165385365486,  -0.0147320358083,  -0.1205696612597,  -0.2633795738220,   0.0020842808299,   0.0112667661160,   0.1161636561155,   0.0579146258533,   0.0621415786445,   0.2207891643047,   0.3258399963379,   0.7009276151657,  -0.0774823725224,   0.1126869916916,  -0.2063093781471,   0.2321383953094,  -0.1016521528363,  -0.1674060821533,   0.0662520080805,   0.0533544681966,   0.5065665841103,   0.2665222883224,  -0.1218369454145,   0.1369017362595,  -0.2141239494085,  -0.1830922216177,  -0.0531641840935,  -0.1656459420919,   0.4600245356560,  -0.1798939257860,   0.1304409652948,   0.0635574012995,   0.1268983334303,  -0.0820803195238,  -0.0418461039662,   0.5618616938591,   0.1690370738506,  -0.0862045958638,   0.1359671652317,   0.2282938659191,  -0.3508672416210,  -0.2128531038761,   0.1647283434868,  -0.1336647570133},
   {  -0.0442481972277,  -0.2965933978558,  -0.0114788878709,  -0.2170511633158,  -0.0541899465024,   0.0784906223416,  -0.1576340943575,   0.0909486114979,   0.0301779266447,   0.0614410825074,  -0.0661039203405,  -0.0641525462270,   0.0615089423954,  -0.1213107630610,  -0.2274551391602,   0.1995079517365,   0.0862313956022,  -0.0263797417283,   0.0669460892677,   0.0645490586758,   0.1155394092202,  -0.0578947775066,   0.0485688671470,  -0.0689364969730,   0.0801941230893,   0.2151674479246,   0.0998891517520,  -0.1189816445112,  -0.1696802228689,  -0.1789968907833,   0.0051326048560,   0.1650782674551,   0.0416714660823,  -0.2256154865026,   0.1649975329638,  -0.1674738079309,   0.0943515598774,  -0.0297469943762,  -0.1088741123676,   0.0266165453941,   0.0430939756334,   0.0524573475122,  -0.0581344813108,  -0.0740199312568,  -0.0372793115675,   0.1075862720609,  -0.0004588564334,  -0.0404929779470,   0.0551561340690,   0.2883607745171,  -0.0423206500709,   0.0402332060039,   0.0919691398740,   0.1126623749733,   0.0450380444527,   0.1047981530428,   0.1429799646139,   0.0577929802239,  -0.0821896344423,  -0.1396196633577,   0.0471759065986,  -0.1052483320236,  -0.1851910054684,  -0.2268998622894,  -0.1689726412296,   0.2819674313068,   0.1326951086521,   0.1520379632711,   0.1262938678265,  -0.1164595559239,  -0.0825151354074,  -0.1896775066853,   0.3264572918415,  -0.2289015799761,  -0.2825413048267,  -0.1981748193502,   0.0201451163739,   0.0166422855109,  -0.0602365545928,  -0.2373693585396,  -0.1402371376753,   0.0965961590409,   0.0909139961004,   0.0907529741526,  -0.2542196810246,   0.1291988939047,   0.0691828802228,  -0.0601990222931,   0.1076870858669,   0.2206930071115,   0.0351077169180,   0.1756915748119,   0.1510555893183,  -0.1728389114141,   0.1790962368250,   0.0947353616357,   0.0053135710768,  -0.1185642406344,   0.1487441360950,   0.0327618047595,   0.0179377701133,   0.1743561923504,  -0.0439131967723,   0.1290802508593,  -0.1806706935167,  -0.1805036365986,   0.0391747690737,  -0.0994279906154,   0.0598787330091,  -0.2667389810085,  -0.1533129215240,   0.0817746445537,   0.0589927993715,  -0.0154452882707,   0.1715601533651,  -0.0646331161261,   0.0251694601029,   0.2072689682245,   0.0886572003365,   0.0307850427926,   0.0530117116868,   0.0976248979568,   0.0725759267807,  -0.0326961651444,   0.2207202315331,  -0.0615837164223,   0.0500175468624,  -0.0662572979927},
   {  -0.0709867030382,   0.0141136664897,   0.0863959267735,   0.1365062892437,  -0.4038286805153,  -0.3219504952431,   0.1129135787487,   0.1227537095547,  -0.0880203396082,  -0.1277117729187,  -0.0168058201671,   0.2564933598042,   0.0334573388100,  -0.0085979355499,   0.0139003638178,   0.0514813512564,  -0.0370313525200,  -0.0848978161812,  -0.1162571087480,  -0.1196020692587,  -0.0171572435647,   0.0444799251854,   0.0995657667518,   0.0495225824416,  -0.2345432043076,  -0.2449228316545,  -0.0468189865351,   0.1514441817999,   0.1740282773972,  -0.0156250465661,  -0.0778415054083,   0.0862603411078,  -0.2450498342514,   0.2169041335583,  -0.0674375817180,  -0.0579335093498,   0.1955957710743,  -0.0475348122418,  -0.1860470622778,   0.0613671354949,   0.0568035431206,   0.0635871812701,   0.3369635939598,   0.0278018899262,   0.1479240804911,   0.0348627343774,   0.1045837476850,  -0.2322850823402,  -0.0619644559920,   0.0226627364755,  -0.1013673245907,   0.3331360220909,  -0.0749396458268,  -0.1616729199886,   0.0940284281969,   0.1660881638527,   0.1302115917206,  -0.0808781981468,  -0.0403234139085,  -0.1950238943100,   0.2100393027067,  -0.1661072671413,   0.1264321804047,  -0.1197499111295,   0.1277948319912,  -0.0170106925070,  -0.1576365232468,   0.2033919543028,  -0.1248829513788,  -0.1053546667099,  -0.1491234004498,   0.0192571859807,  -0.1384855806828,   0.1393503099680,   0.0237863920629,   0.0479589775205,   0.0044861803763,  -0.0850380137563,   0.2075756043196,   0.0789378806949,   0.1131402924657,  -0.1861272603273,   0.1844661831856,  -0.2192919105291,  -0.1304199099541,  -0.1317656040192,   0.1451375633478,   0.0617389418185,   0.1742662489414,  -0.0683897808194,  -0.0134323826060,  -0.0181930847466,   0.1743968427181,  -0.0261559933424,  -0.0206778589636,   0.0562063567340,   0.1803338080645,  -0.0351641923189,   0.0999501347542,   0.1902243345976,  -0.2050622999668,  -0.0486242100596,   0.1245875880122,  -0.0037484106142,  -0.0696952417493,   0.1166043356061,  -0.0247016549110,   0.1217258870602,   0.0672295466065,  -0.1262100636959,   0.1050467118621,  -0.0791413486004,   0.0892399474978,   0.0510716140270,   0.0493719168007,  -0.1965110003948,   0.0128733133897,  -0.1624988168478,   0.0069615771063,   0.0028469834942,   0.2296053767204,  -0.1374495774508,  -0.2313209474087,  -0.0245665349066,  -0.0224210079759,   0.1360012739897,  -0.1344247907400,  -0.1981369704008},
   {   0.0483980663121,   0.0166665595025,  -0.1012136489153,   0.0501956157386,  -0.0468764863908,  -0.1972802281380,   0.0499961376190,   0.1668925732374,  -0.1057891994715,  -0.1199273467064,   0.1618082970381,   0.0824826657772,   0.2182988971472,  -0.0997822508216,  -0.0857484415174,   0.2589567601681,   0.0145932389423,   0.0725046098232,   0.0146532580256,  -0.0913372635841,  -0.0777412503958,  -0.0045375223272,  -0.2080561816692,   0.1230617016554,   0.1529062241316,  -0.0029677809216,  -0.3079497516155,  -0.2488494217396,  -0.0211114939302,   0.0138836959377,   0.2279393970966,  -0.1412292420864,   0.1110192090273,   0.1956723928452,   0.0576472766697,   0.0056764064357,  -0.2083754986525,  -0.0481429360807,  -0.1087064668536,  -0.0971877947450,   0.0706809982657,  -0.0028697890230,   0.2871391177177,  -0.1954811811447,   0.0410381592810,  -0.1610962003469,  -0.0430492013693,  -0.1411334276199,   0.1154314428568,  -0.0925143286586,   0.0673645660281,   0.2768252193928,   0.0307060591877,  -0.3213959038258,   0.0611132532358,   0.0576368197799,  -0.0784811004996,   0.0983548760414,  -0.1527270972729,  -0.1371821016073,  -0.1265679895878,  -0.1668887883425,   0.0315475799143,   0.0302465539426,   0.1224650517106,   0.0021461353172,  -0.3017293810844,   0.1577952653170,   0.0233022011817,   0.1056210994720,   0.2636761367321,   0.0231529287994,   0.1422671526670,   0.1879588216543,   0.2036960273981,   0.1366613954306,   0.1141830310225,  -0.0138747133315,   0.0019294081721,   0.0034599113278,   0.0605159997940,  -0.1660888195038,  -0.0661917850375,  -0.0435149669647,  -0.0538154840469,  -0.2322688698769,   0.2823805510998,  -0.0254781935364,   0.1946992129087,  -0.0380654335022,   0.0057420153171,  -0.0657172799110,   0.0344100408256,  -0.0220008939505,  -0.1739438772202,   0.0359214507043,  -0.1208684742451,  -0.0028933247086,   0.1508106589317,   0.0730307400227,  -0.1133317202330,  -0.1337430775166,   0.0208256021142,  -0.1564774215221,  -0.0597580336034,  -0.1911963969469,   0.1854987293482,   0.1354931145906,  -0.0244906675071,  -0.0753550305963,   0.0578593201935,   0.0128323864192,   0.0093986345455,   0.1018300577998,  -0.0006466237828,   0.1536831259727,  -0.1054160743952,   0.1970703303814,  -0.2134836018085,  -0.0717088058591,  -0.0135146277025,  -0.1024914160371,   0.0944606140256,   0.1334321051836,  -0.0675033256412,  -0.0177925359458,   0.0540811270475,  -0.0177093632519},
   {   0.2401083260775,   0.0029329312965,  -0.0488021299243,   0.0299549847841,   0.1370348036289,  -0.0214572772384,   0.0042012082413,   0.1503915339708,  -0.0239903815091,  -0.1476116776466,   0.1984135806561,  -0.1235159933567,  -0.2304341346025,   0.3099662959576,  -0.1936292946339,  -0.2066717743874,  -0.2174360454082,   0.2268603742123,   0.2044376730919,   0.0430752895772,   0.0247949790210,  -0.1750315874815,   0.0869242250919,   0.1272060573101,   0.0775578469038,   0.2175356000662,  -0.0937583670020,  -0.0146228736266,  -0.3090243935585,  -0.0282296426594,  -0.1252740174532,   0.1383637785912,  -0.2779403328896,  -0.0251054205000,  -0.1595427393913,   0.2062188833952,  -0.1641304045916,  -0.0309590548277,   0.0271989870816,   0.1824141293764,   0.0340480282903,  -0.1630142629147,   0.1448972672224,   0.0845721960068,  -0.1589111387730,  -0.1573132723570,   0.0634643286467,   0.2385682016611,   0.2226448804140,   0.0419360883534,   0.1960844248533,   0.4126421511173,  -0.0356933921576,   0.1073598265648,  -0.1349645704031,   0.0833534821868,   0.2424524128437,  -0.2341837435961,   0.1497452706099,   0.1252690851688,   0.0434241332114,   0.0590709932148,   0.0211676284671,   0.2402363121510,   0.1955990791321,   0.2510910630226,   0.0826162993908,  -0.2162117809057,   0.1887979656458,   0.0394196286798,   0.0615474134684,  -0.0062825647183,  -0.0462562590837,   0.2119021564722,  -0.0481743626297,  -0.1177703216672,  -0.0286742895842,   0.0725059658289,  -0.2287553995848,  -0.1937117576599,  -0.1158853098750,   0.1596359908581,   0.0550891011953,  -0.1068102493882,  -0.0303216762841,   0.2401701807976,   0.1387005746365,  -0.1302302628756,   0.0859574601054,   0.2383748739958,  -0.0836085602641,  -0.2164122313261,   0.1021126061678,  -0.0074034607969,   0.1687875986099,   0.1798394918442,  -0.0751285254955,  -0.1417578905821,  -0.0038260638248,   0.1731856316328,  -0.2164093554020,  -0.2155009508133,   0.2031619846821,  -0.1455524414778,  -0.3020654618740,  -0.0954152420163,  -0.1581730842590,  -0.3233417868614,   0.0973087474704,   0.0619266219437,  -0.0020146705210,  -0.2855455279350,   0.0586682669818,  -0.2563041448593,  -0.1295210570097,   0.0481171347201,  -0.3850243389606,   0.2560476362705,   0.0652810856700,   0.0933844074607,   0.1531661599874,  -0.0946837365627,   0.0011694078567,   0.2038464099169,  -0.2245711088181,   0.2133955955505,  -0.0666365697980,   0.0839438065886},
   {   0.0102576492354,   0.1441383063793,   0.2029325962067,   0.0477231368423,  -0.0380453951657,  -0.1990223824978,   0.1808368712664,  -0.0007371370448,   0.0411191545427,   0.2187517732382,  -0.0229873377830,  -0.1508402824402,  -0.0566998310387,  -0.0677401050925,  -0.0359272696078,   0.1050434038043,   0.1223247945309,   0.0129117928445,  -0.1454133838415,   0.1927954852581,  -0.1180197298527,   0.0545548833907,   0.1275477707386,   0.1588696241379,  -0.0516071431339,  -0.0879349485040,  -0.3736167252064,   0.1905269622803,  -0.1625646203756,  -0.1987360268831,  -0.1532887667418,   0.2039269804955,  -0.1642358154058,  -0.0643813684583,   0.0503004863858,   0.1317794173956,   0.2078008800745,  -0.0132420808077,  -0.0437629558146,  -0.2594333589077,   0.1638104021549,   0.2184195369482,   0.0310706347227,   0.1260715574026,   0.0397637598217,  -0.1455460786819,   0.0164994988590,   0.0012907097116,   0.0337607748806,  -0.2953555881977,  -0.0698099210858,  -0.0662427246571,   0.1026803255081,   0.1494280099869,  -0.0735143050551,  -0.0109554762021,   0.0600702576339,  -0.1513244062662,  -0.0537911243737,   0.1140437871218,  -0.1438000947237,  -0.1132783666253,  -0.1180290579796,  -0.1195024996996,  -0.1531887799501,   0.0428149700165,  -0.0364716537297,  -0.2020248025656,   0.2383462190628,   0.0559766329825,  -0.1807524859905,   0.2151210606098,  -0.2656359076500,   0.0877048000693,   0.0709495320916,  -0.1102929413319,  -0.0846027657390,   0.0582852065563,   0.0411627441645,  -0.0365138873458,  -0.1782402396202,   0.1359792947769,  -0.1385053843260,  -0.1512203514576,   0.0325026251376,  -0.0630627274513,   0.0285031050444,   0.0817784741521,  -0.0125115867704,   0.1506195813417,   0.0445428602397,   0.0724410191178,  -0.1589513570070,  -0.0005910015316,   0.0892499983311,  -0.0311282593757,  -0.0136015629396,  -0.0401473306119,   0.1051028519869,   0.0075119244866,   0.1839353740215,   0.0024519478902,   0.1984757930040,  -0.0578610450029,  -0.0431978143752,  -0.0605125837028,   0.0941614955664,  -0.2749063968658,   0.0799060165882,   0.1297922283411,   0.0552213601768,  -0.1646969467402,   0.2281604856253,  -0.0417629368603,   0.0550478473306,   0.0120904296637,  -0.3170154988766,   0.1970172971487,   0.1567122042179,  -0.0226606521755,  -0.0089276740327,  -0.0700568258762,   0.1249618679285,  -0.0250816941261,  -0.1598007977009,   0.1290546357632,   0.0104982489720,   0.0660830289125},
   {   0.0034316962119,   0.0318767800927,  -0.1971571296453,  -0.0416004061699,   0.0578799657524,   0.1560640782118,   0.2866034507751,   0.0469536818564,   0.0987866595387,  -0.0967502892017,   0.0492164343596,   0.0003957343288,  -0.1833253353834,   0.0000247565222,  -0.0847767293453,   0.0295220818371,   0.1965404301882,   0.1060673892498,   0.0047850795090,  -0.1497728973627,  -0.0797547474504,   0.1788850724697,   0.0525503270328,  -0.0457093790174,   0.0098005589098,  -0.0000334552678,  -0.0063625415787,  -0.0732453018427,   0.0453395061195,   0.1201017647982,   0.0201854929328,  -0.0245878286660,   0.1405809372663,   0.0361858718097,  -0.2071349620819,  -0.2639045715332,  -0.1294089853764,  -0.0833800211549,  -0.0696347579360,  -0.0351291410625,   0.1106548532844,  -0.0298023633659,  -0.0336622707546,  -0.1073507666588,   0.1186742484570,  -0.0802767425776,  -0.0297753624618,   0.0464764274657,   0.0890820622444,   0.2251015156507,   0.0702456086874,  -0.0578813664615,   0.1284841001034,  -0.1837053149939,  -0.1708101630211,  -0.0104477526620,  -0.2043167501688,  -0.0653666332364,   0.1205879822373,   0.1834850907326,  -0.1129920482635,   0.0575336143374,  -0.1784736514091,  -0.1485520154238,   0.0284060668200,  -0.1802574992180,  -0.1338019967079,  -0.1537735760212,   0.2091797739267,   0.0382160879672,   0.1158569306135,   0.1481180489063,  -0.1006633862853,  -0.0409548580647,   0.0528874509037,   0.1911854892969,   0.0785754844546,  -0.1906428933144,  -0.0871063768864,  -0.2381570190191,   0.0055760848336,   0.1059949770570,  -0.2231175899506,  -0.0553734004498,   0.0165304336697,   0.2434643059969,   0.1021114066243,  -0.0526774302125,  -0.1157435625792,   0.2656495869160,   0.1565850228071,  -0.1642928123474,  -0.1285596489906,  -0.1123985424638,   0.0959471017122,   0.0045041944832,   0.1532137244940,  -0.2622204720974,  -0.1008829623461,   0.0348858796060,   0.0682650655508,  -0.0993125736713,   0.0535499341786,   0.1355917304754,  -0.0428025387228,  -0.0843886435032,  -0.1956505328417,  -0.1197300702333,  -0.0498127490282,   0.0384628176689,   0.1940537840128,  -0.1800420135260,  -0.1680215150118,   0.1002064049244,  -0.0585770010948,  -0.2167585492134,   0.1243254393339,  -0.0919619202614,  -0.2591014504433,  -0.1222061291337,   0.1288411915302,  -0.1664816886187,  -0.1301993429661,   0.0521329641342,  -0.1939850300550,  -0.0182669032365,  -0.2158703804016,   0.0181771572679},
   {   0.0386785529554,  -0.1038744077086,  -0.1511526107788,  -0.0732750743628,  -0.1861597895622,  -0.0965105742216,   0.0269971322268,   0.0849169790745,   0.1260350048542,   0.1804346591234,   0.0515069961548,   0.1631439477205,  -0.1447312384844,  -0.1733408868313,  -0.0462575182319,  -0.0101678427309,   0.0126028088853,  -0.0794350281358,  -0.1895262151957,   0.0345593281090,   0.1188863664865,  -0.0933544561267,   0.0320393443108,   0.1000863164663,  -0.0162879321724,   0.0008507828461,   0.0192255843431,  -0.1130250915885,   0.0957112535834,   0.1937018483877,  -0.2071082741022,  -0.0708059668541,   0.0982659086585,  -0.1511611640453,  -0.1268978416920,   0.1404835283756,   0.0790165141225,   0.0772579610348,  -0.1527765393257,   0.0182194840163,   0.1137522533536,   0.0848724395037,   0.1068230569363,  -0.1409464180470,  -0.0895234569907,   0.0747048258781,  -0.2373422533274,   0.0967041254044,  -0.1878674477339,   0.2124594449997,   0.0839948803186,   0.1259301751852,   0.1783625930548,  -0.1666831970215,  -0.1082092002034,   0.1989524662495,   0.2256198525429,   0.0106962500140,   0.2229265421629,  -0.1170707717538,  -0.0432698726654,  -0.1779624968767,  -0.1023085862398,   0.0003811179777,  -0.0909825861454,   0.1566859185696,   0.1903396993876,   0.0354913584888,   0.2622269690037,   0.0585716925561,   0.0791618898511,  -0.1454121321440,  -0.2018976211548,  -0.1287026852369,  -0.0067620286718,  -0.0135891698301,   0.1156587526202,   0.0647297650576,  -0.0262141842395,   0.1581952720881,  -0.1836511045694,  -0.0519755594432,  -0.1953514069319,   0.0013901025523,  -0.1284451335669,   0.0077172778547,   0.1609649360180,  -0.1795098334551,   0.0900234729052,   0.0824525430799,  -0.0385818444192,  -0.0203635990620,   0.1845065802336,   0.1457038968801,   0.0275925230235,   0.0575192123652,  -0.0367917679250,   0.1843691915274,   0.0526291690767,  -0.0826679095626,   0.1181977763772,   0.0543418675661,  -0.1150357574224,   0.0567801594734,  -0.2211832255125,  -0.0455800965428,   0.1764272302389,  -0.0583483241498,   0.1715759336948,   0.1619009524584,  -0.0225452873856,  -0.1301164031029,  -0.0091846622527,   0.0945733115077,  -0.1725842356682,   0.0227861292660,   0.0609702914953,   0.0142684411258,   0.2431080341339,   0.1411184668541,  -0.0324867181480,   0.1154152452946,  -0.1015061214566,   0.1613509953022,  -0.0020169971976,   0.1364130079746,  -0.1019279658794,   0.0101611260325},
   {   0.0930795595050,  -0.1028461009264,   0.1106880456209,   0.0692487955093,  -0.0328119248152,   0.0974790751934,  -0.0865854546428,  -0.2182983905077,   0.0374221540987,   0.1281784176826,  -0.2522861063480,  -0.1279682964087,   0.0390908643603,   0.1553730219603,   0.0318770557642,   0.1314671039581,  -0.1554981768131,   0.1440348327160,  -0.1651751250029,  -0.0557029098272,  -0.0214948263019,  -0.0569209046662,   0.0360913872719,  -0.1307222396135,  -0.2677077054977,  -0.0191181693226,   0.1265230923891,   0.1155130490661,   0.1806564033031,   0.1952902227640,  -0.0191831830889,   0.0776509344578,   0.0076096579432,  -0.1150093898177,  -0.0666545853019,  -0.1403527557850,   0.1453036665916,   0.2906246781349,   0.3364710509777,  -0.1151615828276,   0.0366253070533,  -0.1426293253899,  -0.0209467504174,   0.0121776591986,  -0.1670034229755,   0.2650654315948,   0.2022976577282,   0.2093348503113,   0.0508452430367,  -0.2748487293720,   0.1691697090864,   0.0707611590624,   0.0402697697282,  -0.0443628951907,  -0.0523037388921,   0.1484587490559,  -0.1107142046094,   0.1481319814920,  -0.2820309400558,   0.0584457106888,  -0.0093898372725,   0.1628297567368,  -0.1122416257858,  -0.0293980408460,  -0.1916463077068,   0.1760566830635,  -0.2165829837322,   0.0905840545893,  -0.0584502182901,  -0.1564214378595,  -0.0632899701595,  -0.2269929349422,   0.1568811684847,  -0.0249682459980,  -0.2154255062342,   0.0166502892971,  -0.1318738460541,  -0.2312260270119,   0.0909221321344,   0.0792028829455,  -0.0725948363543,   0.0805815905333,   0.0445909947157,   0.0468728728592,   0.1041970700026,  -0.1328240036964,  -0.1958968490362,  -0.1711012274027,   0.1770819574594,  -0.0720008313656,  -0.0901320427656,  -0.0301949288696,  -0.1287583112717,  -0.0039020085242,   0.1531402915716,  -0.0138189988211,  -0.0989149659872,   0.0723122060299,   0.1581639796495,   0.1792872548103,  -0.0979093238711,  -0.1812639534473,  -0.1179624199867,   0.2356165349483,  -0.0410903729498,  -0.0686159431934,  -0.2812132239342,   0.0373361520469,   0.2943360209465,   0.1397539526224,   0.1919877976179,  -0.0707545652986,   0.0189121030271,   0.1393413841724,   0.0889940932393,  -0.0584110729396,   0.1222900822759,  -0.0153729720041,   0.0031971365679,  -0.0317004658282,  -0.1212129890919,  -0.0831980332732,   0.0519082024693,   0.0550825856626,  -0.1315966695547,   0.2292464375496,   0.0500252097845,   0.0086502116174},
   {  -0.0702271461487,   0.1638325005770,  -0.0120664546266,   0.0746041238308,   0.1179766058922,  -0.0508142411709,   0.0656873583794,  -0.0965311750770,  -0.2603930234909,  -0.0880828648806,  -0.1394317597151,   0.1439593881369,   0.2303528338671,   0.0901418998837,   0.1384752690792,  -0.2441041171551,   0.1920428276062,   0.0845736414194,  -0.0441777184606,   0.1911357045174,   0.1531711518764,   0.0241515375674,   0.1616058051586,   0.0180522948503,  -0.0287940185517,  -0.0480208769441,   0.0282426401973,   0.1205971166492,  -0.0203026831150,   0.0030637623277,  -0.2703460454941,  -0.2201528251171,  -0.1866882741451,  -0.0058887735941,  -0.0051369159482,  -0.1702526360750,  -0.2726927101612,   0.1533710062504,  -0.1400601863861,   0.1307076066732,  -0.2214545458555,  -0.1378126293421,  -0.0099445702508,  -0.1803999841213,  -0.0766128152609,   0.1317759305239,  -0.0510238967836,  -0.1060314029455,   0.1047365590930,   0.1426032036543,   0.1546711027622,  -0.0625804588199,   0.0753032714128,  -0.0447851829231,  -0.0041278703138,   0.0100831529126,   0.0561598986387,   0.0318660363555,  -0.1525963842869,   0.0061237886548,  -0.0356439836323,   0.1863901168108,  -0.1101293414831,  -0.2584511935711,   0.1083353608847,   0.2441526353359,  -0.0254041552544,  -0.0760089382529,   0.1793710440397,   0.0344409830868,  -0.0102886734530,   0.0395466983318,   0.1120284944773,  -0.0966110005975,  -0.0538190715015,   0.0645532980561,   0.1142551451921,   0.0994386747479,   0.0826879143715,  -0.2507956624031,  -0.2360956370831,  -0.2603229582310,   0.1909288614988,   0.0437519811094,   0.0338061004877,   0.0581794492900,   0.1458324640989,   0.2101691812277,  -0.1750631928444,  -0.0777328610420,   0.2611260712147,   0.2074508368969,   0.1100246086717,  -0.0140016702935,   0.1824755668640,   0.0260347928852,  -0.1540874689817,   0.1034855246544,  -0.1964675188065,  -0.1939484477043,   0.0393798239529,  -0.0844156518579,  -0.2897336184978,   0.0091953864321,   0.1653345525265,  -0.4304539561272,   0.0567540526390,  -0.0834349468350,   0.0881425663829,  -0.4077659249306,   0.2640202641487,  -0.1652073711157,  -0.0746165513992,  -0.1736874729395,   0.1609315872192,  -0.0115793226287,   0.0536316707730,  -0.0670353621244,   0.1709634810686,  -0.2168595939875,   0.0239860694855,   0.0017553744838,   0.1200453266501,  -0.2203246206045,  -0.1447353810072,   0.0459762141109,  -0.0418588183820,   0.1731478571892},
   {   0.1814498305321,  -0.0930161103606,   0.0713738426566,   0.0014195697149,   0.0637959763408,   0.0441900081933,  -0.1644464135170,  -0.1661034077406,   0.2434356659651,  -0.2248011231422,   0.1507741361856,  -0.1497389376163,  -0.0240035951138,  -0.0788471102715,   0.0158980153501,   0.1894143372774,  -0.0167206134647,   0.0376362502575,   0.0877116173506,   0.0381180718541,   0.1320811212063,   0.0396965295076,   0.0740131586790,  -0.0066965203732,  -0.2335324436426,   0.0616247542202,  -0.1250982135534,  -0.0686717107892,   0.0796174034476,   0.1022437438369,   0.1567981094122,  -0.0498328283429,  -0.2251820564270,  -0.0058520967141,  -0.1228817626834,   0.0383506156504,   0.0768358483911,   0.2239312380552,   0.1983122378588,   0.0364276319742,   0.0582371875644,   0.1238751560450,   0.0835693031549,   0.1747686266899,   0.0014694182901,   0.1374101042747,   0.0545045994222,  -0.0069184247404,  -0.0934135317802,  -0.1657722443342,   0.1226005256176,  -0.0586417242885,   0.0473657734692,   0.2037403583527,   0.0415283255279,  -0.2646468877792,  -0.0080559169874,  -0.0696409866214,  -0.1120420470834,  -0.1967027187347,   0.1296096593142,   0.0598984658718,   0.0437540337443,   0.0390153937042,  -0.1352699995041,   0.1252527236938,  -0.0333648733795,  -0.0107656205073,  -0.0272361356765,  -0.0481228865683,  -0.1884435415268,   0.1560275703669,   0.1499364674091,   0.0225236080587,   0.2117583006620,  -0.1171866208315,  -0.2079576104879,   0.2127418369055,  -0.2441585659981,  -0.0576042979956,   0.1657971739769,   0.1695208549500,  -0.0843875780702,  -0.3713957965374,   0.2140657901764,  -0.2005247175694,  -0.1934200972319,   0.1538688838482,   0.0292051862925,  -0.2190618962049,   0.1339195519686,  -0.3266144692898,   0.0068491995335,  -0.0306225288659,  -0.0846568718553,   0.0852726697922,  -0.1732209622860,  -0.1521342843771,  -0.0914387777448,  -0.2042662352324,  -0.0784602984786,  -0.0626245364547,   0.0522660836577,  -0.1704649031162,  -0.0422811470926,   0.0515364184976,   0.1612948477268,   0.1412080079317,   0.0749673545361,   0.0802969634533,  -0.1566741168499,   0.1160303279757,   0.0753839090466,  -0.1922608017921,  -0.0379929877818,  -0.0867528617382,  -0.0709512159228,  -0.1378818750381,   0.0225926619023,   0.0009801900014,  -0.0038575637154,  -0.2393583059311,   0.1932933628559,  -0.0227041766047,  -0.1262364387512,   0.0884261727333,   0.2132881730795,   0.1069812029600},
   {   0.0395174473524,  -0.1267025172710,   0.1651082783937,   0.1917580962181,   0.0839049965143,   0.0434230491519,  -0.1352789849043,   0.1942773759365,   0.1936238855124,   0.1292307376862,  -0.1220522224903,   0.2163807153702,   0.1396169960499,   0.1923249661922,   0.1183344572783,   0.1184121370316,   0.1690814793110,   0.0071903928183,  -0.2333906888962,   0.1011819988489,  -0.0848061740398,  -0.0634345412254,  -0.0139163918793,   0.0378313660622,  -0.2216286510229,   0.0528597533703,   0.0356014259160,  -0.1820234060287,   0.0458241216838,   0.1948411762714,   0.1350837349892,  -0.0070430873893,   0.0045319302008,   0.0890887156129,   0.1748782843351,  -0.1137452572584,  -0.0614359378815,  -0.1720251888037,   0.1460761427879,  -0.2549717724323,   0.1794681400061,   0.1699295639992,  -0.0476979054511,  -0.0796943455935,  -0.0386334657669,   0.1540113985538,  -0.0373568311334,  -0.0700800046325,  -0.0069724647328,   0.0448993071914,   0.1599100083113,  -0.0580601170659,   0.0862831771374,  -0.1063505858183,   0.1501025706530,  -0.0859965160489,  -0.1958276629448,  -0.1954438984394,   0.0298073850572,  -0.0687253847718,  -0.0104918675497,   0.1819264590740,   0.0867345407605,  -0.1520098447800,  -0.0911189913750,  -0.4320686459541,   0.1636243164539,   0.0827330797911,  -0.1399330645800,  -0.3465903997421,   0.1206477358937,   0.0073031382635,  -0.0490875579417,  -0.0312119200826,  -0.0682621300220,   0.1972987055779,  -0.2596853673458,   0.1376196295023,  -0.0140112955123,   0.1504768878222,  -0.4950138628483,   0.0926631018519,   0.0208144150674,   0.0190763939172,   0.1052944138646,   0.0360780432820,   0.0525032617152,   0.0390622727573,   0.1738279759884,  -0.0832873582840,  -0.0167974382639,   0.1181612536311,   0.0419655479491,   0.2226732224226,  -0.2965740561485,  -0.0466625541449,  -0.1437169313431,  -0.0633780285716,   0.0784380435944,  -0.2353640794754,   0.1572141498327,   0.1703308671713,  -0.2630161941051,  -0.1939358711243,  -0.1600531786680,  -0.1456445306540,   0.0229448452592,   0.0342314392328,   0.1705866754055,  -0.0503514409065,  -0.0547408536077,   0.1404196918011,   0.1224953457713,   0.1065860539675,  -0.1841386705637,  -0.0969006121159,  -0.1098382845521,   0.0205633286387,   0.0807517245412,   0.2210902571678,   0.0541948080063,   0.1293055266142,   0.1027753800154,  -0.1564707756042,   0.1690025329590,   0.1400835365057,   0.0875980705023,  -0.1693337857723},
   {   0.0833796709776,  -0.0406683757901,   0.1810170412064,   0.2393909990788,  -0.0136923510581,   0.2115934789181,   0.1865669786930,  -0.1317686587572,  -0.2090266942978,  -0.2015583366156,  -0.0579373985529,  -0.2131150662899,  -0.0494261607528,  -0.0279313474894,  -0.0087109543383,   0.2204658985138,  -0.2046594023705,   0.0857445076108,  -0.2301516830921,  -0.2213857173920,  -0.0633076652884,   0.0538347288966,  -0.1173691377044,  -0.1673548519611,  -0.0291879177094,   0.1743906736374,   0.0214445590973,  -0.1339459121227,  -0.1551343351603,  -0.0108446488157,  -0.0918445363641,   0.0484150946140,  -0.0419810190797,  -0.0182783119380,   0.0936685800552,  -0.0713320672512,   0.1471416354179,   0.1254102736712,   0.0474597364664,   0.1203811317682,  -0.1981707960367,   0.1233312115073,  -0.0181182324886,   0.2099977582693,   0.2172331809998,  -0.1967055499554,  -0.0536715015769,  -0.2215141654015,  -0.1902225017548,   0.0168322585523,   0.0738389715552,   0.0942084863782,   0.0148998657241,   0.1024626195431,  -0.0912847742438,   0.1095836237073,  -0.0986525565386,   0.0460350066423,  -0.0487657189369,   0.0892242267728,   0.0135020231828,  -0.2185399234295,   0.0087337279692,  -0.0890008285642,  -0.0688974112272,  -0.0837435051799,   0.1888149976730,  -0.1888971030712,  -0.0365000404418,  -0.0127016911283,   0.1143200621009,  -0.0423380509019,  -0.1915705651045,  -0.3752388060093,   0.0109825469553,  -0.0645926892757,   0.0955008938909,   0.2157314866781,  -0.1430067867041,   0.0552470274270,   0.1751174181700,  -0.2647654116154,  -0.1761687695980,  -0.0652284771204,   0.1353320330381,  -0.2619516849518,   0.0800618082285,  -0.0548756457865,  -0.0121950330213,   0.1032885909081,   0.0293322466314,  -0.2482556104660,  -0.0834582597017,   0.2473457455635,   0.1819372028112,  -0.1444998383522,   0.0517113618553,  -0.1227667555213,   0.1178379431367,  -0.0508922785521,  -0.0955670773983,   0.0049811434001,   0.0793677717447,   0.0125605883077,   0.0606869570911,  -0.1442052721977,  -0.1130010560155,  -0.0716764181852,   0.1207863464952,   0.0531913787127,   0.0490975603461,   0.1517979651690,  -0.1092147007585,  -0.1678494364023,   0.1661467105150,  -0.0076549053192,   0.0754093900323,  -0.0734549313784,  -0.0011816887418,   0.0439539775252,  -0.2422350198030,   0.0024190922268,   0.2017772495747,  -0.0271840244532,  -0.2093147188425,   0.0430011153221,   0.1768639832735,  -0.0490451566875},
   {  -0.0517819002271,  -0.0708294659853,  -0.0022714999504,   0.1116916313767,  -0.3055594563484,  -0.0186744388193,   0.0915024653077,   0.1368219107389,   0.1284830123186,  -0.1272094398737,  -0.1758085787296,   0.2329326719046,  -0.1962948292494,   0.0384447090328,  -0.1484681963921,   0.0167472679168,   0.1810253113508,   0.0610764995217,   0.0765388682485,  -0.0062429802492,  -0.0641648396850,   0.1095101460814,  -0.1071106567979,  -0.0515862628818,   0.1829096525908,   0.0703266486526,   0.0597234964371,  -0.1369976699352,   0.0017020362429,   0.1312927901745,   0.1846172809601,  -0.1838525682688,  -0.0134904710576,  -0.0255443844944,  -0.1188128963113,   0.1635188460350,  -0.0119923455641,   0.1141912043095,   0.2437908798456,  -0.0264943912625,   0.2233949750662,  -0.3112939596176,  -0.3743332624435,   0.1996012777090,   0.0038391160779,   0.0141516579315,   0.2493793517351,   0.0538149215281,   0.0464882031083,  -0.0595351867378,   0.1212190985680,  -0.0708159953356,   0.0088283736259,   0.2406472563744,  -0.0065323160961,   0.2714133262634,   0.0805067196488,  -0.0450488664210,   0.0045744101517,   0.1578301489353,  -0.1269058287144,   0.1836498528719,  -0.0855283662677,  -0.0074041038752,  -0.1760493814945,   0.0130653772503,  -0.1219988688827,  -0.0666021183133,   0.1060906201601,  -0.2232816666365,   0.0851295739412,   0.1675074398518,  -0.1266547441483,   0.0701956301928,   0.0031766134780,   0.1013530492783,  -0.0489081293344,   0.1358007639647,  -0.1102185100317,   0.1655578315258,  -0.0632632747293,   0.2280742079020,   0.2038219422102,   0.1921634376049,  -0.0849384143949,   0.0641028061509,   0.1974539756775,   0.0817559510469,  -0.3662328720093,  -0.0232617128640,  -0.0089335506782,   0.1167760044336,  -0.0091110197827,   0.0652201771736,   0.0194174237549,  -0.1108610406518,   0.0032337673474,   0.1845787316561,   0.0598522536457,  -0.3402500748634,   0.0834874510765,  -0.0174783971161,   0.0372127294540,  -0.0534459352493,   0.2768690288067,  -0.1846211850643,   0.0567981451750,   0.0081460932270,  -0.1038401126862,   0.0559182278812,  -0.1071656644344,  -0.1616634726524,   0.0603879354894,   0.0970599427819,  -0.1843406260014,   0.0038767843507,   0.0734207704663,  -0.0385481528938,   0.2084645479918,   0.0416441932321,   0.1953450590372,   0.0915124341846,  -0.1382301002741,  -0.0296486169100,  -0.0611891224980,   0.0679104775190,  -0.4434936046600,  -0.1459727585316},
   {  -0.0817834958434,   0.0812516286969,  -0.0628057047725,  -0.2039368450642,   0.1394389122725,   0.1890263706446,   0.2512455880642,   0.1374652087688,  -0.0272251386195,   0.0162774492055,  -0.0398883745074,   0.0686039403081,  -0.0403350144625,   0.0267738793045,   0.1815103143454,   0.0663796514273,  -0.2504826784134,   0.2524548172951,  -0.1317115426064,  -0.0563315935433,  -0.2066512852907,  -0.0236374847591,  -0.1314639151096,  -0.0829939022660,  -0.0935914218426,   0.1250236928463,   0.1447412818670,   0.2070085406303,   0.0243502426893,   0.0846051424742,  -0.2234169542789,   0.0541321560740,  -0.0077642155811,   0.0375561788678,   0.1649007797241,  -0.1603545099497,   0.1829568445683,   0.1312739402056,  -0.2000113874674,  -0.0230311695486,   0.0315596796572,  -0.0121137779206,  -0.1278681010008,   0.1195058748126,  -0.0472796075046,  -0.0454815179110,   0.1652851998806,   0.2203614413738,  -0.0388803221285,  -0.0696324184537,   0.1164688989520,  -0.0367784425616,  -0.0508918836713,   0.1384275853634,   0.0864445343614,  -0.4137515723705,   0.1650839298964,   0.0173318441957,  -0.1087311208248,  -0.1761763244867,   0.1113361641765,   0.1593407243490,   0.0643350780010,   0.0338794663548,   0.0692346170545,  -0.1346234530210,  -0.1451575309038,   0.1504898816347,  -0.0260120108724,  -0.0260166898370,  -0.2514314651489,   0.0237226299942,  -0.0553592219949,   0.0879962742329,   0.1978056281805,   0.0578556023538,  -0.0693379640579,  -0.0719418525696,   0.0054676090367,  -0.1312071681023,   0.0969043672085,   0.2679479420185,  -0.1143526658416,   0.1922663301229,  -0.0604798570275,  -0.1657565236092,   0.1338700056076,   0.0490860454738,  -0.1422762870789,   0.0616012252867,   0.0193635541946,   0.0459273830056,  -0.1487957984209,  -0.1368315815926,   0.1605593562126,   0.0134172979742,   0.1383623629808,   0.0681017264724,   0.1242165118456,   0.1769994348288,  -0.1302542686462,   0.0030555138364,   0.2136771678925,   0.0073096919805,  -0.2270384579897,  -0.0495888143778,   0.1199446395040,  -0.1588760316372,  -0.0378230325878,   0.0948894843459,  -0.0239568203688,   0.0977435857058,  -0.0288071669638,   0.0804901197553,  -0.0800491869450,   0.2040861696005,  -0.0212434697896,   0.0084135876969,   0.0462443977594,   0.0254625715315,   0.0744788721204,  -0.1950452774763,  -0.0754235684872,  -0.0268774125725,   0.1436505615711,   0.2832566201687,   0.1596054136753,  -0.0474758930504},
   {  -0.1368106752634,  -0.0358571335673,   0.1503428220749,   0.1184972450137,   0.0245887748897,  -0.0159595161676,   0.1138709560037,  -0.0467849858105,  -0.0977232530713,  -0.1229696273804,   0.1698941588402,   0.0693776160479,   0.0044912928715,   0.0442349389195,  -0.1041759997606,   0.0995207950473,   0.0057777618058,   0.1215735375881,   0.1106028109789,   0.2098852843046,  -0.1585157066584,   0.0210150256753,  -0.1544019132853,   0.0215776134282,  -0.0360054224730,   0.1106981635094,  -0.0160274654627,   0.1094332709908,   0.0075667058118,   0.0419936217368,   0.0990275889635,  -0.1488347798586,  -0.0701598301530,  -0.1601958870888,   0.0589716956019,  -0.0059342617169,  -0.2234711050987,   0.1747234314680,  -0.0258740093559,  -0.0463366806507,  -0.0371586754918,   0.0842041596770,  -0.1031893119216,   0.0447197854519,  -0.0169655382633,   0.1731896698475,  -0.1186807975173,   0.0136204799637,  -0.0489584617317,   0.3974147737026,   0.0834792405367,  -0.0486213229597,  -0.0280375834554,  -0.1199240386486,   0.0358948744833,  -0.1334138512611,   0.1839988380671,  -0.0308497566730,   0.0611526779830,  -0.0515556335449,  -0.0954706594348,   0.0221927855164,  -0.1633618772030,  -0.0752823799849,   0.1841215044260,   0.0841634795070,  -0.1347448080778,  -0.0044387667440,   0.2271528393030,  -0.0139360269532,   0.0987378060818,   0.0597726479173,  -0.1599092483521,  -0.0250219404697,   0.0902465358377,  -0.1956423819065,  -0.1059625074267,  -0.0041636289097,  -0.1677106022835,   0.0710426121950,  -0.0676484182477,  -0.0386947989464,   0.1719956248999,   0.0514566749334,  -0.2879899740219,   0.0573657862842,   0.0333374589682,   0.1142498478293,  -0.0247711483389,  -0.0350610278547,   0.0267392583191,   0.0877261832356,  -0.1295440644026,  -0.1564442217350,  -0.1409573853016,   0.0169376172125,   0.1235408782959,  -0.2049063742161,  -0.0660164356232,   0.0089963879436,   0.0740769132972,  -0.0409682542086,   0.0835187509656,  -0.0674842521548,   0.1459245979786,  -0.1303576380014,   0.1098629683256,  -0.1064814031124,   0.1053945943713,   0.0762427896261,  -0.1146243289113,  -0.1742281317711,   0.1695289611816,  -0.2216685265303,  -0.0001433501020,  -0.2367075681686,  -0.0992840677500,   0.1054832488298,   0.0647638514638,   0.1327762007713,  -0.1034230366349,  -0.1885066330433,  -0.0974477827549,   0.2472384721041,   0.1159838736057,  -0.0611315555871,  -0.1766518056393,  -0.0240749698132},
   {  -0.0172577518970,  -0.0895866006613,  -0.0885357186198,   0.0660835057497,   0.1191214472055,   0.0371146164834,   0.0879705175757,  -0.2233334183693,  -0.1317065358162,   0.1866093426943,   0.0958167463541,  -0.0492009669542,   0.3065974414349,  -0.0436182841659,  -0.0041750380769,   0.2203461527824,   0.0081284185871,   0.0000092612918,  -0.1510328650475,   0.1511777043343,  -0.1010886579752,   0.0817764699459,   0.0168940778822,   0.0180404074490,  -0.0300355963409,   0.0745487809181,  -0.0581494569778,  -0.0359622351825,  -0.0920379161835,  -0.2284692227840,   0.0927417799830,  -0.0931199193001,  -0.0843415707350,  -0.0061598289758,  -0.0051996745169,  -0.0513685531914,   0.1117817163467,  -0.0080491891131,  -0.0458770692348,   0.0758849531412,   0.1900985240936,  -0.1480395048857,  -0.0306672453880,  -0.0298929307610,  -0.2145082950592,  -0.1537549644709,  -0.3812272548676,   0.0307816192508,  -0.1076002791524,  -0.1177503615618,  -0.2163998633623,  -0.0029848481063,   0.3272170126438,  -0.0202551838011,  -0.2091098725796,   0.0570949539542,  -0.1749166250229,  -0.2305849492550,   0.0528097078204,   0.0704104304314,   0.0647510811687,   0.1321603357792,   0.1599864512682,   0.1935857236385,  -0.0713184177876,   0.1226110830903,  -0.0766504108906,   0.0756800994277,  -0.2042168378830,   0.0058630169369,   0.1645394265652,   0.0020333272405,  -0.0986528471112,   0.0093410089612,   0.1559684574604,   0.2639876604080,   0.0075730979443,   0.0532790236175,  -0.0968808010221,  -0.0287584792823,   0.0061952006072,   0.0190285518765,   0.0656750947237,   0.0704238042235,  -0.1739769726992,   0.1168683543801,  -0.1370964199305,  -0.1794372200966,   0.0438117012382,  -0.2041663378477,   0.1391471475363,  -0.0216417685151,  -0.0970851927996,   0.1727182865143,  -0.0860704109073,   0.1559527069330,   0.0927764922380,   0.0291473940015,   0.1543570309877,   0.0696245133877,  -0.3044497966766,   0.0156805906445,   0.1209117323160,  -0.1151930093765,   0.2121705710888,   0.1143074929714,   0.2565617859364,  -0.0197741724551,  -0.1425915062428,  -0.1999306529760,  -0.0693831369281,   0.1958891600370,   0.0265227053314,  -0.2618610858917,  -0.1309278905392,  -0.1155936941504,  -0.0485302805901,   0.0189521461725,   0.0476957708597,  -0.0192984379828,   0.1550069600344,   0.0911147445440,   0.1304163932800,   0.0913273468614,  -0.1077797338367,   0.0849963873625,  -0.0017579793930,   0.0966309830546}};
  const float bias_0[128] = {   0.1885648667812,   0.1776275485754,   0.0259919762611,   0.1396713554859,   0.1975501179695,   0.0505942516029,   0.0768045559525,   0.0524803400040,   0.1760833859444,   0.0426397174597,   0.0872541218996,   0.0478147491813,   0.0464178137481,  -0.0494874715805,   0.2173598557711,   0.0695876330137,   0.1444170773029,   0.0265379585326,  -0.0037730345502,   0.0205931756645,  -0.0173528287560,  -0.0053017088212,   0.0267303418368,   0.1201558858156,   0.0616139173508,   0.0587152540684,  -0.1504743248224,   0.0324467457831,   0.0784655511379,   0.0328368917108,   0.0112851681188,   0.0033729188144,   0.0372553206980,   0.1216467320919,   0.2553125619888,  -0.0076629607938,  -0.0031502507627,   0.0324046909809,   0.0499728322029,   0.0186739377677,   0.0503654927015,   0.0056126010604,  -0.0917218327522,   0.0354192368686,  -0.0076931188814,  -0.0289247706532,  -0.0935245752335,   0.1436789184809,   0.0512775182724,  -0.0349187776446,   0.0227527040988,   0.3366450071335,  -0.0065379780717,   0.2223540395498,  -0.0065819867887,   0.1681454330683,   0.0348518379033,   0.0734843164682,   0.0859459117055,   0.0300659351051,   0.0043195178732,   0.0012696500635,   0.0752977505326,   0.0972113683820,   0.1849983334541,   0.3470984101295,   0.0688020065427,   0.0006973900599,  -0.0128080705181,   0.0277497675270,   0.0720232129097,   0.0488237291574,   0.0279044248164,  -0.0383169390261,   0.0155495991930,  -0.0342792235315,   0.0334728471935,   0.0477884262800,  -0.0981826335192,   0.1413217633963,   0.0040887370706,   0.1426996290684,   0.0280338842422,   0.1970439702272,   0.1057296618819,  -0.0004312493547,   0.0165168233216,   0.0729518681765,  -0.0174816045910,   0.0154551295564,   0.0851658210158,  -0.0802393034101,   0.0194141287357,   0.1575268954039,   0.0122368894517,   0.3079892396927,   0.0453076809645,   0.0980163514614,  -0.0250815823674,  -0.0154761821032,   0.0556645207107,  -0.0517139136791,   0.1007386669517,  -0.0386921949685,   0.2278299033642,  -0.0686756446958,   0.0874848365784,  -0.0176001898944,   0.0966276153922,   0.0249733366072,   0.0913361012936,  -0.0030029492918,   0.1662893295288,  -0.0885830894113,  -0.0261932555586,   0.0804449170828,  -0.0975869968534,   0.1355336904526,   0.0743106231093,   0.1935370862484,   0.0894876867533,   0.0858487635851,  -0.0591076575220,   0.0663857907057,  -0.0055460436270,   0.0307956412435,   0.0754246562719,  -0.0032211707439};
  // Declare the arrays in the stack
  const float kernel_1[128][128] = 
  {{   0.0093945739791,   0.0932924225926,   0.2256389111280,  -0.0321256071329,   0.3198328614235,  -0.0652910619974,   0.1093331947923,  -0.1779293566942,   0.1617148965597,   0.0907797515392,  -0.1414179950953,   0.0761703848839,   0.0561387501657,  -0.1226438134909,   0.1957938522100,  -0.0457303784788,   0.2000675797462,   0.0747150480747,  -0.1639920324087,   0.1194561645389,  -0.0734855830669,  -0.2069934606552,  -0.1471858471632,  -0.2407042384148,  -0.0295264907181,  -0.1529002040625,  -0.0743070915341,   0.0832878947258,   0.2020075619221,  -0.0329684540629,  -0.2047290951014,  -0.4729701876640,   0.0269097927958,   0.0195519719273,   0.0383264161646,   0.2596834599972,   0.1587046831846,  -0.0065466193482,  -0.0534322895110,   0.0366526134312,  -0.0013635470532,  -0.2597370743752,  -0.0040951240808,   0.2263540923595,  -0.2094740569592,   0.0163150932640,   0.2361737489700,   0.1085060313344,  -0.0569924004376,   0.0690796598792,   0.1523381024599,  -0.1964126676321,  -0.2133361399174,  -0.0259659439325,  -0.0499048456550,   0.2058943957090,   0.2970342338085,  -0.0591159872711,  -0.0777167752385,   0.0034245166462,   0.1725850552320,   0.0492776967585,  -0.0043712123297,   0.0202818531543,  -0.3933979570866,   0.1567305922508,   0.1073266938329,   0.1049526855350,  -0.0759925469756,   0.4547548592091,  -0.1285189241171,   0.2824407815933,  -0.0007864193176,   0.2114074230194,   0.0823250263929,   0.1370070725679,  -0.1295640766621,   0.1769108772278,   0.1943057924509,   0.0268628597260,  -0.2020603120327,  -0.0733171552420,  -0.0284779947251,  -0.2316313832998,   0.1422020941973,   0.0499475039542,   0.0478601641953,   0.2680335938931,   0.1748649030924,  -0.0393083505332,   0.2431490719318,   0.3192593753338,   0.0942200720310,   0.1579343229532,  -0.1293128579855,  -0.0200072694570,  -0.1908366829157,  -0.1647347658873,   0.1899978220463,   0.0605399049819,   0.0190771277994,  -0.0476641096175,   0.2324678599834,  -0.0517428591847,   0.0252446960658,   0.0291499737650,   0.2470695525408,  -0.4595404863358,   0.0568334423006,  -0.1134142056108,  -0.2373818755150,   0.1486881077290,  -0.0235288441181,   0.0552988946438,   0.2294160127640,   0.0713852345943,  -0.0038899967913,   0.1146318539977,   0.2206638753414,  -0.1726721674204,  -0.1190875917673,   0.0979757383466,   0.2671281397343,  -0.0415723100305,   0.0873754099011,  -0.0072860685177,  -0.2551480531693,   0.0465720370412},
   {   0.0386939160526,   0.0092069767416,   0.0296247564256,  -0.0210580397397,   0.1385430544615,   0.0355398505926,   0.0573090314865,   0.1320572346449,  -0.0161351766437,   0.1006076708436,   0.0862120091915,  -0.0473895929754,  -0.1863787174225,   0.0930927619338,  -0.1059527173638,  -0.0478114411235,   0.1004717722535,   0.0224592536688,   0.0615044534206,  -0.0930471047759,   0.0478726439178,  -0.0223668273538,   0.0059767928906,   0.1531042009592,  -0.0617143288255,   0.0311383809894,  -0.1360308676958,   0.0442456789315,   0.1107395961881,   0.0833094418049,   0.0124984290451,   0.3332061469555,   0.0159803126007,  -0.2064940780401,  -0.0366291441023,  -0.0967599973083,   0.0683320909739,   0.0559874996543,   0.1345721483231,   0.1201458945870,  -0.1851864755154,   0.3103987574577,  -0.0717475935817,   0.0292617511004,  -0.0876244828105,  -0.1310418099165,   0.1923372596502,  -0.0095725869760,   0.0043826196343,  -0.1074823960662,  -0.0773866772652,  -0.0258470289409,   0.1380941122770,   0.0326486676931,   0.0457426160574,  -0.1546453684568,   0.0723429098725,   0.1152447015047,  -0.0241468604654,  -0.0285204052925,   0.1660667359829,   0.0667905658484,   0.0885705128312,  -0.0809986069798,  -0.0472310073674,   0.0477870106697,  -0.3197408020496,   0.2191086411476,   0.0602194443345,  -0.3219230473042,   0.0152574786916,  -0.0487188845873,   0.0583599172533,   0.0176049582660,   0.0705390498042,  -0.0149613199756,   0.0486107021570,   0.0857934802771,   0.0407784022391,   0.1181583181024,   0.0883472561836,  -0.1890120506287,   0.3023187518120,  -0.0763799846172,  -0.0538580007851,   0.0081941541284,   0.1091721802950,   0.1184885501862,   0.1262537539005,  -0.1199439466000,  -0.0883563309908,   0.0373386405408,   0.0238118674606,  -0.0548414811492,  -0.1321189403534,  -0.0898221731186,   0.1519200354815,  -0.1317514479160,  -0.0989646166563,   0.0917659029365,   0.1388136595488,   0.1269859075546,  -0.1748050004244,   0.0009633537848,  -0.0641456767917,  -0.0060214297846,  -0.1565920710564,   0.3481135368347,  -0.1328760534525,   0.0607556700706,   0.1472091376781,   0.1232293769717,   0.1871479898691,   0.0296897757798,  -0.0696485787630,  -0.0139456884935,   0.0979362502694,   0.0047076065093,  -0.0996401607990,  -0.0483944639564,   0.0447751805186,  -0.1179353967309,   0.1503680199385,  -0.0798639878631,  -0.0103871822357,  -0.1510281264782,   0.0439555309713,   0.1066897064447},
   {  -0.0690536126494,   0.0652978271246,  -0.1296010315418,  -0.0457203313708,   0.1446070671082,   0.2191377282143,  -0.1089859232306,  -0.0969539359212,  -0.0245279520750,   0.1017199233174,   0.1126726269722,  -0.1211098060012,   0.1064816042781,  -0.0133387567475,  -0.0405452474952,  -0.2897029817104,   0.1094947233796,  -0.0201804786921,   0.1412240862846,   0.1590647250414,   0.1093634366989,  -0.0574733875692,  -0.1211334764957,   0.0185836516321,   0.0478501841426,  -0.0316717401147,  -0.0933405160904,  -0.0710832104087,   0.0075224554166,  -0.1174419298768,   0.0650658831000,  -0.0079275937751,   0.0193713102490,  -0.0337395220995,   0.0681009888649,   0.1468821763992,   0.0787757262588,   0.1164471954107,   0.0593549720943,  -0.1326133310795,   0.1085052713752,   0.0886227339506,   0.0176403839141,   0.0555231086910,   0.0712171047926,  -0.0528172701597,  -0.1055473685265,   0.0642417222261,  -0.0523614361882,   0.0241629108787,   0.0314342342317,  -0.0731678456068,   0.0104179093614,   0.1143938899040,  -0.1742379665375,  -0.0463580600917,   0.0377328693867,   0.0941346883774,  -0.0771160647273,   0.0839404165745,  -0.0746592953801,  -0.0121397571638,  -0.1979604810476,   0.0468732491136,  -0.2376141250134,  -0.1105694398284,  -0.0320031791925,  -0.0889985859394,   0.0964503586292,   0.1086934506893,   0.0312337093055,   0.0463672913611,   0.1118536666036,  -0.1070977523923,  -0.0457103922963,  -0.0154407508671,   0.0505822300911,  -0.0705082118511,   0.0462684333324,   0.0732641816139,  -0.0889525115490,   0.0805373266339,  -0.1319998502731,  -0.1312207281590,   0.1760529130697,  -0.0783627182245,   0.0757984071970,   0.1532643437386,  -0.1776331812143,  -0.0115681681782,   0.0305376984179,   0.0708724930882,   0.0999268591404,  -0.0066683865152,  -0.2257527261972,   0.0869214534760,  -0.0683128610253,  -0.0845162793994,   0.0330802649260,  -0.1195244118571,  -0.0897879675031,   0.0006666852860,   0.1031211167574,  -0.0165784992278,   0.1482202112675,  -0.0640016943216,   0.0235617607832,   0.0309374518692,  -0.0260595157743,   0.0595092959702,   0.0240481439978,   0.0407482422888,  -0.0945735573769,  -0.1698681563139,   0.0470118522644,   0.1236507520080,  -0.0516490861773,   0.0834715291858,   0.0355624891818,  -0.1292751729488,  -0.0125283459201,   0.0970534533262,  -0.1560196578503,  -0.1520616710186,  -0.0545564368367,  -0.0410073585808,   0.0651809647679,  -0.0811784341931},
   {  -0.1173919290304,   0.1424395143986,   0.0447851158679,   0.0225819814950,   0.0182081125677,  -0.1045941188931,  -0.0479141287506,  -0.0368340648711,  -0.2374446392059,   0.0524832345545,   0.0866439864039,  -0.0763768106699,   0.0574652701616,   0.0892885252833,   0.1202636957169,  -0.1918123364449,   0.0202629975975,   0.1342143565416,  -0.0032828033436,   0.1273409575224,   0.0072495401837,  -0.1831331104040,   0.1568036973476,  -0.0574639812112,  -0.0018304962432,   0.2546977102757,   0.1379800289869,  -0.0208670850843,  -0.0385811142623,   0.0209771208465,   0.0283597093076,  -0.0237783156335,   0.1201539710164,   0.0491789355874,   0.0931299030781,   0.0264715533704,  -0.0238685384393,  -0.0352981090546,   0.0578270629048,   0.0032495916821,  -0.1041493341327,  -0.2180383056402,   0.0108188586310,  -0.0800301805139,   0.1310119628906,  -0.1383124589920,  -0.0198341067880,  -0.0917471423745,  -0.1000404208899,  -0.1246461346745,   0.0326415412128,  -0.0095293084159,  -0.0422710739076,  -0.1841862797737,  -0.0782642886043,   0.0822607129812,   0.0823273360729,  -0.1333383023739,   0.0655194967985,  -0.0309545602649,  -0.2211620807648,  -0.0446560196579,   0.0352397598326,   0.1113895848393,   0.3659891784191,  -0.0150842713192,   0.0795020014048,  -0.0516090020537,   0.0809850990772,   0.2792951762676,  -0.0241583231837,   0.1018248870969,  -0.0424708239734,   0.0567965582013,   0.1177199035883,   0.0265964604914,   0.1118147000670,  -0.0145670240745,   0.1088401824236,   0.1137798056006,   0.2157831341028,   0.0181055590510,   0.0999436900020,  -0.0229842048138,   0.0394019000232,  -0.2688590288162,   0.0642828196287,  -0.1132757812738,  -0.0523506812751,   0.0190968234092,  -0.0737791210413,   0.1372434198856,   0.0697973445058,  -0.0566587895155,  -0.1523559540510,   0.0991656780243,  -0.0364380814135,   0.1664352267981,   0.1523218303919,   0.1885442435741,   0.0683135837317,  -0.0034130332060,   0.0509529784322,   0.0147343222052,   0.0538412071764,   0.1802693754435,   0.0621934942901,  -0.0368486754596,   0.0749586969614,   0.1548802703619,  -0.1285088956356,  -0.0734952986240,   0.0131636243314,   0.0046329093166,   0.0684350505471,  -0.0223225317895,  -0.0521063879132,  -0.0661260783672,   0.0647192895412,  -0.1083697304130,   0.1018430367112,   0.1382306665182,  -0.0222486741841,   0.0551137216389,  -0.0220372993499,  -0.0356051363051,   0.0727797672153,  -0.1165386065841},
   {   0.1338458508253,   0.1385874450207,   0.0777860805392,   0.0166939552873,   0.1583397984505,   0.1508488953114,  -0.1240964084864,  -0.2547928392887,   0.0420569926500,  -0.0324647687376,  -0.0332390926778,   0.0733614116907,   0.0119065074250,   0.1851788908243,   0.1881199777126,  -0.0717615038157,  -0.0554539300501,   0.0613704174757,   0.2028674185276,   0.0456138215959,   0.0330220982432,  -0.0169001016766,   0.0572567284107,   0.0682302489877,  -0.0022586183622,   0.1583448946476,  -0.0239409506321,  -0.3011174798012,   0.0825500115752,   0.0997602641582,   0.0935208424926,   0.0416080169380,  -0.1381211280823,  -0.1244774758816,  -0.1098435968161,   0.2683019340038,  -0.4422480463982,   0.0128113711253,  -0.1451225727797,  -0.2811922729015,   0.1882553547621,   0.0322168171406,   0.0472345426679,   0.0457142889500,   0.1525928974152,  -0.0362834632397,  -0.2175467908382,   0.0028113564476,   0.0600939132273,  -0.0804848149419,   0.1430514007807,  -0.1029225215316,  -0.3581553399563,   0.0908296033740,   0.0283827576786,   0.0247630178928,   0.2163471281528,   0.0595108792186,   0.0528293810785,   0.1867733299732,   0.1899706572294,   0.1918936073780,   0.0933802798390,   0.0067495764233,   0.3173884451389,  -0.0216226689517,   0.1131538897753,  -0.0304375998676,  -0.0119537925348,  -0.2147313356400,  -0.0495574325323,  -0.0454204753041,   0.0616285204887,  -0.0925474837422,  -0.0907477959991,  -0.2202475517988,   0.1239311099052,  -0.2558688521385,   0.0990402102470,  -0.0527370832860,   0.4018664062023,   0.0065279561095,  -0.2608272433281,   0.1456290185452,  -0.0385642684996,   0.1001531258225,   0.1838222146034,   0.0086018554866,  -0.0368602760136,  -0.1749118268490,  -0.0668054670095,   0.2134391516447,   0.0826675742865,   0.1472304761410,   0.1869207322598,   0.0220504850149,   0.1699137091637,   0.0286001265049,   0.3711952567101,   0.2088358998299,  -0.0313674844801,   0.0506003089249,   0.1433168500662,  -0.3183144032955,  -0.2018201500177,   0.1036244779825,   0.2697245180607,  -0.2091542780399,   0.0354128479958,  -0.1602963805199,  -0.0948582589626,  -0.0075604300946,   0.1169656515121,  -0.1434874534607,   0.0556768923998,  -0.0423311553895,   0.3006358444691,   0.0179445501417,   0.1551876217127,  -0.0378098972142,   0.2477512657642,  -0.0532988309860,  -0.0601751394570,   0.0843970403075,  -0.0745266973972,   0.0398354493082,  -0.1190034821630,   0.0411396287382},
   {  -0.0475679263473,  -0.1911136358976,   0.0712894722819,   0.1791056990623,   0.0629015788436,  -0.3873727321625,   0.1489309817553,   0.1625198870897,  -0.1299765259027,  -0.0536952801049,  -0.1303871572018,  -0.3190517425537,  -0.1043624132872,  -0.0360324643552,  -0.0878777056932,   0.0295722279698,   0.2069761753082,   0.0641279891133,   0.0375956594944,  -0.0697362795472,   0.1890375018120,   0.1041803359985,   0.0972594767809,   0.0412307046354,   0.0201896503568,  -0.0739029347897,   0.1483480334282,  -0.2182153612375,  -0.0126317795366,  -0.0248107928783,   0.1542803049088,  -0.0916797369719,   0.0282011404634,  -0.1194956824183,  -0.0643584355712,  -0.0648273453116,   0.0455853343010,  -0.1808847337961,   0.2552163898945,  -0.0967768281698,  -0.0562110394239,  -0.0439996905625,  -0.2164134830236,   0.0706074833870,   0.0101052233949,  -0.0265503060073,  -0.2145579606295,   0.0374939739704,   0.1782305836678,  -0.1527154445648,   0.0352256819606,   0.1554449200630,  -0.2254635095596,   0.0327013656497,  -0.0128085678443,   0.0985363796353,   0.0575351268053,   0.0150850974023,  -0.0769302248955,  -0.0643906891346,   0.0504480116069,   0.1331294178963,  -0.0413065031171,   0.0995988547802,   0.0052632354200,   0.0420918837190,   0.0502819530666,  -0.0853207036853,  -0.0157647579908,  -0.2603456676006,   0.1664120405912,  -0.0571583397686,   0.0437640175223,  -0.2371744513512,  -0.0389638692141,   0.3096017837524,   0.1585790216923,  -0.1566229611635,  -0.1545666605234,   0.1800161004066,   0.2014380991459,   0.1459053009748,   0.1576981544495,   0.1120188161731,  -0.0809024423361,  -0.2268680781126,  -0.0059053762816,  -0.3309165239334,   0.0795033201575,  -0.0056846882217,   0.1950090825558,  -0.2663633227348,  -0.1727775782347,   0.1137218996882,   0.1225990131497,  -0.1224106699228,   0.0191825944930,   0.1498249322176,  -0.3436003029346,  -0.0890909209847,  -0.2185810655355,  -0.1651516556740,  -0.0221280120313,   0.0295670814812,   0.2815148532391,  -0.1160839647055,  -0.0246959682554,   0.1710393130779,   0.0752022117376,   0.0515425093472,   0.2407777309418,  -0.1488102972507,  -0.0833878219128,  -0.1449304074049,  -0.1004126220942,   0.3728190660477,  -0.1938081085682,   0.1744346171618,  -0.0780935287476,  -0.0034660841338,  -0.0276568923146,  -0.0448485985398,  -0.0342493839562,  -0.0923055410385,  -0.0794206187129,   0.0393832474947,   0.0123721696436,   0.0347545370460},
   {   0.1716780811548,  -0.0405539646745,  -0.0285995081067,  -0.0471749752760,   0.1133036389947,   0.1127826422453,   0.0770376920700,  -0.0889423415065,  -0.1715797632933,   0.0813596323133,   0.0998710840940,  -0.1655381023884,  -0.0331570021808,   0.1592274010181,  -0.0859652236104,   0.0396507084370,  -0.0893773660064,   0.0438394099474,   0.0816802456975,  -0.1976587921381,  -0.5306621789932,   0.2642157375813,   0.1560978591442,   0.0660532191396,   0.0570441894233,   0.1199632659554,   0.1039420515299,   0.1759192347527,   0.1586129516363,   0.0799915492535,  -0.0665902718902,  -0.1157693788409,   0.1002299487591,  -0.1280133128166,   0.0508373789489,  -0.0621377862990,  -0.0027085603215,   0.1395390629768,  -0.0207386016846,   0.1945434808731,   0.0355870276690,   0.1236248314381,  -0.0600033961236,   0.1755305677652,  -0.0792076513171,  -0.1632450222969,   0.0157200954854,   0.4067085087299,  -0.3492699563503,   0.1184616908431,  -0.1735959649086,   0.1047490313649,   0.1461170315742,   0.4143273234367,  -0.0411515757442,  -0.0077101783827,   0.1827159225941,   0.1100997850299,   0.0095052896068,   0.1451265364885,   0.2537725567818,  -0.1070198044181,   0.0821142569184,   0.1757524609566,   0.0846431851387,   0.0598179809749,  -0.0714568197727,   0.0495797470212,   0.1219511553645,  -0.0339308790863,   0.0160679835826,  -0.1704558581114,  -0.0521756559610,   0.1093021631241,   0.2208840250969,   0.0266753714532,   0.0440273247659,   0.0289977956563,   0.0527142509818,  -0.1074521467090,   0.1328722238541,  -0.0531833805144,   0.0745386779308,   0.0800157561898,   0.0328207276762,   0.3612259626389,  -0.0283679887652,   0.1628030389547,   0.0365483574569,   0.1740146577358,  -0.0440391674638,   0.1130207255483,   0.2168536335230,  -0.0050446544774,   0.1595275104046,   0.2698418200016,   0.0918542519212,  -0.0415122248232,   0.0085015734658,   0.3250214159489,  -0.3985138535500,  -0.0491839051247,   0.1106487363577,   0.1196512207389,  -0.1015033125877,  -0.0402582697570,   0.1261684298515,  -0.0700823962688,   0.0762245655060,  -0.0683867335320,  -0.1311522275209,  -0.0894303247333,   0.0596816800535,   0.2983476519585,   0.0155375264585,  -0.0328078903258,   0.1662257164717,   0.1870166361332,   0.2679567039013,   0.1639828532934,  -0.0937462821603,   0.0347596406937,   0.0615058653057,  -0.4229462444782,  -0.0392330959439,  -0.0848140791059,   0.0654200986028,   0.0545382983983},
   {  -0.1887649446726,   0.0332557410002,   0.0622033514082,  -0.1075303554535,   0.1256205588579,   0.0073734591715,   0.1183374449611,   0.0063735805452,   0.0475661158562,   0.1299369633198,  -0.0318597070873,  -0.0856753885746,  -0.0809837058187,  -0.0182925686240,  -0.1272729039192,  -0.0869529023767,   0.1513752043247,   0.0186258703470,   0.0372288860381,  -0.1175533756614,  -0.0836976915598,   0.0695946365595,  -0.1009979322553,  -0.0127813443542,  -0.0912013202906,  -0.2366257607937,   0.0345948599279,   0.1783997714520,  -0.0093987956643,  -0.0947230309248,   0.0625534504652,   0.0251111611724,   0.0514986328781,  -0.0679014027119,  -0.0190341379493,  -0.0277349613607,   0.0916938856244,  -0.0184405706823,  -0.0300520863384,   0.1401968747377,  -0.1501109451056,   0.0072065708227,  -0.0985916554928,   0.1125111952424,  -0.0663825422525,  -0.0324800796807,  -0.0000096881095,  -0.3191552460194,   0.0468849390745,  -0.1657340824604,   0.1285646557808,   0.0203178506345,   0.0017146770842,  -0.1925978958607,   0.1801773607731,   0.1513355374336,  -0.0713475719094,  -0.0186228379607,  -0.1438302993774,  -0.0190423168242,   0.1253389418125,   0.1042460054159,   0.0896676257253,   0.0376692563295,  -0.1191564798355,  -0.0660288631916,  -0.2693799436092,  -0.0759206339717,  -0.0081526841968,   0.2051574289799,   0.0924168005586,   0.1185659021139,   0.1490720510483,   0.1635576933622,  -0.2381367385387,   0.1025153994560,  -0.1491354256868,   0.0216035544872,   0.1445803046227,  -0.0006733224145,   0.1090532988310,  -0.0669336169958,  -0.1243131309748,  -0.1686539947987,   0.0442722216249,  -0.1936131715775,   0.1546121090651,   0.1824677884579,  -0.0259314458817,  -0.1798464953899,  -0.0734749138355,   0.0081064458936,  -0.1472119987011,  -0.0832655802369,  -0.0764498263597,  -0.1940445452929,  -0.0488537549973,  -0.0008226626669,  -0.0005972613581,   0.1941212117672,   0.1526086330414,   0.0822198465466,   0.1546378731728,   0.1244789585471,   0.0939627587795,  -0.0445883274078,   0.0341269634664,  -0.0099609307945,   0.0372319482267,  -0.0973301529884,   0.1229132711887,   0.1370769441128,  -0.0647618025541,   0.1808953434229,   0.1417866051197,  -0.0303319506347,   0.0287221428007,   0.0076966481283,   0.0605744533241,  -0.0398979187012,  -0.1614581793547,   0.1070425063372,   0.1085688769817,  -0.0704248696566,  -0.0294355973601,   0.0220662597567,   0.0282181296498,   0.0819386914372},
   {   0.0782054141164,   0.0289368834347,   0.0397123135626,  -0.0949594527483,   0.1814557909966,  -0.2679982483387,   0.1920949369669,   0.1431799829006,  -0.3064930438995,  -0.0097788432613,  -0.0202870983630,  -0.0046782386489,   0.0040039881133,   0.1416341960430,  -0.1142922267318,  -0.0361595824361,   0.0202160608023,   0.0017663465114,   0.1701183468103,   0.1120539978147,  -0.0921042710543,  -0.0699276402593,   0.0671600177884,   0.2022363096476,  -0.1163188517094,   0.0591391064227,   0.1229863464832,   0.0754968747497,  -0.0241120215505,   0.1134490743279,   0.0273260176182,   0.1369059830904,   0.0520980171859,   0.1512057930231,  -0.0878514945507,  -0.0789650380611,   0.0067408778705,   0.2018665224314,   0.1829749643803,   0.0239967294037,  -0.0629847794771,  -0.1091005578637,   0.2072853147984,  -0.2095764726400,   0.1296196877956,  -0.1904432028532,  -0.0995485484600,   0.0800860673189,   0.2532248497009,  -0.1783061623573,  -0.1936115771532,   0.0086244931445,   0.0112855872139,  -0.0459579490125,   0.0302611477673,   0.0623878724873,  -0.1703038513660,   0.1743693202734,  -0.0412305444479,  -0.0175725165755,  -0.0267523825169,  -0.0663843303919,   0.3050992190838,   0.0525966174901,   0.2601203322411,  -0.1126545816660,  -0.0729225948453,  -0.0945636630058,  -0.0739416703582,  -0.0373695492744,  -0.1631252318621,   0.0318707041442,   0.0466248802841,   0.0677604302764,  -0.0325325690210,  -0.1743391901255,   0.0360926277936,   0.1780820339918,   0.0112292263657,  -0.0023296778090,   0.1127261817455,  -0.1132039874792,  -0.1003201976418,   0.0134487859905,  -0.0132239386439,  -0.1723577231169,   0.2465264797211,   0.1445178836584,   0.2418281584978,   0.0877676829696,  -0.0620548501611,  -0.1377041488886,  -0.1093467399478,  -0.0331014804542,  -0.1554882079363,   0.1239956170321,   0.1251467615366,   0.0379003658891,   0.0439807102084,   0.1288563013077,   0.0408161766827,   0.0938328504562,   0.0312264859676,  -0.0898133814335,  -0.0464882738888,  -0.3244588971138,  -0.0138067593798,   0.1890274733305,   0.1366478651762,   0.0667013525963,  -0.1889290958643,  -0.0737513080239,   0.0379352048039,  -0.1163048744202,   0.0062086968683,   0.1111602783203,  -0.0318688116968,   0.0585259981453,   0.1178155243397,  -0.2251414358616,   0.1649477481842,  -0.1239011138678,   0.1338392645121,  -0.1531611829996,   0.1529876738787,  -0.0939400121570,   0.1766330599785,  -0.0918463766575},
   {  -0.1532509922981,   0.0728390142322,   0.1769142150879,   0.1478794366121,  -0.1232691034675,   0.0823625922203,  -0.2317476868629,   0.1353883743286,   0.1649060845375,   0.0655435845256,   0.0118604414165,  -0.0859583690763,  -0.1476949602365,   0.0260930415243,   0.0058006010950,   0.1583413183689,   0.0981558859348,  -0.0551719702780,   0.0728556290269,   0.0506832301617,  -0.0550676435232,  -0.3074991106987,   0.0950083956122,   0.1338010430336,   0.0785134360194,  -0.1622298508883,   0.0450390614569,  -0.0515195205808,  -0.0377107895911,   0.1174391284585,  -0.0137272989377,   0.0282289460301,   0.1339753717184,   0.1856193542480,  -0.0652334615588,  -0.1012068018317,  -0.0667062923312,  -0.0875888764858,   0.0002955948585,   0.1262508779764,  -0.1321395039558,  -0.0922177508473,   0.0703839361668,  -0.0029399683699,   0.0258104912937,  -0.1227033212781,  -0.0583508946002,  -0.1095951870084,   0.1012207940221,   0.0402855798602,   0.0437886416912,   0.0269413385540,   0.1453399807215,  -0.1732331365347,  -0.2518353164196,   0.1554390341043,  -0.1380121707916,   0.0278114341199,   0.0755145922303,  -0.0864390283823,   0.0714655593038,  -0.1093242913485,  -0.1310460418463,  -0.0906240120530,  -0.3015239536762,   0.0919813811779,   0.2011067122221,  -0.1391690224409,   0.0947600901127,   0.0440863184631,  -0.0487056672573,   0.0652566403151,   0.0362638011575,   0.0471388958395,   0.0277053713799,   0.1057169660926,  -0.0487822517753,   0.1417514830828,  -0.1384374946356,   0.0176631435752,  -0.1915240585804,  -0.0139625221491,  -0.1485270857811,  -0.0118909943849,  -0.0005084709846,  -0.2433904111385,  -0.0500001795590,  -0.0936904400587,  -0.0798413306475,  -0.1392946541309,   0.1583691984415,  -0.1426935046911,  -0.0508858226240,   0.0209520924836,   0.0362671539187,   0.0209653675556,  -0.0128587894142,   0.0777928307652,   0.0244406517595,  -0.0346506610513,   0.1676466017962,   0.1263922452927,  -0.0807200074196,   0.0255278032273,   0.0986278280616,   0.1480858623981,   0.0319537706673,  -0.0193183608353,  -0.1529695242643,   0.0675877034664,   0.0127484761178,  -0.0071089579724,   0.1317282766104,  -0.3453496396542,  -0.0463284663856,  -0.1248032748699,   0.1468055695295,  -0.0117554245517,   0.0884723812342,   0.0632625892758,  -0.1380197554827,  -0.1016982346773,   0.1127170324326,  -0.0357053577900,   0.1401999294758,   0.1299035251141,  -0.0638231039047,   0.1229416280985},
   {   0.0454528927803,   0.1315672993660,   0.0427832715213,   0.1475034952164,   0.0669964626431,  -0.1569804996252,  -0.0768443942070,  -0.1344566196203,  -0.0233942922205,   0.1195243597031,   0.0383166931570,   0.0586308501661,  -0.1470393687487,  -0.0041313907132,  -0.0537069179118,   0.1670075505972,   0.1316190361977,  -0.1612344384193,  -0.2395895123482,   0.1626236587763,  -0.0172586943954,   0.0221294034272,  -0.0724631845951,  -0.0808121189475,  -0.1120132878423,   0.0954302176833,  -0.0411017760634,  -0.1308877468109,   0.1648460030556,  -0.2043552696705,  -0.1250508576632,  -0.1925878971815,   0.1132276058197,  -0.0645122155547,  -0.1395644843578,   0.0520550571382,  -0.0677512139082,  -0.0713813006878,  -0.0997198447585,  -0.2086636722088,   0.0806909799576,  -0.1686008125544,   0.0705557540059,  -0.1497265398502,  -0.0957648381591,  -0.0669041648507,  -0.1273963600397,  -0.1454547047615,  -0.1321046501398,  -0.0386745519936,   0.1931636929512,  -0.0461749471724,  -0.0634153634310,  -0.1595944464207,   0.0894110947847,   0.0199936833233,   0.1328635811806,  -0.0186522565782,  -0.1321708559990,  -0.0125092947856,  -0.1636108011007,   0.0302187744528,   0.0630322173238,  -0.0329880006611,  -0.0107254674658,   0.0505016334355,  -0.0553378388286,  -0.1169428303838,   0.1645859628916,  -0.2793523669243,  -0.0084747811779,  -0.0001383648778,  -0.0844120830297,   0.1709815561771,  -0.0380027107894,   0.0501942597330,  -0.0988024398685,  -0.0561907738447,   0.0116414343938,   0.0046735717915,   0.0037680084351,   0.0601512193680,  -0.0643180385232,   0.1022209599614,  -0.1060253307223,   0.0686245933175,   0.0903218835592,  -0.0947268605232,   0.0127498656511,   0.1023078486323,  -0.1593966633081,   0.0157716181129,  -0.0325560346246,   0.0219239704311,   0.1368082314730,   0.1141205877066,   0.1120238825679,   0.1755076199770,   0.1071836128831,  -0.0641482621431,   0.0094834463671,  -0.1482692211866,   0.0964702069759,   0.0180934742093,   0.1476848870516,   0.1132653281093,   0.0531993061304,   0.0028937042225,   0.0179679524153,   0.1751607209444,  -0.0164255201817,  -0.0328465215862,  -0.0764789283276,   0.1778125315905,   0.1404989361763,   0.0869414135814,   0.1480938494205,  -0.0393391586840,   0.2621590495110,  -0.0648270398378,   0.0414953082800,  -0.0976933911443,   0.0756476670504,   0.0416446961462,   0.0311014223844,  -0.0154359610751,   0.0975101888180,   0.0874442458153},
   {  -0.2122088074684,   0.0161818750203,   0.1181249171495,  -0.0537977404892,   0.0656626746058,  -0.1041458919644,   0.1343142241240,   0.0637016594410,   0.1692613214254,  -0.0893976986408,  -0.1923091709614,   0.0528290197253,   0.0063764895312,   0.1594292819500,  -0.0483136773109,   0.1106059327722,   0.0829169005156,  -0.0847324058414,  -0.0140845999122,   0.1496398895979,  -0.0020633388776,   0.0856532379985,  -0.1229105964303,  -0.0835286304355,   0.2283966392279,   0.0086035579443,  -0.1243179887533,  -0.0138464700431,   0.2192822098732,   0.1133671328425,  -0.1318484246731,  -0.0146525781602,   0.0328080654144,   0.2606657147408,  -0.0329913645983,  -0.0301760286093,   0.0758634954691,   0.0848231464624,  -0.0235083568841,   0.2077823430300,   0.0240106265992,  -0.1888425052166,   0.0139376474544,  -0.0231672190130,  -0.0887681469321,  -0.1451069712639,   0.1585658192635,  -0.5738837122917,   0.0221696477383,   0.0354623906314,  -0.0209225602448,   0.1007141917944,  -0.1459074318409,  -0.1077669337392,  -0.1371773928404,  -0.0402387082577,  -0.0399635769427,   0.0451819114387,  -0.0738299563527,   0.1668935269117,   0.1366869509220,   0.1123406141996,   0.0964736714959,   0.1159474924207,   0.1740775108337,   0.0330358222127,   0.0707503557205,   0.0274925194681,   0.1226077750325,   0.2782131135464,  -0.0909799039364,   0.1684890836477,   0.0652253553271,  -0.0964429676533,   0.0610554367304,  -0.1146382838488,  -0.0358458533883,  -0.0244160797447,   0.1649254411459,  -0.1038323268294,  -0.0183006282896,   0.1150281056762,  -0.0732940956950,  -0.0067111556418,   0.1408308893442,  -0.1779301911592,  -0.0813759341836,   0.0380773358047,  -0.2584214210510,   0.1883298903704,   0.2358332574368,   0.1268333345652,  -0.0940970703959,   0.0198530405760,   0.0960438996553,   0.1458191126585,   0.0355584137142,  -0.0333244837821,   0.0434212349355,   0.1821961849928,   0.0364607870579,   0.0167621299624,   0.1700340360403,   0.1954533755779,  -0.1083342432976,   0.0981866270304,  -0.1377736330032,   0.1203213185072,   0.0488376095891,   0.1496863663197,   0.0251647550613,   0.1480093747377,   0.2131929695606,   0.0665044635534,   0.1346739083529,  -0.1859478652477,  -0.0610814131796,  -0.1239247098565,  -0.2000208795071,   0.1082600951195,   0.1568966656923,   0.1048735901713,   0.1508819460869,  -0.0103538781404,  -0.1009803786874,   0.0604727752507,  -0.0509960241616,  -0.0052851415239},
   {   0.0327288247645,   0.1586030721664,   0.0981923267245,  -0.0213332567364,   0.0759460553527,  -0.0580770410597,   0.1936630010605,   0.0116674769670,   0.1219106540084,   0.1122184619308,   0.0704031810164,   0.0800300464034,  -0.0058682840317,  -0.0314394086599,  -0.0832576230168,   0.1895892918110,  -0.0119976755232,   0.0617478676140,  -0.1885209530592,  -0.0021060267463,   0.2101427167654,   0.3329362273216,  -0.0478966757655,   0.2179580032825,   0.0690759792924,  -0.1742182821035,  -0.0516913793981,   0.0352603346109,   0.1248913556337,  -0.1251818537712,   0.0800489857793,   0.0048740832135,   0.0193637441844,   0.1480560153723,   0.1130471155047,   0.0380959510803,  -0.0948518365622,   0.0970587134361,  -0.1535432338715,  -0.1165412291884,   0.1629774570465,   0.3272908627987,  -0.0139316869900,   0.0642741769552,  -0.0505987443030,  -0.1034324765205,  -0.2335617691278,  -0.4828711450100,  -0.0507889352739,   0.0546678826213,   0.1109809577465,  -0.0220700521022,   0.1207575947046,  -0.2971923351288,   0.2250546365976,  -0.0032742819749,   0.1473585218191,  -0.1143809482455,   0.0574867501855,   0.0906816944480,   0.1953797638416,  -0.0504182316363,  -0.1722319126129,  -0.0981196761131,  -0.1478049159050,  -0.0923588797450,  -0.2463808357716,   0.0134605318308,  -0.0792812556028,  -0.1392554193735,   0.0682939514518,   0.1011026501656,   0.1883516162634,  -0.0089894840494,  -0.1494107097387,   0.0237863473594,  -0.0308486148715,  -0.0326431393623,   0.0536006167531,  -0.0836773738265,  -0.0053025153466,   0.1973355114460,  -0.0081985546276,  -0.1210112720728,   0.0064423712902,  -0.1043750867248,   0.1116854697466,  -0.0646127462387,   0.1854980885983,  -0.0586283318698,   0.1155965924263,  -0.0881059542298,   0.1579269170761,  -0.0517716109753,  -0.1136531159282,  -0.1898347288370,  -0.1642865687609,  -0.1958054006100,  -0.2000473141670,   0.0271740872413,   0.0254694074392,   0.0565713681281,   0.0190457236022,   0.1349150836468,  -0.0340928398073,  -0.1803669482470,  -0.0040869442746,   0.2090071886778,  -0.0114321401343,  -0.2103314548731,   0.0635131374002,   0.0683215856552,  -0.0493522696197,  -0.0468413345516,  -0.0722001716495,   0.0837511941791,  -0.0810882598162,   0.1307697594166,  -0.1940102428198,  -0.2189242094755,   0.1285788565874,  -0.0483428575099,  -0.0824758410454,   0.0583661906421,  -0.0464246608317,   0.1509024202824,  -0.0882400423288,  -0.0411302894354},
   {   0.2129285931587,   0.0335925966501,  -0.0219767019153,  -0.3522969484329,   0.0104845128953,  -0.2024437934160,  -0.0001229314657,   0.0036918299738,   0.1225529313087,   0.1102561131120,   0.0711130127311,   0.0210968609899,  -0.0438760556281,  -0.0025881621987,  -0.0340199954808,  -0.2434426397085,   0.0885078310966,   0.1092612296343,   0.0226816888899,  -0.1091251969337,  -0.0005280725891,  -0.3149337470531,   0.1767994165421,   0.1167687103152,   0.1483603417873,   0.0992729142308,   0.0957330688834,   0.1549823731184,  -0.0241972319782,  -0.1307671368122,   0.1500112861395,   0.1127413213253,  -0.0096767023206,   0.0328677073121,   0.0664219856262,  -0.0780306607485,  -0.0531849786639,  -0.0849012881517,   0.1546162515879,  -0.1032892763615,   0.0794774517417,   0.4978153407574,  -0.2256624698639,   0.0643048584461,   0.1736771017313,   0.0367537438869,  -0.0917897075415,  -0.1931875050068,   0.0637281984091,  -0.1873350143433,   0.0094443382695,  -0.0098489494994,   0.1932869851589,  -0.0468055903912,   0.1484474986792,  -0.0952798798680,   0.0995526090264,   0.0640685260296,   0.0274854004383,   0.0770392715931,  -0.0080026825890,   0.0076784202829,   0.1899181008339,  -0.0872308686376,  -0.0716676488519,   0.0230236053467,  -0.2069115340710,  -0.0843074619770,   0.0195659399033,  -0.1011180430651,  -0.0108370827511,  -0.0894927382469,   0.0150957871228,   0.0978845134377,  -0.0020174689125,   0.0952555313706,  -0.2046205103397,   0.0115610295907,  -0.1961946338415,  -0.0775930806994,   0.1740318685770,  -0.1579762995243,   0.1506031751633,   0.0105848209932,   0.0917316228151,  -1.0131499767303,   0.1087459251285,   0.0166821144521,  -0.0736394375563,  -0.1059197112918,  -0.0611251145601,   0.1261267960072,  -0.1965637505054,  -0.0583003237844,  -0.0696352720261,  -0.1019243150949,  -0.1215982139111,  -0.1305668801069,  -0.1015837714076,   0.0703508779407,   0.1025549173355,   0.0881636142731,  -0.0280004683882,  -0.1617328524590,   0.1519863903522,   0.0841673687100,   0.0580693893135,  -0.1430293172598,  -0.0477160736918,  -0.1028117984533,  -0.0261391550303,   0.0503676496446,   0.0339284799993,   0.3310736119747,   0.0737042352557,  -0.1086364686489,   0.0057175867260,  -0.1497528702021,  -0.0998774170876,  -0.1120136976242,   0.0212296657264,   0.1284269392490,   0.0121356118470,   0.1461052745581,  -0.0000250155554,   0.0961307510734,  -0.1064441651106,  -0.0436895154417},
   {   0.1054809391499,  -0.0192374624312,   0.0692304968834,  -0.1065923571587,  -0.1376755982637,   0.1338332593441,  -0.1191226392984,   0.0713109225035,  -0.1800731867552,  -0.1572769582272,   0.0203179698437,  -0.0837296620011,  -0.0528698489070,   0.1500492542982,   0.0366532392800,  -0.0054149446078,  -0.2966448664665,   0.1260425299406,  -0.1053247153759,  -0.1201336234808,   0.1357455402613,   0.2335282415152,   0.1235750839114,   0.0254088882357,  -0.0818074122071,   0.3599564731121,   0.0641236752272,   0.0408101752400,  -0.0522752776742,   0.1540859192610,   0.0199331603944,   0.3245135843754,  -0.0317397229373,  -0.0655734241009,  -0.0031903744675,   0.0035313984845,   0.1775986701250,   0.0445386394858,  -0.0637138411403,  -0.1073336079717,  -0.1405223608017,   0.0189710855484,  -0.0945507735014,  -0.0011273298878,   0.1831451803446,   0.0661818459630,  -0.0024589044042,  -0.0982203558087,   0.0269495490938,  -0.1372621357441,  -0.0828362181783,   0.0888390243053,  -0.0647945851088,  -0.1755551993847,   0.1078824996948,   0.1355766952038,   0.0454817414284,   0.0374309085310,  -0.1421863287687,   0.1148473322392,  -0.0379609353840,  -0.0970965176821,  -0.1116213724017,   0.1340394169092,   0.3388189971447,   0.0433314368129,  -0.4998034834862,   0.0703498274088,   0.0815200805664,   0.3535053133965,   0.0670493692160,  -0.1633631587029,   0.1366787403822,  -0.0950620844960,  -0.0296397544444,  -0.0254087112844,   0.1706097424030,  -0.0688528642058,  -0.1078215464950,  -0.0215331800282,  -0.0219408553094,  -0.1037108674645,  -0.3184661269188,   0.2119840532541,   0.0560386888683,  -0.1343914568424,   0.1357781738043,   0.1575568616390,   0.1626585423946,  -0.0877963006496,   0.1368193626404,  -0.1469952911139,   0.0196084268391,   0.0615067146719,   0.0809129104018,   0.1729251742363,   0.0936765074730,  -0.1187992691994,  -0.1731280684471,  -0.0151116978377,   0.1146720424294,  -0.1416774541140,  -0.0849004313350,  -0.0156982690096,   0.0689548030496,   0.1239478737116,  -0.1440707594156,   0.1782259643078,   0.0098566906527,   0.1310331672430,   0.0583722256124,  -0.1402564346790,  -0.0992362424731,  -0.0179723035544,   0.0947151482105,  -0.0913127884269,   0.0764163732529,   0.0132559984922,   0.0657263323665,  -0.1252674013376,   0.2070375233889,  -0.0442773774266,   0.0271809045225,  -0.0044030225836,  -0.1185509115458,   0.0912329852581,   0.1450439393520,  -0.2289023250341},
   {  -0.1098109334707,  -0.0611396916211,   0.0848516449332,  -0.1207362338901,  -0.0591223686934,  -0.0086771128699,  -0.1622880399227,   0.0314540266991,  -0.0059806248173,  -0.0063481624238,  -0.1381391733885,   0.2475634664297,  -0.0032380975317,   0.1145199388266,  -0.0430727936327,  -0.0507976710796,   0.0903122723103,  -0.1212174445391,   0.1550182998180,   0.0662217736244,   0.1293276995420,   0.0564609318972,   0.0010742110899,  -0.0245102569461,   0.0744930356741,  -0.1002224311233,  -0.1748919785023,  -0.2526060938835,   0.2247171103954,   0.0364970229566,   0.1083613783121,  -0.0263228211552,   0.1998128890991,  -0.0299681182951,  -0.0420897640288,  -0.1121249198914,   0.0052376440726,  -0.1663131862879,  -0.3266753852367,   0.2338535785675,   0.0308381989598,  -0.1198007538915,   0.1987441331148,   0.0673497766256,   0.1359127312899,  -0.0108914794400,   0.1185198500752,  -0.1357452571392,  -0.1078048944473,   0.0454326719046,   0.2832982242107,  -0.1198175698519,  -0.1534242928028,   0.0217219982296,   0.2041460424662,   0.0853808671236,   0.1651322692633,  -0.0555466376245,  -0.1456232964993,   0.0779429748654,  -0.0354820229113,  -0.0149937644601,  -0.2871816158295,   0.1456549316645,   0.0131889004260,  -0.0210911817849,   0.1590366512537,   0.0005019064993,   0.0716770887375,   0.0004171396722,  -0.0352896861732,  -0.0365369208157,   0.1210945397615,   0.2065649479628,   0.0515094213188,  -0.0229175612330,  -0.2044485211372,   0.2161200493574,   0.0406047254801,   0.0938547924161,  -0.0617919638753,   0.2766170501709,   0.2252747565508,  -0.0335674658418,   0.0068038688041,  -0.2044015079737,   0.1296912878752,  -0.1663244217634,   0.1634976565838,  -0.0163763649762,   0.0175075922161,   0.0073494776152,  -0.0008021755493,  -0.0641922131181,   0.1160265952349,   0.0419986657798,   0.0515830256045,   0.1745131462812,  -0.2760818302631,  -0.0780849531293,  -0.0346536338329,   0.1671547144651,  -0.0150623032823,   0.2391477227211,  -0.0213387217373,   0.0833529010415,   0.0979472398758,   0.0232699848711,   0.0964442789555,  -0.0118305701762,   0.0637648329139,  -0.1074479296803,   0.1745464950800,  -0.3199187219143,  -0.0145690813661,   0.1086458936334,   0.0430794432759,   0.0436624214053,  -0.3547735810280,  -0.1250724494457,   0.1649547666311,  -0.0719576552510,  -0.0623671822250,  -0.0354489237070,  -0.2373075634241,   0.0416255369782,   0.1398687064648,  -0.1372911930084},
