
    // Select all (Ctrl+A), Copy (Ctrl+C), paste to an empty text file (Ctrl+V) and save that file as 'generated_code.h'
    // 
    // Auto-generated header file. Assumes img to be a floating point array
    // of 64 elements (corresponding to an 8x8 b&w image)

    #include <math.h>

    float norma_SigSNN;
    
inline float activation_SigSNN_0 (float x, float n) 
{ return x > 0 ? x : 0;}
inline float activation_SigSNN_1 (float x, float n) 
{ return x > 0 ? x : 0;}
inline float activation_SigSNN_2 (float x, float n) 
{ return exp(x)/n;  }

    float guess_SigSNN (const float *img, int flag)
    {
    
  // Declare the arrays in the stack
  const float kernel_0[23][50] = 
  {{  -0.3449535965919,   0.0067648352124,   0.0638491883874,   0.0403647720814,  -0.2404388487339,   0.3105788230896,   0.2893353402615,   0.1664004474878,   0.0182363111526,  -0.2216086685658,  -0.3265945017338,   0.0792450830340,   0.0661596357822,  -0.2969256937504,  -0.2917663455009,  -0.1466240882874,   0.2846173942089,   0.0495940893888,   0.2995592057705,   0.2706790864468,   0.2457013577223,  -0.2230182290077,  -0.0830486267805,  -0.3704338669777,  -0.2211745232344,  -0.2669736146927,  -0.2649159729481,   0.0481433607638,  -0.1522276103497,   0.1478071957827,  -0.1100203469396,   0.0981401577592,   0.0908425226808,  -0.0337175317109,   0.1862786412239,  -0.2082838714123,   0.2360723316669,   0.0594014637172,  -0.3139481544495,  -0.2252590060234,   0.0186679325998,   0.2863221466541,   0.2827003896236,  -0.2247552275658,   0.2232798635960,   0.1738797575235,  -0.0992286056280,   0.2653490304947,   0.1367914527655,   0.3268179893494},
   {   0.0772295743227,  -0.0715724006295,   0.0755537226796,  -0.0474152304232,  -0.0100443009287,  -0.0361128449440,  -0.1796610951424,  -0.1043509170413,   0.0188671089709,   0.1237164363265,  -0.0192964542657,   0.3710879683495,   0.3797546923161,   0.3137578666210,  -0.1812660396099,  -0.2772786617279,   0.0212416294962,   0.0020370446146,   0.2307616174221,  -0.2470308244228,   0.0870170295238,  -0.2364898771048,  -0.2446032762527,   0.1288728863001,  -0.2011158466339,   0.1517371088266,   0.0618529282510,   0.1091386824846,  -0.0141231762245,  -0.0776859447360,  -0.2238102257252,   0.0837158262730,   0.0182138755918,   0.0692184194922,   0.2314087152481,  -0.1277321428061,   0.0212696120143,  -0.0216555111110,   0.2706873714924,   0.0388020686805,  -0.0691487565637,  -0.0522468052804,  -0.0523217022419,  -0.1301958560944,   0.2868384122849,  -0.1859837174416,  -0.2927967905998,  -0.2330764234066,   0.2591444253922,   0.1095874831080},
   {  -0.3305771052837,  -0.1153714805841,   0.3729959130287,   0.4439070522785,   0.2643774449825,   0.2228082269430,  -0.1308910399675,  -0.0515105389059,   0.2979671359062,  -0.1920882016420,   0.1839639991522,  -0.0682852342725,   0.0471645966172,   0.1158302128315,   0.0480984114110,   0.1120428293943,  -0.0515901558101,   0.0603420697153,  -0.0301653482020,   0.0617019645870,  -0.1966594755650,  -0.1987185627222,  -0.2541128695011,   0.4166322648525,  -0.1092391833663,   0.0753374919295,   0.0009014349780,   0.2197622656822,   0.0264828149229,  -0.1456032544374,  -0.1029303669930,  -0.2123067528009,  -0.0216858293861,   0.1295210421085,   0.0310304816812,  -0.1396836638451,   0.0655818730593,  -0.2900474369526,   0.1216748058796,  -0.1842635869980,   0.2425928562880,   0.2249629348516,  -0.0252068620175,  -0.1250199675560,  -0.2909630239010,   0.1201367229223,  -0.1824009120464,   0.1094380021095,  -0.2057709246874,   0.2937621474266},
   {  -0.1539040803909,  -0.0350029170513,  -0.1762288808823,  -0.0361039191484,  -0.1162449270487,   0.0372419990599,   0.0565371327102,   0.1052667945623,  -0.2416737824678,  -0.4479710459709,  -0.2180676460266,  -0.1099431738257,   0.0859872549772,   0.0649735033512,   0.2085989117622,  -0.3341266810894,  -0.2198141515255,  -0.0964317768812,   0.0519832670689,  -0.1530916243792,   0.3155513703823,  -0.1151726096869,   0.0555602572858,  -0.0577643513680,  -0.0521169230342,  -0.2990179061890,   0.1714951395988,   0.2319774627686,   0.0580600686371,   0.2519392669201,   0.3034751713276,   0.1179485842586,   0.3097755908966,   0.1853322535753,  -0.1404073238373,  -0.2896199822426,   0.0294625535607,  -0.0149535443634,  -0.2395946681499,  -0.2228251993656,  -0.0449960269034,   0.0621530301869,   0.0261973310262,   0.1691157966852,  -0.2107401639223,   0.1906439214945,   0.2314845323563,   0.1276884377003,  -0.0838658437133,   0.1939934790134},
   {   0.3079023361206,  -0.0708274543285,   0.1246828734875,  -0.0696398317814,   0.1703114956617,  -0.1608028709888,   0.3597649633884,   0.1374630779028,   0.2467687577009,   0.1158437281847,  -0.2178351581097,   0.1872366368771,  -0.1002245619893,   0.0957811772823,   0.3234068155289,  -0.1462662667036,  -0.0189769286662,   0.1396421194077,  -0.1040086224675,  -0.1501948535442,  -0.2227118611336,  -0.0665280744433,   0.0911672413349,  -0.0600208006799,  -0.4185996949673,   0.0669371038675,   0.1371111720800,   0.1231989040971,  -0.1622972935438,  -0.1807054728270,   0.2540864944458,  -0.2591412067413,   0.1241247504950,  -0.0206735953689,   0.1366102397442,  -0.1435563862324,  -0.1330560147762,   0.1300023049116,   0.0990855917335,  -0.0099289733917,   0.2783831059933,  -0.0255423169583,  -0.3600302338600,   0.0915055274963,   0.1939896047115,  -0.0241123270243,  -0.0111979953945,  -0.0393322110176,   0.2232972532511,   0.1600179076195},
   {  -0.2307492643595,  -0.1716344058514,   0.3330357074738,   0.3299483954906,   0.2119998931885,  -0.0850468650460,  -0.0745143964887,  -0.1248792111874,  -0.0494967028499,  -0.1114486530423,   0.1084986329079,   0.0403026752174,  -0.1712071001530,  -0.3331626951694,   0.2147518992424,  -0.0127996979281,  -0.0385434068739,   0.1597487479448,  -0.0745303779840,   0.0647960379720,  -0.1109958812594,  -0.1160740628839,   0.0934727489948,   0.3617584407330,   0.2376614362001,   0.0398855097592,  -0.1264297217131,   0.0295410770923,   0.0433195643127,   0.0133150285110,   0.0695592314005,   0.3074118196964,   0.0963427051902,   0.0215762369335,  -0.2793464660645,   0.0308157820255,  -0.0053904247470,   0.0481017976999,  -0.0631166845560,  -0.0274269990623,   0.0670287981629,   0.0494036041200,  -0.1062659099698,   0.0968481153250,   0.1926680207253,  -0.2745571434498,   0.1626662611961,  -0.2321373075247,  -0.0199230387807,   0.0350710041821},
   {  -0.1633192747831,  -0.2266852110624,  -0.0105475736782,   0.6070116758347,   0.3638352155685,  -0.2765560150146,  -0.0777493119240,  -0.1074855104089,   0.3399875164032,   0.2643092572689,   0.2737241089344,   0.4571967124939,  -0.3123061954975,   0.2483022212982,   0.2188507765532,   0.1871134340763,  -0.0326844602823,   0.2181403487921,  -0.3417682945728,   0.1123031377792,  -0.0554772503674,   0.1950320154428,  -0.2092630118132,  -0.0083726653829,  -0.5307630300522,  -0.1266915053129,  -0.2797849178314,  -0.1903790086508,   0.0300212483853,  -0.2627134919167,  -0.4121392369270,   0.0427885688841,   0.1727434098721,   0.3411795198917,   0.2631627023220,  -0.1238184124231,   0.3178258538246,   0.0246983580291,   0.0104313436896,  -0.0186773110181,   0.4015859067440,  -0.1337674409151,   0.1273367553949,  -0.3317894935608,  -0.1786470264196,   0.4451707899570,  -0.0167906396091,  -0.1697412878275,  -0.2459117621183,   0.3667402565479},
   {   0.1777085065842,   0.0967098250985,   0.1480738073587,   0.1261307150126,   0.0767386183143,  -0.0379906892776,   0.0158505290747,  -0.0611041374505,  -0.1287837475538,  -0.0887468829751,  -0.0200716704130,   0.3685286343098,   0.0385889783502,   0.0526322647929,  -0.3296573758125,  -0.0622516050935,  -0.2245981544256,  -0.2135839462280,  -0.0255777388811,  -0.0020455121994,   0.1375326067209,   0.0765353962779,  -0.0464322380722,  -0.0729303508997,  -0.0106385825202,   0.0310361068696,   0.2712842226028,  -0.0522046945989,   0.0156931951642,  -0.1101313978434,   0.0117904925719,  -0.1264012008905,  -0.1687086075544,   0.0897399634123,  -0.1061769798398,   0.1514882445335,  -0.1472624987364,  -0.2883538305759,   0.3579196333885,  -0.0401863008738,  -0.0159746762365,  -0.1257517188787,  -0.0964998677373,  -0.4043311178684,  -0.2287104874849,   0.1034939587116,   0.1421573609114,   0.1124794110656,  -0.0099299913272,  -0.0201511494815},
   {  -0.0232204440981,  -0.0786811187863,  -0.0646347627044,   0.0738769024611,  -0.0669247135520,  -0.0666493549943,   0.3297191560268,  -0.0992707386613,   0.1307098269463,   0.3430050313473,   0.0224534142762,  -0.1335055530071,  -0.0373388007283,   0.0412647426128,  -0.0726691558957,  -0.0546038039029,  -0.0456850379705,   0.0523267425597,   0.0936966314912,  -0.1920154243708,  -0.0329522341490,   0.2210256159306,  -0.1505631804466,  -0.0727226138115,  -0.0273609627038,  -0.2636498510838,   0.0096177663654,   0.3087646961212,   0.1049367934465,  -0.1920345127583,  -0.0285909362137,   0.0825591161847,   0.4841490387917,  -0.0296813286841,  -0.0140473060310,   0.2529535889626,  -0.0208394676447,   0.2501126825809,   0.0106785595417,  -0.0994687229395,   0.0452010892332,   0.0886753126979,  -0.0357299745083,  -0.1631610542536,  -0.0698902681470,  -0.2087952494621,   0.1901171356440,  -0.0834503024817,   0.1054928898811,  -0.0446788109839},
   {   0.1499383151531,  -0.3240613043308,  -0.1756614595652,   0.0976866334677,   0.1683827042580,   0.0466511920094,  -0.2182718217373,   0.0847274735570,   0.0093731386587,   0.0815763175488,   0.1848635077477,  -0.1313784718513,   0.0887109190226,  -0.2429856657982,   0.0109436362982,   0.0086208414286,   0.1985769420862,  -0.4323237836361,  -0.1952959001064,   0.2473307549953,   0.1314085125923,  -0.0569202639163,   0.1550880223513,  -0.2760165035725,   0.0542278662324,  -0.3159833550453,  -0.2157753407955,   0.1819977313280,  -0.1498967856169,  -0.0348364226520,  -0.2970888316631,   0.2519490122795,  -0.1750794947147,  -0.4088738858700,   0.1485704332590,   0.3404672145844,   0.0051536974497,   0.5137504339218,  -0.2459009438753,   0.2768718600273,  -0.0252005867660,   0.3382720351219,   0.0410050190985,  -0.2192695885897,  -0.2705125510693,   0.1969134956598,   0.2988651096821,   0.0288804564625,   0.1302083879709,  -0.2273235917091},
   {   0.0335507839918,   0.2098739743233,   0.1262350380421,  -0.0126736722887,  -0.2796707451344,  -0.0701646581292,   0.1670493781567,   0.1868219524622,   0.0478207468987,   0.0422425456345,   0.4681012928486,  -0.1624324321747,   0.0734751522541,   0.0947244167328,   0.1314135938883,  -0.4209798574448,  -0.3384164273739,  -0.3465461730957,   0.0077895200811,   0.2315400838852,  -0.0943793952465,   0.1300390958786,   0.2900965809822,   0.0720027610660,  -0.2562303841114,   0.1635203808546,   0.4312375783920,   0.3182005882263,  -0.3265711963177,   0.1102130711079,  -0.1283089369535,   0.4961258172989,  -0.2086332589388,   0.1335168182850,  -0.1896301954985,  -0.1204297170043,  -0.4473275840282,   0.2878598272800,   0.0020605830941,  -0.2326546460390,   0.1411016881466,   0.1921773999929,   0.0230143275112,  -0.0917562246323,  -0.1008862480521,   0.0901504009962,   0.2009172439575,  -0.1113718524575,   0.0182478036731,  -0.1585503518581},
   {   0.3411749601364,  -0.0141261378303,  -0.3735551238060,   0.1723299622536,  -0.0296005215496,   0.3382763266563,  -0.1561473757029,   0.0675599053502,   0.0388259254396,  -0.2994464039803,   0.1300738602877,   0.0785869583488,   0.0718796104193,   0.2794306874275,   0.3109890222549,  -0.1253295093775,  -0.4236156046391,   0.0691253840923,  -0.1480231732130,   0.1049190983176,   0.2891076505184,  -0.1027877107263,   0.0959217697382,  -0.0606365986168,  -0.1276560723782,   0.0899960324168,   0.2200770527124,   0.1225289851427,   0.1041285917163,  -0.1668344587088,   0.3313982188702,   0.0769550204277,  -0.1911428868771,   0.0746939927340,  -0.0941204577684,  -0.1403012573719,  -0.0044377925806,   0.1623553037643,  -0.0636482015252,   0.2269514054060,  -0.0724695920944,   0.1745206415653,  -0.4708448946476,   0.2347590029240,   0.0410771705210,   0.2555091679096,   0.2480199038982,   0.2471732199192,  -0.1308470368385,  -0.0520206205547},
   {   0.0454090647399,   0.0003375405213,   0.0192259456962,  -0.1158668771386,   0.2416762858629,   0.0816635414958,  -0.0162268225104,  -0.1836617887020,   0.0785641446710,   0.1528708785772,  -0.1990148872137,  -0.2013350427151,  -0.1658789515495,   0.0045444513671,   0.0657329633832,  -0.1025012061000,   0.2168790996075,   0.1500697582960,   0.0930370241404,  -0.0189320147038,  -0.0058003524318,  -0.1631378829479,   0.1416076421738,  -0.2768560945988,  -0.0655905529857,   0.1219640076160,   0.1448118537664,   0.1875240653753,  -0.1537954360247,  -0.0187004636973,  -0.1714942455292,  -0.0312124770135,  -0.2338605970144,   0.1733180433512,  -0.1236497685313,   0.0560790151358,  -0.0137620260939,   0.0443358086050,   0.0838628485799,  -0.0164359416813,  -0.0375171713531,   0.3382345736027,   0.1756537556648,   0.2609253823757,  -0.2025161832571,  -0.0184285305440,   0.2661798894405,   0.0214053876698,   0.0158254187554,  -0.1460218727589},
   {   0.2614520192146,   0.2394705265760,  -0.3556511700153,   0.2281422913074,  -0.1156146526337,  -0.0727000683546,   0.1603110730648,   0.3980465531349,  -0.1775075942278,   0.2358044236898,   0.0046027260832,   0.1552537530661,  -0.2928822338581,   0.0836045742035,   0.2832165360451,   0.3226230144501,   0.2518671154976,   0.0725068971515,   0.1298870891333,   0.0270817894489,   0.0838544368744,   0.0331105738878,   0.4531526863575,   0.1174625307322,   0.0245678443462,   0.0157831236720,   0.0906717032194,   0.1195213794708,   0.0891718715429,  -0.0448985993862,   0.2246619760990,  -0.1141653060913,   0.0994718223810,  -0.0640540942550,  -0.0909587591887,  -0.1509848982096,  -0.1826333701611,   0.0208824500442,   0.1895307153463,  -0.2403100430965,  -0.1693301945925,  -0.1181893274188,  -0.3509092628956,  -0.3628515899181,   0.0413517877460,  -0.2438532561064,   0.1175080686808,  -0.1804123222828,   0.1268283128738,   0.4419268667698},
   {  -0.0150167010725,  -0.0973388999701,  -0.2789325118065,  -0.0028097548056,  -0.0486902743578,  -0.2966458499432,  -0.1706055998802,  -0.2477636486292,  -0.1709675788879,   0.0755531638861,  -0.1925304234028,   0.2001162320375,   0.0078759230673,  -0.0786326080561,  -0.2752727270126,   0.0825857892632,  -0.0083792051300,  -0.0964600369334,  -0.0113328173757,  -0.0487551465631,  -0.0807362794876,  -0.0178705528378,  -0.2360013872385,   0.1641440540552,  -0.0531931258738,   0.2645371556282,  -0.0407307669520,  -0.1022127270699,   0.2057790607214,  -0.1922504007816,  -0.1881396323442,  -0.1786598861217,  -0.1585858315229,  -0.0296464711428,  -0.1059644296765,  -0.2606757581234,   0.1775521785021,   0.1905173212290,   0.2215313911438,   0.2608276009560,   0.1529056131840,   0.0792825669050,   0.2315311431885,   0.1871624141932,   0.1105155423284,   0.1140340715647,   0.1453422158957,  -0.0830260440707,   0.1448075026274,   0.0568709522486},
   {  -0.0065561193042,  -0.0596846900880,   0.2234001457691,  -0.2155475467443,   0.2425951957703,   0.0883533731103,  -0.4530216753483,   0.1036912426353,   0.1656412780285,   0.1863559186459,  -0.3157674074173,  -0.1546668857336,   0.2579367756844,   0.1783273220062,  -0.0810815617442,   0.3779051899910,  -0.2318533062935,   0.0323942378163,   0.1326811015606,   0.0360021516681,   0.0635718852282,  -0.2103186845779,   0.0558526962996,  -0.1424346715212,  -0.1460535228252,  -0.0645521208644,   0.0399074703455,  -0.1991768777370,  -0.4436436891556,  -0.0484359040856,  -0.3938824832439,   0.2216962575912,   0.0849396139383,  -0.2755540609360,   0.0526613108814,   0.1514880955219,   0.0360188148916,   0.2972820103168,  -0.1154797151685,  -0.0015285618138,   0.0027310338337,  -0.1756075024605,  -0.1108441352844,  -0.3696360290051,   0.0312753245234,  -0.0187687054276,  -0.0722156837583,   0.0353063531220,   0.2081737369299,   0.2800849080086},
   {   0.2155011147261,  -0.1541124731302,   0.1585677564144,  -0.0513811707497,  -0.3415629267693,  -0.2819043993950,   0.0658708512783,   0.2278290987015,   0.3763344585896,   0.2337774783373,   0.2447139173746,  -0.2131444364786,  -0.1414031386375,  -0.2464634180069,   0.0685697570443,  -0.0640175491571,   0.0956529676914,   0.1919376850128,  -0.2302653491497,  -0.2915400564671,   0.0053281234577,   0.1947841197252,  -0.1273594349623,  -0.1007146984339,   0.1862464696169,  -0.5145713686943,   0.2739318311214,   0.1254246979952,   0.2395996898413,   0.0593672394753,   0.1494158655405,  -0.4245669245720,  -0.1671961992979,   0.0984710454941,   0.1815057992935,  -0.0454219132662,  -0.2382078319788,  -0.0065394099802,   0.2259810566902,  -0.5567505359650,  -0.1728710383177,  -0.1283975839615,  -0.0357287600636,   0.0287339743227,   0.0864657461643,   0.2741717994213,   0.0405903831124,  -0.1289370805025,  -0.1107591539621,  -0.2510834634304},
   {   0.3425929248333,   0.3162759840488,  -0.0640313029289,   0.1271788328886,  -0.1724333316088,   0.0515653640032,  -0.0510395206511,   0.0010571337771,   0.0838059410453,   0.1237168684602,  -0.5261744260788,   0.4273047149181,   0.2414388358593,  -0.2241259664297,  -0.0641862824559,  -0.2082621604204,  -0.2506065666676,  -0.2615675032139,   0.1590574681759,   0.2295796722174,  -0.0276275463402,  -0.0342295765877,  -0.1505176424980,   0.4206280112267,   0.1432410478592,  -0.1816277652979,   0.0487538650632,  -0.0216523688287,  -0.3333336114883,  -0.0031343495939,   0.0214306600392,   0.0923594608903,   0.0586223565042,  -0.1828364133835,   0.2673373818398,  -0.2799962162971,   0.0624427124858,   0.1791351437569,  -0.1651843935251,   0.1141297668219,  -0.2592488825321,  -0.1724686473608,   0.0180858056992,  -0.3031574189663,   0.1968675106764,   0.2920267581940,  -0.1788240671158,  -0.1037284508348,  -0.0467126630247,   0.1473536193371},
   {   0.0205263979733,   0.1378104090691,   0.1312143057585,   0.0812396034598,   0.0982607156038,  -0.3515219986439,  -0.1276082694530,   0.3811715543270,  -0.0982881858945,   0.1256903409958,   0.0769961178303,   0.1115484610200,  -0.0771820470691,   0.0043967408128,  -0.0886071994901,   0.0566599331796,   0.0390432700515,  -0.3570081889629,  -0.1791989058256,   0.1016945615411,  -0.0650467276573,   0.1701029092073,  -0.1515262573957,  -0.2352586835623,   0.0269214324653,  -0.1595115065575,  -0.2331688702106,  -0.2391090095043,   0.0622986443341,  -0.1251437067986,   0.0516669042408,  -0.1799929887056,   0.1754925549030,   0.1508200168610,  -0.4982019662857,  -0.2334603816271,   0.0406730063260,   0.1496027857065,  -0.0132139548659,  -0.5725433826447,   0.2118156552315,  -0.0132598951459,   0.1293472796679,   0.0549963749945,  -0.0470150820911,  -0.3189402520657,   0.2365375906229,   0.1096571385860,   0.0227250345051,   0.1266830265522},
   {  -0.0412401780486,  -0.2458393871784,  -0.0028193718754,  -0.0509620495141,  -0.0012528110528,  -0.0005922738928,  -0.3059400916100,   0.0895558446646,  -0.0964352488518,  -0.0683363154531,   0.2612700760365,  -0.1906608641148,   0.0902281254530,  -0.1249251663685,   0.0640697777271,  -0.1875083893538,  -0.4310474991798,  -0.3576973080635,  -0.0137842874974,  -0.4696097075939,   0.0438222773373,  -0.1555127948523,   0.0734459459782,  -0.0826334580779,  -0.2644831538200,   0.3086901307106,   0.1581876277924,   0.4466525316238,   0.1787422448397,   0.3946709632874,   0.0083349868655,  -0.0356118641794,   0.2175856232643,   0.1821048855782,   0.3103802502155,  -0.1998110413551,   0.1090015396476,   0.0943563878536,  -0.0333386920393,  -0.1680393517017,   0.1744802594185,  -0.0918126329780,   0.0862970128655,  -0.1631573587656,   0.0815598890185,   0.0232729837298,  -0.0229153037071,  -0.0043273125775,  -0.1191840022802,   0.1718955338001},
   {   0.0206760019064,  -0.1117612868547,  -0.0306111518294,   0.0207770913839,   0.2723701894283,   0.1733803898096,  -0.1431513428688,  -0.0072458474897,   0.1372399628162,  -0.0842753723264,   0.0862930268049,   0.3389944434166,   0.1058559045196,   0.3119687139988,   0.1379313319921,   0.0268099177629,  -0.1199194714427,   0.1414705216885,  -0.0585772767663,  -0.1788210868835,  -0.0292889196426,  -0.2424840182066,   0.0830887407064,  -0.2621942162514,  -0.1437652409077,   0.0265694800764,  -0.2068219780922,   0.0987151488662,   0.1919610202312,   0.1982190459967,  -0.1585172414780,   0.1326144188643,   0.1382283717394,  -0.3648917078972,  -0.1811575442553,   0.0136752733961,  -0.1360812187195,   0.2631426453590,   0.1256436109543,  -0.1578781604767,  -0.2929382324219,   0.2497207224369,   0.3606935441494,  -0.2446510195732,   0.3035319149494,   0.0094276303425,   0.0880199745297,  -0.0988610088825,  -0.2129157185555,  -0.0293642859906},
   {  -0.0197379756719,   0.0829476565123,   0.1167469471693,  -0.0742012560368,  -0.0293408073485,   0.1500468105078,  -0.1223717331886,   0.1624992340803,  -0.0006421036087,  -0.2543527185917,   0.0285433027893,   0.0311663094908,  -0.1302949041128,  -0.2017427235842,   0.0149651095271,   0.1057775691152,   0.1018371656537,  -0.1787310093641,   0.1276395171881,   0.1634379029274,   0.0002689775138,  -0.2118762880564,  -0.0302818492055,  -0.0359593667090,  -0.3485506176949,   0.1142419055104,  -0.2710253894329,  -0.1506113409996,   0.1515843570232,   0.0551037602127,   0.2265619933605,  -0.0373040772974,  -0.3226265907288,  -0.0897153243423,   0.2270207554102,   0.1971035748720,   0.0119587918743,  -0.2830908000469,   0.2274584770203,   0.1507912278175,   0.2615692019463,  -0.1048285290599,   0.0023763517383,  -0.1245322301984,  -0.1689271330833,   0.1203482374549,  -0.0458980835974,  -0.1140082329512,  -0.0560381039977,   0.0244907680899},
   {   0.3454121947289,  -0.2075998038054,   0.3223311901093,  -0.1117180287838,   0.2922773063183,  -0.2277158498764,  -0.2732841372490,   0.0260277446359,   0.3594735264778,  -0.2820178568363,   0.1282887756824,   0.2627209722996,  -0.2768245935440,   0.0584864653647,   0.0755331292748,   0.0423889160156,   0.0742378160357,   0.2256695330143,   0.2350137829781,   0.2248197048903,  -0.1217336878181,  -0.0953667759895,  -0.0219271443784,  -0.0555769130588,  -0.2107226997614,   0.1550809592009,   0.3215044438839,   0.0087155792862,  -0.3089156448841,  -0.1921507716179,   0.3837403059006,  -0.0144889345393,   0.1744138449430,   0.2253935784101,   0.3127949237823,   0.2285773009062,   0.2490869611502,  -0.1936684697866,  -0.1230146959424,  -0.1966542303562,   0.2757516801357,   0.4202111959457,  -0.0078704599291,  -0.3874061703682,   0.0582237392664,   0.2519812285900,   0.1774994879961,  -0.2339855879545,  -0.0424038618803,  -0.1023894101381}};
  const float bias_0[50] = {   0.1249727755785,   0.0971748381853,   0.0579332262278,   0.1475944072008,   0.0671428814530,   0.1357423216105,   0.0445054173470,   0.1033886969090,   0.1664831936359,   0.1569778770208,   0.0726642012596,   0.1498438268900,   0.1362375766039,   0.1058566942811,   0.1107032895088,   0.1487901508808,   0.0936705023050,   0.1714412271976,   0.0852084904909,   0.1826306134462,   0.1644616425037,   0.0160650648177,   0.1610011458397,   0.0746062025428,   0.0594578944147,   0.0592278800905,   0.0919852629304,   0.0628089532256,   0.0225437674671,   0.0995193719864,   0.1172936484218,  -0.0383098535240,  -0.0565085560083,   0.2071316391230,   0.0656050890684,   0.0701820328832,   0.0112142991275,   0.1261439174414,   0.1256039440632,   0.0271421764046,   0.0987920314074,   0.1539174020290,  -0.0322038531303,   0.1428831666708,   0.1268804073334,   0.1082079783082,   0.0109542114660,   0.2519739866257,   0.1281493306160,   0.1923779249191};
  // Declare the arrays in the stack
  const float kernel_1[50][50] = 
  {{   0.1305079609156,   0.4406145513058,   0.2051466852427,   0.2015044838190,   0.3221372663975,  -0.0776156187057,   0.1301738768816,  -0.2974465787411,  -0.1044757440686,  -0.1522978842258,  -0.0835663452744,  -0.0192230045795,  -0.0225516241044,   0.0090445773676,   0.1158928945661,  -0.1189393326640,   0.2786734998226,  -0.2460457086563,  -0.2299361526966,  -0.1319369822741,  -0.0220405831933,  -0.3900913000107,   0.2414477765560,  -0.0909267812967,   0.0227953623980,   0.0584411732852,  -0.2055959850550,  -0.0684988573194,   0.1690581142902,  -0.2565569579601,   0.1051795557141,  -0.1804034262896,  -0.1725894361734,   0.1226577535272,   0.1739666461945,   0.0602692775428,  -0.1617381274700,   0.1018761023879,  -0.0108924759552,  -0.1495940834284,   0.2370077669621,   0.0653995499015,  -0.2979932725430,   0.1776168048382,   0.0058162268251,  -0.1476104855537,  -0.0191798117012,   0.2406642436981,  -0.1065447852015,  -0.2074831277132},
   {   0.3695523142815,  -0.1238395646214,  -0.2357836663723,   0.1102345138788,  -0.3037280738354,   0.1091551482677,   0.2706352174282,   0.4928186237812,   0.2720713317394,  -0.2206301987171,  -0.0696237832308,   0.0287241097540,   0.1092723608017,  -0.0548520833254,   0.1339937001467,   0.0125043755397,  -0.3814297020435,   0.0745889022946,   0.0799004584551,  -0.0284689292312,   0.0413293018937,   0.1545131206512,   0.2215939313173,  -0.1362978667021,  -0.0681052356958,   0.0939575210214,  -0.1027136668563,   0.2546219527721,   0.0313340015709,   0.1268983930349,  -0.2169863730669,   0.0341503210366,   0.1577467620373,   0.1364809870720,  -0.1038937047124,  -0.1310887187719,   0.0830283984542,  -0.1623375117779,  -0.2259583175182,  -0.2194698601961,   0.0015705400147,  -0.1771013289690,   0.1588996648788,   0.0947980806231,  -0.2232429236174,   0.1335483491421,  -0.0021336840000,   0.2018838077784,  -0.0774535536766,  -0.2544444501400},
   {  -0.0271524228156,  -0.0421111024916,  -0.5295644402504,   0.3007065951824,  -0.1353688985109,  -0.3048872947693,   0.0379317589104,   0.1812713891268,   0.1480038166046,   0.0931061357260,   0.1968712359667,   0.0502604693174,  -0.1928621679544,  -0.1350652724504,   0.0467777289450,   0.0344054475427,   0.0596708282828,   0.1052826270461,  -0.2904250025749,   0.1684212684631,  -0.2569674253464,   0.2070313990116,   0.3254806995392,   0.0430512204766,   0.2311410605907,  -0.0460230708122,   0.3332929909229,  -0.0508053414524,  -0.0460232272744,   0.2531959712505,   0.0673758387566,  -0.0256058834493,  -0.1087651401758,   0.0280666500330,   0.1491880267859,   0.2123357206583,   0.1355011910200,   0.0972143858671,   0.1544083207846,  -0.0403923764825,   0.0982380360365,   0.2492582947016,  -0.0173864811659,   0.3223572075367,   0.1033242791891,  -0.0197346135974,   0.0496545322239,   0.0191494580358,   0.0702757090330,  -0.0207656342536},
   {  -0.0363703444600,  -0.3270046412945,  -0.1506816297770,   0.1837460845709,   0.0357604883611,  -0.0446352213621,  -0.2566833496094,   0.1123142167926,  -0.0291285216808,   0.2261489480734,  -0.2878075838089,   0.0769153460860,   0.2290414869785,  -0.5525628328323,  -0.4828666150570,   0.0922887921333,  -0.0082660894841,   0.1753572672606,   0.2603035271168,  -0.1822799742222,   0.1926777809858,   0.2191134095192,   0.2465733140707,   0.0975679606199,   0.2162061482668,  -0.0875243395567,  -0.0235706623644,   0.1642038524151,  -0.0234474670142,   0.0892527475953,   0.1618783622980,   0.2423542588949,  -0.1953333765268,  -0.1783262789249,  -0.4809299409389,  -0.1157779991627,  -0.0726157724857,  -0.1328382343054,   0.3450773060322,   0.2113746106625,  -0.0532247386873,  -0.1440848410130,   0.1216330379248,   0.0652574375272,   0.4434348046780,  -0.0221597980708,  -0.2538819909096,  -0.1684310287237,  -0.2440487146378,   0.1688827127218},
   {   0.1619763225317,   0.0454379133880,  -0.1323440372944,   0.1498571634293,   0.0503443069756,   0.0884047597647,  -0.1662405431271,  -0.1571962982416,  -0.0612118579447,   0.2058341503143,  -0.2126593142748,  -0.0342880375683,  -0.0992940291762,   0.2173038870096,   0.0825873985887,   0.1092673689127,   0.0945141240954,   0.0423018969595,   0.1757709234953,  -0.2472921162844,  -0.1371559202671,   0.1552553474903,   0.1004596129060,  -0.0424178950489,  -0.0984101295471,  -0.1483021080494,   0.0888860151172,   0.0457279719412,  -0.0672897920012,  -0.1360972523689,  -0.0096796806902,  -0.1401649862528,   0.0109026813880,  -0.0869524329901,   0.0372671186924,   0.0005942490534,   0.1313613206148,  -0.1266576349735,   0.0275728143752,   0.2763718366623,  -0.0669698566198,   0.1141500398517,   0.1219463199377,  -0.1320015639067,   0.0102668907493,  -0.3067093193531,   0.1640131622553,  -0.1212100312114,  -0.3001179099083,  -0.0339129641652},
   {   0.0632283613086,  -0.0490742251277,  -0.1127704754472,  -0.0134939551353,  -0.0672333985567,   0.0991595014930,   0.1546696871519,  -0.0405905731022,  -0.1257216036320,   0.3058173060417,  -0.1127957105637,   0.0017602532171,  -0.0154816973954,  -0.3303728103638,  -0.2761485278606,  -0.1156167313457,  -0.1534561663866,   0.1167467013001,   0.3436260819435,   0.3352309465408,  -0.2914157807827,  -0.1166732236743,   0.1462647914886,   0.1024438217282,  -0.0927553921938,   0.3144752383232,  -0.3043751418591,  -0.0400866605341,   0.1438867896795,  -0.0358242318034,   0.1495478004217,   0.0187630988657,   0.2759433984756,   0.0091597419232,   0.1516762524843,   0.2647131085396,  -0.2359048128128,   0.2982790470123,  -0.1211019530892,   0.1086923182011,  -0.0410984382033,   0.1533964723349,   0.1174744516611,   0.1020746231079,   0.2169628739357,   0.1441491693258,  -0.0621329918504,   0.1935047507286,   0.0230126027018,  -0.0201587714255},
   {  -0.1776707917452,  -0.2334904819727,   0.0496937148273,   0.1088641211390,  -0.0839912369847,  -0.1009712889791,   0.2511335909367,  -0.1490442156792,  -0.1392381340265,   0.2391281574965,   0.2757659256458,   0.2061941176653,   0.1593857109547,   0.1154802888632,   0.0461762584746,  -0.0636421740055,  -0.2919647097588,   0.1190725564957,  -0.0879292190075,   0.2173685282469,  -0.0783448070288,  -0.1876346170902,   0.0072673582472,   0.1047606989741,   0.0664709955454,   0.1217988505960,  -0.0513030439615,  -0.2609564960003,   0.0742214098573,  -0.2199142575264,  -0.2215036302805,  -0.0212106294930,   0.1637697815895,  -0.0825636982918,  -0.0938995182514,  -0.2313156574965,   0.1751468032598,  -0.2340771257877,   0.1394215971231,  -0.0497236251831,   0.0995304808021,   0.1328768432140,   0.2334765791893,  -0.0337396152318,   0.3345352709293,   0.1887525171041,  -0.0118006952107,  -0.1283843666315,   0.1879801154137,  -0.0831062644720},
   {   0.0015290715965,  -0.2201046198606,   0.0441284812987,   0.2153048366308,  -0.0464653149247,   0.0736207291484,  -0.0363746732473,  -0.4536511003971,   0.2339977920055,   0.1692130267620,   0.1374130994081,   0.1172446534038,   0.0000976025185,  -0.2540777027607,  -0.0769176036119,  -0.1119284480810,   0.1320570707321,  -0.0386370122433,   0.3756903409958,   0.1528530865908,   0.1261059194803,   0.0925424769521,  -0.2630975544453,  -0.0549539774656,  -0.1603396981955,   0.2513131797314,   0.2265241444111,   0.0392844751477,   0.0915190428495,   0.0148435803130,   0.0985453426838,   0.2644498050213,   0.1619006097317,   0.2416916340590,   0.0479031391442,  -0.1239482760429,  -0.0779415816069,   0.1010328531265,   0.0884609147906,   0.1270443201065,   0.0300413072109,   0.1490928530693,   0.0848737582564,  -0.0368014387786,   0.1023498326540,   0.1560829579830,   0.0746903941035,   0.2620111703873,   0.3482244014740,   0.0883172973990},
   {  -0.1589339822531,   0.1264245361090,  -0.0567543767393,   0.0943218767643,   0.2865676879883,  -0.2166763842106,  -0.2407036274672,  -0.1365032196045,  -0.1672474443913,   0.1938468366861,  -0.0942091941833,   0.3389891088009,   0.0506939068437,   0.1674981564283,  -0.1910843551159,   0.0624760426581,  -0.2934921979904,   0.1710636764765,  -0.1755250096321,   0.0853733718395,  -0.0423481129110,   0.3047513365746,   0.0844765380025,   0.2581213414669,   0.1534579098225,  -0.0002813849715,  -0.0543482750654,  -0.1081435307860,   0.0649175345898,  -0.1554916203022,  -0.0418452247977,  -0.0525807291269,   0.0998106524348,   0.1514685600996,  -0.3703328073025,   0.1443766057491,   0.0637460500002,   0.1414781361818,   0.1418259292841,   0.3209301233292,   0.2500894367695,  -0.0151966521516,   0.2719289958477,   0.0497690960765,   0.1093372404575,  -0.2277140468359,   0.1276925951242,  -0.0236086118966,  -0.1493626981974,   0.2883249819279},
   {   0.2479449063540,  -0.1679933518171,   0.2538411915302,   0.0833644419909,   0.3824695050716,   0.0989843979478,  -0.1238051503897,   0.2536286711693,   0.2057653069496,   0.2051238864660,   0.2672879993916,  -0.0482831895351,   0.1266389936209,   0.2135191261768,  -0.0203279275447,  -0.1167217269540,   0.2373278886080,  -0.0605092719197,  -0.1514590978622,   0.0484845861793,  -0.0309364236891,   0.2451163381338,   0.1757408827543,  -0.1722548156977,   0.0137899182737,   0.0838714614511,  -0.0706569179893,  -0.1052403301001,   0.0356081984937,   0.1397773772478,  -0.0717879086733,  -0.4015775322914,  -0.1780658513308,  -0.1232007071376,  -0.1008122414351,  -0.0719493925571,   0.0379034057260,   0.0623115785420,   0.2122200727463,  -0.3028854131699,   0.0373431146145,   0.2542235553265,   0.0997858643532,   0.1045871451497,   0.3422160446644,   0.1568818092346,  -0.3779309391975,   0.0352713018656,  -0.2727181613445,   0.2401521056890},
   {   0.3115791380405,   0.0108336489648,  -0.1509685516357,  -0.0010045683011,  -0.0324217639863,   0.1989820003510,   0.1867501884699,  -0.0793759748340,  -0.2562973797321,   0.2244097739458,   0.0153614673764,   0.3168204426765,  -0.0382610522211,  -0.3062083721161,  -0.2207935601473,   0.0180756263435,  -0.1591182202101,  -0.0300803799182,  -0.2255814075470,   0.0792468562722,   0.1275825500488,   0.1085698679090,   0.1061227992177,   0.2803456783295,   0.2551830410957,  -0.2137322127819,   0.1144568994641,  -0.2758902609348,  -0.0610969848931,   0.3630943298340,   0.1647836267948,   0.1644348651171,  -0.0196245629340,  -0.2732143998146,  -0.0573133789003,  -0.0939649268985,   0.0889424234629,   0.0676400139928,  -0.0645787045360,   0.2099331617355,   0.2065615057945,   0.1972003877163,   0.1530282348394,  -0.3205308020115,   0.3313934206963,  -0.1235740259290,  -0.2475900799036,   0.0149368597195,  -0.0270973648876,   0.2691852450371},
   {  -0.1017542779446,  -0.1547588855028,  -0.2575179934502,  -0.1007053628564,   0.0938753038645,  -0.0923060029745,   0.2483356744051,  -0.0975805744529,  -0.0743331462145,   0.2493975311518,   0.2617186605930,   0.2457746714354,   0.1831449866295,   0.1810560524464,   0.2292355746031,   0.1522255539894,   0.1034892275929,  -0.0069353845902,   0.0077627501450,  -0.1155893206596,  -0.0431857965887,   0.1924223750830,   0.2643994092941,   0.1128189191222,   0.2049576640129,   0.0207206495106,   0.0603308007121,  -0.1231676489115,  -0.1088066026568,  -0.1971747428179,   0.0164482314140,  -0.0962953791022,   0.1312663406134,   0.0480030700564,   0.0423508509994,   0.2664824426174,  -0.0382286459208,  -0.0527210943401,   0.1326276361942,  -0.0159020759165,  -0.1245561316609,   0.0161173678935,   0.1207158938050,  -0.0926099270582,   0.1460446417332,  -0.0328239798546,   0.2146606594324,   0.1385554671288,  -0.0755275711417,   0.3083983957767},
   {  -0.0405659712851,  -0.0425787158310,   0.0863473489881,  -0.0104375751689,  -0.0801248177886,   0.0577938184142,   0.2703140974045,   0.1363860517740,   0.0234366692603,  -0.3621599078178,  -0.1698632240295,   0.0672909840941,   0.1945038139820,  -0.0926386937499,   0.0064568086527,  -0.2038338333368,  -0.0228538513184,  -0.1676104366779,  -0.2943554818630,  -0.1558399796486,   0.1959805488586,  -0.0877591520548,  -0.0341323055327,  -0.0882899537683,  -0.4314542412758,   0.2526544928551,  -0.2485128939152,   0.5250304341316,   0.2385040670633,  -0.3713005781174,   0.1892714649439,   0.0191527958959,  -0.0140093686059,  -0.1070949733257,  -0.0233051963151,   0.0572735182941,  -0.0165774263442,   0.0802619978786,  -0.2749769687653,   0.0534934774041,   0.0598462969065,  -0.1383364349604,  -0.2833955883980,   0.2624283134937,   0.2162010222673,   0.2519975900650,  -0.0518045909703,   0.0178681574762,   0.0761541277170,  -0.2218713313341},
   {   0.0133859533817,  -0.0418492220342,  -0.1337660253048,   0.1445714384317,  -0.0147638441995,   0.0651914030313,  -0.1972045898438,   0.0377401374280,   0.1055632755160,   0.0008136005490,   0.0067867827602,   0.2165601998568,   0.2025841176510,   0.3443195521832,  -0.3288864493370,   0.1333917081356,  -0.1206224337220,   0.2312347888947,   0.0430789515376,   0.1902143806219,  -0.0010622554692,  -0.0356950275600,  -0.0701874196529,   0.1803013831377,   0.1103538274765,  -0.0340800024569,   0.3228241205215,   0.2175928056240,   0.0134925097227,   0.3762210309505,  -0.1668367236853,   0.0183848738670,   0.2393842637539,   0.1170438528061,   0.1128342449665,  -0.0450579635799,   0.2294057905674,  -0.1970371305943,   0.2823686301708,   0.2609202265739,   0.1516257375479,   0.1842914074659,   0.0396128483117,  -0.2848509252071,   0.0720203593373,  -0.2073387205601,  -0.2290597259998,  -0.0435812510550,  -0.0274643525481,  -0.0141025362536},
   {   0.3743636012077,   0.0429042056203,  -0.0834796279669,   0.2161630690098,   0.0694456025958,  -0.2416301071644,   0.0119035085663,  -0.0342205874622,   0.0541344843805,   0.2213450968266,  -0.1598321050406,  -0.0976093709469,  -0.2775112986565,  -0.1478243321180,   0.0346925407648,   0.2745178341866,  -0.0271026305854,   0.0509412959218,  -0.3567958772182,  -0.1490029692650,  -0.2528382241726,  -0.0890517905354,   0.1210464090109,   0.1029299050570,   0.3081535696983,  -0.0850673839450,  -0.0472985580564,   0.0977953523397,  -0.0650697052479,  -0.1362108141184,  -0.3309141993523,  -0.0902905315161,  -0.0202860645950,   0.2163578867912,   0.0206137169152,   0.0108497273177,   0.1822427958250,   0.1167294308543,   0.1841047853231,  -0.0509295836091,   0.2607554495335,   0.1447935104370,   0.2160869091749,   0.2701551914215,   0.0815120264888,  -0.0911142304540,  -0.0381226688623,  -0.4330691993237,   0.0342039838433,   0.2116534113884},
   {  -0.0117960255593,   0.1420923024416,  -0.0400012880564,   0.0448857471347,  -0.2788880765438,   0.1642405539751,   0.0126820476726,  -0.1213200092316,   0.0551692992449,   0.1456045955420,  -0.0123914880678,   0.0901430472732,  -0.1932280212641,  -0.0670943558216,   0.1291183382273,   0.2832391858101,   0.0594882294536,   0.0042628049850,  -0.0199408996850,   0.1296155601740,   0.2086927890778,   0.3255204856396,   0.1467652469873,   0.1764310598373,   0.1205834597349,   0.2333526462317,   0.2907426655293,   0.0803618058562,   0.0225486718118,   0.2860183417797,  -0.2184548676014,  -0.2651462256908,  -0.1682275682688,   0.0035698877182,   0.1175789609551,   0.1149103343487,   0.2225552797318,   0.0336401239038,   0.1679300665855,  -0.2469133138657,   0.0581436604261,  -0.1083996072412,   0.0048622488976,  -0.0467169284821,   0.3677091300488,   0.2052358388901,  -0.1620270013809,  -0.2608413398266,   0.0143707506359,  -0.0269541535527},
   {  -0.1731135249138,  -0.1491837501526,  -0.2914877235889,   0.1450383216143,  -0.3394781649113,   0.2178356349468,   0.1972593367100,  -0.3258995711803,   0.1586011052132,   0.0747041031718,  -0.0426508337259,   0.0818811357021,   0.0696154087782,  -0.2689415812492,   0.0251262206584,   0.1000470221043,  -0.2511239349842,  -0.3454440832138,   0.1665474772453,  -0.1988028883934,  -0.0033998903818,   0.2602453231812,   0.2241422683001,   0.1884979456663,   0.2351122647524,  -0.1791742742062,   0.1932474523783,   0.2290618866682,   0.2005251497030,   0.1310240030289,  -0.0474448949099,  -0.1790450364351,   0.1798599362373,  -0.0509052053094,   0.1391334682703,   0.2938946783543,   0.2044456899166,  -0.0687498673797,  -0.0427488870919,  -0.0565137788653,   0.1556857079268,   0.1403823345900,   0.1133898422122,  -0.0106772212312,   0.0952752083540,   0.3147708773613,   0.0492197014391,   0.3290318250656,  -0.2917343378067,  -0.3202919065952},
   {   0.2191153764725,   0.1574051231146,   0.0682857558131,  -0.0208081677556,  -0.2253060489893,  -0.2307121157646,  -0.0026774310973,   0.1969406157732,  -0.0856682434678,   0.0126546910033,  -0.1188045442104,  -0.0872370228171,   0.2643506526947,   0.3005844354630,   0.0063187228516,   0.0732660219073,   0.3914085328579,  -0.0445330552757,   0.1279742419720,   0.2214670181274,   0.0036664488725,   0.1629498153925,  -0.0257408078760,  -0.2301976233721,   0.1212617009878,   0.0660273879766,   0.1159893795848,  -0.2552523314953,  -0.1401682347059,   0.0613769255579,  -0.2166676670313,   0.2706293165684,  -0.1997443586588,  -0.1486554890871,  -0.1322701275349,   0.2236295640469,  -0.1465828716755,  -0.1315953731537,  -0.1010093018413,   0.3025897145271,  -0.1221977472305,   0.1185021251440,   0.2072424143553,  -0.2514323294163,   0.2948997318745,   0.0394868701696,   0.2825445532799,   0.1778238117695,   0.2164997905493,   0.1480894535780},
   {  -0.1702044010162,   0.1687984019518,   0.1591950505972,   0.2173281461000,  -0.4247081279755,   0.2006789892912,   0.3110941052437,  -0.1495503932238,   0.0509844981134,  -0.1774915754795,  -0.0245763864368,  -0.1179179474711,  -0.0675701647997,  -0.1004843935370,   0.1392772346735,  -0.2668971419334,  -0.1606176048517,   0.0459780618548,   0.0073870299384,  -0.0555271171033,  -0.1137261986732,   0.0933075770736,   0.0356614366174,   0.2287514507771,   0.0249787680805,   0.2505938410759,  -0.2214472591877,   0.1996289491653,   0.1856092065573,   0.0185916405171,   0.2403235435486,   0.1319485902786,   0.1769772171974,   0.1736388802528,  -0.0125828552991,  -0.3114776909351,   0.0256628878415,   0.1697679907084,  -0.0071656703949,  -0.1997763812542,  -0.1182337477803,   0.2473536133766,  -0.1198342517018,   0.2381390929222,  -0.3815368115902,  -0.2122201919556,  -0.0942532643676,  -0.0855838730931,   0.3467967510223,   0.1334438472986},
   {  -0.0453773289919,  -0.2065207511187,  -0.0923715531826,  -0.3330354094505,   0.0390255637467,  -0.1012870371342,   0.2297206968069,   0.2361995577812,   0.1221015080810,   0.0080365240574,   0.0418290421367,   0.0173679292202,  -0.2339800149202,   0.0241236723959,  -0.0085000749677,   0.2555714547634,  -0.1047049462795,  -0.0201388448477,   0.0880388543010,   0.0975374057889,  -0.0739863514900,  -0.0442437268794,   0.1849120408297,   0.1368542760611,   0.0628476962447,  -0.1383895128965,   0.0739989727736,  -0.0529571287334,   0.1403587311506,   0.2448719888926,   0.1029204651713,   0.1443440616131,   0.1241080909967,   0.0976123362780,  -0.0212998092175,   0.0669665709138,   0.2184646427631,   0.2172570526600,   0.3064612150192,  -0.1133181154728,   0.0488034076989,  -0.0278569310904,   0.1054522171617,  -0.0455067828298,   0.0799132511020,  -0.3787893652916,  -0.1047221943736,  -0.0944779589772,  -0.1557495743036,   0.2492969483137},
   {  -0.1447447538376,  -0.3961324095726,   0.1488248109818,  -0.1366053968668,  -0.1405802071095,  -0.1462861448526,  -0.1127211973071,  -0.1797911077738,   0.0735349580646,   0.0074079311453,   0.1972537487745,   0.1960809379816,  -0.2002656757832,  -0.3464900851250,  -0.0550587177277,  -0.2380697578192,   0.0008660315070,  -0.2248215377331,   0.2814261615276,   0.0048396051861,  -0.2529562115669,  -0.0224794335663,  -0.2716036438942,   0.1975788772106,   0.1541747450829,  -0.1485168933868,   0.1313985735178,   0.1669716238976,  -0.0461853593588,   0.1002361848950,   0.1991707384586,   0.0649036243558,  -0.0326936021447,   0.2293437570333,  -0.0378821082413,  -0.0362534597516,  -0.0515239797533,  -0.1123519018292,   0.0542155317962,   0.1135733202100,  -0.2543570697308,   0.2587709724903,  -0.0224882736802,   0.2556194663048,   0.0494811795652,  -0.1345440745354,  -0.0414607226849,  -0.1875218898058,   0.2690011858940,  -0.2210570126772},
   {   0.0585331059992,  -0.2248669117689,   0.2586130797863,  -0.1251458078623,  -0.1846417188644,   0.0247561968863,  -0.1424097716808,  -0.3562645316124,   0.0924051553011,  -0.0894557237625,   0.1435230672359,  -0.0466804057360,   0.1754568666220,  -0.3058777749538,   0.1035535410047,  -0.1039882078767,  -0.3687264025211,  -0.2718760073185,   0.2403561770916,  -0.1524507552385,   0.1352981477976,   0.1782597154379,   0.1649186015129,  -0.1005650907755,  -0.1131850257516,   0.1562391072512,   0.0977676585317,   0.2041073292494,  -0.1821810454130,  -0.2361451536417,  -0.0429775305092,  -0.1638098806143,  -0.2615715861320,   0.0997768715024,   0.0683429092169,   0.0198605023324,   0.2626743912697,  -0.0852916911244,   0.1470903903246,   0.0739377513528,   0.0241137146950,   0.2611637711525,  -0.0011226545321,   0.0911456793547,   0.3503262996674,   0.1407538205385,  -0.0722499713302,   0.0404290743172,   0.1884939372540,   0.0238047093153},
   {  -0.1026195064187,  -0.1565250754356,  -0.1403574347496,   0.1258437633514,  -0.3325833678246,   0.0708203166723,   0.1380663216114,  -0.0128221418709,  -0.0408653989434,  -0.3878872990608,  -0.0364515185356,  -0.2270036190748,  -0.0683173164725,  -0.0559190064669,   0.1942790746689,  -0.1960799098015,   0.0944035202265,  -0.0551954880357,  -0.4069740176201,   0.0500627905130,   0.1880639940500,  -0.0283745806664,  -0.1872610598803,  -0.0815619453788,  -0.2102268785238,  -0.1245174258947,   0.0884912163019,   0.0375621542335,   0.0569876767695,  -0.0046490738168,  -0.2586244940758,   0.2209483981133,   0.2519543468952,  -0.0867775455117,   0.2406173199415,  -0.0315858125687,   0.0026633313391,   0.0738152414560,  -0.0142542626709,  -0.0826217681170,  -0.1282150447369,   0.1274395734072,  -0.0092063248158,   0.1594299226999,  -0.1082824170589,   0.1848651766777,   0.2897351384163,   0.0226194653660,   0.1566969007254,  -0.1939900070429},
   {   0.0679111108184,  -0.0444047488272,  -0.2620847225189,   0.2229064851999,   0.1730577796698,   0.2103139907122,   0.1064076274633,  -0.2094021588564,   0.1480893045664,   0.0512134768069,   0.0444333925843,   0.2647745013237,   0.1863310188055,   0.3042115271091,   0.0362265110016,   0.1635249704123,  -0.2985808849335,  -0.0852975919843,   0.3100114464760,   0.1876328587532,   0.2333226352930,   0.0688583999872,  -0.1571864485741,   0.1656149625778,  -0.1609557718039,   0.2389990836382,   0.0195928402245,  -0.0591404438019,  -0.0321523547173,  -0.5790163278580,  -0.0869706571102,  -0.0388293527067,  -0.1550091058016,  -0.1309721022844,   0.0724550336599,   0.2873438596725,   0.1252896338701,  -0.0513469465077,   0.2034970670938,   0.2417391538620,  -0.0445704907179,  -0.0030438373797,  -0.1478953808546,   0.1017944887280,   0.1696900129318,   0.1544113308191,  -0.2703089118004,  -0.0174621604383,  -0.0182172842324,   0.1053540632129},
   {  -0.1834380477667,   0.1439244747162,   0.1812758296728,  -0.1623864322901,  -0.3148383200169,   0.2245367169380,  -0.0097482707351,   0.2028824388981,   0.1820791214705,  -0.2157464027405,  -0.1520788222551,   0.1322653293610,  -0.0699498504400,  -0.0928940251470,  -0.0946393534541,  -0.3746809065342,  -0.7186593413353,   0.1872318387032,   0.0364097692072,  -0.1213498786092,   0.0692783445120,  -0.1598750203848,   0.1688305288553,   0.0027874836233,   0.1382740437984,   0.0290518514812,  -0.0930199846625,   0.2790761291981,  -0.1761969029903,  -0.0000174605484,  -0.1237160265446,   0.1616522222757,  -0.3667505681515,   0.1748909354210,   0.2810710668564,   0.1306027621031,  -0.2708837687969,   0.0563970506191,  -0.0409023091197,  -0.1531063914299,  -0.1961060762405,   0.2601140737534,  -0.1566627025604,   0.1812532395124,  -0.0551629327238,   0.3797711730003,  -0.1172773092985,  -0.1233122274280,   0.0753929615021,  -0.0893804654479},
   {   0.2060990929604,   0.3150145411491,  -0.0691710785031,   0.1260452568531,  -0.0590330623090,   0.1169874966145,   0.2302011400461,   0.1096279397607,  -0.0999691784382,   0.1705255806446,  -0.0373848602176,  -0.0996563583612,   0.1596012860537,   0.1003435105085,  -0.1154826059937,   0.1152280792594,  -0.0645989403129,  -0.2726316154003,   0.5695201754570,   0.1609952747822,  -0.0393401496112,   0.0952868461609,   0.2647923827171,  -0.0202836077660,  -0.1417497396469,   0.0890301242471,   0.1208815574646,   0.1475511491299,  -0.3681679964066,   0.1942651718855,  -0.0856188461185,   0.2305570691824,  -0.0243556629866,  -0.0000194238492,  -0.0068829772063,   0.2050875872374,   0.0453487746418,  -0.1190643608570,  -0.1266377717257,   0.2652138173580,   0.0693733394146,   0.1657627969980,  -0.0691209882498,   0.0046755722724,  -0.2887772917747,   0.1562440544367,  -0.1691715866327,  -0.2689189016819,  -0.2170266807079,  -0.0174880586565},
   {   0.0568419583142,   0.1557574421167,  -0.2414053678513,   0.0553631186485,  -0.3404442667961,   0.2482537031174,  -0.0699694007635,   0.0423780791461,  -0.0879864543676,   0.1157469153404,  -0.0249371621758,  -0.1248361691833,  -0.0848610922694,   0.3298168480396,   0.3519149720669,   0.0224511399865,  -0.4595035910606,  -0.3604530990124,   0.0259202737361,  -0.1453143507242,  -0.3121990263462,  -0.0210171155632,   0.1338537186384,  -0.1471707969904,  -0.2002521902323,  -0.0404438748956,   0.2343183755875,   0.0939416587353,  -0.0411670207977,  -0.1993899494410,  -0.1403272151947,  -0.2050391584635,  -0.0878005176783,  -0.0281459279358,   0.3463897109032,   0.0602605529130,  -0.1468839049339,   0.1143116578460,   0.0768039822578,   0.2709719240665,   0.0365328527987,  -0.2656138837337,   0.2282738238573,  -0.1129933893681,  -0.0661940276623,  -0.1432053446770,   0.0905240848660,   0.2051709741354,   0.1435068398714,  -0.2100488990545},
   {  -0.1593613326550,   0.0342435613275,  -0.1188400611281,  -0.2570413351059,   0.0898265913129,   0.1991133540869,   0.1782933324575,   0.1891736537218,   0.2711824476719,   0.0058255083859,   0.1781823933125,   0.1274619847536,   0.1523694694042,   0.1976371854544,   0.1670899838209,  -0.0296429581940,  -0.2723881304264,  -0.0546646565199,   0.0547725856304,   0.2605463862419,  -0.0855180621147,   0.0821460410953,  -0.0925101563334,  -0.1175062581897,   0.0250337775797,  -0.2158471345901,   0.2243085354567,  -0.1423929929733,  -0.0128208035603,  -0.0416226983070,   0.1465388387442,   0.1364839375019,   0.2596807181835,   0.0380834192038,  -0.1848697066307,  -0.1604523658752,   0.1053385138512,   0.0543714798987,  -0.0546446815133,   0.0254389867187,  -0.1124546453357,   0.0116878384724,  -0.0472123213112,   0.3302797079086,   0.1718162596226,  -0.0422353968024,   0.0897495225072,   0.0251723993570,   0.0674632117152,   0.0697353109717},
   {   0.2980774044991,   0.4301173388958,   0.0213017184287,  -0.1121418625116,   0.1998200267553,  -0.5245694518089,  -0.1844954937696,  -0.3515049517155,  -0.2855858206749,  -0.1955503523350,   0.3207308053970,  -0.1695090830326,  -0.1174909770489,  -0.1883134096861,  -0.0096580646932,  -0.1592723429203,  -0.2655706405640,  -0.2986837327480,  -0.2084070891142,   0.0871446579695,   0.2486161887646,   0.0776961892843,   0.3007704019547,   0.0300435870886,   0.2316490262747,   0.1686970442533,   0.0390215553343,   0.2801063358784,   0.1262426376343,  -0.0433586016297,   0.1235584691167,   0.0876151323318,   0.3499984741211,  -0.2872336208820,  -0.1354470103979,   0.0340802855790,   0.0140507649630,   0.1033925712109,   0.2371887415648,  -0.1754768192768,  -0.1981400847435,  -0.0553646981716,  -0.0105967856944,   0.5175815224648,  -0.0467555597425,   0.2812091410160,  -0.0795190855861,   0.3438360393047,  -0.3158670067787,  -0.1186394020915},
   {   0.0784233585000,   0.0071467156522,   0.2166264951229,   0.1306719034910,   0.1070706620812,   0.1767104417086,  -0.0571522377431,   0.0275315511972,  -0.1327160447836,   0.0924057215452,   0.0607312992215,  -0.2429030239582,   0.0250519830734,  -0.4943965971470,   0.2311645299196,   0.0841616094112,  -0.1327364891768,  -0.1012423411012,  -0.4881708920002,  -0.1945367455482,  -0.1316269934177,  -0.1890414208174,  -0.0413573086262,   0.2103435248137,  -0.1308312714100,  -0.1442472636700,  -0.0959382578731,  -0.1341474652290,   0.0371096804738,  -0.2128180861473,  -0.1772555410862,  -0.0213360805064,  -0.2022609561682,   0.0422316715121,   0.1913910955191,  -0.0954237282276,  -0.1296102255583,   0.1383442282677,   0.0276035629213,  -0.2144947648048,  -0.2183995991945,   0.2814237773418,  -0.2049251943827,  -0.2259792983532,  -0.2063265889883,   0.2099380791187,   0.1003636494279,   0.0548067614436,   0.0140557531267,  -0.0842654034495},
   {  -0.0407320745289,  -0.0398468896747,  -0.0310244113207,  -0.2542043924332,  -0.2224291414022,   0.1770439743996,  -0.1094598621130,  -0.0183666329831,  -0.0952623933554,  -0.2108636498451,   0.0851402133703,   0.0242468770593,  -0.0659078061581,  -0.1196106448770,   0.2397711127996,  -0.1998076140881,   0.1876848042011,  -0.2637222707272,   0.3364951908588,  -0.1367469727993,  -0.2585438191891,  -0.2039316743612,  -0.0519773587584,   0.1503471583128,  -0.0197220630944,  -0.0809975638986,  -0.0078649930656,   0.1968511492014,   0.2343757748604,  -0.1503381431103,  -0.2006888091564,  -0.1614576131105,  -0.1467128545046,   0.1697855144739,   0.2777106761932,  -0.0091261891648,   0.0795115679502,  -0.0404278263450,  -0.2625274658203,   0.0886809304357,   0.0158194191754,  -0.0629211887717,   0.0810170695186,   0.0650319829583,   0.1544117927551,  -0.2588754296303,   0.1395137757063,   0.0408527329564,   0.1732764840126,  -0.0045137135312},
   {   0.1122435256839,  -0.2742959558964,  -0.0583781339228,   0.1942414343357,  -0.2343886792660,  -0.2490313351154,  -0.1604242175817,   0.2474623918533,   0.0240697711706,   0.0406732931733,   0.0195952169597,   0.2469829022884,   0.1205667927861,  -0.2507562935352,  -0.0140732964501,   0.1199371740222,   0.0396642908454,   0.0736850947142,   0.3626972734928,  -0.0292619057000,   0.1441155970097,  -0.0183736514300,  -0.1017093807459,   0.1362666487694,   0.1504878252745,  -0.1882004141808,   0.1747604608536,  -0.1948272436857,   0.0387830249965,  -0.0755880400538,   0.0243855156004,  -0.0421493612230,   0.2250795811415,  -0.1895107328892,  -0.0390795320272,   0.1945152282715,  -0.1113834902644,   0.1641459017992,   0.1678816080093,   0.0444023273885,  -0.1767394840717,  -0.0486570149660,   0.3783754706383,   0.1519258618355,  -0.2234103232622,  -0.3006522059441,  -0.2126632779837,   0.2131572961807,   0.1573889404535,   0.1141183972359},
   {  -0.2643319368362,  -0.1896121501923,   0.1660617440939,  -0.0574451349676,   0.0209009256214,  -0.0501338504255,   0.0471185781062,  -0.1884205639362,   0.1892891824245,   0.1396592408419,  -0.1227954179049,  -0.1280704438686,   0.1835629791021,  -0.2925131320953,  -0.0665976479650,   0.2855482995510,  -0.6899826526642,  -0.1528485268354,  -0.1264836639166,  -0.2308198660612,   0.1089011728764,  -0.2034098803997,  -0.1425531953573,   0.0310426633805,   0.2689900994301,  -0.0686383545399,   0.1544454395771,   0.0202716048807,  -0.0118361078203,   0.0186842717230,  -0.1581958085299,  -0.2173080295324,   0.1123946383595,   0.1657218635082,  -0.0598581843078,   0.1672584563494,  -0.2453966140747,  -0.1708897203207,  -0.1768343150616,  -0.1617804616690,   0.0649170726538,  -0.2620473206043,  -0.2456770390272,  -0.0980384275317,  -0.2375597655773,   0.0983455553651,  -0.0916703417897,   0.2192256450653,   0.1341006606817,   0.1093697920442},
   {  -0.1275420337915,  -0.1395978033543,  -0.1484850794077,   0.1314152777195,  -0.2173119932413,   0.2186533957720,   0.1757515966892,   0.2228504121304,   0.0574914552271,   0.1682218611240,  -0.0920771658421,   0.0092038428411,  -0.0517646111548,   0.0201837494969,   0.0360473506153,   0.3529141843319,   0.4383987784386,   0.2327351719141,   0.1231939122081,  -0.2106055617332,  -0.0303061287850,   0.2964363396168,  -0.1227840036154,  -0.0698007866740,   0.0728978738189,  -0.1324022859335,  -0.0588655397296,   0.1388503909111,   0.0850289538503,   0.0808989629149,  -0.1519289016724,   0.2456261813641,  -0.0628002509475,  -0.1275769621134,   0.0869658738375,   0.0626306906343,   0.1255904287100,  -0.1510491222143,   0.2227812856436,   0.1462104618549,  -0.2461921721697,   0.1215455532074,   0.1036004200578,   0.0307908579707,   0.2288539409637,   0.1193672195077,   0.2349568605423,   0.2410964071751,   0.2866497337818,   0.0270451437682},
   {   0.2163335829973,  -0.0052734264173,   0.3306629061699,   0.2547427713871,  -0.0713459476829,  -0.2487309277058,  -0.1637821942568,  -0.1677087992430,  -0.2997616529465,   0.3222044110298,  -0.0654320567846,   0.0200838893652,   0.2344895005226,   0.2189677953720,   0.0436265952885,   0.0685504898429,  -0.4702837765217,   0.1632704883814,  -0.0536042526364,  -0.3698387145996,   0.1476151645184,   0.3005824685097,  -0.0874544084072,   0.0343837961555,   0.2129448056221,   0.1356354653835,   0.0171005129814,  -0.2235715985298,  -0.1310280412436,   0.0834964588284,   0.3230193853378,   0.3596277832985,  -0.0455481819808,  -0.0361733622849,   0.3071115314960,  -0.0626298040152,   0.2767013609409,   0.1106024757028,   0.0089590512216,   0.1903433948755,   0.2325848788023,  -0.1477174311876,  -0.0368930436671,  -0.2985577285290,  -0.1089722514153,  -0.1404075473547,  -0.0550166293979,   0.1092912852764,  -0.1156441122293,   0.3046104311943},
   {   0.2628698945045,   0.2198858261108,  -0.1657929569483,   0.3390227556229,   0.4374368190765,   0.0984265580773,   0.2807086706161,   0.0762534886599,   0.1158815175295,   0.2166596949100,   0.0714051052928,   0.2018571496010,  -0.0545070506632,   0.0808297768235,   0.1367792636156,  -0.0354408286512,  -0.0021441387944,  -0.0174823366106,  -0.1991742700338,  -0.1257477253675,  -0.1001154035330,  -0.1946106404066,   0.1949204802513,  -0.1236367374659,  -0.0346526466310,  -0.0802659690380,  -0.0055189719424,   0.1672019660473,  -0.1097248643637,   0.1220759376884,  -0.3128255605698,  -0.3767545223236,  -0.0988025814295,   0.0634911656380,   0.0405749045312,   0.0858759433031,   0.0957664623857,   0.0300035607070,  -0.1874801367521,   0.1335282623768,  -0.0497331917286,   0.0108989514410,  -0.1037696599960,  -0.0190028380603,  -0.2004709988832,  -0.1212561801076,   0.1687099188566,   0.1365180313587,   0.1991578340530,   0.2547608315945},
   {  -0.2597976922989,   0.3493073880672,  -0.3138569891453,   0.2658146619797,   0.2006259113550,  -0.1258947551250,  -0.1996529847383,  -0.2337729930878,   0.1918883025646,   0.0364024564624,   0.0789064094424,  -0.1686045527458,   0.2780786156654,  -0.0438448674977,  -0.2008790820837,   0.0955372005701,  -0.1519610285759,   0.0695356726646,   0.0958020687103,  -0.2158428281546,   0.1220479905605,   0.2582538425922,   0.0473293140531,  -0.1938226372004,   0.1939135789871,  -0.1628740876913,   0.1508363187313,  -0.2754970788956,  -0.1170881241560,   0.0678588673472,   0.1165234073997,   0.0071040783077,   0.0423743501306,  -0.2135643362999,   0.1324474662542,   0.2825460731983,  -0.0209778230637,   0.1343223899603,   0.2594571709633,  -0.1288758814335,   0.3408535718918,   0.4133599996567,   0.0047410270199,  -0.2607977688313,   0.1916495263577,   0.0003123083152,   0.0086386837065,   0.0112984525040,  -0.1885532587767,  -0.0435989499092},
   {   0.4410048425198,  -0.2356688529253,   0.1584613472223,  -0.1417758315802,   0.2343281954527,  -0.0021560126916,   0.2824242413044,   0.0656777918339,  -0.0037315462250,  -0.5173529982567,   0.0059437667951,   0.0371315032244,   0.2213406711817,   0.4196657538414,   0.1123495921493,   0.1054502353072,  -0.2134126722813,   0.0858244448900,   0.0864212438464,   0.2125820219517,   0.1594547331333,  -0.0673429369926,  -0.0080748787150,   0.0299301538616,   0.0154153816402,  -0.0397728048265,  -0.1192425861955,  -0.1200344040990,   0.0117139145732,  -0.1407635360956,  -0.0660667568445,   0.1494088619947,  -0.1579066812992,   0.3006580173969,   0.0841793790460,   0.0409691445529,  -0.3164662420750,   0.0996291339397,   0.0974932387471,   0.0989191830158,   0.1648542881012,  -0.2753148078918,   0.0045426050201,   0.1106656789780,   0.0906702056527,  -0.3388555943966,   0.1226275712252,  -0.1854064613581,  -0.1943697780371,  -0.0442564077675},
   {  -0.1414597481489,   0.2655061185360,  -0.1496927440166,  -0.2451361417770,  -0.3457661271095,   0.1014251783490,   0.0238132961094,  -0.1231202781200,  -0.3050579428673,  -0.0961411446333,   0.0182847008109,   0.1878568232059,   0.1738476157188,   0.0215471610427,   0.0632425397635,   0.0680114030838,   0.2656674385071,   0.1153815686703,  -0.2224496304989,   0.1898172348738,   0.0334960147738,  -0.0668623000383,   0.1442791074514,   0.1404912173748,   0.2887965440750,   0.1581156849861,  -0.0301494486630,  -0.1919466555119,  -0.1310458630323,   0.1621699631214,  -0.0438264831901,  -0.4966052472591,  -0.0743415877223,  -0.0864815562963,  -0.0216020569205,   0.2001809477806,   0.1839719414711,  -0.1715611964464,   0.0916230231524,  -0.3136829435825,  -0.1387868970633,   0.2269309759140,   0.0659361854196,  -0.2009977549314,  -0.1009535565972,   0.0013351265807,   0.1655016243458,  -0.2125161588192,   0.0060311090201,  -0.0877158120275},
   {   0.1804764270782,   0.2623082101345,   0.1519982218742,   0.2753696441650,   0.0287246927619,  -0.0592975951731,  -0.1163667589426,  -0.2940122485161,  -0.0304489657283,  -0.2155357599258,   0.2494920492172,   0.3112710416317,  -0.1939458847046,  -0.2217311710119,   0.2135871797800,  -0.1567005068064,   0.1150280535221,  -0.0443530082703,   0.0515101253986,  -0.1020849272609,   0.0670481845737,  -0.0588365159929,  -0.0002954099036,  -0.0827978998423,   0.1320468485355,  -0.0576823838055,   0.0713639631867,   0.0534528493881,   0.0343582145870,   0.0662279725075,  -0.1068766266108,   0.2557001113892,   0.3127371668816,  -0.1219820529222,   0.0383042022586,  -0.0798639655113,   0.1206049025059,   0.0820569843054,   0.1944781243801,   0.1502617448568,   0.3047844469547,  -0.2071094661951,  -0.0064130444080,  -0.2070869952440,   0.0440743081272,   0.0463425442576,   0.2121002674103,  -0.3171840608120,  -0.1417213678360,   0.1738100647926},
   {  -0.1476886570454,  -0.2550505101681,  -0.4796104431152,   0.0316327661276,   0.1066385358572,  -0.1307652443647,  -0.1388292759657,   0.4105661213398,  -0.1563452184200,   0.1926133632660,  -0.2098831087351,   0.1765485107899,   0.1221583858132,   0.2344941049814,  -0.2142758816481,   0.3276430666447,   0.1227877065539,  -0.1654716581106,  -0.0709010288119,   0.0158944223076,   0.1971590667963,   0.2765255272388,   0.0712090507150,   0.0498152263463,   0.3018201291561,  -0.0745441168547,   0.2623335421085,   0.1121589988470,  -0.2335345596075,  -0.0538622401655,  -0.1794986724854,  -0.2631123661995,  -0.0257309917361,   0.0525518469512,  -0.1175354123116,   0.2981004714966,   0.2797552645206,  -0.0466637983918,   0.2754923701286,   0.2674246132374,   0.0823079571128,   0.0408270061016,   0.2524445652962,  -0.2070439457893,   0.2026278823614,  -0.0158008001745,  -0.1649219989777,  -0.0444786846638,   0.0764717608690,  -0.1407314091921},
   {  -0.1429222077131,  -0.3196546137333,   0.1386667937040,   0.0448330268264,   0.0778809338808,  -0.0350485853851,   0.0773255676031,  -0.1613554805517,  -0.1578088998795,   0.0891629010439,   0.2664437294006,   0.0146598545834,  -0.0594783872366,  -0.5210248231888,   0.1551770865917,   0.1622365862131,  -0.4933108985424,  -0.1465713083744,   0.1128799021244,  -0.2430728971958,   0.0348627790809,   0.2450351566076,  -0.0661462098360,   0.1676557660103,   0.1979916840792,   0.0044559626840,  -0.0140625173226,  -0.0157813504338,   0.2602926790714,   0.1858619153500,   0.0197386983782,   0.1837528795004,   0.0542071498930,   0.1086282655597,   0.2116207927465,  -0.0934242904186,  -0.0509473346174,  -0.0099844569340,   0.0592433474958,   0.0950386747718,   0.1800082474947,  -0.0707673802972,  -0.0446981675923,  -0.1097437664866,   0.0890853181481,   0.1486945003271,   0.1296641230583,   0.1064517945051,   0.0328946001828,  -0.1446597874165},
   {  -0.2777744531631,   0.2421652078629,  -0.0258933119476,   0.2846862375736,   0.1552206724882,   0.1027752980590,   0.2421212792397,   0.0801564455032,   0.1385245025158,   0.1461870223284,   0.0643906667829,   0.0778740122914,  -0.0349307022989,  -0.2281673848629,  -0.1507541239262,   0.0618229918182,  -0.3059842586517,  -0.1145109832287,  -0.0236969720572,   0.1476507782936,   0.0478917807341,  -0.1169131770730,   0.0148058179766,  -0.2223697155714,   0.1695569455624,   0.2613482475281,   0.0708105862141,   0.1840326637030,  -0.1700887680054,  -0.3023473918438,  -0.5022277235985,  -0.1686405688524,  -0.2610557973385,   0.0098760053515,  -0.1586695760489,   0.3387678265572,   0.2109336405993,   0.1235487535596,   0.2457410395145,   0.0198210589588,   0.0354861989617,  -0.1229924857616,  -0.1095312312245,  -0.1189509257674,   0.1115733832121,  -0.0706476941705,   0.0435985103250,  -0.0445257201791,  -0.2752614021301,  -0.0464267097414},
   {   0.1916209757328,  -0.0840004086494,   0.1830607205629,  -0.1297156214714,  -0.1498019099236,   0.0102753173560,  -0.1494620442390,   0.2116322070360,   0.0118104321882,   0.0239709708840,   0.1920039206743,   0.0341154709458,   0.0164600461721,  -0.1660334467888,   0.3117039799690,  -0.0864456072450,  -0.0850514695048,   0.0714929327369,  -0.2749136388302,   0.2200863808393,  -0.1177557706833,  -0.1262964010239,   0.0732576176524,   0.1214183568954,  -0.0458502843976,   0.2298637777567,  -0.0045201894827,  -0.0076565509662,   0.1842117309570,  -0.2164517492056,   0.0697947889566,   0.0481361858547,   0.0581580884755,   0.2241503596306,   0.1638743877411,   0.1554289013147,  -0.2521660625935,   0.1022942364216,   0.0136598479003,   0.2120508104563,  -0.0844339877367,  -0.0723155885935,   0.1179885193706,   0.1082719415426,   0.1688552051783,  -0.1026012077928,  -0.0280703864992,   0.0292926020920,  -0.1047014296055,   0.0820044502616},
   {  -0.1277408897877,   0.3260794878006,   0.0884525850415,  -0.1276818513870,  -0.1292514652014,   0.2076249420643,  -0.0317349843681,  -0.0489254258573,  -0.2267544567585,  -0.0344259627163,   0.1400782614946,  -0.0428350046277,  -0.2696136832237,  -0.0047771586105,   0.1074890494347,  -0.3605605959892,   0.3472909629345,  -0.2175291180611,  -0.3101249635220,  -0.1745253950357,   0.1530136317015,  -0.1290040165186,   0.1303290724754,   0.0890099704266,  -0.2957445681095,   0.0507795065641,  -0.1575882881880,  -0.1708359271288,  -0.0262491777539,   0.2498993724585,  -0.2413345277309,  -0.2667751610279,   0.0935293659568,   0.1232912465930,  -0.1374799758196,  -0.0907408222556,  -0.2424896508455,  -0.0653620585799,  -0.2416278272867,  -0.2437782138586,   0.2168796658516,   0.1961729079485,   0.0192516893148,  -0.1289086788893,  -0.0249837841839,  -0.0744237080216,  -0.2601208090782,   0.2961556017399,   0.2574314475060,  -0.3035979270935},
   {  -0.0482490397990,   0.2005619853735,   0.0032993170898,   0.1858244836330,  -0.1738685667515,  -0.1049263179302,  -0.2710091471672,   0.1156072616577,   0.1227838471532,   0.2096387743950,  -0.0398574434221,   0.2456528395414,  -0.0320192091167,  -0.1882441043854,   0.2286912947893,   0.0561211295426,   0.1565146893263,  -0.0927563756704,  -0.0006254563923,   0.1616045236588,  -0.1647837609053,   0.0470040477812,  -0.1598041355610,  -0.0519321709871,   0.1261203736067,  -0.1235181093216,   0.3113543987274,   0.1424554288387,  -0.0439527817070,  -0.1574933975935,   0.2728233933449,   0.2338685244322,  -0.1060059517622,  -0.0558671168983,  -0.0725988745689,  -0.1020910143852,   0.1116602271795,  -0.3092956840992,  -0.1515904814005,  -0.1703994274139,   0.1882182657719,  -0.1737667471170,   0.3419694304466,   0.0406450517476,  -0.1089859530330,  -0.0076629766263,   0.0596850179136,  -0.3105515241623,   0.0172233693302,   0.0739377066493},
   {  -0.1218596398830,  -0.0573311038315,   0.1016981229186,  -0.2456557601690,   0.3344351947308,   0.2883116304874,  -0.0500368960202,  -0.2839846909046,  -0.1175953075290,  -0.2117944508791,  -0.0259689185768,  -0.2182222008705,  -0.0914978235960,   0.2378336638212,  -0.1827133148909,   0.1175187826157,   0.0171411335468,  -0.1081791669130,  -0.2667577266693,  -0.3891641497612,  -0.0100479377434,   0.0727638229728,   0.0603498518467,  -0.2768960297108,  -0.2153119295835,  -0.1115497797728,   0.0077588916756,   0.3057640492916,  -0.0403108224273,   0.1909139305353,   0.0604410842061,   0.1116785481572,   0.1276280879974,  -0.0430378653109,  -0.0463347174227,   0.0008363001398,  -0.0776754096150,   0.0979580283165,  -0.0388949066401,  -0.0111592980102,   0.0817614197731,   0.2893341481686,  -0.2202140241861,  -0.1098348349333,  -0.2817817926407,  -0.1764434278011,   0.0528240762651,   0.0241172853857,   0.2426608055830,   0.0987283736467},
   {   0.0328079797328,  -0.0867157503963,   0.0462432801723,  -0.1168131306767,   0.4391093552113,   0.1841982603073,   0.0894492045045,   0.2428935319185,  -0.1496651619673,   0.0276761669666,  -0.1511873900890,  -0.0287718102336,   0.2190359979868,  -0.5463900566101,   0.0017456256319,  -0.1318756639957,   0.0195182673633,   0.1151923388243,  -0.1178900301456,   0.0215769894421,  -0.1499816626310,  -0.1723316460848,  -0.2421715259552,  -0.0023578004912,   0.0124175902456,   0.1742064058781,  -0.0359105505049,   0.1625182926655,   0.0938450023532,   0.0500003136694,   0.0430950336158,  -0.0372584648430,   0.2426744103432,   0.0359897986054,   0.4487897753716,   0.0011977677932,  -0.0120971892029,   0.1705560237169,   0.0520011894405,  -0.0852444022894,   0.1699817627668,   0.0218535326421,  -0.0296754054725,  -0.0309847537428,   0.0628037378192,  -0.0926926657557,   0.0739780440927,   0.2245572209358,   0.0559951178730,   0.1133786141872},
   {   0.1879714578390,   0.0508496686816,  -0.0448546595871,  -0.1994293928146,   0.0401991568506,   0.1413111239672,   0.2267736196518,   0.0856991037726,  -0.2017811238766,  -0.2077154815197,   0.2469756901264,  -0.0954813510180,   0.0431343130767,   0.1583314687014,   0.2327525913715,  -0.3401510715485,   0.1631340831518,   0.1748637706041,  -0.0396521463990,  -0.0281215272844,   0.2155456840992,  -0.2586731314659,   0.0050020432100,   0.1912876516581,  -0.2751205563545,  -0.0772490203381,  -0.0547694563866,  -0.1705748736858,  -0.0634520351887,  -0.2293653488159,   0.1104452982545,  -0.1564100086689,  -0.2150840759277,   0.2167290449142,   0.2574217021465,  -0.1905040591955,  -0.2434925734997,  -0.1446235477924,   0.1419229954481,  -0.0693676099181,  -0.0054300082847,   0.1321457475424,   0.1548988521099,   0.2022055983543,   0.1553271859884,   0.2312724590302,   0.1052557602525,   0.0518237054348,  -0.0713466703892,  -0.1029321253300},
   {  -0.1970662474632,  -0.1177694723010,  -0.1791309416294,   0.3101675212383,  -0.1890174895525,  -0.3069248199463,  -0.1468133330345,  -0.3180184066296,  -0.0895772054791,   0.2351898998022,  -0.1866470426321,   0.0340588018298,  -0.0158380717039,   0.2015355080366,   0.1305165886879,   0.2141442596912,  -0.2089145779610,  -0.3061397075653,   0.0611937269568,   0.0037949741818,  -0.2059522122145,   0.2467232495546,  -0.0272356886417,   0.1735190004110,   0.0427935309708,  -0.3608750998974,   0.0867713615298,   0.1835212111473,   0.0137484678999,  -0.0374314449728,   0.0731272995472,  -0.0947549864650,  -0.2277296781540,  -0.0354991108179,   0.0015612015268,   0.0654519647360,   0.1274465322495,  -0.1289312243462,  -0.0828153118491,   0.1378079205751,   0.0801376998425,  -0.1502255350351,   0.3259374499321,  -0.2723800539970,   0.2726693749428,   0.0813916847110,  -0.0353139229119,  -0.0920498147607,   0.1253037005663,   0.0411922261119}};
  const float bias_1[50] = {   0.0023715496063,   0.0036028530449,   0.0034376834519,   0.0158099085093,  -0.0215872842818,   0.0401125773787,   0.0547501184046,  -0.1179409101605,  -0.0543356835842,   0.0854747518897,   0.0913532897830,   0.0383919216692,   0.0175184607506,   0.1013348847628,   0.0518052242696,   0.0964413210750,   0.1207347735763,  -0.0125479949638,  -0.1539084911346,   0.0061312178150,  -0.0656739920378,   0.0686088949442,   0.0299189556390,   0.1545631736517,   0.0570210926235,   0.0870291292667,   0.0538227558136,  -0.0982380583882,   0.0768372416496,   0.0215479787439,   0.1686247587204,   0.0742876827717,   0.1823814064264,   0.1320239305496,   0.0629621744156,   0.0671256780624,   0.0568002425134,  -0.0164286084473,   0.0225855819881,   0.0887258276343,  -0.0037374617532,   0.0144548155367,   0.1027729958296,  -0.0236578285694,   0.1382350772619,  -0.2286164462566,   0.0430905930698,   0.0729862898588,   0.0725463852286,   0.0103703979403};
  // Declare the arrays in the stack
  const float kernel_2[50][4] = 
  {{  -0.3290781676769,   0.3050996959209,   0.2937811613083,  -0.1396381705999},
   {  -0.4114555716515,   0.0323319584131,  -0.5171709656715,  -0.0440981425345},
   {   0.0058582541533,  -0.2857964336872,  -0.1326751112938,   0.0888676121831},
   {  -0.4667311012745,   0.0216292440891,   0.1246506273746,   0.0114033594728},
   {   0.3339849710464,   0.0499742664397,   0.5721052289009,  -0.1759594976902},
   {   0.2408080101013,   0.0931134521961,  -0.4232245087624,   0.2652743160725},
   {   0.1850301325321,   0.2200761288404,  -0.3311079740524,  -0.1680682599545},
   {   0.1093477234244,  -0.1789670884609,   0.4932310879230,  -0.4607173204422},
   {   0.1868466883898,   0.3750818073750,  -0.3871983885765,  -0.1116119101644},
   {  -0.4205306768417,  -0.3919605016708,  -0.0788652002811,   0.1032101586461},
   {   0.0566010996699,  -0.0632451325655,  -0.1898426711559,  -0.3355945050716},
   {  -0.2562566995621,  -0.3514339029789,   0.1010479182005,  -0.0976603329182},
   {   0.1985886394978,   0.0039211176336,   0.0818181708455,   0.2314420789480},
   {  -0.1121197566390,  -0.4147469103336,   0.0610019974411,  -0.2809562087059},
   {   0.0572765655816,   0.0592461079359,   0.1268901079893,  -0.4726905226707},
   {  -0.3215177059174,  -0.4752525091171,   0.2471116930246,   0.2408655732870},
   {   0.0415630452335,  -0.3828053176403,   0.9100803732872,  -0.7340168952942},
   {   0.0749086365104,   0.1289058774710,   0.4923414587975,   0.0143526867032},
   {   0.3699728846550,  -0.6766459941864,   0.6335628628731,  -0.1538023501635},
   {   0.0174553431571,   0.3160907626152,  -0.3646371066570,  -0.0493974760175},
   {   0.0354946553707,   0.2747990489006,  -0.0359374433756,   0.1559250354767},
   {  -0.3268944323063,  -0.3433718979359,   0.2739006280899,   0.0334512367845},
   {  -0.3273026049137,   0.2175347208977,   0.0053737801500,   0.1814377605915},
   {   0.1509826332331,  -0.2955890595913,  -0.1356048882008,   0.0873706042767},
   {  -0.1077571511269,  -0.2044508159161,   0.3768371045589,   0.1081410273910},
   {   0.4849364161491,   0.3574064075947,  -0.3746615648270,  -0.3889994025230},
   {  -0.1308469623327,  -0.0370945483446,   0.3396456539631,   0.0916547924280},
   {  -0.2226587533951,   0.2189780771732,   0.2546523809433,  -0.1131678819656},
   {   0.3665456473827,   0.0959877446294,  -0.5159377455711,  -0.3612358272076},
   {   0.0212464295328,  -0.3251291513443,   0.4813696146011,  -0.3379396498203},
   {   0.0915466174483,  -0.3538303077221,  -0.4188270866871,  -0.0702050924301},
   {   0.3167731165886,  -0.5228149294853,   0.1814460605383,  -0.1150535270572},
   {   0.4456727802753,  -0.3658938109875,   0.0990683436394,  -0.4400979280472},
   {   0.3514953553677,  -0.1288915872574,  -0.3110193610191,   0.1103046238422},
   {   0.1111588999629,   0.3212016224861,  -0.1285330355167,  -0.2501872777939},
   {  -0.2148603647947,  -0.0988575816154,   0.3473157286644,   0.2749595344067},
   {  -0.3276093304157,  -0.3346401154995,  -0.0806051269174,   0.2308230251074},
   {   0.1080670431256,   0.3269732892513,  -0.3152695894241,   0.0196547657251},
   {  -0.2866995632648,  -0.0791292935610,   0.0560951866210,   0.3408303558826},
   {  -0.1181515380740,  -0.3838834166527,   0.2292807251215,  -0.0771324485540},
   {  -0.3374451696873,   0.2920657694340,   0.0138425100595,   0.2976085245609},
   {  -0.1502999961376,   0.3505895733833,  -0.2071491479874,   0.3590067028999},
   {   0.2023799717426,  -0.2773927450180,   0.3194310963154,   0.2761220037937},
   {   0.0115415174514,  -0.1769924014807,   0.0731473341584,  -0.2802303135395},
   {   0.0710157305002,  -0.0400926545262,  -0.0575797148049,   0.2576159238815},
   {  -0.4195725321770,   0.0296073667705,   0.1602208763361,  -0.2300644367933},
   {   0.4772682785988,  -0.2446787506342,  -0.3397534787655,   0.3165954649448},
   {   0.1607868820429,   0.1954671144485,  -0.1118247061968,  -0.3403709828854},
   {   0.2895929813385,   0.3671204149723,   0.0404739975929,   0.2029441595078},
   {  -0.2338112443686,   0.0938128232956,   0.2636643648148,   0.2333469390869}};
  const float bias_2[4] = {   0.0083828791976,  -0.0454947166145,  -0.0791498795152,   0.0347556769848};
  float buffer_in[100];
  float buffer_out[100];
  unsigned int i,j,c; 
 float mean[100] = {   3.3321745395660,   0.0087061878294,   1.5361316204071, 545.8381347656250, 332.2727355957031,  94.0457687377930,  75.9757003784180,  70.2423782348633,  -0.0112333036959,  -0.0099744079635, 102.5306625366211,  52.9840698242188,   1.7920699119568,  81.0136489868164,   0.3291062712669, 263.6253356933594, 227.2673339843750, 186.7948455810547, 169.3853454589844,  -0.0059706415050,  -0.0115814628080,  68.5947723388672,  37.8875732421875};
 float sigma[100] = {   1.8165596723557,   1.4598853588104,   0.9072684645653, 617.7252807617188, 141.2268829345703,  17.6185054779053,  74.5302352905273,  44.8462448120117,   2.1544544696808,   2.5192081928253,  66.1840744018555,  25.5250854492188,   0.7065998315811,  40.9591140747070,   1.1726225614548, 193.8676605224609, 196.7284393310547, 147.2798004150391, 151.2448120117188,   1.1267998218536,   1.1412587165833,  38.7560462951660,  22.0674476623535};




  // Load the input in the buffer
  for (c = 0; c < 64; ++c) 
  buffer_in[c] = (img[c]-mean[c])/sigma[c];
  // Processing layer 0 

                for (c = 0; c < 50; ++c ) 
                  buffer_out[c] = bias_0[c];

                for (c = 0; c < 50; ++c )
                  for (i = 0; i < 23; ++i)
                    buffer_out[c] += buffer_in[i] * kernel_0[i][c];

                norma_SigSNN = 0;

                // Prepares for next layer 
                for (c = 0; c < 50; ++c )
                  buffer_in[c] = activation_SigSNN_0(buffer_out[c], norma_SigSNN);


                
  // Processing layer 1 

                for (c = 0; c < 50; ++c ) 
                  buffer_out[c] = bias_1[c];

                for (c = 0; c < 50; ++c )
                  for (i = 0; i < 50; ++i)
                    buffer_out[c] += buffer_in[i] * kernel_1[i][c];

                norma_SigSNN = 0;

                // Prepares for next layer 
                for (c = 0; c < 50; ++c )
                  buffer_in[c] = activation_SigSNN_1(buffer_out[c], norma_SigSNN);


                
  // Processing layer 2 

                for (c = 0; c < 4; ++c ) 
                  buffer_out[c] = bias_2[c];

                for (c = 0; c < 4; ++c )
                  for (i = 0; i < 50; ++i)
                    buffer_out[c] += buffer_in[i] * kernel_2[i][c];

                norma_SigSNN = 0;

                for(c=0;c<4;++c)
                  norma_SigSNN+=exp(buffer_out[c]);

                // Prepares for next layer 
                for (c = 0; c < 4; ++c )
                  buffer_in[c] = activation_SigSNN_2(buffer_out[c], norma_SigSNN);


                

      //i = 0;
      //for (c = 0; c < 4; ++c)
      //  if (buffer_in[c] > buffer_in[i])
      //    i = c;
      
      if (flag==0) //vbf
        return buffer_in[0];
      else if (flag==1) //ggf
        return buffer_in[1];
      else if (flag==2) //top
        return buffer_in[2];
      else if (flag==3) //ww
        return buffer_in[3];
      return 0.;
         
      
      //return i;
    
}
