
    // Select all (Ctrl+A), Copy (Ctrl+C), paste to an empty text file (Ctrl+V) and save that file as 'generated_code.h'
    // 
    // Auto-generated header file. Assumes img to be a floating point array
    // of 64 elements (corresponding to an 8x8 b&w image)

    #include <math.h>

    float norma_LL;
    
inline float activation_LL_0 (float x, float n) 
{ return x > 0 ? x : 0;}
inline float activation_LL_1 (float x, float n) 
{ return x > 0 ? x : 0;}
inline float activation_LL_2 (float x, float n) 
{ return x > 0 ? x : 0;}
inline float activation_LL_3 (float x, float n) 
{ return x > 0 ? x : 0;}
inline float activation_LL_4 (float x, float n) 
{ return x > 0 ? x : 0;}
inline float activation_LL_5 (float x, float n) 
{ return x > 0 ? x : 0;}
inline float activation_LL_6 (float x, float n) 
{ return x > 0 ? x : 0;}
inline float activation_LL_7 (float x, float n) 
{ return x > 0 ? x : 0;}
inline float activation_LL_8 (float x, float n) 
{ return x > 0 ? x : 0;}
inline float activation_LL_9 (float x, float n) 
{ return exp(x)/n;  }

    float guess_LL (const float *img, int flag)
    {
    
  // Declare the arrays in the stack
  const float kernel_0[57][50] = 
  {{   0.0205036979169,  -0.1705053746700,   0.1184460595250,  -0.0073169032112,  -0.0719971880317,   0.1518681347370,  -0.0643981322646,  -0.0885246843100,   0.2468004077673,  -0.1415042132139,   0.0156858991832,   0.2290515452623,   0.0880336835980,  -0.0019541715737,  -0.1861477345228,   0.2510767877102,  -0.1222978979349,  -0.0398351997137,   0.0862214341760,  -0.1831116676331,  -0.1995120346546,   0.1969338208437,  -0.0899162217975,  -0.0064646382816,  -0.1143756285310,   0.1255750358105,   0.2211725860834,   0.1029484868050,   0.2004405856133,  -0.1964297443628,   0.1554648727179,  -0.1917765736580,   0.0551400035620,   0.0226931869984,  -0.2294414639473,   0.1819490343332,   0.0108333192766,  -0.1193143948913,   0.0402650013566,   0.1987646371126,   0.1055087968707,  -0.1760869324207,   0.1272477209568,   0.0884783416986,  -0.2127493768930,  -0.0968178808689,  -0.1976157873869,  -0.1972892284393,  -0.2090426981449,   0.0015386950690},
   {   0.1790268421173,  -0.1137249246240,   0.0610458366573,   0.0655713602901,   0.1157852411270,  -0.0784309431911,  -0.1768108755350,  -0.1005553081632,  -0.0795506983995,   0.2459364533424,  -0.0745641365647,   0.1833504289389,   0.0538586899638,   0.1225927099586,   0.0915436968207,  -0.1620948165655,  -0.1651082932949,  -0.0081085721031,  -0.0142605127767,  -0.1618078500032,  -0.1798228323460,  -0.1407244503498,  -0.2028255164623,   0.1528903394938,  -0.1309259533882,  -0.1872289925814,   0.1626706272364,   0.0028035007417,   0.0311006065458,   0.1556034535170,   0.0554562434554,  -0.2327183634043,  -0.0859815403819,   0.0410329699516,   0.0367114990950,   0.1323122531176,  -0.0986067652702,  -0.0859333351254,  -0.1376664936543,  -0.0662691593170,  -0.1079956814647,   0.1359033137560,  -0.2341031581163,   0.0076246992685,   0.1064790561795,   0.0021228299011,   0.1301333606243,  -0.0436798296869,   0.0974637269974,   0.0211869608611},
   {   0.0594229102135,  -0.0496056973934,  -0.0422192700207,  -0.0265586841851,   0.1774561256170,  -0.0099563496187,  -0.1931758075953,   0.0347484238446,   0.1389198601246,   0.0735176205635,  -0.2298474460840,  -0.2361921668053,  -0.0737643688917,  -0.0721110254526,   0.0033041387796,   0.1010468751192,  -0.1164088919759,   0.1582268029451,   0.2093927860260,  -0.1710117757320,   0.0190418995917,  -0.0446313172579,   0.1556645482779,  -0.0644429698586,  -0.1277583241463,  -0.0330875031650,  -0.2095668911934,  -0.0585752166808,   0.0256765764207,   0.2402639836073,  -0.1746575534344,  -0.1463744491339,   0.2030790299177,   0.0651923716068,   0.1459372043610,  -0.1387761831284,  -0.1736120730639,  -0.2197217047215,   0.0989563614130,   0.1660523712635,   0.2096798717976,   0.1311883926392,   0.1823719292879,   0.1798981279135,  -0.0431348644197,   0.1490178555250,   0.0390900075436,  -0.0289029534906,   0.0600738003850,   0.1793548464775},
   {  -0.0274727717042,  -0.0634082853794,   0.1228595003486,  -0.0119075858966,  -0.1505452394485,  -0.0056305448525,  -0.0925804972649,   0.0545432940125,  -0.1828189790249,  -0.0335859805346,   0.1495822519064,   0.0020727205556,  -0.1913554668427,   0.0449445843697,   0.0004310938239,   0.0686374604702,  -0.2197575122118,  -0.1582477688789,   0.1529603749514,   0.1916348785162,  -0.1685817390680,   0.1078083217144,  -0.1228674873710,  -0.1271718889475,   0.0443732775748,   0.2209413051605,  -0.0417345948517,  -0.1294056922197,   0.1941087990999,   0.0128605365753,   0.1650412231684,   0.1743724197149,   0.1666189879179,  -0.1452223807573,   0.0323008708656,   0.1902153640985,   0.1437509059906,   0.1011022925377,  -0.0116987107322,   0.0334724262357,  -0.0145970080048,   0.0184595435858,   0.2267148494720,   0.2154611796141,  -0.1811654865742,   0.0438362956047,  -0.1573859006166,  -0.1213730350137,  -0.1562983691692,  -0.2056798040867},
   {   0.2376436144114,  -0.1623037457466,   0.0025622907560,  -0.0775880813599,   0.1291944682598,  -0.1075370311737,   0.1426009535789,   0.1714122891426,  -0.1245952248573,  -0.1575756072998,   0.1479768753052,  -0.1310870647430,  -0.0025389357470,   0.1052095070481,   0.2131093144417,  -0.0520446635783,   0.1776419728994,  -0.2382914125919,   0.2180608063936,  -0.0143275205046,   0.1120070740581,   0.0705578476191,   0.0432450287044,  -0.2085297405720,  -0.1304178386927,   0.1555178910494,   0.0400450155139,  -0.1665022820234,   0.1978275775909,  -0.1250617653131,   0.0242939256132,  -0.0123558249325,   0.1674702316523,   0.0160363726318,   0.1243922188878,   0.1654727458954,  -0.0664665624499,  -0.1289341598749,   0.0285651348531,  -0.0721752047539,   0.2306348979473,  -0.1152598038316,   0.2030264288187,   0.1570741236210,   0.0905428901315,  -0.1339690685272,  -0.1118676587939,  -0.1739609539509,   0.1647668033838,  -0.1949134171009},
   {   0.0534884221852,  -0.0569523908198,   0.0573281757534,   0.0188824702054,   0.1425277441740,   0.1435483694077,   0.2148044258356,   0.1035298630595,  -0.0876457616687,  -0.0880450159311,  -0.0400836952031,   0.0265863947570,  -0.1461230218410,  -0.2213804572821,   0.0001483387023,   0.0307199582458,  -0.0918165743351,  -0.2421628683805,  -0.1637266427279,  -0.0844592899084,  -0.2037892192602,   0.0868097841740,  -0.0355271622539,   0.1217855960131,   0.2260409593582,   0.1007596477866,   0.1911215037107,  -0.1266644150019,   0.2248477935791,   0.0998477563262,  -0.0957235321403,  -0.1450556069613,  -0.0067933090031,  -0.0798691213131,   0.2090449035168,  -0.1280834376812,  -0.0813124850392,   0.0245610922575,  -0.2394141107798,  -0.0975656211376,  -0.1172627806664,  -0.0017165271565,  -0.0045807617716,  -0.1577771753073,  -0.1906185746193,  -0.0891275852919,  -0.2271424978971,  -0.2154517024755,   0.1373034715652,  -0.1039617359638},
   {  -0.1145290434361,   0.2402740567923,  -0.2141175568104,   0.1795602142811,  -0.1014453768730,   0.2390891611576,   0.0696726292372,  -0.1930079311132,   0.1059565767646,   0.2063420414925,  -0.0324166640639,   0.1131753921509,  -0.1935452818871,   0.2304332703352,   0.1314850598574,   0.1776365935802,   0.1633101999760,   0.1933214366436,  -0.1313202232122,  -0.1893200278282,   0.0244163572788,   0.0802041664720,   0.0002851435856,  -0.0976618304849,  -0.0835867971182,   0.0783600956202,  -0.0868438109756,   0.0049437065609,   0.0408139079809,  -0.0215563122183,  -0.0932366028428,  -0.1836373955011,   0.1494317948818,   0.1640280783176,   0.2113639712334,  -0.1071238666773,  -0.1897218376398,   0.1081541776657,   0.0143308620900,  -0.1951801478863,  -0.0873270630836,  -0.0833236873150,  -0.1025856807828,   0.1344955414534,  -0.1304799318314,  -0.0016531759175,  -0.1613095104694,   0.0792853832245,  -0.0435892343521,   0.1651794761419},
   {   0.1672447025776,  -0.1962828785181,   0.2121619135141,   0.2205191999674,  -0.0503834299743,   0.0136605175212,  -0.1043359041214,  -0.1110866367817,   0.0454957894981,   0.0560383275151,  -0.0565323717892,  -0.1713175177574,   0.1694321334362,   0.0511095710099,  -0.1265130490065,  -0.0365352146327,  -0.0258881505579,  -0.0726967006922,  -0.2194017767906,   0.0151784336194,   0.2116309106350,   0.0970034003258,  -0.1757252663374,  -0.0875115767121,  -0.0779796242714,  -0.0142291272059,   0.1870142072439,   0.0884008705616,   0.0255143716931,  -0.1085690632463,  -0.1103849485517,  -0.0998906120658,  -0.0000676173368,   0.1617782711983,   0.0042984127067,  -0.2071084082127,   0.0927958711982,   0.1251721978188,  -0.0753346011043,   0.1516402810812,  -0.0280407611281,   0.1437064558268,  -0.0749680101871,  -0.0563088580966,   0.0884142741561,  -0.1828766316175,  -0.1976967304945,  -0.0052000558935,   0.0990970954299,  -0.0604560896754},
   {  -0.2086664885283,   0.1783423870802,  -0.0858880728483,   0.0009692645981,  -0.1056444644928,  -0.1972057521343,  -0.0453579835594,  -0.1763473153114,   0.0134766595438,   0.1086871996522,  -0.0984645411372,  -0.0264874696732,   0.1518921405077,  -0.0710013955832,  -0.0737570822239,  -0.1822328567505,  -0.0684133619070,  -0.2416669279337,  -0.1340941637754,  -0.1799677759409,   0.1788328886032,  -0.1888402849436,   0.0218207836151,   0.0570691563189,  -0.1886780261993,  -0.1025096476078,  -0.0727925971150,  -0.0835386738181,  -0.0470821894705,  -0.1268940418959,   0.1577285379171,   0.0236760824919,   0.1383106112480,  -0.1680293679237,  -0.1350182592869,   0.1959839463234,   0.1509603112936,   0.1333280801773,   0.0582114271820,   0.0826309844851,  -0.2417008578777,   0.2497212588787,   0.1879457235336,  -0.1284750550985,  -0.0081856707111,  -0.0381492078304,   0.0143000176176,   0.0818982198834,   0.0201579965651,  -0.0431366078556},
   {   0.1958111077547,  -0.0904321894050,  -0.2384449988604,   0.0710589066148,  -0.0322820767760,   0.0072525711730,   0.0023465477861,   0.0572757348418,   0.0694387555122,  -0.0495261214674,   0.2484247088432,  -0.1327627152205,  -0.1260430812836,  -0.1277820765972,  -0.1568539440632,  -0.0315338894725,   0.0652755200863,  -0.1781775355339,   0.0770898461342,   0.0482814610004,  -0.1540708094835,  -0.1111528873444,  -0.1673164665699,   0.1370465457439,   0.1064096465707,  -0.0332926660776,   0.1726224571466,  -0.1213748529553,  -0.0703721567988,  -0.1987482160330,   0.1912379264832,   0.1034886091948,  -0.2207795530558,   0.0344446673989,  -0.1253649741411,   0.2285399734974,  -0.1527286767960,   0.0280340611935,   0.1025735735893,   0.0366317108274,  -0.0810907632113,   0.0575867146254,  -0.1891364008188,  -0.1649120450020,  -0.0382972732186,  -0.1625262498856,  -0.1974515020847,   0.1020865514874,  -0.0776281505823,   0.0879090577364},
   {   0.2527937889099,   0.1322364807129,   0.1369430571795,   0.0275278240442,  -0.0103385783732,  -0.1276898831129,  -0.0453890860081,  -0.0760690346360,   0.2568479776382,  -0.1967019140720,  -0.0495013967156,   0.1855466663837,  -0.1612596511841,  -0.0910166427493,   0.2492592930794,   0.0552147328854,  -0.1277605295181,  -0.0734824985266,  -0.2158918529749,  -0.1371505409479,  -0.0537434294820,   0.1681151539087,   0.0553300604224,  -0.0326389409602,  -0.0330761037767,  -0.0905053839087,   0.0851484090090,  -0.0335254818201,   0.0245791357011,   0.1242355555296,   0.1461172103882,   0.2253260612488,  -0.0664546266198,  -0.0007105443510,  -0.0463504344225,   0.0699535757303,   0.1503330916166,   0.0398820154369,   0.2031339854002,  -0.1857978254557,   0.1980996131897,  -0.1390673518181,  -0.1466005146503,  -0.0743276178837,  -0.2049914300442,   0.0000544591021,  -0.1084626466036,   0.2205786257982,  -0.0191963426769,  -0.0927588343620},
   {   0.0454753562808,   0.1702643334866,   0.1617562919855,   0.0756979659200,   0.0729958489537,  -0.2232380062342,   0.0114668058231,   0.0158435143530,   0.1262614727020,   0.1178504824638,   0.1199596002698,  -0.2118970155716,   0.1406854391098,  -0.1192460060120,   0.0756579712033,  -0.0985210239887,  -0.2547909021378,  -0.0801972895861,  -0.1375229805708,   0.1141261756420,  -0.1249285712838,   0.1289161145687,   0.1679346263409,  -0.1151496842504,   0.1028983965516,  -0.1295707225800,  -0.1546416431665,   0.1888670027256,   0.1674635261297,  -0.0453149415553,   0.1844077557325,  -0.0930631980300,  -0.1990822553635,   0.0466731116176,   0.1838017702103,  -0.1264030188322,   0.0851630419493,   0.0265275165439,   0.2614479064941,  -0.0768527686596,  -0.1566131711006,   0.0156003097072,  -0.2550528943539,   0.0444693677127,   0.2185402512550,  -0.0914052501321,  -0.1264972537756,   0.1099514961243,   0.1937481909990,  -0.1804257333279},
   {  -0.1781558841467,  -0.0088173765689,  -0.0202628150582,  -0.2484266310930,  -0.0826714336872,  -0.0361499972641,   0.0766626819968,   0.1389093250036,   0.0676566809416,   0.1095309704542,   0.1340693235397,  -0.1903386265039,  -0.0072590433992,  -0.1316654384136,   0.1149268895388,   0.0207005385309,  -0.1550086289644,   0.2536056339741,  -0.1198280900717,   0.1198664158583,   0.0848590210080,  -0.1803655028343,   0.0174178536981,   0.0214893072844,   0.1007085815072,   0.1389053612947,  -0.0098516568542,   0.2532408237457,  -0.1154154017568,  -0.0233503058553,  -0.1031648814678,   0.1449473053217,  -0.1317564249039,  -0.0280986204743,   0.1302073150873,  -0.2627927660942,   0.1139482483268,   0.2529792189598,  -0.0764423906803,  -0.1677221506834,   0.2028186917305,  -0.1996493637562,   0.0808427482843,   0.1161108464003,   0.0727628320456,   0.2316731959581,  -0.1638316214085,  -0.0168592650443,  -0.0629444569349,   0.0742142498493},
   {   0.1918271332979,  -0.0673792585731,   0.0493970029056,   0.0074784401804,   0.0588116981089,   0.2235825657845,  -0.1571925729513,  -0.2292919009924,  -0.0986027196050,   0.0654797479510,   0.0520322434604,  -0.1041399240494,  -0.1415197998285,  -0.0377620607615,  -0.0295213889331,   0.0206032153219,  -0.2098753899336,  -0.1080643758178,   0.0252350084484,   0.1633756160736,   0.0903206020594,  -0.0353284813464,   0.0873538702726,   0.0196690596640,   0.1916858255863,   0.1973101198673,   0.0789921581745,   0.1455736160278,   0.0307648461312,  -0.0407803468406,  -0.0479740872979,  -0.0721024200320,   0.1403976678848,  -0.2166789919138,   0.1681570410728,   0.2082310318947,  -0.2119090557098,  -0.1900419890881,   0.0185347106308,  -0.1424769163132,   0.0996349379420,  -0.1156435757875,  -0.2006588578224,  -0.1618289798498,  -0.2098762691021,   0.0316674448550,   0.0107520706952,   0.2056779265404,   0.1005667969584,   0.1912049800158},
   {   0.1593768745661,  -0.0939977094531,   0.1058686897159,  -0.1157774105668,   0.1445393413305,  -0.2003484219313,  -0.2059616148472,  -0.1179492771626,   0.0565458498895,   0.2317977994680,   0.1472281813622,   0.2009108364582,   0.1752107590437,  -0.1398445069790,  -0.1397766172886,   0.1844329833984,   0.0742769762874,   0.0749137476087,   0.1170030981302,  -0.0139288306236,  -0.1229038536549,  -0.1499036848545,  -0.1050964742899,  -0.1932507604361,  -0.0849756076932,   0.0173665564507,   0.1504912376404,  -0.1579069942236,   0.0138282235712,  -0.0842816904187,  -0.0419481657445,  -0.1759496033192,  -0.0348429642618,   0.1197154894471,  -0.0023172001820,  -0.0707468912005,   0.0796295255423,  -0.1276590228081,   0.1713508069515,   0.1028440296650,  -0.0058108558878,   0.1036495491862,   0.1634570211172,  -0.2397645860910,  -0.0607468560338,   0.0487150251865,  -0.0333172529936,  -0.1830376386642,  -0.1719037145376,   0.1888052523136},
   {  -0.1629066318274,   0.0035612173378,  -0.0357775203884,   0.0347993709147,  -0.2571193575859,  -0.0588643439114,   0.0637593343854,   0.0126657951623,   0.1362304687500,  -0.1692641079426,   0.0682094469666,  -0.0301321372390,  -0.0962213948369,   0.2030131965876,   0.1626369208097,  -0.0616353005171,   0.1189913451672,  -0.0865912735462,  -0.1902640312910,   0.0113091450185,  -0.0840009301901,   0.0465892665088,  -0.0274781398475,   0.1089817956090,  -0.0447958186269,  -0.0646376609802,  -0.1333121657372,   0.1901066601276,   0.0249072816223,   0.0756298452616,  -0.0058442046866,   0.0338672660291,  -0.1859136521816,   0.0874922871590,  -0.2108289301395,   0.0022430848330,  -0.0795060098171,  -0.2089502066374,   0.1939682662487,   0.0824333280325,   0.1661052256823,   0.0852605104446,   0.1844426244497,   0.0605643652380,   0.0463172756135,  -0.0834146961570,   0.2306662350893,  -0.2108551710844,   0.1870657503605,   0.0666738003492},
   {  -0.0208239164203,   0.2195437848568,  -0.2028142958879,   0.1857568621635,   0.1896227747202,  -0.0740875452757,   0.0073281894438,  -0.1986753195524,   0.0077106952667,  -0.1184443756938,  -0.1873478442430,   0.2431051135063,  -0.1291871815920,  -0.2233494520187,  -0.1462659388781,  -0.0110083501786,  -0.1835624128580,   0.0899528339505,   0.0947426632047,  -0.0871672555804,  -0.1541299819946,   0.1840534806252,  -0.0003636049223,   0.1808520257473,  -0.1935011446476,   0.0009021096630,   0.0046195886098,  -0.0426218658686,  -0.2288692593575,  -0.1671877503395,  -0.0981855243444,  -0.0365066565573,  -0.0134489797056,   0.2237319499254,   0.1102294847369,  -0.1616769433022,  -0.0144654298201,   0.1723860800266,  -0.0496353916824,   0.1208127215505,   0.1719948649406,  -0.2107823938131,   0.2030884623528,   0.1692486405373,  -0.1938465386629,   0.0928537622094,   0.1675244271755,   0.1408641487360,  -0.2003575861454,   0.1819284558296},
   {   0.0921269953251,  -0.1542201936245,   0.1799707114697,  -0.1335811614990,  -0.0155910672620,   0.0482367798686,  -0.1224724948406,  -0.1008849069476,   0.1637448668480,   0.0307602416724,   0.0354074463248,  -0.1690077781677,   0.0604942217469,  -0.1790142059326,  -0.0042757675983,  -0.0034185338300,   0.1301527619362,   0.0101221408695,   0.0365631207824,  -0.1077499836683,   0.2125788629055,   0.2555479407310,   0.1251746714115,  -0.0450778119266,  -0.0370238237083,   0.0134838549420,   0.0343802347779,   0.0437523685396,  -0.1373580396175,   0.1802110075951,   0.0350563824177,  -0.0993722304702,  -0.1278131604195,   0.1047939658165,   0.1287364363670,   0.1887501627207,   0.0639323666692,  -0.0426894240081,   0.0841650813818,  -0.1949378103018,  -0.1061608493328,  -0.2330796271563,  -0.0007585485000,   0.1716025024652,   0.0016619329108,  -0.2371016293764,  -0.2141962349415,   0.0677045360208,   0.1313866972923,  -0.0166738629341},
   {   0.0221591219306,   0.0305613912642,  -0.0494126155972,  -0.0514295734465,   0.0355341061950,   0.1680871695280,  -0.0814221501350,   0.2284071296453,   0.1623459011316,  -0.1923374533653,   0.1759476065636,   0.1041256487370,   0.2177865952253,  -0.0396728552878,   0.2380065172911,   0.2246301919222,  -0.2106245756149,   0.0028188338038,   0.1770146936178,   0.0991945043206,  -0.1237770244479,  -0.0146716237068,  -0.0623908452690,  -0.2385118603706,  -0.2063807994127,  -0.0471659824252,  -0.0647330805659,  -0.0550879575312,   0.0148163028061,  -0.2035836130381,   0.2260159999132,   0.0212864521891,   0.2047597020864,   0.0405199564993,  -0.0542495138943,   0.1657879799604,   0.0518376454711,   0.1249010190368,  -0.0710163861513,   0.0010038795881,   0.2042908370495,  -0.1663612723351,  -0.2006874978542,   0.0986301973462,  -0.2096595168114,  -0.0888133496046,   0.1351986378431,  -0.0306143462658,   0.1827714145184,   0.0468229316175},
   {  -0.1548009365797,   0.1957370042801,  -0.0719219520688,   0.0402742549777,  -0.1090705767274,   0.1409356743097,  -0.0308447107673,   0.1874425560236,  -0.0872828066349,  -0.0324353426695,  -0.0208858121186,  -0.0249572508037,   0.1031690239906,   0.0271117556840,   0.0717479288578,  -0.1318784058094,  -0.2369419932365,  -0.0385578386486,  -0.1705273091793,  -0.0338239260018,   0.0780547484756,   0.0261471197009,   0.2240919023752,  -0.0481217764318,  -0.1411086618900,  -0.0520562641323,   0.1345030963421,  -0.0435438379645,   0.2499330490828,  -0.0617728829384,   0.1963734328747,   0.0530700869858,  -0.0032255693804,  -0.2174842208624,   0.1832463145256,  -0.0642320066690,   0.1671680212021,   0.1127998977900,   0.0545082092285,  -0.0410464070737,   0.0192841775715,   0.0586516410112,  -0.0432930812240,  -0.0366133823991,   0.0270583052188,  -0.1232715919614,   0.1143513768911,   0.2167562991381,   0.0671116039157,   0.1347232758999},
   {  -0.0299082566053,  -0.0567157268524,   0.1687459200621,  -0.1889327615499,  -0.0651770904660,  -0.0967803746462,   0.2111797779799,   0.1916743963957,  -0.1717689335346,   0.1932149380445,   0.1665961891413,  -0.0479802452028,  -0.0342326462269,  -0.0856400504708,  -0.1210993081331,   0.1515588462353,   0.0363220795989,  -0.0916645750403,  -0.2416124939919,  -0.0041767228395,  -0.0376444123685,  -0.1389577239752,  -0.0433237291873,  -0.0058243260719,   0.1668307036161,  -0.1333796083927,   0.0071382885799,  -0.2091413587332,  -0.0417795516551,  -0.0594637431204,  -0.0196101423353,   0.0205505453050,  -0.1903083771467,   0.0412380844355,   0.0081281615421,  -0.2215424478054,  -0.2456106394529,  -0.2030455023050,   0.1475685983896,  -0.1493444740772,   0.1029960364103,   0.2183153033257,  -0.1251656413078,  -0.1794413924217,   0.0371154993773,   0.0803599655628,   0.0803091451526,   0.0419810600579,   0.1198441311717,   0.0065318751149},
   {   0.0337210893631,  -0.0226903967559,  -0.1678484976292,   0.2227325439453,  -0.1589860320091,  -0.1290016770363,  -0.1916161626577,  -0.0813774168491,   0.1848852634430,   0.0894978493452,  -0.0573026910424,  -0.2375230044127,   0.2059048712254,   0.2184270322323,  -0.2035362571478,  -0.0033746084664,   0.1574288755655,   0.0412623099983,   0.0917968973517,  -0.0001266620384,  -0.0459858663380,  -0.1515549868345,   0.2077102065086,  -0.0050833742134,   0.1823145449162,  -0.2509895861149,   0.2271844148636,  -0.0034728846513,   0.0542270950973,  -0.0450489111245,  -0.1824991554022,  -0.1366525590420,  -0.0821812823415,  -0.1444931328297,  -0.0632843077183,  -0.0094178374857,   0.2105670124292,  -0.2033711224794,  -0.0204224213958,   0.0706306472421,  -0.1259332150221,   0.1687679290771,   0.1481879502535,  -0.1787977069616,   0.0441724620759,   0.1089113801718,  -0.0869382768869,  -0.2287141382694,  -0.0697109773755,   0.0618965253234},
   {   0.0726967155933,  -0.1634296625853,  -0.0913207456470,   0.1645224094391,  -0.1561738550663,   0.1152409985662,   0.1615379452705,   0.0430838428438,   0.1964648813009,  -0.0728551521897,  -0.1872792989016,   0.0150748863816,   0.0360184460878,   0.2100775837898,   0.0508142635226,   0.2053543925285,  -0.1119671016932,  -0.0648557096720,   0.1546258181334,   0.2228738516569,  -0.1477331817150,   0.0068701137789,   0.1002437621355,  -0.0089993085712,  -0.0849515274167,   0.1824646890163,   0.1647180467844,  -0.0264282580465,  -0.1327566951513,   0.0259203501046,  -0.1624298542738,   0.0416717343032,   0.1186878979206,  -0.2177326828241,  -0.0976404696703,   0.0586648881435,   0.1228642389178,   0.0166591983289,  -0.1588466465473,  -0.1259232312441,  -0.2177959829569,  -0.1321358084679,   0.1333818733692,   0.0190312992781,  -0.1721961796284,   0.1222580447793,  -0.1402921676636,   0.0799348950386,  -0.1223577409983,   0.0291723310947},
   {  -0.0508330762386,   0.0089484602213,  -0.1773931086063,   0.1698660999537,   0.1312578767538,   0.0944030359387,  -0.1953731626272,   0.1611607372761,   0.2039579004049,  -0.1444532126188,  -0.0080454591662,  -0.1094825342298,  -0.1243265792727,   0.0843859985471,   0.1655694246292,  -0.2120477259159,   0.0817046016455,  -0.0295473691076,  -0.1429428458214,  -0.0707074776292,  -0.1324253827333,  -0.0246146917343,  -0.0696076229215,  -0.1493279933929,  -0.2502750456333,  -0.0027767601423,  -0.0483629591763,  -0.1868796944618,   0.2264187484980,   0.1116243302822,  -0.0805192664266,   0.1979876011610,   0.0017080670223,  -0.1640027612448,  -0.1489737331867,  -0.0890870317817,  -0.0433548651636,   0.1233886256814,  -0.0151218855754,  -0.1289368569851,  -0.1068093404174,   0.1611229181290,  -0.1150293275714,  -0.1223325431347,  -0.1431816369295,  -0.2022494524717,   0.0351369380951,  -0.0629198253155,   0.0594069771469,  -0.2283324897289},
   {   0.0634140372276,   0.0828052535653,  -0.0947474762797,   0.1677410304546,  -0.1363530158997,  -0.1572266519070,   0.2331329733133,  -0.0860724002123,  -0.0801298916340,   0.0030608375091,  -0.0431600697339,  -0.2066792100668,  -0.1443869024515,  -0.0764947533607,  -0.1396159380674,   0.1735828667879,   0.1052254587412,  -0.2597312629223,  -0.1428600549698,  -0.1831634044647,   0.1812674254179,   0.0871601402760,  -0.0922626405954,   0.0263713467866,  -0.1391967535019,   0.0062566366978,  -0.1580268889666,  -0.0033428291790,   0.0797774568200,  -0.1945829391479,  -0.1802567541599,   0.0091959415004,   0.1953311413527,   0.0764492228627,   0.1734019219875,  -0.0548390224576,  -0.1695221215487,  -0.2492709010839,   0.1789631843567,  -0.2479994297028,  -0.1262498348951,  -0.2265247404575,   0.0681509152055,  -0.0906644836068,  -0.1165129691362,  -0.0196604728699,   0.0142339617014,  -0.0045059830882,  -0.1586230099201,   0.2066297531128},
   {   0.1624447107315,  -0.1678622364998,   0.0226651858538,  -0.2064627110958,  -0.0772415548563,  -0.0937878638506,  -0.2402667552233,   0.2147846519947,   0.2539665997028,  -0.2174284458160,   0.0901978015900,  -0.0744228214025,  -0.1578404754400,   0.0070415120572,   0.1541353613138,   0.0958763808012,  -0.0360163971782,   0.1915123611689,  -0.1905751079321,  -0.0861994028091,   0.1108380183578,   0.1565240323544,  -0.1472479254007,  -0.1990770846605,   0.2071069926023,  -0.1383113265038,   0.2021359950304,   0.1227331608534,   0.1683902889490,   0.0726948454976,  -0.2323789447546,  -0.1064053699374,   0.0920613333583,   0.1187414079905,   0.1788021475077,  -0.1733582466841,  -0.1474036276340,  -0.1924818605185,  -0.1753021776676,  -0.0140344845131,   0.0284923985600,   0.1616323888302,  -0.2509021461010,  -0.2585147321224,   0.0270815324038,  -0.1760701835155,  -0.0375757217407,   0.1038927808404,  -0.0082771247253,   0.2212007343769},
   {  -0.1285291612148,   0.0878646746278,   0.0395535491407,   0.1848068833351,   0.1319615393877,   0.1793177872896,   0.0646504089236,  -0.1546652019024,  -0.1416832357645,  -0.2031313478947,  -0.0908062383533,  -0.1886130422354,   0.1673969030380,  -0.1906012445688,  -0.0287885982543,   0.1308072507381,  -0.2039873152971,   0.0862944945693,  -0.1882507652044,  -0.1310729980469,   0.1347817778587,  -0.0427017621696,  -0.0683852657676,  -0.1283419877291,  -0.0667506232858,  -0.0237153470516,  -0.0741776749492,   0.1476890593767,  -0.0806547179818,   0.0245587918907,  -0.1659988909960,  -0.1079903021455,  -0.0473871901631,   0.1760357767344,  -0.0033673690632,   0.0561497099698,  -0.1782628893852,   0.0738445520401,  -0.1857879161835,  -0.0466544143856,   0.2111741900444,   0.1743303388357,   0.0140045583248,   0.0743014067411,   0.0585048608482,  -0.0482361055911,  -0.0339198559523,  -0.1263098567724,  -0.2181006968021,   0.2092158496380},
   {   0.0835814550519,   0.1600688844919,   0.1600458472967,  -0.0903238430619,   0.1630858331919,   0.1899441629648,  -0.1803444772959,  -0.0238928776234,  -0.2119536250830,   0.2237714231014,  -0.2255185097456,  -0.0396375358105,  -0.0441919416189,   0.0741339176893,   0.2140312790871,   0.1229207888246,   0.0713924840093,   0.1480701714754,   0.0771131739020,  -0.1902024000883,  -0.1195368319750,   0.0463071241975,  -0.0445819459856,   0.0854532271624,  -0.0722313299775,  -0.0167384948581,  -0.0997283980250,  -0.1535908877850,  -0.0322828926146,  -0.0780210793018,  -0.0636791735888,  -0.0724457353354,  -0.0806691423059,   0.1742428094149,   0.0533265173435,   0.0486565381289,  -0.0723486468196,   0.0001335841516,   0.1034427434206,  -0.2078760862350,  -0.0529230758548,   0.2284188866615,   0.0722994431853,   0.1445242315531,   0.0291945189238,  -0.0201260596514,   0.0794138833880,  -0.2445081919432,   0.2097118645906,  -0.2054763585329},
   {  -0.1363198310137,   0.1419453769922,  -0.1020645275712,   0.0331145785749,   0.0469905324280,   0.0095757851377,  -0.1013705134392,   0.1906623095274,   0.0550660714507,   0.1129069924355,  -0.0779307633638,  -0.1912596672773,   0.1531569063663,  -0.2248433828354,  -0.1824060827494,  -0.1863945275545,   0.0997129008174,  -0.1827146559954,   0.2102348804474,   0.0315528810024,   0.1056942641735,   0.0034538933542,  -0.1715029925108,   0.0405923388898,   0.1384589225054,   0.1120914071798,   0.1411311328411,   0.1070100888610,   0.2185661792755,   0.0861232504249,   0.1353717595339,  -0.1855034083128,  -0.0000836672989,  -0.0074572218582,   0.1509025990963,   0.0779048353434,  -0.1152701303363,   0.1259948462248,  -0.1267905533314,   0.0391982533038,  -0.1654276847839,  -0.0043682502583,  -0.1175312548876,   0.1094408035278,  -0.1730286926031,   0.1965877264738,   0.1438807845116,  -0.1330727189779,   0.1785185188055,   0.1225147917867},
   {  -0.2220825254917,   0.1408143937588,   0.1327274441719,  -0.1460960060358,   0.0351737588644,  -0.0566369332373,   0.1023318469524,   0.0886468514800,   0.0600502230227,  -0.2256589084864,  -0.1731004565954,   0.2310020476580,  -0.0667044073343,   0.1813325285912,   0.0459258221090,  -0.1208666712046,  -0.1932757198811,  -0.0643517673016,   0.2002482116222,   0.2484672814608,   0.0927996039391,  -0.2044644653797,  -0.2117918431759,  -0.0999927073717,  -0.0033343576360,  -0.0947469696403,  -0.1142800524831,   0.0131335854530,   0.1572162508965,  -0.1116083785892,  -0.1653154492378,   0.2202034741640,  -0.0089640105143,   0.2293381541967,  -0.2329692542553,  -0.0267914570868,   0.2051692754030,  -0.2029899805784,  -0.0420217849314,  -0.0486989356577,  -0.1671128720045,   0.0696547850966,   0.0526272617280,  -0.1240690425038,  -0.2034302651882,  -0.1654424816370,   0.0550101436675,  -0.1259689927101,  -0.0153694488108,   0.2372680753469},
   {  -0.0102561395615,   0.0485412180424,   0.0237218253314,  -0.1023554131389,  -0.0021701976657,   0.1497335135937,  -0.0118189556524,   0.0497715920210,  -0.1520303785801,   0.1846510767937,  -0.1143197789788,  -0.1810569763184,   0.1027107983828,  -0.1773633807898,  -0.1719721406698,   0.0563287511468,   0.0018553738482,   0.0751097127795,   0.0877169221640,   0.1652718186378,  -0.1844605058432,   0.1377550214529,   0.2171952873468,  -0.2483718395233,  -0.0817857012153,  -0.0495875328779,  -0.1657564491034,   0.2115395367146,   0.0681341290474,  -0.1455832719803,  -0.0697590783238,  -0.2341487258673,  -0.2027617245913,   0.0888305753469,   0.0039637810551,  -0.1855942606926,   0.1753863543272,  -0.1653390824795,  -0.0467014089227,   0.0026975369547,   0.2187270820141,  -0.0103181200102,   0.1750418394804,   0.1225471571088,  -0.2116817533970,  -0.1904467642307,  -0.2349959462881,   0.1175099760294,  -0.1848598718643,   0.1679185330868},
   {  -0.2082935422659,  -0.0313891768456,  -0.0760858580470,   0.0554932653904,  -0.0262368526310,  -0.0792031958699,   0.1215350329876,  -0.0028703769203,   0.0844282507896,  -0.1304567307234,  -0.1993187367916,  -0.1962832808495,  -0.0060774767771,  -0.1132560148835,  -0.0326593853533,   0.2027878314257,   0.2012433856726,   0.0178023967892,  -0.1794461309910,   0.0071008647792,   0.2274396121502,  -0.1117543205619,   0.0731982439756,   0.1117000803351,   0.0819167345762,  -0.0501312464476,  -0.0281749218702,  -0.1058343797922,   0.0664857402444,  -0.1321921944618,   0.1081995144486,  -0.0489652417600,  -0.1730792522430,   0.2388645410538,   0.1230348721147,  -0.0362190008163,   0.1416871100664,  -0.0104701938108,  -0.0374746024609,   0.1277621835470,   0.1063614338636,  -0.0578805841506,  -0.2036932557821,   0.1673175543547,  -0.1665038317442,  -0.0483630448580,  -0.1217253059149,   0.1442526429892,   0.0113774929196,  -0.0806857869029},
   {   0.2280386686325,  -0.0278837122023,  -0.1793614029884,  -0.1277275532484,   0.0927342474461,   0.0169921312481,   0.1506766527891,   0.0588173829019,   0.0486703403294,  -0.1561570763588,  -0.0939670354128,   0.0297327861190,  -0.2232662588358,   0.0887165889144,   0.0915098711848,   0.1600466668606,   0.1807203888893,   0.0649287551641,  -0.1795783638954,   0.0088393501937,   0.0843367129564,  -0.1278115361929,  -0.2358774095774,   0.1350052058697,  -0.1434895992279,   0.1432614326477,  -0.1267088949680,  -0.0752500593662,   0.0125418081880,   0.0359897240996,   0.2150678485632,  -0.0940841883421,  -0.0504978299141,   0.0218012686819,  -0.0453332178295,   0.0664968341589,   0.0831150040030,  -0.1086943745613,   0.1064475998282,   0.1899992674589,   0.0073540294543,  -0.1855047643185,  -0.0040701064281,   0.1092478707433,   0.2049188166857,  -0.0401188060641,  -0.2190786302090,  -0.0192083120346,   0.1509786397219,   0.0139506282285},
   {  -0.1632553040981,  -0.2498219609261,  -0.1445075422525,   0.0963698923588,  -0.1523717492819,  -0.0129206217825,   0.0785513818264,  -0.2325509488583,   0.1299226135015,  -0.0614568218589,   0.1705709397793,  -0.1303223669529,   0.1088964417577,   0.2012979388237,   0.2515490651131,  -0.1047823578119,  -0.2358709275723,   0.2349608391523,  -0.0136525509879,   0.1736362278461,  -0.2296939343214,  -0.1560869961977,   0.1211612895131,   0.0956064611673,  -0.2074651420116,  -0.0123211294413,  -0.1209005042911,   0.1626051962376,   0.1756506860256,  -0.1164379715919,   0.0837487429380,  -0.0901330411434,  -0.0959968045354,   0.0625427514315,   0.1242291405797,   0.1988828182220,   0.2344056069851,  -0.0361671149731,   0.2352053821087,   0.2491201907396,  -0.1759967207909,  -0.0914738625288,   0.0932304561138,   0.0203266683966,  -0.1757702380419,   0.0050751920789,  -0.1657165735960,   0.1484642624855,   0.1886866092682,  -0.0677636638284},
   {   0.0056125619449,   0.1887231469154,  -0.2163496315479,  -0.1036174371839,  -0.2000858187675,   0.1935039013624,   0.1395266205072,   0.1074101477861,   0.1503425836563,   0.0751352906227,  -0.1680596172810,  -0.1409490704536,  -0.1476818770170,  -0.1802604943514,   0.1521367579699,  -0.0091825034469,  -0.1192943528295,   0.1945784687996,   0.0711240768433,   0.1981725096703,  -0.1497007161379,   0.1763392835855,   0.1692129075527,  -0.0455427207053,  -0.1903224736452,  -0.1214016601443,  -0.1180697530508,  -0.1879550963640,   0.2093729972839,  -0.1556457132101,   0.2220982164145,  -0.0874174162745,   0.0199032165110,   0.0572843328118,   0.1490009278059,  -0.2301579564810,  -0.0915163457394,   0.0403645224869,  -0.0556446760893,  -0.0682460069656,  -0.0838833600283,  -0.1173200830817,  -0.1202780753374,  -0.0716033726931,   0.0073239719495,   0.0358918905258,  -0.1608583331108,  -0.1396322548389,  -0.1305065900087,  -0.1819047480822},
   {   0.1992830634117,  -0.1492447555065,   0.0269141346216,  -0.1665387004614,  -0.1174153909087,   0.1118079349399,  -0.0947864800692,   0.1591606587172,   0.1024819314480,   0.2373200356960,   0.0552964843810,  -0.1550753116608,   0.1039608791471,  -0.0153460428119,  -0.0334565453231,  -0.2248108536005,   0.0661457479000,   0.1914373487234,  -0.1930843591690,   0.0028789769858,  -0.0650026053190,  -0.1617455482483,   0.0226876009256,   0.0552466213703,  -0.2371669709682,  -0.1003010198474,  -0.2346693575382,  -0.0028036145959,  -0.1463960260153,   0.1001896485686,   0.0831899270415,  -0.0089470054954,  -0.0489998161793,   0.1306539326906,  -0.1003295853734,  -0.1042539104819,  -0.2290010452271,   0.1183313131332,  -0.2031370401382,   0.0087996646762,  -0.2419379949570,   0.0320241935551,  -0.1878996640444,   0.2030158489943,   0.1142051219940,   0.0017222864553,   0.1270424574614,  -0.2033969312906,   0.0331285521388,  -0.0144554255530},
   {   0.2414443492889,  -0.1938914656639,   0.0037483407650,   0.0924936607480,   0.0565378703177,  -0.2101130336523,  -0.1411274671555,   0.2444406002760,   0.0863968208432,  -0.0039012951311,  -0.0090036857873,  -0.0294001568109,   0.1679440587759,   0.1275595277548,  -0.0820376351476,   0.1405724734068,  -0.0889016464353,   0.1119478568435,  -0.1161689832807,   0.1081187725067,  -0.1936971247196,   0.0844943970442,  -0.0656993091106,   0.0319856815040,  -0.2178933471441,  -0.1411928832531,   0.1159282326698,   0.0827967375517,   0.2395345270634,   0.1864510625601,  -0.1999075412750,   0.0098594632000,  -0.0868433862925,  -0.1960432231426,   0.1640686839819,   0.2167561352253,   0.0663413405418,  -0.2132509797812,   0.0024413452484,  -0.0592222213745,   0.1827502250671,  -0.0695128366351,   0.0567026250064,  -0.1115199923515,  -0.1724559515715,   0.0658342018723,   0.0669243633747,   0.0727713406086,   0.1842576712370,  -0.1986063867807},
   {  -0.1541341543198,  -0.1102078408003,   0.1354795396328,   0.0082658547908,  -0.0551250912249,  -0.0385843664408,  -0.1319775730371,  -0.2050464600325,   0.2265553176403,   0.0176670253277,  -0.0241215061396,   0.0231527164578,   0.1614195704460,   0.1257302314043,   0.0472438074648,  -0.1960190534592,   0.0415244698524,  -0.0912238210440,  -0.0447070710361,   0.0852772071958,  -0.0111015569419,  -0.1414760947227,  -0.2028628289700,  -0.1627183407545,  -0.2369230687618,  -0.2613395750523,   0.0731278583407,   0.0710082352161,  -0.0393774174154,  -0.0824944898486,   0.2013112008572,  -0.1240909099579,  -0.1068542078137,   0.0842676833272,  -0.0604519173503,  -0.1949418485165,  -0.0855566263199,  -0.0355823747814,  -0.2134314477444,   0.2017767429352,  -0.1454832702875,  -0.2177021056414,  -0.1984976083040,   0.1261633932590,   0.0393366143107,   0.1271569281816,  -0.0527771040797,  -0.0497625805438,   0.1187729835510,   0.0125051373616},
   {  -0.1005417406559,   0.0984664633870,   0.1284040212631,   0.1713113337755,  -0.0582553781569,  -0.1668009608984,   0.0078391553834,   0.0974538698792,  -0.1571741998196,  -0.1050120517612,  -0.2430101484060,   0.1729221791029,  -0.0815078988671,   0.0231436025351,   0.2043620496988,  -0.2132410407066,   0.0871908441186,   0.1877405643463,  -0.1580967307091,   0.2342721819878,   0.1573911160231,  -0.0412271358073,   0.1489349752665,   0.1345590204000,   0.1050887852907,  -0.0508997626603,  -0.1251655369997,   0.1942231506109,  -0.0446682907641,  -0.0034349758644,  -0.2551519572735,  -0.1970282047987,   0.1889204084873,  -0.1109866648912,   0.0842310711741,  -0.1399159729481,  -0.1441923528910,   0.1918503344059,   0.2052406668663,   0.2327145934105,   0.1900118589401,   0.1573004573584,   0.0641801580787,   0.0581511072814,  -0.1916606575251,   0.0065074139275,  -0.1982180029154,  -0.1489081382751,   0.0837997496128,   0.1354478746653},
   {  -0.1808134764433,  -0.2224417328835,   0.0047837146558,   0.1912137717009,   0.0091437287629,   0.0223515275866,  -0.0593635439873,  -0.0811777412891,  -0.0435299202800,   0.1047465279698,  -0.2350929528475,   0.0637673586607,   0.1151308119297,  -0.1649774760008,   0.1108741313219,  -0.2004181891680,  -0.0929518342018,  -0.0788385495543,  -0.0508314520121,   0.1223739609122,   0.2186530530453,   0.1325738728046,   0.2145002633333,   0.1898036152124,   0.1860880851746,   0.1538935303688,  -0.0932140052319,  -0.0476674400270,   0.1529655605555,   0.0070345546119,  -0.0235033053905,   0.0336060933769,  -0.1869531571865,   0.1474791318178,  -0.1248386502266,   0.1004559993744,  -0.2160643935204,   0.0514342226088,   0.0635972917080,   0.1194243058562,   0.1618756800890,   0.0501957349479,  -0.0186480786651,  -0.1867374777794,   0.2004690617323,  -0.0454490967095,  -0.0362927690148,  -0.0695864856243,  -0.0620547868311,   0.0108424983919},
   {  -0.0948923900723,  -0.2190363407135,  -0.1159403771162,   0.1827770769596,  -0.0116296904162,   0.0192566104233,   0.1608773916960,   0.1447879523039,  -0.0070267496631,   0.0375111401081,  -0.2357847392559,  -0.0057235914283,  -0.1180061101913,  -0.0083139054477,   0.0794681459665,   0.1325501054525,  -0.2119353860617,   0.0776290670037,  -0.1123355329037,   0.0047480701469,  -0.0520099066198,   0.0966972038150,   0.1441142410040,   0.0040444997139,  -0.1584794074297,   0.1668354719877,  -0.0322349183261,   0.0423211455345,  -0.0505068376660,   0.1098861247301,   0.2234741151333,  -0.0784355178475,   0.0230007395148,  -0.1830907315016,   0.0567734315991,  -0.0757696926594,  -0.2010582834482,  -0.0139125315472,   0.1363500505686,   0.2424233555794,   0.1216719299555,   0.0957825332880,   0.2184193432331,  -0.0475643463433,  -0.2282192707062,   0.0642761066556,   0.1372208148241,  -0.0296533256769,  -0.1781839132309,  -0.0510650090873},
   {   0.0991957262158,   0.1549264192581,   0.1076762378216,   0.2469850629568,  -0.0962506458163,   0.0238470844924,  -0.0258182454854,   0.1210105791688,   0.1257994025946,   0.1392746865749,  -0.1202519536018,  -0.1617916077375,   0.0846827700734,   0.0532856434584,   0.2205795347691,  -0.0538704544306,  -0.0473699681461,  -0.0534053184092,   0.2099275588989,   0.1671147048473,   0.1503353565931,  -0.0580192543566,   0.1881955564022,   0.1944618970156,  -0.0623520761728,  -0.2426796853542,  -0.1547234058380,   0.2187669575214,  -0.1397091746330,  -0.1164823099971,   0.2158178240061,  -0.0684953331947,  -0.0980875864625,   0.0427030995488,   0.0328160077333,  -0.0341228693724,   0.2264264971018,   0.0114204846323,   0.0901978909969,   0.1648451685905,   0.2083414942026,  -0.0062723415904,   0.1974719166756,   0.2107466608286,  -0.1316118240356,  -0.2142712473869,   0.1490742713213,  -0.2443346232176,  -0.0335318893194,   0.1103293076158},
   {   0.1911188364029,   0.1660975068808,  -0.1417512297630,   0.0652101561427,  -0.1004959344864,   0.0594338253140,   0.0111744496971,  -0.0893998965621,  -0.0910781919956,  -0.0751549452543,   0.0639420598745,   0.2263857722282,   0.0180612877011,   0.1265132129192,   0.0999741107225,   0.0444045811892,   0.1960053592920,   0.2397378534079,  -0.0598012059927,   0.0295923464000,  -0.1111562252045,  -0.0569025427103,  -0.1023819297552,  -0.0522022023797,  -0.0995961353183,   0.0680654644966,  -0.2101076990366,   0.0956237018108,   0.0252382233739,  -0.0170981884003,   0.2167126089334,  -0.0558042936027,  -0.1337695866823,   0.0152335418388,  -0.0863452777267,   0.1411372572184,  -0.0049371034838,   0.0211384743452,   0.0037088666577,  -0.0989917218685,  -0.0378525257111,  -0.0094923544675,   0.1282919347286,  -0.0731544196606,   0.1336316913366,  -0.0104670636356,   0.0493570342660,   0.1865577399731,   0.1189500316978,   0.0556448660791},
   {   0.1745390146971,  -0.1640998870134,  -0.2208433896303,  -0.2062543630600,   0.2323152273893,  -0.1789826303720,   0.0091852629557,   0.2390402257442,  -0.2044945359230,  -0.1146765127778,   0.2482428997755,  -0.1069741249084,   0.1368832290173,  -0.2386019229889,   0.1862230002880,   0.2087106257677,  -0.0399707779288,   0.1908114254475,  -0.0116415349767,   0.1809781193733,  -0.1151939779520,  -0.2078489661217,  -0.0728605836630,  -0.1706269979477,  -0.2517857849598,   0.1677634268999,   0.0997820571065,   0.0526586994529,  -0.0493255294859,   0.1437506079674,  -0.1988939493895,  -0.0449321083724,   0.0860702991486,   0.1425606012344,  -0.1480076462030,  -0.0063862651587,  -0.0459317304194,   0.0445253103971,   0.0290534272790,  -0.1325534880161,   0.2510759830475,  -0.0690338015556,   0.1434881836176,  -0.1783533394337,  -0.1230286881328,   0.1767859458923,   0.0533477738500,  -0.0465237088501,   0.0974198952317,   0.1306909918785},
   {   0.1841043233871,   0.1699626296759,  -0.0504166409373,  -0.0970392227173,  -0.1015169769526,   0.1321154236794,   0.2119684666395,   0.1514778137207,   0.1423957496881,   0.0725042521954,  -0.2442029118538,   0.0058130435646,   0.2029258310795,  -0.0787950530648,  -0.0422998107970,   0.2084355950356,  -0.0553976707160,   0.1879417300224,  -0.1879166066647,   0.2410909980536,  -0.0892320796847,   0.2611347138882,   0.1576775312424,  -0.1433417797089,  -0.1436059474945,  -0.1037081032991,  -0.0569580793381,  -0.0715297237039,   0.1418370902538,   0.0013861693442,  -0.2135428339243,   0.1199388131499,   0.1320841014385,  -0.2041655331850,   0.1604914963245,   0.0338983982801,  -0.1205624863505,   0.0741887390614,  -0.0175046753138,   0.1880810409784,   0.1478591114283,   0.0912718325853,   0.0468335412443,  -0.2004474848509,   0.2242949903011,   0.2462946325541,   0.0557933151722,  -0.1796335279942,   0.2120931446552,   0.1799468845129},
   {   0.0195274129510,  -0.2243361473083,  -0.1590744107962,   0.0188449211419,  -0.2213369607925,   0.2067002207041,   0.1217323318124,  -0.0893036872149,   0.1007933765650,   0.0717643722892,   0.0094146374613,  -0.0886109322309,  -0.2336035519838,  -0.0142967402935,   0.1041126027703,  -0.0016903894721,   0.0800579860806,  -0.0215364620090,   0.0501205474138,  -0.0618220604956,  -0.0859258770943,   0.1910724043846,  -0.1660923361778,   0.0513554997742,   0.0680238530040,   0.1034091934562,  -0.1631037443876,   0.1492335349321,  -0.1934037059546,   0.1887537389994,  -0.0336475521326,   0.1394501477480,   0.1932722181082,   0.1154319420457,  -0.2196688205004,  -0.0905536785722,  -0.0027870831545,   0.1959876269102,  -0.0560020245612,  -0.0998906716704,  -0.2047496438026,   0.1227010115981,  -0.0711672157049,  -0.1388182342052,  -0.1482829898596,  -0.0027270575520,   0.0875122547150,  -0.2233485877514,  -0.2044292390347,  -0.0015820609406},
   {   0.0722936615348,  -0.1125899255276,   0.0280684698373,   0.1685061603785,  -0.0040324698202,  -0.1792277395725,   0.1850955337286,   0.0882281661034,  -0.2297741472721,  -0.1864173710346,   0.0722235888243,  -0.0815962329507,  -0.2015709877014,  -0.2100878357887,   0.1030257344246,  -0.1151429340243,   0.1889099776745,  -0.0142180845141,   0.1044240444899,   0.1101079955697,  -0.1584059596062,   0.1627007275820,  -0.1829576194286,   0.0585553944111,  -0.2105789035559,  -0.0702587664127,  -0.1493593007326,   0.0786912664771,  -0.1893716454506,   0.1735676825047,  -0.1251232624054,   0.1860876083374,   0.0739576220512,  -0.1911825835705,   0.2211512625217,   0.1742577254772,  -0.1653742492199,  -0.0534502901137,   0.0721007809043,  -0.1016508862376,  -0.0019189495360,  -0.1172337457538,  -0.0267435647547,  -0.2135827392340,   0.2152989059687,   0.0997445210814,  -0.0554410703480,   0.0360725522041,  -0.2542409300804,  -0.0541377291083},
   {   0.0322073474526,  -0.1987851709127,  -0.0192820876837,  -0.0071354503743,   0.0335210002959,  -0.1973359286785,  -0.2294483333826,  -0.1691440790892,  -0.1919770687819,  -0.1506026983261,  -0.0580417476594,  -0.1652569621801,  -0.2335919737816,   0.1135186851025,  -0.1594663709402,   0.1867322325706,  -0.1981234699488,  -0.0293564498425,  -0.0108726313338,  -0.1407910883427,  -0.2128810733557,   0.1493225842714,  -0.0436027981341,   0.1182829141617,   0.0820530056953,   0.2027112841606,   0.2061489969492,   0.2299672067165,  -0.0843981131911,  -0.1258594095707,   0.1811709553003,  -0.0880882814527,   0.1062524244189,   0.1010648235679,   0.1189403682947,   0.0361430905759,   0.1029016524553,  -0.1083149537444,   0.0502513647079,   0.2415939569473,  -0.2514843046665,  -0.0041757780127,  -0.0445850007236,  -0.0571443885565,  -0.1542980223894,  -0.0877150818706,   0.0673379600048,  -0.1834924519062,  -0.0754782184958,   0.0661892518401},
   {   0.0658771991730,  -0.0694021508098,  -0.0704269409180,  -0.2150508314371,  -0.1690691858530,  -0.1170644611120,  -0.2249309867620,  -0.1995001435280,  -0.0182904228568,   0.1234404891729,  -0.1331520080566,  -0.0727727934718,   0.0671279355884,  -0.2449539005756,   0.1438480168581,  -0.0162476673722,   0.0084473928437,   0.0180200450122,  -0.2532217800617,   0.2225546389818,   0.2562106847763,  -0.0683235153556,  -0.1507077366114,  -0.1568912416697,   0.0990846306086,   0.0375219024718,   0.0690495520830,   0.1840638667345,   0.1766094863415,   0.1292606890202,   0.0713302344084,   0.1560655832291,   0.0541370138526,  -0.1373316496611,  -0.1936934739351,  -0.0590943843126,  -0.2223395258188,   0.1097600236535,  -0.0140295019373,   0.1989224702120,   0.0226382296532,   0.0069508282468,   0.0678050592542,  -0.0488556474447,   0.0465684719384,   0.0316079407930,  -0.1654029637575,   0.1921584010124,   0.0950210168958,   0.2156177014112},
   {   0.0497449003160,   0.0965015068650,  -0.0531039573252,  -0.0694498345256,   0.1233526244760,  -0.1333526074886,  -0.0105182910338,   0.1527871936560,  -0.0091144768521,  -0.0481643863022,  -0.2287568449974,   0.0433652065694,   0.0243976302445,   0.2199131846428,   0.2004301846027,   0.1233348473907,  -0.1523806899786,   0.0237861014903,   0.0488733798265,  -0.0359306782484,  -0.0611530765891,   0.2087632417679,  -0.1530496776104,  -0.0518214814365,  -0.0494832396507,  -0.1743641495705,  -0.0903010964394,   0.0252717696130,   0.1505054384470,  -0.2006310522556,   0.0488646999002,  -0.0770755633712,  -0.0726469457150,  -0.1035580933094,   0.1959617137909,  -0.0780484378338,   0.1556859761477,   0.0870857164264,  -0.2220823615789,   0.0315014533699,   0.1380510479212,   0.1513058990240,  -0.1129385828972,  -0.0519396662712,  -0.0347302854061,   0.2135562747717,  -0.0783067271113,  -0.1118271946907,   0.1652879565954,  -0.2320671528578},
   {   0.0207612831146,   0.1609486639500,  -0.0459991917014,  -0.0741190835834,   0.1627795696259,  -0.1704930514097,   0.1951579153538,  -0.1187084019184,  -0.0543687641621,  -0.2095904797316,  -0.1396392881870,   0.1145067289472,   0.0304476879537,   0.1026760116220,  -0.1931239813566,   0.0130542051047,   0.2077989280224,   0.1410624980927,   0.1282083690166,   0.0533086284995,  -0.0877900272608,   0.2086155414581,   0.2568439841270,   0.0958505570889,   0.0624072775245,   0.0151241151616,   0.0586282238364,   0.1784747242928,   0.1625556945801,   0.0361903980374,  -0.1580532789230,  -0.0452083237469,   0.1833374649286,   0.1324553340673,  -0.1797965914011,   0.0940198749304,  -0.1220910176635,   0.0106710866094,  -0.0064419489354,   0.0413665287197,   0.2376956492662,   0.1112182363868,   0.0480978786945,  -0.0075693102553,  -0.1799362003803,   0.1159183904529,  -0.0579662956297,   0.1045644953847,   0.1821511238813,  -0.1298296898603},
   {  -0.1614008247852,   0.1004232987761,  -0.1780914962292,   0.0514692291617,  -0.2403956651688,  -0.0323536694050,   0.2217469215393,   0.1734564602375,  -0.1815847754478,   0.0977582260966,  -0.0209790375084,  -0.0160172376782,  -0.1421543657780,   0.1131763532758,   0.1873952895403,  -0.1759426444769,  -0.1494349539280,   0.0091022243723,  -0.0032190422062,  -0.0938345864415,  -0.1230911612511,   0.1595435440540,  -0.0836924538016,   0.0078899366781,   0.1062544733286,  -0.1689612418413,  -0.0397652462125,  -0.1322037279606,   0.1714218556881,   0.0396681390703,  -0.1678980886936,  -0.0590127259493,   0.1578781157732,   0.1517131179571,   0.2006913572550,  -0.0675823390484,  -0.0991413295269,   0.1425260901451,   0.0735626444221,  -0.0131600731984,  -0.0538654997945,  -0.1015660166740,   0.0397474542260,  -0.1700477153063,  -0.1389777958393,  -0.1453220844269,   0.2107083946466,   0.1082144752145,   0.0220317356288,  -0.1228211820126},
   {  -0.1744815111160,  -0.0788953080773,  -0.0275288484991,   0.1591708511114,   0.0773654952645,   0.1440099626780,  -0.0624056980014,   0.1757638007402,   0.1279221177101,  -0.1630265116692,   0.0393192172050,  -0.2068183422089,  -0.0732044130564,  -0.1603731960058,  -0.1269037127495,   0.2094550281763,   0.2162544876337,   0.1295648664236,  -0.1970856338739,   0.1905428767204,  -0.1181468889117,   0.1171689108014,   0.0062116901390,   0.1540746986866,   0.1703612804413,   0.1199283525348,  -0.1299692541361,   0.0936764478683,  -0.1525664925575,   0.1472682654858,  -0.1290858238935,   0.0980606898665,  -0.2221123278141,  -0.1746627539396,  -0.0407499186695,   0.1861042380333,   0.1223070323467,  -0.1996099948883,   0.1430134326220,   0.2028188109398,  -0.0329645201564,  -0.0955779701471,  -0.2092849761248,   0.2104902714491,  -0.1085211858153,  -0.1228674426675,  -0.1522726714611,   0.0028308895417,  -0.1012471318245,   0.0725285336375},
   {  -0.1018264666200,   0.1920611113310,  -0.1771595627069,   0.1407805681229,   0.0975690633059,  -0.0446321405470,  -0.0468754023314,   0.1842616796494,   0.0486126877367,   0.1428122967482,  -0.1031317189336,   0.0604614615440,   0.0118965236470,  -0.0119166364893,   0.0988910123706,  -0.1275018602610,  -0.1971296817064,  -0.0083541637287,   0.0797954723239,  -0.2054683864117,   0.1608521044254,  -0.1168466359377,   0.0836201086640,   0.2345800250769,   0.2386487275362,  -0.1812344193459,  -0.1237899735570,  -0.1969839781523,  -0.2275332957506,  -0.2206404805183,  -0.1718286126852,   0.2180737257004,   0.2258139103651,   0.1610362529755,   0.2450103461742,  -0.0912402421236,  -0.1067671328783,  -0.0556457005441,  -0.0373450182378,   0.1221035942435,  -0.1094913110137,  -0.0833308771253,   0.1214013695717,   0.2032132297754,  -0.1832182109356,  -0.1583190262318,   0.0729838088155,  -0.1550192385912,  -0.1622883826494,   0.1775345057249},
   {  -0.2180124223232,   0.1397311985493,   0.0564896576107,   0.1269845962524,   0.0614792928100,  -0.0045497738756,   0.1832392811775,   0.1495037525892,   0.1255441457033,  -0.0144560905173,  -0.1858951747417,  -0.0630373284221,   0.0962105765939,  -0.1132815554738,  -0.0028394393157,   0.1993366628885,  -0.0920259654522,   0.0342970415950,  -0.0789929851890,   0.1269350051880,   0.1692791581154,  -0.1503483206034,   0.1675618439913,   0.0160761047155,  -0.1625825613737,  -0.0294553749263,  -0.0208942908794,  -0.2174760848284,   0.2239073365927,  -0.2048189640045,   0.0089295804501,   0.0183736402541,   0.0516958758235,  -0.1290743350983,  -0.0113711766899,   0.2438392341137,  -0.0843686088920,  -0.0277513414621,   0.1834284961224,   0.2375778853893,   0.0783440470695,   0.1391522735357,  -0.1527757644653,   0.0859249681234,  -0.0361494049430,   0.0219223815948,  -0.1157635971904,  -0.1593595445156,  -0.1193831115961,   0.1374704837799},
   {  -0.0213390626013,  -0.0807223394513,  -0.0645018517971,   0.0301182139665,  -0.0564211495221,  -0.0785539820790,   0.1094735264778,  -0.0573560297489,  -0.0083072632551,  -0.0070590372197,   0.0421015843749,   0.0816014185548,   0.1884252429008,  -0.2004138976336,  -0.1069116741419,   0.2221761047840,  -0.0226544663310,   0.1840664297342,   0.0075145093724,   0.1447809040546,  -0.1338018923998,   0.1145505756140,   0.0633053556085,   0.0563790425658,   0.2185802459717,   0.0155776171014,  -0.2073682993650,   0.1120688468218,   0.1024678573012,   0.0550218075514,   0.0753116533160,   0.1688394993544,  -0.0930958315730,  -0.1073255166411,   0.2152625471354,  -0.1733577400446,  -0.0401760451496,   0.1260748803616,   0.1837627738714,  -0.0623477213085,  -0.0499690957367,   0.1108085215092,   0.0492595359683,  -0.1934794187546,  -0.0162774510682,  -0.0079271914437,  -0.1670783460140,   0.0412367358804,  -0.1738335490227,   0.0882740542293},
   {   0.0540844313800,  -0.0614020898938,  -0.2077123373747,   0.1887953877449,  -0.0263851415366,   0.0768515914679,  -0.0723268687725,   0.1298475861549,  -0.0788057371974,  -0.1570900678635,   0.1491237729788,   0.1580123901367,   0.2003981322050,  -0.0747197717428,   0.1176646277308,   0.1323970109224,  -0.0833588168025,   0.0762163773179,   0.1025881990790,   0.0086909485981,  -0.0342957340181,  -0.0845698863268,  -0.1327945291996,   0.1662230491638,   0.1519235223532,  -0.0261312779039,  -0.0846433639526,  -0.0306624975055,  -0.0832649916410,   0.1391528993845,   0.0663696005940,  -0.0305693652481,  -0.1639000177383,   0.2134214788675,  -0.0431475937366,  -0.1335654109716,   0.1142358407378,  -0.2200223058462,  -0.2153845876455,  -0.0096501084045,  -0.0387427881360,   0.1193970292807,  -0.0506376437843,  -0.0463491678238,  -0.1877219676971,   0.1340478658676,   0.2116941958666,   0.1886199414730,  -0.1359284073114,  -0.2302231639624}};
  const float bias_0[50] = {  -0.0199024435133,   0.0104277934879,  -0.0051178131253,   0.0185152702034,   0.0071639767848,  -0.0106129134074,   0.0270519871265,   0.0130470544100,   0.0010204470018,  -0.0146716628224,   0.0239411722869,  -0.0125167034566,   0.0227693952620,  -0.0024326385465,   0.0128969606012,   0.0141827231273,   0.0261465441436,   0.0120584964752,   0.0102475704625,   0.0165283568203,   0.0217134822160,  -0.0234577320516,   0.0151507398114,   0.0256312433630,   0.0251333955675,   0.0106130363420,  -0.0164944622666,   0.0218041352928,   0.0174146220088,   0.0012676916085,  -0.0102993026376,   0.0009787515737,   0.0211044792086,   0.0138258934021,   0.0163879171014,   0.0227511823177,   0.0068962657824,   0.0231284853071,   0.0156424380839,   0.0248795468360,   0.0207926947623,   0.0255127009004,   0.0109133347869,   0.0077825374901,  -0.0227371044457,   0.0278982836753,  -0.0177294667810,   0.0199840571731,  -0.0101363994181,  -0.0007339151925};
  // Declare the arrays in the stack
  const float kernel_1[50][50] = 
  {{  -0.0981272980571,   0.2039529532194,  -0.0024431897327,   0.0169395375997,  -0.1861190348864,  -0.0344523116946,  -0.0617001168430,   0.0344608277082,  -0.0548794604838,   0.2055453211069,  -0.2193206846714,   0.2302632927895,   0.0693015903234,   0.0976478978992,  -0.0013842425542,   0.1704470515251,  -0.0601780936122,  -0.1304110884666,   0.1036051139235,   0.1127838417888,  -0.0036042674910,   0.1317559927702,  -0.1872195154428,   0.1439668536186,   0.1489014327526,  -0.0877465307713,   0.0625372380018,   0.0772143304348,   0.0643986240029,  -0.1822166591883,   0.0483676828444,   0.1551634371281,  -0.1096007302403,  -0.0290357954800,  -0.0595801100135,  -0.1785018146038,   0.1650042682886,  -0.1333358436823,  -0.0995028391480,  -0.0977947786450,   0.0977038294077,   0.0220791045576,  -0.0243070814759,   0.0148650631309,  -0.1903409063816,  -0.2121527940035,   0.1571300774813,  -0.0309895221144,   0.0182361658663,   0.0314356908202},
   {  -0.1782243400812,  -0.0103643881157,  -0.0228585898876,   0.0291238445789,   0.0329309962690,   0.0618998780847,  -0.0531831197441,  -0.1788595020771,  -0.0315078943968,   0.1664301902056,   0.1363419294357,   0.0886591747403,  -0.0682202279568,   0.0437808446586,  -0.1102918237448,  -0.2126313149929,   0.0460658855736,  -0.0712367817760,  -0.1995389759541,   0.0178533792496,   0.2430094927549,   0.2206954509020,   0.2462315559387,  -0.1166539937258,   0.0371302627027,   0.0192575789988,  -0.0545838512480,   0.2080275267363,  -0.1466555446386,  -0.1202778145671,  -0.1943755596876,  -0.2285635173321,   0.1091067567468,  -0.2175997793674,   0.0123304408044,   0.0980218574405,  -0.2222927361727,   0.1938714534044,  -0.1573765426874,   0.1979546844959,   0.1187579184771,  -0.0058489185758,   0.1388073265553,  -0.1005987301469,  -0.1131094545126,   0.1499638408422,   0.2437294572592,  -0.1656661778688,   0.2075780481100,   0.1199029386044},
   {  -0.1613369733095,  -0.0117381010205,   0.2286351025105,   0.1220799908042,   0.0662771984935,  -0.1321809738874,   0.0969334319234,  -0.0290349274874,   0.1572720408440,   0.1840082406998,  -0.0359092727304,   0.1826618462801,   0.0147495428100,   0.1603601127863,   0.2259666621685,   0.1323868334293,   0.1348781138659,  -0.2186452895403,  -0.1420625299215,  -0.0322120413184,   0.0171466656029,   0.2079576998949,   0.0234098397195,   0.1137765645981,  -0.1061588227749,  -0.0585428774357,  -0.1656411588192,   0.1746162325144,   0.0528470575809,   0.1288592070341,   0.0609093010426,  -0.2308770716190,   0.0668489784002,  -0.0711843669415,  -0.0559862777591,   0.1040685772896,  -0.0439644157887,   0.1391042321920,   0.1762462705374,  -0.1708308905363,   0.1251117438078,   0.2052391320467,  -0.0344586819410,   0.0837997049093,   0.0230527557433,   0.1213558316231,   0.0102596115321,  -0.1789635270834,   0.0156595427543,  -0.1708217561245},
   {  -0.0587806887925,   0.1934835463762,   0.1409315466881,   0.2028599828482,   0.0145197212696,  -0.0368874371052,  -0.1681312918663,   0.1221139356494,  -0.0022474334110,   0.0446532256901,   0.0960521027446,   0.1106137335300,   0.0455178730190,  -0.0814010277390,   0.1895557641983,  -0.0187051035464,  -0.1872301846743,  -0.1849191486835,  -0.0173576381058,  -0.0757112950087,   0.1927415132523,   0.0706024393439,  -0.0162686612457,   0.0384567603469,  -0.1690664738417,   0.0153621742502,   0.1213304474950,   0.2238953411579,  -0.1770272850990,   0.0190392676741,   0.0475908592343,   0.1619266718626,  -0.2227659970522,   0.1927427053452,   0.2031175196171,  -0.0136725641787,  -0.0814639925957,  -0.1665195822716,   0.2118903249502,   0.1325447261333,   0.0745155587792,   0.0290101692080,  -0.2535623610020,   0.0615782849491,   0.1314866691828,   0.1457072198391,  -0.0117816403508,  -0.2201439142227,  -0.0742950066924,  -0.2337647080421},
   {  -0.0526905581355,   0.0501301437616,   0.0447153709829,  -0.0960156023502,   0.2001543343067,   0.2070346474648,   0.0391572490335,  -0.1904510259628,  -0.2320747077465,  -0.0975554883480,  -0.1289301663637,   0.1069036573172,  -0.1417681723833,   0.1781255155802,  -0.2191683948040,   0.1829029917717,  -0.0286441948265,  -0.0909852460027,   0.0049137650058,  -0.1443342715502,   0.2289422750473,  -0.1997993439436,  -0.0658206641674,  -0.0308099873364,   0.0672021359205,   0.1698074936867,   0.1353832185268,  -0.1167998984456,  -0.2421077638865,   0.0606583654881,  -0.1115656718612,  -0.2131941765547,  -0.1387841105461,  -0.1178578212857,  -0.0792746469378,  -0.2628089785576,   0.1294142007828,   0.0967741012573,   0.0006152503775,   0.0852269455791,   0.2548367381096,   0.0629250034690,   0.0528413951397,   0.2496618628502,  -0.1493837982416,  -0.1084420233965,   0.0997237339616,  -0.0563300885260,  -0.0518167614937,  -0.1788759082556},
   {  -0.0393032431602,   0.1282129138708,  -0.0575524084270,   0.1689938902855,   0.0560780093074,  -0.0377289876342,  -0.1770354807377,   0.2560770809650,   0.1152641475201,  -0.1658575236797,  -0.1586404144764,  -0.1525192707777,  -0.0006641253713,   0.0948779731989,  -0.0597888119519,  -0.1348491907120,  -0.1124692857265,   0.1134678125381,   0.0134285464883,   0.0812769681215,  -0.0267845001072,  -0.1589968949556,   0.1002684235573,  -0.0432826913893,   0.0487814731896,   0.1710109412670,   0.1734490841627,   0.2318935692310,   0.0784924477339,  -0.1926507204771,   0.1177219524980,   0.1244956627488,   0.1414266079664,   0.1163686215878,   0.0190254319459,   0.2381879687309,   0.0376061089337,   0.1057998239994,   0.0443849973381,   0.2410984933376,   0.1452198773623,   0.1712960302830,  -0.1427002698183,   0.2197783142328,   0.1546077430248,   0.0448940768838,   0.0555156245828,  -0.0865572020411,  -0.1842152476311,  -0.1937630921602},
   {   0.0234522186220,  -0.0583284944296,   0.0506404340267,   0.0308298896998,   0.2153932899237,   0.1082823425531,   0.0459927096963,   0.0213055815548,  -0.1309176087379,  -0.0629455447197,  -0.2070469409227,   0.1485547572374,  -0.0939664617181,  -0.0137178609148,  -0.2017911225557,  -0.0756519436836,  -0.1572740972042,  -0.2520493865013,  -0.1755132228136,   0.0239394791424,  -0.0141121232882,   0.1211440786719,  -0.1558879315853,   0.0740411877632,   0.1264253556728,  -0.0552995577455,  -0.0920090675354,   0.1190631017089,  -0.0618750676513,  -0.0096314959228,   0.2418548911810,  -0.1924210190773,  -0.0275684967637,   0.1961239427328,   0.1199919879436,   0.0641863122582,  -0.0270206667483,  -0.0699808746576,   0.1754939556122,  -0.0700725838542,  -0.2503194510937,   0.1958360224962,   0.1657018065453,  -0.2320173680782,  -0.0123241441324,  -0.1638015061617,   0.2107087224722,   0.0642757192254,  -0.0214282069355,   0.1793906390667},
   {  -0.1585568636656,   0.0811853855848,   0.0190320331603,  -0.0812622979283,   0.1666997671127,   0.1489344239235,   0.0223685670644,   0.1291964799166,   0.0164392981678,   0.1267597526312,  -0.2192694991827,  -0.1242402344942,  -0.0332931205630,  -0.0202234238386,   0.0183252189308,   0.1544815450907,  -0.1180136874318,  -0.0940311476588,  -0.2365108281374,  -0.0858840495348,  -0.0361369848251,   0.0561958961189,   0.1674220263958,   0.2195787429810,   0.0598959401250,  -0.0650477707386,  -0.1930749267340,   0.0934614315629,   0.1117161586881,  -0.1758577674627,   0.2024685442448,  -0.2268103063107,  -0.1144507601857,  -0.1203378066421,   0.0953313335776,  -0.0222209058702,  -0.0773802176118,   0.0815564543009,   0.1491019874811,   0.1450870037079,   0.0642006322742,  -0.1598605215549,  -0.1345083415508,  -0.0911537632346,   0.2255300879478,  -0.2354337424040,  -0.0967984050512,   0.1404400169849,  -0.0842071473598,   0.0489763095975},
   {  -0.0382629856467,   0.1694330722094,  -0.2446254193783,   0.1852392256260,  -0.1245544999838,  -0.0931030362844,   0.2252342253923,   0.1209639981389,   0.2256783992052,  -0.0870106816292,  -0.1717236340046,  -0.1168806478381,  -0.0065146810375,   0.1472439169884,   0.1541508585215,   0.1456685811281,   0.0628355666995,  -0.0886461809278,   0.2032378315926,  -0.0187920723110,   0.0994012430310,   0.1060561239719,   0.1031853705645,  -0.0552076213062,   0.2022205740213,  -0.1324876099825,   0.1131834536791,   0.1611921340227,   0.0697438344359,   0.0785146132112,  -0.0450057238340,   0.1675726920366,   0.2478609234095,   0.0816558822989,   0.0479796566069,  -0.0199994109571,   0.0043401415460,  -0.1781183779240,   0.0110494690016,   0.2177221477032,   0.1960288882256,  -0.2398185282946,   0.0863469615579,   0.1280032396317,  -0.1909078359604,   0.0647810250521,  -0.2238308042288,   0.1068692803383,   0.1994056403637,  -0.0405250974000},
   {   0.1958943903446,   0.1759130358696,  -0.0817943587899,  -0.1121827289462,  -0.0735618323088,   0.2547481358051,   0.0271951798350,  -0.1222328767180,  -0.1645389646292,  -0.1043627038598,   0.1646402627230,  -0.1485785394907,   0.0158170275390,   0.1050766035914,   0.2050126940012,   0.0681594461203,  -0.1550854593515,   0.2181809097528,   0.1409605443478,   0.0042527187616,  -0.2542911469936,  -0.0630022734404,   0.0030036659446,   0.2111335545778,  -0.1299301534891,  -0.0045500220731,  -0.0251155644655,   0.0899999663234,  -0.0053201443516,  -0.0087620094419,  -0.0959473401308,   0.1905133426189,   0.0454710386693,   0.2044387459755,  -0.1608399003744,   0.0135115291923,   0.0901968851686,  -0.0726667270064,   0.1588226556778,   0.2445285469294,  -0.1616294085979,  -0.0417101830244,  -0.0804033204913,  -0.0577806942165,  -0.1669414639473,   0.1152159646153,   0.0848460271955,   0.0436897091568,  -0.1713996529579,  -0.1974352300167},
   {  -0.0216615404934,  -0.1038657501340,  -0.0630266293883,   0.0836216807365,   0.2018236815929,   0.2638061642647,  -0.1299386471510,   0.0968652889132,   0.0688138157129,  -0.1798887401819,  -0.1475037187338,   0.2354114204645,   0.2072982639074,  -0.1459755152464,   0.0735640078783,  -0.0678184479475,  -0.1725573837757,  -0.0496069751680,  -0.1500075459480,  -0.1922414451838,  -0.1704252064228,  -0.1790322363377,  -0.2007033377886,   0.2123928964138,   0.2134080827236,   0.1561239510775,   0.1225534677505,  -0.0254295989871,  -0.1922012269497,  -0.0082920314744,  -0.0124219227582,  -0.1826568245888,  -0.2078438699245,  -0.2080399245024,  -0.1441701948643,   0.2213082909584,  -0.2076764255762,   0.2138032317162,   0.1692200154066,  -0.0243310779333,   0.0026481198147,   0.2560958862305,   0.1468313783407,   0.0864018872380,  -0.2542109489441,   0.1087854281068,  -0.0985506176949,  -0.1592860817909,  -0.2242447435856,   0.0929753631353},
   {  -0.0514606423676,  -0.1465976089239,   0.1694357991219,  -0.0632655620575,  -0.2046139538288,  -0.0652046427131,   0.0171064268798,   0.0800449401140,   0.1187242418528,   0.2509480416775,   0.1375645995140,  -0.0660849139094,  -0.2054439187050,  -0.1099367961287,   0.0170208327472,   0.1589168161154,  -0.0427641049027,  -0.0164466239512,   0.2148345112801,   0.0916638895869,  -0.0626026242971,  -0.2005725353956,   0.2289208918810,   0.0905415788293,   0.0487275756896,   0.1193922311068,  -0.0417566709220,  -0.0894092842937,   0.0133948195726,   0.1959326863289,  -0.0668160095811,   0.2205446958542,   0.0695930197835,  -0.0577167533338,   0.0202570501715,  -0.2139229327440,   0.1572256386280,  -0.1457185000181,   0.1588521450758,  -0.1296527385712,   0.1283933222294,  -0.1654699742794,  -0.2042339891195,   0.2087546437979,  -0.0342151187360,  -0.2172431349754,  -0.0752814114094,   0.0614520087838,  -0.1258037984371,  -0.0709594190121},
   {   0.0618282668293,   0.1601725071669,   0.0319135300815,   0.0665302500129,   0.2088126093149,  -0.0540482960641,  -0.1654967367649,  -0.0868699997663,  -0.2629817426205,   0.1499668210745,  -0.0263646040112,  -0.0721160545945,  -0.0961482897401,  -0.1509621441364,  -0.0784542039037,   0.0031543991063,  -0.2271873056889,   0.1172246783972,   0.1632631868124,  -0.1606134325266,  -0.1049001514912,  -0.1692732572556,  -0.1118894964457,  -0.0675414800644,   0.0073303887621,  -0.0443076752126,  -0.0293876696378,   0.0425174795091,  -0.2393861860037,   0.1332217305899,   0.2099493294954,  -0.2189376652241,   0.1959712356329,  -0.0483966805041,   0.1889192461967,  -0.1185334697366,  -0.0328167155385,  -0.2327372133732,  -0.1442951560020,  -0.0620652474463,   0.2085977494717,   0.0885249599814,   0.0269219074398,   0.1215319707990,   0.1930253654718,   0.2414629012346,  -0.1742703318596,  -0.0923937335610,   0.1588769555092,  -0.2174119204283},
   {  -0.0948182418942,  -0.1410037577152,  -0.1514788269997,   0.2001261413097,   0.0516915209591,  -0.0183087494224,   0.0950021520257,   0.1746101826429,  -0.2524792551994,  -0.1955794095993,  -0.2092337459326,  -0.2048752456903,   0.0350312814116,  -0.2127036452293,  -0.0971448794007,  -0.0575909912586,  -0.1728723198175,  -0.0038183331490,  -0.1540590226650,  -0.1945599019527,  -0.0531587749720,  -0.2266405224800,   0.0028796184342,   0.0813193693757,   0.0707824602723,   0.1597476899624,   0.0117493169382,   0.1598434895277,   0.1656515449286,  -0.1224568486214,  -0.1459184587002,  -0.0690455660224,   0.1424762159586,   0.2211352735758,   0.0701647326350,  -0.0511936433613,   0.1749706417322,   0.1636387407780,  -0.0075572915375,  -0.0634444430470,   0.1442445665598,   0.0567959770560,  -0.1649238467216,  -0.1519958674908,   0.0794098153710,  -0.0935661494732,  -0.0473170466721,   0.1718871891499,  -0.0175092816353,   0.0771252587438},
   {   0.1793596893549,  -0.0812679901719,   0.1937294304371,  -0.0736218169332,   0.2141609489918,   0.0739635080099,  -0.0348168648779,   0.1140575110912,  -0.0558265186846,  -0.1049796938896,  -0.1457825452089,   0.0171271730214,  -0.1315201967955,   0.0185602232814,   0.1539813280106,   0.1247496083379,  -0.0065441676416,  -0.0037590495776,   0.2297359555960,   0.0004198293318,   0.1757921576500,  -0.0134892314672,   0.2502553164959,   0.0396973192692,   0.0070269829594,   0.2542552053928,   0.1415233761072,  -0.0754181295633,  -0.0279016010463,   0.1875039190054,  -0.1445721089840,  -0.1313088834286,   0.1056118533015,  -0.0720071718097,  -0.1318103373051,   0.0269809104502,  -0.1977299004793,   0.0006346300943,   0.1336605250835,  -0.1299130767584,  -0.0646924152970,  -0.0005776738399,  -0.0729874670506,   0.0638734027743,   0.1577296108007,   0.0531563833356,  -0.1456279605627,   0.0241456106305,   0.0818506255746,   0.2278275489807},
   {   0.0813091993332,   0.1865894496441,  -0.2150027751923,   0.2228242158890,  -0.1477961987257,   0.2420662045479,  -0.1764162778854,   0.1210922524333,  -0.0804750993848,   0.2260123640299,  -0.0856854692101,   0.0862327218056,  -0.2140634953976,  -0.0255165752023,   0.1833281815052,   0.0129796490073,   0.1675087958574,  -0.0339674875140,  -0.1831363439560,   0.0920043885708,  -0.0469117537141,   0.0636430233717,  -0.0817946270108,  -0.1382666528225,   0.1280836462975,  -0.0272678453475,  -0.1921000480652,   0.1806461513042,   0.0237066522241,   0.0341662093997,   0.1051246598363,  -0.1033905372024,   0.0705076754093,   0.1009603515267,   0.2205251157284,   0.1056200712919,   0.1274339705706,   0.1333440095186,  -0.0406149215996,   0.1102861687541,  -0.0575700402260,  -0.0840669274330,  -0.0613104440272,  -0.0512043088675,  -0.0753019303083,  -0.1187299564481,  -0.1210479065776,   0.1323068141937,   0.0497659146786,   0.1960085928440},
   {  -0.1334341764450,   0.0095323827118,   0.0352891162038,   0.1050879359245,   0.2407077252865,   0.1548015773296,  -0.0704461336136,  -0.0556296966970,  -0.1608468145132,  -0.0139655666426,   0.0805941969156,  -0.0528925433755,   0.1420615911484,  -0.1650105714798,  -0.2340400367975,  -0.1338309198618,  -0.2071316093206,  -0.0456183366477,  -0.0631843358278,   0.0895452499390,  -0.1834675222635,  -0.2125432193279,  -0.2648506164551,   0.2018663883209,   0.0462871603668,  -0.1234468817711,  -0.0229616276920,   0.2136464565992,  -0.1641941070557,  -0.0122162513435,   0.1143421381712,  -0.2605718374252,  -0.2230432480574,  -0.2343444526196,   0.1590259522200,  -0.0091273402795,   0.0714381858706,   0.1320069730282,   0.1103609949350,   0.1725931018591,  -0.1719855368137,   0.1633533388376,   0.1899351179600,  -0.0450756177306,   0.0505474805832,   0.0035477990750,  -0.2324561774731,  -0.1235861554742,   0.0498721860349,  -0.1823755204678},
   {   0.1845372468233,  -0.0670269876719,   0.0607794746757,  -0.1304675489664,  -0.0002529074263,   0.0687371268868,   0.2084094285965,  -0.1437856107950,   0.1960972994566,   0.0246948115528,   0.1217075586319,  -0.0584804937243,   0.1245175078511,   0.1308275014162,  -0.1213933005929,   0.2373996824026,  -0.0974074676633,   0.0313426926732,   0.1201609075069,   0.1746651232243,   0.1480346620083,  -0.2149042040110,  -0.0248235631734,  -0.1457016468048,   0.2149677872658,  -0.2076124846935,  -0.2348564714193,   0.0352120101452,  -0.1893306970596,   0.1330141127110,   0.0772247388959,   0.1636232286692,  -0.1031777858734,   0.1551813185215,  -0.0179663021117,  -0.0588775686920,  -0.1512319892645,   0.0567912161350,  -0.0485583618283,   0.0081102633849,  -0.1013831570745,   0.1302947700024,   0.1870131492615,   0.0867033228278,   0.0679147616029,  -0.0165723990649,   0.0227164570242,   0.1077004149556,  -0.1276311129332,   0.0943878963590},
   {   0.0495698899031,  -0.1788767576218,  -0.0570332556963,  -0.0987728685141,   0.1519768834114,   0.1331207454205,  -0.1416695117950,   0.2435847669840,  -0.0263328198344,  -0.2094192355871,   0.0938259586692,  -0.1452092975378,   0.0928155481815,  -0.0510090515018,   0.0041162394919,   0.1833462715149,   0.0364314168692,  -0.1575776785612,   0.2030758112669,  -0.0886487662792,  -0.0083740055561,  -0.2307335585356,  -0.2391410768032,   0.1481452882290,   0.1215401366353,  -0.1517689228058,   0.1873534768820,  -0.0290067680180,  -0.1746784299612,  -0.2022379785776,   0.1900618374348,  -0.1904929727316,   0.0908708348870,   0.2376158684492,   0.1590040773153,   0.0086268549785,  -0.1736955940723,   0.1774992942810,  -0.1445319950581,   0.1254992336035,   0.1376380026340,   0.2471126616001,  -0.0353285260499,  -0.0077273854986,  -0.0329822748899,  -0.0272226240486,   0.2365996241570,   0.0941939428449,  -0.1357671916485,   0.0747602954507},
   {   0.1471338719130,  -0.1623896211386,   0.1921896189451,  -0.0090190675110,  -0.2497010380030,   0.1648449599743,   0.1602205634117,  -0.2161125391722,   0.0381880179048,  -0.0804225578904,   0.1825355887413,   0.0743035823107,  -0.1906277090311,   0.1327330023050,  -0.0454709492624,   0.2037777751684,  -0.1423495858908,  -0.0829524174333,   0.0939032360911,   0.1960202902555,   0.1800654530525,   0.2512850165367,   0.2120998054743,  -0.2261787652969,  -0.1096060425043,   0.1981093287468,   0.1257167905569,   0.0525984838605,   0.1924055069685,   0.0998096764088,   0.2267548739910,   0.2226741015911,  -0.2164354026318,   0.1995434910059,   0.1688650995493,  -0.1821162998676,   0.1401721090078,   0.0588931888342,  -0.0794274136424,  -0.1043155863881,   0.2210159003735,   0.0784104093909,  -0.1734521985054,  -0.2472350299358,  -0.1840517967939,  -0.0895555242896,   0.2507444620132,   0.2023836672306,  -0.1885707527399,   0.1852902173996},
   {   0.1098695248365,  -0.2070340961218,   0.1552363485098,   0.1263124644756,  -0.1906159818172,   0.2236668169498,   0.1590843051672,  -0.2011201977730,   0.2310492396355,   0.1113202795386,   0.2644380033016,   0.1535249650478,   0.0510257668793,  -0.0549458079040,   0.0421298258007,   0.1490903645754,  -0.0474334433675,   0.0755860954523,  -0.1210397332907,   0.0358013883233,  -0.1962801516056,   0.2463648617268,   0.2433498948812,   0.0442466512322,  -0.2179735004902,   0.1719086319208,  -0.1565885692835,  -0.1038417518139,  -0.0959334373474,   0.1206046491861,   0.0728918239474,  -0.0126033583656,  -0.0937038958073,  -0.0841218456626,   0.1600183695555,  -0.0167072191834,  -0.2219259142876,  -0.1508694291115,  -0.0328916944563,   0.1656699925661,  -0.1099537536502,   0.2200629860163,   0.0099966609851,  -0.2464753240347,   0.1662289649248,  -0.1213032156229,   0.1262664496899,   0.2415106445551,  -0.2216634154320,   0.0485169664025},
   {  -0.1860708296299,  -0.1921724975109,   0.1820426434278,  -0.2306750416756,  -0.1205602660775,   0.2236543744802,  -0.1619345843792,   0.1260598301888,  -0.1024852991104,  -0.0542104318738,  -0.1844709515572,   0.0650120675564,  -0.0274529177696,  -0.0983438193798,   0.1309806257486,  -0.1087653711438,  -0.1215600520372,  -0.1411160081625,   0.0513256601989,   0.0777229145169,  -0.0701679587364,   0.2329450547695,  -0.1620464473963,   0.2365008443594,   0.0741414800286,  -0.0304942782968,  -0.1421403884888,  -0.0111856302246,  -0.0459766685963,  -0.0138977579772,  -0.2456967085600,  -0.0651138126850,   0.0982996225357,  -0.0632575228810,  -0.0244574137032,   0.1293185353279,  -0.1773892790079,  -0.0123706487939,   0.0204264651984,   0.2401932477951,   0.0789502710104,  -0.1862245649099,   0.0263362098485,   0.2203730195761,   0.0118168843910,   0.1923118233681,   0.0270758345723,  -0.1818684786558,   0.0667965039611,   0.0366799086332},
   {   0.1120074167848,  -0.2428475916386,  -0.2327830791473,   0.0487473532557,  -0.0707096382976,  -0.2181430459023,   0.0119280871004,   0.1796855181456,  -0.2036164999008,   0.1679863929749,   0.0171290189028,  -0.1718288660049,  -0.1141883507371,  -0.0173131115735,   0.1417172402143,  -0.0598352439702,  -0.2276835441589,   0.0694929957390,   0.0475276298821,  -0.1865250021219,   0.0453618653119,  -0.1177339032292,  -0.1937272995710,  -0.0705257207155,   0.1019957959652,  -0.0354946888983,  -0.0075197471306,   0.2193288505077,  -0.0975710749626,   0.1467332392931,  -0.0611804649234,   0.1604056507349,  -0.2272084653378,   0.1252536475658,  -0.2328840941191,   0.2234669774771,  -0.1752175688744,  -0.0100200800225,  -0.0935630947351,  -0.0255535338074,   0.0336133725941,   0.1672179847956,   0.0798369124532,   0.1618414521217,   0.1505972892046,   0.1984606385231,   0.1815821677446,   0.0487564392388,   0.2472025752068,  -0.1977535039186},
   {   0.1237357854843,   0.1731475293636,   0.0889853984118,  -0.2225520461798,  -0.1123128831387,   0.2156509011984,  -0.1674594134092,   0.0732442066073,  -0.0698797330260,   0.0313306711614,   0.1535692960024,  -0.0035814302973,   0.2375717014074,   0.0687496438622,  -0.0829701572657,   0.1399798393250,   0.0659482181072,  -0.0520987622440,   0.2257956564426,  -0.1432882994413,   0.1102359145880,  -0.0186042673886,   0.1941294819117,   0.0167369395494,   0.2204394936562,  -0.0845009014010,  -0.1951528489590,  -0.1954390704632,  -0.2160058319569,   0.0334264263511,   0.0263436529785,   0.2308305799961,  -0.0563252083957,  -0.2330885231495,   0.1036555916071,  -0.1977763622999,  -0.1442418098450,  -0.2195605933666,  -0.0724934861064,  -0.0340451933444,  -0.2325710803270,  -0.1269880682230,  -0.1770069301128,   0.1569326817989,  -0.0369505621493,   0.2411446720362,  -0.2234728038311,   0.0749416872859,   0.0113876555115,   0.0933661088347},
   {   0.0013876368757,  -0.0179303642362,  -0.1990109533072,  -0.0637862011790,   0.0155180105940,   0.1525597572327,  -0.1391330510378,   0.0613273233175,  -0.1063783541322,   0.2118347138166,   0.2512309849262,   0.1028923615813,  -0.0238536912948,  -0.0997086092830,   0.1087268739939,  -0.1866554915905,   0.0324983559549,  -0.0329083949327,   0.0973899364471,   0.0308757293969,   0.1081313490868,  -0.1736632436514,  -0.0230351593345,  -0.0095852650702,   0.0896550193429,   0.0635940879583,  -0.0829967930913,  -0.1901118308306,   0.1051484346390,   0.0220924802125,   0.0730304494500,   0.1570946723223,   0.1990760713816,  -0.0641694217920,   0.0747993662953,  -0.1995481103659,  -0.1184099912643,   0.1648628413677,   0.0517230629921,  -0.1413926482201,   0.0003354474029,   0.1248605325818,   0.1510971635580,   0.0108018713072,   0.1361878961325,  -0.1183031424880,  -0.1753406822681,   0.0285966582596,   0.0063301841728,   0.2247756868601},
   {   0.1476561427116,  -0.0324822142720,  -0.0080145010725,  -0.1953977048397,   0.2384293079376,   0.0318030789495,   0.1288093477488,  -0.2419584691525,   0.0276021920145,   0.0673462226987,   0.1879866123199,  -0.0658548697829,   0.2208625376225,  -0.0854399949312,   0.0918006524444,  -0.0069646262564,  -0.1837864518166,  -0.0108403898776,  -0.2261699885130,   0.1841575205326,   0.2047059088945,   0.1701518744230,   0.1798318028450,  -0.0053311148658,   0.1627067029476,  -0.2100186645985,   0.0039705722593,  -0.1459687203169,   0.0175403505564,   0.0547787249088,  -0.1079430505633,  -0.0229563340545,   0.0075275758281,  -0.1244102641940,  -0.1054993048310,   0.2368231266737,   0.2015135288239,   0.0037438038271,  -0.1376393139362,  -0.1805699318647,   0.0892331674695,   0.1996084153652,  -0.2070170491934,  -0.0699589550495,  -0.1385559588671,  -0.1173373907804,  -0.0285315625370,  -0.1110402196646,  -0.0603913106024,  -0.1997960060835},
   {   0.0400244556367,   0.0668212845922,   0.2322110682726,   0.1116695627570,  -0.2054120600224,   0.0586465224624,   0.2060576379299,  -0.2156213968992,  -0.2291481643915,   0.0394435822964,  -0.1461911052465,   0.2032233774662,   0.1149014383554,   0.1312595903873,  -0.1356763243675,  -0.1053797602654,  -0.1214805543423,   0.1237842962146,   0.0913211479783,   0.1167213097215,  -0.0917175710201,   0.2415641248226,   0.2184959501028,   0.0577854141593,   0.1314243674278,   0.0134019367397,  -0.1217784807086,  -0.2335713207722,   0.1414285153151,   0.1553141474724,  -0.1978202760220,   0.1075618937612,  -0.0467827841640,  -0.1104253828526,  -0.0689814612269,   0.0314124375582,   0.1579669862986,  -0.0286712832749,  -0.0729342475533,  -0.0798181965947,   0.2529175877571,  -0.0964489430189,  -0.1573381274939,   0.1166337803006,   0.1872582882643,   0.0679743885994,  -0.1725715845823,   0.2024515569210,   0.1468921750784,  -0.0508264862001},
   {  -0.0107395052910,  -0.1052330806851,  -0.0948238447309,   0.0910364985466,   0.0111106727272,   0.2336455881596,   0.1522921323776,   0.2287170439959,   0.0163372792304,  -0.1402869075537,  -0.1666907519102,   0.1278322190046,  -0.0371476300061,  -0.1140226498246,   0.0087873963639,   0.1881045848131,   0.1472910940647,  -0.1732454597950,   0.0326386578381,  -0.0873410999775,  -0.0788543373346,  -0.0609625056386,   0.1657291054726,   0.0197020657361,   0.1426595747471,   0.0861561447382,  -0.1946075707674,   0.1604998856783,  -0.1220595762134,   0.0028274327051,  -0.2396265864372,  -0.0965647399426,   0.2235243618488,   0.1399605274200,   0.1630001962185,   0.1556001901627,   0.0081439642236,   0.1457388401031,  -0.2001632004976,  -0.1963598430157,   0.1528942584991,   0.0962333604693,   0.1501381397247,  -0.0199672449380,  -0.0610930696130,   0.1244385316968,  -0.0182361919433,   0.0592786855996,  -0.0333669520915,   0.0915162414312},
   {   0.1108776554465,   0.1386002153158,   0.2200115621090,   0.1222562864423,   0.1934660077095,   0.2511564493179,  -0.1295461058617,  -0.1513436883688,  -0.0292979422957,   0.0672858878970,  -0.0158735476434,  -0.2335928976536,   0.0388294607401,  -0.1975858956575,  -0.0551803745329,  -0.0168136544526,   0.1366916000843,  -0.0876622796059,   0.0665908828378,   0.0617089420557,   0.1946738958359,   0.0510288998485,   0.0338289998472,   0.0220042522997,  -0.1628752350807,   0.2477407008410,   0.1579149514437,  -0.0358781740069,  -0.0670900195837,  -0.2437208890915,  -0.0641504600644,  -0.0578792653978,  -0.0096499426290,  -0.1892214864492,   0.1783635169268,  -0.0007980442024,  -0.1402070820332,   0.0735280662775,   0.0029872097075,  -0.2011299729347,  -0.0701280236244,   0.1425906568766,   0.2016466259956,  -0.2308280766010,  -0.0481755957007,   0.1756956726313,   0.1895856112242,   0.1619276255369,  -0.1691811382771,   0.1087146699429},
   {  -0.1660058349371,   0.1526793539524,  -0.1311529725790,   0.2492839992046,   0.0389095023274,  -0.2283175140619,  -0.0277858208865,  -0.2134346961975,  -0.1521305590868,   0.0851875618100,   0.0351308919489,  -0.1702962964773,  -0.1964945346117,   0.2233578115702,   0.1154184788465,  -0.0925493091345,  -0.2403047978878,  -0.0624354965985,  -0.1416436284781,  -0.1751265525818,   0.0979605466127,  -0.2378018349409,   0.1285207271576,  -0.1541408151388,   0.2576480209827,   0.2575808763504,  -0.2234182208776,   0.1824731528759,   0.1667926907539,  -0.1304051280022,  -0.0222815386951,  -0.0290898047388,   0.0978642553091,  -0.2386151552200,  -0.0097022699192,  -0.0705224201083,   0.1481607705355,  -0.1839049756527,  -0.0288869813085,   0.0919223725796,  -0.1959598511457,   0.1245572268963,   0.2356578409672,  -0.1092393249273,   0.0529035851359,  -0.0689572021365,  -0.1336725056171,  -0.0352349169552,   0.2051490545273,  -0.0037039953750},
   {  -0.1253789961338,  -0.0951187089086,   0.2114535570145,  -0.1211152374744,  -0.0352221354842,   0.0834690108895,  -0.0478105396032,  -0.0469479970634,   0.0873326361179,  -0.1487892419100,   0.0868828296661,  -0.1202191114426,   0.2009964436293,  -0.1640830785036,  -0.1872179061174,  -0.0388674326241,  -0.1252565383911,   0.1894161850214,   0.0906998962164,   0.0832697227597,   0.2651504278183,   0.0373882949352,   0.1973603069782,   0.2148205339909,   0.1398051679134,   0.1613029986620,   0.1977765262127,  -0.0813891142607,  -0.1753288060427,   0.1762700378895,   0.2431558966637,  -0.2554387748241,   0.1916078925133,  -0.1176441311836,  -0.0776589438319,   0.0128401797265,   0.0967812985182,  -0.1467431038618,   0.0515100471675,   0.1867226958275,  -0.1145117133856,  -0.1756294071674,   0.2216525822878,  -0.1397034376860,   0.0368771143258,   0.0972966700792,  -0.0566699281335,   0.0582865960896,  -0.0567266494036,  -0.0313024260104},
   {  -0.1436469554901,  -0.2224930673838,  -0.1832091659307,  -0.1624588370323,  -0.1985952705145,  -0.0740825906396,   0.0188309215009,  -0.2475842237473,   0.2395483404398,  -0.0662978664041,   0.0101228281856,   0.0410352423787,  -0.0555538944900,  -0.1607973724604,   0.1934649199247,   0.0369475930929,  -0.1914207935333,  -0.0136234657839,   0.1227967962623,  -0.1123454123735,   0.2406053394079,   0.1365072876215,  -0.0246790666133,  -0.1910008341074,   0.2482254058123,   0.0643039867282,  -0.0448369570076,   0.0665323063731,  -0.0155359357595,   0.0316988565028,  -0.1690397411585,   0.0928225740790,  -0.0302908085287,  -0.1904056817293,  -0.1601544171572,   0.1034067198634,  -0.0356029048562,   0.1751171797514,  -0.2295730113983,   0.2417264282703,   0.1129336431623,  -0.0107784615830,  -0.0945395007730,   0.1207049787045,   0.0283548031002,  -0.1985769867897,  -0.2308497577906,   0.0054743108340,   0.1185667067766,   0.1902345269918},
   {   0.0814989656210,  -0.1842611283064,  -0.0820153355598,  -0.0101889166981,  -0.1417549997568,   0.1645480841398,   0.1609036177397,   0.2169032990932,  -0.2010190337896,   0.2354927659035,  -0.0631638988853,  -0.1667062342167,   0.0008531488129,  -0.1272988915443,   0.1555589437485,  -0.1271249800920,   0.1779428720474,   0.0945148766041,   0.0358780361712,  -0.2255937308073,   0.0892820730805,  -0.1130622923374,   0.1749514043331,   0.1011929959059,   0.2532617151737,  -0.1021040230989,  -0.1019650027156,  -0.1031652018428,   0.1085575520992,   0.1330850124359,   0.1143574118614,   0.0704369097948,  -0.0858507975936,   0.0956393703818,  -0.0313033796847,   0.1409952491522,   0.1858446598053,  -0.1583855003119,  -0.1836016327143,  -0.0818175598979,  -0.0519363880157,   0.1771166920662,  -0.1003088131547,  -0.2204752713442,   0.1631737053394,  -0.0554086826742,  -0.1455058604479,  -0.0007762406603,  -0.2013089060783,   0.0418145656586},
   {   0.1470519453287,  -0.1024969890714,   0.0494777858257,  -0.0611869618297,   0.1638786643744,   0.0137665672228,   0.0795577988029,   0.1257331520319,  -0.0828921571374,   0.1145657375455,   0.2168653011322,  -0.0598610825837,  -0.1292014420033,   0.0343942269683,   0.1365825086832,  -0.0451390743256,   0.0097029525787,  -0.1352383047342,   0.2430684119463,   0.2173066586256,  -0.0000336980884,   0.1021244451404,  -0.1121568009257,   0.1062930598855,   0.2279567718506,   0.1543795615435,   0.2122022211552,  -0.1479263454676,   0.0235298238695,  -0.2432243078947,  -0.0474656932056,  -0.0308836307377,   0.1512940675020,   0.1522717624903,   0.1697795838118,  -0.0890714153647,  -0.1920738518238,   0.2113754302263,  -0.1605207324028,  -0.0841554179788,   0.1590288579464,  -0.0742955058813,  -0.2589122056961,   0.0869224667549,   0.1577155888081,   0.1764389723539,  -0.1063424199820,  -0.1774758994579,  -0.0559029392898,   0.2330192625523},
   {  -0.1588441580534,  -0.1966656595469,   0.1030653342605,   0.0873492732644,  -0.0232683587819,  -0.1146637722850,   0.1211625412107,   0.0454041883349,  -0.0164435952902,   0.0168963950127,   0.2503679990768,  -0.1759640276432,  -0.1182102710009,  -0.2380386590958,   0.1926959306002,   0.1641184836626,  -0.0062010153197,  -0.2203543931246,   0.0395327284932,  -0.0183824170381,   0.0435088947415,   0.2045137733221,   0.0573691539466,   0.0937732383609,   0.0442741848528,   0.2003371119499,   0.0945139080286,  -0.1283672600985,  -0.0304974410683,  -0.1287248134613,   0.1351012885571,   0.0285328067839,   0.1884868294001,   0.0427890382707,   0.0441040880978,  -0.0967666581273,   0.2156260758638,   0.1088335588574,   0.1723007708788,   0.0655893981457,  -0.1214347481728,   0.2555494606495,   0.0192462112755,   0.1147194057703,  -0.1718643754721,  -0.1599238812923,   0.1435797363520,  -0.1248651668429,  -0.1307243108749,   0.0958369597793},
   {  -0.0504299625754,   0.0954774171114,   0.1167249232531,  -0.1703507602215,   0.2071333378553,  -0.0159922447056,  -0.2649877369404,  -0.0656833574176,  -0.0380178950727,   0.1554164737463,   0.0121776880696,  -0.0885783284903,  -0.1510064452887,   0.0898693427444,   0.0282116606832,  -0.1824209541082,  -0.0551182143390,  -0.0720303803682,   0.1813022643328,  -0.2296486645937,  -0.0295548755676,  -0.0676108971238,   0.2177219837904,   0.1878603398800,  -0.0842844247818,   0.2272259593010,  -0.0148226888850,  -0.2036984711885,   0.1346843540668,  -0.1046754419804,   0.0580834262073,   0.2589849829674,  -0.1524538248777,  -0.1935891509056,   0.1503670066595,  -0.2440067976713,  -0.2021602839231,   0.0045683039352,   0.0335470847785,  -0.1165011152625,  -0.0408110581338,   0.2217589914799,  -0.1125703230500,  -0.0939090549946,   0.0854570269585,  -0.1959225088358,  -0.1951531320810,   0.1565983444452,  -0.1970285177231,   0.2018699496984},
   {  -0.1105969846249,  -0.1427256911993,   0.0877421870828,   0.1208350732923,  -0.0119912540540,   0.0254064928740,   0.1161701232195,   0.1779783964157,   0.2338081151247,   0.1745926439762,  -0.2345971167088,  -0.2213879525661,  -0.1345212906599,  -0.0673256739974,  -0.1591432988644,  -0.2149573415518,  -0.0231732856482,   0.1639825403690,   0.1706692129374,   0.0765208899975,   0.0028700018302,   0.1033991873264,   0.0806497931480,  -0.1913090199232,   0.1567263603210,  -0.2437531799078,   0.2325759828091,   0.1183817014098,   0.2140297889709,   0.2461338788271,   0.0927978232503,  -0.1088650003076,   0.0923351794481,   0.0348504334688,   0.2346960306168,  -0.2488741427660,   0.1023666113615,  -0.2209540456533,  -0.0142589639872,  -0.0232138205320,  -0.0124641396105,   0.1549292951822,   0.0563469380140,   0.1800542473793,   0.0771645903587,   0.1179101020098,   0.0233461726457,   0.0048796446063,  -0.0875182598829,  -0.0478971190751},
   {   0.1638584285975,   0.0119866169989,  -0.0517847016454,   0.0914763510227,  -0.0801923573017,   0.0472408495843,   0.2419972568750,   0.0224867537618,  -0.0749531313777,   0.0640259906650,  -0.0649624764919,  -0.0475287623703,  -0.1646422445774,   0.1416871398687,  -0.0957421213388,   0.2164286822081,   0.1054977625608,   0.0305740404874,   0.0208270978183,   0.1064101532102,   0.2560090124607,  -0.0325449332595,   0.2099351286888,   0.0912167206407,   0.2196937948465,  -0.2197982221842,  -0.2177825868130,  -0.0644651055336,  -0.1105842217803,  -0.1045576557517,   0.1013922989368,   0.0404796525836,   0.2247726619244,   0.2039087414742,  -0.0536117739975,  -0.2443641573191,  -0.0358384437859,   0.1685087531805,  -0.1122289597988,   0.0635738596320,   0.0671587139368,   0.0668355077505,  -0.0182754974812,  -0.1198813468218,   0.0166545938700,   0.1858408451080,  -0.1848169118166,   0.0269268509001,  -0.0615652203560,  -0.0128625249490},
   {  -0.1197641417384,   0.1813759505749,  -0.1279169619083,  -0.1042270958424,  -0.2353425174952,   0.1294130235910,  -0.1174773499370,   0.1360420137644,   0.1131424009800,   0.2163091152906,  -0.1498809307814,  -0.0445348098874,   0.1195545867085,  -0.1343085169792,   0.1821033954620,   0.1840077340603,  -0.0528610572219,   0.2431496232748,  -0.0148092536256,   0.0749515518546,   0.2191774100065,  -0.0578262805939,   0.0759182721376,   0.0713039040565,  -0.1344866901636,  -0.1901433318853,  -0.0976606383920,  -0.2253498435020,  -0.0069739772007,   0.0342940576375,  -0.0025304837618,   0.1372738778591,   0.1927506327629,   0.0376849733293,  -0.1654557734728,   0.0211916454136,   0.0108354333788,   0.0338902026415,   0.1340941786766,  -0.1463892310858,  -0.1393304020166,  -0.1421660184860,   0.1333832740784,  -0.0565620586276,  -0.0529898107052,   0.1304623186588,   0.2313918173313,   0.0750443413854,  -0.1409199684858,   0.0968409404159},
   {   0.0755998864770,   0.2431870102882,   0.1162854805589,   0.1707263737917,   0.0642012581229,  -0.2366634756327,   0.1002040356398,   0.2124094814062,   0.2326539754868,   0.1520930677652,   0.2564858198166,   0.2601385116577,   0.0609788522124,  -0.1504337638617,   0.2241170406342,   0.2623060643673,  -0.0877692922950,  -0.0804401487112,  -0.1404495835304,  -0.0001109910227,  -0.1276980936527,  -0.1341614872217,  -0.1972767114639,   0.1729983538389,   0.2453839182854,  -0.1763989478350,  -0.1767000705004,  -0.0224577188492,  -0.0050120321102,  -0.1449656039476,   0.1018619015813,  -0.0917854681611,  -0.1905774921179,   0.2199797779322,  -0.0070256711915,  -0.2406242489815,  -0.1605205535889,  -0.0054705739021,  -0.0052377590910,   0.1998353004456,   0.2031617462635,  -0.1393364220858,  -0.0284572653472,  -0.1120189651847,  -0.1759892404079,   0.1925115585327,  -0.1233396232128,   0.1339672505856,   0.0707724988461,   0.0024996590801},
   {   0.1560052484274,  -0.1800157129765,   0.1494545787573,   0.2578068673611,   0.0097402958199,  -0.1491859406233,   0.1932140588760,   0.1354061812162,   0.1021617427468,  -0.0843709781766,   0.2373319417238,  -0.0978922992945,  -0.2355390191078,  -0.1293525695801,   0.2238207459450,   0.2624051272869,  -0.1743362545967,   0.1757039427757,  -0.1047581061721,  -0.1351515054703,   0.1426658779383,  -0.0704164505005,   0.2508476078510,  -0.1081679314375,   0.2351355999708,   0.1896237879992,   0.0283238943666,   0.0095557421446,  -0.1295874565840,  -0.0049353791401,  -0.0472850687802,  -0.1283472627401,  -0.1487005352974,  -0.1832146346569,   0.0113533539698,   0.1773362457752,  -0.1512970477343,  -0.2196930497885,   0.0551030971110,  -0.0867823585868,   0.1188374906778,   0.0037343020085,  -0.1751325279474,  -0.0535184368491,   0.2206005156040,   0.2165414541960,  -0.0359408557415,   0.1907916963100,  -0.0405093580484,  -0.0949402898550},
   {  -0.0985496789217,  -0.2075259238482,  -0.2196957468987,  -0.1344596147537,  -0.1808346062899,  -0.1067253798246,   0.0715662986040,  -0.1623696982861,   0.0319898650050,   0.1597099900246,   0.2115623205900,   0.0787271261215,  -0.2219864577055,   0.1535579413176,  -0.1899810135365,   0.1367784142494,  -0.0446232259274,  -0.2083244323730,   0.0179807059467,   0.0696646049619,  -0.1420810669661,  -0.0375583916903,  -0.0007622241974,  -0.1377556473017,   0.1692338883877,   0.2205764055252,   0.1745368391275,   0.2394832372665,   0.0024862212595,  -0.0847291871905,  -0.1230334863067,  -0.0323489829898,   0.0319476947188,  -0.0197315402329,  -0.1068369224668,  -0.1334334015846,  -0.2170429527760,   0.1673071086407,   0.1463075131178,  -0.0959316119552,   0.1249934509397,  -0.1086842939258,   0.0747703462839,   0.0433386750519,  -0.0664071589708,   0.0481596775353,  -0.0034985656384,   0.0451020337641,  -0.0636896491051,   0.0620787180960},
   {   0.0397048816085,  -0.1524324715137,   0.1190461590886,   0.1909007579088,   0.0049837809056,  -0.0340521372855,   0.0804979875684,   0.2402999252081,  -0.1207551658154,  -0.2247414290905,  -0.2085481733084,   0.1749906837940,  -0.1893892735243,  -0.0119548616931,  -0.1064968258142,  -0.0994689390063,  -0.2094624042511,   0.0062642022967,  -0.0579795911908,  -0.0789891779423,  -0.0793228819966,   0.0919680297375,   0.1759833544493,  -0.0763251930475,  -0.2070479094982,   0.1866763532162,   0.2025137245655,  -0.1060511544347,  -0.0816648378968,  -0.2394239008427,   0.1385861337185,   0.2560189366341,  -0.0178906992078,  -0.1610816419125,  -0.1060199663043,   0.1564742326736,  -0.0455729588866,   0.2192451357841,   0.1952154487371,  -0.2624559700489,  -0.2581497132778,   0.1531333476305,  -0.2282911092043,   0.0064729670994,   0.1946273297071,  -0.2191071212292,  -0.1973076015711,   0.1173861175776,   0.2086835950613,   0.1727312803268},
   {  -0.0711433887482,   0.2201624363661,  -0.1298324465752,  -0.1415554136038,   0.2123395651579,   0.1376922726631,  -0.1408740133047,   0.0796900093555,  -0.0484027527273,  -0.0862466767430,   0.1689423024654,   0.0652957707644,   0.1048576384783,  -0.2373402267694,  -0.1639425903559,   0.0476361326873,   0.1654991358519,   0.2028912156820,   0.2073452621698,   0.1970307379961,  -0.2273444980383,   0.0920030698180,  -0.0040133395232,   0.2001323550940,   0.2324054241180,   0.0630865469575,   0.0010621864349,   0.1197744682431,   0.0112393442541,   0.1279674172401,   0.0935916155577,  -0.2501921653748,   0.0218206793070,  -0.1685128211975,   0.1867027729750,  -0.1941962391138,   0.1442444920540,   0.1064593642950,   0.0918691381812,  -0.0427435748279,   0.2163532525301,   0.1151585504413,  -0.0148457065225,   0.1757285445929,   0.0793137475848,   0.1437175571918,  -0.1945707201958,  -0.0822089463472,   0.0110890939832,  -0.1232750788331},
   {   0.1051323786378,   0.2620218098164,  -0.1579720675945,  -0.1673603206873,   0.0259414762259,   0.0832233875990,   0.0781873762608,  -0.0214777477086,   0.0360185466707,   0.0141686340794,  -0.1245398670435,  -0.0033701630309,   0.0763286799192,  -0.0087984669954,  -0.0777599290013,  -0.2083242088556,   0.0031233951449,   0.1838109046221,   0.2067141383886,  -0.0652850419283,   0.0496573448181,  -0.0348771102726,   0.0815827772021,  -0.1808599829674,  -0.0808071419597,  -0.2221404910088,   0.1093816012144,   0.0034733605571,  -0.1702843308449,   0.0634890347719,   0.1285198181868,  -0.0441520623863,   0.2213924676180,   0.1426736116409,   0.0455731004477,   0.0956463143229,   0.1460887193680,   0.0036790887825,   0.2095870375633,  -0.2133532166481,  -0.1999015659094,  -0.1129968315363,  -0.0556931570172,  -0.1406941264868,  -0.1409761905670,  -0.0850001648068,   0.0475905761123,   0.0703629180789,  -0.1828132569790,   0.1146465241909},
