<?xml version="1.0"?>
<MethodSetup Method="BDT::BDTG4SK01">
  <GeneralInfo>
    <Info name="TMVA Release" value="4.2.1 [262657]"/>
    <Info name="ROOT Release" value="6.14/09 [396809]"/>
    <Info name="Creator" value="ntrevisa"/>
    <Info name="Date" value="Fri Jul 28 05:08:42 2023"/>
    <Info name="Host" value="Linux cmsbuild15.cern.ch 3.10.0-1062.4.1.el7.x86_64 #1 SMP Fri Oct 18 17:15:30 UTC 2019 x86_64 x86_64 x86_64 GNU/Linux"/>
    <Info name="Dir" value="/afs/cern.ch/work/n/ntrevisa/latinos/UL_production/CMSSW_10_6_27/src/PlotsConfigurations/Configurations/WH_chargeAsymmetry/UL/2016HIPM_v9/BDTconfig_WH3l"/>
    <Info name="Training events" value="39999"/>
    <Info name="TrainingTime" value="2.56511819e+01"/>
    <Info name="AnalysisType" value="Classification"/>
  </GeneralInfo>
  <Options>
    <Option name="V" modified="Yes">False</Option>
    <Option name="VerbosityLevel" modified="No">Default</Option>
    <Option name="VarTransform" modified="No">None</Option>
    <Option name="H" modified="Yes">False</Option>
    <Option name="CreateMVAPdfs" modified="No">False</Option>
    <Option name="IgnoreNegWeightsInTraining" modified="No">False</Option>
    <Option name="NTrees" modified="Yes">500</Option>
    <Option name="MaxDepth" modified="Yes">2</Option>
    <Option name="MinNodeSize" modified="Yes">1.5%</Option>
    <Option name="nCuts" modified="Yes">500</Option>
    <Option name="BoostType" modified="Yes">Grad</Option>
    <Option name="AdaBoostR2Loss" modified="No">quadratic</Option>
    <Option name="UseBaggedBoost" modified="Yes">True</Option>
    <Option name="Shrinkage" modified="Yes">1.000000e-02</Option>
    <Option name="AdaBoostBeta" modified="No">5.000000e-01</Option>
    <Option name="UseRandomisedTrees" modified="No">False</Option>
    <Option name="UseNvars" modified="No">4</Option>
    <Option name="UsePoissonNvars" modified="No">True</Option>
    <Option name="BaggedSampleFraction" modified="No">5.000000e-01</Option>
    <Option name="UseYesNoLeaf" modified="No">True</Option>
    <Option name="NegWeightTreatment" modified="No">pray</Option>
    <Option name="Css" modified="No">1.000000e+00</Option>
    <Option name="Cts_sb" modified="No">1.000000e+00</Option>
    <Option name="Ctb_ss" modified="No">1.000000e+00</Option>
    <Option name="Cbb" modified="No">1.000000e+00</Option>
    <Option name="NodePurityLimit" modified="No">5.000000e-01</Option>
    <Option name="SeparationType" modified="No">giniindex</Option>
    <Option name="RegressionLossFunctionBDTG" modified="No">huber</Option>
    <Option name="HuberQuantile" modified="No">7.000000e-01</Option>
    <Option name="DoBoostMonitor" modified="No">False</Option>
    <Option name="UseFisherCuts" modified="No">False</Option>
    <Option name="MinLinCorrForFisher" modified="No">8.000000e-01</Option>
    <Option name="UseExclusiveVars" modified="No">False</Option>
    <Option name="DoPreselection" modified="No">False</Option>
    <Option name="SigToBkgFraction" modified="No">1.000000e+00</Option>
    <Option name="PruneMethod" modified="No">nopruning</Option>
    <Option name="PruneStrength" modified="No">0.000000e+00</Option>
    <Option name="PruningValFraction" modified="No">5.000000e-01</Option>
    <Option name="SkipNormalization" modified="No">False</Option>
    <Option name="nEventsMin" modified="No">0</Option>
    <Option name="UseBaggedGrad" modified="No">False</Option>
    <Option name="GradBaggingFraction" modified="Yes">5.000000e-01</Option>
    <Option name="UseNTrainEvents" modified="No">0</Option>
    <Option name="NNodesMax" modified="No">0</Option>
  </Options>
  <Variables NVar="12">
    <Variable VarIndex="0" Expression="WH3l_dphilllmet" Label="WH3l_dphilllmet" Title="WH3l_dphilllmet" Unit="" Internal="WH3l_dphilllmet" Type="F" Min="1.48317707e-03" Max="3.14157152e+00"/>
    <Variable VarIndex="1" Expression="MinIf$(WH3l_mOSll[],WH3l_mOSll[Iteration$]&gt;0)" Label="MinIf$(WH3l_mOSll[],WH3l_mOSll[Iteration$]&gt;0)" Title="MinIf$(WH3l_mOSll[],WH3l_mOSll[Iteration$]&gt;0)" Unit="" Internal="MinIf__WH3l_mOSll__,WH3l_mOSll_Iteration___0_" Type="F" Min="1.20008898e+01" Max="2.93492950e+02"/>
    <Variable VarIndex="2" Expression="MinIf$(WH3l_ptOSll[],WH3l_ptOSll[Iteration$]&gt;0)" Label="MinIf$(WH3l_ptOSll[],WH3l_ptOSll[Iteration$]&gt;0)" Title="MinIf$(WH3l_ptOSll[],WH3l_ptOSll[Iteration$]&gt;0)" Unit="" Internal="MinIf__WH3l_ptOSll__,WH3l_ptOSll_Iteration___0_" Type="F" Min="1.22566029e-01" Max="5.80954712e+02"/>
    <Variable VarIndex="3" Expression="MinIf$(WH3l_drOSll[],WH3l_drOSll[Iteration$]&gt;0)" Label="MinIf$(WH3l_drOSll[],WH3l_drOSll[Iteration$]&gt;0)" Title="MinIf$(WH3l_drOSll[],WH3l_drOSll[Iteration$]&gt;0)" Unit="" Internal="MinIf__WH3l_drOSll__,WH3l_drOSll_Iteration___0_" Type="F" Min="3.89893800e-02" Max="4.28138590e+00"/>
    <Variable VarIndex="4" Expression="WH3l_dphilmet[0]" Label="WH3l_dphilmet[0]" Title="WH3l_dphilmet[0]" Unit="" Internal="WH3l_dphilmet_0_" Type="F" Min="4.18469834e-04" Max="3.14158654e+00"/>
    <Variable VarIndex="5" Expression="WH3l_dphilmet[1]" Label="WH3l_dphilmet[1]" Title="WH3l_dphilmet[1]" Unit="" Internal="WH3l_dphilmet_1_" Type="F" Min="1.14484828e-04" Max="3.14157200e+00"/>
    <Variable VarIndex="6" Expression="WH3l_dphilmet[2]" Label="WH3l_dphilmet[2]" Title="WH3l_dphilmet[2]" Unit="" Internal="WH3l_dphilmet_2_" Type="F" Min="1.16918862e-04" Max="3.14154291e+00"/>
    <Variable VarIndex="7" Expression="WH3l_ptWWW" Label="WH3l_ptWWW" Title="WH3l_ptWWW" Unit="" Internal="WH3l_ptWWW" Type="F" Min="5.31978905e-02" Max="2.11220917e+02"/>
    <Variable VarIndex="8" Expression="PuppiMET_pt" Label="PuppiMET_pt" Title="PuppiMET_pt" Unit="" Internal="PuppiMET_pt" Type="F" Min="3.32947373e-01" Max="8.77821289e+02"/>
    <Variable VarIndex="9" Expression="Alt$(Lepton_pt[0],0)" Label="Alt$(Lepton_pt[0],0)" Title="Alt$(Lepton_pt[0],0)" Unit="" Internal="Alt__Lepton_pt_0_,0_" Type="F" Min="1.80138817e+01" Max="9.16691711e+02"/>
    <Variable VarIndex="10" Expression="Alt$(Lepton_pt[1],0)" Label="Alt$(Lepton_pt[1],0)" Title="Alt$(Lepton_pt[1],0)" Unit="" Internal="Alt__Lepton_pt_1_,0_" Type="F" Min="1.01418419e+01" Max="4.88623077e+02"/>
    <Variable VarIndex="11" Expression="Alt$(Lepton_pt[2],0)" Label="Alt$(Lepton_pt[2],0)" Title="Alt$(Lepton_pt[2],0)" Unit="" Internal="Alt__Lepton_pt_2_,0_" Type="F" Min="1.00008221e+01" Max="3.04704651e+02"/>
  </Variables>
  <Spectators NSpec="0"/>
  <Classes NClass="2">
    <Class Name="Background" Index="0"/>
    <Class Name="Signal" Index="1"/>
  </Classes>
  <Transformations NTransformations="0"/>
  <MVAPdfs/>
  <Weights NTrees="500" AnalysisType="1">
    <BinaryTree type="DecisionTree" boostWeight="1.0000000000000000e+00" itree="0">
      <Node pos="s" depth="0" NCoef="0" IVar="1" Cut="5.4604526519775391e+01" cType="1" res="6.1738709919154644e-03" rms="4.9996188282966614e-01" purity="5.0617390871047974e-01" nType="0">
        <Node pos="l" depth="1" NCoef="0" IVar="3" Cut="9.1147130727767944e-01" cType="1" res="1.4809654653072357e-01" rms="4.7756403684616089e-01" purity="6.4809656143188477e-01" nType="0">
          <Node pos="l" depth="2" NCoef="0" IVar="-1" Cut="0.0000000000000000e+00" cType="1" res="7.2372849099338055e-03" rms="3.4504240751266479e-01" purity="8.6186426877975464e-01" nType="-99"/>
          <Node pos="r" depth="2" NCoef="0" IVar="-1" Cut="0.0000000000000000e+00" cType="1" res="7.7156641054898500e-04" rms="4.9850949645042419e-01" purity="5.3857833147048950e-01" nType="-99"/>
        </Node>
        <Node pos="r" depth="1" NCoef="0" IVar="1" Cut="7.3807823181152344e+01" cType="1" res="-3.0799144506454468e-01" rms="3.9387977123260498e-01" purity="1.9200855493545532e-01" nType="0">
          <Node pos="l" depth="2" NCoef="0" IVar="-1" Cut="0.0000000000000000e+00" cType="1" res="-4.0617673657834530e-03" rms="4.5689728856086731e-01" purity="2.9691165685653687e-01" nType="-99"/>
          <Node pos="r" depth="2" NCoef="0" IVar="-1" Cut="0.0000000000000000e+00" cType="1" res="-9.0984245762228966e-03" rms="2.0747688412666321e-01" purity="4.5078750699758530e-02" nType="-99"/>
        </Node>
      </Node>
    </BinaryTree>
    <BinaryTree type="DecisionTree" boostWeight="1.0000000000000000e+00" itree="1">
      <Node pos="s" depth="0" NCoef="0" IVar="3" Cut="1.2107226848602295e+00" cType="1" res="-8.5297683253884315e-03" rms="4.9874171614646912e-01" purity="4.9162474274635315e-01" nType="0">
        <Node pos="l" depth="1" NCoef="0" IVar="3" Cut="8.2476836442947388e-01" cType="1" res="2.6733750104904175e-01" rms="4.2072126269340515e-01" purity="7.6960247755050659e-01" nType="0">
          <Node pos="l" depth="2" NCoef="0" IVar="-1" Cut="0.0000000000000000e+00" cType="1" res="7.8014223836362362e-03" rms="3.0843627452850342e-01" purity="8.9352530241012573e-01" nType="-99"/>
          <Node pos="r" depth="2" NCoef="0" IVar="-1" Cut="0.0000000000000000e+00" cType="1" res="2.8284967411309481e-03" rms="4.7928044199943542e-01" purity="6.4244687557220459e-01" nType="-99"/>
        </Node>
        <Node pos="r" depth="1" NCoef="0" IVar="1" Cut="6.4677040100097656e+01" cType="1" res="-1.7852486670017242e-01" rms="4.6599853038787842e-01" purity="3.2032912969589233e-01" nType="0">
          <Node pos="l" depth="2" NCoef="0" IVar="-1" Cut="0.0000000000000000e+00" cType="1" res="-1.6775445546954870e-03" rms="4.9282714724540710e-01" purity="4.1601729393005371e-01" nType="-99"/>
          <Node pos="r" depth="2" NCoef="0" IVar="-1" Cut="0.0000000000000000e+00" cType="1" res="-8.0620404332876205e-03" rms="2.9059627652168274e-01" purity="9.3307457864284515e-02" nType="-99"/>
        </Node>
      </Node>
    </BinaryTree>
    <BinaryTree type="DecisionTree" boostWeight="1.0000000000000000e+00" itree="2">
      <Node pos="s" depth="0" NCoef="0" IVar="3" Cut="1.2432708740234375e+00" cType="1" res="-9.2212780145928264e-04" rms="4.9753651022911072e-01" purity="4.9917241930961609e-01" nType="0">
        <Node pos="l" depth="1" NCoef="0" IVar="7" Cut="1.8682619094848633e+01" cType="1" res="2.4257850646972656e-01" rms="4.3392923474311829e-01" purity="7.4739384651184082e-01" nType="0">
          <Node pos="l" depth="2" NCoef="0" IVar="-1" Cut="0.0000000000000000e+00" cType="1" res="7.8991074115037918e-03" rms="2.9984965920448303e-01" purity="8.9986735582351685e-01" nType="-99"/>
          <Node pos="r" depth="2" NCoef="0" IVar="-1" Cut="0.0000000000000000e+00" cType="1" res="2.7792917098850012e-03" rms="4.7823011875152588e-01" purity="6.4366090297698975e-01" nType="-99"/>
        </Node>
        <Node pos="r" depth="1" NCoef="0" IVar="1" Cut="6.1276458740234375e+01" cType="1" res="-1.6668625175952911e-01" rms="4.6907833218574524e-01" purity="3.3019453287124634e-01" nType="0">
          <Node pos="l" depth="2" NCoef="0" IVar="-1" Cut="0.0000000000000000e+00" cType="1" res="-9.3332910910248756e-04" rms="4.9768117070198059e-01" purity="4.5250704884529114e-01" nType="-99"/>
          <Node pos="r" depth="2" NCoef="0" IVar="-1" Cut="0.0000000000000000e+00" cType="1" res="-7.5283581390976906e-03" rms="3.2033967971801758e-01" purity="1.1654106527566910e-01" nType="-99"/>
        </Node>
      </Node>
    </BinaryTree>
    <BinaryTree type="DecisionTree" boostWeight="1.0000000000000000e+00" itree="3">
      <Node pos="s" depth="0" NCoef="0" IVar="3" Cut="1.2103374004364014e+00" cType="1" res="-2.9713707044720650e-03" rms="4.9634283781051636e-01" purity="4.9722349643707275e-01" nType="0">
        <Node pos="l" depth="1" NCoef="0" IVar="7" Cut="3.3530620574951172e+01" cType="1" res="2.5224095582962036e-01" rms="4.2637252807617188e-01" purity="7.5971752405166626e-01" nType="0">
          <Node pos="l" depth="2" NCoef="0" IVar="-1" Cut="0.0000000000000000e+00" cType="1" res="6.2099276110529900e-03" rms="3.8480475544929504e-01" purity="8.1830775737762451e-01" nType="-99"/>
          <Node pos="r" depth="2" NCoef="0" IVar="-1" Cut="0.0000000000000000e+00" cType="1" res="1.6158003127202392e-03" rms="4.9175092577934265e-01" purity="5.8699989318847656e-01" nType="-99"/>
        </Node>
        <Node pos="r" depth="1" NCoef="0" IVar="1" Cut="5.5688079833984375e+01" cType="1" res="-1.6569641232490540e-01" rms="4.6852204203605652e-01" purity="3.2985553145408630e-01" nType="0">
          <Node pos="l" depth="2" NCoef="0" IVar="-1" Cut="0.0000000000000000e+00" cType="1" res="-6.2208517920225859e-04" rms="4.9896043539047241e-01" purity="4.6805188059806824e-01" nType="-99"/>
          <Node pos="r" depth="2" NCoef="0" IVar="-1" Cut="0.0000000000000000e+00" cType="1" res="-6.6664093174040318e-03" rms="3.6368113756179810e-01" purity="1.5787075459957123e-01" nType="-99"/>
        </Node>
      </Node>
    </BinaryTree>
    <BinaryTree type="DecisionTree" boostWeight="1.0000000000000000e+00" itree="4">
      <Node pos="s" depth="0" NCoef="0" IVar="3" Cut="1.0072968006134033e+00" cType="1" res="-1.3576030032709241e-03" rms="4.9509888887405396e-01" purity="4.9866223335266113e-01" nType="0">
        <Node pos="l" depth="1" NCoef="0" IVar="0" Cut="2.7215912342071533e+00" cType="1" res="3.0549886822700500e-01" rms="3.8592401146888733e-01" purity="8.1657058000564575e-01" nType="0">
          <Node pos="l" depth="2" NCoef="0" IVar="-1" Cut="0.0000000000000000e+00" cType="1" res="2.2445626091212034e-03" rms="4.8428079485893250e-01" purity="6.2144225835800171e-01" nType="-99"/>
          <Node pos="r" depth="2" NCoef="0" IVar="-1" Cut="0.0000000000000000e+00" cType="1" res="7.6452945359051228e-03" rms="3.0723533034324646e-01" purity="8.9383012056350708e-01" nType="-99"/>
        </Node>
        <Node pos="r" depth="1" NCoef="0" IVar="1" Cut="6.0988475799560547e+01" cType="1" res="-1.2375295162200928e-01" rms="4.8057243227958679e-01" purity="3.7185868620872498e-01" nType="0">
          <Node pos="l" depth="2" NCoef="0" IVar="-1" Cut="0.0000000000000000e+00" cType="1" res="-2.4210326955653727e-04" rms="4.9932742118835449e-01" purity="4.8783662915229797e-01" nType="-99"/>
          <Node pos="r" depth="2" NCoef="0" IVar="-1" Cut="0.0000000000000000e+00" cType="1" res="-7.2513506747782230e-03" rms="3.2887539267539978e-01" purity="1.2408017367124557e-01" nType="-99"/>
        </Node>
      </Node>
    </BinaryTree>
    <BinaryTree type="DecisionTree" boostWeight="1.0000000000000000e+00" itree="5">
      <Node pos="s" depth="0" NCoef="0" IVar="3" Cut="1.3704521656036377e+00" cType="1" res="2.3821485228836536e-03" rms="4.9367213249206543e-01" purity="5.0237673521041870e-01" nType="0">
        <Node pos="l" depth="1" NCoef="0" IVar="3" Cut="7.5849997997283936e-01" cType="1" res="2.3041856288909912e-01" rms="4.3612661957740784e-01" purity="7.4032545089721680e-01" nType="0">
          <Node pos="l" depth="2" NCoef="0" IVar="-1" Cut="0.0000000000000000e+00" cType="1" res="7.3776780627667904e-03" rms="3.1945556402206421e-01" purity="8.8420641422271729e-01" nType="-99"/>
          <Node pos="r" depth="2" NCoef="0" IVar="-1" Cut="0.0000000000000000e+00" cType="1" res="2.9889657162129879e-03" rms="4.7347426414489746e-01" purity="6.5590202808380127e-01" nType="-99"/>
        </Node>
        <Node pos="r" depth="1" NCoef="0" IVar="1" Cut="6.4102943420410156e+01" cType="1" res="-1.9288572669029236e-01" rms="4.5483130216598511e-01" purity="2.9862087965011597e-01" nType="0">
          <Node pos="l" depth="2" NCoef="0" IVar="-1" Cut="0.0000000000000000e+00" cType="1" res="-1.6000726027414203e-03" rms="4.9267619848251343e-01" purity="4.1699668765068054e-01" nType="-99"/>
          <Node pos="r" depth="2" NCoef="0" IVar="-1" Cut="0.0000000000000000e+00" cType="1" res="-7.9011032357811928e-03" rms="2.8178474307060242e-01" purity="8.7182939052581787e-02" nType="-99"/>
        </Node>
      </Node>
    </BinaryTree>
    <BinaryTree type="DecisionTree" boostWeight="1.0000000000000000e+00" itree="6">
      <Node pos="s" depth="0" NCoef="0" IVar="3" Cut="1.3877365589141846e+00" cType="1" res="9.6515333279967308e-03" rms="4.9254029989242554e-01" purity="5.0987273454666138e-01" nType="0">
        <Node pos="l" depth="1" NCoef="0" IVar="7" Cut="3.5880054473876953e+01" cType="1" res="2.3504628241062164e-01" rms="4.3208622932434082e-01" purity="7.4695819616317749e-01" nType="0">
          <Node pos="l" depth="2" NCoef="0" IVar="-1" Cut="0.0000000000000000e+00" cType="1" res="6.3427700661122799e-03" rms="3.7369674444198608e-01" purity="8.3017826080322266e-01" nType="-99"/>
          <Node pos="r" depth="2" NCoef="0" IVar="-1" Cut="0.0000000000000000e+00" cType="1" res="-7.8383505751844496e-05" rms="4.9751904606819153e-01" purity="5.0379669666290283e-01" nType="-99"/>
        </Node>
        <Node pos="r" depth="1" NCoef="0" IVar="1" Cut="6.7351745605468750e+01" cType="1" res="-1.8925109505653381e-01" rms="4.5555406808853149e-01" purity="3.0065339803695679e-01" nType="0">
          <Node pos="l" depth="2" NCoef="0" IVar="-1" Cut="0.0000000000000000e+00" cType="1" res="-1.9492747960612178e-03" rms="4.8902326822280884e-01" purity="3.9790144562721252e-01" nType="-99"/>
          <Node pos="r" depth="2" NCoef="0" IVar="-1" Cut="0.0000000000000000e+00" cType="1" res="-8.0645494163036346e-03" rms="2.6293528079986572e-01" purity="7.4875444173812866e-02" nType="-99"/>
        </Node>
      </Node>
    </BinaryTree>
    <BinaryTree type="DecisionTree" boostWeight="1.0000000000000000e+00" itree="7">
      <Node pos="s" depth="0" NCoef="0" IVar="3" Cut="1.2123370170593262e+00" cType="1" res="-1.3962637633085251e-02" rms="4.9118930101394653e-01" purity="4.8616656661033630e-01" nType="0">
        <Node pos="l" depth="1" NCoef="0" IVar="7" Cut="4.3956569671630859e+01" cType="1" res="2.4138702452182770e-01" rms="4.2547902464866638e-01" purity="7.5825786590576172e-01" nType="0">
          <Node pos="l" depth="2" NCoef="0" IVar="-1" Cut="0.0000000000000000e+00" cType="1" res="6.2821814790368080e-03" rms="3.7224408984184265e-01" purity="8.3193540573120117e-01" nType="-99"/>
          <Node pos="r" depth="2" NCoef="0" IVar="-1" Cut="0.0000000000000000e+00" cType="1" res="-1.9710792694240808e-03" rms="4.9061053991317749e-01" purity="4.1169843077659607e-01" nType="-99"/>
        </Node>
        <Node pos="r" depth="1" NCoef="0" IVar="1" Cut="6.6931808471679688e+01" cType="1" res="-1.7292110621929169e-01" rms="4.6141725778579712e-01" purity="3.1678619980812073e-01" nType="0">
          <Node pos="l" depth="2" NCoef="0" IVar="-1" Cut="0.0000000000000000e+00" cType="1" res="-1.6203388804569840e-03" rms="4.9204954504966736e-01" purity="4.1501265764236450e-01" nType="-99"/>
          <Node pos="r" depth="2" NCoef="0" IVar="-1" Cut="0.0000000000000000e+00" cType="1" res="-8.0962479114532471e-03" rms="2.5516390800476074e-01" purity="7.0173084735870361e-02" nType="-99"/>
        </Node>
      </Node>
    </BinaryTree>
    <BinaryTree type="DecisionTree" boostWeight="1.0000000000000000e+00" itree="8">
      <Node pos="s" depth="0" NCoef="0" IVar="3" Cut="1.1944485902786255e+00" cType="1" res="-1.0638990439474583e-02" rms="4.9037528038024902e-01" purity="4.8954707384109497e-01" nType="0">
        <Node pos="l" depth="1" NCoef="0" IVar="0" Cut="2.7843160629272461e+00" cType="1" res="2.4915960431098938e-01" rms="4.1911345720291138e-01" purity="7.6901262998580933e-01" nType="0">
          <Node pos="l" depth="2" NCoef="0" IVar="-1" Cut="0.0000000000000000e+00" cType="1" res="1.7153879161924124e-03" rms="4.8751071095466614e-01" purity="6.0076397657394409e-01" nType="-99"/>
          <Node pos="r" depth="2" NCoef="0" IVar="-1" Cut="0.0000000000000000e+00" cType="1" res="6.8159955553710461e-03" rms="3.4358090162277222e-01" purity="8.6257010698318481e-01" nType="-99"/>
        </Node>
        <Node pos="r" depth="1" NCoef="0" IVar="1" Cut="6.4881759643554688e+01" cType="1" res="-1.6270735859870911e-01" rms="4.6451309323310852e-01" purity="3.2596701383590698e-01" nType="0">
          <Node pos="l" depth="2" NCoef="0" IVar="-1" Cut="0.0000000000000000e+00" cType="1" res="-1.4576870016753674e-03" rms="4.9328812956809998e-01" purity="4.2297294735908508e-01" nType="-99"/>
          <Node pos="r" depth="2" NCoef="0" IVar="-1" Cut="0.0000000000000000e+00" cType="1" res="-7.7505954541265965e-03" rms="2.7783372998237610e-01" purity="8.4651790559291840e-02" nType="-99"/>
        </Node>
      </Node>
    </BinaryTree>
    <BinaryTree type="DecisionTree" boostWeight="1.0000000000000000e+00" itree="9">
      <Node pos="s" depth="0" NCoef="0" IVar="3" Cut="1.3435126543045044e+00" cType="1" res="2.5374093092978001e-03" rms="4.8921152949333191e-01" purity="5.0284522771835327e-01" nType="0">
        <Node pos="l" depth="1" NCoef="0" IVar="3" Cut="8.8113158941268921e-01" cType="1" res="2.3004598915576935e-01" rms="4.2999339103698730e-01" purity="7.4926894903182983e-01" nType="0">
          <Node pos="l" depth="2" NCoef="0" IVar="-1" Cut="0.0000000000000000e+00" cType="1" res="6.8439492024481297e-03" rms="3.3766523003578186e-01" purity="8.6747431755065918e-01" nType="-99"/>
          <Node pos="r" depth="2" NCoef="0" IVar="-1" Cut="0.0000000000000000e+00" cType="1" res="2.4039512500166893e-03" rms="4.8030683398246765e-01" purity="6.3232833147048950e-01" nType="-99"/>
        </Node>
        <Node pos="r" depth="1" NCoef="0" IVar="1" Cut="6.8808502197265625e+01" cType="1" res="-1.7894056439399719e-01" rms="4.5664671063423157e-01" purity="3.0627903342247009e-01" nType="0">
          <Node pos="l" depth="2" NCoef="0" IVar="-1" Cut="0.0000000000000000e+00" cType="1" res="-1.8227121327072382e-03" rms="4.8979473114013672e-01" purity="4.0180614590644836e-01" nType="-99"/>
          <Node pos="r" depth="2" NCoef="0" IVar="-1" Cut="0.0000000000000000e+00" cType="1" res="-8.0980220809578896e-03" rms="2.4214366078376770e-01" purity="6.2624737620353699e-02" nType="-99"/>
        </Node>
      </Node>
    </BinaryTree>
    <BinaryTree type="DecisionTree" boostWeight="1.0000000000000000e+00" itree="10">
      <Node pos="s" depth="0" NCoef="0" IVar="1" Cut="5.4702281951904297e+01" cType="1" res="-2.8705494478344917e-03" rms="4.8737457394599915e-01" purity="4.9679559469223022e-01" nType="0">
        <Node pos="l" depth="1" NCoef="0" IVar="3" Cut="8.8338863849639893e-01" cType="1" res="1.3149408996105194e-01" rms="4.7347158193588257e-01" purity="6.4296567440032959e-01" nType="0">
          <Node pos="l" depth="2" NCoef="0" IVar="-1" Cut="0.0000000000000000e+00" cType="1" res="6.6513018682599068e-03" rms="3.4415501356124878e-01" purity="8.6072927713394165e-01" nType="-99"/>
          <Node pos="r" depth="2" NCoef="0" IVar="-1" Cut="0.0000000000000000e+00" cType="1" res="7.5954990461468697e-04" rms="4.9619621038436890e-01" purity="5.4105782508850098e-01" nType="-99"/>
        </Node>
        <Node pos="r" depth="1" NCoef="0" IVar="1" Cut="7.1864471435546875e+01" cType="1" res="-2.9529699683189392e-01" rms="3.7656632065773010e-01" purity="1.7867608368396759e-01" nType="0">
          <Node pos="l" depth="2" NCoef="0" IVar="-1" Cut="0.0000000000000000e+00" cType="1" res="-3.4523655194789171e-03" rms="4.5980295538902283e-01" purity="3.1297385692596436e-01" nType="-99"/>
          <Node pos="r" depth="2" NCoef="0" IVar="-1" Cut="0.0000000000000000e+00" cType="1" res="-8.4243332967162132e-03" rms="2.0361442863941193e-01" purity="4.3815474957227707e-02" nType="-99"/>
        </Node>
      </Node>
    </BinaryTree>
    <BinaryTree type="DecisionTree" boostWeight="1.0000000000000000e+00" itree="11">
      <Node pos="s" depth="0" NCoef="0" IVar="3" Cut="1.2147387266159058e+00" cType="1" res="1.6245685517787933e-02" rms="4.8661395907402039e-01" purity="5.1691454648971558e-01" nType="0">
        <Node pos="l" depth="1" NCoef="0" IVar="7" Cut="2.6245889663696289e+01" cType="1" res="2.6325136423110962e-01" rms="4.0400221943855286e-01" purity="7.8996479511260986e-01" nType="0">
          <Node pos="l" depth="2" NCoef="0" IVar="-1" Cut="0.0000000000000000e+00" cType="1" res="6.9942665286362171e-03" rms="3.2526540756225586e-01" purity="8.7874895334243774e-01" nType="-99"/>
          <Node pos="r" depth="2" NCoef="0" IVar="-1" Cut="0.0000000000000000e+00" cType="1" res="2.6580858975648880e-03" rms="4.7244054079055786e-01" purity="6.5364974737167358e-01" nType="-99"/>
        </Node>
        <Node pos="r" depth="1" NCoef="0" IVar="1" Cut="6.4410324096679688e+01" cType="1" res="-1.4039850234985352e-01" rms="4.6927946805953979e-01" purity="3.4375360608100891e-01" nType="0">
          <Node pos="l" depth="2" NCoef="0" IVar="-1" Cut="0.0000000000000000e+00" cType="1" res="-1.0034923907369375e-03" rms="4.9594223499298096e-01" purity="4.4380494952201843e-01" nType="-99"/>
          <Node pos="r" depth="2" NCoef="0" IVar="-1" Cut="0.0000000000000000e+00" cType="1" res="-7.2457836940884590e-03" rms="2.9932531714439392e-01" purity="1.0032814741134644e-01" nType="-99"/>
        </Node>
      </Node>
    </BinaryTree>
    <BinaryTree type="DecisionTree" boostWeight="1.0000000000000000e+00" itree="12">
      <Node pos="s" depth="0" NCoef="0" IVar="1" Cut="5.5264942169189453e+01" cType="1" res="3.6903363652527332e-03" rms="4.8655754327774048e-01" purity="5.0526142120361328e-01" nType="0">
        <Node pos="l" depth="1" NCoef="0" IVar="3" Cut="8.6167192459106445e-01" cType="1" res="1.1887758970260620e-01" rms="4.7582918405532837e-01" purity="6.3297158479690552e-01" nType="0">
          <Node pos="l" depth="2" NCoef="0" IVar="-1" Cut="0.0000000000000000e+00" cType="1" res="6.2722894363105297e-03" rms="3.5738003253936768e-01" purity="8.4785199165344238e-01" nType="-99"/>
          <Node pos="r" depth="2" NCoef="0" IVar="-1" Cut="0.0000000000000000e+00" cType="1" res="7.0526410127058625e-04" rms="4.9601081013679504e-01" purity="5.3987687826156616e-01" nType="-99"/>
        </Node>
        <Node pos="r" depth="1" NCoef="0" IVar="1" Cut="7.2859252929687500e+01" cType="1" res="-2.8047853708267212e-01" rms="3.8564908504486084e-01" purity="1.9019825756549835e-01" nType="0">
          <Node pos="l" depth="2" NCoef="0" IVar="-1" Cut="0.0000000000000000e+00" cType="1" res="-3.8848940748721361e-03" rms="4.4907194375991821e-01" purity="2.8835842013359070e-01" nType="-99"/>
          <Node pos="r" depth="2" NCoef="0" IVar="-1" Cut="0.0000000000000000e+00" cType="1" res="-8.0869738012552261e-03" rms="2.2410787642002106e-01" purity="5.3821682929992676e-02" nType="-99"/>
        </Node>
      </Node>
    </BinaryTree>
    <BinaryTree type="DecisionTree" boostWeight="1.0000000000000000e+00" itree="13">
      <Node pos="s" depth="0" NCoef="0" IVar="3" Cut="1.5903061628341675e+00" cType="1" res="5.1900297403335571e-03" rms="4.8419341444969177e-01" purity="5.0536799430847168e-01" nType="0">
        <Node pos="l" depth="1" NCoef="0" IVar="3" Cut="9.9486160278320312e-01" cType="1" res="1.8719694018363953e-01" rms="4.4736218452453613e-01" purity="7.0678502321243286e-01" nType="0">
          <Node pos="l" depth="2" NCoef="0" IVar="-1" Cut="0.0000000000000000e+00" cType="1" res="6.1724837869405746e-03" rms="3.6154964566230774e-01" purity="8.4245020151138306e-01" nType="-99"/>
          <Node pos="r" depth="2" NCoef="0" IVar="-1" Cut="0.0000000000000000e+00" cType="1" res="1.2493538670241833e-03" rms="4.9188032746315002e-01" purity="5.6541305780410767e-01" nType="-99"/>
        </Node>
        <Node pos="r" depth="1" NCoef="0" IVar="1" Cut="6.8584709167480469e+01" cType="1" res="-2.1638925373554230e-01" rms="4.3218871951103210e-01" purity="2.6015830039978027e-01" nType="0">
          <Node pos="l" depth="2" NCoef="0" IVar="-1" Cut="0.0000000000000000e+00" cType="1" res="-2.5126517284661531e-03" rms="4.8055186867713928e-01" purity="3.6443215608596802e-01" nType="-99"/>
          <Node pos="r" depth="2" NCoef="0" IVar="-1" Cut="0.0000000000000000e+00" cType="1" res="-7.9911267384886742e-03" rms="2.2659255564212799e-01" purity="5.4497614502906799e-02" nType="-99"/>
        </Node>
      </Node>
    </BinaryTree>
    <BinaryTree type="DecisionTree" boostWeight="1.0000000000000000e+00" itree="14">
      <Node pos="s" depth="0" NCoef="0" IVar="3" Cut="1.2398529052734375e+00" cType="1" res="3.9437026716768742e-03" rms="4.8389366269111633e-01" purity="5.0511878728866577e-01" nType="0">
        <Node pos="l" depth="1" NCoef="0" IVar="3" Cut="8.8590538501739502e-01" cType="1" res="2.4038392305374146e-01" rms="4.1496366262435913e-01" purity="7.7301841974258423e-01" nType="0">
          <Node pos="l" depth="2" NCoef="0" IVar="-1" Cut="0.0000000000000000e+00" cType="1" res="6.6563459113240242e-03" rms="3.3277651667594910e-01" purity="8.7194448709487915e-01" nType="-99"/>
          <Node pos="r" depth="2" NCoef="0" IVar="-1" Cut="0.0000000000000000e+00" cType="1" res="2.5041385088115931e-03" rms="4.7668781876564026e-01" purity="6.4623236656188965e-01" nType="-99"/>
        </Node>
        <Node pos="r" depth="1" NCoef="0" IVar="1" Cut="6.5632255554199219e+01" cType="1" res="-1.5505123138427734e-01" rms="4.6145951747894287e-01" purity="3.2496887445449829e-01" nType="0">
          <Node pos="l" depth="2" NCoef="0" IVar="-1" Cut="0.0000000000000000e+00" cType="1" res="-1.4321656199172139e-03" rms="4.9271035194396973e-01" purity="4.2076367139816284e-01" nType="-99"/>
          <Node pos="r" depth="2" NCoef="0" IVar="-1" Cut="0.0000000000000000e+00" cType="1" res="-7.3553225956857204e-03" rms="2.7800834178924561e-01" purity="8.5294410586357117e-02" nType="-99"/>
        </Node>
      </Node>
    </BinaryTree>
    <BinaryTree type="DecisionTree" boostWeight="1.0000000000000000e+00" itree="15">
      <Node pos="s" depth="0" NCoef="0" IVar="3" Cut="1.3468548059463501e+00" cType="1" res="-2.5486064259894192e-04" rms="4.8308390378952026e-01" purity="5.0078284740447998e-01" nType="0">
        <Node pos="l" depth="1" NCoef="0" IVar="7" Cut="3.0378591537475586e+01" cType="1" res="1.9803734123706818e-01" rms="4.3834614753723145e-01" purity="7.2848749160766602e-01" nType="0">
          <Node pos="l" depth="2" NCoef="0" IVar="-1" Cut="0.0000000000000000e+00" cType="1" res="6.1486340127885342e-03" rms="3.6157995462417603e-01" purity="8.4039902687072754e-01" nType="-99"/>
          <Node pos="r" depth="2" NCoef="0" IVar="-1" Cut="0.0000000000000000e+00" cType="1" res="-3.6834626371273771e-05" rms="4.9481841921806335e-01" purity="5.2047294378280640e-01" nType="-99"/>
        </Node>
        <Node pos="r" depth="1" NCoef="0" IVar="1" Cut="7.1918701171875000e+01" cType="1" res="-1.6652479767799377e-01" rms="4.5532402396202087e-01" purity="3.0985042452812195e-01" nType="0">
          <Node pos="l" depth="2" NCoef="0" IVar="-1" Cut="0.0000000000000000e+00" cType="1" res="-1.8647110555320978e-03" rms="4.8712450265884399e-01" purity="3.9415547251701355e-01" nType="-99"/>
          <Node pos="r" depth="2" NCoef="0" IVar="-1" Cut="0.0000000000000000e+00" cType="1" res="-8.0223754048347473e-03" rms="2.1056637167930603e-01" purity="4.6551741659641266e-02" nType="-99"/>
        </Node>
      </Node>
    </BinaryTree>
    <BinaryTree type="DecisionTree" boostWeight="1.0000000000000000e+00" itree="16">
      <Node pos="s" depth="0" NCoef="0" IVar="3" Cut="1.5388832092285156e+00" cType="1" res="5.9302360750734806e-03" rms="4.8084670305252075e-01" purity="5.0635415315628052e-01" nType="0">
        <Node pos="l" depth="1" NCoef="0" IVar="7" Cut="5.1906677246093750e+01" cType="1" res="2.0996171236038208e-01" rms="4.3226844072341919e-01" purity="7.3665910959243774e-01" nType="0">
          <Node pos="l" depth="2" NCoef="0" IVar="-1" Cut="0.0000000000000000e+00" cType="1" res="4.9408385530114174e-03" rms="4.1119652986526489e-01" purity="7.7416509389877319e-01" nType="-99"/>
          <Node pos="r" depth="2" NCoef="0" IVar="-1" Cut="0.0000000000000000e+00" cType="1" res="-2.7212323620915413e-03" rms="4.7643384337425232e-01" purity="3.7373813986778259e-01" nType="-99"/>
        </Node>
        <Node pos="r" depth="1" NCoef="0" IVar="1" Cut="5.7277000427246094e+01" cType="1" res="-2.1131651103496552e-01" rms="4.3234574794769287e-01" purity="2.6113218069076538e-01" nType="0">
          <Node pos="l" depth="2" NCoef="0" IVar="-1" Cut="0.0000000000000000e+00" cType="1" res="-2.0746453665196896e-03" rms="4.8711797595024109e-01" purity="3.8756483793258667e-01" nType="-99"/>
          <Node pos="r" depth="2" NCoef="0" IVar="-1" Cut="0.0000000000000000e+00" cType="1" res="-6.5934611484408379e-03" rms="3.2796788215637207e-01" purity="1.2610974907875061e-01" nType="-99"/>
        </Node>
      </Node>
    </BinaryTree>
    <BinaryTree type="DecisionTree" boostWeight="1.0000000000000000e+00" itree="17">
      <Node pos="s" depth="0" NCoef="0" IVar="3" Cut="1.3057955503463745e+00" cType="1" res="2.3994043003767729e-03" rms="4.8120588064193726e-01" purity="5.0431758165359497e-01" nType="0">
        <Node pos="l" depth="1" NCoef="0" IVar="7" Cut="2.2442674636840820e+01" cType="1" res="2.1295277774333954e-01" rms="4.2719295620918274e-01" purity="7.4973577260971069e-01" nType="0">
          <Node pos="l" depth="2" NCoef="0" IVar="-1" Cut="0.0000000000000000e+00" cType="1" res="6.4984550699591637e-03" rms="3.3747306466102600e-01" purity="8.6509311199188232e-01" nType="-99"/>
          <Node pos="r" depth="2" NCoef="0" IVar="-1" Cut="0.0000000000000000e+00" cType="1" res="1.9674978684633970e-03" rms="4.7846159338951111e-01" purity="6.2827920913696289e-01" nType="-99"/>
        </Node>
        <Node pos="r" depth="1" NCoef="0" IVar="1" Cut="6.4818382263183594e+01" cType="1" res="-1.5935361385345459e-01" rms="4.5719879865646362e-01" purity="3.1578046083450317e-01" nType="0">
          <Node pos="l" depth="2" NCoef="0" IVar="-1" Cut="0.0000000000000000e+00" cType="1" res="-1.6062569338828325e-03" rms="4.9084839224815369e-01" purity="4.0986049175262451e-01" nType="-99"/>
          <Node pos="r" depth="2" NCoef="0" IVar="-1" Cut="0.0000000000000000e+00" cType="1" res="-6.9709373638033867e-03" rms="2.9381856322288513e-01" purity="9.6798077225685120e-02" nType="-99"/>
        </Node>
      </Node>
    </BinaryTree>
    <BinaryTree type="DecisionTree" boostWeight="1.0000000000000000e+00" itree="18">
      <Node pos="s" depth="0" NCoef="0" IVar="3" Cut="1.2340790033340454e+00" cType="1" res="-1.7402892932295799e-02" rms="4.7970589995384216e-01" purity="4.8312765359878540e-01" nType="0">
        <Node pos="l" depth="1" NCoef="0" IVar="3" Cut="7.8320777416229248e-01" cType="1" res="2.0012976229190826e-01" rms="4.3251273036003113e-01" purity="7.4147307872772217e-01" nType="0">
          <Node pos="l" depth="2" NCoef="0" IVar="-1" Cut="0.0000000000000000e+00" cType="1" res="6.8367589265108109e-03" rms="3.1050467491149902e-01" purity="8.9016920328140259e-01" nType="-99"/>
          <Node pos="r" depth="2" NCoef="0" IVar="-1" Cut="0.0000000000000000e+00" cType="1" res="1.8253643065690994e-03" rms="4.8158437013626099e-01" purity="6.2357330322265625e-01" nType="-99"/>
        </Node>
        <Node pos="r" depth="1" NCoef="0" IVar="1" Cut="6.7762748718261719e+01" cType="1" res="-1.6031923890113831e-01" rms="4.5484870672225952e-01" purity="3.1339785456657410e-01" nType="0">
          <Node pos="l" depth="2" NCoef="0" IVar="-1" Cut="0.0000000000000000e+00" cType="1" res="-1.5787491574883461e-03" rms="4.9004513025283813e-01" purity="4.0984207391738892e-01" nType="-99"/>
          <Node pos="r" depth="2" NCoef="0" IVar="-1" Cut="0.0000000000000000e+00" cType="1" res="-7.5712637044489384e-03" rms="2.4165014922618866e-01" purity="6.2766507267951965e-02" nType="-99"/>
        </Node>
      </Node>
    </BinaryTree>
    <BinaryTree type="DecisionTree" boostWeight="1.0000000000000000e+00" itree="19">
      <Node pos="s" depth="0" NCoef="0" IVar="3" Cut="1.1972526311874390e+00" cType="1" res="6.9656833074986935e-03" rms="4.7828277945518494e-01" purity="5.0762534141540527e-01" nType="0">
        <Node pos="l" depth="1" NCoef="0" IVar="7" Cut="1.7430376052856445e+01" cType="1" res="2.3923400044441223e-01" rms="4.0619117021560669e-01" purity="7.8406733274459839e-01" nType="0">
          <Node pos="l" depth="2" NCoef="0" IVar="-1" Cut="0.0000000000000000e+00" cType="1" res="7.2306361980736256e-03" rms="2.8285989165306091e-01" purity="9.0990942716598511e-01" nType="-99"/>
          <Node pos="r" depth="2" NCoef="0" IVar="-1" Cut="0.0000000000000000e+00" cType="1" res="3.2573430798947811e-03" rms="4.5344755053520203e-01" purity="7.0144855976104736e-01" nType="-99"/>
        </Node>
        <Node pos="r" depth="1" NCoef="0" IVar="1" Cut="6.1768962860107422e+01" cType="1" res="-1.3421937823295593e-01" rms="4.6345120668411255e-01" purity="3.3958917856216431e-01" nType="0">
          <Node pos="l" depth="2" NCoef="0" IVar="-1" Cut="0.0000000000000000e+00" cType="1" res="-6.4722989918664098e-04" rms="4.9670004844665527e-01" purity="4.5948719978332520e-01" nType="-99"/>
          <Node pos="r" depth="2" NCoef="0" IVar="-1" Cut="0.0000000000000000e+00" cType="1" res="-6.6391667351126671e-03" rms="3.1271275877952576e-01" purity="1.1302793025970459e-01" nType="-99"/>
        </Node>
      </Node>
    </BinaryTree>
    <BinaryTree type="DecisionTree" boostWeight="1.0000000000000000e+00" itree="20">
      <Node pos="s" depth="0" NCoef="0" IVar="3" Cut="1.2107226848602295e+00" cType="1" res="-1.0684792883694172e-02" rms="4.7786241769790649e-01" purity="4.8994645476341248e-01" nType="0">
        <Node pos="l" depth="1" NCoef="0" IVar="7" Cut="4.3910221099853516e+01" cType="1" res="2.1154445409774780e-01" rms="4.2187508940696716e-01" purity="7.5770288705825806e-01" nType="0">
          <Node pos="l" depth="2" NCoef="0" IVar="-1" Cut="0.0000000000000000e+00" cType="1" res="5.5433125235140324e-03" rms="3.7644776701927185e-01" purity="8.2429909706115723e-01" nType="-99"/>
          <Node pos="r" depth="2" NCoef="0" IVar="-1" Cut="0.0000000000000000e+00" cType="1" res="-1.8598219612613320e-03" rms="4.9249038100242615e-01" purity="4.3420296907424927e-01" nType="-99"/>
        </Node>
        <Node pos="r" depth="1" NCoef="0" IVar="1" Cut="6.4763114929199219e+01" cType="1" res="-1.4930909872055054e-01" rms="4.5798704028129578e-01" purity="3.2292276620864868e-01" nType="0">
          <Node pos="l" depth="2" NCoef="0" IVar="-1" Cut="0.0000000000000000e+00" cType="1" res="-1.3194323983043432e-03" rms="4.9273487925529480e-01" purity="4.2404335737228394e-01" nType="-99"/>
          <Node pos="r" depth="2" NCoef="0" IVar="-1" Cut="0.0000000000000000e+00" cType="1" res="-6.9883018732070923e-03" rms="2.8231379389762878e-01" purity="8.8535979390144348e-02" nType="-99"/>
        </Node>
      </Node>
    </BinaryTree>
    <BinaryTree type="DecisionTree" boostWeight="1.0000000000000000e+00" itree="21">
      <Node pos="s" depth="0" NCoef="0" IVar="3" Cut="1.1862503290176392e+00" cType="1" res="-4.5857224613428116e-03" rms="4.7775956988334656e-01" purity="4.9696749448776245e-01" nType="0">
        <Node pos="l" depth="1" NCoef="0" IVar="0" Cut="2.7843160629272461e+00" cType="1" res="2.1965043246746063e-01" rms="4.1529953479766846e-01" purity="7.6895624399185181e-01" nType="0">
          <Node pos="l" depth="2" NCoef="0" IVar="-1" Cut="0.0000000000000000e+00" cType="1" res="9.6006237436085939e-04" rms="4.8828041553497314e-01" purity="5.8626985549926758e-01" nType="-99"/>
          <Node pos="r" depth="2" NCoef="0" IVar="-1" Cut="0.0000000000000000e+00" cType="1" res="6.4347782172262669e-03" rms="3.2940196990966797e-01" purity="8.7296384572982788e-01" nType="-99"/>
        </Node>
        <Node pos="r" depth="1" NCoef="0" IVar="1" Cut="6.8188674926757812e+01" cType="1" res="-1.3843013346195221e-01" rms="4.6219259500503540e-01" purity="3.3462002873420715e-01" nType="0">
          <Node pos="l" depth="2" NCoef="0" IVar="-1" Cut="0.0000000000000000e+00" cType="1" res="-1.3972357846796513e-03" rms="4.9114200472831726e-01" purity="4.1845229268074036e-01" nType="-99"/>
          <Node pos="r" depth="2" NCoef="0" IVar="-1" Cut="0.0000000000000000e+00" cType="1" res="-7.2814975865185261e-03" rms="2.5326010584831238e-01" purity="6.9319471716880798e-02" nType="-99"/>
        </Node>
      </Node>
    </BinaryTree>
    <BinaryTree type="DecisionTree" boostWeight="1.0000000000000000e+00" itree="22">
      <Node pos="s" depth="0" NCoef="0" IVar="3" Cut="1.7945177555084229e+00" cType="1" res="3.3202562481164932e-03" rms="4.7631388902664185e-01" purity="5.0472790002822876e-01" nType="0">
        <Node pos="l" depth="1" NCoef="0" IVar="7" Cut="2.5342744827270508e+01" cType="1" res="1.3399441540241241e-01" rms="4.6036270260810852e-01" purity="6.5997272729873657e-01" nType="0">
          <Node pos="l" depth="2" NCoef="0" IVar="-1" Cut="0.0000000000000000e+00" cType="1" res="5.1158270798623562e-03" rms="4.0028786659240723e-01" purity="7.8883862495422363e-01" nType="-99"/>
          <Node pos="r" depth="2" NCoef="0" IVar="-1" Cut="0.0000000000000000e+00" cType="1" res="-2.8494960861280560e-04" rms="4.8644250631332397e-01" purity="4.9972176551818848e-01" nType="-99"/>
        </Node>
        <Node pos="r" depth="1" NCoef="0" IVar="1" Cut="6.9655349731445312e+01" cType="1" res="-2.2812846302986145e-01" rms="4.1173481941223145e-01" purity="2.2975984215736389e-01" nType="0">
          <Node pos="l" depth="2" NCoef="0" IVar="-1" Cut="0.0000000000000000e+00" cType="1" res="-3.0763400718569756e-03" rms="4.6785476803779602e-01" purity="3.2617884874343872e-01" nType="-99"/>
          <Node pos="r" depth="2" NCoef="0" IVar="-1" Cut="0.0000000000000000e+00" cType="1" res="-7.5041544623672962e-03" rms="2.2360564768314362e-01" purity="5.2933592349290848e-02" nType="-99"/>
        </Node>
      </Node>
    </BinaryTree>
    <BinaryTree type="DecisionTree" boostWeight="1.0000000000000000e+00" itree="23">
      <Node pos="s" depth="0" NCoef="0" IVar="3" Cut="1.3515073060989380e+00" cType="1" res="-1.3262938708066940e-02" rms="4.7530621290206909e-01" purity="4.8779493570327759e-01" nType="0">
        <Node pos="l" depth="1" NCoef="0" IVar="7" Cut="4.6882713317871094e+01" cType="1" res="1.7887462675571442e-01" rms="4.3815270066261292e-01" purity="7.2450137138366699e-01" nType="0">
          <Node pos="l" depth="2" NCoef="0" IVar="-1" Cut="0.0000000000000000e+00" cType="1" res="4.6450160443782806e-03" rms="4.0836462378501892e-01" purity="7.7882087230682373e-01" nType="-99"/>
          <Node pos="r" depth="2" NCoef="0" IVar="-1" Cut="0.0000000000000000e+00" cType="1" res="-2.8566562104970217e-03" rms="4.8208475112915039e-01" purity="3.8006851077079773e-01" nType="-99"/>
        </Node>
        <Node pos="r" depth="1" NCoef="0" IVar="1" Cut="5.5740581512451172e+01" cType="1" res="-1.7052771151065826e-01" rms="4.4580912590026855e-01" purity="2.9405054450035095e-01" nType="0">
          <Node pos="l" depth="2" NCoef="0" IVar="-1" Cut="0.0000000000000000e+00" cType="1" res="-1.3634705683216453e-03" rms="4.9287235736846924e-01" purity="4.2031010985374451e-01" nType="-99"/>
          <Node pos="r" depth="2" NCoef="0" IVar="-1" Cut="0.0000000000000000e+00" cType="1" res="-5.8830152265727520e-03" rms="3.4893685579299927e-01" purity="1.4843350648880005e-01" nType="-99"/>
        </Node>
      </Node>
    </BinaryTree>
    <BinaryTree type="DecisionTree" boostWeight="1.0000000000000000e+00" itree="24">
      <Node pos="s" depth="0" NCoef="0" IVar="3" Cut="1.6055417060852051e+00" cType="1" res="-1.8027009442448616e-02" rms="4.7335281968116760e-01" purity="4.8088747262954712e-01" nType="0">
        <Node pos="l" depth="1" NCoef="0" IVar="7" Cut="5.6533187866210938e+01" cType="1" res="1.4041674137115479e-01" rms="4.5557013154029846e-01" purity="6.7412763833999634e-01" nType="0">
          <Node pos="l" depth="2" NCoef="0" IVar="-1" Cut="0.0000000000000000e+00" cType="1" res="3.6670311819761992e-03" rms="4.3903529644012451e-01" purity="7.1858143806457520e-01" nType="-99"/>
          <Node pos="r" depth="2" NCoef="0" IVar="-1" Cut="0.0000000000000000e+00" cType="1" res="-5.1581924781203270e-03" rms="4.2020317912101746e-01" purity="2.4361808598041534e-01" nType="-99"/>
        </Node>
        <Node pos="r" depth="1" NCoef="0" IVar="1" Cut="6.8038810729980469e+01" cType="1" res="-2.1268054842948914e-01" rms="4.1907647252082825e-01" purity="2.4348545074462891e-01" nType="0">
          <Node pos="l" depth="2" NCoef="0" IVar="-1" Cut="0.0000000000000000e+00" cType="1" res="-2.7016175445169210e-03" rms="4.7403934597969055e-01" purity="3.4441596269607544e-01" nType="-99"/>
          <Node pos="r" depth="2" NCoef="0" IVar="-1" Cut="0.0000000000000000e+00" cType="1" res="-7.4090133421123028e-03" rms="2.2463764250278473e-01" purity="5.3730215877294540e-02" nType="-99"/>
        </Node>
      </Node>
    </BinaryTree>
    <BinaryTree type="DecisionTree" boostWeight="1.0000000000000000e+00" itree="25">
      <Node pos="s" depth="0" NCoef="0" IVar="3" Cut="1.5341720581054688e+00" cType="1" res="7.2207078337669373e-03" rms="4.7235807776451111e-01" purity="5.0786048173904419e-01" nType="0">
        <Node pos="l" depth="1" NCoef="0" IVar="3" Cut="7.5807785987854004e-01" cType="1" res="1.8261893093585968e-01" rms="4.3589773774147034e-01" purity="7.2226029634475708e-01" nType="0">
          <Node pos="l" depth="2" NCoef="0" IVar="-1" Cut="0.0000000000000000e+00" cType="1" res="6.9957878440618515e-03" rms="2.8213855624198914e-01" purity="9.1089600324630737e-01" nType="-99"/>
          <Node pos="r" depth="2" NCoef="0" IVar="-1" Cut="0.0000000000000000e+00" cType="1" res="2.1762615069746971e-03" rms="4.7305294871330261e-01" purity="6.3462007045745850e-01" nType="-99"/>
        </Node>
        <Node pos="r" depth="1" NCoef="0" IVar="1" Cut="6.7221496582031250e+01" cType="1" res="-1.8923234939575195e-01" rms="4.3262147903442383e-01" purity="2.6772406697273254e-01" nType="0">
          <Node pos="l" depth="2" NCoef="0" IVar="-1" Cut="0.0000000000000000e+00" cType="1" res="-2.3043788969516754e-03" rms="4.7986418008804321e-01" purity="3.6412316560745239e-01" nType="-99"/>
          <Node pos="r" depth="2" NCoef="0" IVar="-1" Cut="0.0000000000000000e+00" cType="1" res="-7.1021472103893757e-03" rms="2.4923481047153473e-01" purity="6.7168377339839935e-02" nType="-99"/>
        </Node>
      </Node>
    </BinaryTree>
    <BinaryTree type="DecisionTree" boostWeight="1.0000000000000000e+00" itree="26">
      <Node pos="s" depth="0" NCoef="0" IVar="1" Cut="5.7371788024902344e+01" cType="1" res="1.1954947374761105e-02" rms="4.7195947170257568e-01" purity="5.1314902305603027e-01" nType="0">
        <Node pos="l" depth="1" NCoef="0" IVar="3" Cut="8.0098223686218262e-01" cType="1" res="1.1133383214473724e-01" rms="4.6690768003463745e-01" purity="6.3667690753936768e-01" nType="0">
          <Node pos="l" depth="2" NCoef="0" IVar="-1" Cut="0.0000000000000000e+00" cType="1" res="6.7023467272520065e-03" rms="2.9729205369949341e-01" purity="8.9831429719924927e-01" nType="-99"/>
          <Node pos="r" depth="2" NCoef="0" IVar="-1" Cut="0.0000000000000000e+00" cType="1" res="7.4791884981095791e-04" rms="4.9062278866767883e-01" purity="5.4731774330139160e-01" nType="-99"/>
        </Node>
        <Node pos="r" depth="1" NCoef="0" IVar="1" Cut="7.4496528625488281e+01" cType="1" res="-2.5819993019104004e-01" rms="3.6852112412452698e-01" purity="1.7734657227993011e-01" nType="0">
          <Node pos="l" depth="2" NCoef="0" IVar="-1" Cut="0.0000000000000000e+00" cType="1" res="-3.3150627277791500e-03" rms="4.5008090138435364e-01" purity="2.9736703634262085e-01" nType="-99"/>
          <Node pos="r" depth="2" NCoef="0" IVar="-1" Cut="0.0000000000000000e+00" cType="1" res="-7.5460448861122131e-03" rms="1.9960409402847290e-01" purity="4.2859349399805069e-02" nType="-99"/>
        </Node>
      </Node>
    </BinaryTree>
    <BinaryTree type="DecisionTree" boostWeight="1.0000000000000000e+00" itree="27">
      <Node pos="s" depth="0" NCoef="0" IVar="1" Cut="5.1839550018310547e+01" cType="1" res="6.9784158840775490e-03" rms="4.7160255908966064e-01" purity="5.0855892896652222e-01" nType="0">
        <Node pos="l" depth="1" NCoef="0" IVar="3" Cut="1.9256993532180786e+00" cType="1" res="1.3261267542839050e-01" rms="4.5912078022956848e-01" purity="6.6261994838714600e-01" nType="0">
          <Node pos="l" depth="2" NCoef="0" IVar="-1" Cut="0.0000000000000000e+00" cType="1" res="3.7193580064922571e-03" rms="4.3745833635330200e-01" purity="7.2286021709442139e-01" nType="-99"/>
          <Node pos="r" depth="2" NCoef="0" IVar="-1" Cut="0.0000000000000000e+00" cType="1" res="-2.7403282001614571e-03" rms="4.7576922178268433e-01" purity="3.4623506665229797e-01" nType="-99"/>
        </Node>
        <Node pos="r" depth="1" NCoef="0" IVar="7" Cut="2.0381263732910156e+01" cType="1" res="-2.3024812340736389e-01" rms="3.9782473444938660e-01" purity="2.1765600144863129e-01" nType="0">
          <Node pos="l" depth="2" NCoef="0" IVar="-1" Cut="0.0000000000000000e+00" cType="1" res="-1.9272008212283254e-03" rms="4.6076130867004395e-01" purity="3.5852783918380737e-01" nType="-99"/>
          <Node pos="r" depth="2" NCoef="0" IVar="-1" Cut="0.0000000000000000e+00" cType="1" res="-6.0968329198658466e-03" rms="3.4168276190757751e-01" purity="1.4610147476196289e-01" nType="-99"/>
        </Node>
      </Node>
    </BinaryTree>
    <BinaryTree type="DecisionTree" boostWeight="1.0000000000000000e+00" itree="28">
      <Node pos="s" depth="0" NCoef="0" IVar="3" Cut="1.6017322540283203e+00" cType="1" res="-4.1051208972930908e-03" rms="4.7253859043121338e-01" purity="4.9891141057014465e-01" nType="0">
        <Node pos="l" depth="1" NCoef="0" IVar="3" Cut="7.4716484546661377e-01" cType="1" res="1.3358604907989502e-01" rms="4.5515716075897217e-01" purity="6.7415750026702881e-01" nType="0">
          <Node pos="l" depth="2" NCoef="0" IVar="-1" Cut="0.0000000000000000e+00" cType="1" res="7.0066070184111595e-03" rms="2.7054706215858459e-01" purity="9.1817653179168701e-01" nType="-99"/>
          <Node pos="r" depth="2" NCoef="0" IVar="-1" Cut="0.0000000000000000e+00" cType="1" res="1.1026083957403898e-03" rms="4.8501476645469666e-01" purity="5.8176624774932861e-01" nType="-99"/>
        </Node>
        <Node pos="r" depth="1" NCoef="0" IVar="1" Cut="6.9392303466796875e+01" cType="1" res="-1.8904578685760498e-01" rms="4.3044501543045044e-01" purity="2.6352864503860474e-01" nType="0">
          <Node pos="l" depth="2" NCoef="0" IVar="-1" Cut="0.0000000000000000e+00" cType="1" res="-2.5844066403806210e-03" rms="4.7384187579154968e-01" purity="3.4575912356376648e-01" nType="-99"/>
          <Node pos="r" depth="2" NCoef="0" IVar="-1" Cut="0.0000000000000000e+00" cType="1" res="-6.9539640098810196e-03" rms="2.4788917601108551e-01" purity="6.6194891929626465e-02" nType="-99"/>
        </Node>
      </Node>
    </BinaryTree>
    <BinaryTree type="DecisionTree" boostWeight="1.0000000000000000e+00" itree="29">
      <Node pos="s" depth="0" NCoef="0" IVar="3" Cut="1.3443735837936401e+00" cType="1" res="1.0280042886734009e-02" rms="4.7045126557350159e-01" purity="5.1274156570434570e-01" nType="0">
        <Node pos="l" depth="1" NCoef="0" IVar="3" Cut="7.9552698135375977e-01" cType="1" res="1.9357089698314667e-01" rms="4.2382872104644775e-01" purity="7.4939030408859253e-01" nType="0">
          <Node pos="l" depth="2" NCoef="0" IVar="-1" Cut="0.0000000000000000e+00" cType="1" res="6.3442885875701904e-03" rms="3.1362491846084595e-01" purity="8.8814723491668701e-01" nType="-99"/>
          <Node pos="r" depth="2" NCoef="0" IVar="-1" Cut="0.0000000000000000e+00" cType="1" res="2.2500487975776196e-03" rms="4.7029098868370056e-01" purity="6.5080195665359497e-01" nType="-99"/>
        </Node>
        <Node pos="r" depth="1" NCoef="0" IVar="7" Cut="3.0655162811279297e+01" cType="1" res="-1.4223642647266388e-01" rms="4.5255005359649658e-01" purity="3.1582584977149963e-01" nType="0">
          <Node pos="l" depth="2" NCoef="0" IVar="-1" Cut="0.0000000000000000e+00" cType="1" res="-9.4166997587308288e-04" rms="4.8149546980857849e-01" purity="4.1709080338478088e-01" nType="-99"/>
          <Node pos="r" depth="2" NCoef="0" IVar="-1" Cut="0.0000000000000000e+00" cType="1" res="-5.6328293867409229e-03" rms="3.6832401156425476e-01" purity="1.7316587269306183e-01" nType="-99"/>
        </Node>
      </Node>
    </BinaryTree>
    <BinaryTree type="DecisionTree" boostWeight="1.0000000000000000e+00" itree="30">
      <Node pos="s" depth="0" NCoef="0" IVar="3" Cut="1.4045609235763550e+00" cType="1" res="5.0477390177547932e-03" rms="4.7018527984619141e-01" purity="5.0768327713012695e-01" nType="0">
        <Node pos="l" depth="1" NCoef="0" IVar="3" Cut="8.0359095335006714e-01" cType="1" res="1.7919933795928955e-01" rms="4.3094047904014587e-01" purity="7.3330980539321899e-01" nType="0">
          <Node pos="l" depth="2" NCoef="0" IVar="-1" Cut="0.0000000000000000e+00" cType="1" res="6.0735368169844151e-03" rms="3.2453811168670654e-01" purity="8.7631756067276001e-01" nType="-99"/>
          <Node pos="r" depth="2" NCoef="0" IVar="-1" Cut="0.0000000000000000e+00" cType="1" res="2.0310415420681238e-03" rms="4.7400486469268799e-01" purity="6.3679939508438110e-01" nType="-99"/>
        </Node>
        <Node pos="r" depth="1" NCoef="0" IVar="1" Cut="7.2302932739257812e+01" cType="1" res="-1.5310552716255188e-01" rms="4.4792285561561584e-01" purity="3.0278384685516357e-01" nType="0">
          <Node pos="l" depth="2" NCoef="0" IVar="-1" Cut="0.0000000000000000e+00" cType="1" res="-1.9685726147145033e-03" rms="4.8057582974433899e-01" purity="3.7522867321968079e-01" nType="-99"/>
          <Node pos="r" depth="2" NCoef="0" IVar="-1" Cut="0.0000000000000000e+00" cType="1" res="-7.2269248776137829e-03" rms="2.1733084321022034e-01" purity="4.9996163696050644e-02" nType="-99"/>
        </Node>
      </Node>
    </BinaryTree>
    <BinaryTree type="DecisionTree" boostWeight="1.0000000000000000e+00" itree="31">
      <Node pos="s" depth="0" NCoef="0" IVar="3" Cut="1.4085103273391724e+00" cType="1" res="1.2282988987863064e-02" rms="4.6873468160629272e-01" purity="5.1508861780166626e-01" nType="0">
        <Node pos="l" depth="1" NCoef="0" IVar="7" Cut="3.4175655364990234e+01" cType="1" res="1.7979839444160461e-01" rms="4.2925477027893066e-01" purity="7.3414307832717896e-01" nType="0">
          <Node pos="l" depth="2" NCoef="0" IVar="-1" Cut="0.0000000000000000e+00" cType="1" res="5.0647780299186707e-03" rms="3.8319349288940430e-01" purity="8.1055730581283569e-01" nType="-99"/>
          <Node pos="r" depth="2" NCoef="0" IVar="-1" Cut="0.0000000000000000e+00" cType="1" res="-2.4710615980438888e-04" rms="4.8903897404670715e-01" purity="5.1987636089324951e-01" nType="-99"/>
        </Node>
        <Node pos="r" depth="1" NCoef="0" IVar="7" Cut="1.9858169555664062e+01" cType="1" res="-1.4782290160655975e-01" rms="4.4848909974098206e-01" purity="3.0572339892387390e-01" nType="0">
          <Node pos="l" depth="2" NCoef="0" IVar="-1" Cut="0.0000000000000000e+00" cType="1" res="2.2457132217823528e-05" rms="4.8576149344444275e-01" purity="4.6128630638122559e-01" nType="-99"/>
          <Node pos="r" depth="2" NCoef="0" IVar="-1" Cut="0.0000000000000000e+00" cType="1" res="-4.6548871323466301e-03" rms="4.0438067913055420e-01" purity="2.2101065516471863e-01" nType="-99"/>
        </Node>
      </Node>
    </BinaryTree>
    <BinaryTree type="DecisionTree" boostWeight="1.0000000000000000e+00" itree="32">
      <Node pos="s" depth="0" NCoef="0" IVar="1" Cut="5.7122425079345703e+01" cType="1" res="-1.3797403313219547e-02" rms="4.6685782074928284e-01" purity="4.8635557293891907e-01" nType="0">
        <Node pos="l" depth="1" NCoef="0" IVar="3" Cut="8.5990053415298462e-01" cType="1" res="8.6452543735504150e-02" rms="4.7027859091758728e-01" purity="6.1748200654983521e-01" nType="0">
          <Node pos="l" depth="2" NCoef="0" IVar="-1" Cut="0.0000000000000000e+00" cType="1" res="5.4241451434791088e-03" rms="3.5572719573974609e-01" purity="8.4795212745666504e-01" nType="-99"/>
          <Node pos="r" depth="2" NCoef="0" IVar="-1" Cut="0.0000000000000000e+00" cType="1" res="2.4475750979036093e-04" rms="4.9224126338958740e-01" purity="5.2059209346771240e-01" nType="-99"/>
        </Node>
        <Node pos="r" depth="1" NCoef="0" IVar="1" Cut="7.4529411315917969e+01" cType="1" res="-2.6754683256149292e-01" rms="3.4643158316612244e-01" purity="1.5445269644260406e-01" nType="0">
          <Node pos="l" depth="2" NCoef="0" IVar="-1" Cut="0.0000000000000000e+00" cType="1" res="-3.7239906378090382e-03" rms="4.3330052495002747e-01" purity="2.6693922281265259e-01" nType="-99"/>
          <Node pos="r" depth="2" NCoef="0" IVar="-1" Cut="0.0000000000000000e+00" cType="1" res="-7.5167361646890640e-03" rms="1.7823353409767151e-01" purity="3.4067295491695404e-02" nType="-99"/>
        </Node>
      </Node>
    </BinaryTree>
    <BinaryTree type="DecisionTree" boostWeight="1.0000000000000000e+00" itree="33">
      <Node pos="s" depth="0" NCoef="0" IVar="3" Cut="1.5421819686889648e+00" cType="1" res="2.0486570429056883e-03" rms="4.6574890613555908e-01" purity="5.0236147642135620e-01" nType="0">
        <Node pos="l" depth="1" NCoef="0" IVar="7" Cut="2.6369106292724609e+01" cType="1" res="1.5883633494377136e-01" rms="4.3988820910453796e-01" purity="7.0901447534561157e-01" nType="0">
          <Node pos="l" depth="2" NCoef="0" IVar="-1" Cut="0.0000000000000000e+00" cType="1" res="5.0626103766262531e-03" rms="3.8293614983558655e-01" purity="8.0801105499267578e-01" nType="-99"/>
          <Node pos="r" depth="2" NCoef="0" IVar="-1" Cut="0.0000000000000000e+00" cType="1" res="5.5606634123250842e-04" rms="4.8352402448654175e-01" purity="5.6277823448181152e-01" nType="-99"/>
        </Node>
        <Node pos="r" depth="1" NCoef="0" IVar="1" Cut="6.4378326416015625e+01" cType="1" res="-1.7635978758335114e-01" rms="4.2868438363075256e-01" purity="2.6721131801605225e-01" nType="0">
          <Node pos="l" depth="2" NCoef="0" IVar="-1" Cut="0.0000000000000000e+00" cType="1" res="-1.7466358840465546e-03" rms="4.8539319634437561e-01" purity="3.8731592893600464e-01" nType="-99"/>
          <Node pos="r" depth="2" NCoef="0" IVar="-1" Cut="0.0000000000000000e+00" cType="1" res="-6.6655045375227928e-03" rms="2.6216495037078857e-01" purity="7.6551020145416260e-02" nType="-99"/>
        </Node>
      </Node>
    </BinaryTree>
    <BinaryTree type="DecisionTree" boostWeight="1.0000000000000000e+00" itree="34">
      <Node pos="s" depth="0" NCoef="0" IVar="3" Cut="8.8612508773803711e-01" cType="1" res="-8.2385186105966568e-03" rms="4.6989303827285767e-01" purity="4.9512371420860291e-01" nType="0">
        <Node pos="l" depth="1" NCoef="0" IVar="10" Cut="3.0193504333496094e+01" cType="1" res="2.6600283384323120e-01" rms="3.4997087717056274e-01" purity="8.5262680053710938e-01" nType="0">
          <Node pos="l" depth="2" NCoef="0" IVar="-1" Cut="0.0000000000000000e+00" cType="1" res="2.0742402411997318e-03" rms="4.5705270767211914e-01" purity="6.8408107757568359e-01" nType="-99"/>
          <Node pos="r" depth="2" NCoef="0" IVar="-1" Cut="0.0000000000000000e+00" cType="1" res="6.6158724948763847e-03" rms="2.8676426410675049e-01" purity="9.0790313482284546e-01" nType="-99"/>
        </Node>
        <Node pos="r" depth="1" NCoef="0" IVar="1" Cut="5.7022403717041016e+01" cType="1" res="-8.5735119879245758e-02" rms="4.7045162320137024e-01" purity="3.9409857988357544e-01" nType="0">
          <Node pos="l" depth="2" NCoef="0" IVar="-1" Cut="0.0000000000000000e+00" cType="1" res="-2.0938400120940059e-04" rms="4.9306595325469971e-01" purity="4.9662712216377258e-01" nType="-99"/>
          <Node pos="r" depth="2" NCoef="0" IVar="-1" Cut="0.0000000000000000e+00" cType="1" res="-5.0461622886359692e-03" rms="3.7190115451812744e-01" purity="1.7813068628311157e-01" nType="-99"/>
        </Node>
      </Node>
    </BinaryTree>
    <BinaryTree type="DecisionTree" boostWeight="1.0000000000000000e+00" itree="35">
      <Node pos="s" depth="0" NCoef="0" IVar="3" Cut="1.3490523099899292e+00" cType="1" res="-5.2520660683512688e-03" rms="4.6470180153846741e-01" purity="4.9495247006416321e-01" nType="0">
        <Node pos="l" depth="1" NCoef="0" IVar="7" Cut="2.6209844589233398e+01" cType="1" res="1.8293337523937225e-01" rms="4.2406865954399109e-01" purity="7.4922239780426025e-01" nType="0">
          <Node pos="l" depth="2" NCoef="0" IVar="-1" Cut="0.0000000000000000e+00" cType="1" res="5.5620186030864716e-03" rms="3.5398894548416138e-01" purity="8.4758031368255615e-01" nType="-99"/>
          <Node pos="r" depth="2" NCoef="0" IVar="-1" Cut="0.0000000000000000e+00" cType="1" res="1.0619094828143716e-03" rms="4.8223215341567993e-01" purity="6.0272973775863647e-01" nType="-99"/>
        </Node>
        <Node pos="r" depth="1" NCoef="0" IVar="1" Cut="6.3425601959228516e+01" cType="1" res="-1.5329925715923309e-01" rms="4.4111257791519165e-01" purity="2.9491597414016724e-01" nType="0">
          <Node pos="l" depth="2" NCoef="0" IVar="-1" Cut="0.0000000000000000e+00" cType="1" res="-1.4239229494705796e-03" rms="4.8858404159545898e-01" purity="4.0728208422660828e-01" nType="-99"/>
          <Node pos="r" depth="2" NCoef="0" IVar="-1" Cut="0.0000000000000000e+00" cType="1" res="-6.3852728344500065e-03" rms="2.8044182062149048e-01" purity="8.9147120714187622e-02" nType="-99"/>
        </Node>
      </Node>
    </BinaryTree>
    <BinaryTree type="DecisionTree" boostWeight="1.0000000000000000e+00" itree="36">
      <Node pos="s" depth="0" NCoef="0" IVar="3" Cut="1.2400132417678833e+00" cType="1" res="-2.3446558043360710e-03" rms="4.6305280923843384e-01" purity="4.9719578027725220e-01" nType="0">
        <Node pos="l" depth="1" NCoef="0" IVar="7" Cut="4.3933055877685547e+01" cType="1" res="1.9659036397933960e-01" rms="4.1013070940971375e-01" purity="7.7012389898300171e-01" nType="0">
          <Node pos="l" depth="2" NCoef="0" IVar="-1" Cut="0.0000000000000000e+00" cType="1" res="5.1001380197703838e-03" rms="3.7066984176635742e-01" purity="8.2761973142623901e-01" nType="-99"/>
          <Node pos="r" depth="2" NCoef="0" IVar="-1" Cut="0.0000000000000000e+00" cType="1" res="-1.5426413156092167e-03" rms="4.9346619844436646e-01" purity="4.6432361006736755e-01" nType="-99"/>
        </Node>
        <Node pos="r" depth="1" NCoef="0" IVar="1" Cut="6.0201423645019531e+01" cType="1" res="-1.3080748915672302e-01" rms="4.4966667890548706e-01" purity="3.2095170021057129e-01" nType="0">
          <Node pos="l" depth="2" NCoef="0" IVar="-1" Cut="0.0000000000000000e+00" cType="1" res="-6.4586283406242728e-04" rms="4.9421426653862000e-01" purity="4.5257201790809631e-01" nType="-99"/>
          <Node pos="r" depth="2" NCoef="0" IVar="-1" Cut="0.0000000000000000e+00" cType="1" res="-5.9565939009189606e-03" rms="3.1248867511749268e-01" purity="1.1539556831121445e-01" nType="-99"/>
        </Node>
      </Node>
    </BinaryTree>
    <BinaryTree type="DecisionTree" boostWeight="1.0000000000000000e+00" itree="37">
      <Node pos="s" depth="0" NCoef="0" IVar="3" Cut="1.1370401382446289e+00" cType="1" res="-1.4564209617674351e-02" rms="4.6283432841300964e-01" purity="4.8513564467430115e-01" nType="0">
        <Node pos="l" depth="1" NCoef="0" IVar="6" Cut="1.7936056852340698e+00" cType="1" res="2.0849916338920593e-01" rms="4.0054202079772949e-01" purity="7.9004013538360596e-01" nType="0">
          <Node pos="l" depth="2" NCoef="0" IVar="-1" Cut="0.0000000000000000e+00" cType="1" res="2.0875432528555393e-03" rms="4.6011939644813538e-01" purity="6.8051248788833618e-01" nType="-99"/>
          <Node pos="r" depth="2" NCoef="0" IVar="-1" Cut="0.0000000000000000e+00" cType="1" res="5.9703858569264412e-03" rms="3.2626569271087646e-01" purity="8.7285667657852173e-01" nType="-99"/>
        </Node>
        <Node pos="r" depth="1" NCoef="0" IVar="1" Cut="6.4677040100097656e+01" cType="1" res="-1.2981675565242767e-01" rms="4.5056831836700439e-01" purity="3.2759734988212585e-01" nType="0">
          <Node pos="l" depth="2" NCoef="0" IVar="-1" Cut="0.0000000000000000e+00" cType="1" res="-1.0909743141382933e-03" rms="4.9047106504440308e-01" purity="4.3386387825012207e-01" nType="-99"/>
          <Node pos="r" depth="2" NCoef="0" IVar="-1" Cut="0.0000000000000000e+00" cType="1" res="-6.4467499032616615e-03" rms="2.6843148469924927e-01" purity="8.1115141510963440e-02" nType="-99"/>
        </Node>
      </Node>
    </BinaryTree>
    <BinaryTree type="DecisionTree" boostWeight="1.0000000000000000e+00" itree="38">
      <Node pos="s" depth="0" NCoef="0" IVar="3" Cut="1.2600263357162476e+00" cType="1" res="4.2691227281466126e-04" rms="4.6467244625091553e-01" purity="5.0487005710601807e-01" nType="0">
        <Node pos="l" depth="1" NCoef="0" IVar="7" Cut="2.9136177062988281e+01" cType="1" res="1.9349420070648193e-01" rms="4.1078287363052368e-01" purity="7.7044743299484253e-01" nType="0">
          <Node pos="l" depth="2" NCoef="0" IVar="-1" Cut="0.0000000000000000e+00" cType="1" res="5.3347847424447536e-03" rms="3.5601291060447693e-01" purity="8.4585058689117432e-01" nType="-99"/>
          <Node pos="r" depth="2" NCoef="0" IVar="-1" Cut="0.0000000000000000e+00" cType="1" res="1.3043355429545045e-03" rms="4.7754862904548645e-01" purity="6.1903804540634155e-01" nType="-99"/>
        </Node>
        <Node pos="r" depth="1" NCoef="0" IVar="7" Cut="2.1490118026733398e+01" cType="1" res="-1.3338719308376312e-01" rms="4.5263445377349854e-01" purity="3.2079946994781494e-01" nType="0">
          <Node pos="l" depth="2" NCoef="0" IVar="-1" Cut="0.0000000000000000e+00" cType="1" res="-3.1050827237777412e-04" rms="4.8498776555061340e-01" purity="4.4974368810653687e-01" nType="-99"/>
          <Node pos="r" depth="2" NCoef="0" IVar="-1" Cut="0.0000000000000000e+00" cType="1" res="-4.4346973299980164e-03" rms="4.0804764628410339e-01" purity="2.2941344976425171e-01" nType="-99"/>
        </Node>
      </Node>
    </BinaryTree>
    <BinaryTree type="DecisionTree" boostWeight="1.0000000000000000e+00" itree="39">
      <Node pos="s" depth="0" NCoef="0" IVar="3" Cut="1.3771845102310181e+00" cType="1" res="2.9678575228899717e-03" rms="4.6246954798698425e-01" purity="5.0547975301742554e-01" nType="0">
        <Node pos="l" depth="1" NCoef="0" IVar="7" Cut="3.3175354003906250e+01" cType="1" res="1.6771017014980316e-01" rms="4.2739832401275635e-01" purity="7.3754078149795532e-01" nType="0">
          <Node pos="l" depth="2" NCoef="0" IVar="-1" Cut="0.0000000000000000e+00" cType="1" res="4.7675250098109245e-03" rms="3.8312119245529175e-01" purity="8.1149971485137939e-01" nType="-99"/>
          <Node pos="r" depth="2" NCoef="0" IVar="-1" Cut="0.0000000000000000e+00" cType="1" res="1.8628123507369310e-04" rms="4.8701032996177673e-01" purity="5.5270934104919434e-01" nType="-99"/>
        </Node>
        <Node pos="r" depth="1" NCoef="0" IVar="1" Cut="6.2814067840576172e+01" cType="1" res="-1.4266838133335114e-01" rms="4.4301807880401611e-01" purity="3.0033218860626221e-01" nType="0">
          <Node pos="l" depth="2" NCoef="0" IVar="-1" Cut="0.0000000000000000e+00" cType="1" res="-1.2544149067252874e-03" rms="4.8936477303504944e-01" purity="4.1259923577308655e-01" nType="-99"/>
          <Node pos="r" depth="2" NCoef="0" IVar="-1" Cut="0.0000000000000000e+00" cType="1" res="-6.0405186377465725e-03" rms="2.9561936855316162e-01" purity="1.0023625195026398e-01" nType="-99"/>
        </Node>
      </Node>
    </BinaryTree>
    <BinaryTree type="DecisionTree" boostWeight="1.0000000000000000e+00" itree="40">
      <Node pos="s" depth="0" NCoef="0" IVar="3" Cut="1.2017924785614014e+00" cType="1" res="6.2184286070987582e-04" rms="4.6036097407341003e-01" purity="5.0099188089370728e-01" nType="0">
        <Node pos="l" depth="1" NCoef="0" IVar="7" Cut="4.7900463104248047e+01" cType="1" res="1.9299523532390594e-01" rms="4.0495038032531738e-01" purity="7.7574592828750610e-01" nType="0">
          <Node pos="l" depth="2" NCoef="0" IVar="-1" Cut="0.0000000000000000e+00" cType="1" res="4.8650163225829601e-03" rms="3.7358421087265015e-01" purity="8.2395583391189575e-01" nType="-99"/>
          <Node pos="r" depth="2" NCoef="0" IVar="-1" Cut="0.0000000000000000e+00" cType="1" res="-2.3360545746982098e-03" rms="4.8519733548164368e-01" purity="4.2067468166351318e-01" nType="-99"/>
        </Node>
        <Node pos="r" depth="1" NCoef="0" IVar="1" Cut="5.5725807189941406e+01" cType="1" res="-1.1785650998353958e-01" rms="4.5236349105834961e-01" purity="3.3177718520164490e-01" nType="0">
          <Node pos="l" depth="2" NCoef="0" IVar="-1" Cut="0.0000000000000000e+00" cType="1" res="-1.8487770284991711e-04" rms="4.9624815583229065e-01" purity="4.7902914881706238e-01" nType="-99"/>
          <Node pos="r" depth="2" NCoef="0" IVar="-1" Cut="0.0000000000000000e+00" cType="1" res="-5.1993750967085361e-03" rms="3.5125714540481567e-01" purity="1.5482263267040253e-01" nType="-99"/>
        </Node>
      </Node>
    </BinaryTree>
    <BinaryTree type="DecisionTree" boostWeight="1.0000000000000000e+00" itree="41">
      <Node pos="s" depth="0" NCoef="0" IVar="1" Cut="5.2925075531005859e+01" cType="1" res="-2.0188824273645878e-03" rms="4.6194195747375488e-01" purity="5.0111269950866699e-01" nType="0">
        <Node pos="l" depth="1" NCoef="0" IVar="3" Cut="2.0304210186004639e+00" cType="1" res="9.8226420581340790e-02" rms="4.6094831824302673e-01" purity="6.3964396715164185e-01" nType="0">
          <Node pos="l" depth="2" NCoef="0" IVar="-1" Cut="0.0000000000000000e+00" cType="1" res="3.0203412752598524e-03" rms="4.4411903619766235e-01" purity="7.0156198740005493e-01" nType="-99"/>
          <Node pos="r" depth="2" NCoef="0" IVar="-1" Cut="0.0000000000000000e+00" cType="1" res="-3.5293097607791424e-03" rms="4.5624256134033203e-01" purity="2.9653054475784302e-01" nType="-99"/>
        </Node>
        <Node pos="r" depth="1" NCoef="0" IVar="1" Cut="7.1996353149414062e+01" cType="1" res="-2.1310910582542419e-01" rms="3.8678351044654846e-01" purity="2.0940221846103668e-01" nType="0">
          <Node pos="l" depth="2" NCoef="0" IVar="-1" Cut="0.0000000000000000e+00" cType="1" res="-2.7811790350824594e-03" rms="4.5495462417602539e-01" purity="3.1997618079185486e-01" nType="-99"/>
          <Node pos="r" depth="2" NCoef="0" IVar="-1" Cut="0.0000000000000000e+00" cType="1" res="-6.8762996233999729e-03" rms="2.2185657918453217e-01" purity="5.4031122475862503e-02" nType="-99"/>
        </Node>
      </Node>
    </BinaryTree>
    <BinaryTree type="DecisionTree" boostWeight="1.0000000000000000e+00" itree="42">
      <Node pos="s" depth="0" NCoef="0" IVar="3" Cut="1.4045609235763550e+00" cType="1" res="-7.8450841829180717e-03" rms="4.5996573567390442e-01" purity="4.9244019389152527e-01" nType="0">
        <Node pos="l" depth="1" NCoef="0" IVar="7" Cut="3.3013305664062500e+01" cType="1" res="1.7200830578804016e-01" rms="4.2182072997093201e-01" purity="7.4418818950653076e-01" nType="0">
          <Node pos="l" depth="2" NCoef="0" IVar="-1" Cut="0.0000000000000000e+00" cType="1" res="4.9987277016043663e-03" rms="3.7012618780136108e-01" purity="8.2531672716140747e-01" nType="-99"/>
          <Node pos="r" depth="2" NCoef="0" IVar="-1" Cut="0.0000000000000000e+00" cType="1" res="-5.6575131566205528e-06" rms="4.8753461241722107e-01" purity="5.4320251941680908e-01" nType="-99"/>
        </Node>
        <Node pos="r" depth="1" NCoef="0" IVar="7" Cut="1.6797574996948242e+01" cType="1" res="-1.5893524885177612e-01" rms="4.3568646907806396e-01" purity="2.8095325827598572e-01" nType="0">
          <Node pos="l" depth="2" NCoef="0" IVar="-1" Cut="0.0000000000000000e+00" cType="1" res="-2.6779957806866150e-06" rms="4.8650991916656494e-01" purity="4.5466646552085876e-01" nType="-99"/>
          <Node pos="r" depth="2" NCoef="0" IVar="-1" Cut="0.0000000000000000e+00" cType="1" res="-4.5581576414406300e-03" rms="3.9671915769577026e-01" purity="2.1228517591953278e-01" nType="-99"/>
        </Node>
      </Node>
    </BinaryTree>
    <BinaryTree type="DecisionTree" boostWeight="1.0000000000000000e+00" itree="43">
      <Node pos="s" depth="0" NCoef="0" IVar="3" Cut="1.1404168605804443e+00" cType="1" res="5.3111971355974674e-03" rms="4.6092316508293152e-01" purity="5.0956088304519653e-01" nType="0">
        <Node pos="l" depth="1" NCoef="0" IVar="11" Cut="2.2946592330932617e+01" cType="1" res="2.0358146727085114e-01" rms="3.9447823166847229e-01" purity="7.9459762573242188e-01" nType="0">
          <Node pos="l" depth="2" NCoef="0" IVar="-1" Cut="0.0000000000000000e+00" cType="1" res="2.2986386902630329e-03" rms="4.5006474852561951e-01" purity="6.9836801290512085e-01" nType="-99"/>
          <Node pos="r" depth="2" NCoef="0" IVar="-1" Cut="0.0000000000000000e+00" cType="1" res="6.3124052248895168e-03" rms="2.9325515031814575e-01" purity="8.9812248945236206e-01" nType="-99"/>
        </Node>
        <Node pos="r" depth="1" NCoef="0" IVar="1" Cut="5.4457916259765625e+01" cType="1" res="-1.0517297685146332e-01" rms="4.5826801657676697e-01" purity="3.5072684288024902e-01" nType="0">
          <Node pos="l" depth="2" NCoef="0" IVar="-1" Cut="0.0000000000000000e+00" cType="1" res="-3.3397163497284055e-04" rms="4.9414488673210144e-01" purity="4.7631308436393738e-01" nType="-99"/>
          <Node pos="r" depth="2" NCoef="0" IVar="-1" Cut="0.0000000000000000e+00" cType="1" res="-4.7438708133995533e-03" rms="3.7101292610168457e-01" purity="1.7848894000053406e-01" nType="-99"/>
        </Node>
      </Node>
    </BinaryTree>
    <BinaryTree type="DecisionTree" boostWeight="1.0000000000000000e+00" itree="44">
      <Node pos="s" depth="0" NCoef="0" IVar="1" Cut="5.0207397460937500e+01" cType="1" res="-5.9772371314466000e-03" rms="4.5984742045402527e-01" purity="4.9454468488693237e-01" nType="0">
        <Node pos="l" depth="1" NCoef="0" IVar="7" Cut="4.2151977539062500e+01" cType="1" res="1.0314002633094788e-01" rms="4.5861762762069702e-01" purity="6.5051472187042236e-01" nType="0">
          <Node pos="l" depth="2" NCoef="0" IVar="-1" Cut="0.0000000000000000e+00" cType="1" res="3.2701140735298395e-03" rms="4.3550580739974976e-01" purity="7.1309757232666016e-01" nType="-99"/>
          <Node pos="r" depth="2" NCoef="0" IVar="-1" Cut="0.0000000000000000e+00" cType="1" res="-3.0563110485672951e-03" rms="4.7408962249755859e-01" purity="3.6693009734153748e-01" nType="-99"/>
        </Node>
        <Node pos="r" depth="1" NCoef="0" IVar="1" Cut="7.2062133789062500e+01" cType="1" res="-1.8808920681476593e-01" rms="4.0038532018661499e-01" purity="2.3423746228218079e-01" nType="0">
          <Node pos="l" depth="2" NCoef="0" IVar="-1" Cut="0.0000000000000000e+00" cType="1" res="-2.3677961435168982e-03" rms="4.6058055758476257e-01" purity="3.4084412455558777e-01" nType="-99"/>
          <Node pos="r" depth="2" NCoef="0" IVar="-1" Cut="0.0000000000000000e+00" cType="1" res="-6.6773057915270329e-03" rms="2.2459736466407776e-01" purity="5.5688884109258652e-02" nType="-99"/>
        </Node>
      </Node>
    </BinaryTree>
    <BinaryTree type="DecisionTree" boostWeight="1.0000000000000000e+00" itree="45">
      <Node pos="s" depth="0" NCoef="0" IVar="3" Cut="1.4107822179794312e+00" cType="1" res="-2.3546146694570780e-03" rms="4.5865899324417114e-01" purity="4.9938067793846130e-01" nType="0">
        <Node pos="l" depth="1" NCoef="0" IVar="7" Cut="2.2543031692504883e+01" cType="1" res="1.5837071835994720e-01" rms="4.2570558190345764e-01" purity="7.3322701454162598e-01" nType="0">
          <Node pos="l" depth="2" NCoef="0" IVar="-1" Cut="0.0000000000000000e+00" cType="1" res="5.4029007442295551e-03" rms="3.4631413221359253e-01" purity="8.5204529762268066e-01" nType="-99"/>
          <Node pos="r" depth="2" NCoef="0" IVar="-1" Cut="0.0000000000000000e+00" cType="1" res="1.0597974760457873e-03" rms="4.7324433922767639e-01" purity="6.0762602090835571e-01" nType="-99"/>
        </Node>
        <Node pos="r" depth="1" NCoef="0" IVar="3" Cut="2.0353617668151855e+00" cType="1" res="-1.4608764648437500e-01" rms="4.3894091248512268e-01" purity="2.9025712609291077e-01" nType="0">
          <Node pos="l" depth="2" NCoef="0" IVar="-1" Cut="0.0000000000000000e+00" cType="1" res="-9.4471266493201256e-04" rms="4.8022514581680298e-01" purity="4.0897727012634277e-01" nType="-99"/>
          <Node pos="r" depth="2" NCoef="0" IVar="-1" Cut="0.0000000000000000e+00" cType="1" res="-4.8992950469255447e-03" rms="3.7604641914367676e-01" purity="1.8314728140830994e-01" nType="-99"/>
        </Node>
      </Node>
    </BinaryTree>
    <BinaryTree type="DecisionTree" boostWeight="1.0000000000000000e+00" itree="46">
      <Node pos="s" depth="0" NCoef="0" IVar="3" Cut="1.5928622484207153e+00" cType="1" res="2.8335554525256157e-03" rms="4.5806822180747986e-01" purity="5.0704526901245117e-01" nType="0">
        <Node pos="l" depth="1" NCoef="0" IVar="7" Cut="4.9840095520019531e+01" cType="1" res="1.3163483142852783e-01" rms="4.4190376996994019e-01" purity="6.9607907533645630e-01" nType="0">
          <Node pos="l" depth="2" NCoef="0" IVar="-1" Cut="0.0000000000000000e+00" cType="1" res="3.5518959630280733e-03" rms="4.2358136177062988e-01" purity="7.4390238523483276e-01" nType="-99"/>
          <Node pos="r" depth="2" NCoef="0" IVar="-1" Cut="0.0000000000000000e+00" cType="1" res="-3.2441997900605202e-03" rms="4.6160390973091125e-01" purity="3.4899333119392395e-01" nType="-99"/>
        </Node>
        <Node pos="r" depth="1" NCoef="0" IVar="7" Cut="1.7991546630859375e+01" cType="1" res="-1.6630537807941437e-01" rms="4.2253607511520386e-01" purity="2.5881034135818481e-01" nType="0">
          <Node pos="l" depth="2" NCoef="0" IVar="-1" Cut="0.0000000000000000e+00" cType="1" res="-7.4560649227350950e-04" rms="4.8020610213279724e-01" purity="4.0824478864669800e-01" nType="-99"/>
          <Node pos="r" depth="2" NCoef="0" IVar="-1" Cut="0.0000000000000000e+00" cType="1" res="-4.7475583851337433e-03" rms="3.7683773040771484e-01" purity="1.8783807754516602e-01" nType="-99"/>
        </Node>
      </Node>
    </BinaryTree>
    <BinaryTree type="DecisionTree" boostWeight="1.0000000000000000e+00" itree="47">
      <Node pos="s" depth="0" NCoef="0" IVar="3" Cut="1.5210951566696167e+00" cType="1" res="9.2425104230642319e-03" rms="4.5531368255615234e-01" purity="5.1076912879943848e-01" nType="0">
        <Node pos="l" depth="1" NCoef="0" IVar="7" Cut="3.0112554550170898e+01" cType="1" res="1.4863623678684235e-01" rms="4.3124493956565857e-01" purity="7.1784412860870361e-01" nType="0">
          <Node pos="l" depth="2" NCoef="0" IVar="-1" Cut="0.0000000000000000e+00" cType="1" res="4.8904204741120338e-03" rms="3.7203794717788696e-01" purity="8.1950616836547852e-01" nType="-99"/>
          <Node pos="r" depth="2" NCoef="0" IVar="-1" Cut="0.0000000000000000e+00" cType="1" res="-3.2152695348486304e-04" rms="4.8488798737525940e-01" purity="5.2454823255538940e-01" nType="-99"/>
        </Node>
        <Node pos="r" depth="1" NCoef="0" IVar="1" Cut="6.8322570800781250e+01" cType="1" res="-1.4892399311065674e-01" rms="4.2948642373085022e-01" purity="2.7580642700195312e-01" nType="0">
          <Node pos="l" depth="2" NCoef="0" IVar="-1" Cut="0.0000000000000000e+00" cType="1" res="-1.5620543854311109e-03" rms="4.8217028379440308e-01" purity="3.8165009021759033e-01" nType="-99"/>
          <Node pos="r" depth="2" NCoef="0" IVar="-1" Cut="0.0000000000000000e+00" cType="1" res="-6.4902319572865963e-03" rms="2.2996667027473450e-01" purity="5.7212565094232559e-02" nType="-99"/>
        </Node>
      </Node>
    </BinaryTree>
    <BinaryTree type="DecisionTree" boostWeight="1.0000000000000000e+00" itree="48">
      <Node pos="s" depth="0" NCoef="0" IVar="1" Cut="5.4499080657958984e+01" cType="1" res="2.4265116080641747e-02" rms="4.5724177360534668e-01" purity="5.3058278560638428e-01" nType="0">
        <Node pos="l" depth="1" NCoef="0" IVar="3" Cut="1.8062293529510498e+00" cType="1" res="1.1421222984790802e-01" rms="4.5401263236999512e-01" purity="6.6270840167999268e-01" nType="0">
          <Node pos="l" depth="2" NCoef="0" IVar="-1" Cut="0.0000000000000000e+00" cType="1" res="3.3834120258688927e-03" rms="4.3191179633140564e-01" purity="7.3294550180435181e-01" nType="-99"/>
          <Node pos="r" depth="2" NCoef="0" IVar="-1" Cut="0.0000000000000000e+00" cType="1" res="-1.6860198229551315e-03" rms="4.8469641804695129e-01" purity="3.8317519426345825e-01" nType="-99"/>
        </Node>
        <Node pos="r" depth="1" NCoef="0" IVar="1" Cut="6.9904045104980469e+01" cType="1" res="-1.9155552983283997e-01" rms="3.8747844099998474e-01" purity="2.1355839073657990e-01" nType="0">
          <Node pos="l" depth="2" NCoef="0" IVar="-1" Cut="0.0000000000000000e+00" cType="1" res="-2.1127332001924515e-03" rms="4.6109724044799805e-01" purity="3.4317752718925476e-01" nType="-99"/>
          <Node pos="r" depth="2" NCoef="0" IVar="-1" Cut="0.0000000000000000e+00" cType="1" res="-6.2207542359828949e-03" rms="2.5837963819503784e-01" purity="7.5846709311008453e-02" nType="-99"/>
        </Node>
      </Node>
    </BinaryTree>
    <BinaryTree type="DecisionTree" boostWeight="1.0000000000000000e+00" itree="49">
      <Node pos="s" depth="0" NCoef="0" IVar="3" Cut="1.5931634902954102e+00" cType="1" res="-7.4022952467203140e-03" rms="4.5518833398818970e-01" purity="4.9437996745109558e-01" nType="0">
        <Node pos="l" depth="1" NCoef="0" IVar="7" Cut="2.9136177062988281e+01" cType="1" res="1.1689028143882751e-01" rms="4.4370466470718384e-01" purity="6.8147826194763184e-01" nType="0">
          <Node pos="l" depth="2" NCoef="0" IVar="-1" Cut="0.0000000000000000e+00" cType="1" res="4.7237663529813290e-03" rms="3.7882226705551147e-01" purity="8.1185424327850342e-01" nType="-99"/>
          <Node pos="r" depth="2" NCoef="0" IVar="-1" Cut="0.0000000000000000e+00" cType="1" res="-1.1460346868261695e-03" rms="4.8157337307929993e-01" purity="4.7597315907478333e-01" nType="-99"/>
        </Node>
        <Node pos="r" depth="1" NCoef="0" IVar="1" Cut="7.2355659484863281e+01" cType="1" res="-1.6871090233325958e-01" rms="4.1775989532470703e-01" purity="2.5156119465827942e-01" nType="0">
          <Node pos="l" depth="2" NCoef="0" IVar="-1" Cut="0.0000000000000000e+00" cType="1" res="-2.3416585754603148e-03" rms="4.6697357296943665e-01" purity="3.3470115065574646e-01" nType="-99"/>
          <Node pos="r" depth="2" NCoef="0" IVar="-1" Cut="0.0000000000000000e+00" cType="1" res="-6.7288200370967388e-03" rms="1.9645516574382782e-01" purity="4.0634669363498688e-02" nType="-99"/>
        </Node>
      </Node>
    </BinaryTree>
    <BinaryTree type="DecisionTree" boostWeight="1.0000000000000000e+00" itree="50">
      <Node pos="s" depth="0" NCoef="0" IVar="3" Cut="1.6732858419418335e+00" cType="1" res="-5.6677884422242641e-03" rms="4.5475831627845764e-01" purity="4.9544820189476013e-01" nType="0">
        <Node pos="l" depth="1" NCoef="0" IVar="7" Cut="2.4575811386108398e+01" cType="1" res="1.0844852030277252e-01" rms="4.4803577661514282e-01" purity="6.6998261213302612e-01" nType="0">
          <Node pos="l" depth="2" NCoef="0" IVar="-1" Cut="0.0000000000000000e+00" cType="1" res="4.5138485729694366e-03" rms="3.8765612244606018e-01" purity="7.9765409231185913e-01" nType="-99"/>
          <Node pos="r" depth="2" NCoef="0" IVar="-1" Cut="0.0000000000000000e+00" cType="1" res="-4.1087088175117970e-04" rms="4.8003104329109192e-01" purity="5.1788616180419922e-01" nType="-99"/>
        </Node>
        <Node pos="r" depth="1" NCoef="0" IVar="1" Cut="7.4229171752929688e+01" cType="1" res="-1.7125089466571808e-01" rms="4.1145816445350647e-01" purity="2.4219834804534912e-01" nType="0">
          <Node pos="l" depth="2" NCoef="0" IVar="-1" Cut="0.0000000000000000e+00" cType="1" res="-2.2595385089516640e-03" rms="4.6667033433914185e-01" purity="3.3415418863296509e-01" nType="-99"/>
          <Node pos="r" depth="2" NCoef="0" IVar="-1" Cut="0.0000000000000000e+00" cType="1" res="-6.8362262099981308e-03" rms="1.8118326365947723e-01" purity="3.4068230539560318e-02" nType="-99"/>
        </Node>
      </Node>
    </BinaryTree>
    <BinaryTree type="DecisionTree" boostWeight="1.0000000000000000e+00" itree="51">
      <Node pos="s" depth="0" NCoef="0" IVar="3" Cut="1.1179871559143066e+00" cType="1" res="-6.0421722009778023e-03" rms="4.5370858907699585e-01" purity="4.9398872256278992e-01" nType="0">
        <Node pos="l" depth="1" NCoef="0" IVar="7" Cut="5.6657928466796875e+01" cType="1" res="1.8953894078731537e-01" rms="3.9362958073616028e-01" purity="7.9323029518127441e-01" nType="0">
          <Node pos="l" depth="2" NCoef="0" IVar="-1" Cut="0.0000000000000000e+00" cType="1" res="4.4481791555881500e-03" rms="3.7676438689231873e-01" purity="8.1927311420440674e-01" nType="-99"/>
          <Node pos="r" depth="2" NCoef="0" IVar="-1" Cut="0.0000000000000000e+00" cType="1" res="-2.5859985034912825e-03" rms="4.8713558912277222e-01" purity="4.1183087229728699e-01" nType="-99"/>
        </Node>
        <Node pos="r" depth="1" NCoef="0" IVar="1" Cut="6.7284141540527344e+01" cType="1" res="-1.0504324734210968e-01" rms="4.4995135068893433e-01" purity="3.4251582622528076e-01" nType="0">
          <Node pos="l" depth="2" NCoef="0" IVar="-1" Cut="0.0000000000000000e+00" cType="1" res="-7.5154576916247606e-04" rms="4.8856166005134583e-01" purity="4.4654408097267151e-01" nType="-99"/>
          <Node pos="r" depth="2" NCoef="0" IVar="-1" Cut="0.0000000000000000e+00" cType="1" res="-6.1776721850037575e-03" rms="2.5563469529151917e-01" purity="7.2260327637195587e-02" nType="-99"/>
        </Node>
      </Node>
    </BinaryTree>
    <BinaryTree type="DecisionTree" boostWeight="1.0000000000000000e+00" itree="52">
      <Node pos="s" depth="0" NCoef="0" IVar="3" Cut="1.5907762050628662e+00" cType="1" res="8.1752780824899673e-03" rms="4.5295530557632446e-01" purity="5.1045089960098267e-01" nType="0">
        <Node pos="l" depth="1" NCoef="0" IVar="7" Cut="2.5910013198852539e+01" cType="1" res="1.3975386321544647e-01" rms="4.3058013916015625e-01" purity="7.0831310749053955e-01" nType="0">
          <Node pos="l" depth="2" NCoef="0" IVar="-1" Cut="0.0000000000000000e+00" cType="1" res="5.0498927012085915e-03" rms="3.5974878072738647e-01" purity="8.3124816417694092e-01" nType="-99"/>
          <Node pos="r" depth="2" NCoef="0" IVar="-1" Cut="0.0000000000000000e+00" cType="1" res="4.4059634092263877e-05" rms="4.7816473245620728e-01" purity="5.4119390249252319e-01" nType="-99"/>
        </Node>
        <Node pos="r" depth="1" NCoef="0" IVar="3" Cut="2.0245633125305176e+00" cType="1" res="-1.5494684875011444e-01" rms="4.2615124583244324e-01" purity="2.6515489816665649e-01" nType="0">
          <Node pos="l" depth="2" NCoef="0" IVar="-1" Cut="0.0000000000000000e+00" cType="1" res="-1.0270390193909407e-03" rms="4.7316977381706238e-01" purity="3.8897588849067688e-01" nType="-99"/>
          <Node pos="r" depth="2" NCoef="0" IVar="-1" Cut="0.0000000000000000e+00" cType="1" res="-4.5586056075990200e-03" rms="3.8207998871803284e-01" purity="1.9144614040851593e-01" nType="-99"/>
        </Node>
      </Node>
    </BinaryTree>
    <BinaryTree type="DecisionTree" boostWeight="1.0000000000000000e+00" itree="53">
      <Node pos="s" depth="0" NCoef="0" IVar="3" Cut="1.1894640922546387e+00" cType="1" res="5.5729988962411880e-03" rms="4.5386826992034912e-01" purity="5.0883531570434570e-01" nType="0">
        <Node pos="l" depth="1" NCoef="0" IVar="11" Cut="2.4120180130004883e+01" cType="1" res="1.7521300911903381e-01" rms="4.0312424302101135e-01" purity="7.7882808446884155e-01" nType="0">
          <Node pos="l" depth="2" NCoef="0" IVar="-1" Cut="0.0000000000000000e+00" cType="1" res="1.9958966877311468e-03" rms="4.4961869716644287e-01" purity="6.9464784860610962e-01" nType="-99"/>
          <Node pos="r" depth="2" NCoef="0" IVar="-1" Cut="0.0000000000000000e+00" cType="1" res="5.8978809975087643e-03" rms="3.0282443761825562e-01" purity="8.8855487108230591e-01" nType="-99"/>
        </Node>
        <Node pos="r" depth="1" NCoef="0" IVar="1" Cut="7.3804870605468750e+01" cType="1" res="-9.7299247980117798e-02" rms="4.5203292369842529e-01" purity="3.4510764479637146e-01" nType="0">
          <Node pos="l" depth="2" NCoef="0" IVar="-1" Cut="0.0000000000000000e+00" cType="1" res="-9.7046873997896910e-04" rms="4.8229286074638367e-01" purity="4.1976046562194824e-01" nType="-99"/>
          <Node pos="r" depth="2" NCoef="0" IVar="-1" Cut="0.0000000000000000e+00" cType="1" res="-6.6966409794986248e-03" rms="1.9437730312347412e-01" purity="3.9644546806812286e-02" nType="-99"/>
        </Node>
      </Node>
    </BinaryTree>
    <BinaryTree type="DecisionTree" boostWeight="1.0000000000000000e+00" itree="54">
      <Node pos="s" depth="0" NCoef="0" IVar="1" Cut="6.5307975769042969e+01" cType="1" res="-2.5627072318457067e-04" rms="4.5485386252403259e-01" purity="5.0519573688507080e-01" nType="0">
        <Node pos="l" depth="1" NCoef="0" IVar="3" Cut="8.5936385393142700e-01" cType="1" res="6.0596056282520294e-02" rms="4.6518990397453308e-01" purity="5.9989970922470093e-01" nType="0">
          <Node pos="l" depth="2" NCoef="0" IVar="-1" Cut="0.0000000000000000e+00" cType="1" res="4.8610116355121136e-03" rms="3.5031351447105408e-01" purity="8.5139375925064087e-01" nType="-99"/>
          <Node pos="r" depth="2" NCoef="0" IVar="-1" Cut="0.0000000000000000e+00" cType="1" res="-4.3664618715411052e-05" rms="4.8709326982498169e-01" purity="5.0524914264678955e-01" nType="-99"/>
        </Node>
        <Node pos="r" depth="1" NCoef="0" IVar="1" Cut="7.6822166442871094e+01" cType="1" res="-2.6451301574707031e-01" rms="2.8228256106376648e-01" purity="9.3935564160346985e-02" nType="0">
          <Node pos="l" depth="2" NCoef="0" IVar="-1" Cut="0.0000000000000000e+00" cType="1" res="-4.2417692020535469e-03" rms="3.8168057799339294e-01" purity="1.8631088733673096e-01" nType="-99"/>
          <Node pos="r" depth="2" NCoef="0" IVar="-1" Cut="0.0000000000000000e+00" cType="1" res="-6.9230007939040661e-03" rms="1.7269489169120789e-01" purity="3.1178291887044907e-02" nType="-99"/>
        </Node>
      </Node>
    </BinaryTree>
    <BinaryTree type="DecisionTree" boostWeight="1.0000000000000000e+00" itree="55">
      <Node pos="s" depth="0" NCoef="0" IVar="3" Cut="1.1119464635848999e+00" cType="1" res="7.5487233698368073e-03" rms="4.4998517632484436e-01" purity="5.0949871540069580e-01" nType="0">
        <Node pos="l" depth="1" NCoef="0" IVar="3" Cut="7.4801027774810791e-01" cType="1" res="2.1426780521869659e-01" rms="3.6875084042549133e-01" purity="8.2553791999816895e-01" nType="0">
          <Node pos="l" depth="2" NCoef="0" IVar="-1" Cut="0.0000000000000000e+00" cType="1" res="6.4221280626952648e-03" rms="2.5395014882087708e-01" purity="9.2806524038314819e-01" nType="-99"/>
          <Node pos="r" depth="2" NCoef="0" IVar="-1" Cut="0.0000000000000000e+00" cType="1" res="2.8044583741575480e-03" rms="4.3618899583816528e-01" purity="7.2896128892898560e-01" nType="-99"/>
        </Node>
        <Node pos="r" depth="1" NCoef="0" IVar="7" Cut="2.4630819320678711e+01" cType="1" res="-9.6037358045578003e-02" rms="4.5129922032356262e-01" purity="3.5113281011581421e-01" nType="0">
          <Node pos="l" depth="2" NCoef="0" IVar="-1" Cut="0.0000000000000000e+00" cType="1" res="2.6953138876706362e-04" rms="4.7375959157943726e-01" purity="4.7819367051124573e-01" nType="-99"/>
          <Node pos="r" depth="2" NCoef="0" IVar="-1" Cut="0.0000000000000000e+00" cType="1" res="-4.1290442459285259e-03" rms="4.0315362811088562e-01" purity="2.3195277154445648e-01" nType="-99"/>
        </Node>
      </Node>
    </BinaryTree>
    <BinaryTree type="DecisionTree" boostWeight="1.0000000000000000e+00" itree="56">
      <Node pos="s" depth="0" NCoef="0" IVar="3" Cut="1.7918359041213989e+00" cType="1" res="-2.5613121688365936e-03" rms="4.5042741298675537e-01" purity="4.9850612878799438e-01" nType="0">
        <Node pos="l" depth="1" NCoef="0" IVar="7" Cut="2.2442674636840820e+01" cType="1" res="1.1316620558500290e-01" rms="4.4200834631919861e-01" purity="6.7145085334777832e-01" nType="0">
          <Node pos="l" depth="2" NCoef="0" IVar="-1" Cut="0.0000000000000000e+00" cType="1" res="4.5354277826845646e-03" rms="3.8265475630760193e-01" purity="7.9759067296981812e-01" nType="-99"/>
          <Node pos="r" depth="2" NCoef="0" IVar="-1" Cut="0.0000000000000000e+00" cType="1" res="2.4998866138048470e-04" rms="4.7199848294258118e-01" purity="5.4774743318557739e-01" nType="-99"/>
        </Node>
        <Node pos="r" depth="1" NCoef="0" IVar="1" Cut="7.3811080932617188e+01" cType="1" res="-1.9131013751029968e-01" rms="3.9707636833190918e-01" purity="2.1643729507923126e-01" nType="0">
          <Node pos="l" depth="2" NCoef="0" IVar="-1" Cut="0.0000000000000000e+00" cType="1" res="-2.9189176857471466e-03" rms="4.5674681663513184e-01" purity="3.0075603723526001e-01" nType="-99"/>
          <Node pos="r" depth="2" NCoef="0" IVar="-1" Cut="0.0000000000000000e+00" cType="1" res="-6.7573585547506809e-03" rms="1.6855120658874512e-01" purity="2.9442351311445236e-02" nType="-99"/>
        </Node>
      </Node>
    </BinaryTree>
    <BinaryTree type="DecisionTree" boostWeight="1.0000000000000000e+00" itree="57">
      <Node pos="s" depth="0" NCoef="0" IVar="3" Cut="1.2147387266159058e+00" cType="1" res="6.0153524391353130e-03" rms="4.5010358095169067e-01" purity="5.0978446006774902e-01" nType="0">
        <Node pos="l" depth="1" NCoef="0" IVar="7" Cut="2.3656774520874023e+01" cType="1" res="1.7443400621414185e-01" rms="3.9977627992630005e-01" purity="7.8273344039916992e-01" nType="0">
          <Node pos="l" depth="2" NCoef="0" IVar="-1" Cut="0.0000000000000000e+00" cType="1" res="5.7899928651750088e-03" rms="2.9541194438934326e-01" purity="8.9953374862670898e-01" nType="-99"/>
          <Node pos="r" depth="2" NCoef="0" IVar="-1" Cut="0.0000000000000000e+00" cType="1" res="1.3378409203141928e-03" rms="4.7054925560951233e-01" purity="6.4749360084533691e-01" nType="-99"/>
        </Node>
        <Node pos="r" depth="1" NCoef="0" IVar="1" Cut="5.7135437011718750e+01" cType="1" res="-1.0387498885393143e-01" rms="4.4712176918983459e-01" purity="3.3168977499008179e-01" nType="0">
          <Node pos="l" depth="2" NCoef="0" IVar="-1" Cut="0.0000000000000000e+00" cType="1" res="-2.9185225139372051e-04" rms="4.9294006824493408e-01" purity="4.6830812096595764e-01" nType="-99"/>
          <Node pos="r" depth="2" NCoef="0" IVar="-1" Cut="0.0000000000000000e+00" cType="1" res="-4.8467400483787060e-03" rms="3.4188392758369446e-01" purity="1.4809952676296234e-01" nType="-99"/>
        </Node>
      </Node>
    </BinaryTree>
    <BinaryTree type="DecisionTree" boostWeight="1.0000000000000000e+00" itree="58">
      <Node pos="s" depth="0" NCoef="0" IVar="3" Cut="1.7732416391372681e+00" cType="1" res="8.7835015729069710e-03" rms="4.4907027482986450e-01" purity="5.1086318492889404e-01" nType="0">
        <Node pos="l" depth="1" NCoef="0" IVar="7" Cut="4.7920284271240234e+01" cType="1" res="1.0953729599714279e-01" rms="4.4152417778968811e-01" purity="6.6911661624908447e-01" nType="0">
          <Node pos="l" depth="2" NCoef="0" IVar="-1" Cut="0.0000000000000000e+00" cType="1" res="3.2803209032863379e-03" rms="4.2297729849815369e-01" purity="7.2854626178741455e-01" nType="-99"/>
          <Node pos="r" depth="2" NCoef="0" IVar="-1" Cut="0.0000000000000000e+00" cType="1" res="-3.3730829600244761e-03" rms="4.4584426283836365e-01" purity="3.2562178373336792e-01" nType="-99"/>
        </Node>
        <Node pos="r" depth="1" NCoef="0" IVar="1" Cut="6.9180389404296875e+01" cType="1" res="-1.6772757470607758e-01" rms="4.0558287501335144e-01" purity="2.3361814022064209e-01" nType="0">
          <Node pos="l" depth="2" NCoef="0" IVar="-1" Cut="0.0000000000000000e+00" cType="1" res="-2.1582136396318674e-03" rms="4.7063761949539185e-01" purity="3.3827471733093262e-01" nType="-99"/>
          <Node pos="r" depth="2" NCoef="0" IVar="-1" Cut="0.0000000000000000e+00" cType="1" res="-6.3135195523500443e-03" rms="2.1165323257446289e-01" purity="4.7933537513017654e-02" nType="-99"/>
        </Node>
      </Node>
    </BinaryTree>
    <BinaryTree type="DecisionTree" boostWeight="1.0000000000000000e+00" itree="59">
      <Node pos="s" depth="0" NCoef="0" IVar="3" Cut="1.8044785261154175e+00" cType="1" res="-7.0356214419007301e-03" rms="4.4840011000633240e-01" purity="4.9251139163970947e-01" nType="0">
        <Node pos="l" depth="1" NCoef="0" IVar="7" Cut="2.5150329589843750e+01" cType="1" res="9.8016120493412018e-02" rms="4.4457867741584778e-01" purity="6.5658986568450928e-01" nType="0">
          <Node pos="l" depth="2" NCoef="0" IVar="-1" Cut="0.0000000000000000e+00" cType="1" res="4.3036187998950481e-03" rms="3.8877648115158081e-01" purity="7.8963595628738403e-01" nType="-99"/>
          <Node pos="r" depth="2" NCoef="0" IVar="-1" Cut="0.0000000000000000e+00" cType="1" res="-5.9276580577716231e-04" rms="4.7280845046043396e-01" purity="4.9777066707611084e-01" nType="-99"/>
        </Node>
        <Node pos="r" depth="1" NCoef="0" IVar="1" Cut="7.2100677490234375e+01" cType="1" res="-1.8432487547397614e-01" rms="3.9593636989593506e-01" purity="2.1560651063919067e-01" nType="0">
          <Node pos="l" depth="2" NCoef="0" IVar="-1" Cut="0.0000000000000000e+00" cType="1" res="-2.7524370234459639e-03" rms="4.5828500390052795e-01" purity="3.0477410554885864e-01" nType="-99"/>
          <Node pos="r" depth="2" NCoef="0" IVar="-1" Cut="0.0000000000000000e+00" cType="1" res="-6.4899218268692493e-03" rms="1.9000281393527985e-01" purity="3.7857137620449066e-02" nType="-99"/>
        </Node>
      </Node>
    </BinaryTree>
    <BinaryTree type="DecisionTree" boostWeight="1.0000000000000000e+00" itree="60">
      <Node pos="s" depth="0" NCoef="0" IVar="3" Cut="1.2585105895996094e+00" cType="1" res="8.9542269706726074e-03" rms="4.5034784078598022e-01" purity="5.1473814249038696e-01" nType="0">
        <Node pos="l" depth="1" NCoef="0" IVar="3" Cut="8.8415306806564331e-01" cType="1" res="1.6109928488731384e-01" rms="4.0617534518241882e-01" purity="7.6942306756973267e-01" nType="0">
          <Node pos="l" depth="2" NCoef="0" IVar="-1" Cut="0.0000000000000000e+00" cType="1" res="5.2238488569855690e-03" rms="3.2491102814674377e-01" purity="8.7415426969528198e-01" nType="-99"/>
          <Node pos="r" depth="2" NCoef="0" IVar="-1" Cut="0.0000000000000000e+00" cType="1" res="1.2694320175796747e-03" rms="4.6932524442672729e-01" purity="6.4028751850128174e-01" nType="-99"/>
        </Node>
        <Node pos="r" depth="1" NCoef="0" IVar="7" Cut="2.1784009933471680e+01" cType="1" res="-9.8827853798866272e-02" rms="4.4899940490722656e-01" purity="3.3431512117385864e-01" nType="0">
          <Node pos="l" depth="2" NCoef="0" IVar="-1" Cut="0.0000000000000000e+00" cType="1" res="2.1579657914116979e-04" rms="4.7662967443466187e-01" purity="4.6264347434043884e-01" nType="-99"/>
          <Node pos="r" depth="2" NCoef="0" IVar="-1" Cut="0.0000000000000000e+00" cType="1" res="-3.7716811057180166e-03" rms="4.0869623422622681e-01" purity="2.3875573277473450e-01" nType="-99"/>
        </Node>
      </Node>
    </BinaryTree>
    <BinaryTree type="DecisionTree" boostWeight="1.0000000000000000e+00" itree="61">
      <Node pos="s" depth="0" NCoef="0" IVar="3" Cut="1.3622546195983887e+00" cType="1" res="2.3485826328396797e-02" rms="4.4490554928779602e-01" purity="5.2755510807037354e-01" nType="0">
        <Node pos="l" depth="1" NCoef="0" IVar="7" Cut="1.8112199783325195e+01" cType="1" res="1.7997023463249207e-01" rms="3.9601832628250122e-01" purity="7.8236031532287598e-01" nType="0">
          <Node pos="l" depth="2" NCoef="0" IVar="-1" Cut="0.0000000000000000e+00" cType="1" res="6.1958637088537216e-03" rms="2.7146005630493164e-01" purity="9.1533154249191284e-01" nType="-99"/>
          <Node pos="r" depth="2" NCoef="0" IVar="-1" Cut="0.0000000000000000e+00" cType="1" res="2.1398419048637152e-03" rms="4.4945126771926880e-01" purity="6.8731427192687988e-01" nType="-99"/>
        </Node>
        <Node pos="r" depth="1" NCoef="0" IVar="1" Cut="7.1444625854492188e+01" cType="1" res="-1.0856235772371292e-01" rms="4.4105717539787292e-01" purity="3.1253969669342041e-01" nType="0">
