
    // Select all (Ctrl+A), Copy (Ctrl+C), paste to an empty text file (Ctrl+V) and save that file as 'generated_code.h'
    // 
    // Auto-generated header file. Assumes img to be a floating point array
    // of 64 elements (corresponding to an 8x8 b&w image)

    #include <math.h>

    float norma;
    
inline float activation_0 (float x, float n) 
{ return x > 0 ? x : 0;}
inline float activation_1 (float x, float n) 
{ return x > 0 ? x : 0;}
inline float activation_2 (float x, float n) 
{ return x > 0 ? x : 0;}
inline float activation_3 (float x, float n) 
{ return x > 0 ? x : 0;}
inline float activation_4 (float x, float n) 
{ return x > 0 ? x : 0;}

    float guess_digit (const float *img, int flag)
    {
    
  // Declare the arrays in the stack
  const float kernel_0[42][200] = 
  {{  -0.0735686272383,   0.8985307812691,   0.0556382164359,  -0.1511309146881,  -0.0650560185313,   0.4433798491955,  -0.0761424899101,  -0.0423487387598,  -0.1225167065859,   0.4311829507351,  -0.0362037234008,  -0.3184562325478,  -0.1734701395035,  -0.1383280456066,   0.0837420448661,  -0.9439451694489,   0.1144881770015,  -0.0332030467689,   0.0375069230795,  -0.1237743943930,  -0.1877892017365,   0.0116764241830,   0.2066974937916,   1.0108029842377,   0.3540607988834,   0.2837763726711,   0.4242551326752,  -0.2033597975969,  -0.5498667359352,   0.1776037067175,   0.1692216098309,  -0.0238407794386,  -0.3975707888603,   0.2575484812260,  -0.2311856299639,   0.1216817647219,  -0.0303048323840,   0.4154530763626,  -0.2862267792225,   0.1704638153315,   0.0681281760335,   0.6650746464729,  -0.5593448877335,   0.1522534936666,   0.0827413946390,   0.4325537085533,   0.1513835489750,  -0.9037611484528,   0.2991475462914,   0.7572783827782,   0.0085010640323,  -0.0262132771313,  -0.0256419535726,  -1.3927242755890,   0.1201444864273,  -0.2709919810295,   0.2480760812759,  -0.1493733972311,   0.0664678663015,  -0.2201763093472,  -0.3051809072495,  -0.0391269214451,  -0.5691424608231,   0.1163115799427,   0.2563134431839,  -0.0940409079194,   0.1076505482197,   0.2134520113468,  -0.1565867960453,   0.1218167841434,   0.2901020944118,  -0.2794044017792,  -0.0063566439785,   0.8115935921669,   0.0762914493680,   0.2335042953491,   0.0326173789799,   0.6010255813599,   0.0457240007818,   0.2459755092859,   0.8178063631058,  -0.0432993061841,  -0.7376768589020,   1.2204014062881,   0.1610881388187,  -1.3404580354691,  -0.0722079649568,   0.1066677868366,  -1.0825113058090,   0.0828501135111,  -0.1278875023127,   0.0399023331702,  -0.0354350544512,   0.4149160683155,   0.0120159601793,  -0.0620278976858,   0.0207799728960,  -0.1680020242929,  -0.3166561424732,   0.0950830727816,  -0.1645829975605,  -0.4652767181396,   0.2013736814260,   0.0478438846767,   0.1772736757994,   0.1614954173565,   1.5716567039490,   0.2684813141823,   0.2887816429138,   1.3374373912811,   0.1860996037722,  -0.2165105938911,   0.2740028202534,  -0.0770188942552,   0.1560336053371,   0.0459739379585,   0.8441072106361,  -0.1075787693262,  -0.1777113974094,  -0.0913020819426,  -0.0055421716534,   0.3626686930656,  -0.1235980838537,   0.1048887968063,   0.4891635477543,  -0.2401240020990,   0.3175876736641,  -0.0956944003701,   0.2339991927147,  -0.0884053930640,  -0.3414870202541,   0.1405958831310,  -0.0570336356759,  -0.1520016342402,  -0.3239785730839,  -0.1847656816244,  -0.4741607904434,   0.5779208540916,  -0.0030479915440,   0.0973960682750,  -0.1377834379673,   0.2009047269821,   0.0084274671972,  -0.0794785991311,  -0.1546733379364,   0.1968894302845,   0.2338198125362,   0.4018332064152,  -0.7992741465569,  -0.0718379244208,  -0.0251718349755,   0.1318741440773,   0.0054974150844,  -0.2854606807232,   1.6877850294113,  -0.0003316798247,   0.0660784840584,  -0.6083021163940,  -0.1185284107924,  -0.0763806998730,  -0.0365796312690,  -0.1287682205439,  -0.1272076368332,   0.2718689143658,  -0.8140693306923,   0.2087694555521,  -0.4814286530018,  -0.0491645373404,   0.2594434916973,  -0.3848929703236,   0.0952691882849,   0.1140022128820,  -1.4437667131424,   0.7226680517197,   0.8583583235741,  -0.1678569018841,  -0.0472011044621,   0.4246140122414,   0.9485983848572,  -0.0968049913645,   0.0167833622545,  -0.3369752466679,   0.2332357615232,   0.0716082453728,   0.0465936996043,  -0.0353547856212,  -0.0321496985853,  -0.2678215801716,  -0.2175215482712,  -0.0539470762014,   0.2287465333939,   0.1478951275349,  -0.1221992895007,  -0.0841634124517,   0.7533915042877,  -0.0434025116265,   0.3616738319397,  -0.2916934788227,   0.4818776845932,  -0.0345286354423},
   {   0.0512299686670,   0.1049188673496,   0.0245097782463,   0.5291228294373,   0.0628521367908,   0.3457206189632,  -0.2358157336712,   0.0815187841654,  -0.0495809949934,   0.3644774556160,   0.2917293608189,  -0.0838484987617,  -0.0746092572808,  -0.0958200544119,   0.0323811396956,  -0.0938495546579,  -0.1404280662537,  -0.1412569731474,   0.2650156319141,  -0.4029416739941,  -0.0436245501041,   0.5390488505363,   0.2358880341053,  -0.0831033885479,   0.1917339712381,   0.0137992193922,   0.1142966076732,  -0.0121462158859,  -0.0493303835392,   0.0952876657248,  -0.0143356407061,   0.1796441078186,  -0.3506640493870,   0.0653021708131,   0.1894163787365,  -0.0348853990436,  -0.1507250666618,   0.1139701828361,  -0.3212136030197,   0.2017537206411,   0.1375765651464,  -0.0535692311823,   0.0038421410136,   0.3075358569622,   0.0986951589584,   0.2315753102303,   0.0867771431804,   0.0766732692719,  -0.1441841870546,  -0.2731168270111,  -0.0063702338375,  -0.0819734334946,  -0.8459753990173,  -0.0028345962055,  -0.2118373513222,   0.0156999789178,  -0.0211553610861,  -0.0680301487446,   0.1901493221521,  -0.0129123097286,   0.1031505018473,  -0.0949986800551,  -0.1470720320940,  -0.0245220083743,   0.0294853858650,  -0.3002300262451,   0.2285005450249,   0.1975175589323,  -0.2652598321438,  -0.2474192231894,   0.0138981062919,   0.1250286549330,   0.1724561005831,  -0.6501147150993,   0.1310310512781,   0.2242651432753,  -0.0418989993632,   0.5715088844299,   0.0248818881810,   0.1117364987731,  -0.3788189888000,  -0.1154194548726,   0.7592486143112,  -0.0015709268628,  -0.0754882320762,   0.0998131781816,  -0.1580750644207,   0.0796087384224,   0.0752166584134,  -0.1335390955210,  -0.0084282485768,   0.1448256224394,  -0.0329130031168,   0.2409796863794,  -0.2365510314703,  -0.1019017994404,  -0.1250386685133,   0.0618973225355,  -0.1946394294500,  -0.1728274226189,  -0.0585558004677,  -0.0533890984952,  -0.0088709667325,  -0.0090523026884,   0.2018663883209,   0.2688826918602,  -0.0040563815273,   0.1698071956635,  -0.3090371787548,  -0.0805201157928,  -0.0240855328739,  -0.4264976382256,  -0.1803522408009,   0.0249180421233,   0.3166166245937,   0.0048331129365,  -0.1292583793402,   0.0071054156870,   0.0731330513954,   0.1937866806984,  -0.0579415783286,   0.1256090700626,  -0.2243131995201,  -0.0345163606107,   0.0763528496027,  -0.1457989811897,  -0.0300011057407,  -0.1719783395529,   0.1795102357864,   0.2422744780779,  -0.2222457975149,   0.1647087782621,   0.0315894447267,  -0.0534354038537,  -0.3567510545254,  -0.3333292603493,   0.0661413297057,   0.1473219543695,  -0.3312813937664,   0.3453671038151,   0.3885492086411,  -0.3440127074718,   1.0681208372116,  -1.0570487976074,   0.2446096539497,  -0.1541803330183,   0.2586474716663,  -0.1890207976103,  -0.0745504647493,   0.0550464093685,   0.0517204962671,  -0.1242504790425,  -0.1164908781648,   0.1196961030364,   0.0392092242837,  -0.1256359666586,  -0.0632014498115,   0.1529497355223,  -0.0575823299587,   0.0048804972321,  -0.1090236827731,   0.0148485517129,  -0.1537330746651,  -0.0356412753463,   0.0735463872552,  -0.0859909653664,  -0.2929145097733,  -0.3219116330147,  -0.0474839434028,  -0.0786780193448,  -0.0902671888471,   0.4668172597885,   0.0588855445385,  -0.1642092764378,   0.2738955914974,  -0.2196244597435,   0.4908353686333,   0.0993060693145,   0.1470827311277,  -0.3199966847897,   0.2529478967190,  -0.2858188152313,   0.0032996602822,  -0.0905347540975,  -0.0463340431452,   0.0575218349695,   1.8382354974747,  -0.0470912605524,  -0.0971506461501,   0.3251111209393,   0.0062046349049,   0.0911435559392,  -0.2051206380129,  -0.2885550558567,   0.1060199961066,  -0.0229884069413,   0.1490495204926,   0.0900764986873,   0.0667370259762,  -0.1747879534960},
   {   0.4143796265125,  -0.3376011550426,  -0.1868663281202,  -0.1644136160612,   0.1973348110914,   0.5432509183884,   0.3698055148125,  -0.1382831931114,   0.3452038764954,  -0.0406648926437,  -0.4233454763889,  -0.0034860195592,   0.3450289666653,   0.0061543453485,  -0.2004196196795,  -0.1667845100164,  -0.1798958629370,   0.1426857262850,  -0.4269591271877,  -0.2103378921747,   0.0434800051153,  -0.0565442368388,   0.0528810732067,  -0.1639210879803,   0.4251594245434,  -0.2326959818602,   0.5017788410187,  -0.2884149253368,   0.0221747029573,  -0.1673984825611,   0.1041242107749,  -0.0542352534831,  -0.2441193014383,   0.2854709327221,  -0.1321115940809,  -0.0941001698375,   0.2325781136751,  -0.1196998655796,   0.0707821547985,  -0.3271133899689,   0.2005064785480,   0.0330885052681,  -0.0175890028477,  -0.0679722353816,  -0.1905966252089,   0.1152766421437,  -0.1935751438141,   0.1852894127369,   0.1203809306026,   0.0522724874318,   0.2624225318432,  -0.3238908946514,  -0.2881395220757,   0.0807181149721,   0.3717963993549,   0.0112314661965,  -0.2643059194088,  -0.0042814528570,   0.0447644144297,   0.3146748840809,   0.0032108514570,  -0.1571909636259,  -0.1664771884680,  -0.0582821778953,   0.2072284966707,   0.1550334095955,  -0.3834472894669,  -0.0995982959867,  -0.3055991232395,   0.1064217165112,  -0.3046016097069,   0.0435942038894,  -0.2847492694855,   0.2323357015848,  -0.1954270005226,   0.3457361161709,  -0.3386302292347,   0.2374797165394,  -0.1532539576292,  -0.1442806124687,   0.0824779719114,  -0.0008252109983,   0.1236987560987,   0.0917367488146,   0.0847725346684,  -0.0442383140326,  -0.0924277827144,   0.1060828864574,   0.0754689574242,   0.6027062535286,  -0.0776432231069,  -0.1333863586187,  -0.1288027763367,  -0.1929850876331,   0.1352461427450,  -0.1778528839350,  -0.1371033638716,  -0.4800597131252,  -0.1271238625050,   0.0829603075981,  -0.0989980921149,  -0.0593467690051,   0.4484713077545,   0.0638448894024,  -0.0226814690977,  -0.3158247768879,   0.1234433799982,   0.2304967939854,   0.1614923477173,  -0.0050837397575,  -0.2699830234051,   0.1631073802710,  -0.0342444851995,   0.0702361911535,   0.0681187361479,  -0.0715495720506,  -0.2198516279459,   0.2359823286533,  -0.1355287134647,   0.2827951610088,  -0.3918098807335,  -0.2482043206692,   0.3601547479630,  -0.1343058347702,   0.2111116051674,   0.1001544669271,   0.3089390695095,  -0.1407069712877,   0.2723219692707,  -0.4764636456966,  -0.1702875792980,   0.0238438248634,   0.2053406685591,  -0.1508041024208,   0.4134545624256,  -0.1318101882935,  -0.3517716825008,  -0.0748588740826,  -0.1027527302504,  -0.5096739530563,  -0.4564320445061,   0.3637408912182,  -0.0011934702052,  -0.0003133937716,  -0.0230564232916,  -0.2567310333252,   0.0690925121307,  -0.3764906823635,  -0.2627250254154,   0.1505891382694,   0.2654012739658,   0.1379611939192,   0.2068408727646,  -0.2553244233131,  -0.0721808969975,   0.1887581199408,  -0.3940839767456,   0.2424202710390,   0.1708434373140,   0.0544495731592,  -0.1297277063131,   0.2810923755169,   0.0939878597856,   0.2798854410648,  -0.0099903037772,   0.0642304867506,  -0.5516079664230,  -0.4321589171886,  -0.2036247402430,   0.0043678595684,   0.0416502505541,   0.2151955962181,  -0.3337838053703,  -0.2745559811592,   0.2401257902384,  -0.3868162631989,   0.1109801828861,   0.2009212821722,  -0.2741235792637,   0.1865294128656,   0.2751953005791,   0.5098668932915,  -0.1598746925592,   0.1202669665217,  -0.3458162844181,   0.4688575863838,   0.1878874748945,   0.2709859311581,   0.1152851358056,   0.3311453461647,  -0.0187829937786,  -0.1911462992430,  -0.2431405633688,   0.0334509313107,   0.1191862151027,   0.1909687668085,   0.0002335369936,   0.4082889258862,  -0.1597823947668,   0.2464733868837},
   {   0.0112324021757,   0.0966129750013,   0.4300211369991,   0.3754965960979,  -0.1504880785942,   0.0797033607960,  -0.0611539296806,   0.0902380794287,  -0.1524694263935,  -0.0090011591092,  -0.3837272524834,   0.1137923151255,  -0.4022076129913,   0.1875269562006,   0.2862757444382,   0.4443841874599,   0.1124825105071,  -0.1079224720597,  -0.2212929576635,  -0.0249395221472,  -0.2798264622688,  -0.3523813486099,  -0.0208526737988,  -0.0574916936457,  -0.4172638654709,  -0.0886686146259,  -0.1816824823618,  -0.3894094824791,   0.2146975100040,   0.1141511723399,   0.2317076623440,   0.0576264113188,  -0.1982612907887,   0.0892491787672,   0.0508556962013,  -0.3784617483616,   0.1060427576303,  -0.0398668609560,  -0.1242065876722,   0.1276682317257,   0.1816207319498,   0.3946081399918,  -0.3020516633987,  -0.1428095251322,  -0.0371373817325,  -0.1054305881262,  -0.0773734450340,  -0.2763367295265,   0.2046026438475,  -0.1824242025614,   0.2315810322762,  -0.0011497292435,  -0.0664331540465,   0.0650757253170,   0.1994159966707,   0.1776567399502,   0.2479235678911,  -0.2090006023645,   0.5015954971313,  -0.2090117037296,   0.2187131345272,   0.1703115552664,  -0.2173916250467,  -0.2907223701477,  -0.1822216510773,  -0.1950102746487,   0.1464416682720,   0.2518576979637,   0.2242648899555,   0.1239022910595,   0.0769208371639,  -0.1701873540878,   0.4416835010052,  -0.2604152262211,  -0.0110800359398,  -0.1949555426836,   0.1596709042788,  -0.2030019909143,  -0.3090215325356,   0.0841787755489,   0.1678236275911,  -0.0325023792684,  -0.0066308118403,   0.1441661715508,   0.0842050164938,  -0.0736568719149,  -0.2797566950321,   0.1809422671795,   0.1273456811905,  -0.1914564520121,  -0.1600593328476,   0.2072723507881,  -0.0739301815629,  -0.3382169306278,   0.0049165375531,   0.2587827146053,   0.1786939203739,   0.1565562486649,   0.2588601708412,  -0.0040684971027,   0.0785479620099,  -0.6831963062286,  -0.1227505058050,   0.1549566835165,  -0.2658315598965,   0.1078428328037,  -0.0502585433424,  -0.2090760916471,  -0.2346897870302,  -0.0852346718311,   0.1549187749624,  -0.1680950671434,   0.2171303331852,  -0.1608195155859,   0.3264342546463,   0.0529032237828,  -0.1716987490654,  -0.2476310431957,  -0.0796057358384,   0.0412647761405,  -0.0262672863901,   0.0223888419569,   0.2155672311783,   0.0720870643854,   0.1478537917137,   0.0969078838825,   0.3329173624516,  -0.0525352954865,   0.2625778913498,   0.1193225532770,  -0.1696799248457,   0.2330508381128,  -0.2923023104668,   0.0511853732169,   0.1889551430941,   0.0831738710403,  -0.2329827994108,  -0.3563884496689,   0.0112818619236,   0.0651342272758,  -0.1850111037493,   0.2539949119091,  -0.2786932587624,  -0.0674524605274,  -0.2634293735027,   0.0598716288805,   0.3601664900780,  -0.4203739464283,   0.0968183651567,  -0.1799895018339,   0.2099795192480,  -0.1590053588152,   0.2298322767019,   0.0425329096615,  -0.0850839465857,   0.1109240278602,  -0.0350778810680,  -0.0091482959688,  -0.0502579845488,   0.1067101433873,  -0.0704881474376,   0.2948912084103,   0.1831390261650,  -0.1259263306856,  -0.0978697836399,  -0.0665346458554,   0.0989976748824,  -0.1418558508158,   0.0288193449378,   0.1316304653883,   0.1743042916059,  -0.2180376797915,  -0.0863213390112,  -0.0109329978004,   0.0924879312515,  -0.2098602652550,   0.6446875333786,  -0.0772247686982,   0.0035725638736,  -0.1599651277065,   0.1871308833361,  -0.3436290919781,   0.1658941060305,  -0.6709105968475,  -0.0334656462073,   0.1595717221498,   0.1555362641811,  -0.1311214119196,   0.1640675514936,   0.0565694980323,   0.0260749887675,  -0.1718662679195,   0.1532071828842,  -0.2508609890938,   0.0702876299620,  -0.0496905334294,  -0.2053346931934,  -0.2265469282866,  -0.0024524026085,  -0.0834772214293},
   {   0.2069070637226,   0.4621675908566,  -0.0269314814359,   0.2107374966145,   0.1222094818950,  -0.0720570161939,   0.1786498278379,   0.1130849123001,   0.2585871815681,  -0.1017686650157,   0.1831920742989,  -0.3679639697075,  -0.4136373102665,   0.0012393119978,   0.5529044866562,   0.0355113223195,  -1.3295050859451,  -0.0174704845995,   0.3963676691055,   0.1070567891002,   0.0069446358830,   0.2858787775040,  -0.0518546439707,   0.6457452178001,  -0.0755432248116,  -0.7785357832909,  -0.1487950533628,   0.0197032000870,   0.1007957682014,  -0.1029906794429,   0.0844511389732,  -0.0637711733580,   0.0796689316630,   0.1017633378506,  -0.0939453914762,  -0.5535618662834,   0.1963219940662,  -0.3373766243458,   0.5478788614273,   0.2820193171501,  -0.4120840728283,   0.1288678944111,  -0.7404480576515,   0.3713271021843,   0.2783168852329,   0.2874432802200,  -0.0924572050571,   0.0476823262870,  -0.0284906197339,  -0.8495318293571,   0.0065210903995,   0.0147475833073,   0.2166789472103,   0.5874496698380,   0.2519001662731,   0.3809128105640,  -0.0401477403939,   0.2652238607407,   0.7202211618423,   0.0383180826902,  -0.2951744198799,   0.4157766699791,   0.3589154481888,   0.1676101982594,   0.0361561477184,  -0.1376865208149,  -1.2183531522751,  -0.2040687203407,   0.2724428772926,   0.0011038307566,  -0.1168671771884,  -0.2783890962601,  -0.3188559114933,  -0.1873981654644,  -0.5562862157822,   0.2119162529707,  -0.0651690438390,   0.1306540220976,   0.0825114697218,   0.0476503781974,   0.0357857570052,   0.1549765318632,  -0.3186954855919,   0.4305965602398,   0.0472762212157,   0.3262546360493,  -0.0167279597372,  -0.2089809477329,   0.1257241517305,  -0.0620201639831,  -0.3163413405418,   0.0885171368718,  -0.2158711254597,  -0.2259974181652,  -0.5016546249390,  -0.7488206028938,   0.2603146135807,  -0.0825477391481,   0.4440796077251,  -0.0468245148659,  -0.1226302236319,   0.2728753387928,   0.0311327185482,   0.2435655295849,   0.0819296762347,   0.2718044519424,   0.2512567043304,  -0.0347772762179,   0.1561371982098,  -0.2513540685177,  -0.1430160850286,   0.4983276128769,  -0.9336788058281,   0.0201865732670,   0.3110143542290,   0.1462807506323,  -0.4041782021523,  -0.1050304099917,  -0.2123165428638,   0.1709775477648,   0.0947065576911,   0.0144198806956,   0.0795942321420,   0.2547846436501,  -0.4829978048801,  -0.1383678913116,   0.3236071467400,  -0.0662641376257,   0.2000653445721,  -0.2287201881409,   0.9248306155205,   0.1818621307611,  -0.0567789375782,   0.0963355451822,   0.5447341203690,  -0.2259948998690,   0.1384701430798,   0.8034158349037,   0.3404890000820,   0.1644582152367,   0.3434922397137,  -0.1376832723618,   0.1998492330313,   0.2083155959845,   0.1256219297647,   0.2403030097485,   0.1562849581242,  -0.0622048825026,   0.1667248904705,  -0.0825924724340,  -0.1997881531715,   0.2191109061241,  -0.2213753312826,   0.0148932039738,  -0.2289310991764,   0.0354550108314,   0.2281351983547,  -0.2200628966093,  -0.2099248021841,  -0.2799027264118,   0.0229152105749,   0.1997995525599,  -0.0441600643098,  -0.0473245605826,   0.5469716787338,   0.0894494503736,   0.3224826157093,  -0.0752851665020,  -0.1594260185957,   0.5008938908577,  -0.2326461225748,   0.1449641883373,   0.1992659568787,   0.0829687044024,   0.1675455868244,  -0.0983607172966,   0.4632266461849,  -0.4239023029804,   0.3475763499737,   0.2669035792351,  -0.0804459601641,  -0.0140570150688,  -0.0250153820962,  -0.0172121711075,   0.1154370903969,  -0.0667132139206,  -0.0727687478065,   0.1873518526554,   0.8099294900894,   0.1110221967101,  -0.3590866923332,   0.3464728593826,  -0.3049965798855,  -0.2897626161575,   0.3298255503178,  -1.0939974784851,   0.0608347915113,  -0.4764280617237,   0.4084856510162,  -0.3371317386627},
   {   0.0202106349170,  -0.2499775290489,   0.0007500220090,   0.2710249125957,   0.0783953964710,   0.1773820072412,  -0.1298072487116,   0.0880162119865,  -0.3738284409046,   0.3577413260937,   0.4180186986923,   0.1394757628441,   0.4056993126869,   0.0044196322560,  -0.2562230825424,   0.1175956502557,   0.3111405968666,  -0.1359823942184,  -0.1499546319246,  -0.0054753138684,  -0.0079818060622,   0.2630454897881,   0.0196578968316,  -0.8632149696350,  -0.1291673928499,   0.1914985030890,  -0.0342596359551,  -0.0761281698942,   0.0472515933216,  -0.0726462379098,   0.3186881542206,   0.0104614105076,   0.0866949632764,  -0.0946750789881,  -0.2586656808853,  -0.2793254852295,   0.3590069711208,  -0.3044459521770,  -0.7369174361229,  -0.2812722623348,  -0.3965615034103,   0.1631362736225,   0.1666949093342,  -0.8738628029823,  -0.0159099288285,  -0.0367942824960,   0.1739060282707,   0.0782959312201,   0.0891733318567,  -0.3356813192368,   0.2880360782146,  -0.2040441781282,   0.2786564826965,  -0.1917395591736,  -0.0366821177304,   0.2102485150099,   0.1618735045195,   0.4693966209888,  -0.1690690666437,   0.4353364109993,   0.0745732262731,  -0.0911470651627,  -0.0646374002099,  -0.1718023419380,  -0.0345498956740,  -0.1032238006592,  -0.1472688019276,  -0.0605628974736,   0.0986272916198,  -0.1522582769394,   0.2389721721411,  -0.0317734032869,  -0.0175395328552,   0.1775578260422,   0.1592996269464,   0.1110467314720,  -0.1645613908768,   0.1631648987532,  -0.1463875472546,  -0.1540491580963,   0.3180150091648,  -0.6447945833206,  -0.4156678020954,   0.0810404196382,   0.1871487647295,  -0.2438730597496,   0.2612283527851,   0.0250503569841,   0.1412525326014,  -0.1729992479086,  -0.0147870229557,   0.0620997063816,  -0.9926702976227,  -0.3092078864574,   0.2486580163240,  -0.1502327322960,   0.1243593990803,  -0.0333562418818,  -0.7682632803917,  -0.0177514050156,   0.0227965489030,  -0.2169499844313,  -0.0187094584107,  -0.0898067876697,   0.0356596969068,  -0.0220585018396,  -0.4037031233311,   0.1010362580419,  -0.7171318531036,   0.4936346411705,   0.1147472932935,  -0.1243750751019,   0.0279347877949,   0.1132566109300,  -0.2852926850319,  -0.1173367127776,   0.1954217553139,  -0.4617923200130,   0.2690409719944,  -0.2733679115772,  -0.0734940990806,  -0.2226245552301,  -0.2495596855879,  -0.2916430830956,   0.2838596105576,  -0.0980919003487,  -0.0344413220882,   0.2094049155712,   0.1504420489073,   0.0505216531456,   0.1247132197022,   0.1689765304327,  -0.0604812614620,   0.3910496532917,  -0.3371298313141,   0.0176513958722,   0.2116284966469,  -0.2694161534309,  -0.1391279399395,  -0.5966768264771,  -0.2615630328655,  -0.1167892515659,  -0.3933463394642,  -1.5427740812302,  -0.0159422047436,   0.0425742641091,  -0.2223892509937,   0.3532569408417,   0.5314657092094,   0.3451708555222,  -0.2047212868929,  -0.2190367728472,   0.4052928686142,  -0.2810037136078,   0.1367724388838,  -0.3138035535812,  -0.3066714704037,  -0.0744696259499,   0.0581627972424,   0.3157432675362,   0.0118843670934,  -0.0887101143599,  -0.1460815072060,  -0.0073910527863,  -0.1609771549702,   0.0173950549215,   0.2563917338848,   0.4077932834625,   0.2438194304705,   0.3360951542854,  -0.2063643187284,   0.1155933290720,   0.1325859427452,   0.2522253096104,   0.4738192558289,  -0.2482749074697,   0.2824659943581,   0.0151160368696,   0.3960769474506,  -0.0876093581319,   0.0888314619660,  -0.3638870716095,   0.1168403029442,   0.0597616881132,   0.1352469623089,  -0.1393132209778,  -0.2546517848969,   0.0987378060818,   0.0124384649098,   0.0511434003711,  -0.1674855649471,  -0.2031424194574,   0.2050628811121,  -0.2030142992735,  -0.4368766546249,   0.2323472201824,  -0.1254072934389,   0.2341651618481,  -0.0351084098220,   0.2347849011421},
   {   0.0240514092147,  -0.6855606436729,  -0.1638313084841,   0.2149227559566,   0.4903881251812,  -0.2386341989040,   0.2354590892792,   0.2354663461447,  -0.3586643934250,   0.1919269412756,  -0.1399693489075,  -0.1260878890753,  -0.3079883754253,  -0.4022016823292,   0.2862652540207,   0.7747845053673,  -0.1112888082862,   0.5085598826408,  -0.2114543616772,   0.2231453657150,   0.0140376361087,   0.2617908120155,  -0.2052244991064,  -0.7242017388344,   0.0508087053895,   0.1125350147486,  -0.4632295668125,  -0.2043498903513,   0.0762600228190,  -0.0660966858268,   0.0715602114797,   0.5401431918144,   0.1993929594755,  -0.3683744668961,   0.0146889658645,  -0.2096388489008,  -0.1866894215345,  -0.1531052738428,  -0.4017890393734,  -0.0884918421507,   0.4839199781418,  -0.0392425209284,  -0.3294172585011,  -0.5705206394196,  -0.0348234958947,  -0.1022697091103,  -0.1459271460772,  -0.2745004296303,   0.3708075284958,   0.3099837899208,  -0.2022471874952,   0.1348207443953,   0.4210903048515,   0.5523640513420,   0.1579025983810,   0.4612511098385,   0.2617600560188,  -0.4096500873566,  -0.1050228998065,   0.4363690614700,   0.0259921010584,   0.0547667369246,  -0.2586785256863,   0.1768660843372,  -0.5593424439430,   0.6225035190582,   0.1454037725925,  -0.3947716355324,  -0.0417578481138,  -0.2721661627293,   0.3836806714535,   0.2933251559734,  -0.1628672331572,   0.2261068671942,  -0.2620141804218,   0.3229770660400,   0.1558514982462,  -0.4395348131657,  -0.0491501390934,  -0.0643200352788,  -0.3353659510612,  -0.3005238473415,   0.1551535874605,  -0.8331905603409,   0.2535764873028,   0.7025004029274,   0.3227976858616,  -0.5267493128777,   0.2742220461369,  -0.1494038254023,   0.0219219569117,  -0.1628831028938,  -0.3822486400604,  -0.0691377818584,   0.0457226298749,  -0.0976087301970,  -0.5155911445618,   0.2682147026062,   0.6336693167686,  -0.2177002876997,   0.5270714759827,   0.1563583314419,  -0.0163559205830,   0.2987585663795,   0.5737145543098,   0.1874147355556,  -0.5739352703094,  -0.3630524575710,  -0.2066257148981,  -0.6266932487488,  -0.2448978722095,   0.3690577149391,   0.4685352146626,   0.1301979869604,  -0.2137940973043,  -0.3097822070122,  -0.7420710325241,   0.0985972285271,   0.2518472969532,  -0.2882958650589,   0.1085884347558,  -0.3110735416412,   0.4960038959980,  -0.3115568459034,  -0.2785501480103,  -0.2300163656473,  -0.4830600321293,   0.1806580126286,  -0.0571506656706,  -0.3209269940853,   0.0853727161884,  -0.0952313989401,  -0.3935198783875,  -0.4801032245159,   0.5542696714401,   0.4081002175808,  -0.1541139930487,  -0.3742636144161,   0.6058914661407,  -0.1122477650642,  -0.2566721737385,  -0.1575030982494,  -0.0631407573819,   0.4161802828312,   0.2860155403614,  -0.1914395838976,  -0.3358187973499,  -0.1218921169639,  -0.1244335174561,   0.1889224052429,  -0.6824820041656,  -0.1025290563703,  -0.6210114359856,   0.5134549140930,  -0.7260420322418,  -0.1578139960766,  -0.5138272047043,  -0.1576708555222,   0.0659129917622,   0.1647532582283,   0.0465781204402,   0.0000539348403,   0.0560002140701,   0.3773074746132,   0.4805648922920,   0.6560214757919,   0.1401610374451,   0.3186568319798,  -0.1518744975328,   0.1238171234727,  -0.3172319233418,   0.0264041256160,   0.7680909037590,   0.0610618703067,  -0.5638488531113,  -0.1889777034521,   0.1120554953814,  -0.0266026053578,  -0.7097916603088,  -0.0771391168237,  -0.3566583991051,   0.1143947765231,  -0.2429208904505,  -0.3450508117676,   0.4186055064201,   0.1030379533768,  -0.4213480651379,   0.2278768271208,   0.2497332990170,   0.3429848253727,  -0.1439355760813,   0.1558157652617,   0.0060884715058,   0.3795703351498,   0.0038025123067,   0.0296401623636,  -0.1825674325228,   0.1220084652305,  -0.7176982760429,   0.2072892785072},
   {   0.1722891777754,  -0.4098268747330,  -0.0308242179453,   0.3007275760174,   0.2032692879438,  -0.2848992347717,   0.3246219754219,  -0.0718454271555,  -0.2296908646822,  -0.5241941213608,  -0.3621855378151,  -0.5774683952332,  -0.3002393245697,   0.0130625162274,   0.2916658520699,   0.1410671919584,   0.0376301780343,  -0.0491111092269,   0.0645254775882,   0.0440740324557,   0.1191197931767,   0.1104650869966,  -0.0407394096255,  -0.4725449085236,  -0.2213834524155,  -0.0285048894584,  -0.1007312312722,   0.2737764120102,   0.0422914065421,  -0.2315714508295,  -0.0894456580281,  -0.3323654532433,   0.4464147090912,   0.2778452634811,   0.7023536562920,   0.0512054301798,   0.2110649049282,  -0.0760331302881,   0.1844127327204,  -0.3968228399754,  -0.3189730942249,  -0.1957765370607,  -0.6846283078194,  -0.0352624617517,   0.0084911715239,  -0.0307576786727,  -0.0247568935156,   0.6194809675217,   0.3433643281460,  -0.0276816710830,   0.2231587171555,   0.0294068623334,   0.1912420243025,   0.6321555972099,  -0.0258311200887,  -0.0641483068466,   0.2421499341726,  -0.1355461478233,  -0.3917688429356,   0.2738824784756,  -0.3780492842197,  -0.0221340190619,  -0.0214794501662,  -0.3424769639969,   0.1389787048101,   0.0202478189021,   0.2643561661243,   0.1341281235218,   0.1587470769882,  -0.0304442681372,   0.2399701327085,  -0.1751316487789,  -0.2486381530762,   0.0964261069894,   0.1932499110699,  -0.1462572365999,   0.0175340026617,  -0.2275890409946,   0.1395323872566,   0.1076945364475,   0.0222910959274,   0.1018493250012,  -0.1255804449320,  -0.2867761552334,   0.0646903663874,   0.3639123439789,   0.5009578466415,   0.1037662699819,   0.5161197781563,  -0.2148040384054,  -0.2448226511478,  -0.2753586769104,  -0.0528711155057,   0.2131181210279,   0.1242685243487,   0.1039602905512,   0.1194784417748,  -0.1602581590414,   0.0696269422770,  -0.1967869549990,   0.1884450316429,   0.0917153581977,  -0.0475395545363,  -0.2894828021526,  -0.0352338179946,   0.5207143425941,  -0.6569876074791,   0.4046863317490,  -0.1924009025097,  -0.4990118443966,   0.0218242332339,   0.1571358889341,  -0.0700574740767,  -0.0126373469830,  -0.3507605493069,   0.0378108285367,  -0.0363028682768,   0.0908830463886,   0.0725798234344,   0.4185733795166,  -0.0273371636868,   0.0767248421907,   0.1154537573457,   0.1660217493773,  -0.3830766379833,  -0.0275120791048,  -0.0950490385294,   0.0537391602993,  -0.0126360114664,  -0.1588113754988,   0.2577338516712,  -0.2915118336678,  -0.0470418334007,   0.0750273168087,  -0.0097602121532,   0.2250927239656,   0.1657501161098,  -0.2648991942406,  -0.3422861099243,   0.1367030590773,   0.1004907786846,  -0.1477479785681,  -0.1766367852688,   0.3191278278828,   0.0816991701722,   0.2457795739174,   0.0734287574887,  -0.5376287102699,   0.3643411993980,   0.2078271657228,   0.1759196221828,   0.0452524162829,   0.0412621051073,  -0.2925228476524,  -0.6921163797379,   0.0375081226230,   0.1711979508400,  -0.3332367241383,  -0.0118784382939,   0.1970924884081,  -0.0312646999955,  -0.1141896769404,   0.0202526059002,  -0.1402154713869,   0.2397618144751,  -0.0598368234932,   0.3114618659019,   0.2046375870705,   0.0585963353515,  -0.0058607067913,  -0.0775592029095,  -0.4571866393089,   0.4432001709938,  -0.6558364033699,  -0.6214269399643,  -0.1607913076878,   0.0750785022974,   0.2044008076191,  -0.4880095720291,   0.0987156778574,  -0.3884024918079,   0.2420621216297,   0.2197149693966,  -0.2092779278755,  -0.0649578720331,  -0.2709322571754,  -0.3155321180820,  -0.2548890411854,   0.1700446456671,  -0.2577332556248,  -0.0929906591773,   0.0346958972514,  -0.1903204023838,  -0.0578937977552,  -0.5484195351601,  -0.1487057209015,  -0.0096783814952,   0.4966012239456,  -0.0769445225596,  -0.2808254957199},
   {   0.2563740909100,   0.0371107012033,  -0.0058619170450,   0.1427579522133,  -0.3459356427193,  -0.5117219090462,   0.0871476978064,  -0.2083345800638,   0.1518197506666,  -0.2918391525745,   0.2197049111128,   0.1414288282394,  -0.1037786677480,  -0.2367611080408,  -0.1648581773043,   0.0068728714250,   0.3992080092430,  -0.0776331871748,   0.2631517052650,  -0.2264450788498,  -0.2989309728146,   0.1819535642862,  -0.1060868278146,  -0.2795445322990,   0.2706283926964,  -0.4594803750515,  -0.1627970933914,   0.1791619658470,  -0.1234042942524,  -0.3090598285198,  -0.1422921568155,   0.1420009285212,  -0.0847277566791,   0.4167885184288,   0.0398439168930,  -0.0287946108729,   0.0065682996064,  -0.0394365116954,  -0.1773642450571,   0.1164247915149,  -0.2718980014324,   0.0785937756300,   0.0156893692911,  -0.0717385858297,  -0.1843946874142,  -0.2972517907619,   0.6286947727203,   0.1951922476292,   0.3850767612457,  -0.4108151793480,  -0.3844238221645,   0.0720170289278,  -0.1546796113253,   0.1579572260380,  -0.1068261638284,   0.1756496429443,   0.3164646327496,  -0.4845670759678,   0.1798423230648,  -0.2632459998131,  -0.1921737790108,   0.3523948788643,  -0.3348321318626,  -0.2262591570616,   0.0618853233755,   0.4244807362556,   0.0235028341413,   0.3095776140690,  -0.0377615354955,  -0.2333168089390,   0.3615228533745,   0.0037652340252,   0.4116949439049,  -0.4341985583305,  -0.1828248053789,   0.3338416516781,  -0.2494694143534,   0.0553039088845,   0.7576066255569,   0.3015321195126,  -0.1067298725247,  -0.2203930318356,  -0.3176746070385,   0.0106810564175,   0.1743588000536,   0.0267297271639,   0.2296227812767,  -0.0312416050583,  -0.1685341745615,   0.1607932001352,   0.3609644174576,  -0.1733933389187,  -0.2433036416769,  -0.2103517055511,  -0.0728616267443,  -0.0403306558728,   0.1121774911880,   0.1221107020974,   0.3838866353035,  -0.1165281906724,   0.1635225117207,  -0.0622422769666,  -0.3518379032612,   0.1028145030141,  -0.0261504892260,  -0.0560146160424,   0.0831364169717,  -0.0241856519133,  -0.3145653605461,   0.0631387904286,   0.2479267716408,  -0.3005917072296,   0.2611181139946,   0.4472362101078,  -0.1611910313368,   0.2997737228870,  -0.0748400539160,  -0.0723977982998,   0.3078451752663,  -0.5016909837723,   0.0213851556182,   0.1315056532621,  -0.0814610496163,  -0.3046785295010,   0.0333839766681,   0.3228820264339,  -0.0245518274605,   0.1145298331976,   0.4502624571323,  -0.0109932189807,   0.1683070659637,   0.3193394839764,  -0.3104294240475,   0.3964342176914,  -0.2833889722824,  -0.2658248245716,  -0.0094865253195,  -0.0141154546291,  -0.0457994565368,  -0.0352108962834,   0.3597997426987,   0.0953277647495,   0.4401336610317,  -0.0478739216924,  -0.3400239348412,   0.3960962891579,  -0.2746942043304,  -0.3072078824043,   0.0433190762997,  -0.2077832520008,   0.4746878743172,  -0.0199575852603,   0.3205785453320,   0.4128980934620,   0.0466145128012,  -0.3602458834648,   0.4062140583992,  -0.1807397007942,   0.1158743053675,   0.0292177982628,   0.0250866953284,  -0.0890717357397,  -0.0333095714450,  -0.1698275655508,   0.2016740888357,   0.4132722318172,   0.0859288349748,   0.4534300565720,   0.0735813230276,  -0.0130677269772,  -0.2482216358185,  -0.2112409919500,   0.0202616900206,   0.1198294535279,  -0.3507281839848,   0.5093360543251,  -0.1279268562794,   0.7164346575737,  -0.0572779849172,   0.0910198166966,   0.3756871521473,  -0.2249397039413,  -0.1454245746136,  -0.2596589624882,  -0.4213015735149,   0.2367997765541,  -0.0522796362638,  -0.0906596183777,  -0.1961573958397,   0.3909808099270,   0.0273072160780,   0.0083688255399,  -0.0300182346255,   0.0367683880031,   0.4393929541111,  -0.2783129811287,   0.1577336937189,  -0.3986722230911,   0.3507657349110,   0.2417944073677},
   {  -0.0597160011530,  -0.0427031330764,  -0.1935171484947,  -0.2186791449785,  -0.0340235307813,   0.1657106578350,  -0.0946474522352,   0.1479988843203,   0.0291756317019,   0.1598966419697,  -0.1767435967922,  -0.0239055249840,   0.1503227651119,   0.3221573233604,  -0.2408125251532,   0.1740197688341,   0.1061461046338,  -0.2460863888264,  -0.3100467920303,  -0.1344692558050,   0.1886166334152,   0.3327349126339,  -0.1140754967928,  -0.0869788229465,  -0.0398209430277,   0.4715050756931,   0.4032657742500,   0.1628224700689,   0.3000458776951,  -0.1732335984707,   0.1569098681211,  -0.2629491388798,   0.5560344457626,   0.1163371726871,  -0.1126361563802,   0.0453180037439,   0.4255155026913,   0.3287188112736,   0.2852284014225,   0.1873100996017,  -0.3138978481293,  -0.1109900996089,   0.2072627395391,   0.3183321654797,   0.1629925221205,   0.0870031416416,  -0.3715684413910,  -0.0817638933659,  -0.1018666252494,   0.2088548988104,   0.1223468631506,   0.1508474498987,  -0.3548668324947,   0.0402352884412,  -0.0374031066895,  -0.2806607484818,   0.3352052867413,  -0.1239624843001,   0.4474454522133,  -0.4982386827469,   0.2676287591457,   0.3189521133900,   0.1096402406693,   0.2560181319714,   0.0006768738967,  -0.1240825355053,  -0.1857838630676,  -0.1178615912795,  -0.2152417749166,  -0.4031315743923,  -0.1081888079643,  -0.1050853505731,   0.4004325866699,   0.1962616294622,   0.0317636020482,  -0.0612887144089,  -0.1757731139660,  -0.1533235609531,   0.1683646142483,   0.1451531648636,   0.0007048225962,   0.2579487562180,   0.2122228443623,  -0.0117318043485,   0.1120518818498,  -0.1372576355934,  -0.0291184522212,   0.0824441090226,   0.0293017420918,   0.1751442253590,   0.2131752669811,  -0.1325439214706,  -0.1259715408087,   0.2494856268167,   0.1231130287051,  -0.2187956273556,   0.0700104311109,   0.2059322893620,   0.1911256462336,  -0.0804276913404,   0.0208374336362,  -0.4079810082912,  -0.1438916176558,   0.0510690622032,  -0.0161552485079,  -0.1109652593732,   0.0531250499189,  -0.2065235376358,  -0.0921547412872,   0.0180742722005,  -0.1644548773766,  -0.1423939466476,  -0.0809547603130,   0.1877581179142,  -0.1546798497438,  -0.2349027842283,  -0.1084985435009,   0.1407222151756,   0.0776290148497,  -0.1646423637867,  -0.0202914364636,   0.0347110517323,  -0.2642869949341,  -0.1361014097929,  -0.2077594995499,  -0.2494108229876,  -0.0280078407377,   0.0391091965139,   0.0962393283844,  -0.2058951556683,  -0.0790839940310,   0.1133847832680,  -0.2101020812988,  -0.2610656917095,  -0.0556210987270,   0.3112965226173,  -0.3787005245686,  -0.1525391191244,   0.0507535524666,   0.2830470502377,   0.2354934811592,  -0.1018775105476,  -0.1497572213411,  -0.1085320636630,   0.1901921182871,  -0.2557973265648,  -0.2370673120022,   0.0650096014142,  -0.3664366900921,   0.1840466409922,  -0.0842342302203,  -0.0716174542904,  -0.2928523719311,   0.0399170070887,   0.1565174460411,  -0.2518505454063,  -0.0555580705404,  -0.2772274017334,   0.0165659002960,  -0.1915203779936,  -0.0319251567125,   0.1188318058848,  -0.0364711098373,   0.1697878986597,   0.2218338549137,  -0.2694892287254,  -0.1979189664125,   0.3197236061096,  -0.0121958591044,   0.1208183988929,  -0.1304495483637,   0.3345740437508,   0.0831416025758,  -0.4479917585850,  -0.1192060858011,   0.1513923853636,   0.3969529271126,   0.0233716107905,  -0.2044296413660,   0.3372036814690,  -0.0057967370376,   0.0131317796186,   0.3811574280262,  -0.1047070249915,  -0.0834981799126,   0.1417465060949,   0.1829718053341,   0.0641920790076,  -0.1189122423530,   0.2554427683353,  -0.0018666178221,   0.0217449646443,  -0.2676708698273,   0.1856402307749,  -0.1788538396358,  -0.0083503834903,  -0.0214935038239,   0.3324404060841,   0.0610475279391,   0.2079053223133},
   {   0.0152609413490,  -0.3043566048145,   0.0141480630264,   0.1532645225525,   0.0837326124310,   0.0118923047557,  -0.0324465744197,  -0.4740412831306,  -0.3594226837158,   0.1392905563116,   0.2972647249699,  -0.0830024108291,   0.4143344461918,  -0.4488294124603,  -0.2792243957520,  -0.3751970827579,  -0.1838331967592,  -0.2398216873407,  -0.0652846023440,   0.1110459640622,   0.3416299521923,  -0.1023444533348,  -0.3696693480015,   0.0225012097508,  -0.4528498947620,   0.2084294855595,   0.0526461601257,  -0.0119057074189,   0.1378414332867,  -0.1758964359760,  -0.3354770541191,  -0.1628217995167,   0.1552060991526,   0.5194678902626,  -0.3709747791290,   0.4703554511070,   0.3111429214478,   0.3611058294773,  -0.4202103018761,   0.0911401137710,   0.1949475705624,  -0.3235101699829,  -0.1265155375004,  -0.4732639193535,  -0.3512744903564,   0.0227576252073,   0.0744269564748,   0.0564237162471,  -0.4962336122990,  -0.1147546097636,  -0.1579353511333,  -0.6206508874893,  -0.3587186932564,   0.2514891326427,  -0.1946684420109,   0.4918766617775,   0.3620237708092,   0.0655947551131,   0.1881600767374,   0.2578042745590,   0.3363138139248,   0.1846606135368,   0.2152685970068,   0.1026876345277,   0.1627732068300,   0.0688321590424,  -0.4127954244614,  -0.2293972820044,   0.0466715097427,  -0.2327952235937,   0.2286587655544,   0.0981934443116,  -0.0409396812320,  -0.0559805631638,  -0.3404058218002,  -0.4178770780563,  -0.4505328536034,  -0.0528325252235,   0.1922110766172,   0.4923073053360,  -0.0957982763648,  -0.4358365535736,  -0.1408516913652,  -0.1596678197384,  -0.3894501626492,   0.2752340137959,  -0.4958359003067,  -0.1719303578138,  -0.6289156079292,   0.0629180297256,   0.2491838037968,  -0.2485153079033,   0.1386944353580,   0.3224009573460,   0.2557620108128,  -0.2435766160488,   0.1090200245380,   0.1461019515991,   0.0867122337222,  -0.0385786630213,   0.2036007195711,  -0.0417769216001,   0.0035539630335,  -0.3162106573582,  -0.0599653199315,   0.2166066467762,  -0.1062983870506,   0.0195757634938,   0.0667301490903,  -0.2876173257828,  -0.2484376877546,   0.2012180089951,  -0.0292322821915,  -0.1749755889177,   0.0704216882586,  -0.2943316698074,  -0.2284715771675,  -0.3827498257160,   0.3037136495113,  -0.0369451418519,  -0.0487230606377,   0.0620084665716,   0.3031656742096,  -0.1013117432594,   0.1583868116140,   0.2695371210575,   0.0531802959740,   0.1515320539474,   0.1162000745535,  -0.3748214840889,   0.2010726183653,  -0.0384635739028,   0.1272652298212,  -0.0171790979803,  -0.3969642221928,   0.0950459614396,   0.0936738699675,  -0.2554698884487,  -0.2731815278530,  -0.0306639615446,  -0.2846251726151,   0.2286602854729,  -0.0817778855562,   0.1372176110744,  -0.1467692106962,  -0.4617629945278,   0.0872352197766,  -0.1331663131714,  -0.2457960397005,  -0.2696438431740,   0.1495446860790,   0.1808984279633,   0.0816523283720,  -0.3361917436123,  -0.1651767641306,  -0.0838305801153,  -0.1678644120693,   0.3974280357361,  -0.3600328862667,  -0.1790409833193,  -0.1534981876612,   0.2653339207172,   0.0036356290802,   0.3741425275803,  -0.2220313102007,   0.0154951373115,   0.1346562653780,  -0.1043188199401,   0.0881872624159,   0.3474551737309,   0.1710094958544,   0.1661109775305,  -0.3066373467445,   0.2150024473667,   0.2837027013302,   0.0426944829524,  -0.1361904293299,   0.3027707934380,  -0.3799713850021,   0.3779905438423,   0.0108583774418,   0.1290727108717,   0.3760853111744,   0.1084459200501,  -0.0685584545135,  -0.1854303479195,   0.2409524619579,   0.0278013776988,   0.1764984577894,  -0.1568261533976,   0.0526298470795,   0.2637691795826,   0.1706581562757,  -0.0516915693879,  -0.3125340044498,  -0.1568204164505,  -0.1435268074274,   0.0988159179688,  -0.0254161376506,   0.1213930621743},
   {  -0.0359317511320,   0.1830707788467,  -0.3064300119877,   0.0553842931986,  -0.0303167533129,  -0.1399042755365,   0.0396441146731,   0.2762879431248,  -0.1942336261272,   0.2641481757164,   0.1515484899282,   0.7341983318329,  -0.1493102610111,  -0.2247927188873,  -0.3164837360382,   0.3126564025879,   0.0961387455463,  -0.1953119784594,   0.0615591257811,   0.0951791554689,  -0.5305325984955,   0.0816937759519,  -0.2804100215435,  -0.1672612130642,   0.2392458170652,   0.3487032651901,   0.4108383059502,   0.1775187849998,   0.1312725543976,   0.3453627228737,  -0.1519459486008,  -0.0904017165303,  -0.0616120509803,   0.0347333922982,   0.3064892292023,  -0.2636319100857,  -0.3225786983967,  -0.8405484557152,  -0.4974637031555,  -0.3992325067520,   0.4125532805920,   0.1780946850777,  -0.2485845088959,  -0.0936346948147,   0.0959881246090,  -0.4261223971844,   0.0244606621563,  -0.0434606708586,   0.1638821661472,  -0.5244009494781,  -0.2683463096619,   0.4386917650700,   0.1554740667343,   0.1017987653613,  -0.2317267507315,   0.0327468626201,  -0.1397498846054,  -0.1012884378433,   0.0774130001664,  -0.2215867489576,   0.1513927578926,  -0.3477831780910,   0.2465612292290,  -0.2845854461193,  -0.3485283553600,  -0.4565918743610,  -0.1418451070786,  -0.4539124369621,  -0.6308681368828,   0.4093567728996,   0.0857634022832,   0.0123965237290,  -0.2504158616066,   0.0148454522714,  -0.4462911486626,  -0.3002654016018,  -0.3620856702328,  -0.3621096014977,   0.2052354365587,   0.1923719644547,  -0.0850115418434,   0.1251956373453,  -0.1803132742643,  -0.5210124254227,   0.4502348601818,  -0.1800025403500,   0.3545171916485,  -0.2330380976200,   0.4560672640800,  -0.1635341495275,   0.2018183767796,  -0.2121524363756,  -0.0866102650762,  -0.5156106352806,  -0.9200702905655,  -0.2860436141491,  -0.2171089947224,  -0.1790944933891,  -0.3406873643398,   0.2827198505402,   0.0507251359522,  -0.1663587242365,   0.0979175493121,  -0.0477079786360,  -0.2813913822174,  -0.1012461185455,  -0.1552984863520,  -0.2950721085072,  -0.4376684725285,  -0.1260022073984,  -0.2187007069588,  -0.4730844497681,   0.5256061553955,   0.1606198400259,  -0.0514604933560,   0.2319676578045,  -0.2349940389395,   0.3752137422562,  -0.1020107269287,  -0.0084329349920,  -0.1400097161531,  -0.0769179016352,   0.2934138178825,  -0.2060090303421,  -0.1110693141818,  -0.0007462593494,   0.0677553042769,   0.3261877298355,  -0.3372217118740,  -0.0274424720556,   0.0005825283006,  -0.3222505450249,  -0.0852477326989,   0.0002964360756,   0.0510918535292,  -0.2430608570576,  -0.1661390960217,  -0.3821418881416,   0.0893134251237,  -0.2608436644077,  -0.1341425031424,   0.0092486366630,  -0.4953646957874,  -0.3262068629265,   0.1400801092386,   0.2910419106483,   0.0587697140872,  -0.1823430359364,   0.0817535445094,  -0.0562567524612,  -0.3956874012947,  -0.6281581521034,  -0.0718207359314,   0.0588293038309,   0.3874658942223,  -0.1368931829929,   0.0427309013903,   0.1089693605900,   0.0036006206647,  -0.0504625439644,   0.1913882493973,  -0.3079809844494,   0.2588970065117,  -0.2145566940308,  -0.2525399625301,   0.2903046011925,   0.2627199590206,   0.2559301853180,   0.3059257268906,  -0.1750945448875,  -0.0327725298703,   0.2049438506365,  -0.4349638521671,   0.5616137385368,  -0.2488114833832,  -0.0706011652946,  -0.0281127020717,  -0.1764179170132,   0.2672527432442,  -0.4607729017735,  -0.1135675460100,   0.2464262098074,   0.0755995362997,  -0.1790991425514,   0.0962853059173,   0.2680668830872,  -0.5563943386078,   0.0681167840958,   0.0838363096118,   0.1662033945322,   0.0511170886457,   0.4286325275898,   0.2304725795984,  -0.2465090006590,  -0.1368478536606,   0.0617497563362,   0.0960901826620,  -0.3584707677364,  -0.0263929981738,   0.7193590998650},
   {  -0.0961319953203,   0.2878982424736,  -0.3293673396111,   0.2471442520618,   0.1839757114649,  -0.3162033259869,   0.0681597143412,  -0.2344425469637,   0.2201067209244,   0.6253467798233,   0.2970401942730,   0.2126612514257,  -0.6696022748947,  -0.0985623672605,   0.0203060731292,  -0.0323106572032,   0.2651051282883,   0.0530832000077,   0.3097384274006,   0.2981848418713,   0.1357901841402,  -0.1624319255352,  -0.0881741493940,  -0.0202155616134,  -0.5289448499680,   0.0681716799736,  -0.4985608160496,  -0.2868447899818,   0.2366746068001,   0.0882557108998,  -0.0739010199904,  -0.2615995109081,   0.4346199631691,   0.0338915921748,   0.1561052650213,   0.1306865960360,   0.1518703401089,   0.1038824468851,  -0.2180789709091,   0.2319439351559,  -0.0057528219186,  -0.0384541600943,  -0.5067168474197,   0.1865977495909,   0.1762998700142,  -0.0923639386892,   0.3006255924702,   0.0176837928593,   0.0730123147368,  -0.2409213781357,   0.0294212009758,  -0.1623343378305,  -0.1798876374960,   0.0060505643487,   0.2145563066006,  -0.0613043904305,   0.0187646206468,  -0.0980405062437,  -0.2289099097252,   0.4043493568897,  -0.4293066859245,  -0.3038438856602,   0.2561636865139,   0.0496312826872,  -0.0501351691782,  -0.0854054763913,   0.2908361554146,  -0.3511008620262,   0.0893699973822,   0.0046759350225,   0.3347530663013,   0.2435722351074,  -0.4541105031967,  -0.2605076432228,   0.2067580968142,   0.0212443135679,  -0.1520852595568,  -0.1668976992369,  -0.4750235676765,   0.3360181450844,  -0.0525811426342,  -0.2020896524191,   0.3042417764664,   0.0383156090975,  -0.6273921728134,   0.1683947145939,   0.3454867601395,   0.2126233577728,  -0.0184315256774,   0.0313078612089,   0.1509011834860,   0.2783093750477,   0.0514969900250,  -0.0668614432216,  -0.4652468860149,   0.2193405032158,  -0.1862729340792,   0.2587262392044,  -0.2300028204918,  -0.3581295609474,  -0.3438420891762,   0.0009903869359,   0.0814684927464,  -0.0449553467333,   0.4103991091251,   0.2066195607185,   0.0720112100244,   0.2680034935474,   0.2186084687710,   0.0219803750515,  -0.0879904851317,  -0.0789384022355,  -0.2219336479902,  -0.2533931732178,   0.0712464526296,   0.4758281409740,  -0.1723764538765,  -0.2248183041811,   0.3259803652763,   0.2198096215725,   0.3047997355461,  -0.1106850281358,   0.0358363687992,  -0.1131387501955,  -0.3573413193226,  -0.1630547791719,  -0.3887151181698,  -0.0283180978149,  -0.2311108261347,  -0.0877435654402,  -0.0830666571856,  -0.2202664464712,  -0.5530638098717,   0.0692910552025,   0.2933397591114,  -0.3752536773682,   0.1421528458595,  -0.1501741856337,   0.2942643761635,  -0.0650236904621,  -0.0657167881727,   0.0101112909615,   0.4525758624077,  -0.0505143553019,   0.3958245515823,  -0.2941870391369,  -0.5450167655945,   0.1325291097164,   0.1210015565157,  -0.1005001142621,   0.3692675232887,  -0.3576230704784,   0.0861607417464,   0.1001979783177,  -0.0336161404848,  -0.0010768972570,   0.1298166215420,  -0.4243410825729,  -0.2434567213058,  -0.0507041513920,   0.1220910623670,   0.2989804446697,   0.2310592085123,  -0.3150844275951,  -0.4189762771130,  -0.1756091415882,  -0.0393442325294,  -0.2510641813278,   0.1652433425188,   0.0333296135068,  -0.0439770631492,  -0.1374625563622,   0.2132718712091,  -0.2586719989777,   0.0236880946904,  -0.4009060561657,   0.3607964813709,  -0.0931061729789,  -0.0681922733784,   0.2110480964184,  -0.0052490541711,  -0.2118779271841,   0.5396361947060,   0.4551162421703,   0.4672008454800,  -0.5061045289040,  -0.0471629910171,  -0.4077942371368,   0.0125500829890,  -0.2099022567272,   0.0480476580560,   0.0497709028423,   0.0323436483741,  -0.2865552604198,  -0.1128682792187,  -0.3200509250164,   0.3583610951900,  -0.0239490363747,  -0.1523418873549,  -0.2216667681932},
   {  -0.4133976399899,   0.1832386255264,  -0.2296464145184,  -0.4880946278572,  -0.1117149814963,   0.0560940504074,  -0.3455150127411,  -0.0919011756778,  -0.3604296743870,  -0.1926247924566,  -0.2190266549587,  -0.2151118069887,  -0.1094219386578,  -0.1785974800587,  -0.5355206727982,  -0.0715036168694,  -0.3599895536900,  -0.0866695940495,  -0.2712703049183,  -0.2729220092297,  -0.3308102190495,   0.3350252509117,  -0.1212097257376,   0.4186934530735,   0.0101015502587,  -0.1291582137346,  -0.0370819568634,   0.0873833522201,  -0.1161049455404,  -0.2664037346840,   0.3186709880829,  -0.1411028653383,   0.2000533044338,  -0.3946047127247,  -0.3761085271835,  -0.4623920917511,  -0.3552104532719,  -0.0492391027510,  -0.5916122198105,  -0.1824531555176,  -0.3785329163074,   0.3134441673756,  -0.3490411043167,   0.1075116470456,  -0.1965743154287,   0.2293017655611,  -0.4230033159256,  -0.1765067726374,   0.2448130995035,   0.1187425404787,  -0.0829228162766,   0.4305744767189,  -0.2007197886705,   0.0802710950375,  -0.2428581267595,   0.2940805256367,  -0.2474613934755,  -0.1538956463337,   0.1248429641128,  -0.3321863114834,   0.4190382659435,  -0.4870677292347,   0.3757441043854,  -0.3700660169125,   0.1935955137014,  -0.3249316811562,   0.2892357409000,  -0.4522137045860,   0.4049090445042,  -0.4584905505180,   0.1319401264191,   0.1836816668510,  -0.2907189726830,  -0.2906011343002,   0.4423847794533,   0.1077525913715,   0.2023508697748,  -0.0373856425285,   0.0763434395194,  -0.2260054647923,   0.1571663767099,   0.0213333852589,   0.1940911263227,   0.2786379158497,  -0.1273320019245,   0.0334491319954,  -0.1760447174311,   0.3182514309883,   0.0544227771461,   0.1935345083475,  -0.3157500922680,  -0.3005276322365,  -0.1538257896900,   0.4629279971123,   0.2271546423435,  -0.4417018890381,  -0.0307621993124,  -0.2731427848339,  -0.0299966521561,  -0.0514877662063,  -0.2140669375658,  -0.2271097302437,  -0.2104378044605,  -0.1245810091496,  -0.4928235709667,  -0.2219388335943,   0.1125130429864,  -0.4063013792038,  -0.0917107984424,   0.0488627925515,  -0.1295569390059,   0.2107762247324,   0.1713713258505,   0.0906701833010,   0.2255770713091,   0.0954951047897,   0.1238490343094,   0.4029690027237,   0.2456943839788,   0.0792603641748,  -0.4344100356102,  -0.3228373527527,  -0.6342439651489,  -0.1863114684820,   0.1672606170177,   0.4790183007717,  -0.4531073868275,   0.5149583816528,  -0.4120970964432,   0.3364535272121,   0.4188744723797,  -0.3675619959831,  -0.2698858082294,   0.0065873540007,   0.3918291330338,  -0.1821487247944,   0.1247319430113,   0.1862699240446,  -0.1909923851490,  -0.5287924408913,   0.1558167338371,   0.2578669190407,  -0.1398814469576,  -0.0042664739303,  -0.3067744672298,  -0.4342381656170,   0.0947168767452,   0.2475098073483,  -0.0659284964204,  -0.4455732703209,   0.0722713842988,  -0.2950117290020,   0.2232380807400,  -0.0573067925870,  -0.4467183649540,  -0.2844836413860,  -0.1914421916008,   0.4375200867653,  -0.0220021735877,  -0.2022708207369,  -0.3830747604370,  -0.6412955522537,  -0.2694950401783,  -0.1761660873890,  -0.4387959539890,   0.2791721224785,  -0.1521203815937,  -0.2443595677614,   0.3762352168560,   0.3354217112064,   0.2200096845627,  -0.5830247402191,  -0.0288438722491,  -0.4667472839355,  -0.1114575415850,  -0.1498344391584,   0.3397636115551,   0.1297761201859,  -0.2878197431564,  -0.3997890949249,   0.0430544018745,  -0.1516306251287,  -0.0373710282147,  -0.2738124728203,  -0.3172075152397,  -0.4768283665180,   0.1185520291328,  -0.1241977065802,   0.2084978222847,  -0.1906842887402,  -0.1066476777196,  -0.7243664264679,  -0.1787880510092,   0.1750046908855,   0.1374175846577,  -0.1896767765284,  -0.1815752536058,  -0.2321859598160,  -0.3845716416836,  -0.5205401778221},
   {   0.5842529535294,   0.3604556918144,  -0.5415220856667,   0.5750718712807,   0.8245063424110,  -0.2126876264811,   0.3898052573204,   0.1613522469997,   0.0155710699037,   0.0627717897296,  -0.1901469379663,  -0.3306047320366,   0.1313876062632,   0.7144075632095,   0.1862528771162,  -0.1517461687326,   0.0801628679037,   0.1626950204372,  -0.2786315679550,  -0.1263028085232,   0.3123348355293,  -0.3893361985683,   0.7058590054512,  -0.0788853466511,  -0.2996775507927,   0.1460960060358,  -0.2032140642405,   0.1518266797066,   0.3147923052311,  -0.3017435669899,   0.9072214961052,   0.4582489430904,  -0.0065373433754,   0.2277269959450,   0.2864457368851,   0.2805804610252,   0.7216437458992,   0.0133838998154,  -0.2557764053345,   0.3876682519913,  -0.1359287053347,  -0.1500701308250,  -0.3716896474361,  -0.0281295366585,  -0.0238179732114,  -0.1206792294979,   0.1361851692200,   0.0339271910489,   0.3815256059170,  -0.2849897444248,   0.9213557243347,   0.2035920023918,   0.2746236026287,   0.2494670003653,   0.2301953136921,  -0.3217231631279,  -0.0078265555203,   0.4238136112690,   0.2021798491478,  -0.2260338664055,  -0.0269660837948,   0.3264535665512,  -0.1790451854467,   0.6968995332718,   0.6662144064903,   0.6784107685089,  -0.2573983669281,  -0.3977812826633,  -0.1868114024401,   0.0519183836877,   0.0696068257093,   0.6402062177658,  -0.2708081901073,  -0.1253995746374,   0.0452338494360,  -0.4634976387024,   0.4241165518761,   0.3722622692585,   0.2570011317730,  -0.3105819225311,   0.0594802349806,  -0.2248889952898,  -0.3246512711048,  -0.0826564580202,  -0.4535887837410,   0.0894599556923,  -0.1081411838531,  -0.3980813026428,   0.1665977686644,  -0.2851238250732,   0.5376201272011,   0.7388550639153,  -0.2267233133316,   0.3592273294926,  -0.3118417263031,   0.1053387299180,   0.5844522118568,   0.6063031554222,   0.0741799697280,   0.6869260072708,  -0.0354708321393,  -0.0478151030838,   0.7522642016411,   0.4190644919872,   0.0421603322029,   0.2278607487679,   0.3860873281956,   0.4051792919636,   0.0694286599755,   0.1463863849640,   0.8422799110413,  -0.0777626484632,   0.2348142713308,   0.6288177371025,  -0.0052118562162,   0.7518773078918,  -0.3597220480442,  -0.1584661602974,   0.5381391048431,  -0.0747583657503,   0.4457860291004,   0.5726116299629,  -0.0519173629582,   0.2976482808590,  -0.2397363334894,   0.0550025142729,   0.3409514129162,  -0.3237032294273,  -0.2176428437233,   0.2280303537846,  -0.2016909271479,   0.1525647491217,  -0.4478801488876,   0.2460577934980,   0.2700679004192,   0.2706061601639,   0.0389373525977,  -0.2345441579819,  -0.2970187067986,   0.3355619013309,   0.0963557362556,  -0.4340418577194,  -0.4296208024025,  -0.0225663557649,  -0.3784708380699,   0.2908844649792,  -0.2261449396610,  -0.2484796941280,  -0.4600622057915,   0.7409126162529,  -0.3572379946709,  -0.5042686462402,   0.2769352495670,   0.2802382707596,   0.1693920940161,  -0.1477695852518,  -0.1098922491074,   0.2527612149715,   0.7976271510124,   0.8678920865059,   0.7623845934868,  -0.2358335554600,   0.5401890277863,  -0.4763933122158,   0.1090482845902,  -0.2462856769562,   0.3221071064472,  -0.4850047230721,  -0.0442484542727,   0.6177136898041,  -0.4265444278717,   0.1011097952724,  -0.1467947065830,   0.3204698860645,  -0.1703313440084,   0.5560750365257,  -0.1227879002690,   0.0204513613135,  -0.0665640085936,   0.7324724197388,   0.4074765741825,  -0.2797072529793,   0.1435098499060,  -0.0075610531494,  -0.3713695406914,   0.4966402649879,   0.1985073685646,   0.7734575867653,  -0.0128716640174,   0.5055525898933,  -0.1605510264635,   0.2652648687363,  -0.4069675803185,  -0.3193707168102,  -0.2862570583820,   0.0908780694008,   0.1401478797197,   0.3119576275349,   0.3274988830090,   0.1240043267608},
   {  -0.1195902153850,  -0.0042852908373,  -0.3215385079384,  -0.2364875376225,   0.1066240593791,  -0.1812113970518,   0.0075927134603,   0.2308496087790,   0.2680566608906,   0.1843736320734,  -0.0273662302643,  -1.0184272527695,  -0.0626849159598,  -0.0428043864667,  -0.2745497524738,  -0.1650823652744,  -0.2718972861767,   0.1996770501137,   0.1222658082843,   0.0690564885736,  -0.5504030585289,  -0.0355106815696,  -0.0652702450752,  -0.0348166264594,   0.4319129884243,  -0.1167099699378,   0.1724236607552,  -0.2431073635817,   0.0180818550289,  -0.1698986440897,   0.0293387677521,   0.2048344612122,   0.3715429306030,   0.1355379968882,  -0.1766602993011,  -0.0624369531870,   0.0726689249277,  -0.5051934123039,  -0.1467655897141,   0.4800635576248,  -0.1944467872381,  -0.0182423200458,   0.3864314258099,  -0.0998114719987,   0.1193997338414,   0.1548250168562,  -0.1193621531129,  -0.0852183103561,   0.3137361705303,  -0.2088210433722,  -0.0034138017800,   0.2682373523712,  -0.2393935471773,   0.0543246902525,   0.6073946356773,  -0.6618616580963,  -0.1094772368670,  -0.2118885815144,   0.1777810901403,   0.0650910958648,   0.3913443386555,  -0.4745147526264,  -0.6112042665482,  -0.0071920901537,  -0.5876693129539,  -0.1610671132803,   0.1258187592030,   0.3937356173992,  -0.2083008289337,   0.3366736471653,  -0.1628500670195,   0.3904713988304,  -0.3189686238766,  -0.0265485458076,  -0.4259587824345,   0.1069829314947,  -0.2054428309202,   0.1213062703609,   0.2574883997440,  -0.4007291495800,   0.3222829997540,   0.1671764403582,   0.0106683634222,   0.0499324463308,  -0.1691105812788,  -0.0514929480851,  -0.6319113373756,  -0.1755166500807,   0.2434799224138,   0.2956138253212,   0.1583479046822,  -0.1188417077065,   0.1333922892809,  -0.2389362752438,   0.2901032567024,  -0.1358535438776,  -0.1819939762354,  -0.1163360327482,  -0.2320979237556,  -0.0048437975347,  -0.5570273995399,   0.4141983985901,  -0.0454959906638,   0.1067811325192,   0.3131686747074,   0.2851378023624,   0.0428273752332,  -0.1391768157482,  -0.2426106929779,   0.0170328505337,   0.1413502395153,  -0.2301763296127,   0.0818011835217,  -0.0319409817457,  -0.0173186622560,  -0.3829335868359,   0.2237211465836,   0.1711264848709,  -0.2512534856796,  -0.1452366858721,   0.0668093264103,   0.1638289690018,   0.2407052963972,  -0.0096145644784,  -0.4251297116280,   0.3117726743221,  -0.1284425854683,   0.0813273936510,   0.4560957551003,  -0.1393773257732,   0.3435920178890,   0.3368283510208,  -0.2552380859852,   0.2654471397400,   0.3722168803215,  -0.4479961395264,   0.0825486332178,   0.0427927114069,   0.2821497321129,  -0.3377573192120,  -0.0884054824710,  -0.0309605263174,  -0.1479154080153,  -0.1758994609118,  -0.1007320806384,   0.0156136527658,   0.1180641800165,   0.3481986820698,  -0.3434643447399,  -0.1254034191370,  -0.5706852078438,  -0.2094638794661,   0.1628510653973,   0.3616232275963,   0.0779393017292,  -0.1087045818567,   0.2271929979324,  -0.2548837065697,  -0.2553480565548,   0.1605035513639,   0.2297499477863,   0.0366295203567,   0.4835697412491,   0.0662573501468,  -0.1855680048466,   0.5266787409782,  -0.2012103646994,  -0.1977919638157,   0.5510719418526,  -0.0748460218310,  -0.3691919147968,  -0.1467760950327,  -0.0124846892431,  -0.0546607710421,  -0.2654333412647,  -0.0811702087522,  -0.4206402897835,   0.2304752022028,  -0.1315668523312,  -0.2186550647020,   0.2208075970411,   0.2649683952332,   0.0905242711306,  -0.1050586178899,  -0.0908576995134,  -0.1346043348312,  -0.2702461779118,   0.2783858478069,   0.0147790750489,   0.4122528433800,   0.3105821609497,   0.3426969647408,   0.1815408766270,  -0.4058916866779,   0.0216161273420,  -0.1764128953218,   0.2664835155010,  -0.0274315048009,  -0.1485837697983,   0.2314943224192},
   {   0.0364434383810,  -0.2077084332705,  -0.0806710794568,   0.4713751971722,   0.1817924827337,  -0.4334758222103,  -0.1365804970264,  -0.0815736576915,  -0.0205015968531,  -0.3238908052444,  -0.2705067396164,   0.0508618168533,   0.4355529546738,  -0.1766898930073,   0.2483154386282,  -0.1670154333115,   0.1395351737738,  -0.0808940380812,   0.0601379238069,  -0.0756534934044,  -0.1019178107381,  -0.3369730412960,  -0.0097114173695,   0.1090736836195,   0.2886002361774,   0.2962938547134,  -0.3431630432606,  -0.2347997725010,  -0.1466446369886,   0.0475398302078,  -0.0123222488910,  -0.1372879147530,   0.5689988732338,   0.0836367681623,  -0.0460535846651,  -0.1570951789618,  -0.2500802576542,   0.1269702166319,   0.5040378570557,   0.1201159954071,   0.0660910680890,   0.0158474426717,   0.2342877984047,   0.0997274070978,  -0.1622850298882,  -0.1083834245801,  -0.1998896598816,   0.4041685461998,  -0.0573962181807,  -0.3980388343334,   0.2022450119257,  -0.2485119998455,   0.1957533955574,   0.0923073813319,  -0.2607053518295,  -0.0186534821987,   0.2335877120495,   0.1614074707031,  -0.1859388053417,  -0.1495561599731,  -0.4890415966511,   0.3786106109619,   0.1842971593142,   0.0396191552281,  -0.0883477777243,   0.2449319362640,  -0.3069003522396,   0.0505698099732,   0.1801002621651,   0.1376028954983,   0.2081875503063,  -0.1427367031574,  -0.0444927737117,  -0.3851940929890,   0.1389585286379,  -0.1005724892020,  -0.1499329507351,  -0.1864293068647,   0.3112058937550,  -0.0554391294718,   0.0030836786609,   0.2501084506512,  -0.4257285892963,   0.0707630217075,   0.2248647958040,  -0.0445658154786,   0.1267579495907,  -0.0720174610615,  -0.1320162117481,   0.2193934023380,   0.1614143103361,   0.2346796095371,  -0.0978266969323,  -0.1633087098598,  -0.3800090551376,   0.3541078269482,  -0.0196954812855,   0.0238045807928,  -0.2995333373547,  -0.0628358125687,   0.3235554993153,  -0.1831360906363,  -0.2186676561832,   0.0438693091273,   0.0181085132062,  -0.1792821139097,   0.0645236149430,  -0.0705073326826,   0.6419398784637,  -0.1208352297544,  -0.0262626837939,  -0.1462020874023,  -0.2496984452009,   0.0044118799269,  -0.4608616530895,   0.0481312125921,   0.0670619532466,  -0.0467537157238,   0.0531725995243,   0.6242862939835,  -0.2852421700954,  -0.0434360094368,   0.3738863766193,  -0.2045398503542,  -0.5372206568718,   0.2656150162220,   0.0074178613722,  -0.0493288412690,  -0.2757775485516,  -0.2944209873676,  -0.2089237570763,   0.3693143129349,  -0.0896858274937,   0.1868747323751,   0.1407883912325,  -0.3596916198730,   0.0636379867792,   0.0920150056481,  -0.2808179259300,   0.1625094711781,  -0.2738537192345,   0.2486140429974,   0.3556535840034,   0.5503487586975,  -0.4003849923611,   0.3771390616894,   0.1041817292571,  -0.1073441505432,   0.0476438477635,  -0.2717865109444,   0.3061036765575,  -0.1204795837402,   0.1523891687393,  -0.1811445206404,  -0.0006332444609,  -0.0319272726774,   0.2338120788336,  -0.3564969301224,  -0.1659077852964,  -0.0967828258872,  -0.2104237079620,  -0.3037802875042,   0.2939207851887,   0.2537723481655,  -0.2559466063976,   0.1335458755493,  -0.0771824568510,  -0.4274973869324,   0.2318140417337,  -0.3781268596649,   0.1047160774469,  -0.1330947279930,   0.1855386346579,   0.4419988989830,  -0.2100560665131,   0.4260551929474,   0.5892609357834,  -0.2790566980839,   0.2506766319275,   0.0439639426768,   0.0831422135234,   0.4867893457413,  -0.1186074540019,   0.3491386771202,   0.0379252173007,  -0.2274292707443,   0.1293063908815,   0.0682438015938,   0.0522840544581,  -0.4211409687996,   0.1391783356667,  -0.1423558592796,  -0.2388728559017,  -0.2090424150229,   0.3959397077560,   0.3239168226719,  -0.1175182610750,  -0.2762470543385,  -0.0223975013942,   0.0442890040576},
   {  -0.1929757893085,  -0.0538181886077,   0.1858669668436,  -0.4346635937691,   0.0365643873811,  -0.2750795483589,  -0.3812547922134,   0.0471711866558,   0.0633235424757,  -0.0530635453761,   0.2406704127789,  -0.3496986925602,  -0.1649623811245,   0.3642224967480,  -0.1150397807360,   0.0166437197477,   0.0844546258450,  -0.3288784325123,   0.2166270911694,   0.2169557958841,  -0.0251468662173,   0.3796700537205,   0.0722455680370,  -0.0719231218100,   0.1244484260678,  -0.2532696425915,   0.0224743764848,  -0.0435310900211,   0.0880990922451,   0.3290272355080,  -0.3003978431225,   0.0741499736905,   0.0684023946524,   0.1519800275564,   0.0190207529813,  -0.0010994129116,   0.1199918016791,   0.0306564848870,  -0.0284323059022,   0.2736678719521,  -0.2509353458881,   0.0275801979005,   0.0879809111357,  -0.1695485562086,   0.4061702191830,  -0.0082072587684,   0.0251333732158,   0.3127360641956,   0.3286244273186,   0.1269224584103,  -0.1884000301361,   0.2470458000898,   0.1852418780327,   0.1492175161839,   0.0923128575087,   0.0758946463466,   0.4078617691994,  -0.0864289924502,   0.4213359355927,   0.0427293516695,   0.0648930445313,  -0.0453592911363,  -0.2060392200947,  -0.3917473554611,   0.1033028066158,   0.0914893671870,  -0.1803387403488,  -0.2842437028885,  -0.4427510201931,   0.0218871496618,  -0.4572328925133,   0.2686506509781,  -0.2882012724876,  -0.2127728015184,  -0.0316573232412,  -0.0315479226410,  -0.2890836894512,  -0.0716536194086,  -0.2607105076313,  -0.4192220866680,   0.0702031627297,   0.1503119766712,   0.2872868478298,  -0.2045445293188,  -0.0344156101346,  -0.2184708416462,   0.1132925823331,  -0.2009744644165,   0.2227531522512,  -0.3083306550980,   0.0084126666188,   0.1933185458183,   0.2216866761446,  -0.4276793897152,   0.2099489867687,  -0.1390252858400,   0.5543338656425,   0.0562749095261,  -0.3340969681740,   0.2177628129721,   0.3137337565422,  -0.3526877462864,  -0.1054704561830,  -0.3717317879200,  -0.2534064948559,   0.2988320887089,  -0.2124506980181,  -0.4585870504379,  -0.0731201544404,  -0.0265103559941,  -0.1653724163771,  -0.1390691995621,   0.1131865754724,  -0.0187928844243,   0.0994831994176,  -0.3228549957275,   0.6046377420425,   0.2448486685753,   0.1173979341984,  -0.4191329181194,   0.1101215258241,   0.1366352885962,   0.2922683358192,  -0.1105839088559,  -0.3182438611984,   0.6001952886581,  -0.3592433929443,  -0.2891548275948,  -0.1168247237802,  -0.2799477279186,   0.2056083083153,  -0.2408636957407,   0.3679370880127,  -0.1962850391865,  -0.0616142302752,  -0.1854326277971,  -0.1638101041317,   0.3217714428902,  -0.3974426686764,   0.1762674599886,   0.1514408588409,   0.2341178655624,  -0.1029503792524,   0.1561855077744,   0.2755114138126,   0.0223374534398,  -0.1967444866896,  -0.4625482857227,  -0.2464272379875,   0.2361565381289,  -0.2258799970150,  -0.2412024289370,  -0.0547393001616,   0.0458330325782,   0.1882987320423,   0.0185077041388,  -0.1083438247442,   0.3446584641933,   0.2106849551201,  -0.0560207664967,  -0.1008040457964,   0.1173790991306,   0.2144499421120,  -0.0854673832655,   0.1543895900249,   0.0071535403840,  -0.3373839855194,  -0.1708710044622,   0.2168327271938,   0.0456568524241,   0.0281692929566,   0.0911657959223,  -0.2365150898695,   0.2671129405499,   0.1742682307959,   0.2898390591145,  -0.1626184880733,  -0.0278155710548,   0.2271218448877,   0.3513858914375,  -0.3356085419655,  -0.2596857845783,  -0.2115944623947,   0.0947956368327,   0.3065029084682,  -0.0737735405564,   0.1921059787273,   0.4456073343754,  -0.0840026810765,   0.1263337582350,  -0.3784479796886,  -0.1113528311253,  -0.2391507178545,  -0.0041368566453,  -0.0166750196368,   0.0755925178528,   0.0435995645821,  -0.0154871586710,   0.0416596420109,   0.0566010139883},
   {  -0.2310581207275,  -0.0467472076416,  -0.3825955390930,  -0.3126333355904,   0.2300007194281,  -0.1580047905445,   0.1042024940252,  -0.2086705118418,  -0.0625581964850,   0.3348742723465,   0.1836253851652,  -0.0586002357304,  -0.3147217631340,   0.0471551530063,  -0.0730735734105,  -0.0183218754828,  -0.3119616806507,  -0.2420676201582,   0.2696463763714,   0.1398439705372,   0.2834605574608,   0.1463470906019,   0.1771621406078,  -0.0341624021530,  -0.1937674582005,   0.2506150603294,  -0.1227259635925,  -0.3496080338955,  -0.0895290300250,   0.1159259825945,   0.0497947111726,  -0.2355950325727,   0.0484023764729,   0.1867801100016,   0.0760342404246,   0.4345819354057,  -0.3084761202335,   0.0652475655079,  -0.0969045758247,  -0.0637782067060,  -0.2125262618065,  -0.1988768428564,   0.3515381217003,   0.3065415620804,  -0.2366245985031,   0.1727633774281,  -0.2525414824486,   0.2996095120907,   0.3361153006554,   0.3543052971363,   0.0506074279547,   0.2977909147739,   0.3783250451088,  -0.0570176094770,  -0.1124183312058,   0.7194067239761,   0.1194657534361,   0.1982843577862,   0.2135992497206,  -0.2019859254360,  -0.2874242961407,   0.0818334519863,  -0.3608261644840,   0.1428092718124,  -0.1752432435751,  -0.3193914294243,  -0.2456992417574,  -0.1880275905132,   0.2405050545931,   0.1620618999004,  -0.1319913268089,  -0.2017715722322,   0.0367297381163,  -0.2363129109144,   0.2468325197697,   0.2235783487558,  -0.2031560540199,   0.0740998387337,  -0.1132131367922,   0.1038270518184,   0.4703247845173,   0.1308046728373,   0.2961450219154,   0.0319392681122,   0.1590731143951,  -0.1149895191193,  -0.1456122994423,  -0.2618714570999,  -0.0834347754717,   0.0073117339052,   0.3975806236267,   0.1309406906366,   0.1346278339624,   0.3690375089645,   0.1346503198147,  -0.1187702938914,  -0.3658927679062,  -0.1284586787224,   0.1664540320635,  -0.1734087169170,  -0.2510807216167,   0.1469686627388,   0.1052168756723,   0.2450989931822,  -0.2538298964500,   0.1907618194818,  -0.0494301207364,   0.1054205000401,  -0.2697584033012,   0.0249637644738,  -0.1364274322987,  -0.2863248884678,  -0.1949461698532,   0.1221528872848,  -0.0892477110028,  -0.1872016936541,  -0.4158513545990,   0.4252589643002,   0.2276161164045,  -0.3830297291279,   0.1701438277960,   0.0197156760842,  -0.2298546880484,   0.0282975584269,  -0.2177064567804,  -0.2134408801794,   0.0427849404514,  -0.2693153321743,  -0.1031089723110,  -0.0551597215235,   0.3479436039925,  -0.1150109842420,  -0.0518531985581,  -0.2394118458033,   0.0479530356824,   0.2971954345703,  -0.0491295643151,  -0.0805713459849,  -0.0491463504732,  -0.1034267321229,   0.1187732443213,   0.1829836070538,   0.0505571253598,  -0.1021480262280,   0.0239720828831,   0.1129504516721,   0.1045709922910,   0.0492824278772,  -0.0179844629019,  -0.0490461401641,  -0.0773292928934,  -0.0112149193883,  -0.2453578412533,  -0.2323727905750,  -0.0403561256826,  -0.1713399887085,   0.1867066770792,  -0.3699789941311,   0.0648310035467,   0.1991941183805,   0.0734455958009,   0.3308261334896,  -0.1323709338903,  -0.1666267067194,   0.0382210165262,   0.3842980265617,  -0.1844551116228,   0.2731194794178,  -0.2925544679165,   0.3070837855339,   0.2774581909180,  -0.2136119008064,  -0.1766248494387,   0.0135406497866,   0.0995231047273,  -0.0805543884635,  -0.1599284112453,  -0.1219951212406,   0.0237128436565,   0.0549924746156,   0.2956992685795,   0.3195825517178,  -0.4641769528389,  -0.0102645419538,  -0.1937173604965,  -0.0869715362787,  -0.0052866078913,   0.1265545785427,  -0.3498388826847,   0.2698724567890,  -0.0649131312966,  -0.1012900471687,   0.1653123646975,  -0.0084625147283,   0.0329083241522,   0.0706260353327,  -0.3984454572201,  -0.0905701890588,  -0.1484482884407,   0.2451795190573},
   {   0.1662612706423,  -0.0227770078927,   0.0717633813620,   0.2499019205570,  -0.1780504137278,  -0.1886049509048,   0.3200120329857,   0.1659644991159,   0.1648067831993,   0.1508838385344,  -0.1053368672729,   0.3145008981228,   0.1692983359098,  -0.3579545617104,   0.0205647051334,  -0.3177125155926,  -0.0524481572211,   0.2498700320721,  -0.2690180540085,   0.3641413450241,   0.4100759625435,   0.2711978256702,   0.0030474381056,   0.0316448360682,  -0.3678251802921,   0.0265271104872,  -0.2504328489304,  -0.1796930283308,  -0.1670926362276,   0.0328567028046,  -0.3346379697323,  -0.2894873321056,   0.1668219864368,  -0.1680013239384,   0.2385038286448,   0.1958174556494,  -0.2184676527977,  -0.0552065297961,   0.0436223037541,  -0.0136903738603,  -0.3110044896603,  -0.0711427032948,   0.3019809424877,   0.0452406406403,   0.3720668852329,   0.3024198114872,  -0.1432361453772,  -0.2308696210384,  -0.2137110084295,   0.2007366716862,   0.3505140244961,  -0.5686466097832,  -0.0288449469954,   0.0583201348782,   0.0585171990097,   0.0024410062470,   0.3123862445354,  -0.0967933759093,  -0.5784660577774,   0.2756140530109,   0.2025046348572,   0.0461100824177,   0.1610644608736,   0.0098438505083,   0.2465529590845,   0.2686470448971,   0.2449361383915,  -0.3282582163811,   0.3477826416492,  -0.4523013532162,  -0.1032985821366,   0.2692754566669,   0.0269451886415,   0.0945842936635,   0.2201188951731,   0.1888864487410,   0.3455443978310,  -0.0479754768312,  -0.3728677928448,  -0.3412931561470,  -0.1190216317773,   0.0808759704232,  -0.1368911415339,  -0.0670866668224,   0.3728568255901,   0.1228782236576,   0.4178643226624,   0.0905786976218,  -0.1367016732693,  -0.4225887060165,  -0.4892225563526,   0.3563702106476,  -0.0720253810287,  -0.2653247117996,  -0.2023871392012,  -0.2812339365482,   0.2618351578712,   0.0807642415166,  -0.2627610266209,   0.3253881633282,   0.4429001808167,  -0.0653654262424,  -0.0906678885221,  -0.3211931288242,  -0.2218209952116,  -0.2647163867950,  -0.0344493985176,  -0.0777059942484,   0.0911419540644,  -0.1027716025710,   0.1449069529772,  -0.5626659393311,   0.1350133568048,  -0.1993456482887,  -0.0719691291451,   0.2138684093952,  -0.0974777862430,   0.2920312285423,  -0.1362593173981,  -0.2070783823729,  -0.2741641998291,   0.0977006778121,   0.1430902928114,  -0.3318556547165,  -0.1670759916306,  -0.2777243256569,   0.2725311815739,  -0.3851073980331,   0.1650868058205,  -0.1402584463358,   0.1420642286539,   0.2503760457039,  -0.2624875903130,   0.2402504980564,   0.2664417922497,   0.2084405869246,   0.3812242746353,  -0.1110361516476,   0.4616286158562,   0.2129326611757,   0.2833385169506,  -0.2231667190790,   0.0883382260799,   0.0700985267758,  -0.2127246558666,  -0.2168872505426,   0.1492294818163,   0.0422897003591,  -0.3757729530334,  -0.2362825572491,  -0.2933678627014,   0.1853926330805,   0.1768914461136,   0.2157888263464,   0.2232416421175,  -0.2472675740719,  -0.0001665158634,  -0.0232375338674,   0.3645604550838,   0.2750085890293,  -0.0852844715118,  -0.4742543399334,   0.0624714195728,   0.2965551316738,  -0.0251002646983,  -0.1153164729476,   0.0804580003023,   0.1631828248501,  -0.1468445211649,  -0.1234706491232,  -0.0549170821905,   0.6110707521439,   0.0146949412301,   0.3130485117435,  -0.1452823728323,   0.3834925889969,   0.2649178206921,   0.0897432491183,   0.5318183302879,   0.2126563191414,  -0.1181901395321,  -0.2095033675432,  -0.0700804591179,  -0.3796275258064,   0.1688970178366,   0.0358072891831,  -0.1037955135107,   0.0596086233854,  -0.1071676388383,   0.1776007264853,   0.0067316461354,  -0.1593863964081,  -0.4124065637589,   0.1613515466452,  -0.2362766861916,   0.3083750009537,   0.3901820182800,   0.2638568580151,  -0.1573792845011,   0.3003425300121},
   {   0.0911898389459,   0.1544985920191,  -0.1222771257162,   0.1212216168642,   0.0156100587919,  -0.2358682900667,   0.2702665328979,  -0.2187378555536,   0.1135499700904,   0.0171400792897,  -0.2967040240765,   0.0927356034517,  -0.3675755858421,   0.0474514104426,   0.0054019200616,   0.3187565505505,  -0.0395690724254,   0.2461607009172,  -0.4396351873875,   0.1861126422882,   0.1621400415897,   0.3412075340748,   0.0606416389346,   0.0251834653318,   0.2288591563702,   0.3098263442516,  -0.0315127559006,  -0.1481877267361,   0.1791773289442,   0.7179265618324,   0.4508287906647,   0.2245701402426,   0.2897863686085,   0.2232579588890,  -0.2588298022747,  -0.3225761055946,  -0.1218520104885,  -0.2920406162739,   0.2337889671326,  -0.3328969478607,  -0.4213210940361,  -0.4245117306709,   0.1529070287943,   0.4198687672615,  -0.1406996548176,  -0.0902897492051,  -0.2977739274502,   0.1609483659267,  -0.1300946623087,   0.0185720156878,   0.0467167943716,  -0.2952976822853,  -0.2645025551319,  -0.0387671031058,   0.0430886372924,  -0.0552574694157,   0.2295065671206,  -0.0614419765770,   0.0379304029047,   0.2678452432156,  -0.2179874330759,  -0.0136540057138,  -0.3531231880188,   0.1165386512876,   0.0554419644177,   0.1902167946100,   0.3201131224632,  -0.5029292702675,   0.1058430448174,   0.0812055990100,  -0.4600989222527,  -0.1226432174444,   0.3110032975674,   0.2100973725319,  -0.0045137815177,   0.1535374224186,   0.0909004136920,  -0.4237720668316,   0.1312676221132,  -0.0963610783219,   0.2046597450972,   0.0495562292635,   0.3565218150616,   0.4715617597103,   0.2116867452860,   0.0185308866203,   0.1935542225838,  -0.2188875228167,   0.0063198585995,  -0.1335081309080,   0.1858672797680,   0.0221687294543,  -0.2767791450024,   0.1359180659056,   0.1146088019013,  -0.1327791213989,  -0.1757119446993,  -0.1952895820141,   0.0336859375238,  -0.3739235103130,  -0.3959417939186,  -0.1587633490562,  -0.1761986613274,  -0.1538916677237,   0.2181018888950,  -0.2610674202442,   0.1899531632662,   0.2474884241819,  -0.0220379233360,   0.1078010499477,   0.0036760794464,  -0.1248812824488,   0.2175880223513,   0.1288834959269,  -0.0007101184456,   0.2614563703537,   0.0916063711047,   0.1960360109806,  -0.2580457925797,  -0.0192515924573,   0.0248066689819,  -0.0479322969913,   0.0222029443830,  -0.0326918400824,  -0.3946914374828,   0.3596201241016,   0.0251648258418,  -0.3439882397652,   0.1442304104567,   0.1060022562742,  -0.0230913441628,  -0.1010138168931,  -0.3843489587307,   0.3183777332306,  -0.0515456497669,   0.2420956045389,  -0.3008389770985,   0.1875323802233,  -0.0174045637250,   0.0894220024347,  -0.2314865589142,   0.2363476902246,   0.0541795678437,   0.0181126128882,   0.0708695873618,   0.4253719747066,  -0.3369677066803,  -0.5192459225655,  -0.3075185716152,  -0.3235510289669,  -0.3651996552944,   0.0302178151906,   0.0397750847042,   0.2541719377041,  -0.0842165276408,  -0.0926941558719,  -0.0070550898090,   0.0337742231786,  -0.0417123734951,   0.2776664495468,  -0.1229650601745,  -0.2404073327780,   0.0380035303533,  -0.1390366107225,   0.1984894722700,  -0.0675313323736,  -0.0783963501453,   0.2020216584206,   0.0013377688592,   0.2590871751308,   0.4166707992554,   0.1731604486704,  -0.2373902946711,  -0.1318026334047,   0.1427286118269,   0.0595830343664,  -0.0247584693134,   0.0543473213911,  -0.3016065359116,  -0.0738953426480,   0.1946975290775,   0.1195163875818,   0.1223611757159,  -0.0862568542361,  -0.0686463564634,  -0.1655024886131,   0.1467387974262,  -0.0320603176951,   0.2757071852684,   0.7049367427826,  -0.3912384808064,   0.1467326730490,  -0.1172454506159,  -0.1650582402945,  -0.0569994263351,   0.2291238009930,  -0.1260261833668,  -0.0196368824691,   0.3835293054581,   0.1572706103325},
   {   0.1192224249244,  -0.0835725590587,   0.0379525981843,  -0.2498907744884,  -0.1113180518150,   0.0841873884201,  -0.0507312268019,  -0.2716969847679,   0.0963904932141,   0.2167465090752,   0.0262271203101,  -0.0720220953226,  -0.1478315144777,  -0.3371203243732,   0.1169987767935,  -0.4508738815784,   0.2672527134418,  -0.2447495311499,  -0.3121786117554,   0.1841059178114,   0.2021035254002,   0.0063961460255,   0.0702128633857,   0.0655317679048,  -0.0434722825885,   0.3345682322979,  -0.4668391048908,   0.0341964513063,   0.0018850538181,   0.3886433839798,   0.0118521843106,   0.0757067278028,   0.0458493754268,  -0.3131318688393,   0.2681233584881,  -0.2861225903034,  -0.2420946508646,  -0.0014470462920,   0.1615529507399,   0.3861331343651,  -0.3721961379051,  -0.0117511115968,  -0.1179456189275,  -0.1502709239721,  -0.2353755831718,  -0.0877119898796,   0.2862916886806,   0.0705228447914,  -0.4319569170475,  -0.0131118251011,  -0.1776561141014,  -0.1585877537727,  -0.3622059524059,  -0.3931741714478,   0.1498182266951,  -0.1931872814894,   0.1102712452412,  -0.0970325544477,  -0.1162718385458,  -0.3268044292927,  -0.4417567849159,  -0.3853580951691,   0.0608404278755,  -0.1498730033636,   0.1496980488300,   0.0062815467827,   0.2923699915409,   0.1865303814411,   0.1774569600821,  -0.1379072368145,  -0.0885273069143,   0.2192134857178,  -0.1289919614792,   0.0579802654684,   0.2576197683811,   0.3760985136032,  -0.2507324516773,  -0.1501849144697,   0.0278905667365,  -0.5285409688950,  -0.1239305287600,   0.1116907969117,  -0.0484902262688,  -0.0946082249284,   0.1285583972931,  -0.3552337288857,  -0.0598076954484,  -0.2490516602993,  -0.1674924343824,  -0.3191054463387,  -0.1969651430845,  -0.3544574677944,  -0.3467920422554,  -0.2835724353790,   0.2086720317602,  -0.3032314777374,   0.3293321430683,  -0.1474411040545,   0.1288047134876,  -0.3409005403519,  -0.4011532664299,  -0.3069638907909,   0.0142981102690,   0.0338381826878,   0.0552420467138,   0.0370107665658,   0.2719757556915,   0.2242619097233,   0.1828764081001,  -0.0362025499344,  -0.3188476562500,  -0.1291498243809,   0.1746575981379,  -0.2401244193316,  -0.2553391456604,  -0.2797792255878,   0.0380339547992,  -0.2568481862545,  -0.4950066208839,   0.2590944766998,   0.2349327504635,  -0.0701495558023,  -0.0690031200647,  -0.3640277385712,  -0.0574038960040,  -0.2183387130499,   0.0374730117619,  -0.4810014367104,   0.2954629361629,   0.1261581927538,  -0.2107895463705,  -0.1559195667505,   0.4217849671841,  -0.1728866547346,  -0.1888895183802,   0.2548547387123,   0.3498088121414,  -0.3053405880928,   0.0557172521949,   0.3805757462978,   0.1731526255608,  -0.1902820467949,  -0.1135020181537,   0.2667735815048,   0.4306978285313,  -0.2071465104818,   0.3465236425400,  -0.2754259407520,  -0.2441930472851,   0.1989378929138,  -0.2904102802277,  -0.4030358493328,   0.0203814655542,   0.3510392308235,   0.0692263618112,  -0.3054720759392,   0.2859085798264,  -0.1326582729816,   0.0021976474673,   0.2557341158390,  -0.4899967312813,   0.5062410235405,   0.3010079562664,  -0.1317617893219,   0.3113720715046,  -0.2479060739279,   0.2621710002422,  -0.1672759652138,   0.2737943530083,  -0.1276525855064,   0.0906804129481,   0.2974632978439,   0.0276356507093,   0.1363959610462,  -0.1453473120928,  -0.2667173743248,   0.0374382883310,   0.3974507749081,   0.0119386930019,   0.0287149809301,  -0.2126306891441,   0.1057544127107,  -0.0479434095323,   0.0957762897015,  -0.2644556164742,   0.1625105738640,   0.2444990575314,   0.1737118214369,  -0.0326169542968,  -0.2576602995396,   0.2849218249321,   0.4270237386227,  -0.1036241203547,   0.2107776552439,  -0.2277671843767,   0.0858991071582,   0.1805747300386,  -0.3294329345226,  -0.2954003810883,   0.2322159856558},
   {   0.1578229218721,   0.2627029716969,  -0.1670021265745,   0.1507067978382,  -0.1730078458786,  -0.5118859410286,  -0.1522054821253,   0.0389658249915,   0.3337426483631,  -0.0832660794258,   0.0286709964275,  -0.4241866171360,   0.1335350722075,   0.3249355554581,   0.0211094748229,   0.2339051216841,   0.0134321935475,  -0.4194546639919,   0.0376057028770,   0.1026032492518,  -0.0648609772325,  -0.0102089941502,  -0.1769294440746,  -0.0893063321710,  -0.0928486138582,  -0.1322510242462,  -0.2759942412376,  -0.1314740180969,   0.0364984981716,   0.0104067921638,   0.1452925205231,  -0.2917895019054,   0.0069312341511,   0.0595947206020,   0.3051577210426,  -0.3234375119209,  -0.1934429407120,  -0.3535009324551,   0.3356389105320,   0.3135235905647,   0.1686265915632,  -0.0852643027902,   0.1046593710780,   0.2085302174091,   0.2097987234592,   0.2079194039106,   0.3093829452991,   0.3585028350353,  -0.3604491949081,   0.0714442878962,   0.0558478236198,  -0.1991292536259,  -0.0794928371906,   0.0056563741527,   0.0208569709212,  -0.4188958704472,  -0.4568962454796,   0.1562829464674,  -0.2601636052132,   0.0365246422589,  -0.2387595623732,   0.1372399777174,   0.0911232680082,  -0.1922795325518,   0.0630895346403,   0.1362728476524,   0.2532973587513,  -0.2611261606216,   0.5199278593063,  -0.2269005924463,  -0.2849584519863,  -0.0300982762128,  -0.2832144498825,  -0.0376133807003,   0.1547651439905,   0.0799023732543,  -0.0234695412219,  -0.0881631597877,   0.0074199642986,  -0.1090141013265,   0.1300912201405,   0.0143089834601,   0.1772412210703,   0.1200851500034,  -0.0309206601232,   0.2881753742695,   0.1179670318961,   0.0706210732460,  -0.0927680805326,  -0.2986120581627,   0.0541264228523,   0.2244793623686,  -0.0188563428819,  -0.1092561557889,   0.1870144903660,  -0.0358085110784,  -0.2450119704008,  -0.0881309658289,   0.2275343686342,   0.3472566306591,  -0.3464184403419,   0.1154296845198,  -0.0284590907395,  -0.3972140252590,  -0.3138386309147,  -0.1186553090811,  -0.0210435055196,   0.1456902325153,  -0.1721729934216,  -0.1394299864769,   0.0990152433515,  -0.1218345835805,   0.0268459413201,  -0.3273410499096,   0.3146294355392,   0.0216265041381,  -0.0728945434093,  -0.4563074111938,  -0.1279675513506,  -0.2038125544786,   0.3649086952209,   0.0587234012783,   0.3138115704060,   0.1159476637840,  -0.0640894994140,  -0.0342506244779,   0.0639246031642,   0.0203759483993,  -0.1597820222378,  -0.3754588663578,  -0.0550327263772,   0.1198408976197,   0.1825690716505,   0.0375017337501,  -0.3991649150848,  -0.0156115349382,   0.1374533772469,  -0.0672774687409,  -0.1161255240440,   0.0112288519740,  -0.3026963472366,  -0.5177538394928,  -0.1020695790648,  -0.2640137672424,   0.0178068857640,   0.2095207720995,   0.1687428504229,  -0.1385097652674,  -0.2918561995029,   0.2320216298103,  -0.2273571193218,  -0.0308986511081,  -0.1737149357796,   0.1240923851728,   0.0833319202065,   0.2524247765541,  -0.2244602292776,  -0.2249383777380,  -0.1837400048971,  -0.4284009933472,  -0.4090205132961,   0.0176793970168,   0.1424037814140,   0.2391573041677,   0.4152604937553,  -0.1896488666534,   0.3415899574757,   0.1569386422634,   0.2653319239616,  -0.3134074807167,  -0.3812018334866,  -0.3983244001865,   0.0400947630405,   0.0617253519595,  -0.3123813569546,  -0.2281678318977,   0.2548977732658,   0.2517285645008,   0.1186356917024,   0.1352336555719,   0.2414362579584,   0.2714778184891,   0.3716940581799,   0.1083315834403,  -0.0419293306768,   0.1528609991074,  -0.3202950358391,   0.2065869122744,  -0.0615634359419,   0.3556778132915,   0.2059280872345,   0.3674508631229,   0.1343698501587,  -0.1840226501226,   0.1384001970291,   0.1692234426737,   0.3253369927406,   0.2468800395727,  -0.2325448393822,   0.1774551272392},
   {   0.5000337958336,   0.0409227274358,   0.1473185569048,  -0.0279980041087,   0.1048908084631,  -0.0364796817303,   0.5379409790039,  -0.1435991376638,  -0.1033356860280,  -0.0158256720752,   0.2029328048229,   0.1675651371479,  -0.3551987111568,   0.3839225471020,  -0.0059986785054,   0.2057250142097,   0.3746802806854,  -0.1621500104666,   0.1750108003616,   0.2400355637074,   0.0121003650129,   0.0850752890110,  -0.3972900211811,  -0.1857596188784,  -0.4446685016155,   0.4795695543289,  -0.1727875471115,  -0.1838200241327,  -0.3293564319611,   0.2503843903542,   0.0667764544487,  -0.6304553151131,   0.5255665183067,  -0.1920351684093,  -0.0127009814605,   0.2175599038601,   0.2315666079521,   0.0778953656554,  -0.1769170314074,   0.2204957455397,   0.0924511849880,  -0.4825154542923,  -0.3546894788742,  -0.2864417135715,  -0.1344977915287,  -0.3233908712864,  -0.2361825853586,   0.0322296507657,  -0.2933734059334,  -0.2291614413261,  -0.0955522432923,   0.2479309141636,  -0.3912356495857,   0.3263911306858,   0.3242933452129,   0.2175205647945,   0.2628351747990,  -0.4792986810207,   0.1592158973217,   0.2326285988092,   0.0035179776605,  -0.0393529012799,   0.2051548510790,  -0.5224690437317,  -0.0995700880885,   0.2849366068840,   0.2853139340878,  -0.4441286921501,  -0.2231957018375,   0.0356929935515,  -0.3324546515942,  -0.2160736918449,   0.3348168730736,   0.0369246043265,  -0.3370831310749,  -0.0324323922396,  -0.2775498628616,  -0.1928888708353,  -0.3776201605797,  -0.0962544158101,   0.0311901010573,  -0.0627499148250,   0.0000132535206,   0.0635276734829,  -0.2377566248178,  -0.1448342353106,  -0.2305490523577,   0.1520504504442,   0.2912893891335,  -0.3861449360847,  -0.4285923242569,   0.3982105851173,   0.0453712232411,  -0.2594334185123,  -0.0047720451839,  -0.3765330910683,  -0.2028647512197,  -0.1078237071633,  -0.2645084261894,   0.0850932374597,   0.2164797484875,  -0.0636300891638,   0.2726308107376,   0.4444823563099,  -0.0296027176082,   0.1647694557905,  -0.1768978387117,  -0.2959158122540,   0.2249787598848,   0.1583284288645,  -0.3581060469151,   0.1720866262913,   0.1676004379988,  -0.1647025048733,  -0.1946734637022,   0.2255091816187,  -0.3430214226246,  -0.2166651040316,   0.3491309285164,   0.0680286660790,  -0.0338838957250,   0.3071292042732,   0.0610391274095,  -0.2309866249561,  -0.1129808127880,  -0.1807835549116,   0.3109374046326,  -0.0848053097725,  -0.1090327948332,   0.4536954164505,   0.0109573658556,  -0.4278033077717,  -0.1644607931376,  -0.2922921776772,   0.1012304201722,   0.3540146946907,   0.2718441188335,  -0.0765710324049,  -0.4095126390457,   0.0243402365595,   0.0701059103012,  -0.3586151301861,   0.3571818172932,  -0.1986936926842,  -0.2906874418259,  -0.1458968967199,   0.3048375248909,  -0.2747687995434,  -0.3547307848930,  -0.4111003279686,   0.3180462419987,   0.0434808172286,   0.4191295802593,  -0.0546394735575,  -0.1888587921858,  -0.4618701636791,  -0.0547152943909,  -0.5218356847763,  -0.3108294010162,   0.3045375943184,  -0.2482185214758,   0.3805747628212,   0.2813891172409,  -0.6382352113724,  -0.3832411468029,  -0.5473526716232,   0.0196073222905,  -0.3022973835468,  -0.0025497744791,   0.1802226006985,   0.2223769724369,   0.1103577390313,  -0.0086550600827,  -0.0241711735725,   0.0944101065397,  -0.0492054298520,   0.2919785082340,   0.5010596513748,  -0.0841745138168,  -0.3733431100845,  -0.4766180217266,   0.3024471104145,  -0.3194147050381,   0.3651788830757,   0.3290016651154,  -0.1717125922441,   0.0131790293381,   0.4930170476437,  -0.0435127839446,   0.0508849173784,  -0.0748119428754,  -0.1002354845405,  -0.0114751374349,   0.2924077510834,  -0.4768640398979,  -0.1739197522402,  -0.2038218379021,  -0.3485851883888,   0.0204820521176,  -0.2439836561680},
   {  -0.3325543701649,  -0.2976175844669,   0.2470524013042,  -0.3114928305149,  -0.0605371929705,   0.0853362008929,  -0.2527395784855,   0.2089882194996,   0.3522031605244,   0.1150397807360,  -0.2803199291229,  -0.1249137818813,  -0.3219276666641,  -0.3950031399727,   0.2281032800674,  -0.4345128536224,  -0.1381819397211,  -0.3227761387825,  -0.0589755624533,   0.3072070479393,   0.3020381033421,   0.1507227569818,  -0.1942155212164,   0.1967252194881,   0.1650152057409,   0.1734752953053,  -0.3644751608372,   0.1508364826441,   0.2324412018061,  -0.1780918091536,   0.0579741746187,   0.2774699330330,  -0.1758436709642,   0.0914311334491,  -0.2482779622078,  -0.2837619185448,   0.3542931377888,   0.0628921091557,  -0.0445327237248,  -0.1595343649387,  -0.4142858982086,  -0.0987218916416,   0.3034833669662,  -0.1937008202076,   0.2378935962915,  -0.3663965165615,  -0.0436811335385,  -0.0311893355101,   0.0077062337659,  -0.2636355459690,  -0.0229643024504,  -0.2719486653805,   0.2359512746334,  -0.1271051019430,   0.1824329644442,  -0.1224460154772,  -0.3856785893440,   0.0234102550894,  -0.1185376346111,  -0.2515057027340,  -0.0180940609425,   0.4358367919922,  -0.0949927717447,   0.1464779824018,  -0.1317916810513,  -0.1694599539042,  -0.0885888487101,   0.3756956756115,   0.1870429515839,  -0.0251116827130,   0.3323596417904,  -0.0452888645232,   0.1636377722025,  -0.2510911524296,   0.1833121329546,  -0.0601827763021,  -0.3510427176952,   0.4159931242466,   0.2843402326107,   0.0348114110529,  -0.0794076323509,  -0.2367563545704,  -0.3728379309177,   0.1310763806105,  -0.0236325971782,  -0.2454635649920,   0.4593020975590,  -0.6306297183037,   0.2351013571024,   0.3284660875797,  -0.2488574534655,   0.0670550018549,   0.1158086135983,  -0.7480581998825,  -0.0910168811679,  -0.3542789816856,   0.0381489172578,   0.0139454742894,   0.0973118394613,  -0.2616145014763,   0.3123840093613,   0.4065555632114,  -0.2227129191160,  -0.4118868708611,   0.3134253323078,  -0.0611609928310,   0.2592226862907,   0.2888824939728,  -0.0843161717057,  -0.1187362819910,   0.2000839114189,  -0.0219839774072,   0.0977329686284,  -0.2431503087282,  -0.0363800674677,   0.0716827064753,   0.1619236022234,   0.1156850680709,  -0.3967161178589,  -0.3357337117195,  -0.0928921476007,  -0.0054141608998,   0.4809045195580,   0.1103984192014,  -0.5395862460136,   0.5700249075890,  -0.1641269922256,  -0.1733223497868,  -0.0730441734195,  -0.1839840561152,  -0.0615622699261,  -0.4797463417053,  -0.4043812453747,  -0.1781190484762,  -0.1564761698246,  -0.4934713244438,   0.3648314476013,  -0.1723018139601,   0.3686827123165,  -0.3385760188103,  -0.2443272918463,  -0.3002526462078,   0.0598957724869,  -0.1055723130703,  -0.0372552387416,   0.5198284983635,  -0.0231903605163,   0.0167490243912,  -0.2725571990013,   0.3025893867016,   0.2220399081707,   0.0350437983871,  -0.3062708377838,   0.0140982577577,  -0.1996761709452,   0.2295310199261,  -0.3281377255917,   0.3938654661179,   0.2135776877403,  -0.3526290953159,   0.1102022752166,   0.0761737823486,   0.1070662513375,   0.2924265861511,   0.0076118675061,   0.3026611804962,  -0.1624863743782,  -0.2181354314089,  -0.3983133137226,  -0.3421127200127,  -0.1898560523987,   0.1268157809973,   0.1294822841883,  -0.4690266549587,   0.0134440315887,  -0.1499956250191,  -0.2309855222702,   0.2487306296825,   0.0964054018259,  -0.1693857759237,   0.0361666120589,   0.0878816843033,   0.3489094972610,  -0.1038837283850,  -0.2749949693680,  -0.2505662143230,   0.1917361617088,   0.0849534496665,   0.1836151778698,  -0.2356348633766,  -0.1890674233437,   0.2688584327698,   0.1685598343611,  -0.0639526695013,  -0.2334238886833,  -0.1145615130663,  -0.2910429239273,  -0.2425333559513,   0.2721015214920,   0.2453939616680},
   {  -0.1376047134399,  -0.2337365895510,   0.3379740417004,  -0.1876399517059,   0.1348136067390,  -0.0252304375172,   0.0577164031565,   0.3367545306683,   0.3229952156544,  -0.0474210344255,  -0.4055158793926,   0.0822293385863,  -0.4844753444195,   0.1537741869688,  -0.2623377442360,  -0.0740362703800,   0.0732412934303,   0.2051657289267,  -0.2463572174311,  -0.2882022559643,  -0.2138361930847,   0.1270448565483,  -0.3743647933006,   0.0925634503365,  -0.2164828032255,  -0.0050429557450,  -0.1035533398390,   0.1287822872400,   0.1588708460331,   0.2668626904488,  -0.1492121815681,  -0.1287600845098,  -0.1844686418772,  -0.1018640473485,  -0.1398230940104,  -0.2819984257221,  -0.2846361994743,  -0.1779807806015,   0.3804321289062,  -0.3260762393475,   0.1759953498840,  -0.0518809668720,  -0.0114510310814,   0.0569716729224,   0.0882485732436,  -0.0163383018225,   0.0034680834506,  -0.0879695937037,   0.2345508635044,   0.4271990060806,  -0.1431109905243,  -0.3064293861389,  -0.4200519323349,  -0.1099894642830,  -0.0611086264253,   0.1931439042091,  -0.1628308594227,  -0.2113893926144,   0.0047372234985,  -0.3947177827358,  -0.2328332662582,   0.3754023611546,   0.0683326423168,   0.3486392199993,   0.0251510776579,  -0.0999020412564,   0.5644114613533,   0.2807901501656,  -0.0723542869091,   0.0431221090257,   0.1559378951788,  -0.1928031742573,  -0.0629722550511,   0.2962658405304,  -0.3063419759274,  -0.3406332731247,   0.3668693304062,  -0.3516907095909,  -0.0461626127362,   0.0779907628894,  -0.1000506356359,  -0.0365952625871,  -0.1139450743794,  -0.3764829933643,  -0.2457002848387,   0.1397803723812,   0.3185853660107,   0.1160058826208,   0.0528504811227,   0.3483239114285,   0.0236522294581,   0.2569602131844,  -0.1080728918314,   0.3998885750771,  -0.0351530686021,   0.2091666460037,  -0.2473223507404,  -0.0106942085549,  -0.4165090918541,   0.2380347251892,   0.0642160624266,   0.3056764006615,   0.0191245637834,  -0.1491181403399,   0.5105274915695,   0.3255846500397,  -0.1651696115732,   0.0532370246947,   0.0563412979245,   0.0130401644856,  -0.1708977371454,  -0.1825549155474,   0.3305982053280,   0.2087381780148,  -0.0692226812243,   0.0188938993961,  -0.2304296791553,  -0.1905009150505,  -0.0728830322623,   0.0953533574939,   0.0270211230963,   0.2815149426460,  -0.0464320667088,   0.1920591145754,   0.1136269643903,  -0.1378373950720,   0.1680280715227,  -0.3335553705692,   0.1182790845633,  -0.2075977921486,  -0.2286303937435,   0.0271135047078,   0.2490712553263,   0.1166381388903,  -0.1421623826027,  -0.2001259177923,  -0.3493475317955,   0.1923113763332,   0.1209691986442,   0.0262422300875,   0.2959249019623,  -0.4791370928288,   0.3210212588310,   0.3733429610729,  -0.0842961221933,  -0.1451985239983,  -0.2791219651699,   0.0146617284045,  -0.2131837010384,  -0.1597895771265,  -0.0096534658223,   0.3450159132481,   0.0381072014570,  -0.1844185739756,   0.1180339753628,  -0.1980252116919,  -0.3095524907112,  -0.3248074352741,  -0.1214650273323,   0.1818179041147,  -0.0789701715112,  -0.1764878928661,   0.3659180998802,  -0.0484618656337,  -0.1225332543254,  -0.0834593325853,   0.2333767116070,  -0.0949959382415,  -0.3478030562401,  -0.1028794646263,  -0.4036992490292,  -0.0220911316574,   0.0725234374404,  -0.1548135578632,   0.1382281780243,  -0.0504157058895,   0.1287096142769,   0.1102875098586,   0.4564337730408,  -0.0826735645533,  -0.2085919976234,  -0.0946193560958,   0.1321332603693,  -0.1408905833960,   0.0389848612249,  -0.1444858908653,   0.0084172552451,  -0.1112232655287,  -0.1247653067112,  -0.2198248654604,  -0.2232729643583,  -0.0519503206015,  -0.2363937199116,  -0.2014729976654,  -0.0542684197426,   0.0588810555637,   0.0174974426627,  -0.1363565772772,  -0.3104197382927,   0.2783175110817},
